SVM-light Version V6.01
0 # kernel type
3 # kernel parameter -d
1.0 # kernel parameter -g
1.0 # kernel parameter -s
0.0 # kernel parameter -r
empty# kernel parameter -u
31 # highest feature index
1700 # number of training documents
1105 # number of support vectors plus 1
-1.6485836792781683 # threshold b, each following line is a SV (starting with alpha*y)
0.03979064160352653 1:1.0 2:0.9377990365028381 3:-1.0 4:-1.0 5:0.32274267077445984 6:-0.943909227848053 7:0.2700296640396118 8:-0.8141891956329346 9:-0.5 10:0.0 11:-0.30000001192092896 12:0.0 13:1.0 14:0.0 15:1.0 16:1.0 17:1.0 18:0.0 19:1.0 20:0.0 21:-1.0 22:0.0 23:0.0 24:0.0 25:-1.0 26:-0.3333333432674408 27:-1.0 28:-1.0 29:-0.3333333432674408 30:-1.0 31:0.0
-0.061553005264459004 1:-0.43978601694107056 2:-0.5394737124443054 3:-1.0 4:-1.0 5:-0.8592171669006348 6:-0.9993577599525452 7:-0.9450549483299255 8:-0.8636363744735718 9:-1.0 10:0.0 11:-1.0 12:-1.0 13:-1.0 14:0.0 15:-1.0 16:-1.0 17:-1.0 18:0.0 19:-1.0 20:0.0 21:1.0 22:0.0 23:0.0 24:0.0 25:-1.0 26:-1.0 27:-1.0 28:-1.0 29:-1.0 30:-1.0 31:0.0
0.03249378278039927 1:-0.43978601694107056 2:-0.3684210479259491 3:-0.6671837568283081 4:-0.4612034559249878 5:-0.6785190105438232 6:-0.7326054573059082 7:-0.8876404762268066 8:-0.885496199131012 9:-0.5 10:0.0 11:-0.800000011920929 12:0.0 13:-1.0 14:0.0 15:-1.0 16:-1.0 17:-1.0 18:0.0 19:-1.0 20:0.0 21:1.0 22:0.0 23:0.0 24:0.0 25:0.0 26:-0.3333333432674408 27:-0.3333333432674408 28:0.0 29:-0.3333333432674408 30:-0.3333333432674408 31:0.0
-0.061553005264459004 1:-0.5125521421432495 2:-0.4172932207584381 3:-0.7740037441253662 4:-0.6028240323066711 5:-0.6785190105438232 6:-0.9833012223243713 7:-0.9220778942108154 8:-0.8239436745643616 9:-0.5 10:0.0 11:-0.6000000238418579 12:0.0 13:-1.0 14:0.0 15:-1.0 16:-1.0 17:-1.0 18:0.0 19:-1.0 20:0.0 21:1.0 22:0.0 23:0.0 24:0.0 25:0.0 26:-0.3333333432674408 27:-0.3333333432674408 28:0.0 29:-0.3333333432674408 30:-0.3333333432674408 31:0.0
-0.061553005264459004 1:0.16804420948028564 2:0.4712918698787689 3:-1.0 4:-1.0 5:-0.17004747688770294 6:-0.9850139021873474 7:-0.9173553586006165 8:-0.7222222089767456 9:-0.5 10:0.0 11:1.0 12:0.0 13:1.0 14:0.0 15:-1.0 16:-1.0 17:-1.0 18:0.0 19:-1.0 20:0.0 21:1.0 22:0.0 23:0.0 24:0.0 25:-1.0 26:-1.0 27:-1.0 28:-1.0 29:-1.0 30:-1.0 31:0.0
0.061553005264459004 1:0.4984239339828491 2:0.5296052694320679 3:-1.0 4:-1.0 5:-0.28185129165649414 6:-0.9972168803215027 7:-0.7677984833717346 8:-0.5 9:-0.5 10:0.0 11:0.10000000149011612 12:0.0 13:1.0 14:0.0 15:1.0 16:-1.0 17:-1.0 18:0.0 19:-1.0 20:0.0 21:-1.0 22:0.0 23:0.0 24:0.0 25:-1.0 26:-1.0 27:-1.0 28:-1.0 29:-1.0 30:-1.0 31:0.0
0.061553005264459004 1:-0.580295741558075 2:-0.4617224931716919 3:-0.7457663416862488 4:-0.5630825161933899 5:-0.6785190105438232 6:-0.9974309802055359 7:-0.8395721912384033 8:-0.8214285969734192 9:-0.5 10:0.0 11:-0.699999988079071 12:0.0 13:-1.0 14:0.0 15:-1.0 16:-1.0 17:-1.0 18:0.0 19:-1.0 20:0.0 21:1.0 22:0.0 23:0.0 24:0.0 25:0.0 26:-0.3333333432674408 27:-0.3333333432674408 28:0.0 29:-0.3333333432674408 30:-0.3333333432674408 31:0.0
0.061553005264459004 1:-0.2757568061351776 2:-0.4325657784938812 3:-0.7800507545471191 4:-0.8110977411270142 5:-0.8592171669006348 6:-0.9980732202529907 7:-0.7950819730758667 8:-0.6813725233078003 9:-0.5 10:0.0 11:-0.6000000238418579 12:0.0 13:-1.0 14:0.0 15:-1.0 16:-1.0 17:-1.0 18:0.0 19:-1.0 20:0.0 21:1.0 22:0.0 23:0.0 24:0.0 25:0.0 26:-0.3333333432674408 27:-0.3333333432674408 28:0.0 29:-0.3333333432674408 30:-0.3333333432674408 31:0.0
-0.061553005264459004 1:-0.5125521421432495 2:-0.7910216450691223 3:-0.8161704540252686 4:-1.0 5:-1.0 6:-0.9997859001159668 7:-0.890315055847168 8:-0.9528301954269409 9:-0.5 10:0.0 11:-0.4000000059604645 12:0.0 13:-1.0 14:0.0 15:-1.0 16:-1.0 17:-1.0 18:0.0 19:-1.0 20:0.0 21:-1.0 22:0.0 23:0.0 24:0.0 25:-1.0 26:-1.0 27:-1.0 28:-1.0 29:-1.0 30:-1.0 31:0.0
0.061553005264459004 1:-0.36119264364242554 2:-0.7105262875556946 3:-0.7964426875114441 4:-1.0 5:-1.0 6:-0.9963605403900146 7:-0.8515675067901611 8:-0.778761088848114 9:-0.5 10:0.0 11:-0.10000000149011612 12:0.0 13:-1.0 14:0.0 15:-1.0 16:-1.0 17:-1.0 18:0.0 19:-1.0 20:0.0 21:-1.0 22:0.0 23:0.0 24:0.0 25:-1.0 26:-1.0 27:-1.0 28:-1.0 29:-0.3333333432674408 30:-1.0 31:0.0
-0.061553005264459004 1:0.4984239339828491 2:0.6008771657943726 3:-0.7132524251937866 4:-0.08678607642650604 5:-0.182648167014122 6:-0.9961464405059814 7:-0.7808823585510254 8:-0.7979797720909119 9:0.0 10:0.0 11:0.10000000149011612 12:0.0 13:1.0 14:0.0 15:1.0 16:-1.0 17:-1.0 18:0.0 19:-1.0 20:0.0 21:-1.0 22:0.0 23:0.0 24:0.0 25:-1.0 26:-1.0 27:-1.0 28:-1.0 29:-1.0 30:-1.0 31:0.0
-0.061553005264459004 1:0.4984239339828491 2:0.4379699230194092 3:-1.0 4:-1.0 5:-0.4276271164417267 6:-0.999143660068512 7:-0.8177874088287354 8:-0.4354838728904724 9:-0.5 10:0.0 11:0.20000000298023224 12:0.0 13:-1.0 14:0.0 15:1.0 16:-1.0 17:-1.0 18:0.0 19:-1.0 20:0.0 21:-1.0 22:0.0 23:0.0 24:0.0 25:-1.0 26:-1.0 27:-1.0 28:-1.0 29:-1.0 30:-1.0 31:0.0
-0.061553005264459004 1:1.0 2:0.8503289222717285 3:-1.0 4:-1.0 5:0.1413787603378296 6:-0.9210019111633301 7:1.0 8:-0.021739130839705467 9:-0.5 10:0.0 11:0.5 12:0.0 13:1.0 14:0.0 15:-1.0 16:-1.0 17:-1.0 18:0.0 19:1.0 20:0.0 21:-1.0 22:0.0 23:0.0 24:0.0 25:-1.0 26:-1.0 27:-1.0 28:-1.0 29:-1.0 30:-1.0 31:0.0
-0.061553005264459004 1:-0.07871966063976288 2:-0.5394737124443054 3:-0.8082641363143921 4:-1.0 5:-1.0 6:-0.9657461047172546 7:-0.7215569019317627 8:-0.5103092789649963 9:0.0 10:0.0 11:-0.699999988079071 12:1.0 13:-1.0 14:0.0 15:1.0 16:-1.0 17:-1.0 18:0.0 19:-1.0 20:0.0 21:1.0 22:0.0 23:0.0 24:0.0 25:1.0 26:-0.3333333432674408 27:-0.3333333432674408 28:0.0 29:0.3333333432674408 30:0.3333333432674408 31:0.0
-0.061553005264459004 1:0.4984239339828491 2:0.5296052694320679 3:-0.6856774687767029 4:-0.3192594647407532 5:-0.5295780897140503 6:-0.9486191272735596 7:-0.7810945510864258 8:-0.5353025794029236 9:0.0 10:0.0 11:-0.30000001192092896 12:1.0 13:1.0 14:0.0 15:-1.0 16:-1.0 17:-1.0 18:0.0 19:-1.0 20:0.0 21:1.0 22:0.0 23:0.0 24:0.0 25:0.0 26:-0.3333333432674408 27:-0.3333333432674408 28:-1.0 29:-0.3333333432674408 30:-0.3333333432674408 31:0.0
0.061553005264459004 1:-0.6436656713485718 2:-0.8545706272125244 3:-0.7613582611083984 4:-1.0 5:-1.0 6:-0.994861900806427 7:-0.8765432238578796 8:-0.6788991093635559 9:-1.0 10:0.0 11:-1.0 12:-1.0 13:-1.0 14:0.0 15:-1.0 16:-1.0 17:-1.0 18:0.0 19:-1.0 20:0.0 21:-1.0 22:0.0 23:0.0 24:0.0 25:0.0 26:-0.3333333432674408 27:-0.3333333432674408 28:0.0 29:-0.3333333432674408 30:-0.3333333432674408 31:0.0
0.061553005264459004 1:-0.7031925320625305 2:-0.8815789222717285 3:-1.0 4:-1.0 5:-1.0 6:-0.9997859001159668 7:-0.9461883306503296 8:-0.96875 9:-1.0 10:0.0 11:-1.0 12:-1.0 13:-1.0 14:0.0 15:-1.0 16:-1.0 17:-1.0 18:0.0 19:-1.0 20:0.0 21:-1.0 22:0.0 23:0.0 24:0.0 25:-1.0 26:-1.0 27:-1.0 28:-1.0 29:-1.0 30:-1.0 31:0.0
0.061553005264459004 1:-0.7593159675598145 2:-0.9060150384902954 3:-1.0 4:-1.0 5:-1.0 6:-0.9995718002319336 7:-0.8500000238418579 8:-0.807692289352417 9:-1.0 10:0.0 11:-1.0 12:-1.0 13:-1.0 14:0.0 15:-1.0 16:-1.0 17:-1.0 18:0.0 19:-1.0 20:0.0 21:-1.0 22:0.0 23:0.0 24:0.0 25:-1.0 26:-1.0 27:-1.0 28:-1.0 29:-1.0 30:-1.0 31:0.0
0.061553005264459004 1:-0.5125521421432495 2:-0.7910216450691223 3:-0.7768200039863586 4:-1.0 5:-1.0 6:-0.9646756649017334 7:-0.9317269325256348 8:-0.6929824352264404 9:-1.0 10:0.0 11:-1.0 12:-1.0 13:-1.0 14:0.0 15:-1.0 16:-1.0 17:-1.0 18:0.0 19:-1.0 20:0.0 21:1.0 22:0.0 23:0.0 24:0.0 25:0.0 26:-0.3333333432674408 27:-0.3333333432674408 28:0.0 29:-0.3333333432674408 30:-0.3333333432674408 31:0.0
-0.061553005264459004 1:-0.18217240273952484 2:-0.3684210479259491 3:-0.8290050029754639 4:-0.8502721190452576 5:-0.8592171669006348 6:-0.9995718002319336 7:-0.9636363387107849 8:-0.9350649118423462 9:-0.5 10:0.0 11:-0.5 12:0.0 13:-1.0 14:0.0 15:-1.0 16:-1.0 17:-1.0 18:0.0 19:-1.0 20:0.0 21:-1.0 22:0.0 23:0.0 24:0.0 25:-1.0 26:-1.0 27:-1.0 28:-1.0 29:-1.0 30:-1.0 31:0.0
0.061553005264459004 1:-0.36119264364242554 2:-0.7105262875556946 3:-0.7668724656105042 4:-1.0 5:-1.0 6:-0.9678869843482971 7:-0.7487142086029053 8:-0.7284736037254333 9:-0.5 10:0.0 11:-0.699999988079071 12:0.0 13:-1.0 14:0.0 15:-1.0 16:-1.0 17:-1.0 18:0.0 19:-1.0 20:0.0 21:1.0 22:0.0 23:0.0 24:0.0 25:0.0 26:-0.3333333432674408 27:-0.3333333432674408 28:0.0 29:-0.3333333432674408 30:-0.3333333432674408 31:0.0
-0.061553005264459004 1:-0.43978601694107056 2:-0.7532894611358643 3:-0.7743163704872131 4:-1.0 5:-1.0 6:-0.8882466554641724 7:-0.5614457726478577 8:0.5189873576164246 9:-1.0 10:0.0 11:-1.0 12:-1.0 13:-1.0 14:0.0 15:-1.0 16:-1.0 17:-1.0 18:0.0 19:-1.0 20:0.0 21:1.0 22:0.0 23:0.0 24:0.0 25:0.0 26:-0.3333333432674408 27:-0.3333333432674408 28:0.0 29:-0.3333333432674408 30:-0.3333333432674408 31:0.0
0.061553005264459004 1:0.31940367817878723 2:0.49584487080574036 3:-1.0 4:-1.0 5:-0.1359175443649292 6:-0.9976450204849243 7:-0.8935108184814453 8:-0.6527777910232544 9:-0.5 10:0.0 11:0.4000000059604645 12:0.0 13:1.0 14:0.0 15:1.0 16:-1.0 17:-1.0 18:0.0 19:-1.0 20:0.0 21:-1.0 22:0.0 23:0.0 24:0.0 25:-1.0 26:-1.0 27:-1.0 28:-1.0 29:-1.0 30:-1.0 31:0.0
-0.061553005264459004 1:1.0 2:0.8859649300575256 3:-0.5830963850021362 4:0.12031441926956177 5:-0.17725986242294312 6:-0.9454078078269958 7:-0.5916897654533386 8:-0.9027916193008423 9:-1.0 10:0.0 11:-1.0 12:-1.0 13:1.0 14:0.0 15:-1.0 16:-1.0 17:-1.0 18:0.0 19:1.0 20:0.0 21:-1.0 22:0.0 23:0.0 24:0.0 25:0.0 26:0.3333333432674408 27:0.3333333432674408 28:1.0 29:0.3333333432674408 30:-0.3333333432674408 31:0.0
-0.061553005264459004 1:-0.07871966063976288 2:0.030701754614710808 3:-1.0 4:-1.0 5:-0.5928457975387573 6:-0.999143660068512 7:-0.9321357011795044 8:-0.8369565010070801 9:-0.5 10:0.0 11:0.0 12:0.0 13:-1.0 14:0.0 15:-1.0 16:-1.0 17:-1.0 18:0.0 19:-1.0 20:0.0 21:-1.0 22:0.0 23:0.0 24:0.0 25:-1.0 26:-1.0 27:-1.0 28:-1.0 29:-1.0 30:-1.0 31:0.0
-0.061553005264459004 1:-0.5125521421432495 2:-0.7910216450691223 3:-1.0 4:-1.0 5:-1.0 6:-0.9989295601844788 7:-0.9887121319770813 8:-1.0 9:-0.5 10:0.0 11:-0.5 12:0.0 13:-1.0 14:0.0 15:1.0 16:-1.0 17:-1.0 18:0.0 19:-1.0 20:0.0 21:1.0 22:0.0 23:0.0 24:0.0 25:-1.0 26:-1.0 27:-1.0 28:-1.0 29:-1.0 30:-1.0 31:0.0
-0.061553005264459004 1:-0.812404215335846 2:-0.9282296895980835 3:-1.0 4:-1.0 5:-1.0 6:-0.9985014200210571 7:-0.99250727891922 8:-0.510869562625885 9:-0.5 10:0.0 11:-0.5 12:0.0 13:-1.0 14:0.0 15:1.0 16:-1.0 17:-1.0 18:0.0 19:-1.0 20:0.0 21:1.0 22:0.0 23:0.0 24:0.0 25:-1.0 26:-1.0 27:-1.0 28:-1.0 29:-1.0 30:-1.0 31:0.0
-0.061553005264459004 1:-0.7031925320625305 2:-0.8815789222717285 3:-1.0 4:-1.0 5:-1.0 6:-0.9982873201370239 7:-0.706250011920929 8:-0.675000011920929 9:-0.5 10:0.0 11:0.800000011920929 12:0.0 13:-1.0 14:0.0 15:1.0 16:-1.0 17:-1.0 18:0.0 19:-1.0 20:0.0 21:1.0 22:0.0 23:0.0 24:0.0 25:-1.0 26:-1.0 27:-1.0 28:-1.0 29:-1.0 30:-1.0 31:0.0
0.061553005264459004 1:-0.18217240273952484 2:0.0714285746216774 3:-0.7493331432342529 4:-0.4207155406475067 5:-0.5295780897140503 6:-0.9961464405059814 7:-0.6212766170501709 8:-0.8513513803482056 9:-0.5 10:0.0 11:-0.4000000059604645 12:0.0 13:1.0 14:0.0 15:-1.0 16:-1.0 17:-1.0 18:0.0 19:-1.0 20:0.0 21:1.0 22:0.0 23:0.0 24:0.0 25:0.0 26:-1.0 27:-1.0 28:0.0 29:-1.0 30:-1.0 31:0.0
0.061553005264459004 1:-0.36119264364242554 2:-0.4891640841960907 3:-1.0 4:-1.0 5:-0.8592171669006348 6:-0.9980732202529907 7:-0.9513677954673767 8:-0.8417721390724182 9:-1.0 10:0.0 11:-1.0 12:-1.0 13:-1.0 14:0.0 15:-1.0 16:-1.0 17:-1.0 18:0.0 19:-1.0 20:0.0 21:1.0 22:0.0 23:0.0 24:0.0 25:-1.0 26:-1.0 27:-1.0 28:-1.0 29:-1.0 30:-1.0 31:0.0
0.061553005264459004 1:1.0 2:0.9736841917037964 3:-1.0 4:-1.0 5:0.42976415157318115 6:-0.9828730225563049 7:0.9988653063774109 8:-0.04545454680919647 9:-0.5 10:0.0 11:0.699999988079071 12:0.0 13:1.0 14:0.0 15:-1.0 16:-1.0 17:-1.0 18:0.0 19:1.0 20:0.0 21:-1.0 22:0.0 23:0.0 24:0.0 25:-1.0 26:-1.0 27:-1.0 28:-1.0 29:-1.0 30:-1.0 31:0.0
-0.061553005264459004 1:1.0 2:0.9572368264198303 3:-1.0 4:-1.0 5:0.6360564231872559 6:-0.9830871224403381 7:0.7620818018913269 8:-0.5786516666412354 9:-1.0 10:0.0 11:-1.0 12:-1.0 13:1.0 14:0.0 15:-1.0 16:-1.0 17:-1.0 18:0.0 19:1.0 20:0.0 21:1.0 22:0.0 23:0.0 24:0.0 25:-1.0 26:-1.0 27:-0.3333333432674408 28:-1.0 29:-1.0 30:-1.0 31:0.0
-0.061553005264459004 1:1.0 2:0.8045112490653992 3:-1.0 4:-1.0 5:-0.08820884674787521 6:-0.9045172333717346 7:0.9813717007637024 8:-0.1111111119389534 9:-0.5 10:0.0 11:-0.30000001192092896 12:0.0 13:-1.0 14:0.0 15:-1.0 16:-1.0 17:-1.0 18:0.0 19:1.0 20:0.0 21:-1.0 22:0.0 23:0.0 24:0.0 25:-1.0 26:-1.0 27:-1.0 28:-1.0 29:-1.0 30:-1.0 31:0.0
-0.061553005264459004 1:0.7175269722938538 2:0.5789473652839661 3:-0.29952630400657654 4:0.4830026626586914 5:-0.020985623821616173 6:-0.9955042004585266 7:-0.6660834550857544 8:-0.6907216310501099 9:-0.5 10:0.0 11:-0.20000000298023224 12:0.0 13:1.0 14:0.0 15:-1.0 16:-1.0 17:-1.0 18:0.0 19:-1.0 20:0.0 21:1.0 22:0.0 23:0.0 24:0.0 25:0.0 26:-0.3333333432674408 27:-0.3333333432674408 28:0.0 29:-0.3333333432674408 30:-0.3333333432674408 31:0.0
-0.061553005264459004 1:0.7175269722938538 2:0.6578947305679321 3:-0.47702884674072266 4:0.450421541929245 5:0.2262735664844513 6:-0.9663883447647095 7:-0.5134502649307251 8:-0.5760233998298645 9:-0.5 10:0.0 11:0.5 12:0.0 13:1.0 14:0.0 15:-1.0 16:-1.0 17:-1.0 18:0.0 19:-1.0 20:0.0 21:1.0 22:0.0 23:0.0 24:0.0 25:-1.0 26:-1.0 27:-1.0 28:-1.0 29:-1.0 30:-1.0 31:0.0
0.061553005264459004 1:-0.6436656713485718 2:-0.8545706272125244 3:-1.0 4:-1.0 5:-1.0 6:-0.9995718002319336 7:-0.9354838728904724 8:-0.8986486196517944 9:-0.5 10:0.0 11:0.4000000059604645 12:0.0 13:-1.0 14:0.0 15:1.0 16:-1.0 17:-1.0 18:0.0 19:-1.0 20:0.0 21:-1.0 22:0.0 23:0.0 24:0.0 25:-1.0 26:-1.0 27:-1.0 28:-1.0 29:-1.0 30:-1.0 31:0.0
0.061553005264459004 1:-0.6436656713485718 2:-0.8545706272125244 3:-1.0 4:-1.0 5:-1.0 6:-0.994005560874939 7:-0.7675804495811462 8:-0.1517857164144516 9:-0.5 10:0.0 11:0.800000011920929 12:0.0 13:-1.0 14:0.0 15:1.0 16:-1.0 17:-1.0 18:0.0 19:-1.0 20:0.0 21:1.0 22:0.0 23:0.0 24:0.0 25:-1.0 26:-1.0 27:-1.0 28:-1.0 29:-1.0 30:-1.0 31:0.0
0.038420762232855954 1:-0.6436656713485718 2:-0.8545706272125244 3:-1.0 4:-1.0 5:-1.0 6:-0.994005560874939 7:-0.7180883288383484 8:-0.15322580933570862 9:-0.5 10:0.0 11:0.800000011920929 12:0.0 13:-1.0 14:0.0 15:1.0 16:-1.0 17:-1.0 18:0.0 19:-1.0 20:0.0 21:1.0 22:0.0 23:0.0 24:0.0 25:-1.0 26:-1.0 27:-1.0 28:-1.0 29:-1.0 30:-1.0 31:0.0
0.061553005264459004 1:-0.7593159675598145 2:-0.9060150384902954 3:-1.0 4:-1.0 5:-1.0 6:-1.0 7:-0.9973997473716736 8:-1.0 9:-0.5 10:0.0 11:-0.6000000238418579 12:0.0 13:-1.0 14:0.0 15:1.0 16:-1.0 17:-1.0 18:0.0 19:-1.0 20:0.0 21:-1.0 22:0.0 23:0.0 24:0.0 25:-1.0 26:-1.0 27:-1.0 28:-1.0 29:-1.0 30:-1.0 31:0.0
0.061553005264459004 1:-0.7031925320625305 2:-0.8815789222717285 3:-1.0 4:-1.0 5:-1.0 6:-0.9997859001159668 7:-0.9400749206542969 8:-0.9867724776268005 9:-0.5 10:0.0 11:-0.6000000238418579 12:0.0 13:-1.0 14:0.0 15:1.0 16:-1.0 17:-1.0 18:0.0 19:-1.0 20:0.0 21:1.0 22:0.0 23:0.0 24:0.0 25:-1.0 26:-1.0 27:-1.0 28:-1.0 29:-1.0 30:-1.0 31:0.0
0.061553005264459004 1:-0.07871966063976288 2:-0.2951127886772156 3:-1.0 4:-1.0 5:-0.8890299797058105 6:-0.9905802011489868 7:-0.8653036952018738 8:-0.7727272510528564 9:0.0 10:0.0 11:-0.10000000149011612 12:0.0 13:-1.0 14:0.0 15:1.0 16:-1.0 17:-1.0 18:0.0 19:-1.0 20:0.0 21:1.0 22:0.0 23:0.0 24:0.0 25:-1.0 26:-1.0 27:-1.0 28:-1.0 29:-1.0 30:-1.0 31:0.0
-0.061553005264459004 1:-0.6436656713485718 2:-0.8545706272125244 3:-1.0 4:-1.0 5:-1.0 6:-1.0 7:-0.9906759858131409 8:-1.0 9:-0.5 10:0.0 11:0.20000000298023224 12:0.0 13:-1.0 14:0.0 15:1.0 16:-1.0 17:-1.0 18:0.0 19:-1.0 20:0.0 21:1.0 22:0.0 23:0.0 24:0.0 25:-1.0 26:-1.0 27:-1.0 28:-1.0 29:-1.0 30:-1.0 31:0.0
0.061553005264459004 1:-0.2757568061351776 2:-0.4325657784938812 3:-1.0 4:-1.0 5:-0.8592171669006348 6:-0.9220723509788513 7:-0.9780219793319702 8:-1.0 9:0.0 10:0.0 11:-0.5 12:1.0 13:1.0 14:0.0 15:-1.0 16:-1.0 17:-1.0 18:0.0 19:-1.0 20:0.0 21:1.0 22:0.0 23:0.0 24:0.0 25:-1.0 26:-1.0 27:-1.0 28:-1.0 29:-1.0 30:-1.0 31:0.0
0.061553005264459004 1:-0.07871966063976288 2:-0.2951127886772156 3:-1.0 4:-1.0 5:-0.8592171669006348 6:-0.9882252216339111 7:-0.8369876146316528 8:-0.656593382358551 9:-1.0 10:0.0 11:-1.0 12:-1.0 13:-1.0 14:0.0 15:-1.0 16:-1.0 17:-1.0 18:0.0 19:-1.0 20:0.0 21:1.0 22:0.0 23:0.0 24:0.0 25:-1.0 26:-1.0 27:-1.0 28:-1.0 29:-1.0 30:-1.0 31:0.0
0.061553005264459004 1:-0.2757568061351776 2:-0.4325657784938812 3:-0.7974604368209839 4:-0.8248561024665833 5:-0.8592171669006348 6:-0.9987154603004456 7:-0.8436090350151062 8:-0.6385542154312134 9:-0.5 10:0.0 11:-0.10000000149011612 12:0.0 13:-1.0 14:0.0 15:-1.0 16:-1.0 17:-1.0 18:0.0 19:-1.0 20:0.0 21:1.0 22:0.0 23:0.0 24:0.0 25:0.0 26:-0.3333333432674408 27:-1.0 28:-1.0 29:-1.0 30:-1.0 31:0.0
0.061553005264459004 1:-0.580295741558075 2:-0.8245614171028137 3:-1.0 4:-1.0 5:-1.0 6:-0.9967886805534363 7:-0.9730061292648315 8:-0.9031890630722046 9:-0.5 10:0.0 11:-0.10000000149011612 12:0.0 13:-1.0 14:0.0 15:1.0 16:-1.0 17:-1.0 18:0.0 19:-1.0 20:0.0 21:-1.0 22:0.0 23:0.0 24:0.0 25:-1.0 26:-1.0 27:-1.0 28:-1.0 29:-1.0 30:-1.0 31:0.0
-0.061553005264459004 1:0.03693067282438278 2:-0.02631578966975212 3:-0.6980423927307129 4:-0.4997684955596924 5:-0.6785190105438232 6:-0.898094654083252 7:-0.8837025165557861 8:-0.5025839805603027 9:-0.5 10:0.0 11:-0.699999988079071 12:0.0 13:-1.0 14:0.0 15:1.0 16:-1.0 17:-1.0 18:0.0 19:-1.0 20:0.0 21:-1.0 22:0.0 23:0.0 24:0.0 25:0.0 26:-0.3333333432674408 27:-0.3333333432674408 28:0.0 29:-0.3333333432674408 30:-0.3333333432674408 31:0.0
-0.061553005264459004 1:0.16804420948028564 2:0.31578946113586426 3:-0.6434959769248962 4:-0.258773535490036 5:-0.5295780897140503 6:-0.9927210211753845 7:-0.9098196625709534 8:-0.8659003973007202 9:-0.5 10:0.0 11:-0.699999988079071 12:0.0 13:1.0 14:0.0 15:-1.0 16:-1.0 17:-1.0 18:0.0 19:-1.0 20:0.0 21:1.0 22:0.0 23:0.0 24:0.0 25:0.0 26:-0.3333333432674408 27:0.3333333432674408 28:1.0 29:0.3333333432674408 30:0.3333333432674408 31:0.0
-0.061553005264459004 1:-0.43978601694107056 2:-0.2284688949584961 3:-0.7326452136039734 4:-0.6324697136878967 5:-0.7526165843009949 6:-0.7923356890678406 7:-0.8352320194244385 8:-0.8432745933532715 9:-0.5 10:0.0 11:-0.699999988079071 12:0.0 13:1.0 14:0.0 15:-1.0 16:-1.0 17:-1.0 18:0.0 19:-1.0 20:0.0 21:1.0 22:0.0 23:0.0 24:0.0 25:0.0 26:-0.3333333432674408 27:0.3333333432674408 28:1.0 29:0.3333333432674408 30:0.3333333432674408 31:0.0
-0.061553005264459004 1:-0.18217240273952484 2:-0.1873065084218979 3:-0.7832706570625305 4:-0.5125530958175659 5:-0.5668150186538696 6:-0.9997859001159668 7:-0.9938971400260925 8:-0.9418604373931885 9:-0.5 10:0.0 11:0.699999988079071 12:0.0 13:-1.0 14:0.0 15:1.0 16:-1.0 17:-1.0 18:0.0 19:-1.0 20:0.0 21:-1.0 22:0.0 23:0.0 24:0.0 25:0.0 26:-1.0 27:-0.3333333432674408 28:0.0 29:0.3333333432674408 30:-0.3333333432674408 31:0.0
0.061553005264459004 1:0.4984239339828491 2:0.6008771657943726 3:-1.0 4:-1.0 5:-0.1359175443649292 6:-0.963391125202179 7:-0.9888476133346558 8:-0.9728260636329651 9:-0.5 10:0.0 11:-0.5 12:0.0 13:1.0 14:0.0 15:-1.0 16:-1.0 17:-1.0 18:0.0 19:-1.0 20:0.0 21:1.0 22:0.0 23:0.0 24:0.0 25:-1.0 26:-1.0 27:-1.0 28:-1.0 29:-1.0 30:-1.0 31:0.0
0.061553005264459004 1:-0.2757568061351776 2:-0.25438597798347473 3:-0.7760820388793945 4:-0.5000697374343872 5:-0.5668150186538696 6:-0.9989295601844788 7:-0.9196786880493164 8:-0.765625 9:-0.5 10:0.0 11:-0.699999988079071 12:0.0 13:-1.0 14:0.0 15:-1.0 16:-1.0 17:-1.0 18:0.0 19:-1.0 20:0.0 21:1.0 22:0.0 23:0.0 24:0.0 25:-1.0 26:-1.0 27:-1.0 28:-1.0 29:-1.0 30:-1.0 31:0.0
0.061553005264459004 1:0.31940367817878723 2:0.6132723093032837 3:-1.0 4:-1.0 5:0.3084484338760376 6:-0.9985014200210571 7:-0.9744513630867004 8:-0.9044585824012756 9:-0.5 10:0.0 11:-0.10000000149011612 12:0.0 13:1.0 14:0.0 15:-1.0 16:-1.0 17:-1.0 18:0.0 19:-1.0 20:0.0 21:1.0 22:0.0 23:0.0 24:0.0 25:-1.0 26:-1.0 27:-1.0 28:-1.0 29:-1.0 30:-1.0 31:0.0
0.061553005264459004 1:0.03693067282438278 2:-0.02631578966975212 3:-0.7768810987472534 4:-0.6069748997688293 5:-0.6785190105438232 6:-0.9803040027618408 7:-0.9618120789527893 8:-0.6428571343421936 9:-0.5 10:0.0 11:-0.6000000238418579 12:0.0 13:-1.0 14:0.0 15:-1.0 16:-1.0 17:-1.0 18:0.0 19:-1.0 20:0.0 21:1.0 22:0.0 23:0.0 24:0.0 25:0.0 26:-0.3333333432674408 27:-0.3333333432674408 28:0.0 29:-0.3333333432674408 30:-0.3333333432674408 31:0.0
-0.061553005264459004 1:0.4984239339828491 2:0.7763158082962036 3:-1.0 4:-1.0 5:0.2697204649448395 6:-0.9995718002319336 7:-0.6688086986541748 8:-0.5535714030265808 9:-0.5 10:0.0 11:-0.4000000059604645 12:0.0 13:1.0 14:0.0 15:-1.0 16:-1.0 17:-1.0 18:0.0 19:-1.0 20:0.0 21:1.0 22:0.0 23:0.0 24:0.0 25:-1.0 26:-1.0 27:-1.0 28:-1.0 29:-1.0 30:-1.0 31:0.0
-0.061553005264459004 1:0.7175269722938538 2:0.7182662487030029 3:-0.6690718531608582 4:0.008590390905737877 5:-0.15484772622585297 6:-0.9972168803215027 7:-0.8687746524810791 8:-0.8691099286079407 9:-0.5 10:0.0 11:0.699999988079071 12:0.0 13:1.0 14:0.0 15:-1.0 16:-1.0 17:-1.0 18:0.0 19:-1.0 20:0.0 21:1.0 22:0.0 23:0.0 24:0.0 25:-1.0 26:-1.0 27:-1.0 28:-1.0 29:-1.0 30:-1.0 31:0.0
-0.061553005264459004 1:0.31940367817878723 2:0.5601503849029541 3:-0.38335752487182617 4:0.3546385169029236 5:-0.13957002758979797 6:-0.9854421019554138 7:-0.8728139996528625 8:-0.8563218116760254 9:-0.5 10:0.0 11:-0.6000000238418579 12:0.0 13:1.0 14:0.0 15:-1.0 16:-1.0 17:-1.0 18:0.0 19:-1.0 20:0.0 21:1.0 22:0.0 23:0.0 24:0.0 25:-1.0 26:-1.0 27:-1.0 28:-1.0 29:-1.0 30:-1.0 31:0.0
-0.061553005264459004 1:0.16804420948028564 2:0.4013157784938812 3:-0.6752558350563049 4:0.06303136050701141 5:-0.048557400703430176 6:-0.9295654296875 7:-0.9356973767280579 8:-0.905063271522522 9:0.0 10:0.0 11:-0.699999988079071 12:1.0 13:1.0 14:0.0 15:-1.0 16:-1.0 17:-1.0 18:0.0 19:-1.0 20:0.0 21:1.0 22:0.0 23:0.0 24:0.0 25:-1.0 26:-1.0 27:-1.0 28:-1.0 29:-1.0 30:-1.0 31:0.0
-0.061553005264459004 1:0.4984239339828491 2:0.5296052694320679 3:-1.0 4:-1.0 5:-0.32071560621261597 6:-0.8777563571929932 7:-0.7630979418754578 8:0.5 9:-1.0 10:0.0 11:-1.0 12:-1.0 13:1.0 14:0.0 15:-1.0 16:-1.0 17:-1.0 18:0.0 19:-1.0 20:0.0 21:1.0 22:0.0 23:0.0 24:0.0 25:-1.0 26:-1.0 27:-1.0 28:-1.0 29:-1.0 30:-1.0 31:0.0
0.061553005264459004 1:-0.43978601694107056 2:-0.7532894611358643 3:-0.7642709612846375 4:-1.0 5:-1.0 6:-0.9730250239372253 7:-0.8776019811630249 8:-0.7703639268875122 9:-0.5 10:0.0 11:0.0 12:0.0 13:-1.0 14:0.0 15:-1.0 16:-1.0 17:-1.0 18:0.0 19:-1.0 20:0.0 21:1.0 22:0.0 23:0.0 24:0.0 25:0.0 26:-0.3333333432674408 27:0.3333333432674408 28:1.0 29:0.3333333432674408 30:0.3333333432674408 31:0.0
0.061553005264459004 1:-0.2757568061351776 2:-0.4325657784938812 3:-0.7943778038024902 4:-0.8224062323570251 5:-0.8592171669006348 6:-0.9967886805534363 7:-0.8153846263885498 8:-0.6839080452919006 9:-1.0 10:0.0 11:-1.0 12:-1.0 13:-1.0 14:0.0 15:-1.0 16:-1.0 17:-1.0 18:0.0 19:-1.0 20:0.0 21:1.0 22:0.0 23:0.0 24:0.0 25:-1.0 26:-0.3333333432674408 27:-0.3333333432674408 28:0.0 29:-0.3333333432674408 30:-0.3333333432674408 31:0.0
0.061553005264459004 1:-0.2757568061351776 2:-0.4325657784938812 3:-0.7600732445716858 4:-0.7955393195152283 5:-0.8592171669006348 6:-0.9505459070205688 7:-0.9277108311653137 8:-0.8767605423927307 9:-1.0 10:0.0 11:-1.0 12:-1.0 13:-1.0 14:0.0 15:-1.0 16:-1.0 17:-1.0 18:0.0 19:-1.0 20:0.0 21:1.0 22:0.0 23:0.0 24:0.0 25:1.0 26:0.3333333432674408 27:-0.3333333432674408 28:1.0 29:0.3333333432674408 30:-0.3333333432674408 31:0.0
0.061553005264459004 1:-0.43978601694107056 2:-0.7532894611358643 3:-0.8143494129180908 4:-1.0 5:-1.0 6:-0.9987154603004456 7:-0.918749988079071 8:-0.8734177350997925 9:-0.5 10:0.0 11:0.10000000149011612 12:0.0 13:-1.0 14:0.0 15:1.0 16:-1.0 17:-1.0 18:0.0 19:-1.0 20:0.0 21:-1.0 22:0.0 23:0.0 24:0.0 25:0.0 26:-0.3333333432674408 27:-0.3333333432674408 28:0.0 29:-0.3333333432674408 30:-0.3333333432674408 31:0.0
-0.061553005264459004 1:-0.36119264364242554 2:-0.4891640841960907 3:-0.7736501097679138 4:-0.8060864806175232 5:-0.8592171669006348 6:-0.9995718002319336 7:-0.988095223903656 8:-0.9793388247489929 9:0.0 10:0.0 11:-0.20000000298023224 12:0.0 13:-1.0 14:0.0 15:-1.0 16:-1.0 17:-1.0 18:0.0 19:-1.0 20:0.0 21:1.0 22:0.0 23:0.0 24:0.0 25:0.0 26:-0.3333333432674408 27:-1.0 28:0.0 29:-0.3333333432674408 30:-1.0 31:0.0
-0.061553005264459004 1:-0.7031925320625305 2:-0.8815789222717285 3:-0.8069595098495483 4:-1.0 5:-1.0 6:-0.5628345012664795 7:-0.8023715615272522 8:-0.5243362784385681 9:-0.5 10:0.0 11:-0.30000001192092896 12:0.0 13:-1.0 14:0.0 15:-1.0 16:-1.0 17:-1.0 18:0.0 19:-1.0 20:0.0 21:1.0 22:0.0 23:0.0 24:0.0 25:0.0 26:-0.3333333432674408 27:-1.0 28:0.0 29:-1.0 30:-1.0 31:0.0
-0.061553005264459004 1:-0.6436656713485718 2:-0.6616541147232056 3:-0.793443500995636 4:-0.8216649293899536 5:-0.8592171669006348 6:-0.9905802011489868 7:-0.7833655476570129 8:-0.36538460850715637 9:-1.0 10:0.0 11:-1.0 12:-1.0 13:-1.0 14:0.0 15:-1.0 16:-1.0 17:-1.0 18:0.0 19:-1.0 20:0.0 21:1.0 22:0.0 23:0.0 24:0.0 25:0.0 26:-0.3333333432674408 27:-1.0 28:0.0 29:-1.0 30:-1.0 31:0.0
-0.061553005264459004 1:-0.580295741558075 2:-0.625 3:-0.7888957858085632 4:-0.8180642127990723 5:-0.8592171669006348 6:-0.9978591203689575 7:-0.8600000143051147 8:-0.7245762944221497 9:-0.5 10:0.0 11:0.20000000298023224 12:0.0 13:-1.0 14:0.0 15:-1.0 16:-1.0 17:-1.0 18:0.0 19:-1.0 20:0.0 21:1.0 22:0.0 23:0.0 24:0.0 25:-1.0 26:-0.3333333432674408 27:-0.3333333432674408 28:0.0 29:-1.0 30:-0.3333333432674408 31:0.0
0.061553005264459004 1:-0.18217240273952484 2:-0.6052631735801697 3:-0.8091487884521484 4:-1.0 5:-1.0 6:-0.8935987949371338 7:-0.8807106614112854 8:-0.7400000095367432 9:-0.5 10:0.0 11:-0.5 12:0.0 13:-1.0 14:0.0 15:-1.0 16:-1.0 17:-1.0 18:0.0 19:-1.0 20:0.0 21:1.0 22:0.0 23:0.0 24:0.0 25:-1.0 26:-1.0 27:-1.0 28:-1.0 29:-1.0 30:-1.0 31:0.0
0.061553005264459004 1:-0.2757568061351776 2:-0.4325657784938812 3:-0.7994551658630371 4:-0.8264445662498474 5:-0.8592171669006348 6:-0.44786983728408813 7:-0.8919891715049744 8:-0.7749999761581421 9:-0.5 10:0.0 11:0.4000000059604645 12:0.0 13:-1.0 14:0.0 15:-1.0 16:-1.0 17:-1.0 18:0.0 19:-1.0 20:0.0 21:1.0 22:0.0 23:0.0 24:0.0 25:-1.0 26:-0.3333333432674408 27:-1.0 28:-1.0 29:-1.0 30:-1.0 31:0.0
0.061553005264459004 1:0.4984239339828491 2:0.6008771657943726 3:-0.7097911238670349 4:0.02481931261718273 5:-0.007160508539527655 6:-0.9914365410804749 7:-0.7634408473968506 8:-0.656862735748291 9:-0.5 10:0.0 11:-0.30000001192092896 12:0.0 13:1.0 14:0.0 15:-1.0 16:-1.0 17:-1.0 18:0.0 19:-1.0 20:0.0 21:-1.0 22:0.0 23:0.0 24:0.0 25:-1.0 26:-1.0 27:-1.0 28:-1.0 29:-1.0 30:-1.0 31:0.0
0.061553005264459004 1:-0.2757568061351776 2:-0.6616541147232056 3:-0.8028485774993896 4:-1.0 5:-1.0 6:-0.9659602046012878 7:-0.8412186503410339 8:-0.5880829095840454 9:-0.5 10:0.0 11:-0.20000000298023224 12:0.0 13:-1.0 14:0.0 15:-1.0 16:-1.0 17:-1.0 18:0.0 19:-1.0 20:0.0 21:1.0 22:0.0 23:0.0 24:0.0 25:-1.0 26:-1.0 27:-1.0 28:-1.0 29:-1.0 30:-1.0 31:0.0
-0.061553005264459004 1:-0.18217240273952484 2:-0.3684210479259491 3:-0.7639649510383606 4:-0.7985512018203735 5:-0.8592171669006348 6:-0.9963605403900146 7:-0.9188311696052551 8:-0.8394495248794556 9:-1.0 10:0.0 11:-1.0 12:-1.0 13:-1.0 14:0.0 15:-1.0 16:-1.0 17:-1.0 18:0.0 19:-1.0 20:0.0 21:-1.0 22:0.0 23:0.0 24:0.0 25:-1.0 26:-1.0 27:-1.0 28:-1.0 29:-1.0 30:-1.0 31:0.0
-0.061553005264459004 1:0.31940367817878723 2:0.5601503849029541 3:-0.5864605903625488 4:0.2765582799911499 5:0.10612607002258301 6:-0.995718240737915 7:-0.8623853325843811 8:-0.8376623392105103 9:-0.5 10:0.0 11:-0.30000001192092896 12:0.0 13:1.0 14:0.0 15:-1.0 16:-1.0 17:-1.0 18:0.0 19:-1.0 20:0.0 21:-1.0 22:0.0 23:0.0 24:0.0 25:-1.0 26:-1.0 27:-1.0 28:-1.0 29:-1.0 30:-1.0 31:0.0
0.061553005264459004 1:-0.2757568061351776 2:-0.25438597798347473 3:-0.743931233882904 4:-0.5605605244636536 5:-0.6785190105438232 6:-0.8906015753746033 7:-0.8913971781730652 8:-0.7935779690742493 9:-0.5 10:0.0 11:-0.800000011920929 12:0.0 13:-1.0 14:0.0 15:-1.0 16:-1.0 17:-1.0 18:0.0 19:-1.0 20:0.0 21:1.0 22:0.0 23:0.0 24:0.0 25:0.0 26:-1.0 27:-0.3333333432674408 28:0.0 29:-0.3333333432674408 30:-0.3333333432674408 31:0.0
0.061553005264459004 1:-0.812404215335846 2:-0.9282296895980835 3:-1.0 4:-1.0 5:-1.0 6:-0.9982873201370239 7:-0.939393937587738 8:-0.9484536051750183 9:-0.5 10:0.0 11:0.699999988079071 12:0.0 13:-1.0 14:0.0 15:-1.0 16:-1.0 17:-1.0 18:0.0 19:-1.0 20:0.0 21:-1.0 22:0.0 23:0.0 24:0.0 25:-1.0 26:-1.0 27:-1.0 28:-1.0 29:-1.0 30:-1.0 31:0.0
-0.061553005264459004 1:0.31940367817878723 2:0.5601503849029541 3:-0.5518407821655273 4:0.16466471552848816 5:-0.17004747688770294 6:-0.9903661012649536 7:-0.7244786024093628 8:-0.8431899547576904 9:-1.0 10:0.0 11:-1.0 12:-1.0 13:1.0 14:0.0 15:-1.0 16:-1.0 17:-1.0 18:0.0 19:-1.0 20:0.0 21:-1.0 22:0.0 23:0.0 24:0.0 25:-1.0 26:-1.0 27:-1.0 28:-1.0 29:-1.0 30:-1.0 31:0.0
-0.061553005264459004 1:0.4984239339828491 2:0.6008771657943726 3:-0.6097376346588135 4:0.02090413123369217 5:-0.2669755816459656 6:-0.9950760006904602 7:-0.8045976758003235 8:-0.6584699749946594 9:-1.0 10:0.0 11:-1.0 12:-1.0 13:1.0 14:0.0 15:-1.0 16:-1.0 17:-1.0 18:0.0 19:-1.0 20:0.0 21:1.0 22:0.0 23:0.0 24:0.0 25:0.0 26:-1.0 27:-1.0 28:-1.0 29:-1.0 30:-1.0 31:0.0
-0.061553005264459004 1:0.31940367817878723 2:0.5601503849029541 3:-1.0 4:-1.0 5:-0.21110114455223083 6:-0.9995718002319336 7:-0.9337748289108276 8:-0.9909909963607788 9:-0.5 10:0.0 11:-0.4000000059604645 12:0.0 13:1.0 14:0.0 15:1.0 16:-1.0 17:-1.0 18:0.0 19:-1.0 20:0.0 21:1.0 22:0.0 23:0.0 24:0.0 25:-1.0 26:-1.0 27:-1.0 28:-1.0 29:-1.0 30:-1.0 31:0.0
0.061553005264459004 1:-0.36119264364242554 2:-0.7105262875556946 3:-0.8069595098495483 4:-1.0 5:-1.0 6:-0.9995718002319336 7:-0.9710144996643066 8:-0.8979591727256775 9:-0.5 10:0.0 11:0.5 12:0.0 13:-1.0 14:0.0 15:-1.0 16:-1.0 17:-1.0 18:0.0 19:-1.0 20:0.0 21:-1.0 22:0.0 23:0.0 24:0.0 25:-1.0 26:-1.0 27:-1.0 28:0.0 29:-1.0 30:-1.0 31:0.0
0.061553005264459004 1:-0.7031925320625305 2:-0.6949760913848877 3:-1.0 4:-1.0 5:-0.8592171669006348 6:-0.9995718002319336 7:-0.9858155846595764 8:-0.9590163826942444 9:-0.5 10:0.0 11:1.0 12:0.0 13:-1.0 14:0.0 15:-1.0 16:-1.0 17:-1.0 18:0.0 19:-1.0 20:0.0 21:-1.0 22:0.0 23:0.0 24:0.0 25:-1.0 26:-1.0 27:-0.3333333432674408 28:-1.0 29:-1.0 30:-1.0 31:0.0
0.061553005264459004 1:-0.580295741558075 2:-0.8245614171028137 3:-1.0 4:-1.0 5:-1.0 6:-0.8963819146156311 7:-0.9735099077224731 8:-0.8913043737411499 9:-0.5 10:0.0 11:0.5 12:0.0 13:-1.0 14:0.0 15:-1.0 16:-1.0 17:-1.0 18:0.0 19:-1.0 20:0.0 21:-1.0 22:0.0 23:0.0 24:0.0 25:-1.0 26:-1.0 27:-1.0 28:-1.0 29:-1.0 30:-1.0 31:0.0
0.061553005264459004 1:-0.7593159675598145 2:-0.9060150384902954 3:-0.8094994425773621 4:-1.0 5:-1.0 6:-0.8291586637496948 7:-0.8658536672592163 8:-0.6646341681480408 9:-0.5 10:0.0 11:0.0 12:0.0 13:-1.0 14:0.0 15:-1.0 16:-1.0 17:-1.0 18:0.0 19:-1.0 20:0.0 21:-1.0 22:0.0 23:0.0 24:0.0 25:0.0 26:-0.3333333432674408 27:-0.3333333432674408 28:0.0 29:-0.3333333432674408 30:-0.3333333432674408 31:0.0
0.061553005264459004 1:-0.07871966063976288 2:-0.5394737124443054 3:-0.8252599239349365 4:-1.0 5:-1.0 6:-0.9338471293449402 7:-0.9106836318969727 8:-0.8958333134651184 9:-0.5 10:0.0 11:-0.4000000059604645 12:0.0 13:-1.0 14:0.0 15:-1.0 16:-1.0 17:-1.0 18:0.0 19:-1.0 20:0.0 21:1.0 22:0.0 23:0.0 24:0.0 25:0.0 26:-0.3333333432674408 27:-0.3333333432674408 28:0.0 29:-0.3333333432674408 30:-0.3333333432674408 31:0.0
-0.061553005264459004 1:-0.5125521421432495 2:-0.7910216450691223 3:-0.760187566280365 4:-1.0 5:-1.0 6:-0.9710982441902161 7:-0.8963945508003235 8:-0.7206165790557861 9:-0.5 10:0.0 11:0.0 12:0.0 13:-1.0 14:0.0 15:-1.0 16:-1.0 17:-1.0 18:0.0 19:-1.0 20:0.0 21:-1.0 22:0.0 23:0.0 24:0.0 25:0.0 26:-0.3333333432674408 27:-0.3333333432674408 28:0.0 29:-0.3333333432674408 30:-0.3333333432674408 31:0.0
-0.061553005264459004 1:-0.43978601694107056 2:-0.7532894611358643 3:-0.7689834833145142 4:-1.0 5:-1.0 6:-0.9972168803215027 7:-0.8419928550720215 8:-0.9222797751426697 9:-0.5 10:0.0 11:0.10000000149011612 12:0.0 13:-1.0 14:0.0 15:-1.0 16:-1.0 17:-1.0 18:0.0 19:-1.0 20:0.0 21:-1.0 22:0.0 23:0.0 24:0.0 25:0.0 26:-0.3333333432674408 27:-1.0 28:-1.0 29:-1.0 30:-1.0 31:0.0
0.061553005264459004 1:0.31940367817878723 2:0.5601503849029541 3:-1.0 4:-1.0 5:-0.6562143564224243 6:-0.9895097613334656 7:-0.940453052520752 8:-0.761904776096344 9:-0.5 10:0.0 11:-0.800000011920929 12:0.0 13:1.0 14:0.0 15:-1.0 16:-1.0 17:-1.0 18:0.0 19:-1.0 20:0.0 21:1.0 22:0.0 23:0.0 24:0.0 25:-1.0 26:-1.0 27:-1.0 28:-1.0 29:-1.0 30:-1.0 31:0.0
-0.061553005264459004 1:-0.07871966063976288 2:0.030701754614710808 3:-0.7598547339439392 4:-0.49697843194007874 5:-0.5928457975387573 6:-0.8327981233596802 7:-0.8247483968734741 8:-0.7772276997566223 9:-1.0 10:0.0 11:-1.0 12:-1.0 13:-1.0 14:0.0 15:-1.0 16:-1.0 17:-1.0 18:0.0 19:-1.0 20:0.0 21:1.0 22:0.0 23:0.0 24:0.0 25:-1.0 26:-1.0 27:-0.3333333432674408 28:0.0 29:-0.3333333432674408 30:-0.3333333432674408 31:0.0
-0.061553005264459004 1:-0.36119264364242554 2:-0.3144044280052185 3:-0.762309730052948 4:-0.37177374958992004 5:-0.44516071677207947 6:-0.9282808899879456 7:-0.8898305296897888 8:-0.8484848737716675 9:0.0 10:0.0 11:-0.4000000059604645 12:0.0 13:1.0 14:0.0 15:-1.0 16:-1.0 17:-1.0 18:0.0 19:-1.0 20:0.0 21:1.0 22:0.0 23:0.0 24:0.0 25:-1.0 26:0.3333333432674408 27:-0.3333333432674408 28:1.0 29:0.3333333432674408 30:-0.3333333432674408 31:0.0
-0.061553005264459004 1:-0.812404215335846 2:-0.7532894611358643 3:-1.0 4:-1.0 5:-0.8592171669006348 6:-0.9974309802055359 7:-0.9318181872367859 8:-0.8295454382896423 9:-1.0 10:0.0 11:-1.0 12:-1.0 13:-1.0 14:0.0 15:-1.0 16:-1.0 17:-1.0 18:0.0 19:-1.0 20:0.0 21:1.0 22:0.0 23:0.0 24:0.0 25:-1.0 26:-1.0 27:0.3333333432674408 28:-1.0 29:-0.3333333432674408 30:-0.3333333432674408 31:0.0
-0.061553005264459004 1:-0.43978601694107056 2:-0.2284688949584961 3:-1.0 4:-1.0 5:-0.7526165843009949 6:-0.9995718002319336 7:-0.9759036302566528 8:-0.9685534834861755 9:-0.5 10:0.0 11:-0.699999988079071 12:0.0 13:-1.0 14:0.0 15:-1.0 16:-1.0 17:-1.0 18:0.0 19:-1.0 20:0.0 21:1.0 22:0.0 23:0.0 24:0.0 25:-1.0 26:-1.0 27:-0.3333333432674408 28:-1.0 29:-0.3333333432674408 30:-0.3333333432674408 31:0.0
0.061553005264459004 1:-0.5125521421432495 2:-0.1631578952074051 3:-0.8014107942581177 4:-0.5144256353378296 5:-0.5295780897140503 6:-0.994861900806427 7:-0.9334811568260193 8:-0.7222222089767456 9:-0.5 10:0.0 11:-0.4000000059604645 12:0.0 13:1.0 14:0.0 15:-1.0 16:-1.0 17:-1.0 18:0.0 19:-1.0 20:0.0 21:-1.0 22:0.0 23:0.0 24:0.0 25:-1.0 26:-1.0 27:-1.0 28:-1.0 29:-1.0 30:-1.0 31:0.0
0.061553005264459004 1:-0.43978601694107056 2:-0.11184210330247879 3:-0.7448728084564209 4:-0.41316530108451843 5:-0.5295780897140503 6:-0.9987154603004456 7:-0.970059871673584 8:-0.9695122241973877 9:-0.5 10:0.0 11:-0.6000000238418579 12:0.0 13:1.0 14:0.0 15:-1.0 16:-1.0 17:-1.0 18:0.0 19:-1.0 20:0.0 21:-1.0 22:0.0 23:0.0 24:0.0 25:-1.0 26:-1.0 27:-1.0 28:-1.0 29:-1.0 30:-1.0 31:0.0
0.061553005264459004 1:-0.580295741558075 2:-0.8245614171028137 3:-1.0 4:-1.0 5:-1.0 6:-1.0 7:-0.9593750238418579 8:-0.9509803652763367 9:-0.5 10:0.0 11:0.10000000149011612 12:0.0 13:1.0 14:0.0 15:-1.0 16:-1.0 17:-1.0 18:0.0 19:-1.0 20:0.0 21:-1.0 22:0.0 23:0.0 24:0.0 25:-1.0 26:-1.0 27:-1.0 28:-1.0 29:-1.0 30:-1.0 31:0.0
0.061553005264459004 1:-0.2757568061351776 2:-0.25438597798347473 3:-1.0 4:-1.0 5:-0.7888122200965881 6:-0.9980732202529907 7:-0.8484065532684326 8:-0.707446813583374 9:-0.5 10:0.0 11:-0.699999988079071 12:0.0 13:1.0 14:0.0 15:-1.0 16:-1.0 17:-1.0 18:0.0 19:-1.0 20:0.0 21:-1.0 22:0.0 23:0.0 24:0.0 25:-1.0 26:-1.0 27:-1.0 28:-1.0 29:-1.0 30:-1.0 31:0.0
-0.061553005264459004 1:0.31940367817878723 2:0.5601503849029541 3:-1.0 4:-1.0 5:-0.17004747688770294 6:-0.9877970218658447 7:-0.3984375 8:-0.8333333134651184 9:-0.5 10:0.0 11:0.0 12:0.0 13:1.0 14:0.0 15:-1.0 16:-1.0 17:-1.0 18:0.0 19:-1.0 20:0.0 21:-1.0 22:0.0 23:0.0 24:0.0 25:-1.0 26:-1.0 27:-1.0 28:-1.0 29:-1.0 30:-1.0 31:0.0
-0.061553005264459004 1:-0.36119264364242554 2:-0.4891640841960907 3:-0.8196963667869568 4:-0.8427056670188904 5:-0.8592171669006348 6:-0.9982873201370239 7:-0.865793764591217 8:-0.6875 9:-1.0 10:0.0 11:-1.0 12:-1.0 13:-1.0 14:0.0 15:-1.0 16:-1.0 17:-1.0 18:0.0 19:-1.0 20:0.0 21:-1.0 22:0.0 23:0.0 24:0.0 25:-1.0 26:-1.0 27:-1.0 28:-1.0 29:-1.0 30:-1.0 31:0.0
-0.061553005264459004 1:0.03693067282438278 2:0.11455108225345612 3:-0.6948492527008057 4:-0.1846882551908493 5:-0.36298781633377075 6:-0.9963605403900146 7:-0.9359999895095825 8:-0.9675324559211731 9:-0.5 10:0.0 11:0.20000000298023224 12:0.0 13:1.0 14:0.0 15:-1.0 16:-1.0 17:-1.0 18:0.0 19:-1.0 20:0.0 21:-1.0 22:0.0 23:0.0 24:0.0 25:-1.0 26:-1.0 27:-1.0 28:-1.0 29:-1.0 30:-1.0 31:0.0
-0.061553005264459004 1:-0.2757568061351776 2:0.0047846888191998005 3:-0.718940019607544 4:-0.3899969756603241 5:-0.5496304035186768 6:-0.9961464405059814 7:-0.9224555492401123 8:-0.9363636374473572 9:-0.5 10:0.0 11:0.30000001192092896 12:0.0 13:1.0 14:0.0 15:-1.0 16:-1.0 17:-1.0 18:0.0 19:-1.0 20:0.0 21:-1.0 22:0.0 23:0.0 24:0.0 25:-1.0 26:-1.0 27:-1.0 28:-1.0 29:-1.0 30:-1.0 31:0.0
0.061553005264459004 1:-0.2757568061351776 2:-0.4325657784938812 3:-0.8150139451026917 4:-0.8389207124710083 5:-0.8592171669006348 6:-0.8113894462585449 7:-0.9060869812965393 8:-0.7407407164573669 9:-1.0 10:0.0 11:-1.0 12:-1.0 13:-1.0 14:0.0 15:-1.0 16:-1.0 17:-1.0 18:0.0 19:-1.0 20:0.0 21:1.0 22:0.0 23:0.0 24:0.0 25:0.0 26:-0.3333333432674408 27:-0.3333333432674408 28:0.0 29:-0.3333333432674408 30:-0.3333333432674408 31:0.0
0.061553005264459004 1:-0.36119264364242554 2:-0.4891640841960907 3:-0.7707852721214294 4:-0.8038516640663147 5:-0.8592171669006348 6:-0.4827660024166107 7:-0.990928590297699 8:-0.9900268316268921 9:0.0 10:0.0 11:-0.30000001192092896 12:0.0 13:-1.0 14:0.0 15:-1.0 16:-1.0 17:-1.0 18:0.0 19:-1.0 20:0.0 21:1.0 22:0.0 23:0.0 24:0.0 25:0.0 26:-0.3333333432674408 27:-1.0 28:0.0 29:0.3333333432674408 30:-1.0 31:0.0
0.043271368072680116 1:-0.07871966063976288 2:-0.2951127886772156 3:-0.7479392886161804 4:-0.7862067818641663 5:-0.8592171669006348 6:-0.9895097613334656 7:-0.5650684833526611 8:-0.7222222089767456 9:-1.0 10:0.0 11:-1.0 12:-1.0 13:-1.0 14:0.0 15:-1.0 16:-1.0 17:-1.0 18:0.0 19:-1.0 20:0.0 21:1.0 22:0.0 23:0.0 24:0.0 25:-1.0 26:-1.0 27:-0.3333333432674408 28:1.0 29:-1.0 30:-0.3333333432674408 31:0.0
0.061553005264459004 1:-0.2757568061351776 2:-0.4325657784938812 3:-0.8033876419067383 4:-0.829583466053009 5:-0.8592171669006348 6:-0.9963605403900146 7:-0.9414225816726685 8:-0.8170731663703918 9:-1.0 10:0.0 11:-1.0 12:-1.0 13:-1.0 14:0.0 15:-1.0 16:-1.0 17:-1.0 18:0.0 19:-1.0 20:0.0 21:1.0 22:0.0 23:0.0 24:0.0 25:0.0 26:-1.0 27:-1.0 28:1.0 29:0.3333333432674408 30:-1.0 31:0.0
-0.061553005264459004 1:0.16804420948028564 2:0.20888157188892365 3:-0.7042554616928101 4:-0.25419703125953674 5:-0.4276271164417267 6:-0.9922928810119629 7:-0.8954248428344727 8:-0.8648648858070374 9:-1.0 10:0.0 11:-1.0 12:-1.0 13:-1.0 14:0.0 15:-1.0 16:-1.0 17:-1.0 18:0.0 19:-1.0 20:0.0 21:1.0 22:0.0 23:0.0 24:0.0 25:0.0 26:-1.0 27:-0.3333333432674408 28:0.0 29:-0.3333333432674408 30:-0.3333333432674408 31:0.0
0.061553005264459004 1:0.16804420948028564 2:0.4013157784938812 3:-0.6904759407043457 4:-0.19872553646564484 5:-0.389023095369339 6:-0.9933633208274841 7:-0.9580273032188416 8:-0.9666110277175903 9:-0.5 10:0.0 11:0.6000000238418579 12:0.0 13:1.0 14:0.0 15:-1.0 16:-1.0 17:-1.0 18:0.0 19:-1.0 20:0.0 21:1.0 22:0.0 23:0.0 24:0.0 25:-1.0 26:-1.0 27:-1.0 28:-1.0 29:-1.0 30:-1.0 31:0.0
0.061553005264459004 1:1.0 2:0.9144737124443054 3:-0.278495728969574 4:0.5343706607818604 5:0.06002190336585045 6:-0.9237850308418274 7:0.6769759654998779 8:-0.844913125038147 9:-0.5 10:0.0 11:-0.699999988079071 12:0.0 13:1.0 14:0.0 15:-1.0 16:-1.0 17:-1.0 18:0.0 19:1.0 20:0.0 21:-1.0 22:0.0 23:0.0 24:0.0 25:-1.0 26:-0.3333333432674408 27:-1.0 28:0.0 29:-0.3333333432674408 30:-1.0 31:0.0
-0.061553005264459004 1:0.31940367817878723 2:0.18421052396297455 3:-0.5561062693595886 4:-0.08197081834077835 5:-0.467217355966568 6:-0.9529008865356445 7:-0.7170862555503845 8:-0.5364238619804382 9:-0.5 10:0.0 11:-0.800000011920929 12:0.0 13:1.0 14:0.0 15:-1.0 16:-1.0 17:-1.0 18:0.0 19:-1.0 20:0.0 21:1.0 22:0.0 23:0.0 24:0.0 25:0.0 26:-0.3333333432674408 27:-0.3333333432674408 28:0.0 29:-0.3333333432674408 30:-0.3333333432674408 31:0.0
-0.061553005264459004 1:-0.43978601694107056 2:-0.5394737124443054 3:-1.0 4:-1.0 5:-0.8592171669006348 6:-1.0 7:-0.9481865167617798 8:-1.0 9:-0.5 10:0.0 11:-0.5 12:0.0 13:-1.0 14:0.0 15:-1.0 16:-1.0 17:-1.0 18:0.0 19:-1.0 20:0.0 21:1.0 22:0.0 23:0.0 24:0.0 25:-1.0 26:-1.0 27:-1.0 28:0.0 29:-0.3333333432674408 30:-1.0 31:0.0
0.061553005264459004 1:0.31940367817878723 2:0.49584487080574036 3:-0.40822917222976685 4:0.5732058882713318 5:0.40806296467781067 6:-0.9997859001159668 7:-0.928205132484436 8:-0.9568965435028076 9:-0.5 10:0.0 11:-0.20000000298023224 12:0.0 13:1.0 14:0.0 15:-1.0 16:-1.0 17:-1.0 18:0.0 19:-1.0 20:0.0 21:-1.0 22:0.0 23:0.0 24:0.0 25:-1.0 26:-1.0 27:-1.0 28:-1.0 29:-1.0 30:-1.0 31:0.0
-0.061553005264459004 1:0.16804420948028564 2:0.4013157784938812 3:-0.6294394135475159 4:-0.10517213493585587 5:-0.389023095369339 6:-0.9852280020713806 7:-0.8727428913116455 8:-0.8616018891334534 9:-1.0 10:0.0 11:-1.0 12:-1.0 13:1.0 14:0.0 15:-1.0 16:-1.0 17:-1.0 18:0.0 19:-1.0 20:0.0 21:-1.0 22:0.0 23:0.0 24:0.0 25:0.0 26:-0.3333333432674408 27:-0.3333333432674408 28:0.0 29:-0.3333333432674408 30:-0.3333333432674408 31:0.0
0.061553005264459004 1:-0.6436656713485718 2:-0.6616541147232056 3:-1.0 4:-1.0 5:-0.8592171669006348 6:-0.9995718002319336 7:-0.9884767532348633 8:-0.7560975551605225 9:0.0 10:0.0 11:-0.4000000059604645 12:1.0 13:-1.0 14:0.0 15:-1.0 16:-1.0 17:-1.0 18:0.0 19:-1.0 20:0.0 21:1.0 22:0.0 23:0.0 24:0.0 25:-1.0 26:-1.0 27:-1.0 28:-1.0 29:-1.0 30:-1.0 31:0.0
-0.061553005264459004 1:-0.5125521421432495 2:-0.7910216450691223 3:-0.8406762480735779 4:-1.0 5:-1.0 6:-0.9989295601844788 7:-0.776190459728241 8:-0.9210526347160339 9:-0.5 10:0.0 11:0.800000011920929 12:0.0 13:-1.0 14:0.0 15:-1.0 16:-1.0 17:-1.0 18:0.0 19:-1.0 20:0.0 21:-1.0 22:0.0 23:0.0 24:0.0 25:-1.0 26:-1.0 27:-1.0 28:-1.0 29:-1.0 30:-1.0 31:0.0
-0.061553005264459004 1:-0.2757568061351776 2:-0.4325657784938812 3:-1.0 4:-1.0 5:-0.8592171669006348 6:-0.9899379014968872 7:-0.8578542470932007 8:-0.923701286315918 9:-1.0 10:0.0 11:-1.0 12:-1.0 13:-1.0 14:0.0 15:-1.0 16:-1.0 17:-1.0 18:0.0 19:-1.0 20:0.0 21:-1.0 22:0.0 23:0.0 24:0.0 25:-1.0 26:-1.0 27:-1.0 28:-1.0 29:-1.0 30:-1.0 31:0.0
-0.061553005264459004 1:-0.07871966063976288 2:-0.2951127886772156 3:-1.0 4:-1.0 5:-0.8592171669006348 6:-0.958253026008606 7:-0.9052240252494812 8:-0.21232876181602478 9:0.0 10:0.0 11:0.10000000149011612 12:0.0 13:-1.0 14:0.0 15:-1.0 16:-1.0 17:-1.0 18:0.0 19:-1.0 20:0.0 21:1.0 22:0.0 23:0.0 24:0.0 25:-1.0 26:-1.0 27:-1.0 28:-1.0 29:-1.0 30:-1.0 31:0.0
0.025784685852177094 1:1.0 2:0.9377990365028381 3:-0.053960349410772324 4:0.7595725059509277 5:0.40806296467781067 6:-0.8876043558120728 7:0.3663793206214905 8:-0.20990565419197083 9:-0.5 10:0.0 11:0.20000000298023224 12:0.0 13:1.0 14:0.0 15:-1.0 16:-1.0 17:-1.0 18:0.0 19:1.0 20:0.0 21:-1.0 22:0.0 23:0.0 24:0.0 25:-1.0 26:-1.0 27:-1.0 28:-1.0 29:-1.0 30:-1.0 31:0.0
-0.061553005264459004 1:-0.43978601694107056 2:-0.7532894611358643 3:-1.0 4:-1.0 5:-1.0 6:-0.9989295601844788 7:-0.8244725465774536 8:-0.7196261882781982 9:-1.0 10:0.0 11:-1.0 12:-1.0 13:-1.0 14:0.0 15:-1.0 16:-1.0 17:-1.0 18:0.0 19:-1.0 20:0.0 21:-1.0 22:0.0 23:0.0 24:0.0 25:-1.0 26:-1.0 27:-1.0 28:-1.0 29:-1.0 30:-1.0 31:0.0
0.061553005264459004 1:-0.07871966063976288 2:0.14473684132099152 3:-1.0 4:-1.0 5:-0.5295780897140503 6:-0.9993577599525452 7:-0.9467110633850098 8:-0.9342105388641357 9:-1.0 10:0.0 11:-1.0 12:-1.0 13:1.0 14:0.0 15:-1.0 16:-1.0 17:-1.0 18:0.0 19:-1.0 20:0.0 21:-1.0 22:0.0 23:0.0 24:0.0 25:-1.0 26:-0.3333333432674408 27:-0.3333333432674408 28:-1.0 29:-0.3333333432674408 30:-0.3333333432674408 31:0.0
0.061553005264459004 1:0.31940367817878723 2:0.31578946113586426 3:-0.6799414753913879 4:-0.2803456783294678 5:-0.49870580434799194 6:-0.9985014200210571 7:-0.7245863080024719 8:-0.7916666865348816 9:-1.0 10:0.0 11:-1.0 12:-1.0 13:1.0 14:0.0 15:-1.0 16:-1.0 17:-1.0 18:0.0 19:-1.0 20:0.0 21:-1.0 22:0.0 23:0.0 24:0.0 25:0.0 26:-0.3333333432674408 27:-0.3333333432674408 28:-1.0 29:-0.3333333432674408 30:-0.3333333432674408 31:0.0
0.061553005264459004 1:-0.6436656713485718 2:-0.6616541147232056 3:-0.7738056182861328 4:-0.8062079548835754 5:-0.8592171669006348 6:-0.9987154603004456 7:-0.7634408473968506 8:-0.6551724076271057 9:-1.0 10:0.0 11:-1.0 12:-1.0 13:1.0 14:0.0 15:1.0 16:-1.0 17:-1.0 18:0.0 19:-1.0 20:0.0 21:-1.0 22:0.0 23:0.0 24:0.0 25:0.0 26:-0.3333333432674408 27:-0.3333333432674408 28:0.0 29:-0.3333333432674408 30:-0.3333333432674408 31:0.0
-0.061553005264459004 1:-0.2757568061351776 2:-0.11184210330247879 3:-0.7844665050506592 4:-0.45721811056137085 5:-0.49870580434799194 6:-0.9997859001159668 7:-0.9475655555725098 8:-0.9152542352676392 9:-1.0 10:0.0 11:-1.0 12:-1.0 13:1.0 14:0.0 15:1.0 16:-1.0 17:-1.0 18:0.0 19:-1.0 20:0.0 21:-1.0 22:0.0 23:0.0 24:0.0 25:0.0 26:-1.0 27:-1.0 28:-1.0 29:-1.0 30:-1.0 31:0.0
0.061553005264459004 1:-0.36119264364242554 2:-0.4891640841960907 3:-1.0 4:-1.0 5:-0.8890299797058105 6:-0.999143660068512 7:-0.9864099621772766 8:-0.9777777791023254 9:0.0 10:0.0 11:0.800000011920929 12:0.0 13:-1.0 14:0.0 15:-1.0 16:-1.0 17:-1.0 18:0.0 19:-1.0 20:0.0 21:1.0 22:0.0 23:0.0 24:0.0 25:-1.0 26:-1.0 27:-1.0 28:-1.0 29:-1.0 30:-1.0 31:0.0
-0.061553005264459004 1:0.31940367817878723 2:0.5601503849029541 3:-0.713575005531311 4:-0.494236558675766 5:-0.6562143564224243 6:-0.8148148059844971 7:-0.9667443633079529 8:-0.5945945978164673 9:-0.5 10:0.0 11:-0.800000011920929 12:0.0 13:1.0 14:0.0 15:-1.0 16:-1.0 17:-1.0 18:0.0 19:-1.0 20:0.0 21:1.0 22:0.0 23:0.0 24:0.0 25:0.0 26:0.3333333432674408 27:-0.3333333432674408 28:0.0 29:-0.3333333432674408 30:-0.3333333432674408 31:0.0
0.061553005264459004 1:-0.43978601694107056 2:-0.7532894611358643 3:-1.0 4:-1.0 5:-1.0 6:-0.9961464405059814 7:-0.9960645437240601 8:-0.9979373216629028 9:-0.5 10:0.0 11:1.0 12:0.0 13:-1.0 14:0.0 15:-1.0 16:-1.0 17:-1.0 18:0.0 19:-1.0 20:0.0 21:-1.0 22:0.0 23:0.0 24:0.0 25:-1.0 26:-1.0 27:-1.0 28:-1.0 29:-1.0 30:-1.0 31:0.0
-0.061553005264459004 1:0.16804420948028564 2:0.31578946113586426 3:-1.0 4:-1.0 5:-0.5496304035186768 6:-0.9985014200210571 7:-0.7608984708786011 8:-0.9675324559211731 9:-0.5 10:0.0 11:-0.10000000149011612 12:0.0 13:1.0 14:0.0 15:-1.0 16:-1.0 17:-1.0 18:0.0 19:-1.0 20:0.0 21:-1.0 22:0.0 23:0.0 24:0.0 25:-1.0 26:-0.3333333432674408 27:-0.3333333432674408 28:0.0 29:-0.3333333432674408 30:-0.3333333432674408 31:0.0
0.061553005264459004 1:-0.43978601694107056 2:-0.5394737124443054 3:-1.0 4:-1.0 5:-0.8592171669006348 6:-1.0 7:-0.9707456231117249 8:-0.9418604373931885 9:0.0 10:0.0 11:-0.4000000059604645 12:1.0 13:-1.0 14:0.0 15:-1.0 16:-1.0 17:-1.0 18:0.0 19:-1.0 20:0.0 21:1.0 22:0.0 23:0.0 24:0.0 25:-1.0 26:-1.0 27:-1.0 28:-1.0 29:-1.0 30:-1.0 31:0.0
-0.061553005264459004 1:-0.5125521421432495 2:-0.7910216450691223 3:-0.8247166275978088 4:-1.0 5:-1.0 6:-0.9942196607589722 7:-0.9833748936653137 8:-1.0 9:0.0 10:0.0 11:-0.30000001192092896 12:0.0 13:-1.0 14:0.0 15:-1.0 16:-1.0 17:-1.0 18:0.0 19:-1.0 20:0.0 21:1.0 22:0.0 23:0.0 24:0.0 25:-1.0 26:-1.0 27:-1.0 28:-1.0 29:-1.0 30:-1.0 31:0.0
0.061553005264459004 1:0.31940367817878723 2:0.4164086580276489 3:-0.669305145740509 4:-0.16324223577976227 5:-0.38719648122787476 6:-0.9738814234733582 7:-0.6840077042579651 8:-0.46917808055877686 9:-1.0 10:0.0 11:-1.0 12:-1.0 13:1.0 14:0.0 15:-1.0 16:-1.0 17:-1.0 18:0.0 19:-1.0 20:0.0 21:-1.0 22:0.0 23:0.0 24:0.0 25:1.0 26:-0.3333333432674408 27:0.3333333432674408 28:1.0 29:0.3333333432674408 30:0.3333333432674408 31:0.0
-0.061553005264459004 1:0.03693067282438278 2:0.11455108225345612 3:-0.6762491464614868 4:-0.27478814125061035 5:-0.49870580434799194 6:-0.9925069808959961 7:-0.7672955989837646 8:-0.788557231426239 9:-0.5 10:0.0 11:-0.6000000238418579 12:0.0 13:1.0 14:0.0 15:-1.0 16:-1.0 17:-1.0 18:0.0 19:-1.0 20:0.0 21:-1.0 22:0.0 23:0.0 24:0.0 25:0.0 26:-0.3333333432674408 27:-0.3333333432674408 28:0.0 29:-0.3333333432674408 30:-0.3333333432674408 31:0.0
-0.061553005264459004 1:0.16804420948028564 2:0.20888157188892365 3:-0.6530836224555969 4:-0.2408544421195984 5:-0.49870580434799194 6:-0.9952901005744934 7:-0.8161351084709167 8:-0.8724489808082581 9:-0.5 10:0.0 11:-0.30000001192092896 12:0.0 13:1.0 14:0.0 15:-1.0 16:-1.0 17:-1.0 18:0.0 19:-1.0 20:0.0 21:-1.0 22:0.0 23:0.0 24:0.0 25:0.0 26:-0.3333333432674408 27:-0.3333333432674408 28:0.0 29:-0.3333333432674408 30:-0.3333333432674408 31:0.0
-0.061553005264459004 1:0.31940367817878723 2:0.4164086580276489 3:-0.7091737985610962 4:-0.3551885485649109 5:-0.5295780897140503 6:-0.9952901005744934 7:-0.9441383481025696 8:-0.9841772317886353 9:-0.5 10:0.0 11:-0.30000001192092896 12:0.0 13:1.0 14:0.0 15:-1.0 16:-1.0 17:-1.0 18:0.0 19:-1.0 20:0.0 21:-1.0 22:0.0 23:0.0 24:0.0 25:0.0 26:-1.0 27:-0.3333333432674408 28:0.0 29:-0.3333333432674408 30:-0.3333333432674408 31:0.0
-0.061553005264459004 1:-0.07871966063976288 2:0.14473684132099152 3:-0.6620838642120361 4:0.02424032799899578 5:-0.148234024643898 6:-0.9970027804374695 7:-0.9446367025375366 8:-0.9468085169792175 9:-0.5 10:0.0 11:0.0 12:0.0 13:1.0 14:0.0 15:-1.0 16:-1.0 17:-1.0 18:0.0 19:-1.0 20:0.0 21:-1.0 22:0.0 23:0.0 24:0.0 25:0.0 26:-1.0 27:-0.3333333432674408 28:0.0 29:-0.3333333432674408 30:-0.3333333432674408 31:0.0
0.061553005264459004 1:-0.43978601694107056 2:-0.5394737124443054 3:-0.828397274017334 4:-0.8798459768295288 5:-0.8890299797058105 6:-0.9918646812438965 7:-0.9338040351867676 8:-0.5476190447807312 9:0.0 10:0.0 11:0.800000011920929 12:0.0 13:-1.0 14:0.0 15:-1.0 16:-1.0 17:-1.0 18:0.0 19:-1.0 20:0.0 21:1.0 22:0.0 23:0.0 24:0.0 25:-1.0 26:-1.0 27:-1.0 28:-1.0 29:-1.0 30:-1.0 31:0.0
0.061553005264459004 1:-0.5125521421432495 2:-0.5844875574111938 3:-1.0 4:-1.0 5:-0.8592171669006348 6:-0.9115821123123169 7:-0.9305503964424133 8:-0.7916666865348816 9:0.0 10:0.0 11:-0.4000000059604645 12:1.0 13:-1.0 14:0.0 15:1.0 16:-1.0 17:-1.0 18:0.0 19:-1.0 20:0.0 21:1.0 22:0.0 23:0.0 24:0.0 25:-1.0 26:-1.0 27:-1.0 28:-1.0 29:-1.0 30:-1.0 31:0.0
-0.061553005264459004 1:-0.43978601694107056 2:-0.5394737124443054 3:-0.8040708899497986 4:-0.8301298022270203 5:-0.8592171669006348 6:-0.9995718002319336 7:-0.9368587136268616 8:-0.9347826242446899 9:-0.5 10:0.0 11:-0.5 12:0.0 13:-1.0 14:0.0 15:-1.0 16:-1.0 17:-1.0 18:0.0 19:-1.0 20:0.0 21:-1.0 22:0.0 23:0.0 24:0.0 25:-1.0 26:-1.0 27:-1.0 28:-1.0 29:-1.0 30:-1.0 31:0.0
0.061553005264459004 1:-0.43978601694107056 2:-0.5394737124443054 3:-1.0 4:-1.0 5:-0.8592171669006348 6:-0.980518102645874 7:-0.9839786291122437 8:-0.9285714030265808 9:-0.5 10:0.0 11:0.10000000149011612 12:0.0 13:-1.0 14:0.0 15:-1.0 16:-1.0 17:-1.0 18:0.0 19:-1.0 20:0.0 21:1.0 22:0.0 23:0.0 24:0.0 25:-1.0 26:-1.0 27:-1.0 28:-1.0 29:-1.0 30:-1.0 31:0.0
0.061553005264459004 1:0.7175269722938538 2:0.4712918698787689 3:-0.6176463961601257 4:0.014386945404112339 5:-0.2606980800628662 6:-0.9929351210594177 7:-0.7972602844238281 8:-0.9131274223327637 9:-1.0 10:0.0 11:-1.0 12:-1.0 13:1.0 14:0.0 15:-1.0 16:-1.0 17:-1.0 18:0.0 19:-1.0 20:0.0 21:-1.0 22:0.0 23:0.0 24:0.0 25:0.0 26:-0.3333333432674408 27:-0.3333333432674408 28:0.0 29:-0.3333333432674408 30:-0.3333333432674408 31:0.0
-0.061553005264459004 1:-0.43978601694107056 2:-0.7532894611358643 3:-1.0 4:-1.0 5:-1.0 6:-0.9942196607589722 7:-0.954909086227417 8:-0.7222222089767456 9:-0.5 10:0.0 11:-0.4000000059604645 12:0.0 13:-1.0 14:0.0 15:1.0 16:-1.0 17:-1.0 18:0.0 19:-1.0 20:0.0 21:1.0 22:0.0 23:0.0 24:0.0 25:-1.0 26:-1.0 27:-1.0 28:-1.0 29:-1.0 30:-1.0 31:0.0
0.061553005264459004 1:0.4984239339828491 2:0.4379699230194092 3:-0.27845436334609985 4:0.5429482460021973 5:0.07993707805871964 6:-0.9987154603004456 7:-0.918367326259613 8:-0.8786407709121704 9:-0.5 10:0.0 11:-0.5 12:0.0 13:1.0 14:0.0 15:1.0 16:-1.0 17:-1.0 18:0.0 19:-1.0 20:0.0 21:-1.0 22:0.0 23:0.0 24:0.0 25:0.0 26:-0.3333333432674408 27:-0.3333333432674408 28:0.0 29:-0.3333333432674408 30:-0.3333333432674408 31:0.0
-0.061553005264459004 1:-0.18217240273952484 2:-0.3684210479259491 3:-0.8183085322380066 4:-0.8415823578834534 5:-0.8592171669006348 6:-1.0 7:-0.9126539826393127 8:-1.0 9:0.0 10:0.0 11:-0.20000000298023224 12:0.0 13:-1.0 14:0.0 15:-1.0 16:-1.0 17:-1.0 18:0.0 19:-1.0 20:0.0 21:1.0 22:0.0 23:0.0 24:0.0 25:-1.0 26:-1.0 27:-1.0 28:-1.0 29:-1.0 30:-1.0 31:0.0
-0.061553005264459004 1:0.4984239339828491 2:0.4379699230194092 3:-0.7118169069290161 4:-0.42283040285110474 5:-0.5928457975387573 6:-0.988867461681366 7:-0.8975818157196045 8:-0.941690981388092 9:-1.0 10:0.0 11:-1.0 12:-1.0 13:-1.0 14:0.0 15:-1.0 16:-1.0 17:-1.0 18:0.0 19:-1.0 20:0.0 21:1.0 22:0.0 23:0.0 24:0.0 25:0.0 26:-0.3333333432674408 27:-1.0 28:-1.0 29:-1.0 30:-1.0 31:0.0
-0.061553005264459004 1:-0.5125521421432495 2:-0.4172932207584381 3:-1.0 4:-1.0 5:-0.6785190105438232 6:-0.8805394768714905 7:-0.6595744490623474 8:-0.517241358757019 9:-0.5 10:0.0 11:-0.699999988079071 12:0.0 13:-1.0 14:0.0 15:1.0 16:-1.0 17:-1.0 18:0.0 19:-1.0 20:0.0 21:1.0 22:0.0 23:0.0 24:0.0 25:-1.0 26:-1.0 27:-1.0 28:-1.0 29:-1.0 30:-1.0 31:0.0
-0.061553005264459004 1:0.4984239339828491 2:0.14473684132099152 3:-1.0 4:-1.0 5:-0.8592171669006348 6:-0.999143660068512 7:-0.9551699161529541 8:-0.9419535398483276 9:-0.5 10:0.0 11:0.30000001192092896 12:0.0 13:-1.0 14:0.0 15:1.0 16:-1.0 17:-1.0 18:0.0 19:-1.0 20:0.0 21:1.0 22:0.0 23:0.0 24:0.0 25:-1.0 26:-1.0 27:-1.0 28:-1.0 29:-1.0 30:-1.0 31:0.0
0.061553005264459004 1:-0.18217240273952484 2:0.0714285746216774 3:-1.0 4:-1.0 5:-0.5295780897140503 6:-0.9993577599525452 7:-0.9760547280311584 8:-0.960629940032959 9:-0.5 10:0.0 11:0.10000000149011612 12:0.0 13:1.0 14:0.0 15:-1.0 16:-1.0 17:-1.0 18:0.0 19:-1.0 20:0.0 21:-1.0 22:0.0 23:0.0 24:0.0 25:-1.0 26:-1.0 27:-1.0 28:-1.0 29:-1.0 30:-1.0 31:0.0
0.061553005264459004 1:-0.18217240273952484 2:0.0714285746216774 3:-1.0 4:-1.0 5:-0.5295780897140503 6:-0.9995718002319336 7:-0.9760547280311584 8:-0.9568965435028076 9:-0.5 10:0.0 11:0.10000000149011612 12:0.0 13:1.0 14:0.0 15:-1.0 16:-1.0 17:-1.0 18:0.0 19:-1.0 20:0.0 21:-1.0 22:0.0 23:0.0 24:0.0 25:-1.0 26:-1.0 27:-1.0 28:-1.0 29:-1.0 30:-1.0 31:0.0
0.061553005264459004 1:-0.07871966063976288 2:0.31578946113586426 3:-0.7800975441932678 4:-0.5897320508956909 5:-0.6562143564224243 6:-0.9974309802055359 7:-0.8713826537132263 8:-0.7368420958518982 9:-0.5 10:0.0 11:0.0 12:0.0 13:1.0 14:0.0 15:-1.0 16:-1.0 17:-1.0 18:0.0 19:-1.0 20:0.0 21:-1.0 22:0.0 23:0.0 24:0.0 25:-1.0 26:-1.0 27:-1.0 28:-1.0 29:-1.0 30:-1.0 31:0.0
0.061553005264459004 1:-0.580295741558075 2:-0.8245614171028137 3:-0.8406762480735779 4:-1.0 5:-1.0 6:-0.9995718002319336 7:-0.9729729890823364 8:-1.0 9:-1.0 10:0.0 11:-1.0 12:-1.0 13:1.0 14:0.0 15:-1.0 16:-1.0 17:-1.0 18:0.0 19:-1.0 20:0.0 21:-1.0 22:0.0 23:0.0 24:0.0 25:-1.0 26:-1.0 27:-1.0 28:-1.0 29:-1.0 30:-1.0 31:0.0
-0.061553005264459004 1:0.03693067282438278 2:-0.02631578966975212 3:-0.7123970985412598 4:-0.28297269344329834 5:-0.44516071677207947 6:-0.9980732202529907 7:-0.9934994578361511 8:-0.9991490840911865 9:-0.5 10:0.0 11:-0.10000000149011612 12:0.0 13:1.0 14:0.0 15:-1.0 16:-1.0 17:-1.0 18:0.0 19:-1.0 20:0.0 21:-1.0 22:0.0 23:0.0 24:0.0 25:-1.0 26:-0.3333333432674408 27:-0.3333333432674408 28:0.0 29:-0.3333333432674408 30:-0.3333333432674408 31:0.0
-0.061553005264459004 1:-0.43978601694107056 2:-0.5394737124443054 3:-0.7614167928695679 4:-0.796578049659729 5:-0.8592171669006348 6:-0.9985014200210571 7:-0.971285879611969 8:-0.9818840622901917 9:-0.5 10:0.0 11:-0.6000000238418579 12:0.0 13:-1.0 14:0.0 15:-1.0 16:-1.0 17:-1.0 18:0.0 19:-1.0 20:0.0 21:-1.0 22:0.0 23:0.0 24:0.0 25:0.0 26:-1.0 27:-0.3333333432674408 28:0.0 29:-0.3333333432674408 30:-0.3333333432674408 31:0.0
-0.061553005264459004 1:0.4984239339828491 2:0.7045454382896423 3:-1.0 4:-1.0 5:0.1954297572374344 6:-0.994861900806427 7:-0.8441558480262756 8:-0.5454545617103577 9:-1.0 10:0.0 11:-1.0 12:-1.0 13:1.0 14:0.0 15:-1.0 16:-1.0 17:-1.0 18:0.0 19:-1.0 20:0.0 21:-1.0 22:0.0 23:0.0 24:0.0 25:-1.0 26:-1.0 27:-1.0 28:-1.0 29:-1.0 30:-1.0 31:0.0
-0.061553005264459004 1:-0.43978601694107056 2:-0.7532894611358643 3:-0.7968471646308899 4:-1.0 5:-1.0 6:-0.9987154603004456 7:-0.8691588640213013 8:-0.9275362491607666 9:-0.5 10:0.0 11:-0.30000001192092896 12:0.0 13:-1.0 14:0.0 15:-1.0 16:-1.0 17:-1.0 18:0.0 19:-1.0 20:0.0 21:-1.0 22:0.0 23:0.0 24:0.0 25:-1.0 26:-1.0 27:-1.0 28:-1.0 29:-1.0 30:-1.0 31:0.0
0.061553005264459004 1:-0.07871966063976288 2:0.030701754614710808 3:-1.0 4:-1.0 5:-0.7526165843009949 6:-0.9974309802055359 7:-0.8741633296012878 8:-0.7352941036224365 9:-1.0 10:0.0 11:-1.0 12:-1.0 13:-1.0 14:0.0 15:-1.0 16:-1.0 17:-1.0 18:0.0 19:-1.0 20:0.0 21:1.0 22:0.0 23:0.0 24:0.0 25:-1.0 26:-1.0 27:-1.0 28:-1.0 29:-1.0 30:-1.0 31:0.0
-0.061553005264459004 1:-0.5125521421432495 2:-0.5844875574111938 3:-1.0 4:-1.0 5:-0.8592171669006348 6:-0.9997859001159668 7:-0.800000011920929 8:-0.7159090638160706 9:-0.5 10:0.0 11:-0.30000001192092896 12:0.0 13:1.0 14:0.0 15:1.0 16:-1.0 17:-1.0 18:0.0 19:-1.0 20:0.0 21:-1.0 22:0.0 23:0.0 24:0.0 25:-1.0 26:-1.0 27:-1.0 28:-1.0 29:-1.0 30:-1.0 31:0.0
0.061553005264459004 1:-0.07871966063976288 2:0.14473684132099152 3:-1.0 4:-1.0 5:-0.5295780897140503 6:-0.9963605403900146 7:-0.9154929518699646 8:-0.8888888955116272 9:-1.0 10:0.0 11:-1.0 12:-1.0 13:-1.0 14:0.0 15:-1.0 16:-1.0 17:-1.0 18:0.0 19:-1.0 20:0.0 21:1.0 22:0.0 23:0.0 24:0.0 25:-1.0 26:-1.0 27:-1.0 28:-1.0 29:-1.0 30:-1.0 31:0.0
-0.061553005264459004 1:-0.2757568061351776 2:-0.6616541147232056 3:-0.8294438719749451 4:-1.0 5:-1.0 6:-1.0 7:-0.9905437231063843 8:-0.9431818127632141 9:-0.5 10:0.0 11:-0.4000000059604645 12:0.0 13:-1.0 14:0.0 15:-1.0 16:-1.0 17:-1.0 18:0.0 19:-1.0 20:0.0 21:-1.0 22:0.0 23:0.0 24:0.0 25:0.0 26:-1.0 27:-1.0 28:-1.0 29:-0.3333333432674408 30:-1.0 31:0.0
-0.061553005264459004 1:-0.18217240273952484 2:-0.3684210479259491 3:-0.7754496932029724 4:-0.8074929118156433 5:-0.8592171669006348 6:-0.9837294220924377 7:-0.9064012765884399 8:-0.8705408573150635 9:-0.5 10:0.0 11:-0.10000000149011612 12:0.0 13:-1.0 14:0.0 15:-1.0 16:-1.0 17:-1.0 18:0.0 19:-1.0 20:0.0 21:-1.0 22:0.0 23:0.0 24:0.0 25:0.0 26:-1.0 27:-1.0 28:-1.0 29:-0.3333333432674408 30:-1.0 31:0.0
-0.061553005264459004 1:-0.2757568061351776 2:-0.25438597798347473 3:-0.7666940689086914 4:-0.38008707761764526 5:-0.44516071677207947 6:-0.9997859001159668 7:-0.9813084006309509 8:-0.945652186870575 9:0.0 10:0.0 11:-0.6000000238418579 12:0.0 13:1.0 14:0.0 15:-1.0 16:-1.0 17:-1.0 18:0.0 19:-1.0 20:0.0 21:1.0 22:0.0 23:0.0 24:0.0 25:0.0 26:-0.3333333432674408 27:-0.3333333432674408 28:0.0 29:-0.3333333432674408 30:-0.3333333432674408 31:0.0
-0.061553005264459004 1:-0.2757568061351776 2:-0.6616541147232056 3:-0.804646909236908 4:-1.0 5:-1.0 6:-0.9965745806694031 7:-0.8953995108604431 8:-0.8763736486434937 9:-0.5 10:0.0 11:-0.10000000149011612 12:0.0 13:-1.0 14:0.0 15:-1.0 16:-1.0 17:-1.0 18:0.0 19:-1.0 20:0.0 21:-1.0 22:0.0 23:0.0 24:0.0 25:0.0 26:-1.0 27:-1.0 28:-1.0 29:-1.0 30:-1.0 31:0.0
0.061553005264459004 1:0.31940367817878723 2:0.5601503849029541 3:-1.0 4:-1.0 5:-0.6562143564224243 6:-1.0 7:-0.976047933101654 8:-0.9242424368858337 9:-0.5 10:0.0 11:0.30000001192092896 12:0.0 13:1.0 14:0.0 15:1.0 16:-1.0 17:-1.0 18:0.0 19:-1.0 20:0.0 21:-1.0 22:0.0 23:0.0 24:0.0 25:-1.0 26:-1.0 27:-1.0 28:-1.0 29:-1.0 30:-1.0 31:0.0
0.061553005264459004 1:-0.18217240273952484 2:0.0714285746216774 3:-1.0 4:-1.0 5:-0.5295780897140503 6:-0.9997859001159668 7:-0.8960244655609131 8:-0.9271844625473022 9:-0.5 10:0.0 11:0.10000000149011612 12:0.0 13:1.0 14:0.0 15:1.0 16:-1.0 17:-1.0 18:0.0 19:-1.0 20:0.0 21:-1.0 22:0.0 23:0.0 24:0.0 25:-1.0 26:-1.0 27:-1.0 28:-1.0 29:-1.0 30:-1.0 31:0.0
0.061553005264459004 1:0.16804420948028564 2:0.31578946113586426 3:-1.0 4:-1.0 5:-0.2966997027397156 6:-1.0 7:-0.9549393653869629 8:-1.0 9:-1.0 10:0.0 11:-1.0 12:-1.0 13:1.0 14:0.0 15:1.0 16:-1.0 17:-1.0 18:0.0 19:-1.0 20:0.0 21:-1.0 22:0.0 23:0.0 24:0.0 25:-1.0 26:-1.0 27:-1.0 28:-1.0 29:-1.0 30:-1.0 31:0.0
0.061553005264459004 1:0.4984239339828491 2:0.6008771657943726 3:-1.0 4:-1.0 5:-0.1359175443649292 6:-0.9965745806694031 7:-0.35555556416511536 8:-0.7251309156417847 9:-0.5 10:0.0 11:-0.10000000149011612 12:0.0 13:1.0 14:0.0 15:1.0 16:-1.0 17:-1.0 18:0.0 19:-1.0 20:0.0 21:-1.0 22:0.0 23:0.0 24:0.0 25:-1.0 26:-1.0 27:-1.0 28:-1.0 29:-1.0 30:-1.0 31:0.0
-0.061553005264459004 1:0.4984239339828491 2:0.4379699230194092 3:-1.0 4:-1.0 5:-0.27059224247932434 6:-0.9997859001159668 7:-0.9408586621284485 8:-1.0 9:-0.5 10:0.0 11:-0.5 12:0.0 13:1.0 14:0.0 15:1.0 16:-1.0 17:-1.0 18:0.0 19:-1.0 20:0.0 21:-1.0 22:0.0 23:0.0 24:0.0 25:-1.0 26:-1.0 27:-1.0 28:-1.0 29:-1.0 30:-1.0 31:0.0
-0.061553005264459004 1:0.03693067282438278 2:0.2257617712020874 3:-1.0 4:-1.0 5:-0.5496304035186768 6:-0.9944337606430054 7:-0.867364764213562 8:-0.800000011920929 9:-0.5 10:0.0 11:-0.5 12:0.0 13:1.0 14:0.0 15:1.0 16:-1.0 17:-1.0 18:0.0 19:-1.0 20:0.0 21:-1.0 22:0.0 23:0.0 24:0.0 25:-1.0 26:-1.0 27:-1.0 28:-1.0 29:-1.0 30:-1.0 31:0.0
0.022112563757423098 1:-0.43978601694107056 2:-0.5394737124443054 3:-0.7592519521713257 4:-0.794904887676239 5:-0.8592171669006348 6:-0.8422179222106934 7:-0.7771883010864258 8:-0.6489361524581909 9:-1.0 10:0.0 11:-1.0 12:-1.0 13:-1.0 14:0.0 15:-1.0 16:-1.0 17:-1.0 18:0.0 19:-1.0 20:0.0 21:1.0 22:0.0 23:0.0 24:0.0 25:0.0 26:-0.3333333432674408 27:-0.3333333432674408 28:0.0 29:-0.3333333432674408 30:-0.3333333432674408 31:0.0
-0.061553005264459004 1:-0.7031925320625305 2:-0.8815789222717285 3:-1.0 4:-1.0 5:-1.0 6:-0.9539713263511658 7:-0.8382513523101807 8:-0.7916666865348816 9:-1.0 10:0.0 11:-1.0 12:-1.0 13:1.0 14:0.0 15:1.0 16:-1.0 17:-1.0 18:0.0 19:-1.0 20:0.0 21:-1.0 22:0.0 23:0.0 24:0.0 25:-1.0 26:-1.0 27:-1.0 28:-1.0 29:-1.0 30:-1.0 31:0.0
-0.061553005264459004 1:-0.18217240273952484 2:-0.3684210479259491 3:-1.0 4:-1.0 5:-0.8592171669006348 6:-0.9993577599525452 7:-0.86328125 8:-0.875 9:-0.5 10:0.0 11:0.20000000298023224 12:0.0 13:-1.0 14:0.0 15:1.0 16:-1.0 17:-1.0 18:0.0 19:-1.0 20:0.0 21:-1.0 22:0.0 23:0.0 24:0.0 25:-1.0 26:-1.0 27:-1.0 28:-1.0 29:-1.0 30:-1.0 31:0.0
-0.061553005264459004 1:-0.580295741558075 2:-0.8245614171028137 3:-0.7821506857872009 4:-1.0 5:-1.0 6:-0.961036205291748 7:-0.9764705896377563 8:-0.9666666388511658 9:-0.5 10:0.0 11:-0.699999988079071 12:0.0 13:-1.0 14:0.0 15:-1.0 16:-1.0 17:-1.0 18:0.0 19:-1.0 20:0.0 21:-1.0 22:0.0 23:0.0 24:0.0 25:0.0 26:-0.3333333432674408 27:-0.3333333432674408 28:0.0 29:-0.3333333432674408 30:-0.3333333432674408 31:0.0
0.061553005264459004 1:-0.7031925320625305 2:-0.8815789222717285 3:-0.8356894254684448 4:-1.0 5:-1.0 6:-0.9974309802055359 7:-0.9007092118263245 8:-0.875 9:-0.5 10:0.0 11:-0.30000001192092896 12:0.0 13:-1.0 14:0.0 15:-1.0 16:-1.0 17:-1.0 18:0.0 19:-1.0 20:0.0 21:1.0 22:0.0 23:0.0 24:0.0 25:0.0 26:-0.3333333432674408 27:-0.3333333432674408 28:-1.0 29:-0.3333333432674408 30:-0.3333333432674408 31:0.0
0.061553005264459004 1:-0.580295741558075 2:-0.8245614171028137 3:-0.7892593145370483 4:-1.0 5:-1.0 6:-0.7028473615646362 7:-0.9928150177001953 8:-0.9938681721687317 9:0.0 10:0.0 11:-0.699999988079071 12:0.0 13:-1.0 14:0.0 15:-1.0 16:-1.0 17:-1.0 18:0.0 19:-1.0 20:0.0 21:1.0 22:0.0 23:0.0 24:0.0 25:0.0 26:-0.3333333432674408 27:-0.3333333432674408 28:0.0 29:-0.3333333432674408 30:-0.3333333432674408 31:0.0
0.061553005264459004 1:-0.43978601694107056 2:-0.7532894611358643 3:-0.8212248086929321 4:-1.0 5:-1.0 6:-0.9980732202529907 7:-0.8303571343421936 8:-0.682539701461792 9:-0.5 10:0.0 11:-0.10000000149011612 12:0.0 13:-1.0 14:0.0 15:-1.0 16:-1.0 17:-1.0 18:0.0 19:-1.0 20:0.0 21:1.0 22:0.0 23:0.0 24:0.0 25:0.0 26:-0.3333333432674408 27:-1.0 28:0.0 29:-0.3333333432674408 30:-1.0 31:0.0
-0.061553005264459004 1:-0.580295741558075 2:-0.625 3:-0.8150139451026917 4:-0.8389207124710083 5:-0.8592171669006348 6:-0.9980732202529907 7:-0.8753709197044373 8:-0.7260273694992065 9:-0.5 10:0.0 11:0.10000000149011612 12:0.0 13:1.0 14:0.0 15:-1.0 16:-1.0 17:-1.0 18:0.0 19:-1.0 20:0.0 21:1.0 22:0.0 23:0.0 24:0.0 25:0.0 26:-0.3333333432674408 27:-0.3333333432674408 28:0.0 29:-0.3333333432674408 30:-0.3333333432674408 31:0.0
0.061553005264459004 1:0.7175269722938538 2:0.7182662487030029 3:-1.0 4:-1.0 5:0.3739985227584839 6:-0.9858702421188354 7:-0.17880794405937195 8:-0.2708333432674408 9:-0.5 10:0.0 11:-0.10000000149011612 12:0.0 13:1.0 14:0.0 15:1.0 16:-1.0 17:-1.0 18:0.0 19:-1.0 20:0.0 21:-1.0 22:0.0 23:0.0 24:0.0 25:-1.0 26:-1.0 27:-1.0 28:-1.0 29:-1.0 30:-1.0 31:0.0
0.061553005264459004 1:0.4984239339828491 2:0.6578947305679321 3:-1.0 4:-1.0 5:-0.6562143564224243 6:-1.0 7:-0.998231828212738 8:-1.0 9:-0.5 10:0.0 11:-0.30000001192092896 12:0.0 13:1.0 14:0.0 15:-1.0 16:-1.0 17:-1.0 18:0.0 19:-1.0 20:0.0 21:-1.0 22:0.0 23:0.0 24:0.0 25:-1.0 26:-1.0 27:-1.0 28:-1.0 29:-1.0 30:-1.0 31:0.0
0.061553005264459004 1:0.16804420948028564 2:0.31578946113586426 3:-1.0 4:-1.0 5:-0.5496304035186768 6:-0.9995718002319336 7:-0.9905660152435303 8:-1.0 9:-1.0 10:0.0 11:-1.0 12:-1.0 13:1.0 14:0.0 15:-1.0 16:-1.0 17:-1.0 18:0.0 19:-1.0 20:0.0 21:-1.0 22:0.0 23:0.0 24:0.0 25:-1.0 26:-1.0 27:-1.0 28:-1.0 29:-1.0 30:-1.0 31:0.0
0.061553005264459004 1:0.16804420948028564 2:0.0714285746216774 3:-0.7123970985412598 4:-0.28297269344329834 5:-0.44516071677207947 6:-0.9989295601844788 7:-0.9616438150405884 8:-0.9398625493049622 9:-1.0 10:0.0 11:-1.0 12:-1.0 13:1.0 14:0.0 15:-1.0 16:-1.0 17:-1.0 18:0.0 19:-1.0 20:0.0 21:-1.0 22:0.0 23:0.0 24:0.0 25:-1.0 26:-1.0 27:-1.0 28:-1.0 29:-1.0 30:-1.0 31:0.0
-0.061553005264459004 1:0.16804420948028564 2:0.4013157784938812 3:-0.683128833770752 4:-0.09157856553792953 5:-0.2669755816459656 6:-0.9728109836578369 7:-0.8487018942832947 8:-0.46672356128692627 9:-0.5 10:0.0 11:-0.4000000059604645 12:0.0 13:1.0 14:0.0 15:-1.0 16:-1.0 17:-1.0 18:0.0 19:-1.0 20:0.0 21:-1.0 22:0.0 23:0.0 24:0.0 25:0.0 26:-0.3333333432674408 27:-0.3333333432674408 28:0.0 29:-0.3333333432674408 30:-0.3333333432674408 31:0.0
0.061553005264459004 1:-0.43978601694107056 2:-0.5394737124443054 3:-0.8170889019966125 4:-0.8405962586402893 5:-0.8592171669006348 6:-0.9967886805534363 7:-0.799227774143219 8:-0.49494948983192444 9:-0.5 10:0.0 11:-0.30000001192092896 12:0.0 13:1.0 14:0.0 15:1.0 16:-1.0 17:-1.0 18:0.0 19:-1.0 20:0.0 21:-1.0 22:0.0 23:0.0 24:0.0 25:0.0 26:-1.0 27:-1.0 28:0.0 29:-0.3333333432674408 30:-1.0 31:0.0
-0.061553005264459004 1:-0.580295741558075 2:-0.8245614171028137 3:-1.0 4:-1.0 5:-1.0 6:-0.5048169493675232 7:-0.8692098259925842 8:-0.7641509175300598 9:0.5 10:0.0 11:-0.5 12:0.0 13:-1.0 14:0.0 15:-1.0 16:-1.0 17:-1.0 18:0.0 19:-1.0 20:0.0 21:-1.0 22:0.0 23:0.0 24:0.0 25:-1.0 26:-1.0 27:-1.0 28:-1.0 29:-1.0 30:-1.0 31:0.0
0.061553005264459004 1:0.4984239339828491 2:0.4379699230194092 3:-0.5408817529678345 4:0.2285425364971161 5:-0.08886288851499557 6:-0.994005560874939 7:-0.8544474244117737 8:-0.7975077629089355 9:-0.5 10:0.0 11:-0.20000000298023224 12:0.0 13:1.0 14:0.0 15:-1.0 16:-1.0 17:-1.0 18:0.0 19:-1.0 20:0.0 21:-1.0 22:0.0 23:0.0 24:0.0 25:-1.0 26:-1.0 27:-1.0 28:-1.0 29:-1.0 30:-1.0 31:0.0
-0.061553005264459004 1:0.16804420948028564 2:0.31578946113586426 3:-0.7851415872573853 4:-0.5009943246841431 5:-0.5496304035186768 6:-0.9995718002319336 7:-0.9475753307342529 8:-0.9557521939277649 9:-0.5 10:0.0 11:0.10000000149011612 12:0.0 13:1.0 14:0.0 15:-1.0 16:-1.0 17:-1.0 18:0.0 19:-1.0 20:0.0 21:-1.0 22:0.0 23:0.0 24:0.0 25:-1.0 26:-1.0 27:-0.3333333432674408 28:0.0 29:-0.3333333432674408 30:-0.3333333432674408 31:0.0
0.061553005264459004 1:-0.7031925320625305 2:-0.8815789222717285 3:-1.0 4:-1.0 5:-1.0 6:-0.8090344667434692 7:-0.9045225977897644 8:-0.7549019455909729 9:0.0 10:0.0 11:-0.6000000238418579 12:0.0 13:-1.0 14:0.0 15:-1.0 16:-1.0 17:-1.0 18:0.0 19:-1.0 20:0.0 21:-1.0 22:0.0 23:0.0 24:0.0 25:-1.0 26:-1.0 27:-1.0 28:-1.0 29:-1.0 30:-1.0 31:0.0
0.061553005264459004 1:0.31940367817878723 2:0.4164086580276489 3:-0.5895750522613525 4:-0.18815423548221588 5:-0.5295780897140503 6:-0.974523663520813 7:-0.8564054369926453 8:-0.7167602777481079 9:-1.0 10:0.0 11:-1.0 12:-1.0 13:1.0 14:0.0 15:-1.0 16:-1.0 17:-1.0 18:0.0 19:-1.0 20:0.0 21:-1.0 22:0.0 23:0.0 24:0.0 25:0.0 26:-1.0 27:-0.3333333432674408 28:0.0 29:-1.0 30:-0.3333333432674408 31:0.0
-0.061553005264459004 1:-0.2757568061351776 2:-0.6616541147232056 3:-0.7583491206169128 4:-1.0 5:-1.0 6:-0.9882252216339111 7:-0.8511685132980347 8:-0.8299999833106995 9:-0.5 10:0.0 11:0.10000000149011612 12:0.0 13:-1.0 14:0.0 15:-1.0 16:-1.0 17:-1.0 18:0.0 19:-1.0 20:0.0 21:-1.0 22:0.0 23:0.0 24:0.0 25:0.0 26:-0.3333333432674408 27:-1.0 28:-1.0 29:-1.0 30:-1.0 31:0.0
0.061553005264459004 1:-0.2757568061351776 2:-0.11184210330247879 3:-0.7305378317832947 4:-0.36097097396850586 5:-0.49870580434799194 6:-0.8745450377464294 7:-0.8324607610702515 8:-0.7340425252914429 9:-0.5 10:0.0 11:-0.4000000059604645 12:0.0 13:1.0 14:0.0 15:1.0 16:-1.0 17:-1.0 18:0.0 19:-1.0 20:0.0 21:-1.0 22:0.0 23:0.0 24:0.0 25:0.0 26:-0.3333333432674408 27:-0.3333333432674408 28:0.0 29:-0.3333333432674408 30:-0.3333333432674408 31:0.0
-0.061553005264459004 1:-0.18217240273952484 2:-0.04432132840156555 3:-1.0 4:-1.0 5:-0.49870580434799194 6:-0.9993577599525452 7:-0.976331353187561 8:-0.920634925365448 9:-0.5 10:0.0 11:-0.6000000238418579 12:0.0 13:1.0 14:0.0 15:-1.0 16:-1.0 17:-1.0 18:0.0 19:-1.0 20:0.0 21:-1.0 22:0.0 23:0.0 24:0.0 25:-1.0 26:-0.3333333432674408 27:-0.3333333432674408 28:0.0 29:-0.3333333432674408 30:-0.3333333432674408 31:0.0
0.061553005264459004 1:-0.580295741558075 2:-0.8245614171028137 3:-1.0 4:-1.0 5:-1.0 6:-0.9976450204849243 7:-0.8979206085205078 8:-0.926778256893158 9:-0.5 10:0.0 11:0.4000000059604645 12:0.0 13:-1.0 14:0.0 15:-1.0 16:-1.0 17:-1.0 18:0.0 19:-1.0 20:0.0 21:-1.0 22:0.0 23:0.0 24:0.0 25:-1.0 26:-1.0 27:-1.0 28:-1.0 29:-1.0 30:-1.0 31:0.0
0.061553005264459004 1:-0.07871966063976288 2:-0.2951127886772156 3:-0.7764785885810852 4:-0.808297872543335 5:-0.8592171669006348 6:-0.9935774207115173 7:-0.9051331877708435 8:-0.72826087474823 9:-0.5 10:0.0 11:-0.6000000238418579 12:0.0 13:-1.0 14:0.0 15:-1.0 16:-1.0 17:-1.0 18:0.0 19:-1.0 20:0.0 21:1.0 22:0.0 23:0.0 24:0.0 25:-1.0 26:-1.0 27:-1.0 28:-1.0 29:-1.0 30:-1.0 31:0.0
0.061553005264459004 1:-0.43978601694107056 2:-0.5394737124443054 3:-0.7985292673110962 4:-0.825706958770752 5:-0.8592171669006348 6:-0.8629843592643738 7:-0.9321534037590027 8:-0.8571428656578064 9:-0.5 10:0.0 11:-0.4000000059604645 12:0.0 13:1.0 14:0.0 15:-1.0 16:-1.0 17:-1.0 18:0.0 19:-1.0 20:0.0 21:-1.0 22:0.0 23:0.0 24:0.0 25:-1.0 26:-0.3333333432674408 27:-1.0 28:-1.0 29:-1.0 30:-1.0 31:0.0
-0.061553005264459004 1:0.4984239339828491 2:0.5296052694320679 3:-0.7126803398132324 4:-0.14046740531921387 5:-0.26311925053596497 6:-0.9995718002319336 7:-0.92147296667099 8:-0.9545454382896423 9:-0.5 10:0.0 11:-0.5 12:0.0 13:1.0 14:0.0 15:-1.0 16:-1.0 17:-1.0 18:0.0 19:-1.0 20:0.0 21:-1.0 22:0.0 23:0.0 24:0.0 25:0.0 26:-1.0 27:-1.0 28:-1.0 29:-1.0 30:-1.0 31:0.0
-0.061553005264459004 1:0.16804420948028564 2:0.20888157188892365 3:-0.6852155327796936 4:-0.3845020532608032 5:-0.5928457975387573 6:-0.9937914609909058 7:-0.9292880892753601 8:-0.6926229596138 9:-0.5 10:0.0 11:-0.4000000059604645 12:0.0 13:1.0 14:0.0 15:-1.0 16:-1.0 17:-1.0 18:0.0 19:-1.0 20:0.0 21:-1.0 22:0.0 23:0.0 24:0.0 25:0.0 26:-1.0 27:-1.0 28:-1.0 29:-0.3333333432674408 30:-1.0 31:0.0
-0.061553005264459004 1:0.03693067282438278 2:0.2257617712020874 3:-0.7597375512123108 4:-0.43860650062561035 5:-0.5295780897140503 6:-0.9976450204849243 7:-0.9404958486557007 8:-0.8728813529014587 9:-0.5 10:0.0 11:0.10000000149011612 12:0.0 13:1.0 14:0.0 15:-1.0 16:-1.0 17:-1.0 18:0.0 19:-1.0 20:0.0 21:-1.0 22:0.0 23:0.0 24:0.0 25:0.0 26:-0.3333333432674408 27:-1.0 28:0.0 29:-1.0 30:-1.0 31:0.0
-0.061553005264459004 1:-0.07871966063976288 2:-0.2951127886772156 3:-0.8007189631462097 4:-0.8274523019790649 5:-0.8592171669006348 6:-0.9976450204849243 7:-0.9409019947052002 8:-0.9487471580505371 9:-0.5 10:0.0 11:0.6000000238418579 12:0.0 13:-1.0 14:0.0 15:-1.0 16:-1.0 17:-1.0 18:0.0 19:-1.0 20:0.0 21:-1.0 22:0.0 23:0.0 24:0.0 25:-1.0 26:-1.0 27:-1.0 28:-1.0 29:-1.0 30:-1.0 31:0.0
-0.061553005264459004 1:-0.5125521421432495 2:-0.4172932207584381 3:-0.8055028319358826 4:-0.7562723755836487 5:-0.7888122200965881 6:-0.9967886805534363 7:-0.8791018724441528 8:-0.8259493708610535 9:-0.5 10:0.0 11:-0.20000000298023224 12:0.0 13:1.0 14:0.0 15:-1.0 16:-1.0 17:-1.0 18:0.0 19:-1.0 20:0.0 21:-1.0 22:0.0 23:0.0 24:0.0 25:-1.0 26:-1.0 27:-1.0 28:-1.0 29:-1.0 30:-1.0 31:0.0
0.061553005264459004 1:-0.5125521421432495 2:-0.5844875574111938 3:-1.0 4:-1.0 5:-0.8890299797058105 6:-0.9944337606430054 7:-0.8979865908622742 8:-0.4329896867275238 9:-0.5 10:0.0 11:-0.10000000149011612 12:0.0 13:-1.0 14:0.0 15:1.0 16:-1.0 17:-1.0 18:0.0 19:-1.0 20:0.0 21:-1.0 22:0.0 23:0.0 24:0.0 25:-1.0 26:-1.0 27:-1.0 28:-1.0 29:-1.0 30:-1.0 31:0.0
0.061553005264459004 1:-0.7593159675598145 2:-0.725400447845459 3:-0.8343991637229919 4:-0.8546825051307678 5:-0.8592171669006348 6:-0.9997859001159668 7:-0.9967564344406128 8:-0.9583333134651184 9:-0.5 10:0.0 11:0.0 12:0.0 13:-1.0 14:0.0 15:1.0 16:-1.0 17:-1.0 18:0.0 19:-1.0 20:0.0 21:-1.0 22:0.0 23:0.0 24:0.0 25:-1.0 26:-1.0 27:-1.0 28:-1.0 29:-1.0 30:-1.0 31:0.0
0.061553005264459004 1:-0.2757568061351776 2:-0.6616541147232056 3:-1.0 4:-1.0 5:-1.0 6:-0.9942196607589722 7:-0.8957271575927734 8:-0.6361502408981323 9:-0.5 10:0.0 11:-0.10000000149011612 12:0.0 13:-1.0 14:0.0 15:1.0 16:-1.0 17:-1.0 18:0.0 19:-1.0 20:0.0 21:-1.0 22:0.0 23:0.0 24:0.0 25:-1.0 26:-1.0 27:-1.0 28:-1.0 29:-1.0 30:-1.0 31:0.0
0.061553005264459004 1:-0.5125521421432495 2:-0.7910216450691223 3:-0.8303803205490112 4:-1.0 5:-1.0 6:-0.9995718002319336 7:-0.9366196990013123 8:-0.9275362491607666 9:-0.5 10:0.0 11:0.10000000149011612 12:0.0 13:-1.0 14:0.0 15:1.0 16:-1.0 17:-1.0 18:0.0 19:-1.0 20:0.0 21:-1.0 22:0.0 23:0.0 24:0.0 25:0.0 26:-0.3333333432674408 27:-0.3333333432674408 28:-1.0 29:-1.0 30:-0.3333333432674408 31:0.0
-0.061553005264459004 1:-0.6436656713485718 2:-0.8545706272125244 3:-0.822812020778656 4:-1.0 5:-1.0 6:-0.9980732202529907 7:-0.9494344592094421 8:-0.819915235042572 9:-0.5 10:0.0 11:0.20000000298023224 12:0.0 13:-1.0 14:0.0 15:1.0 16:-1.0 17:-1.0 18:0.0 19:-1.0 20:0.0 21:-1.0 22:0.0 23:0.0 24:0.0 25:-1.0 26:-1.0 27:-1.0 28:-1.0 29:-1.0 30:-1.0 31:0.0
0.061553005264459004 1:0.4984239339828491 2:0.4379699230194092 3:-0.5359840393066406 4:0.11299904435873032 5:-0.27059224247932434 6:-0.9933633208274841 7:-0.8133686184883118 8:-0.8125 9:-0.5 10:0.0 11:-0.4000000059604645 12:0.0 13:1.0 14:0.0 15:-1.0 16:-1.0 17:-1.0 18:0.0 19:-1.0 20:0.0 21:-1.0 22:0.0 23:0.0 24:0.0 25:0.0 26:-0.3333333432674408 27:-0.3333333432674408 28:0.0 29:-0.3333333432674408 30:-0.3333333432674408 31:0.0
-0.061553005264459004 1:-0.43978601694107056 2:-0.5394737124443054 3:-0.8316171169281006 4:-0.8819791674613953 5:-0.8890299797058105 6:-0.5035324096679688 7:-0.9593164920806885 8:-0.7368420958518982 9:-0.5 10:0.0 11:-0.30000001192092896 12:0.0 13:-1.0 14:0.0 15:1.0 16:-1.0 17:-1.0 18:0.0 19:-1.0 20:0.0 21:-1.0 22:0.0 23:0.0 24:0.0 25:-1.0 26:-1.0 27:-1.0 28:-1.0 29:-1.0 30:-1.0 31:0.0
-0.061553005264459004 1:-0.5125521421432495 2:-0.5844875574111938 3:-1.0 4:-1.0 5:-0.8592171669006348 6:-0.9980732202529907 7:-0.9178082346916199 8:-0.8214285969734192 9:-0.5 10:0.0 11:-0.4000000059604645 12:0.0 13:-1.0 14:0.0 15:1.0 16:-1.0 17:-1.0 18:0.0 19:-1.0 20:0.0 21:-1.0 22:0.0 23:0.0 24:0.0 25:-1.0 26:-1.0 27:-1.0 28:-1.0 29:-1.0 30:-1.0 31:0.0
-0.061553005264459004 1:-0.2757568061351776 2:-0.4325657784938812 3:-1.0 4:-1.0 5:-0.8890299797058105 6:-0.9905802011489868 7:-0.8934911489486694 8:-0.8141891956329346 9:-0.5 10:0.0 11:0.10000000149011612 12:0.0 13:-1.0 14:0.0 15:1.0 16:-1.0 17:-1.0 18:0.0 19:-1.0 20:0.0 21:-1.0 22:0.0 23:0.0 24:0.0 25:-1.0 26:-1.0 27:-1.0 28:-1.0 29:-1.0 30:-1.0 31:0.0
0.061553005264459004 1:-0.18217240273952484 2:-0.1873065084218979 3:-1.0 4:-1.0 5:-0.44516071677207947 6:-0.9982873201370239 7:-0.8778054714202881 8:-0.8703703880310059 9:-0.5 10:0.0 11:-0.20000000298023224 12:0.0 13:1.0 14:0.0 15:-1.0 16:-1.0 17:-1.0 18:0.0 19:-1.0 20:0.0 21:-1.0 22:0.0 23:0.0 24:0.0 25:-1.0 26:-1.0 27:-1.0 28:-1.0 29:-1.0 30:-1.0 31:0.0
0.061553005264459004 1:-0.580295741558075 2:-0.8245614171028137 3:-0.8406762480735779 4:-1.0 5:-1.0 6:-1.0 7:-0.9873949289321899 8:-1.0 9:-0.5 10:0.0 11:0.4000000059604645 12:0.0 13:-1.0 14:0.0 15:-1.0 16:-1.0 17:-1.0 18:0.0 19:-1.0 20:0.0 21:-1.0 22:0.0 23:0.0 24:0.0 25:-1.0 26:-1.0 27:-1.0 28:-1.0 29:-1.0 30:-1.0 31:0.0
-0.061553005264459004 1:-0.2757568061351776 2:-0.4325657784938812 3:-1.0 4:-1.0 5:-0.8890299797058105 6:-0.9997859001159668 7:-0.9260355234146118 8:-0.920634925365448 9:-0.5 10:0.0 11:0.10000000149011612 12:0.0 13:-1.0 14:0.0 15:1.0 16:-1.0 17:-1.0 18:0.0 19:-1.0 20:0.0 21:-1.0 22:0.0 23:0.0 24:0.0 25:-1.0 26:-1.0 27:-1.0 28:-1.0 29:-1.0 30:-1.0 31:0.0
-0.061553005264459004 1:-0.2757568061351776 2:-0.4325657784938812 3:-0.8183085322380066 4:-0.8415823578834534 5:-0.8592171669006348 6:-1.0 7:-0.9638916850090027 8:-0.9528301954269409 9:-0.5 10:0.0 11:0.699999988079071 12:0.0 13:-1.0 14:0.0 15:-1.0 16:-1.0 17:-1.0 18:0.0 19:-1.0 20:0.0 21:-1.0 22:0.0 23:0.0 24:0.0 25:0.0 26:-0.3333333432674408 27:-1.0 28:-1.0 29:-1.0 30:-1.0 31:0.0
-0.061553005264459004 1:-0.580295741558075 2:-0.8245614171028137 3:-1.0 4:-1.0 5:-1.0 6:-0.999143660068512 7:-0.9399999976158142 8:-0.8611111044883728 9:-0.5 10:0.0 11:-0.699999988079071 12:0.0 13:-1.0 14:0.0 15:1.0 16:-1.0 17:-1.0 18:0.0 19:-1.0 20:0.0 21:-1.0 22:0.0 23:0.0 24:0.0 25:-1.0 26:-1.0 27:-1.0 28:-1.0 29:-1.0 30:-1.0 31:0.0
0.061553005264459004 1:-0.36119264364242554 2:-0.3144044280052185 3:-0.707150936126709 4:-0.2742207944393158 5:-0.44516071677207947 6:-0.9955042004585266 7:-0.8994975090026855 8:-0.8644578456878662 9:-0.5 10:0.0 11:-0.10000000149011612 12:0.0 13:1.0 14:0.0 15:-1.0 16:-1.0 17:-1.0 18:0.0 19:-1.0 20:0.0 21:-1.0 22:0.0 23:0.0 24:0.0 25:0.0 26:-1.0 27:-1.0 28:-1.0 29:-0.3333333432674408 30:-1.0 31:0.0
0.061553005264459004 1:-0.2757568061351776 2:-0.4325657784938812 3:-1.0 4:-1.0 5:-0.8592171669006348 6:-0.9993577599525452 7:-0.9539700746536255 8:-0.8275862336158752 9:-0.5 10:0.0 11:-0.5 12:0.0 13:-1.0 14:0.0 15:1.0 16:-1.0 17:-1.0 18:0.0 19:-1.0 20:0.0 21:-1.0 22:0.0 23:0.0 24:0.0 25:-1.0 26:-1.0 27:-1.0 28:-1.0 29:-1.0 30:-1.0 31:0.0
0.061553005264459004 1:-0.07871966063976288 2:0.14473684132099152 3:-0.6927013993263245 4:-0.20087599754333496 5:-0.38719648122787476 6:-0.9959323406219482 7:-0.9455999732017517 8:-0.9285714030265808 9:-0.5 10:0.0 11:-0.30000001192092896 12:0.0 13:1.0 14:0.0 15:-1.0 16:-1.0 17:-1.0 18:0.0 19:-1.0 20:0.0 21:-1.0 22:0.0 23:0.0 24:0.0 25:0.0 26:-0.3333333432674408 27:-1.0 28:-1.0 29:-1.0 30:-1.0 31:0.0
0.061553005264459004 1:-0.18217240273952484 2:-0.04432132840156555 3:-1.0 4:-1.0 5:-0.5928457975387573 6:-0.9987154603004456 7:-0.9852398633956909 8:-0.8863636255264282 9:-0.5 10:0.0 11:0.30000001192092896 12:0.0 13:-1.0 14:0.0 15:1.0 16:-1.0 17:-1.0 18:0.0 19:-1.0 20:0.0 21:-1.0 22:0.0 23:0.0 24:0.0 25:-1.0 26:-1.0 27:-1.0 28:-1.0 29:-1.0 30:-1.0 31:0.0
0.061553005264459004 1:-0.18217240273952484 2:-0.3684210479259491 3:-1.0 4:-1.0 5:-0.8592171669006348 6:-1.0 7:-1.0 8:-1.0 9:-0.5 10:0.0 11:0.6000000238418579 12:0.0 13:-1.0 14:0.0 15:-1.0 16:-1.0 17:-1.0 18:0.0 19:-1.0 20:0.0 21:-1.0 22:0.0 23:0.0 24:0.0 25:-1.0 26:-1.0 27:-1.0 28:-1.0 29:-1.0 30:-1.0 31:0.0
0.061553005264459004 1:-0.18217240273952484 2:-0.3684210479259491 3:-0.8111205101013184 4:-0.8357842564582825 5:-0.8592171669006348 6:-0.9950760006904602 7:-0.7904762029647827 8:-0.6499999761581421 9:-1.0 10:0.0 11:-1.0 12:-1.0 13:1.0 14:0.0 15:-1.0 16:-1.0 17:-1.0 18:0.0 19:-1.0 20:0.0 21:-1.0 22:0.0 23:0.0 24:0.0 25:-1.0 26:-1.0 27:-1.0 28:-1.0 29:-1.0 30:-1.0 31:0.0
0.061553005264459004 1:-0.07871966063976288 2:-0.2951127886772156 3:-1.0 4:-1.0 5:-0.8592171669006348 6:-0.9985014200210571 7:-0.8382716178894043 8:-0.9303405284881592 9:-0.5 10:0.0 11:-0.30000001192092896 12:0.0 13:-1.0 14:0.0 15:1.0 16:-1.0 17:-1.0 18:0.0 19:-1.0 20:0.0 21:-1.0 22:0.0 23:0.0 24:0.0 25:-1.0 26:-1.0 27:-1.0 28:-1.0 29:-1.0 30:-1.0 31:0.0
0.061553005264459004 1:-0.5125521421432495 2:-0.7910216450691223 3:-0.8453693389892578 4:-1.0 5:-1.0 6:-0.9967886805534363 7:-0.9647696614265442 8:-0.9545454382896423 9:-0.5 10:0.0 11:0.5 12:0.0 13:-1.0 14:0.0 15:-1.0 16:-1.0 17:-1.0 18:0.0 19:-1.0 20:0.0 21:-1.0 22:0.0 23:0.0 24:0.0 25:-1.0 26:-1.0 27:-1.0 28:-1.0 29:-1.0 30:-1.0 31:0.0
-0.061553005264459004 1:-0.580295741558075 2:-0.8245614171028137 3:-1.0 4:-1.0 5:-1.0 6:-0.801969587802887 7:-0.3885819613933563 8:0.23999999463558197 9:-0.5 10:0.0 11:-0.800000011920929 12:0.0 13:-1.0 14:0.0 15:-1.0 16:-1.0 17:-1.0 18:0.0 19:-1.0 20:0.0 21:1.0 22:0.0 23:0.0 24:0.0 25:-1.0 26:-0.3333333432674408 27:0.3333333432674408 28:0.0 29:0.3333333432674408 30:0.3333333432674408 31:0.0
0.061553005264459004 1:0.7175269722938538 2:0.7659279704093933 3:-0.5412439703941345 4:0.32932063937187195 5:0.10169719159603119 6:-0.9974309802055359 7:-0.6685393452644348 8:-0.6764705777168274 9:-0.5 10:0.0 11:-0.20000000298023224 12:0.0 13:1.0 14:0.0 15:-1.0 16:-1.0 17:-1.0 18:0.0 19:-1.0 20:0.0 21:-1.0 22:0.0 23:0.0 24:0.0 25:0.0 26:-0.3333333432674408 27:-1.0 28:-1.0 29:-0.3333333432674408 30:-1.0 31:0.0
-0.061553005264459004 1:0.4984239339828491 2:0.5296052694320679 3:-1.0 4:-1.0 5:-0.10368858277797699 6:-0.999143660068512 7:-0.9272860884666443 8:-0.9747474789619446 9:-0.5 10:0.0 11:-0.6000000238418579 12:0.0 13:1.0 14:0.0 15:-1.0 16:-1.0 17:-1.0 18:0.0 19:-1.0 20:0.0 21:-1.0 22:0.0 23:0.0 24:0.0 25:-1.0 26:-1.0 27:-1.0 28:-1.0 29:-1.0 30:-1.0 31:0.0
-0.061553005264459004 1:0.03693067282438278 2:0.2257617712020874 3:-1.0 4:-1.0 5:-0.1641201674938202 6:-0.999143660068512 7:-0.9047619104385376 8:-1.0 9:-0.5 10:0.0 11:-0.30000001192092896 12:0.0 13:1.0 14:0.0 15:-1.0 16:-1.0 17:-1.0 18:0.0 19:-1.0 20:0.0 21:-1.0 22:0.0 23:0.0 24:0.0 25:-1.0 26:-1.0 27:-1.0 28:-1.0 29:-1.0 30:-1.0 31:0.0
-0.061553005264459004 1:-0.07871966063976288 2:0.31578946113586426 3:-1.0 4:-1.0 5:-0.17004747688770294 6:-0.9997859001159668 7:-0.9704433679580688 8:-1.0 9:-0.5 10:0.0 11:0.20000000298023224 12:0.0 13:1.0 14:0.0 15:-1.0 16:-1.0 17:-1.0 18:0.0 19:-1.0 20:0.0 21:-1.0 22:0.0 23:0.0 24:0.0 25:-1.0 26:-1.0 27:-1.0 28:-1.0 29:-1.0 30:-1.0 31:0.0
-0.061553005264459004 1:0.31940367817878723 2:0.4164086580276489 3:-0.655560314655304 4:-0.14206546545028687 5:-0.38719648122787476 6:-0.9965745806694031 7:-0.7577002048492432 8:-0.836309552192688 9:-0.5 10:0.0 11:-0.30000001192092896 12:0.0 13:1.0 14:0.0 15:-1.0 16:-1.0 17:-1.0 18:0.0 19:-1.0 20:0.0 21:-1.0 22:0.0 23:0.0 24:0.0 25:-1.0 26:-1.0 27:-1.0 28:-1.0 29:-1.0 30:-1.0 31:0.0
0.061553005264459004 1:-0.580295741558075 2:-0.8245614171028137 3:-0.8127971291542053 4:-1.0 5:-1.0 6:-0.975380003452301 7:-0.8505869507789612 8:-0.43661972880363464 9:-0.5 10:0.0 11:-0.4000000059604645 12:0.0 13:-1.0 14:0.0 15:-1.0 16:-1.0 17:-1.0 18:0.0 19:-1.0 20:0.0 21:1.0 22:0.0 23:0.0 24:0.0 25:0.0 26:-1.0 27:-0.3333333432674408 28:0.0 29:-0.3333333432674408 30:-0.3333333432674408 31:0.0
0.061553005264459004 1:-0.07871966063976288 2:-0.2951127886772156 3:-0.774635374546051 4:-0.8448647260665894 5:-0.8890299797058105 6:-0.9717405438423157 7:-0.8975974917411804 8:-0.693708598613739 9:-1.0 10:0.0 11:-1.0 12:-1.0 13:-1.0 14:0.0 15:-1.0 16:-1.0 17:-1.0 18:0.0 19:-1.0 20:0.0 21:1.0 22:0.0 23:0.0 24:0.0 25:0.0 26:-0.3333333432674408 27:-0.3333333432674408 28:0.0 29:-0.3333333432674408 30:-0.3333333432674408 31:0.0
0.061553005264459004 1:-0.5125521421432495 2:-0.7910216450691223 3:-0.8127971291542053 4:-1.0 5:-1.0 6:-0.9698137640953064 7:-0.8129496574401855 8:-0.6830065250396729 9:-0.5 10:0.0 11:0.10000000149011612 12:0.0 13:-1.0 14:0.0 15:-1.0 16:-1.0 17:-1.0 18:0.0 19:-1.0 20:0.0 21:1.0 22:0.0 23:0.0 24:0.0 25:-1.0 26:-1.0 27:-0.3333333432674408 28:0.0 29:-0.3333333432674408 30:-0.3333333432674408 31:0.0
-0.061553005264459004 1:0.16804420948028564 2:0.20888157188892365 3:-0.6450642347335815 4:-0.16195453703403473 5:-0.4276271164417267 6:-0.9935774207115173 7:-0.7571157217025757 8:-0.7410714030265808 9:-0.5 10:0.0 11:-0.800000011920929 12:0.0 13:-1.0 14:0.0 15:-1.0 16:-1.0 17:-1.0 18:0.0 19:-1.0 20:0.0 21:1.0 22:0.0 23:0.0 24:0.0 25:0.0 26:-0.3333333432674408 27:-0.3333333432674408 28:0.0 29:-0.3333333432674408 30:-0.3333333432674408 31:0.0
0.061553005264459004 1:0.4984239339828491 2:0.6578947305679321 3:-1.0 4:-1.0 5:0.3657241463661194 6:-0.9995718002319336 7:-0.8095238208770752 8:-0.9305555820465088 9:-0.5 10:0.0 11:0.10000000149011612 12:0.0 13:1.0 14:0.0 15:-1.0 16:-1.0 17:-1.0 18:0.0 19:-1.0 20:0.0 21:-1.0 22:0.0 23:0.0 24:0.0 25:-1.0 26:-1.0 27:-1.0 28:-1.0 29:-1.0 30:-1.0 31:0.0
-0.061553005264459004 1:-0.2757568061351776 2:-0.6616541147232056 3:-0.7970542907714844 4:-1.0 5:-1.0 6:-0.9907942414283752 7:-0.8644859790802002 8:-0.8568702340126038 9:-0.5 10:0.0 11:-0.6000000238418579 12:0.0 13:-1.0 14:0.0 15:-1.0 16:-1.0 17:-1.0 18:0.0 19:-1.0 20:0.0 21:1.0 22:0.0 23:0.0 24:0.0 25:0.0 26:-0.3333333432674408 27:-1.0 28:-1.0 29:-0.3333333432674408 30:-1.0 31:0.0
0.061553005264459004 1:0.16804420948028564 2:0.4013157784938812 3:-0.6811625957489014 4:-0.10366101562976837 5:-0.2878800630569458 6:-0.9734532237052917 7:-0.9057239294052124 8:-0.9662162065505981 9:-0.5 10:0.0 11:-0.5 12:0.0 13:1.0 14:0.0 15:-1.0 16:-1.0 17:-1.0 18:0.0 19:-1.0 20:0.0 21:-1.0 22:0.0 23:0.0 24:0.0 25:-1.0 26:-1.0 27:-1.0 28:-1.0 29:-1.0 30:-1.0 31:0.0
-0.061553005264459004 1:-0.36119264364242554 2:-0.4891640841960907 3:-0.7641397714614868 4:-0.7986867427825928 5:-0.8592171669006348 6:-0.9989295601844788 7:-0.951586902141571 8:-0.9640287756919861 9:-1.0 10:0.0 11:-1.0 12:-1.0 13:-1.0 14:0.0 15:-1.0 16:-1.0 17:-1.0 18:0.0 19:-1.0 20:0.0 21:1.0 22:0.0 23:0.0 24:0.0 25:0.0 26:-1.0 27:-1.0 28:-1.0 29:-1.0 30:-1.0 31:0.0
0.061553005264459004 1:0.16804420948028564 2:0.31578946113586426 3:-0.7759876847267151 4:-0.46735680103302 5:-0.5295780897140503 6:-0.9723827838897705 7:-0.8367859125137329 8:-0.5911949872970581 9:-0.5 10:0.0 11:-0.5 12:0.0 13:1.0 14:0.0 15:-1.0 16:-1.0 17:-1.0 18:0.0 19:-1.0 20:0.0 21:-1.0 22:0.0 23:0.0 24:0.0 25:-1.0 26:-1.0 27:-1.0 28:-1.0 29:-1.0 30:-1.0 31:0.0
-0.061553005264459004 1:0.31940367817878723 2:0.31578946113586426 3:-1.0 4:-1.0 5:-0.4276271164417267 6:-0.9648897647857666 7:-0.991182804107666 8:-0.9107142686843872 9:-0.5 10:0.0 11:-0.4000000059604645 12:0.0 13:1.0 14:0.0 15:-1.0 16:-1.0 17:-1.0 18:0.0 19:-1.0 20:0.0 21:-1.0 22:0.0 23:0.0 24:0.0 25:-1.0 26:-0.3333333432674408 27:-0.3333333432674408 28:0.0 29:-0.3333333432674408 30:-0.3333333432674408 31:0.0
-0.061553005264459004 1:-0.07871966063976288 2:-0.11184210330247879 3:-0.721453070640564 4:-0.5302462577819824 5:-0.6785190105438232 6:-0.9937914609909058 7:-0.9494931697845459 8:-0.8837209343910217 9:-0.5 10:0.0 11:0.6000000238418579 12:0.0 13:-1.0 14:0.0 15:-1.0 16:-1.0 17:-1.0 18:0.0 19:-1.0 20:0.0 21:-1.0 22:0.0 23:0.0 24:0.0 25:0.0 26:-1.0 27:-0.3333333432674408 28:0.0 29:-0.3333333432674408 30:-0.3333333432674408 31:0.0
-0.061553005264459004 1:0.16804420948028564 2:0.31578946113586426 3:-0.7669694423675537 4:-0.45127764344215393 5:-0.5295780897140503 6:-0.9987154603004456 7:-0.8649517893791199 8:-0.8113207817077637 9:-0.5 10:0.0 11:-0.4000000059604645 12:0.0 13:1.0 14:0.0 15:-1.0 16:-1.0 17:-1.0 18:0.0 19:-1.0 20:0.0 21:-1.0 22:0.0 23:0.0 24:0.0 25:-1.0 26:-0.3333333432674408 27:-0.3333333432674408 28:0.0 29:-1.0 30:-0.3333333432674408 31:0.0
0.061553005264459004 1:-0.36119264364242554 2:-0.4891640841960907 3:-0.7421651482582092 4:-0.781796395778656 5:-0.8592171669006348 6:-0.9987154603004456 7:-0.8206278085708618 8:-0.8648648858070374 9:-1.0 10:0.0 11:-1.0 12:-1.0 13:-1.0 14:0.0 15:-1.0 16:-1.0 17:-1.0 18:0.0 19:-1.0 20:0.0 21:1.0 22:0.0 23:0.0 24:0.0 25:0.0 26:-0.3333333432674408 27:-0.3333333432674408 28:0.0 29:-0.3333333432674408 30:-0.3333333432674408 31:0.0
0.061553005264459004 1:-0.36119264364242554 2:-0.7105262875556946 3:-0.8212248086929321 4:-1.0 5:-1.0 6:-0.9978591203689575 7:-0.7827476263046265 8:-0.7552447319030762 9:-1.0 10:0.0 11:-1.0 12:-1.0 13:-1.0 14:0.0 15:-1.0 16:-1.0 17:-1.0 18:0.0 19:-1.0 20:0.0 21:1.0 22:0.0 23:0.0 24:0.0 25:0.0 26:-0.3333333432674408 27:-1.0 28:-1.0 29:-1.0 30:-1.0 31:0.0
0.061553005264459004 1:-0.43978601694107056 2:-0.5394737124443054 3:-0.783006489276886 4:-0.813420295715332 5:-0.8592171669006348 6:-0.9967886805534363 7:-0.8812785148620605 8:-0.761904776096344 9:-1.0 10:0.0 11:-1.0 12:-1.0 13:-1.0 14:0.0 15:-1.0 16:-1.0 17:-1.0 18:0.0 19:-1.0 20:0.0 21:1.0 22:0.0 23:0.0 24:0.0 25:0.0 26:-0.3333333432674408 27:-1.0 28:-1.0 29:-1.0 30:-1.0 31:0.0
-0.061553005264459004 1:-0.2757568061351776 2:-0.4325657784938812 3:-0.8040708899497986 4:-0.8301298022270203 5:-0.8592171669006348 6:-0.9997859001159668 7:-0.9352940917015076 8:-1.0 9:-0.5 10:0.0 11:-0.6000000238418579 12:0.0 13:-1.0 14:0.0 15:-1.0 16:-1.0 17:-1.0 18:0.0 19:-1.0 20:0.0 21:-1.0 22:0.0 23:0.0 24:0.0 25:-1.0 26:-1.0 27:-1.0 28:-1.0 29:-1.0 30:-1.0 31:0.0
-0.061553005264459004 1:-0.36119264364242554 2:-0.17293232679367065 3:-1.0 4:-1.0 5:-0.5928457975387573 6:-0.9989295601844788 7:-0.9553072452545166 8:-1.0 9:-1.0 10:0.0 11:-1.0 12:-1.0 13:-1.0 14:0.0 15:-1.0 16:-1.0 17:-1.0 18:0.0 19:-1.0 20:0.0 21:1.0 22:0.0 23:0.0 24:0.0 25:-1.0 26:-1.0 27:-1.0 28:-1.0 29:-1.0 30:-1.0 31:0.0
0.061553005264459004 1:0.7175269722938538 2:0.6578947305679321 3:-0.008694411255419254 4:0.6758418083190918 5:0.07287411391735077 6:-0.994861900806427 7:-0.6055900454521179 8:-0.5859872698783875 9:-0.5 10:0.0 11:0.6000000238418579 12:0.0 13:1.0 14:0.0 15:-1.0 16:-1.0 17:-1.0 18:0.0 19:-1.0 20:0.0 21:-1.0 22:0.0 23:0.0 24:0.0 25:0.0 26:-0.3333333432674408 27:-0.3333333432674408 28:0.0 29:-0.3333333432674408 30:-0.3333333432674408 31:0.0
-0.061553005264459004 1:-0.43978601694107056 2:-0.3684210479259491 3:-0.8112586736679077 4:-0.658092737197876 5:-0.6785190105438232 6:-0.9997859001159668 7:-0.7489361763000488 8:-0.925000011920929 9:-0.5 10:0.0 11:-0.30000001192092896 12:0.0 13:-1.0 14:0.0 15:-1.0 16:-1.0 17:-1.0 18:0.0 19:-1.0 20:0.0 21:1.0 22:0.0 23:0.0 24:0.0 25:0.0 26:-1.0 27:-1.0 28:-1.0 29:-1.0 30:-1.0 31:0.0
0.061553005264459004 1:0.16804420948028564 2:0.4712918698787689 3:-1.0 4:-1.0 5:-0.03906328231096268 6:-0.9993577599525452 7:-0.97809898853302 8:-0.9223602414131165 9:-0.5 10:0.0 11:-0.5 12:0.0 13:1.0 14:0.0 15:-1.0 16:-1.0 17:-1.0 18:0.0 19:-1.0 20:0.0 21:-1.0 22:0.0 23:0.0 24:0.0 25:-1.0 26:-1.0 27:-1.0 28:-1.0 29:-1.0 30:-1.0 31:0.0
-0.061553005264459004 1:-0.07871966063976288 2:0.14473684132099152 3:-0.7258316278457642 4:-0.40086910128593445 5:-0.5496304035186768 6:-0.9890815615653992 7:-0.8776223659515381 8:-0.7720125913619995 9:-1.0 10:0.0 11:-1.0 12:-1.0 13:-1.0 14:0.0 15:-1.0 16:-1.0 17:-1.0 18:0.0 19:-1.0 20:0.0 21:1.0 22:0.0 23:0.0 24:0.0 25:-1.0 26:-1.0 27:-1.0 28:-1.0 29:-1.0 30:-1.0 31:0.0
-0.061553005264459004 1:-0.36119264364242554 2:-0.4891640841960907 3:-0.8232475519180298 4:-0.8455855846405029 5:-0.8592171669006348 6:-1.0 7:-0.988095223903656 8:-1.0 9:-1.0 10:0.0 11:-1.0 12:-1.0 13:1.0 14:0.0 15:-1.0 16:-1.0 17:-1.0 18:0.0 19:-1.0 20:0.0 21:1.0 22:0.0 23:0.0 24:0.0 25:0.0 26:-1.0 27:-1.0 28:-1.0 29:-1.0 30:-1.0 31:0.0
-0.061553005264459004 1:-0.07871966063976288 2:0.030701754614710808 3:-0.7883723974227905 4:-0.40919071435928345 5:-0.4276271164417267 6:-0.9965745806694031 7:-0.7864077687263489 8:-0.5555555820465088 9:-0.5 10:0.0 11:-0.699999988079071 12:0.0 13:1.0 14:0.0 15:-1.0 16:-1.0 17:-1.0 18:0.0 19:-1.0 20:0.0 21:1.0 22:0.0 23:0.0 24:0.0 25:0.0 26:-1.0 27:-1.0 28:-1.0 29:-1.0 30:-1.0 31:0.0
-0.061553005264459004 1:0.31940367817878723 2:0.31578946113586426 3:-0.6760014891624451 4:-0.0738157331943512 5:-0.2588394284248352 6:-0.9980732202529907 7:-0.8633818626403809 8:-0.828125 9:-0.5 10:0.0 11:-0.10000000149011612 12:0.0 13:1.0 14:0.0 15:-1.0 16:-1.0 17:-1.0 18:0.0 19:-1.0 20:0.0 21:1.0 22:0.0 23:0.0 24:0.0 25:0.0 26:-0.3333333432674408 27:-0.3333333432674408 28:0.0 29:-0.3333333432674408 30:-0.3333333432674408 31:0.0
0.061553005264459004 1:-0.5125521421432495 2:-0.7910216450691223 3:-1.0 4:-1.0 5:-1.0 6:-0.9997859001159668 7:-0.9957756400108337 8:-1.0 9:-0.5 10:0.0 11:-0.20000000298023224 12:0.0 13:-1.0 14:0.0 15:-1.0 16:-1.0 17:-1.0 18:0.0 19:-1.0 20:0.0 21:-1.0 22:0.0 23:0.0 24:0.0 25:-1.0 26:-0.3333333432674408 27:-0.3333333432674408 28:0.0 29:-0.3333333432674408 30:-0.3333333432674408 31:0.0
0.061553005264459004 1:0.03693067282438278 2:-0.21052631735801697 3:-1.0 4:-1.0 5:-0.8592171669006348 6:-0.9177906513214111 7:-0.940708577632904 8:-0.8447204828262329 9:-0.5 10:0.0 11:-0.30000001192092896 12:0.0 13:-1.0 14:0.0 15:-1.0 16:-1.0 17:-1.0 18:0.0 19:-1.0 20:0.0 21:-1.0 22:0.0 23:0.0 24:0.0 25:-1.0 26:-1.0 27:-0.3333333432674408 28:0.0 29:-1.0 30:-0.3333333432674408 31:0.0
0.061553005264459004 1:-0.2757568061351776 2:-0.4325657784938812 3:-1.0 4:-1.0 5:-0.8592171669006348 6:-0.9993577599525452 7:-0.9356984496116638 8:-0.875 9:-0.5 10:0.0 11:0.4000000059604645 12:0.0 13:-1.0 14:0.0 15:-1.0 16:-1.0 17:-1.0 18:0.0 19:-1.0 20:0.0 21:-1.0 22:0.0 23:0.0 24:0.0 25:-1.0 26:-0.3333333432674408 27:-0.3333333432674408 28:-1.0 29:-1.0 30:-0.3333333432674408 31:0.0
0.061553005264459004 1:-0.43978601694107056 2:-0.5394737124443054 3:-1.0 4:-1.0 5:-0.8890299797058105 6:-1.0 7:-1.0 8:-1.0 9:-0.5 10:0.0 11:-0.20000000298023224 12:0.0 13:-1.0 14:0.0 15:-1.0 16:-1.0 17:-1.0 18:0.0 19:-1.0 20:0.0 21:-1.0 22:0.0 23:0.0 24:0.0 25:-1.0 26:-1.0 27:-0.3333333432674408 28:-1.0 29:-0.3333333432674408 30:-0.3333333432674408 31:0.0
-0.061553005264459004 1:-0.580295741558075 2:-0.8245614171028137 3:-0.8314296007156372 4:-1.0 5:-1.0 6:-0.9963605403900146 7:-0.9657039642333984 8:-0.875 9:-0.5 10:0.0 11:0.30000001192092896 12:0.0 13:-1.0 14:0.0 15:-1.0 16:-1.0 17:-1.0 18:0.0 19:-1.0 20:0.0 21:-1.0 22:0.0 23:0.0 24:0.0 25:0.0 26:-0.3333333432674408 27:-0.3333333432674408 28:-1.0 29:-0.3333333432674408 30:-0.3333333432674408 31:0.0
0.061553005264459004 1:0.31940367817878723 2:0.49584487080574036 3:-1.0 4:-1.0 5:-0.2669755816459656 6:-0.999143660068512 7:-0.8364115953445435 8:-0.8310810923576355 9:-0.5 10:0.0 11:-0.699999988079071 12:0.0 13:1.0 14:0.0 15:-1.0 16:-1.0 17:-1.0 18:0.0 19:-1.0 20:0.0 21:1.0 22:0.0 23:0.0 24:0.0 25:-1.0 26:-1.0 27:-1.0 28:-1.0 29:-1.0 30:-1.0 31:0.0
-0.061553005264459004 1:-0.07871966063976288 2:-0.2951127886772156 3:-0.7948711514472961 4:-0.822797954082489 5:-0.8592171669006348 6:-0.9982873201370239 7:-0.9308357238769531 8:-0.8982558250427246 9:-0.5 10:0.0 11:0.6000000238418579 12:0.0 13:-1.0 14:0.0 15:-1.0 16:-1.0 17:-1.0 18:0.0 19:-1.0 20:0.0 21:-1.0 22:0.0 23:0.0 24:0.0 25:0.0 26:-0.3333333432674408 27:-0.3333333432674408 28:0.0 29:-0.3333333432674408 30:-0.3333333432674408 31:0.0
-0.061553005264459004 1:0.16804420948028564 2:-0.11184210330247879 3:-0.7008786201477051 4:-0.7508248090744019 5:-0.8592171669006348 6:-0.9997859001159668 7:-0.9158297181129456 8:-0.9951456189155579 9:-1.0 10:0.0 11:-1.0 12:-1.0 13:-1.0 14:0.0 15:-1.0 16:-1.0 17:-1.0 18:0.0 19:-1.0 20:0.0 21:-1.0 22:0.0 23:0.0 24:0.0 25:-1.0 26:-0.3333333432674408 27:-0.3333333432674408 28:0.0 29:-0.3333333432674408 30:-0.3333333432674408 31:0.0
-0.061553005264459004 1:-0.18217240273952484 2:-0.6052631735801697 3:-0.8175910115242004 4:-1.0 5:-1.0 6:-0.999143660068512 7:-0.8893766403198242 8:-0.965753436088562 9:-0.5 10:0.0 11:-0.5 12:0.0 13:-1.0 14:0.0 15:1.0 16:-1.0 17:-1.0 18:0.0 19:-1.0 20:0.0 21:-1.0 22:0.0 23:0.0 24:0.0 25:-1.0 26:-0.3333333432674408 27:-0.3333333432674408 28:-1.0 29:-0.3333333432674408 30:-0.3333333432674408 31:0.0
-0.061553005264459004 1:-0.18217240273952484 2:-0.1873065084218979 3:-0.674273669719696 4:-0.46990767121315 5:-0.6785190105438232 6:-0.9989295601844788 7:-0.9665666818618774 8:-0.9100000262260437 9:-0.5 10:0.0 11:-0.10000000149011612 12:0.0 13:-1.0 14:0.0 15:-1.0 16:-1.0 17:-1.0 18:0.0 19:-1.0 20:0.0 21:-1.0 22:0.0 23:0.0 24:0.0 25:0.0 26:-1.0 27:-0.3333333432674408 28:0.0 29:-0.3333333432674408 30:-0.3333333432674408 31:0.0
0.061553005264459004 1:-0.2757568061351776 2:-0.4325657784938812 3:-0.7802858352661133 4:-0.8112822771072388 5:-0.8592171669006348 6:-0.9790194630622864 7:-0.9807010293006897 8:-0.7289156913757324 9:-0.5 10:0.0 11:-0.699999988079071 12:0.0 13:-1.0 14:0.0 15:-1.0 16:-1.0 17:-1.0 18:0.0 19:-1.0 20:0.0 21:1.0 22:0.0 23:0.0 24:0.0 25:0.0 26:-0.3333333432674408 27:-0.3333333432674408 28:0.0 29:-0.3333333432674408 30:-0.3333333432674408 31:0.0
0.061553005264459004 1:-0.36119264364242554 2:-0.4891640841960907 3:-0.778873085975647 4:-0.8101738095283508 5:-0.8592171669006348 6:-0.9511882066726685 7:-0.9317073225975037 8:-0.8953974843025208 9:0.5 10:0.0 11:-0.10000000149011612 12:0.0 13:-1.0 14:0.0 15:-1.0 16:-1.0 17:-1.0 18:0.0 19:-1.0 20:0.0 21:1.0 22:0.0 23:0.0 24:0.0 25:0.0 26:-1.0 27:-1.0 28:-1.0 29:-1.0 30:-1.0 31:0.0
0.061553005264459004 1:-0.07871966063976288 2:0.31578946113586426 3:-0.7824941873550415 4:-0.593374490737915 5:-0.6562143564224243 6:-0.9681010246276855 7:-0.98975670337677 8:-0.9431818127632141 9:-0.5 10:0.0 11:0.0 12:0.0 13:1.0 14:0.0 15:-1.0 16:-1.0 17:-1.0 18:0.0 19:-1.0 20:0.0 21:1.0 22:0.0 23:0.0 24:0.0 25:-1.0 26:-1.0 27:-1.0 28:-1.0 29:-1.0 30:-1.0 31:0.0
0.061553005264459004 1:-0.36119264364242554 2:-0.4891640841960907 3:-0.7581479549407959 4:-0.7940526604652405 5:-0.8592171669006348 6:-0.9970027804374695 7:-0.9173553586006165 8:-0.9285714030265808 9:-0.5 10:0.0 11:-0.4000000059604645 12:0.0 13:-1.0 14:0.0 15:-1.0 16:-1.0 17:-1.0 18:0.0 19:-1.0 20:0.0 21:1.0 22:0.0 23:0.0 24:0.0 25:0.0 26:-0.3333333432674408 27:-0.3333333432674408 28:-1.0 29:-0.3333333432674408 30:-0.3333333432674408 31:0.0
0.061553005264459004 1:0.31940367817878723 2:0.5601503849029541 3:-0.7585623860359192 4:-0.5576559901237488 5:-0.6562143564224243 6:-0.9779490232467651 7:-0.9351464509963989 8:-0.9294670820236206 9:-0.5 10:0.0 11:-0.6000000238418579 12:0.0 13:1.0 14:0.0 15:-1.0 16:-1.0 17:-1.0 18:0.0 19:-1.0 20:0.0 21:1.0 22:0.0 23:0.0 24:0.0 25:-1.0 26:-1.0 27:-1.0 28:-1.0 29:-1.0 30:-1.0 31:0.0
0.061553005264459004 1:-0.2757568061351776 2:0.0047846888191998005 3:-1.0 4:-1.0 5:-0.5295780897140503 6:-0.9496895670890808 7:-0.954607367515564 8:-0.8645598292350769 9:-0.5 10:0.0 11:-0.800000011920929 12:0.0 13:1.0 14:0.0 15:-1.0 16:-1.0 17:-1.0 18:0.0 19:-1.0 20:0.0 21:1.0 22:0.0 23:0.0 24:0.0 25:-1.0 26:-1.0 27:-1.0 28:-1.0 29:-1.0 30:-1.0 31:0.0
-0.061553005264459004 1:0.4984239339828491 2:0.5296052694320679 3:-0.7155779004096985 4:-0.36527907848358154 5:-0.5295780897140503 6:-0.9925069808959961 7:-0.771019697189331 8:-0.7884615659713745 9:-0.5 10:0.0 11:-0.6000000238418579 12:0.0 13:1.0 14:0.0 15:-1.0 16:-1.0 17:-1.0 18:0.0 19:-1.0 20:0.0 21:1.0 22:0.0 23:0.0 24:0.0 25:-1.0 26:-1.0 27:-1.0 28:-1.0 29:-1.0 30:-1.0 31:0.0
0.061553005264459004 1:-0.580295741558075 2:-0.8245614171028137 3:-1.0 4:-1.0 5:-1.0 6:-1.0 7:-0.9640287756919861 8:-1.0 9:-0.5 10:0.0 11:0.10000000149011612 12:0.0 13:-1.0 14:0.0 15:-1.0 16:-1.0 17:-1.0 18:0.0 19:-1.0 20:0.0 21:-1.0 22:0.0 23:0.0 24:0.0 25:-1.0 26:-0.3333333432674408 27:-0.3333333432674408 28:0.0 29:-0.3333333432674408 30:-0.3333333432674408 31:0.0
-0.061553005264459004 1:0.16804420948028564 2:0.4013157784938812 3:-1.0 4:-1.0 5:-0.1205209344625473 6:-0.9826589822769165 7:-0.640191376209259 8:-0.5388349294662476 9:-0.5 10:0.0 11:-0.30000001192092896 12:0.0 13:1.0 14:0.0 15:-1.0 16:-1.0 17:-1.0 18:0.0 19:-1.0 20:0.0 21:1.0 22:0.0 23:0.0 24:0.0 25:-1.0 26:-1.0 27:-1.0 28:-1.0 29:-1.0 30:-1.0 31:0.0
