SVM-light Version V6.01
0 # kernel type
3 # kernel parameter -d
1.0 # kernel parameter -g
1.0 # kernel parameter -s
0.0 # kernel parameter -r
empty# kernel parameter -u
34 # highest feature index
1700 # number of training documents
1688 # number of support vectors plus 1
-7.2852085212262185 # threshold b, each following line is a SV (starting with alpha*y)
-0.03850358362069392 1:-0.9943864941596985 2:-0.9860054850578308 3:-1.0197969675064087 4:-1.0194979906082153 5:-0.9611955285072327 6:-1.0101711750030518 7:-1.0099831819534302 8:-0.990195095539093 9:-0.9963476657867432 10:0.0 11:-0.9557498097419739 12:-0.9950119256973267 13:-0.9457976222038269 14:0.0 15:-1.0188305377960205 16:-0.9779441952705383 17:-0.9779441952705383 18:0.0 19:-1.0149693489074707 20:0.0 21:-1.0145691633224487 22:-1.0139307975769043 23:-1.0148183107376099 24:-0.9812151789665222 25:0.0 26:0.0 27:0.0 28:-1.0196040868759155 29:-1.0195280313491821 30:-1.0195817947387695 31:-1.019582748413086 32:-1.0195817947387695 33:-1.0195854902267456 34:0.0
0.03850358362069392 1:-0.9894250631332397 2:-0.9849410653114319 3:-1.0197969675064087 4:-1.0194979906082153 5:-0.9690912961959839 6:-1.0165958404541016 7:-0.9929606318473816 8:-0.966475248336792 9:-0.9963476657867432 10:0.0 11:-0.9846575260162354 12:-0.9950119256973267 13:-0.9457976222038269 14:0.0 15:-0.8756890296936035 16:-0.9779441952705383 17:-0.9779441952705383 18:0.0 19:-1.0149693489074707 20:0.0 21:-1.0124938488006592 22:-1.0144193172454834 23:-1.0137766599655151 24:-1.0199174880981445 25:0.0 26:0.0 27:0.0 28:-1.0196040868759155 29:-1.0195280313491821 30:-1.0195817947387695 31:-1.019582748413086 32:-1.0195817947387695 33:-1.0195854902267456 34:0.0
-0.03850358362069392 1:-0.9963554739952087 2:-0.9950882792472839 3:-0.9805538058280945 4:-0.9725587368011475 5:-0.9971045255661011 6:-0.964409351348877 7:-1.0061527490615845 8:-0.9667510390281677 9:-0.9963476657867432 10:0.0 11:-1.0103532075881958 12:-0.9950119256973267 13:-1.01955246925354 14:0.0 15:-0.8756890296936035 16:-0.9779441952705383 17:-0.9779441952705383 18:0.0 19:-1.0149693489074707 20:0.0 21:-1.006113052368164 22:-1.0135401487350464 23:-1.0139869451522827 24:-1.0199174880981445 25:0.0 26:0.0 27:0.0 28:-0.9535725712776184 29:-0.9486405849456787 30:-0.9542978405952454 31:-0.9547868371009827 32:-0.9555045366287231 33:-0.9541780948638916 34:0.0
0.03850358362069392 1:-0.9980922341346741 2:-0.9940475225448608 3:-0.9758190512657166 4:-0.9586911797523499 5:-0.9910541772842407 6:0.03491144999861717 7:-0.9974387884140015 8:-0.9732065796852112 9:-1.020037055015564 10:0.0 11:-1.0199891328811646 12:-1.0200529098510742 13:-1.01955246925354 14:0.0 15:-1.0188305377960205 16:-0.9779441952705383 17:-0.9779441952705383 18:0.0 19:-1.0149693489074707 20:0.0 21:-0.9979749321937561 22:-0.9938295483589172 23:-1.004948616027832 24:-0.9812151789665222 25:0.0 26:0.0 27:0.0 28:-0.9535725712776184 29:-1.0195280313491821 30:-1.0195817947387695 31:-0.9547868371009827 32:-1.0195817947387695 33:-1.0195854902267456 34:0.0
-0.03850358362069392 1:-0.9996458292007446 2:-1.0013327598571777 3:-0.9855800867080688 4:-0.9986340403556824 5:-1.0098657608032227 6:-0.05638675019145012 7:-1.0037102699279785 8:-1.0121129751205444 9:-0.9963476657867432 10:0.0 11:-0.9975053668022156 12:-0.9950119256973267 13:-1.01955246925354 14:0.0 15:-1.0188305377960205 16:-0.9779441952705383 17:-0.9779441952705383 18:0.0 19:-1.0149693489074707 20:0.0 21:-0.9624422192573547 22:-0.795089840888977 23:-0.806744396686554 24:-0.9812151789665222 25:0.0 26:0.0 27:0.0 28:-0.9535725712776184 29:-0.9486405849456787 30:-0.9542978405952454 31:-0.9547868371009827 32:-0.9555045366287231 33:-0.9541780948638916 34:0.0
0.03850358362069392 1:-1.0023342370986938 2:-1.0035367012023926 3:-0.9944771528244019 4:-1.003641128540039 5:-1.0098657608032227 6:-1.0179483890533447 7:-1.01488196849823 8:-1.0129138231277466 9:-0.9726582765579224 10:0.0 11:-1.007141351699829 12:-0.9950119256973267 13:-1.01955246925354 14:0.0 15:-1.0188305377960205 16:-0.9779441952705383 17:-0.9779441952705383 18:0.0 19:-1.0149693489074707 20:0.0 21:-0.990910530090332 22:-1.014963984489441 23:-1.015110969543457 24:-0.9812151789665222 25:0.0 26:0.0 27:0.0 28:-0.9535725712776184 29:-0.9486405849456787 30:-0.8890138864517212 31:-0.9547868371009827 32:-0.8914272785186768 33:-0.8887706995010376 34:0.0
-0.03850358362069392 1:-1.0046073198318481 2:-1.0052765607833862 3:-0.995755672454834 4:-1.0043830871582031 5:-1.0098657608032227 6:-0.677214503288269 7:-1.004543662071228 8:-1.0149033069610596 9:-0.9963476657867432 10:0.0 11:-1.013565182685852 12:-0.9950119256973267 13:-1.01955246925354 14:0.0 15:-1.0188305377960205 16:-0.9779441952705383 17:-0.9779441952705383 18:0.0 19:-1.0149693489074707 20:0.0 21:-0.9962759017944336 22:-1.0134201049804688 23:-1.015138864517212 24:-0.9812151789665222 25:0.0 26:0.0 27:0.0 28:-1.0196040868759155 29:-1.0195280313491821 30:-1.0195817947387695 31:-1.019582748413086 32:-1.0195817947387695 33:-1.0195854902267456 34:0.0
0.03850358362069392 1:-0.9943864941596985 2:-0.9919660687446594 3:-0.9684503674507141 4:-0.9241219162940979 5:-0.9690912961959839 6:-1.003746509552002 7:-0.9456896781921387 8:-0.9721331000328064 9:-0.9963476657867432 10:0.0 11:-1.0007174015045166 12:-0.9950119256973267 13:-1.01955246925354 14:0.0 15:-1.0188305377960205 16:-0.9779441952705383 17:-0.9779441952705383 18:0.0 19:-1.0149693489074707 20:0.0 21:-1.007951021194458 22:-0.5889523029327393 23:0.3061447739601135 24:-0.9812151789665222 25:0.0 26:0.0 27:0.0 28:-1.0196040868759155 29:-1.0195280313491821 30:-1.0195817947387695 31:-1.019582748413086 32:-1.0195817947387695 33:-1.0195854902267456 34:0.0
-0.03850358362069392 1:-1.0056246519088745 2:-1.0060160160064697 3:-1.0197969675064087 4:-1.0194979906082153 5:-1.0098657608032227 6:-1.0170466899871826 7:-1.0179178714752197 8:-1.019844889640808 9:-0.9963476657867432 10:0.0 11:-0.9814455509185791 12:-0.9950119256973267 13:-1.01955246925354 14:0.0 15:-0.8756890296936035 16:-0.9779441952705383 17:-0.9779441952705383 18:0.0 19:-1.0149693489074707 20:0.0 21:-1.0188804864883423 22:-0.9631270170211792 23:-0.8029734492301941 24:-1.0199174880981445 25:0.0 26:0.0 27:0.0 28:-1.0196040868759155 29:-1.0195280313491821 30:-1.0195817947387695 31:-1.019582748413086 32:-1.0195817947387695 33:-1.0195854902267456 34:0.0
0.03850358362069392 1:-0.9980922341346741 2:-0.9999946355819702 3:-0.9865756034851074 4:-0.9991811513900757 5:-1.0098657608032227 6:-0.26840147376060486 7:-1.0015171766281128 8:-0.9921204447746277 9:-0.9963476657867432 10:0.0 11:-0.9942933917045593 12:-0.9950119256973267 13:-1.01955246925354 14:0.0 15:-1.0188305377960205 16:-0.9779441952705383 17:-0.9779441952705383 18:0.0 19:-1.0149693489074707 20:0.0 21:-1.0000345706939697 22:-0.9997738599777222 23:-1.0134764909744263 24:-0.9812151789665222 25:0.0 26:0.0 27:0.0 28:-0.9535725712776184 29:-0.9486405849456787 30:-0.9542978405952454 31:-0.9547868371009827 32:-1.0195817947387695 33:-0.9541780948638916 34:0.0
-0.03850358362069392 1:-1.0010511875152588 2:-1.0066851377487183 3:-0.9907624125480652 4:-1.0194979906082153 5:-1.019808053970337 6:-0.7238780856132507 7:-0.9910043478012085 8:-1.0102287530899048 9:-0.9963476657867432 10:0.0 11:-1.0103532075881958 12:-0.9950119256973267 13:-1.01955246925354 14:0.0 15:-1.0188305377960205 16:-0.9779441952705383 17:-0.9779441952705383 18:0.0 19:-1.0149693489074707 20:0.0 21:-0.993455171585083 22:-1.010859489440918 23:-1.0144743919372559 24:-0.9812151789665222 25:0.0 26:0.0 27:0.0 28:-0.9535725712776184 29:-0.9486405849456787 30:-0.9542978405952454 31:-0.9547868371009827 32:-0.9555045366287231 33:-0.9541780948638916 34:0.0
0.03850358362069392 1:-0.9980922341346741 2:-0.9999946355819702 3:-0.9781369566917419 4:-0.99464350938797 5:-1.0098657608032227 6:-1.0121999979019165 7:-1.003773808479309 8:-1.0047776699066162 9:-0.9963476657867432 10:0.0 11:-0.9814455509185791 12:-0.9950119256973267 13:-1.01955246925354 14:0.0 15:-1.0188305377960205 16:-0.9779441952705383 17:-0.9779441952705383 18:0.0 19:-1.0149693489074707 20:0.0 21:-0.9979177713394165 22:-0.32541152834892273 23:-0.04473789408802986 24:-0.9812151789665222 25:0.0 26:0.0 27:0.0 28:-0.9535725712776184 29:-1.0195280313491821 30:-0.9542978405952454 31:-0.9547868371009827 32:-0.9555045366287231 33:-0.9541780948638916 34:0.0
-0.03850358362069392 1:-0.992113471031189 2:-0.9945206046104431 3:-0.9752745628356934 4:-0.9931544065475464 5:-1.0098657608032227 6:-0.9750044941902161 7:-0.9939460158348083 8:-0.9871999025344849 9:-0.9963476657867432 10:0.0 11:-0.9910814762115479 12:-0.9950119256973267 13:-1.01955246925354 14:0.0 15:-1.0188305377960205 16:-0.9779441952705383 17:-0.9779441952705383 18:0.0 19:-1.0149693489074707 20:0.0 21:-0.9948596358299255 22:-0.27885693311691284 23:0.014173000119626522 24:-0.9812151789665222 25:0.0 26:0.0 27:0.0 28:-0.9535725712776184 29:-0.9486405849456787 30:-0.9542978405952454 31:-0.9547868371009827 32:-0.9555045366287231 33:-0.9541780948638916 34:0.0
0.03850358362069392 1:-1.0046073198318481 2:-1.0052765607833862 3:-1.0197969675064087 4:-1.0194979906082153 5:-1.0098657608032227 6:-1.0142289400100708 7:-1.005999207496643 8:-0.9893479943275452 9:-0.9963476657867432 10:0.0 11:-0.9975053668022156 12:-0.9950119256973267 13:-1.01955246925354 14:0.0 15:-1.0188305377960205 16:-0.9779441952705383 17:-0.9779441952705383 18:0.0 19:-1.0149693489074707 20:0.0 21:-0.9840424656867981 22:-1.0177663564682007 23:-1.0152274370193481 24:-1.0199174880981445 25:0.0 26:0.0 27:0.0 28:-1.0196040868759155 29:-0.9486405849456787 30:-1.0195817947387695 31:-1.019582748413086 32:-1.0195817947387695 33:-1.0195854902267456 34:0.0
-0.03850358362069392 1:-1.0035145282745361 2:-1.0044549703598022 3:-0.9979134798049927 4:-1.0084234476089478 5:-1.011971116065979 6:-0.7566778063774109 7:-1.0147591829299927 8:-0.9917556047439575 9:-0.9963476657867432 10:0.0 11:-0.9975053668022156 12:-0.9950119256973267 13:-1.01955246925354 14:0.0 15:-0.8756890296936035 16:-0.9779441952705383 17:-0.9779441952705383 18:0.0 19:-1.0149693489074707 20:0.0 21:-1.0100258588790894 22:-1.0175608396530151 23:-1.0152227878570557 24:-1.0199174880981445 25:0.0 26:0.0 27:0.0 28:-1.0196040868759155 29:-1.0195280313491821 30:-1.0195817947387695 31:-1.019582748413086 32:-1.0195817947387695 33:-1.0195854902267456 34:0.0
0.03850358362069392 1:-0.9894250631332397 2:-0.9836401343345642 3:-0.9729380011558533 4:-0.9368886947631836 5:-0.976659893989563 6:-1.0069024562835693 7:-1.012460708618164 8:-1.0168049335479736 9:-0.9963476657867432 10:0.0 11:-0.9975053668022156 12:-0.9950119256973267 13:-0.9457976222038269 14:0.0 15:-1.0188305377960205 16:-0.9779441952705383 17:-0.9779441952705383 18:0.0 19:-1.0149693489074707 20:0.0 21:-0.9969874024391174 22:-0.6736194491386414 23:-0.3848620057106018 24:-0.9812151789665222 25:0.0 26:0.0 27:0.0 28:-0.9535725712776184 29:-1.0195280313491821 30:-0.9542978405952454 31:-0.9547868371009827 32:-0.9555045366287231 33:-0.9541780948638916 34:0.0
-0.03850358362069392 1:-1.0056246519088745 2:-1.009658694267273 3:-0.9875048995018005 4:-1.0194979906082153 5:-1.019808053970337 6:-1.0174975395202637 7:-1.0124000310897827 8:-1.0104089975357056 9:-1.020037055015564 10:0.0 11:-1.0199891328811646 12:-1.0200529098510742 13:-1.01955246925354 14:0.0 15:-1.0188305377960205 16:-0.9779441952705383 17:-0.9779441952705383 18:0.0 19:-1.0149693489074707 20:0.0 21:-1.018743634223938 22:-0.7473262548446655 23:-0.020191168412566185 24:-1.0199174880981445 25:0.0 26:0.0 27:0.0 28:-0.9535725712776184 29:-1.0195280313491821 30:-0.9542978405952454 31:-0.9547868371009827 32:-0.9555045366287231 33:-0.9541780948638916 34:0.0
0.03850358362069392 1:-1.0023342370986938 2:-1.0075771808624268 3:-0.9965628981590271 4:-1.0194979906082153 5:-1.019808053970337 6:-0.4892078638076782 7:-0.984066367149353 8:-0.9812221527099609 9:-0.9963476657867432 10:0.0 11:-1.0007174015045166 12:-0.9950119256973267 13:-1.01955246925354 14:0.0 15:-1.0188305377960205 16:-0.9779441952705383 17:-0.9779441952705383 18:0.0 19:-1.0149693489074707 20:0.0 21:-1.0034894943237305 22:-1.009365439414978 23:-1.0141842365264893 24:-0.9812151789665222 25:0.0 26:0.0 27:0.0 28:-0.9535725712776184 29:-1.0195280313491821 30:-1.0195817947387695 31:-1.019582748413086 32:-1.0195817947387695 33:-1.0195854902267456 34:0.0
-0.03850358362069392 1:-1.0056246519088745 2:-1.009658694267273 3:-1.0197969675064087 4:-1.0194979906082153 5:-1.019808053970337 6:-0.7573540806770325 7:-1.0045032501220703 8:-0.994670569896698 9:-0.9489688873291016 10:0.0 11:-1.0039293766021729 12:-0.9950119256973267 13:-1.01955246925354 14:0.0 15:-1.0188305377960205 16:-0.9779441952705383 17:-0.9779441952705383 18:0.0 19:-1.0149693489074707 20:0.0 21:-1.017191767692566 22:-1.014191746711731 23:-1.0145457983016968 24:-1.0199174880981445 25:0.0 26:0.0 27:0.0 28:-1.0196040868759155 29:-1.0195280313491821 30:-1.0195817947387695 31:-1.019582748413086 32:-1.0195817947387695 33:-1.0195854902267456 34:0.0
0.03850358362069392 1:-1.0010511875152588 2:-1.002503514289856 3:-0.9811798334121704 4:-0.9962539076805115 5:-1.0098657608032227 6:-1.0150178670883179 7:-1.0041089057922363 8:-1.0102534294128418 9:-0.9963476657867432 10:0.0 11:-0.9653856754302979 12:-0.9950119256973267 13:-1.01955246925354 14:0.0 15:-1.0188305377960205 16:-0.9779441952705383 17:-0.9779441952705383 18:0.0 19:-1.0149693489074707 20:0.0 21:-1.0174733400344849 22:-0.7503957152366638 23:-0.022551584988832474 24:-0.9812151789665222 25:0.0 26:0.0 27:0.0 28:-0.9535725712776184 29:-0.9486405849456787 30:-0.8890138864517212 31:-0.9547868371009827 32:-0.9555045366287231 33:-0.8887706995010376 34:0.0
-0.03850358362069392 1:-1.0056246519088745 2:-1.009658694267273 3:-0.9971622824668884 4:-1.0194979906082153 5:-1.019808053970337 6:-1.016370415687561 7:-1.0101326704025269 8:-1.0157077312469482 9:-0.9963476657867432 10:0.0 11:-1.0007174015045166 12:-0.9950119256973267 13:-1.01955246925354 14:0.0 15:-1.0188305377960205 16:-0.9779441952705383 17:-0.9779441952705383 18:0.0 19:-1.0149693489074707 20:0.0 21:-1.0182816982269287 22:-0.9679061770439148 23:-0.7873393893241882 24:-1.0199174880981445 25:0.0 26:0.0 27:0.0 28:-1.0196040868759155 29:-1.0195280313491821 30:-1.0195817947387695 31:-1.019582748413086 32:-1.0195817947387695 33:-1.0195854902267456 34:0.0
0.03850358362069392 1:-1.0056246519088745 2:-1.009658694267273 3:-0.9968867301940918 4:-1.0194979906082153 5:-1.019808053970337 6:-1.0178357362747192 7:-1.0176520347595215 8:-1.019844889640808 9:-1.020037055015564 10:0.0 11:-1.0199891328811646 12:-1.0200529098510742 13:-1.01955246925354 14:0.0 15:-0.8756890296936035 16:-0.9779441952705383 17:-0.9779441952705383 18:0.0 19:-1.0149693489074707 20:0.0 21:-1.0037391185760498 22:-1.0096564292907715 23:-1.0141444206237793 24:-1.0199174880981445 25:0.0 26:0.0 27:0.0 28:-1.0196040868759155 29:-1.0195280313491821 30:-1.0195817947387695 31:-1.019582748413086 32:-1.0195817947387695 33:-1.0195854902267456 34:0.0
-0.03850358362069392 1:-0.9996458292007446 2:-0.9933041334152222 3:-0.9714906811714172 4:-0.9500294327735901 5:-0.9880022406578064 6:-0.7842926979064941 7:-0.9513325691223145 8:-0.9262053966522217 9:-0.9963476657867432 10:0.0 11:-1.0039293766021729 12:-0.9950119256973267 13:-0.9457976222038269 14:0.0 15:-1.0188305377960205 16:-0.9779441952705383 17:-0.9779441952705383 18:0.0 19:-1.0149693489074707 20:0.0 21:-0.9885094165802002 22:-0.9862474203109741 23:-0.996684193611145 24:-0.9812151789665222 25:0.0 26:0.0 27:0.0 28:-0.9535725712776184 29:-0.9486405849456787 30:-0.9542978405952454 31:-0.9547868371009827 32:-0.9555045366287231 33:-0.9541780948638916 34:0.0
0.03850358362069392 1:-1.0056246519088745 2:-1.009658694267273 3:-0.9924085736274719 4:-1.0194979906082153 5:-1.019808053970337 6:-0.8616143465042114 7:-1.0185719728469849 8:-1.0191904306411743 9:-0.9726582765579224 10:0.0 11:-1.0103532075881958 12:-0.9950119256973267 13:-1.01955246925354 14:0.0 15:-1.0188305377960205 16:-0.9779441952705383 17:-0.9779441952705383 18:0.0 19:-1.0149693489074707 20:0.0 21:-1.0081415176391602 22:-0.685562789440155 23:-0.2744796872138977 24:-0.9812151789665222 25:0.0 26:0.0 27:0.0 28:-0.9535725712776184 29:-0.9486405849456787 30:-0.9542978405952454 31:-0.9547868371009827 32:-0.9555045366287231 33:-0.9541780948638916 34:0.0
-0.022309730804863648 1:-1.0083130598068237 2:-1.0111454725265503 3:-1.0197969675064087 4:-1.0194979906082153 5:-1.019808053970337 6:-1.0180611610412598 7:-1.015924334526062 8:-1.019844889640808 9:-0.9963476657867432 10:0.0 11:-0.9621737003326416 12:-0.9950119256973267 13:-1.01955246925354 14:0.0 15:-1.0188305377960205 16:-0.9779441952705383 17:-0.9779441952705383 18:0.0 19:-1.0149693489074707 20:0.0 21:-1.0184870958328247 22:-0.9950937628746033 23:-0.9833592772483826 24:-1.0199174880981445 25:0.0 26:0.0 27:0.0 28:-1.0196040868759155 29:-1.0195280313491821 30:-1.0195817947387695 31:-1.019582748413086 32:-1.0195817947387695 33:-1.0195854902267456 34:0.0
0.03850358362069392 1:-1.0010511875152588 2:-1.002503514289856 3:-1.0197969675064087 4:-1.0194979906082153 5:-1.0098657608032227 6:-1.0167086124420166 7:-0.9937729835510254 8:-1.0147942304611206 9:-0.9963476657867432 10:0.0 11:-1.007141351699829 12:-0.9950119256973267 13:-1.01955246925354 14:0.0 15:-1.0188305377960205 16:-0.9779441952705383 17:-0.9779441952705383 18:0.0 19:-1.0149693489074707 20:0.0 21:-0.9936390519142151 22:-0.9340080618858337 23:-1.0039646625518799 24:-1.0199174880981445 25:0.0 26:0.0 27:0.0 28:-1.0196040868759155 29:-1.0195280313491821 30:-1.0195817947387695 31:-1.019582748413086 32:-1.0195817947387695 33:-1.0195854902267456 34:0.0
-0.03850358362069392 1:-0.9980922341346741 2:-1.0044549703598022 3:-0.9948784708976746 4:-1.0194979906082153 5:-1.019808053970337 6:-1.0000269412994385 7:-0.987697422504425 8:-0.9675756692886353 9:-0.9726582765579224 10:0.0 11:-1.0103532075881958 12:-0.9699708819389343 13:-1.01955246925354 14:0.0 15:-0.8756890296936035 16:-0.9779441952705383 17:-0.9779441952705383 18:0.0 19:-1.0149693489074707 20:0.0 21:-0.9711564183235168 22:-1.0172605514526367 23:-1.0152440071105957 24:-0.9812151789665222 25:0.0 26:0.0 27:0.0 28:-0.8875411152839661 29:-0.9486405849456787 30:-0.9542978405952454 31:-0.9547868371009827 32:-0.8914272785186768 33:-0.8887706995010376 34:0.0
0.03850358362069392 1:-0.9861347079277039 2:-0.9814974665641785 3:-1.0197969675064087 4:-1.0194979906082153 5:-0.935008704662323 6:-0.972299337387085 7:-0.9555066823959351 8:-0.9756768941879272 9:-0.9963476657867432 10:0.0 11:-1.0103532075881958 12:-0.9950119256973267 13:-0.9457976222038269 14:0.0 15:-0.8756890296936035 16:-0.9779441952705383 17:-0.9779441952705383 18:0.0 19:-1.0149693489074707 20:0.0 21:-0.999376654624939 22:-0.7892650961875916 23:-0.34624430537223816 24:-0.9812151789665222 25:0.0 26:0.0 27:0.0 28:-1.0196040868759155 29:-1.0195280313491821 30:-1.0195817947387695 31:-1.019582748413086 32:-1.0195817947387695 33:-1.0195854902267456 34:0.0
-0.03850358362069392 1:-0.9861347079277039 2:-0.9825993776321411 3:-0.9518303871154785 4:-0.88339763879776 5:-0.9332067966461182 6:-1.000365138053894 7:-0.9640107750892639 8:-0.9745899438858032 9:-0.9963476657867432 10:0.0 11:-0.9718096256256104 12:-0.9950119256973267 13:-0.9457976222038269 14:0.0 15:-1.0188305377960205 16:-0.9779441952705383 17:-0.9779441952705383 18:0.0 19:-1.0149693489074707 20:0.0 21:-1.0082403421401978 22:-1.0130735635757446 23:-1.0147686004638672 24:-0.9812151789665222 25:0.0 26:0.0 27:0.0 28:-1.0196040868759155 29:-1.0195280313491821 30:-1.0195817947387695 31:-1.019582748413086 32:-1.0195817947387695 33:-1.0195854902267456 34:0.0
0.03850358362069392 1:-1.0035145282745361 2:-1.0044549703598022 3:-0.9855509996414185 4:-0.9986180663108826 5:-1.0098657608032227 6:-1.0118619203567505 7:-1.0104039907455444 8:-1.0091472864151 9:-0.9963476657867432 10:0.0 11:-0.9685976505279541 12:-0.9950119256973267 13:-1.01955246925354 14:0.0 15:-1.0188305377960205 16:-0.9779441952705383 17:-0.9779441952705383 18:0.0 19:-1.0149693489074707 20:0.0 21:-0.9912265539169312 22:-0.6801816821098328 23:-0.8191794157028198 24:-1.0199174880981445 25:0.0 26:0.0 27:0.0 28:-0.9535725712776184 29:-0.9486405849456787 30:-0.9542978405952454 31:-0.9547868371009827 32:-0.9555045366287231 33:-0.9541780948638916 34:0.0
-0.03850358362069392 1:-1.0046073198318481 2:-1.0090464353561401 3:-1.0197969675064087 4:-1.0194979906082153 5:-1.019808053970337 6:-1.0144543647766113 7:-1.0184367895126343 8:-1.019029140472412 9:-0.9963476657867432 10:0.0 11:-0.9975053668022156 12:-0.9950119256973267 13:-1.01955246925354 14:0.0 15:-1.0188305377960205 16:-0.9779441952705383 17:-0.9779441952705383 18:0.0 19:-1.0149693489074707 20:0.0 21:-1.0151640176773071 22:-0.6482571959495544 23:-0.3266291916370392 24:-0.9812151789665222 25:0.0 26:0.0 27:0.0 28:-1.0196040868759155 29:-1.0195280313491821 30:-1.0195817947387695 31:-1.019582748413086 32:-1.0195817947387695 33:-1.0195854902267456 34:0.0
0.03850358362069392 1:-1.0056246519088745 2:-1.009658694267273 3:-1.0197969675064087 4:-1.0194979906082153 5:-1.019808053970337 6:-1.0161449909210205 7:-1.0127850770950317 8:-0.9780493974685669 9:-1.020037055015564 10:0.0 11:-1.0199891328811646 12:-1.0200529098510742 13:-1.01955246925354 14:0.0 15:-1.0188305377960205 16:-0.9779441952705383 17:-0.9779441952705383 18:0.0 19:-1.0149693489074707 20:0.0 21:-1.0155495405197144 22:-1.014374017715454 23:-1.014827847480774 24:-1.0199174880981445 25:0.0 26:0.0 27:0.0 28:-1.0196040868759155 29:-1.0195280313491821 30:-1.0195817947387695 31:-1.019582748413086 32:-1.0195817947387695 33:-1.0195854902267456 34:0.0
-0.03850358362069392 1:-1.0056246519088745 2:-1.009658694267273 3:-1.0197969675064087 4:-1.0194979906082153 5:-1.019808053970337 6:-0.913800835609436 7:-0.9497982859611511 8:-0.887488067150116 9:-0.9963476657867432 10:0.0 11:-1.013565182685852 12:-0.9950119256973267 13:-1.01955246925354 14:0.0 15:-1.0188305377960205 16:-0.9779441952705383 17:-0.9779441952705383 18:0.0 19:-1.0149693489074707 20:0.0 21:-0.9608298540115356 22:-1.0181788206100464 23:-1.0152533054351807 24:-0.9812151789665222 25:0.0 26:0.0 27:0.0 28:-1.0196040868759155 29:-0.9486405849456787 30:-0.8890138864517212 31:-0.9547868371009827 32:-0.8914272785186768 33:-0.8887706995010376 34:0.0
0.03850358362069392 1:-1.0046073198318481 2:-1.0052765607833862 3:-0.9936723709106445 4:-1.0031771659851074 5:-1.0098657608032227 6:-0.9990125298500061 7:-1.0096477270126343 8:-1.0019465684890747 9:-0.9963476657867432 10:0.0 11:-1.0007174015045166 12:-0.9950119256973267 13:-1.01955246925354 14:0.0 15:-1.0188305377960205 16:-0.9779441952705383 17:-0.9779441952705383 18:0.0 19:-1.0149693489074707 20:0.0 21:-1.0080591440200806 22:-0.8409430980682373 23:-0.439391165971756 24:-0.9812151789665222 25:0.0 26:0.0 27:0.0 28:-0.9535725712776184 29:-0.9486405849456787 30:-0.9542978405952454 31:-0.8899909257888794 32:-0.9555045366287231 33:-0.9541780948638916 34:0.0
-0.03850358362069392 1:-0.9980922341346741 2:-0.9966493844985962 3:-0.9921403527259827 4:-0.9947340488433838 5:-1.0048936605453491 6:-1.0131016969680786 7:-1.005999207496643 8:-1.0129945278167725 9:-0.9963476657867432 10:0.0 11:-0.9814455509185791 12:-0.9950119256973267 13:-1.01955246925354 14:0.0 15:-1.0188305377960205 16:-0.9779441952705383 17:-0.9779441952705383 18:0.0 19:-1.0149693489074707 20:0.0 21:-1.0197077989578247 22:-0.9060915112495422 23:-0.1437874287366867 24:-1.0199174880981445 25:0.0 26:0.0 27:0.0 28:-1.0196040868759155 29:-1.0195280313491821 30:-1.0195817947387695 31:-1.019582748413086 32:-1.0195817947387695 33:-1.0195854902267456 34:0.0
0.03850358362069392 1:-0.9818927645683289 2:-0.9810382723808289 3:-1.0197969675064087 4:-1.0194979906082153 5:-0.9139323830604553 6:-0.8248696327209473 7:-0.7917501330375671 8:-0.8063661456108093 9:-0.9963476657867432 10:0.0 11:-1.007141351699829 12:-0.9950119256973267 13:-0.9457976222038269 14:0.0 15:-1.0188305377960205 16:-0.9779441952705383 17:-0.9779441952705383 18:0.0 19:-0.49991029500961304 20:0.0 21:-0.976634681224823 22:-1.017143964767456 23:-1.0152442455291748 24:-0.9812151789665222 25:0.0 26:0.0 27:0.0 28:-1.0196040868759155 29:-1.0195280313491821 30:-1.0195817947387695 31:-1.019582748413086 32:-1.0195817947387695 33:-1.0195854902267456 34:0.0
-0.03850358362069392 1:-0.9818927645683289 2:-0.9790868759155273 3:-1.0197969675064087 4:-1.0194979906082153 5:-0.9392021894454956 6:-0.9764697551727295 7:-0.7917501330375671 8:-0.9154259562492371 9:-0.9963476657867432 10:0.0 11:-0.9718096256256104 12:-0.9950119256973267 13:-0.9457976222038269 14:0.0 15:-1.0188305377960205 16:-0.9779441952705383 17:-0.9779441952705383 18:0.0 19:-0.49991029500961304 20:0.0 21:-0.9879575967788696 22:-1.0175093412399292 23:-1.015207290649414 24:-1.0199174880981445 25:0.0 26:0.0 27:0.0 28:-1.0196040868759155 29:-1.0195280313491821 30:-1.0195817947387695 31:-1.019582748413086 32:-1.0195817947387695 33:-1.0195854902267456 34:0.0
0.03850358362069392 1:-1.0035145282745361 2:-1.0013327598571777 3:-0.9899434447288513 4:-0.9636408090591431 5:-0.9821820855140686 6:-1.0096076726913452 7:-1.0114657878875732 8:-0.9636663198471069 9:-0.9963476657867432 10:0.0 11:-1.013565182685852 12:-0.9950119256973267 13:-1.01955246925354 14:0.0 15:-1.0188305377960205 16:-0.9779441952705383 17:-0.9779441952705383 18:0.0 19:-1.0149693489074707 20:0.0 21:-0.9657179117202759 22:-0.9594540596008301 23:-0.5798695683479309 24:-0.9812151789665222 25:0.0 26:0.0 27:0.0 28:-1.0196040868759155 29:-1.0195280313491821 30:-1.0195817947387695 31:-1.019582748413086 32:-1.0195817947387695 33:-1.0195854902267456 34:0.0
-0.03850358362069392 1:-1.0074701309204102 2:-1.0106993913650513 3:-0.9947089552879333 4:-1.0194979906082153 5:-1.019808053970337 6:-0.7878994941711426 7:-0.9968957304954529 8:-0.9690728783607483 9:-0.9963476657867432 10:0.0 11:-0.9975053668022156 12:-0.9950119256973267 13:-1.01955246925354 14:0.0 15:-1.0188305377960205 16:-0.9779441952705383 17:-0.9779441952705383 18:0.0 19:-1.0149693489074707 20:0.0 21:-1.0055317878723145 22:-1.0120512247085571 23:-1.014422059059143 24:-0.9812151789665222 25:0.0 26:0.0 27:0.0 28:-0.9535725712776184 29:-0.9486405849456787 30:-1.0195817947387695 31:-0.9547868371009827 32:-1.0195817947387695 33:-1.0195854902267456 34:0.0
0.03850358362069392 1:-0.9894250631332397 2:-0.9825993776321411 3:-0.9885203838348389 4:-0.9780976176261902 5:-0.9955293536186218 6:-1.0179483890533447 7:-1.0096615552902222 8:-1.019844889640808 9:-0.9963476657867432 10:0.0 11:-0.9942933917045593 12:-0.9950119256973267 13:-0.9457976222038269 14:0.0 15:-1.0188305377960205 16:-0.9779441952705383 17:-0.9779441952705383 18:0.0 19:-1.0149693489074707 20:0.0 21:-1.0115653276443481 22:-0.8682328462600708 23:-0.6975364685058594 24:-0.9812151789665222 25:0.0 26:0.0 27:0.0 28:-1.0196040868759155 29:-1.0195280313491821 30:-1.0195817947387695 31:-1.019582748413086 32:-1.0195817947387695 33:-1.0195854902267456 34:0.0
-0.03850358362069392 1:-1.0035145282745361 2:-0.9987781643867493 3:-0.9850508570671082 4:-0.9850107431411743 5:-1.0023374557495117 6:-0.9087287187576294 7:-1.0006358623504639 8:-1.0031161308288574 9:-0.9963476657867432 10:0.0 11:-1.0103532075881958 12:-0.9950119256973267 13:-0.9457976222038269 14:0.0 15:-1.0188305377960205 16:-0.9779441952705383 17:-0.9779441952705383 18:0.0 19:-1.0149693489074707 20:0.0 21:-0.9712539911270142 22:-0.6917224526405334 23:-0.7621220946311951 24:-0.9812151789665222 25:0.0 26:0.0 27:0.0 28:-0.9535725712776184 29:-0.9486405849456787 30:-0.8890138864517212 31:-0.8899909257888794 32:-0.8914272785186768 33:-0.8887706995010376 34:0.0
0.03850358362069392 1:-1.0023342370986938 2:-1.0035367012023926 3:-0.9939329028129578 4:-1.0033270120620728 5:-1.0098657608032227 6:-0.7210602164268494 7:-1.016151785850525 8:-0.9864888787269592 9:-0.9963476657867432 10:0.0 11:-1.0039293766021729 12:-0.9950119256973267 13:-1.01955246925354 14:0.0 15:-1.0188305377960205 16:-0.9779441952705383 17:-0.9779441952705383 18:0.0 19:-1.0149693489074707 20:0.0 21:-1.014754295349121 22:-1.0132641792297363 23:-1.0142954587936401 24:-0.9812151789665222 25:0.0 26:0.0 27:0.0 28:-0.9535725712776184 29:-0.9486405849456787 30:-1.0195817947387695 31:-1.019582748413086 32:-0.9555045366287231 33:-1.0195854902267456 34:0.0
-0.03850358362069392 1:-0.9980922341346741 2:-1.0044549703598022 3:-0.9908925890922546 4:-1.0194979906082153 5:-1.019808053970337 6:-0.7680618762969971 7:-1.0125741958618164 8:-1.0137550830841064 9:-1.020037055015564 10:0.0 11:-1.0199891328811646 12:-1.0200529098510742 13:-1.01955246925354 14:0.0 15:-1.0188305377960205 16:-0.9779441952705383 17:-0.9779441952705383 18:0.0 19:-1.0149693489074707 20:0.0 21:-0.9764277935028076 22:-1.0005086660385132 23:-1.014816403388977 24:-0.9812151789665222 25:0.0 26:0.0 27:0.0 28:-1.0196040868759155 29:-1.0195280313491821 30:-1.0195817947387695 31:-1.019582748413086 32:-1.0195817947387695 33:-1.0195854902267456 34:0.0
0.03850358362069392 1:-1.0023342370986938 2:-1.0035367012023926 3:-0.9878221750259399 4:-0.999870777130127 5:-1.0098657608032227 6:-1.0170466899871826 7:-1.011208176612854 8:-1.0160545110702515 9:-1.020037055015564 10:0.0 11:-1.0199891328811646 12:-1.0200529098510742 13:-1.01955246925354 14:0.0 15:-1.0188305377960205 16:-0.9779441952705383 17:-0.9779441952705383 18:0.0 19:-1.0149693489074707 20:0.0 21:-0.9972989559173584 22:-0.6853412985801697 23:-0.8069807887077332 24:-0.9812151789665222 25:0.0 26:0.0 27:0.0 28:-1.0196040868759155 29:-0.9486405849456787 30:-0.9542978405952454 31:-0.9547868371009827 32:-0.9555045366287231 33:-0.9541780948638916 34:0.0
-0.03850358362069392 1:-0.992113471031189 2:-0.9843835234642029 3:-0.9396566152572632 4:-0.8923854231834412 5:-0.9590432047843933 6:-1.0103965997695923 7:-1.0049134492874146 8:-1.0045088529586792 9:-0.9963476657867432 10:0.0 11:-1.007141351699829 12:-0.9950119256973267 13:-0.9457976222038269 14:0.0 15:-1.0188305377960205 16:-0.9779441952705383 17:-0.9779441952705383 18:0.0 19:-1.0149693489074707 20:0.0 21:-0.9998154044151306 22:-0.9926557540893555 23:-1.0134327411651611 24:-0.9812151789665222 25:0.0 26:0.0 27:0.0 28:-1.0196040868759155 29:-1.0195280313491821 30:-1.0195817947387695 31:-1.019582748413086 32:-1.0195817947387695 33:-1.0195854902267456 34:0.0
0.03850358362069392 1:-1.0010511875152588 2:-0.9992512464523315 3:-0.9866613149642944 4:-0.9784055948257446 5:-0.9971045255661011 6:-0.6145456433296204 7:-1.0020978450775146 8:-0.9916414618492126 9:-0.9963476657867432 10:0.0 11:-0.9750216007232666 12:-0.9950119256973267 13:-1.01955246925354 14:0.0 15:-1.0188305377960205 16:-0.9779441952705383 17:-0.9779441952705383 18:0.0 19:-1.0149693489074707 20:0.0 21:-0.992296576499939 22:-1.0084071159362793 23:-1.0146534442901611 24:-0.9812151789665222 25:0.0 26:0.0 27:0.0 28:-0.9535725712776184 29:-0.9486405849456787 30:-0.9542978405952454 31:-0.9547868371009827 32:-0.9555045366287231 33:-0.9541780948638916 34:0.0
-0.03850358362069392 1:-0.9996458292007446 2:-1.0013327598571777 3:-0.9813855290412903 4:-0.9963638186454773 5:-1.0098657608032227 6:-0.7248924970626831 7:-0.9860114455223083 8:-0.9580785632133484 9:-0.9963476657867432 10:0.0 11:-0.9685976505279541 12:-0.9950119256973267 13:-1.01955246925354 14:0.0 15:-1.0188305377960205 16:-0.9779441952705383 17:-0.9779441952705383 18:0.0 19:-1.0149693489074707 20:0.0 21:-0.9832755923271179 22:-0.958928644657135 23:-0.9187584519386292 24:-0.9812151789665222 25:0.0 26:0.0 27:0.0 28:-0.9535725712776184 29:-0.9486405849456787 30:-0.9542978405952454 31:-0.9547868371009827 32:-1.0195817947387695 33:-0.9541780948638916 34:0.0
0.03850358362069392 1:-1.0056246519088745 2:-1.009658694267273 3:-1.0197969675064087 4:-1.0194979906082153 5:-1.019808053970337 6:-1.0180611610412598 7:-1.0147658586502075 8:-1.0146126747131348 9:-0.9963476657867432 10:0.0 11:-0.9846575260162354 12:-0.9950119256973267 13:-0.9457976222038269 14:0.0 15:-1.0188305377960205 16:-0.9779441952705383 17:-0.9779441952705383 18:0.0 19:-1.0149693489074707 20:0.0 21:-1.0117926597595215 22:-1.013688564300537 23:-1.0142031908035278 24:-1.0199174880981445 25:0.0 26:0.0 27:0.0 28:-1.0196040868759155 29:-1.0195280313491821 30:-1.0195817947387695 31:-1.019582748413086 32:-1.0195817947387695 33:-1.0195854902267456 34:0.0
-0.03850358362069392 1:-0.992113471031189 2:-0.9843835234642029 3:-1.0197969675064087 4:-1.0194979906082153 5:-0.9640948176383972 6:-1.0178357362747192 7:-1.0118520259857178 8:-1.0188833475112915 9:-0.9963476657867432 10:0.0 11:-1.0007174015045166 12:-0.9950119256973267 13:-0.9457976222038269 14:0.0 15:-0.8756890296936035 16:-0.9779441952705383 17:-0.9779441952705383 18:0.0 19:-1.0149693489074707 20:0.0 21:-1.019004464149475 22:-1.0007944107055664 23:-1.0083308219909668 24:-0.9812151789665222 25:0.0 26:0.0 27:0.0 28:-1.0196040868759155 29:-1.0195280313491821 30:-1.0195817947387695 31:-1.019582748413086 32:-1.0195817947387695 33:-1.0195854902267456 34:0.0
0.03850358362069392 1:-1.0035145282745361 2:-1.0044549703598022 3:-0.9902927875518799 4:-1.0048414468765259 5:-1.011971116065979 6:-0.7761772871017456 7:-1.003996729850769 8:-0.9701898694038391 9:-0.9963476657867432 10:0.0 11:-0.9910814762115479 12:-0.9950119256973267 13:-1.01955246925354 14:0.0 15:-1.0188305377960205 16:-0.9779441952705383 17:-0.9779441952705383 18:0.0 19:-1.0149693489074707 20:0.0 21:-1.0184777975082397 22:-0.9082474112510681 23:-0.6658504009246826 24:-0.9812151789665222 25:0.0 26:0.0 27:0.0 28:-0.9535725712776184 29:-0.9486405849456787 30:-0.9542978405952454 31:-0.9547868371009827 32:-0.9555045366287231 33:-0.9541780948638916 34:0.0
-0.03850358362069392 1:-0.9980922341346741 2:-0.9966493844985962 3:-0.9942144751548767 4:-0.9963826537132263 5:-1.0048936605453491 6:-1.012087345123291 7:-1.0068514347076416 8:-1.0098921060562134 9:-0.9963476657867432 10:0.0 11:-0.9814455509185791 12:-0.9950119256973267 13:-1.01955246925354 14:0.0 15:-1.0188305377960205 16:-0.9779441952705383 17:-0.9779441952705383 18:0.0 19:-1.0149693489074707 20:0.0 21:-1.01914381980896 22:-0.9382851123809814 23:-0.17293694615364075 24:-1.0199174880981445 25:0.0 26:0.0 27:0.0 28:-1.0196040868759155 29:-1.0195280313491821 30:-1.0195817947387695 31:-1.019582748413086 32:-1.0195817947387695 33:-1.0195854902267456 34:0.0
0.03440117062728872 1:-0.9818927645683289 2:-0.9774903059005737 3:-1.0197969675064087 4:-1.0194979906082153 5:-0.926393985748291 6:-0.988530158996582 7:-0.874835193157196 8:-1.0000115633010864 9:-0.9963476657867432 10:0.0 11:-0.9975053668022156 12:-0.9950119256973267 13:-0.9457976222038269 14:0.0 15:-0.8756890296936035 16:3.178318738937378 17:3.178318738937378 18:0.0 19:-0.49991029500961304 20:0.0 21:-0.9819732904434204 22:-1.00019109249115 23:-1.0079584121704102 24:-1.0199174880981445 25:0.0 26:0.0 27:0.0 28:-1.0196040868759155 29:-0.9486405849456787 30:-1.0195817947387695 31:-1.019582748413086 32:-0.9555045366287231 33:-1.0195854902267456 34:0.0
-0.03850358362069392 1:-0.9818927645683289 2:-0.9799231886863708 3:-1.0197969675064087 4:-1.0194979906082153 5:-0.9554159641265869 6:-0.9677907824516296 7:-0.7938703894615173 8:-0.924965500831604 9:-0.9963476657867432 10:0.0 11:-0.9975053668022156 12:-0.9950119256973267 13:-1.01955246925354 14:0.0 15:-1.0188305377960205 16:-0.9779441952705383 17:-0.9779441952705383 18:0.0 19:-0.49991029500961304 20:0.0 21:-0.9796329140663147 22:-1.0167127847671509 23:-1.0152008533477783 24:-1.0199174880981445 25:0.0 26:0.0 27:0.0 28:-1.0196040868759155 29:-1.0195280313491821 30:-1.0195817947387695 31:-1.019582748413086 32:-1.0195817947387695 33:-1.0195854902267456 34:0.0
0.03850358362069392 1:-0.9980922341346741 2:-0.9999946355819702 3:-0.9905080199241638 4:-1.0049408674240112 5:-1.011971116065979 6:-1.0031828880310059 7:-1.0077342987060547 8:-0.987151563167572 9:-1.020037055015564 10:0.0 11:-1.0199891328811646 12:-1.0200529098510742 13:-1.01955246925354 14:0.0 15:-1.0188305377960205 16:-0.9779441952705383 17:-0.9779441952705383 18:0.0 19:-1.0149693489074707 20:0.0 21:-1.006682276725769 22:-0.9215037822723389 23:-0.6918848156929016 24:-0.9812151789665222 25:0.0 26:0.0 27:0.0 28:-0.9535725712776184 29:-0.9486405849456787 30:-0.9542978405952454 31:-0.9547868371009827 32:-0.9555045366287231 33:-0.9541780948638916 34:0.0
-0.03850358362069392 1:-0.9963554739952087 2:-0.9984506964683533 3:-0.9753642082214355 4:-0.9932006597518921 5:-1.0098657608032227 6:-0.7730212807655334 7:-1.0056800842285156 8:-1.0131053924560547 9:-0.9963476657867432 10:0.0 11:-0.9878695011138916 12:-0.9950119256973267 13:-1.01955246925354 14:0.0 15:-0.8756890296936035 16:-0.9779441952705383 17:-0.9779441952705383 18:0.0 19:-1.0149693489074707 20:0.0 21:-1.0037797689437866 22:-0.9884725213050842 23:-0.9932595491409302 24:-0.9812151789665222 25:0.0 26:0.0 27:0.0 28:-0.9535725712776184 29:-0.9486405849456787 30:-0.9542978405952454 31:-0.9547868371009827 32:-0.9555045366287231 33:-0.9541780948638916 34:0.0
0.03850358362069392 1:-1.0035145282745361 2:-1.0044549703598022 3:-0.9944771528244019 4:-1.003641128540039 5:-1.0098657608032227 6:-0.9456988573074341 7:-0.9853015542030334 8:-0.9525371789932251 9:-0.9963476657867432 10:0.0 11:-1.0039293766021729 12:-0.9950119256973267 13:-1.01955246925354 14:0.0 15:-1.0188305377960205 16:-0.9779441952705383 17:-0.9779441952705383 18:0.0 19:-1.0149693489074707 20:0.0 21:-0.966748058795929 22:-0.974327027797699 23:-0.7850621938705444 24:-0.9812151789665222 25:0.0 26:0.0 27:0.0 28:-1.0196040868759155 29:-1.0195280313491821 30:-1.0195817947387695 31:-1.019582748413086 32:-1.0195817947387695 33:-1.0195854902267456 34:0.0
-0.03850358362069392 1:-0.9943864941596985 2:-0.9888438582420349 3:-0.973464846611023 4:-0.9499449729919434 5:-0.9865860939025879 6:-1.0142289400100708 7:-1.0091254711151123 8:-1.0055311918258667 9:-0.9963476657867432 10:0.0 11:-1.0103532075881958 12:-0.9950119256973267 13:-0.9457976222038269 14:0.0 15:-1.0188305377960205 16:-0.9779441952705383 17:-0.9779441952705383 18:0.0 19:-1.0149693489074707 20:0.0 21:-0.9894333481788635 22:-0.9496386647224426 23:-0.9940880537033081 24:-0.9812151789665222 25:0.0 26:0.0 27:0.0 28:-0.9535725712776184 29:-0.9486405849456787 30:-0.8890138864517212 31:-0.8899909257888794 32:-0.8914272785186768 33:-0.8887706995010376 34:0.0
0.03850358362069392 1:-1.0065762996673584 2:-1.0102064609527588 3:-1.0197969675064087 4:-1.0194979906082153 5:-1.019808053970337 6:-1.0178357362747192 7:-1.0120465755462646 8:-1.0090267658233643 9:-0.9963476657867432 10:0.0 11:-0.9750216007232666 12:-0.9950119256973267 13:-1.01955246925354 14:0.0 15:-0.8756890296936035 16:-0.9779441952705383 17:-0.9779441952705383 18:0.0 19:-1.0149693489074707 20:0.0 21:-0.9965606331825256 22:-1.0173388719558716 23:-1.0152488946914673 24:-1.0199174880981445 25:0.0 26:0.0 27:0.0 28:-1.0196040868759155 29:-1.0195280313491821 30:-1.0195817947387695 31:-1.019582748413086 32:-1.0195817947387695 33:-1.0195854902267456 34:0.0
-0.03850358362069392 1:-0.9980922341346741 2:-0.9999946355819702 3:-0.9918317794799805 4:-1.002124309539795 5:-1.0098657608032227 6:-0.7110286951065063 7:-1.0031386613845825 8:-0.992192268371582 9:-1.020037055015564 10:0.0 11:-1.0199891328811646 12:-1.0200529098510742 13:-1.01955246925354 14:0.0 15:-1.0188305377960205 16:-0.9779441952705383 17:-0.9779441952705383 18:0.0 19:-1.0149693489074707 20:0.0 21:-1.0022728443145752 22:-0.9782589673995972 23:-1.0087262392044067 24:-0.9812151789665222 25:0.0 26:0.0 27:0.0 28:-1.0196040868759155 29:-0.9486405849456787 30:-1.0195817947387695 31:-1.019582748413086 32:-1.0195817947387695 33:-1.0195854902267456 34:0.0
0.03850358362069392 1:-0.9963554739952087 2:-0.9888438582420349 3:-0.9540063738822937 4:-0.9187537431716919 5:-0.9758625030517578 6:-0.9605770707130432 7:-1.0056204795837402 8:-1.0104589462280273 9:-0.9963476657867432 10:0.0 11:-1.0007174015045166 12:-0.9950119256973267 13:-0.9457976222038269 14:0.0 15:-1.0188305377960205 16:-0.9779441952705383 17:-0.9779441952705383 18:0.0 19:-1.0149693489074707 20:0.0 21:-1.003779411315918 22:-0.8943157196044922 23:-0.7412844896316528 24:-1.0199174880981445 25:0.0 26:0.0 27:0.0 28:-1.0196040868759155 29:-0.9486405849456787 30:-0.9542978405952454 31:-0.9547868371009827 32:-0.9555045366287231 33:-0.9541780948638916 34:0.0
-0.03850358362069392 1:-1.0023342370986938 2:-1.0075771808624268 3:-0.9973280429840088 4:-1.0194979906082153 5:-1.019808053970337 6:-1.0044227838516235 7:-1.0078566074371338 8:-1.0006440877914429 9:-0.9963476657867432 10:0.0 11:-0.9846575260162354 12:-0.9950119256973267 13:-1.01955246925354 14:0.0 15:-1.0188305377960205 16:-0.9779441952705383 17:-0.9779441952705383 18:0.0 19:-1.0149693489074707 20:0.0 21:-1.0174394845962524 22:-0.9389386773109436 23:-0.17306852340698242 24:-1.0199174880981445 25:0.0 26:0.0 27:0.0 28:-1.0196040868759155 29:-1.0195280313491821 30:-1.0195817947387695 31:-1.019582748413086 32:-1.0195817947387695 33:-1.0195854902267456 34:0.0
0.03850358362069392 1:-0.9894250631332397 2:-0.9849410653114319 3:-0.9559699296951294 4:-0.9129403233528137 5:-0.9690912961959839 6:-0.5658532381057739 7:-1.001259684562683 8:-0.994228720664978 9:-0.9963476657867432 10:0.0 11:-1.013565182685852 12:-0.9950119256973267 13:-0.9457976222038269 14:0.0 15:-1.0188305377960205 16:-0.9779441952705383 17:-0.9779441952705383 18:0.0 19:-1.0149693489074707 20:0.0 21:-0.9706761240959167 22:-0.9352882504463196 23:-1.0010998249053955 24:-0.9812151789665222 25:0.0 26:0.0 27:0.0 28:-1.0196040868759155 29:-0.9486405849456787 30:-0.9542978405952454 31:-0.9547868371009827 32:-0.9555045366287231 33:-0.9541780948638916 34:0.0
-0.03850358362069392 1:-0.992113471031189 2:-0.9843835234642029 3:-0.9825724363327026 4:-0.9720396399497986 5:-0.9955293536186218 6:-0.9205636978149414 7:-1.0156046152114868 8:-0.9765722155570984 9:-0.9963476657867432 10:0.0 11:-1.013565182685852 12:-0.9950119256973267 13:-0.9457976222038269 14:0.0 15:-1.0188305377960205 16:-0.9779441952705383 17:-0.9779441952705383 18:0.0 19:-1.0149693489074707 20:0.0 21:-0.9876440763473511 22:-1.0022603273391724 23:-1.0122413635253906 24:-0.9812151789665222 25:0.0 26:0.0 27:0.0 28:-0.9535725712776184 29:-0.8777531981468201 30:-0.9542978405952454 31:-0.9547868371009827 32:-0.9555045366287231 33:-0.9541780948638916 34:0.0
0.03850358362069392 1:-0.9996458292007446 2:-0.9915587902069092 3:-0.9649440050125122 4:-0.9280626177787781 5:-0.9758625030517578 6:-1.0090440511703491 7:-1.0046494007110596 8:-1.0165085792541504 9:-0.9963476657867432 10:0.0 11:-1.0007174015045166 12:-0.9950119256973267 13:-0.9457976222038269 14:0.0 15:-1.0188305377960205 16:-0.9779441952705383 17:-0.9779441952705383 18:0.0 19:-1.0149693489074707 20:0.0 21:-1.0059170722961426 22:-0.8630580902099609 23:-0.725421667098999 24:-1.0199174880981445 25:0.0 26:0.0 27:0.0 28:-1.0196040868759155 29:-0.9486405849456787 30:-0.9542978405952454 31:-0.9547868371009827 32:-0.9555045366287231 33:-0.9541780948638916 34:0.0
-0.03850358362069392 1:-1.0035145282745361 2:-1.0083577632904053 3:-0.9909102916717529 4:-1.0194979906082153 5:-1.019808053970337 6:-0.7723450064659119 7:-0.9798002243041992 8:-0.9722127318382263 9:-0.9963476657867432 10:0.0 11:-0.9750216007232666 12:-0.9950119256973267 13:-1.01955246925354 14:0.0 15:-1.0188305377960205 16:-0.9779441952705383 17:-0.9779441952705383 18:0.0 19:-1.0149693489074707 20:0.0 21:-0.996708869934082 22:-0.8649840950965881 23:-0.9645264744758606 24:-1.0199174880981445 25:0.0 26:0.0 27:0.0 28:-0.9535725712776184 29:-0.9486405849456787 30:-1.0195817947387695 31:-0.9547868371009827 32:-0.9555045366287231 33:-1.0195854902267456 34:0.0
0.03850358362069392 1:-1.0035145282745361 2:-1.0044549703598022 3:-0.9944277405738831 4:-1.0036126375198364 5:-1.0098657608032227 6:-1.0088186264038086 7:-1.003912091255188 8:-0.9971344470977783 9:-0.9963476657867432 10:0.0 11:-1.0103532075881958 12:-0.9950119256973267 13:-1.01955246925354 14:0.0 15:-1.0188305377960205 16:-0.9779441952705383 17:-0.9779441952705383 18:0.0 19:-1.0149693489074707 20:0.0 21:-0.9601666927337646 22:-0.9734575152397156 23:-0.8291033506393433 24:-0.9812151789665222 25:0.0 26:0.0 27:0.0 28:-0.9535725712776184 29:-0.8777531981468201 30:-1.0195817947387695 31:-0.9547868371009827 32:-0.9555045366287231 33:-1.0195854902267456 34:0.0
-0.03850358362069392 1:-0.9861347079277039 2:-0.9840404391288757 3:-0.9287617206573486 4:-0.8803403973579407 5:-0.9506685733795166 6:-1.0156941413879395 7:-0.9813834428787231 8:-0.9868327379226685 9:-0.9963476657867432 10:0.0 11:-0.9942933917045593 12:-0.9950119256973267 13:-0.9457976222038269 14:0.0 15:-1.0188305377960205 16:-0.9779441952705383 17:-0.9779441952705383 18:0.0 19:-1.0149693489074707 20:0.0 21:-1.0046287775039673 22:-0.9915995597839355 23:-1.01283860206604 24:-0.9812151789665222 25:0.0 26:0.0 27:0.0 28:-0.9535725712776184 29:-0.9486405849456787 30:-0.9542978405952454 31:-0.9547868371009827 32:-0.9555045366287231 33:-0.9541780948638916 34:0.0
0.03850358362069392 1:-0.9894250631332397 2:-0.9836401343345642 3:-0.9749805927276611 4:-0.9390828609466553 5:-0.976659893989563 6:-0.5360968112945557 7:-0.9662448763847351 8:-0.9559459686279297 9:-0.9963476657867432 10:0.0 11:-0.9685976505279541 12:-0.9950119256973267 13:-0.9457976222038269 14:0.0 15:-1.0188305377960205 16:-0.9779441952705383 17:-0.9779441952705383 18:0.0 19:-1.0149693489074707 20:0.0 21:-1.017552375793457 22:-0.8938229084014893 23:-0.8159780502319336 24:-0.9812151789665222 25:0.0 26:0.0 27:0.0 28:-0.9535725712776184 29:-0.9486405849456787 30:-0.9542978405952454 31:-0.9547868371009827 32:-1.0195817947387695 33:-0.9541780948638916 34:0.0
-0.03850358362069392 1:-0.9980922341346741 2:-0.9888438582420349 3:-0.9853196740150452 4:-0.9747812747955322 5:-0.9955293536186218 6:-0.7031387090682983 7:-0.9956322908401489 8:-0.916793704032898 9:-0.9963476657867432 10:0.0 11:-1.013565182685852 12:-0.9950119256973267 13:-0.9457976222038269 14:0.0 15:-1.0188305377960205 16:-0.9779441952705383 17:-0.9779441952705383 18:0.0 19:-1.0149693489074707 20:0.0 21:-1.0015088319778442 22:-0.9486255049705505 23:-0.8103848695755005 24:-0.9812151789665222 25:0.0 26:0.0 27:0.0 28:-0.9535725712776184 29:-0.9486405849456787 30:-0.9542978405952454 31:-0.9547868371009827 32:-0.9555045366287231 33:-0.9541780948638916 34:0.0
0.03850358362069392 1:-1.0023342370986938 2:-1.0075771808624268 3:-0.9933421611785889 4:-1.0194979906082153 5:-1.019808053970337 6:-1.0161449909210205 7:-1.0024951696395874 8:-0.9962300062179565 9:-0.9963476657867432 10:0.0 11:-0.9910814762115479 12:-0.9950119256973267 13:-1.01955246925354 14:0.0 15:-1.0188305377960205 16:-0.9779441952705383 17:-0.9779441952705383 18:0.0 19:-1.0149693489074707 20:0.0 21:-1.0070114135742188 22:-1.0070849657058716 23:-1.011832356452942 24:-1.0199174880981445 25:0.0 26:0.0 27:0.0 28:-1.0196040868759155 29:-1.0195280313491821 30:-1.0195817947387695 31:-1.019582748413086 32:-0.9555045366287231 33:-1.0195854902267456 34:0.0
-0.03850358362069392 1:-1.0010511875152588 2:-1.0066851377487183 3:-0.9892186522483826 4:-1.0194979906082153 5:-1.019808053970337 6:-1.0150178670883179 7:-1.0043598413467407 8:-1.0157647132873535 9:-0.9963476657867432 10:0.0 11:-0.9750216007232666 12:-0.9950119256973267 13:-1.01955246925354 14:0.0 15:-1.0188305377960205 16:-0.9779441952705383 17:-0.9779441952705383 18:0.0 19:-1.0149693489074707 20:0.0 21:-0.9870736002922058 22:-0.8125158548355103 23:-0.9536701440811157 24:-1.0199174880981445 25:0.0 26:0.0 27:0.0 28:-1.0196040868759155 29:-1.0195280313491821 30:-1.0195817947387695 31:-1.019582748413086 32:-1.0195817947387695 33:-1.0195854902267456 34:0.0
0.03850358362069392 1:-0.9861347079277039 2:-0.9799231886863708 3:-1.0197969675064087 4:-1.0194979906082153 5:-0.9179946184158325 6:-1.0135525465011597 7:-0.9848067760467529 8:-0.9777109622955322 9:-0.9963476657867432 10:0.0 11:-1.0007174015045166 12:-0.9950119256973267 13:-0.9457976222038269 14:0.0 15:-0.8756890296936035 16:-0.9779441952705383 17:-0.9779441952705383 18:0.0 19:-1.0149693489074707 20:0.0 21:-1.014188528060913 22:-0.9435131549835205 23:-0.8197425603866577 24:-0.9812151789665222 25:0.0 26:0.0 27:0.0 28:-1.0196040868759155 29:-1.0195280313491821 30:-1.0195817947387695 31:-1.019582748413086 32:-1.0195817947387695 33:-1.0195854902267456 34:0.0
-0.03850358362069392 1:-0.992113471031189 2:-0.9870072603225708 3:-1.0197969675064087 4:-1.0194979906082153 5:-0.9677684307098389 6:-1.016370415687561 7:-1.0118683576583862 8:-1.0007843971252441 9:-0.9963476657867432 10:0.0 11:-0.9910814762115479 12:-0.9950119256973267 13:-0.9457976222038269 14:0.0 15:-0.8756890296936035 16:-0.9779441952705383 17:-0.9779441952705383 18:0.0 19:-1.0149693489074707 20:0.0 21:-1.0030704736709595 22:-0.9786497950553894 23:-1.0053801536560059 24:-0.9812151789665222 25:0.0 26:0.0 27:0.0 28:-1.0196040868759155 29:-1.0195280313491821 30:-1.0195817947387695 31:-1.019582748413086 32:-1.0195817947387695 33:-1.0195854902267456 34:0.0
-0.03850358362069392 1:-0.9894250631332397 2:-0.9836401343345642 3:-0.9825305342674255 4:-0.9338064789772034 5:-0.9620854258537292 6:-1.016032338142395 7:-0.99444979429245 8:-0.9982814192771912 9:-0.9726582765579224 10:0.0 11:-0.9846575260162354 12:-0.9950119256973267 13:-0.9457976222038269 14:0.0 15:-0.8756890296936035 16:-0.9779441952705383 17:-0.9779441952705383 18:0.0 19:-1.0149693489074707 20:0.0 21:-0.9957286715507507 22:-1.015127182006836 23:-1.014939308166504 24:-1.0199174880981445 25:0.0 26:0.0 27:0.0 28:-1.0196040868759155 29:-1.0195280313491821 30:-1.0195817947387695 31:-1.019582748413086 32:-1.0195817947387695 33:-1.0195854902267456 34:0.0
-0.03850358362069392 1:-0.9980922341346741 2:-0.9966493844985962 3:-1.0197969675064087 4:-1.0194979906082153 5:-0.9806244373321533 6:-0.9833452701568604 7:-1.0073528289794922 8:-1.005020022392273 9:-0.9963476657867432 10:0.0 11:-0.9846575260162354 12:-0.9950119256973267 13:-0.9457976222038269 14:0.0 15:-0.8756890296936035 16:-0.9779441952705383 17:-0.9779441952705383 18:0.0 19:-1.0149693489074707 20:0.0 21:-1.0136538743972778 22:-1.0135271549224854 23:-1.013439655303955 24:-0.9812151789665222 25:0.0 26:0.0 27:0.0 28:-1.0196040868759155 29:-1.0195280313491821 30:-1.0195817947387695 31:-1.019582748413086 32:-1.0195817947387695 33:-1.0195854902267456 34:0.0
-0.03850358362069392 1:-0.9996458292007446 2:-0.9915587902069092 3:-1.0197969675064087 4:-1.0194979906082153 5:-0.9620854258537292 6:-1.015468716621399 7:-0.9898809194564819 8:-0.966475248336792 9:-0.9963476657867432 10:0.0 11:-1.013565182685852 12:-0.9950119256973267 13:-0.9457976222038269 14:0.0 15:-0.8756890296936035 16:-0.9779441952705383 17:-0.9779441952705383 18:0.0 19:-1.0149693489074707 20:0.0 21:-0.962428867816925 22:-1.0139471292495728 23:-1.0145617723464966 24:-0.9812151789665222 25:0.0 26:0.0 27:0.0 28:-1.0196040868759155 29:-1.0195280313491821 30:-1.0195817947387695 31:-1.019582748413086 32:-1.0195817947387695 33:-1.0195854902267456 34:0.0
-0.03850358362069392 1:-0.9980922341346741 2:-0.9966493844985962 3:-1.0197969675064087 4:-1.0194979906082153 5:-0.983170211315155 6:-1.0138907432556152 7:-1.009290337562561 8:-1.0088484287261963 9:-0.9963476657867432 10:0.0 11:-0.9814455509185791 12:-0.9950119256973267 13:-0.9457976222038269 14:0.0 15:-0.8756890296936035 16:-0.9779441952705383 17:-0.9779441952705383 18:0.0 19:-1.0149693489074707 20:0.0 21:-1.0072762966156006 22:-1.0132025480270386 23:-1.0150222778320312 24:-0.9812151789665222 25:0.0 26:0.0 27:0.0 28:-1.0196040868759155 29:-1.0195280313491821 30:-1.0195817947387695 31:-1.019582748413086 32:-1.0195817947387695 33:-1.0195854902267456 34:0.0
0.03850358362069392 1:-0.9996458292007446 2:-1.0013327598571777 3:-0.9852800965309143 4:-0.9984697699546814 5:-1.0098657608032227 6:-0.9858250021934509 7:-0.9923011064529419 8:-0.9880104064941406 9:-0.9726582765579224 10:0.0 11:-1.0007174015045166 12:-0.9950119256973267 13:-1.01955246925354 14:0.0 15:-1.0188305377960205 16:-0.9779441952705383 17:-0.9779441952705383 18:0.0 19:-1.0149693489074707 20:0.0 21:-0.9995250701904297 22:-0.9885196089744568 23:-1.0059088468551636 24:-0.9812151789665222 25:0.0 26:0.0 27:0.0 28:-0.8875411152839661 29:-0.8777531981468201 30:-0.823729932308197 31:-0.8899909257888794 32:-0.8914272785186768 33:-0.8233633637428284 34:0.0
0.03850358362069392 1:-0.9963554739952087 2:-1.0030357837677002 3:-0.966799259185791 4:-1.0194979906082153 5:-1.019808053970337 6:-0.9951802492141724 7:-0.9951855540275574 8:-0.9965439438819885 9:-0.9963476657867432 10:0.0 11:-0.9814455509185791 12:-0.9950119256973267 13:-1.01955246925354 14:0.0 15:-1.0188305377960205 16:-0.9779441952705383 17:-0.9779441952705383 18:0.0 19:-1.0149693489074707 20:0.0 21:-1.016024112701416 22:-0.8783910274505615 23:-0.8609523773193359 24:-1.0199174880981445 25:0.0 26:0.0 27:0.0 28:-0.9535725712776184 29:-0.9486405849456787 30:-0.9542978405952454 31:-0.9547868371009827 32:-0.9555045366287231 33:-0.9541780948638916 34:0.0
0.03850358362069392 1:-1.0035145282745361 2:-1.0083577632904053 3:-0.9891610145568848 4:-1.0194979906082153 5:-1.019808053970337 6:-1.0038591623306274 7:-1.0054584741592407 8:-0.995333731174469 9:-0.9963476657867432 10:0.0 11:-0.9878695011138916 12:-0.9950119256973267 13:-1.01955246925354 14:0.0 15:-1.0188305377960205 16:-0.9779441952705383 17:-0.9779441952705383 18:0.0 19:-1.0149693489074707 20:0.0 21:-1.0011588335037231 22:-1.0114907026290894 23:-1.0147258043289185 24:-0.9812151789665222 25:0.0 26:0.0 27:0.0 28:-0.9535725712776184 29:-0.9486405849456787 30:-0.8890138864517212 31:-0.8899909257888794 32:-0.8914272785186768 33:-0.8887706995010376 34:0.0
0.03850358362069392 1:-0.992113471031189 2:-0.9945206046104431 3:-0.9585913419723511 4:-0.9912542700767517 5:-1.011971116065979 6:-0.9899954199790955 7:-0.9984017014503479 8:-1.0028610229492188 9:-1.020037055015564 10:0.0 11:-1.0199891328811646 12:-1.0200529098510742 13:-1.01955246925354 14:0.0 15:-1.0188305377960205 16:-0.9779441952705383 17:-0.9779441952705383 18:0.0 19:-1.0149693489074707 20:0.0 21:-1.0030685663223267 22:-0.8814651966094971 23:-0.8622941970825195 24:-1.0199174880981445 25:0.0 26:0.0 27:0.0 28:-0.9535725712776184 29:-0.9486405849456787 30:-0.9542978405952454 31:-0.9547868371009827 32:-0.9555045366287231 33:-0.9541780948638916 34:0.0
0.03850358362069392 1:-0.9996458292007446 2:-1.0056557655334473 3:-0.9962297677993774 4:-1.0194979906082153 5:-1.019808053970337 6:-0.9950675368309021 7:-1.0128034353256226 8:-1.0053647756576538 9:-0.9963476657867432 10:0.0 11:-0.9846575260162354 12:-0.9950119256973267 13:-1.01955246925354 14:0.0 15:-1.0188305377960205 16:-0.9779441952705383 17:-0.9779441952705383 18:0.0 19:-1.0149693489074707 20:0.0 21:-0.9933280944824219 22:-1.015584945678711 23:-1.0151878595352173 24:-0.9812151789665222 25:0.0 26:0.0 27:0.0 28:-0.9535725712776184 29:-0.9486405849456787 30:-0.8890138864517212 31:-0.9547868371009827 32:-0.8914272785186768 33:-0.8887706995010376 34:0.0
-0.03850358362069392 1:-1.0023342370986938 2:-1.0035367012023926 3:-0.9819260239601135 4:-0.9966532588005066 5:-1.0098657608032227 6:-1.0174975395202637 7:-1.0084755420684814 8:-1.0128958225250244 9:-1.020037055015564 10:0.0 11:-1.0199891328811646 12:-1.0200529098510742 13:-1.01955246925354 14:0.0 15:-1.0188305377960205 16:-0.9779441952705383 17:-0.9779441952705383 18:0.0 19:-1.0149693489074707 20:0.0 21:-1.0148966312408447 22:-0.6704265475273132 23:-0.7970672249794006 24:-1.0199174880981445 25:0.0 26:0.0 27:0.0 28:-1.0196040868759155 29:-0.9486405849456787 30:-0.9542978405952454 31:-0.9547868371009827 32:-0.9555045366287231 33:-0.9541780948638916 34:0.0
0.03850358362069392 1:-0.9894250631332397 2:-0.9849410653114319 3:-1.0197969675064087 4:-1.0194979906082153 5:-0.9570632576942444 6:-1.0178357362747192 7:-0.9714787602424622 8:-1.0005080699920654 9:-0.9489688873291016 10:0.0 11:-0.9878695011138916 12:-0.9950119256973267 13:-0.9457976222038269 14:0.0 15:-0.8756890296936035 16:-0.9779441952705383 17:-0.9779441952705383 18:0.0 19:-1.0149693489074707 20:0.0 21:-0.9609140753746033 22:-1.0171221494674683 23:-1.0152382850646973 24:-0.9812151789665222 25:0.0 26:0.0 27:0.0 28:-1.0196040868759155 29:-1.0195280313491821 30:-1.0195817947387695 31:-1.019582748413086 32:-1.0195817947387695 33:-1.0195854902267456 34:0.0
-0.03850358362069392 1:-0.9818927645683289 2:-0.9784364104270935 3:-0.9656151533126831 4:-0.9143732190132141 5:-0.9617049098014832 6:-0.9893191456794739 7:-0.9729159474372864 8:-1.0094690322875977 9:-1.020037055015564 10:0.0 11:-1.0199891328811646 12:-1.0200529098510742 13:-0.9457976222038269 14:0.0 15:-1.0188305377960205 16:-0.9779441952705383 17:-0.9779441952705383 18:0.0 19:-0.49991029500961304 20:0.0 21:-1.004677653312683 22:-0.9727593660354614 23:-0.9598848223686218 24:-1.0199174880981445 25:0.0 26:0.0 27:0.0 28:-0.9535725712776184 29:-0.8777531981468201 30:-0.8890138864517212 31:-0.8899909257888794 32:-0.8914272785186768 33:-0.9541780948638916 34:0.0
0.03850358362069392 1:-0.9996458292007446 2:-0.9933041334152222 3:-1.0197969675064087 4:-1.0194979906082153 5:-0.9865860939025879 6:-1.0179483890533447 7:-1.0075552463531494 8:-1.0120726823806763 9:-0.9963476657867432 10:0.0 11:-0.9846575260162354 12:-0.9950119256973267 13:-0.9457976222038269 14:0.0 15:-0.8756890296936035 16:-0.9779441952705383 17:-0.9779441952705383 18:0.0 19:-1.0149693489074707 20:0.0 21:-1.0188844203948975 22:-0.9953493475914001 23:-0.9616570472717285 24:-1.0199174880981445 25:0.0 26:0.0 27:0.0 28:-1.0196040868759155 29:-1.0195280313491821 30:-1.0195817947387695 31:-1.019582748413086 32:-1.0195817947387695 33:-1.0195854902267456 34:0.0
-0.03850358362069392 1:-1.0035145282745361 2:-1.0044549703598022 3:-0.9878320097923279 4:-0.9998762607574463 5:-1.0098657608032227 6:-1.0161449909210205 7:-1.003169059753418 8:-1.0143711566925049 9:-0.9963476657867432 10:0.0 11:-1.0103532075881958 12:-0.9950119256973267 13:-1.01955246925354 14:0.0 15:-1.0188305377960205 16:-0.9779441952705383 17:-0.9779441952705383 18:0.0 19:-1.0149693489074707 20:0.0 21:-0.9814766645431519 22:-1.005932092666626 23:-1.013796091079712 24:-1.0199174880981445 25:0.0 26:0.0 27:0.0 28:-0.9535725712776184 29:-0.9486405849456787 30:-0.9542978405952454 31:-0.8899909257888794 32:-0.8914272785186768 33:-0.9541780948638916 34:0.0
0.03850358362069392 1:-0.9818927645683289 2:-0.9790868759155273 3:-0.8294906616210938 4:-0.8379594683647156 5:-0.9014208912849426 6:-1.0088186264038086 7:-0.87711501121521 8:-1.0016506910324097 9:-0.9963476657867432 10:0.0 11:-1.013565182685852 12:-0.9950119256973267 13:-0.9457976222038269 14:0.0 15:-1.0188305377960205 16:-0.9779441952705383 17:-0.9779441952705383 18:0.0 19:-0.49991029500961304 20:0.0 21:-0.9924407601356506 22:-1.0130834579467773 23:-1.0151864290237427 24:-1.0199174880981445 25:0.0 26:0.0 27:0.0 28:-1.0196040868759155 29:-1.0195280313491821 30:-1.0195817947387695 31:-1.019582748413086 32:-1.0195817947387695 33:-1.0195854902267456 34:0.0
-0.03850358362069392 1:-1.0023342370986938 2:-1.0003467798233032 3:-0.9889061450958252 4:-0.9605483412742615 5:-0.9806244373321533 6:-0.9803020358085632 7:-1.006850242614746 8:-1.0036723613739014 9:-0.9726582765579224 10:0.0 11:-1.0007174015045166 12:-0.9950119256973267 13:-0.9457976222038269 14:0.0 15:-1.0188305377960205 16:-0.9779441952705383 17:-0.9779441952705383 18:0.0 19:-1.0149693489074707 20:0.0 21:-0.9839556813240051 22:-1.0156886577606201 23:-1.0150110721588135 24:-0.9812151789665222 25:0.0 26:0.0 27:0.0 28:-1.0196040868759155 29:-0.8777531981468201 30:-0.9542978405952454 31:-0.8899909257888794 32:-0.8914272785186768 33:-0.9541780948638916 34:0.0
0.03850358362069392 1:-0.9963554739952087 2:-0.9904870986938477 3:-1.0197969675064087 4:-1.0194979906082153 5:-0.9865860939025879 6:-1.012876272201538 7:-1.0011192560195923 8:-1.0086597204208374 9:-1.020037055015564 10:0.0 11:-1.0199891328811646 12:-1.0200529098510742 13:-0.9457976222038269 14:0.0 15:-0.8756890296936035 16:-0.9779441952705383 17:-0.9779441952705383 18:0.0 19:-1.0149693489074707 20:0.0 21:-0.9984733462333679 22:-0.9858679175376892 23:-0.9016293883323669 24:-0.9812151789665222 25:0.0 26:0.0 27:0.0 28:-1.0196040868759155 29:-1.0195280313491821 30:-1.0195817947387695 31:-1.019582748413086 32:-1.0195817947387695 33:-1.0195854902267456 34:0.0
-0.03850358362069392 1:-1.0046073198318481 2:-1.0090464353561401 3:-0.999090850353241 4:-1.0194979906082153 5:-1.019808053970337 6:-1.0177229642868042 7:-1.0187538862228394 8:-1.010141372680664 9:-0.9963476657867432 10:0.0 11:-0.9975053668022156 12:-0.9950119256973267 13:-1.01955246925354 14:0.0 15:-1.0188305377960205 16:-0.9779441952705383 17:-0.9779441952705383 18:0.0 19:-1.0149693489074707 20:0.0 21:-1.0096834897994995 22:-1.0152479410171509 23:-1.0149625539779663 24:-1.0199174880981445 25:0.0 26:0.0 27:0.0 28:-1.0196040868759155 29:-1.0195280313491821 30:-0.8890138864517212 31:-0.9547868371009827 32:-0.9555045366287231 33:-0.8887706995010376 34:0.0
0.03850358362069392 1:-0.992113471031189 2:-0.9843835234642029 3:-1.0197969675064087 4:-1.0194979906082153 5:-0.9955293536186218 6:-1.0180611610412598 7:-1.0166635513305664 8:-1.0117586851119995 9:-0.9963476657867432 10:0.0 11:-0.9782335758209229 12:-0.9950119256973267 13:-0.9457976222038269 14:0.0 15:-0.8756890296936035 16:-0.9779441952705383 17:-0.9779441952705383 18:0.0 19:-1.0149693489074707 20:0.0 21:-0.9741403460502625 22:-1.0176173448562622 23:-1.0152429342269897 24:-1.0199174880981445 25:0.0 26:0.0 27:0.0 28:-1.0196040868759155 29:-1.0195280313491821 30:-1.0195817947387695 31:-1.019582748413086 32:-1.0195817947387695 33:-1.0195854902267456 34:0.0
-0.03850358362069392 1:-1.0091102123260498 2:-1.0083577632904053 3:-0.9963642358779907 4:-1.004738211631775 5:-1.0098657608032227 6:-1.0136653184890747 7:-1.0043590068817139 8:-0.9979583024978638 9:-0.9963476657867432 10:0.0 11:-0.9782335758209229 12:-0.9950119256973267 13:-1.01955246925354 14:0.0 15:-1.0188305377960205 16:-0.9779441952705383 17:-0.9779441952705383 18:0.0 19:-1.0149693489074707 20:0.0 21:-1.0193521976470947 22:-0.9093839526176453 23:-0.25288712978363037 24:-1.0199174880981445 25:0.0 26:0.0 27:0.0 28:-1.0196040868759155 29:-1.0195280313491821 30:-1.0195817947387695 31:-1.019582748413086 32:-1.0195817947387695 33:-1.0195854902267456 34:0.0
0.03850358362069392 1:-1.0056246519088745 2:-1.009658694267273 3:-0.999090850353241 4:-1.0194979906082153 5:-1.019808053970337 6:-1.0178357362747192 7:-1.0163135528564453 8:-1.019844889640808 9:-1.020037055015564 10:0.0 11:-1.0199891328811646 12:-1.0200529098510742 13:-0.9457976222038269 14:0.0 15:-1.0188305377960205 16:-0.9779441952705383 17:-0.9779441952705383 18:0.0 19:-1.0149693489074707 20:0.0 21:-0.9977503418922424 22:-1.008567452430725 23:-1.0141128301620483 24:-1.0199174880981445 25:0.0 26:0.0 27:0.0 28:-1.0196040868759155 29:-1.0195280313491821 30:-1.0195817947387695 31:-1.019582748413086 32:-1.0195817947387695 33:-1.0195854902267456 34:0.0
-0.03850358362069392 1:-0.9818927645683289 2:-0.9771355390548706 3:-1.0197969675064087 4:-1.0194979906082153 5:-0.9042673110961914 6:-1.0091567039489746 7:-0.8188299536705017 8:-0.974870502948761 9:-1.020037055015564 10:0.0 11:-1.0199891328811646 12:-1.0200529098510742 13:-0.9457976222038269 14:0.0 15:-1.0188305377960205 16:-0.9779441952705383 17:-0.9779441952705383 18:0.0 19:-0.49991029500961304 20:0.0 21:-1.017080307006836 22:-1.0077406167984009 23:-1.0099687576293945 24:-0.9812151789665222 25:0.0 26:0.0 27:0.0 28:-1.0196040868759155 29:-1.0195280313491821 30:-0.9542978405952454 31:-1.019582748413086 32:-1.0195817947387695 33:-1.0195854902267456 34:0.0
0.03850358362069392 1:-0.9943864941596985 2:-0.9888438582420349 3:-0.9761248826980591 4:-0.9351246356964111 5:-0.9718359708786011 6:-1.0178357362747192 7:-1.0174481868743896 8:-1.018398642539978 9:-0.9963476657867432 10:0.0 11:-0.9846575260162354 12:-0.9950119256973267 13:-1.01955246925354 14:0.0 15:-1.0188305377960205 16:-0.9779441952705383 17:-0.9779441952705383 18:0.0 19:-1.0149693489074707 20:0.0 21:-1.0071295499801636 22:-0.8250709176063538 23:-0.777227520942688 24:-1.0199174880981445 25:0.0 26:0.0 27:0.0 28:-1.0196040868759155 29:-0.9486405849456787 30:-0.9542978405952454 31:-0.9547868371009827 32:-0.9555045366287231 33:-0.9541780948638916 34:0.0
-0.03850358362069392 1:-0.9980922341346741 2:-0.9999946355819702 3:-0.9846686720848083 4:-0.9981359839439392 5:-1.0098657608032227 6:-0.9955183863639832 7:-1.0076758861541748 8:-1.0060899257659912 9:-0.9726582765579224 10:0.0 11:-0.9685976505279541 12:-0.9950119256973267 13:-1.01955246925354 14:0.0 15:-1.0188305377960205 16:-0.9779441952705383 17:-0.9779441952705383 18:0.0 19:-1.0149693489074707 20:0.0 21:-0.9707434177398682 22:-0.9498698711395264 23:-1.006007432937622 24:-0.9812151789665222 25:0.0 26:0.0 27:0.0 28:-0.9535725712776184 29:-0.9486405849456787 30:-0.9542978405952454 31:-0.9547868371009827 32:-0.9555045366287231 33:-0.9541780948638916 34:0.0
0.03850358362069392 1:-0.9818927645683289 2:-0.9779160618782043 3:-0.8044891953468323 4:-0.8410932421684265 5:-0.928719699382782 6:-0.9951802492141724 7:-0.908937394618988 8:-0.9241822957992554 9:-0.9963476657867432 10:0.0 11:-0.9846575260162354 12:-0.9950119256973267 13:-1.01955246925354 14:0.0 15:-1.0188305377960205 16:-0.9779441952705383 17:-0.9779441952705383 18:0.0 19:-0.49991029500961304 20:0.0 21:-0.9931321144104004 22:-0.8300541043281555 23:-0.7811751961708069 24:-0.9812151789665222 25:0.0 26:0.0 27:0.0 28:-1.0196040868759155 29:-1.0195280313491821 30:-1.0195817947387695 31:-1.019582748413086 32:-1.0195817947387695 33:-1.0195854902267456 34:0.0
-0.03850358362069392 1:-0.9980922341346741 2:-0.9919660687446594 3:-0.9758805632591248 4:-0.9233883619308472 5:-0.9596550464630127 6:-1.016483187675476 7:-1.013088345527649 8:-1.014167308807373 9:-0.9963476657867432 10:0.0 11:-0.9878695011138916 12:-0.9950119256973267 13:-0.9457976222038269 14:0.0 15:-1.0188305377960205 16:-0.9779441952705383 17:-0.9779441952705383 18:0.0 19:-1.0149693489074707 20:0.0 21:-1.0014252662658691 22:-0.977605402469635 23:-0.9911814332008362 24:-1.0199174880981445 25:0.0 26:0.0 27:0.0 28:-0.9535725712776184 29:-1.0195280313491821 30:-0.9542978405952454 31:-0.9547868371009827 32:-0.9555045366287231 33:-0.9541780948638916 34:0.0
0.03850358362069392 1:-1.0074701309204102 2:-1.0106993913650513 3:-1.0197969675064087 4:-1.0194979906082153 5:-1.019808053970337 6:-1.0179483890533447 7:-1.0132648944854736 8:-1.0159776210784912 9:-1.020037055015564 10:0.0 11:-1.0199891328811646 12:-1.0200529098510742 13:-1.01955246925354 14:0.0 15:-1.0188305377960205 16:-0.9779441952705383 17:-0.9779441952705383 18:0.0 19:-1.0149693489074707 20:0.0 21:-1.0186322927474976 22:-0.989255964756012 23:-0.9108123183250427 24:-1.0199174880981445 25:0.0 26:0.0 27:0.0 28:-1.0196040868759155 29:-0.9486405849456787 30:-1.0195817947387695 31:-0.9547868371009827 32:-0.9555045366287231 33:-1.0195854902267456 34:0.0
-0.03850358362069392 1:-0.9894250631332397 2:-0.9866136908531189 3:-0.9823439717292786 4:-0.9653392434120178 5:-0.9910541772842407 6:-1.0121999979019165 7:-1.0077325105667114 8:-1.0136210918426514 9:-1.020037055015564 10:0.0 11:-1.0199891328811646 12:-1.0200529098510742 13:-1.01955246925354 14:0.0 15:-1.0188305377960205 16:-0.9779441952705383 17:-0.9779441952705383 18:0.0 19:-1.0149693489074707 20:0.0 21:-0.9748684167861938 22:-0.9509832859039307 23:-0.9934713244438171 24:-0.9812151789665222 25:0.0 26:0.0 27:0.0 28:-0.9535725712776184 29:-0.9486405849456787 30:-1.0195817947387695 31:-1.019582748413086 32:-1.0195817947387695 33:-1.0195854902267456 34:0.0
0.03850358362069392 1:-0.992113471031189 2:-0.9819055795669556 3:-1.0197969675064087 4:-1.0194979906082153 5:-0.9014208912849426 6:-0.9578719735145569 7:-0.9933224320411682 8:-1.008408546447754 9:-0.9963476657867432 10:0.0 11:-0.9814455509185791 12:-0.9950119256973267 13:-0.9457976222038269 14:0.0 15:-1.0188305377960205 16:-0.9779441952705383 17:-0.9779441952705383 18:0.0 19:-1.0149693489074707 20:0.0 21:-1.005447506904602 22:-0.9617327451705933 23:-0.8153935670852661 24:-0.9812151789665222 25:0.0 26:0.0 27:0.0 28:-1.0196040868759155 29:-1.0195280313491821 30:-1.0195817947387695 31:-1.019582748413086 32:-1.0195817947387695 33:-1.0195854902267456 34:0.0
-0.03850358362069392 1:-1.0010511875152588 2:-1.0066851377487183 3:-1.0197969675064087 4:-1.0194979906082153 5:-1.019808053970337 6:-0.8690534830093384 7:-1.0015918016433716 8:-1.006948709487915 9:-0.9963476657867432 10:0.0 11:-1.007141351699829 12:-0.9950119256973267 13:-1.01955246925354 14:0.0 15:-1.0188305377960205 16:-0.9779441952705383 17:-0.9779441952705383 18:0.0 19:-1.0149693489074707 20:0.0 21:-0.9976596832275391 22:-0.7432041168212891 23:-0.8076562285423279 24:-1.0199174880981445 25:0.0 26:0.0 27:0.0 28:-1.0196040868759155 29:-1.0195280313491821 30:-1.0195817947387695 31:-1.019582748413086 32:-1.0195817947387695 33:-1.0195854902267456 34:0.0
0.03850358362069392 1:-1.0035145282745361 2:-1.0044549703598022 3:-0.9960253834724426 4:-1.0045403242111206 5:-1.0098657608032227 6:-1.016370415687561 7:-0.9965378642082214 8:-0.9659361839294434 9:-0.9963476657867432 10:0.0 11:-0.9975053668022156 12:-0.9950119256973267 13:-0.9457976222038269 14:0.0 15:-0.8756890296936035 16:-0.9779441952705383 17:-0.9779441952705383 18:0.0 19:-1.0149693489074707 20:0.0 21:-0.9805782437324524 22:-1.017628788948059 23:-1.01523756980896 24:-1.0199174880981445 25:0.0 26:0.0 27:0.0 28:-0.9535725712776184 29:-1.0195280313491821 30:-1.0195817947387695 31:-0.9547868371009827 32:-0.9555045366287231 33:-1.0195854902267456 34:0.0
-0.03850358362069392 1:-0.9996458292007446 2:-0.9980268478393555 3:-0.9916302561759949 4:-0.973758339881897 5:-0.9892158508300781 6:-1.0179483890533447 7:-1.0186951160430908 8:-1.013639211654663 9:-0.9963476657867432 10:0.0 11:-0.9653856754302979 12:-0.9950119256973267 13:-1.01955246925354 14:0.0 15:-0.8756890296936035 16:-0.9779441952705383 17:-0.9779441952705383 18:0.0 19:-1.0149693489074707 20:0.0 21:-1.005925178527832 22:-1.016284465789795 23:-1.01521897315979 24:-1.0199174880981445 25:0.0 26:0.0 27:0.0 28:-0.9535725712776184 29:-1.0195280313491821 30:-0.9542978405952454 31:-0.9547868371009827 32:-0.8914272785186768 33:-0.9541780948638916 34:0.0
0.03850358362069392 1:-1.0023342370986938 2:-1.0035367012023926 3:-0.9900076389312744 4:-1.0010923147201538 5:-1.0098657608032227 6:-0.745744526386261 7:-1.018357276916504 8:-1.0187804698944092 9:-0.9726582765579224 10:0.0 11:-0.9975053668022156 12:-0.9950119256973267 13:-1.01955246925354 14:0.0 15:-1.0188305377960205 16:-0.9779441952705383 17:-0.9779441952705383 18:0.0 19:-1.0149693489074707 20:0.0 21:-0.9918758869171143 22:-0.7792498469352722 23:-0.781852126121521 24:-0.9812151789665222 25:0.0 26:0.0 27:0.0 28:-0.9535725712776184 29:-0.9486405849456787 30:-1.0195817947387695 31:-0.9547868371009827 32:-0.8914272785186768 33:-1.0195854902267456 34:0.0
-0.03850358362069392 1:-0.992113471031189 2:-0.9843835234642029 3:-0.9849432110786438 4:-0.9743999242782593 5:-0.9955293536186218 6:-0.8912581205368042 7:-0.9958903789520264 8:-0.9756715893745422 9:-0.9963476657867432 10:0.0 11:-1.013565182685852 12:-0.9950119256973267 13:-0.9457976222038269 14:0.0 15:-1.0188305377960205 16:-0.9779441952705383 17:-0.9779441952705383 18:0.0 19:-1.0149693489074707 20:0.0 21:-1.0140913724899292 22:-0.9549158215522766 23:-0.9890263080596924 24:-0.9812151789665222 25:0.0 26:0.0 27:0.0 28:-0.9535725712776184 29:-0.9486405849456787 30:-0.9542978405952454 31:-0.9547868371009827 32:-0.9555045366287231 33:-0.9541780948638916 34:0.0
0.03850358362069392 1:-1.0035145282745361 2:-1.0044549703598022 3:-1.0197969675064087 4:-1.0194979906082153 5:-1.011971116065979 6:-1.0180611610412598 7:-1.0193897485733032 8:-1.019844889640808 9:-0.9963476657867432 10:0.0 11:-0.9942933917045593 12:-0.9950119256973267 13:-1.01955246925354 14:0.0 15:-1.0188305377960205 16:-0.9779441952705383 17:-0.9779441952705383 18:0.0 19:-1.0149693489074707 20:0.0 21:-0.9724404811859131 22:-1.01652991771698 23:-1.015191912651062 24:-1.0199174880981445 25:0.0 26:0.0 27:0.0 28:-1.0196040868759155 29:-1.0195280313491821 30:-0.9542978405952454 31:-1.019582748413086 32:-0.9555045366287231 33:-0.9541780948638916 34:0.0
-0.03850358362069392 1:-1.0091102123260498 2:-1.0115509033203125 3:-1.0197969675064087 4:-1.0194979906082153 5:-1.019808053970337 6:-1.0178357362747192 7:-1.0154160261154175 8:-1.0181771516799927 9:-1.020037055015564 10:0.0 11:-1.0199891328811646 12:-1.0200529098510742 13:-1.01955246925354 14:0.0 15:-1.0188305377960205 16:-0.9779441952705383 17:-0.9779441952705383 18:0.0 19:-1.0149693489074707 20:0.0 21:-1.0109373331069946 22:-0.6692098379135132 23:-0.7973890900611877 24:-1.0199174880981445 25:0.0 26:0.0 27:0.0 28:-1.0196040868759155 29:-1.0195280313491821 30:-1.0195817947387695 31:-1.019582748413086 32:-1.0195817947387695 33:-1.0195854902267456 34:0.0
0.03850358362069392 1:-1.0046073198318481 2:-1.0090464353561401 3:-1.0197969675064087 4:-1.0194979906082153 5:-1.019808053970337 6:-1.0179483890533447 7:-1.018908977508545 8:-1.019844889640808 9:-0.9963476657867432 10:0.0 11:-0.9942933917045593 12:-0.9950119256973267 13:-1.01955246925354 14:0.0 15:-1.0188305377960205 16:-0.9779441952705383 17:-0.9779441952705383 18:0.0 19:-1.0149693489074707 20:0.0 21:-1.0148143768310547 22:-1.0122357606887817 23:-1.0145436525344849 24:-1.0199174880981445 25:0.0 26:0.0 27:0.0 28:-1.0196040868759155 29:-0.9486405849456787 30:-0.9542978405952454 31:-0.9547868371009827 32:-0.9555045366287231 33:-0.9541780948638916 34:0.0
-0.03850358362069392 1:-1.0023342370986938 2:-1.0035367012023926 3:-0.9934219717979431 4:-1.00303316116333 5:-1.0098657608032227 6:-0.921239972114563 7:-1.0011264085769653 8:-1.0018551349639893 9:-0.9963476657867432 10:0.0 11:-1.007141351699829 12:-0.9950119256973267 13:-1.01955246925354 14:0.0 15:-0.8756890296936035 16:-0.9779441952705383 17:-0.9779441952705383 18:0.0 19:-1.0149693489074707 20:0.0 21:-0.9693320393562317 22:-1.0109877586364746 23:-1.014764666557312 24:-0.9812151789665222 25:0.0 26:0.0 27:0.0 28:-0.9535725712776184 29:-0.9486405849456787 30:-0.9542978405952454 31:-0.9547868371009827 32:-0.9555045366287231 33:-0.9541780948638916 34:0.0
0.03850358362069392 1:-0.9861347079277039 2:-0.9933041334152222 3:-0.9798138737678528 4:-1.0194979906082153 5:-1.019808053970337 6:-1.0133271217346191 7:-0.9760963320732117 8:-0.9796996116638184 9:-0.9963476657867432 10:0.0 11:-0.9814455509185791 12:-0.9950119256973267 13:-1.01955246925354 14:0.0 15:-0.8756890296936035 16:-0.9779441952705383 17:-0.9779441952705383 18:0.0 19:-1.0149693489074707 20:0.0 21:-1.014424443244934 22:-0.8205917477607727 23:-0.8903499841690063 24:-0.9812151789665222 25:0.0 26:0.0 27:0.0 28:-1.0196040868759155 29:-1.0195280313491821 30:-1.0195817947387695 31:-1.019582748413086 32:-1.0195817947387695 33:-1.0195854902267456 34:0.0
-0.03850358362069392 1:-0.992113471031189 2:-0.9843835234642029 3:-0.9660523533821106 4:-0.899712085723877 5:-0.9416917562484741 6:-1.0158069133758545 7:-1.0037264823913574 8:-1.0025171041488647 9:-0.9963476657867432 10:0.0 11:-0.9975053668022156 12:-0.9950119256973267 13:-0.9457976222038269 14:0.0 15:-1.0188305377960205 16:-0.9779441952705383 17:-0.9779441952705383 18:0.0 19:-1.0149693489074707 20:0.0 21:-0.9924288392066956 22:-1.0144048929214478 23:-1.0150511264801025 24:-1.0199174880981445 25:0.0 26:0.0 27:0.0 28:-1.0196040868759155 29:-1.0195280313491821 30:-1.0195817947387695 31:-1.019582748413086 32:-1.0195817947387695 33:-1.0195854902267456 34:0.0
-0.03850358362069392 1:-0.9943864941596985 2:-0.9872827529907227 3:-0.977592408657074 4:-0.9197483658790588 5:-0.9526157379150391 6:-0.9809783101081848 7:-1.0120707750320435 8:-1.009711503982544 9:-0.9726582765579224 10:0.0 11:-1.0103532075881958 12:-0.9699708819389343 13:-0.9457976222038269 14:0.0 15:-1.0188305377960205 16:-0.9779441952705383 17:-0.9779441952705383 18:0.0 19:-1.0149693489074707 20:0.0 21:-0.9822980165481567 22:-1.015707015991211 23:-1.0152127742767334 24:-0.9812151789665222 25:0.0 26:0.0 27:0.0 28:-1.0196040868759155 29:-1.0195280313491821 30:-1.0195817947387695 31:-1.019582748413086 32:-1.0195817947387695 33:-1.0195854902267456 34:0.0
-0.03850358362069392 1:-0.9943864941596985 2:-0.9888438582420349 3:-0.9891539216041565 4:-0.9675537943840027 5:-0.9865860939025879 6:-1.0129890441894531 7:-0.9803917407989502 8:-0.9715850949287415 9:-0.9963476657867432 10:0.0 11:-1.0103532075881958 12:-0.9950119256973267 13:-1.01955246925354 14:0.0 15:-1.0188305377960205 16:-0.9779441952705383 17:-0.9779441952705383 18:0.0 19:-1.0149693489074707 20:0.0 21:-1.0007723569869995 22:-1.012642741203308 23:-1.0146815776824951 24:-0.9812151789665222 25:0.0 26:0.0 27:0.0 28:-1.0196040868759155 29:-1.0195280313491821 30:-1.0195817947387695 31:-1.019582748413086 32:-1.0195817947387695 33:-1.0195854902267456 34:0.0
-0.03850358362069392 1:-1.0035145282745361 2:-0.9987781643867493 3:-0.9929842948913574 4:-0.9775933027267456 5:-0.9910541772842407 6:-1.0158069133758545 7:-1.0121793746948242 8:-1.010481834411621 9:-0.9963476657867432 10:0.0 11:-0.9718096256256104 12:-0.9950119256973267 13:-1.01955246925354 14:0.0 15:-1.0188305377960205 16:-0.9779441952705383 17:-0.9779441952705383 18:0.0 19:-1.0149693489074707 20:0.0 21:-1.0147895812988281 22:-1.009196162223816 23:-1.0104106664657593 24:-0.9812151789665222 25:0.0 26:0.0 27:0.0 28:-1.0196040868759155 29:-0.9486405849456787 30:-1.0195817947387695 31:-1.019582748413086 32:-1.0195817947387695 33:-1.0195854902267456 34:0.0
-0.03850358362069392 1:-0.9996458292007446 2:-0.9980268478393555 3:-0.9896373152732849 4:-0.9927836656570435 5:-1.0048936605453491 6:-1.0176103115081787 7:-0.992009162902832 8:-1.0128593444824219 9:-0.9963476657867432 10:0.0 11:-0.9653856754302979 12:-0.9950119256973267 13:-1.01955246925354 14:0.0 15:-1.0188305377960205 16:-0.9779441952705383 17:-0.9779441952705383 18:0.0 19:-1.0149693489074707 20:0.0 21:-1.0117584466934204 22:-1.0108879804611206 23:-1.0144445896148682 24:-0.9812151789665222 25:0.0 26:0.0 27:0.0 28:-1.0196040868759155 29:-1.0195280313491821 30:-1.0195817947387695 31:-1.019582748413086 32:-1.0195817947387695 33:-1.0195854902267456 34:0.0
0.03850358362069392 1:-0.9861347079277039 2:-0.9825993776321411 3:-1.0197969675064087 4:-1.0194979906082153 5:-0.9865860939025879 6:-1.0063389539718628 7:-0.9363551139831543 8:-0.9904131293296814 9:-0.9963476657867432 10:0.0 11:-0.9878695011138916 12:-0.9950119256973267 13:-0.9457976222038269 14:0.0 15:-0.8756890296936035 16:-0.9779441952705383 17:-0.9779441952705383 18:0.0 19:-1.0149693489074707 20:0.0 21:-1.0084773302078247 22:-0.8714290261268616 23:-0.8654773235321045 24:-0.9812151789665222 25:0.0 26:0.0 27:0.0 28:-1.0196040868759155 29:-0.9486405849456787 30:-0.9542978405952454 31:-0.9547868371009827 32:-0.9555045366287231 33:-0.9541780948638916 34:0.0
0.03850358362069392 1:-0.992113471031189 2:-0.9870072603225708 3:-0.9664571285247803 4:-0.9433183670043945 5:-0.9865860939025879 6:-1.004648208618164 7:-1.0030457973480225 8:-0.9896121025085449 9:-1.020037055015564 10:0.0 11:-1.0199891328811646 12:-1.0200529098510742 13:-0.9457976222038269 14:0.0 15:-1.0188305377960205 16:-0.9779441952705383 17:-0.9779441952705383 18:0.0 19:-1.0149693489074707 20:0.0 21:-1.009260654449463 22:-0.8779222369194031 23:-0.8675106763839722 24:-1.0199174880981445 25:0.0 26:0.0 27:0.0 28:-0.9535725712776184 29:-1.0195280313491821 30:-0.9542978405952454 31:-0.9547868371009827 32:-1.0195817947387695 33:-0.9541780948638916 34:0.0
0.03850358362069392 1:-0.9980922341346741 2:-0.9919660687446594 3:-1.0197969675064087 4:-1.0194979906082153 5:-0.9865860939025879 6:-1.0177229642868042 7:-1.0133243799209595 8:-1.0128226280212402 9:-1.020037055015564 10:0.0 11:-1.0199891328811646 12:-1.0200529098510742 13:-0.9457976222038269 14:0.0 15:-1.0188305377960205 16:-0.9779441952705383 17:-0.9779441952705383 18:0.0 19:-1.0149693489074707 20:0.0 21:-1.005793809890747 22:-0.9900749325752258 23:-0.9111170172691345 24:-1.0199174880981445 25:0.0 26:0.0 27:0.0 28:-1.0196040868759155 29:-0.9486405849456787 30:-0.9542978405952454 31:-1.019582748413086 32:-0.9555045366287231 33:-0.9541780948638916 34:0.0
0.03850358362069392 1:-0.9980922341346741 2:-0.9966493844985962 3:-0.9734364151954651 4:-0.9421238303184509 5:-0.9806244373321533 6:-1.0131016969680786 7:-1.0046125650405884 8:-1.0052756071090698 9:-1.020037055015564 10:0.0 11:-1.0199891328811646 12:-1.0200529098510742 13:-0.9457976222038269 14:0.0 15:-1.0188305377960205 16:-0.9779441952705383 17:-0.9779441952705383 18:0.0 19:-1.0149693489074707 20:0.0 21:-0.9934234023094177 22:-1.0014441013336182 23:-1.0138846635818481 24:-0.9812151789665222 25:0.0 26:0.0 27:0.0 28:-0.8875411152839661 29:-0.8777531981468201 30:-0.8890138864517212 31:-0.8899909257888794 32:-0.8914272785186768 33:-0.8887706995010376 34:0.0
0.03850358362069392 1:-0.992113471031189 2:-0.9855573177337646 3:-0.9664755463600159 4:-0.930425763130188 5:-0.976659893989563 6:-0.966663658618927 7:-1.0141985416412354 8:-0.9875766038894653 9:-0.9489688873291016 10:0.0 11:-1.007141351699829 12:-0.9950119256973267 13:-0.9457976222038269 14:0.0 15:-1.0188305377960205 16:-0.9779441952705383 17:-0.9779441952705383 18:0.0 19:-1.0149693489074707 20:0.0 21:-0.9664573073387146 22:-0.9547803401947021 23:-0.974662721157074 24:-0.9812151789665222 25:0.0 26:0.0 27:0.0 28:-0.8875411152839661 29:-0.8777531981468201 30:-0.8890138864517212 31:-0.8899909257888794 32:-0.8914272785186768 33:-0.8887706995010376 34:0.0
-0.03850358362069392 1:-1.0023342370986938 2:-1.0003467798233032 3:-1.0197969675064087 4:-1.0194979906082153 5:-0.9806244373321533 6:-1.0153560638427734 7:-1.0094690322875977 8:-1.0028636455535889 9:-1.020037055015564 10:0.0 11:-1.0199891328811646 12:-1.0200529098510742 13:-0.9457976222038269 14:0.0 15:-1.0188305377960205 16:-0.9779441952705383 17:-0.9779441952705383 18:0.0 19:-1.0149693489074707 20:0.0 21:-1.0153708457946777 22:-0.9309350252151489 23:-0.424023300409317 24:-1.0199174880981445 25:0.0 26:0.0 27:0.0 28:-1.0196040868759155 29:-1.0195280313491821 30:-1.0195817947387695 31:-1.019582748413086 32:-1.0195817947387695 33:-1.0195854902267456 34:0.0
0.03850358362069392 1:-1.0035145282745361 2:-1.0044549703598022 3:-1.0197969675064087 4:-1.0194979906082153 5:-1.0098657608032227 6:-1.0180611610412598 7:-1.0160599946975708 8:-1.013639211654663 9:-0.9726582765579224 10:0.0 11:-1.0007174015045166 12:-0.9699708819389343 13:-1.01955246925354 14:0.0 15:-1.0188305377960205 16:-0.9779441952705383 17:-0.9779441952705383 18:0.0 19:-1.0149693489074707 20:0.0 21:-1.0080068111419678 22:-1.0170084238052368 23:-1.015172004699707 24:-0.9812151789665222 25:0.0 26:0.0 27:0.0 28:-1.0196040868759155 29:-1.0195280313491821 30:-1.0195817947387695 31:-1.019582748413086 32:-1.0195817947387695 33:-1.0195854902267456 34:0.0
-0.03850358362069392 1:-1.0023342370986938 2:-1.0035367012023926 3:-0.9889947772026062 4:-1.0005242824554443 5:-1.0098657608032227 6:-1.0144543647766113 7:-1.0103938579559326 8:-1.0128568410873413 9:-0.9963476657867432 10:0.0 11:-1.0007174015045166 12:-0.9950119256973267 13:-1.01955246925354 14:0.0 15:-0.8756890296936035 16:-0.9779441952705383 17:-0.9779441952705383 18:0.0 19:-1.0149693489074707 20:0.0 21:-1.0117279291152954 22:-0.9117987155914307 23:-0.9833390712738037 24:-1.0199174880981445 25:0.0 26:0.0 27:0.0 28:-0.9535725712776184 29:-0.9486405849456787 30:-0.9542978405952454 31:-0.9547868371009827 32:-0.9555045366287231 33:-0.9541780948638916 34:0.0
-0.03850358362069392 1:-1.0035145282745361 2:-1.0083577632904053 3:-0.9932811856269836 4:-1.0194979906082153 5:-1.019808053970337 6:-1.0117491483688354 7:-0.9903481006622314 8:-0.9819492697715759 9:-1.020037055015564 10:0.0 11:-1.0199891328811646 12:-1.0200529098510742 13:-0.9457976222038269 14:0.0 15:-0.8756890296936035 16:-0.9779441952705383 17:-0.9779441952705383 18:0.0 19:-1.0149693489074707 20:0.0 21:-0.9654111862182617 22:-1.0146121978759766 23:-1.0150538682937622 24:-0.9812151789665222 25:0.0 26:0.0 27:0.0 28:-0.9535725712776184 29:-0.9486405849456787 30:-0.9542978405952454 31:-0.9547868371009827 32:-0.9555045366287231 33:-0.9541780948638916 34:0.0
-0.03850358362069392 1:-1.0056246519088745 2:-1.0060160160064697 3:-0.9941204190254211 4:-1.0034351348876953 5:-1.0098657608032227 6:-1.0180611610412598 7:-1.0052008628845215 8:-1.019844889640808 9:-0.9963476657867432 10:0.0 11:-1.013565182685852 12:-0.9950119256973267 13:-0.9457976222038269 14:0.0 15:-1.0188305377960205 16:-0.9779441952705383 17:-0.9779441952705383 18:0.0 19:-1.0149693489074707 20:0.0 21:-1.002548336982727 22:-1.012917399406433 23:-1.0123149156570435 24:-0.9812151789665222 25:0.0 26:0.0 27:0.0 28:-0.9535725712776184 29:-0.9486405849456787 30:-0.9542978405952454 31:-0.9547868371009827 32:-0.8914272785186768 33:-0.9541780948638916 34:0.0
-0.03850358362069392 1:-1.0010511875152588 2:-0.9912455677986145 3:-0.9904999732971191 4:-0.9802179336547852 5:-0.9955293536186218 6:-0.905572772026062 7:-1.0192738771438599 8:-1.019797682762146 9:-1.020037055015564 10:0.0 11:-1.0199891328811646 12:-1.0200529098510742 13:-0.9457976222038269 14:0.0 15:-1.0188305377960205 16:-0.9779441952705383 17:-0.9779441952705383 18:0.0 19:-1.0149693489074707 20:0.0 21:-1.0111298561096191 22:-0.9832768440246582 23:-1.0048824548721313 24:-0.9812151789665222 25:0.0 26:0.0 27:0.0 28:-1.0196040868759155 29:-0.8777531981468201 30:-0.9542978405952454 31:-0.9547868371009827 32:-0.9555045366287231 33:-0.9541780948638916 34:0.0
-0.03850358362069392 1:-1.0065762996673584 2:-1.0066851377487183 3:-0.9919174313545227 4:-1.0021730661392212 5:-1.0098657608032227 6:-1.0149052143096924 7:-1.011468529701233 8:-1.0043622255325317 9:-1.020037055015564 10:0.0 11:-1.0199891328811646 12:-1.0200529098510742 13:-1.01955246925354 14:0.0 15:-0.8756890296936035 16:-0.9779441952705383 17:-0.9779441952705383 18:0.0 19:-1.0149693489074707 20:0.0 21:-1.0136269330978394 22:-1.0048309564590454 23:-1.0139825344085693 24:-0.9812151789665222 25:0.0 26:0.0 27:0.0 28:-0.9535725712776184 29:-0.9486405849456787 30:-0.9542978405952454 31:-0.9547868371009827 32:-0.9555045366287231 33:-0.9541780948638916 34:0.0
0.03850358362069392 1:-0.9996458292007446 2:-0.9933041334152222 3:-1.0197969675064087 4:-1.0194979906082153 5:-0.9865860939025879 6:-1.0178357362747192 7:-1.0166642665863037 8:-1.0152441263198853 9:-0.9963476657867432 10:0.0 11:-0.9846575260162354 12:-0.9950119256973267 13:-0.9457976222038269 14:0.0 15:-1.0188305377960205 16:-0.9779441952705383 17:-0.9779441952705383 18:0.0 19:-1.0149693489074707 20:0.0 21:-1.017433762550354 22:-0.9857094287872314 23:-0.9109532833099365 24:-1.0199174880981445 25:0.0 26:0.0 27:0.0 28:-1.0196040868759155 29:-1.0195280313491821 30:-1.0195817947387695 31:-1.019582748413086 32:-1.0195817947387695 33:-1.0195854902267456 34:0.0
0.03850358362069392 1:-0.9996458292007446 2:-0.9915587902069092 3:-1.0197969675064087 4:-1.0194979906082153 5:-0.976659893989563 6:-1.015581488609314 7:-1.005831241607666 8:-1.0004056692123413 9:-0.9963476657867432 10:0.0 11:-1.0039293766021729 12:-0.9950119256973267 13:-0.9457976222038269 14:0.0 15:-1.0188305377960205 16:-0.9779441952705383 17:-0.9779441952705383 18:0.0 19:-1.0149693489074707 20:0.0 21:-1.0146979093551636 22:-0.9866728186607361 23:-0.9005953669548035 24:-0.9812151789665222 25:0.0 26:0.0 27:0.0 28:-1.0196040868759155 29:-1.0195280313491821 30:-1.0195817947387695 31:-1.019582748413086 32:-1.0195817947387695 33:-1.0195854902267456 34:0.0
0.03850358362069392 1:-1.0074701309204102 2:-1.0106993913650513 3:-1.0197969675064087 4:-1.0194979906082153 5:-1.019808053970337 6:-1.0179483890533447 7:-1.0132648944854736 8:-1.0165092945098877 9:-1.020037055015564 10:0.0 11:-1.0199891328811646 12:-1.0200529098510742 13:-1.01955246925354 14:0.0 15:-1.0188305377960205 16:-0.9779441952705383 17:-0.9779441952705383 18:0.0 19:-1.0149693489074707 20:0.0 21:-1.0184574127197266 22:-0.9955825209617615 23:-0.9616793394088745 24:-1.0199174880981445 25:0.0 26:0.0 27:0.0 28:-1.0196040868759155 29:-1.0195280313491821 30:-1.0195817947387695 31:-1.019582748413086 32:-1.0195817947387695 33:-1.0195854902267456 34:0.0
0.03850358362069392 1:-0.9980922341346741 2:-0.9940475225448608 3:-1.0197969675064087 4:-1.0194979906082153 5:-0.9910541772842407 6:-1.0173848867416382 7:-1.016129970550537 8:-1.0137802362442017 9:-0.9963476657867432 10:0.0 11:-0.9718096256256104 12:-0.9950119256973267 13:-1.01955246925354 14:0.0 15:-1.0188305377960205 16:-0.9779441952705383 17:-0.9779441952705383 18:0.0 19:-1.0149693489074707 20:0.0 21:-0.9942134022712708 22:-0.9934963583946228 23:-0.9552873373031616 24:-0.9812151789665222 25:0.0 26:0.0 27:0.0 28:-1.0196040868759155 29:-1.0195280313491821 30:-1.0195817947387695 31:-1.019582748413086 32:-1.0195817947387695 33:-1.0195854902267456 34:0.0
0.03850358362069392 1:-1.0046073198318481 2:-1.0022248029708862 3:-1.0197969675064087 4:-1.0194979906082153 5:-0.9971045255661011 6:-1.0180611610412598 7:-1.0106900930404663 8:-1.019844889640808 9:-1.020037055015564 10:0.0 11:-1.0199891328811646 12:-1.0200529098510742 13:-1.01955246925354 14:0.0 15:-1.0188305377960205 16:-0.9779441952705383 17:-0.9779441952705383 18:0.0 19:-1.0149693489074707 20:0.0 21:-1.0172481536865234 22:-0.9943482875823975 23:-0.9832119345664978 24:-1.0199174880981445 25:0.0 26:0.0 27:0.0 28:-1.0196040868759155 29:-1.0195280313491821 30:-1.0195817947387695 31:-1.019582748413086 32:-1.0195817947387695 33:-1.0195854902267456 34:0.0
-0.03850358362069392 1:-1.0010511875152588 2:-1.0066851377487183 3:-1.0197969675064087 4:-1.0194979906082153 5:-1.019808053970337 6:-1.0176103115081787 7:-1.01750648021698 8:-1.0145080089569092 9:-0.9963476657867432 10:0.0 11:-0.9942933917045593 12:-0.9950119256973267 13:-1.01955246925354 14:0.0 15:-1.0188305377960205 16:-0.9779441952705383 17:-0.9779441952705383 18:0.0 19:-1.0149693489074707 20:0.0 21:-1.0120296478271484 22:-0.8620069026947021 23:-0.6919388175010681 24:-0.9812151789665222 25:0.0 26:0.0 27:0.0 28:-1.0196040868759155 29:-1.0195280313491821 30:-1.0195817947387695 31:-1.019582748413086 32:-1.0195817947387695 33:-1.0195854902267456 34:0.0
-0.03850358362069392 1:-1.0010511875152588 2:-1.0066851377487183 3:-0.9886859059333801 4:-1.0194979906082153 5:-1.019808053970337 6:-1.008029580116272 7:-1.0108659267425537 8:-1.0112890005111694 9:-0.9963476657867432 10:0.0 11:-0.9814455509185791 12:-0.9950119256973267 13:-1.01955246925354 14:0.0 15:-1.0188305377960205 16:-0.9779441952705383 17:-0.9779441952705383 18:0.0 19:-1.0149693489074707 20:0.0 21:-1.0173269510269165 22:-0.8767220973968506 23:-0.8606196045875549 24:-1.0199174880981445 25:0.0 26:0.0 27:0.0 28:-1.0196040868759155 29:-0.9486405849456787 30:-0.9542978405952454 31:-0.9547868371009827 32:-0.9555045366287231 33:-0.9541780948638916 34:0.0
-0.03850358362069392 1:-1.0046073198318481 2:-1.0090464353561401 3:-0.9886303544044495 4:-1.0194979906082153 5:-1.019808053970337 6:-1.0028448104858398 7:-1.0075973272323608 8:-0.9900237321853638 9:-0.9963476657867432 10:0.0 11:-0.9878695011138916 12:-0.9950119256973267 13:-1.01955246925354 14:0.0 15:-1.0188305377960205 16:-0.9779441952705383 17:-0.9779441952705383 18:0.0 19:-1.0149693489074707 20:0.0 21:-1.0136834383010864 22:-0.8723214268684387 23:-0.8659343123435974 24:-1.0199174880981445 25:0.0 26:0.0 27:0.0 28:-0.9535725712776184 29:-0.9486405849456787 30:-0.9542978405952454 31:-0.9547868371009827 32:-0.9555045366287231 33:-0.9541780948638916 34:0.0
-0.03850358362069392 1:-1.0056246519088745 2:-1.009658694267273 3:-1.0197969675064087 4:-1.0194979906082153 5:-1.019808053970337 6:-1.0167086124420166 7:-1.0175668001174927 8:-1.010481834411621 9:-0.9963476657867432 10:0.0 11:-0.9910814762115479 12:-0.9950119256973267 13:-1.01955246925354 14:0.0 15:-1.0188305377960205 16:-0.9779441952705383 17:-0.9779441952705383 18:0.0 19:-1.0149693489074707 20:0.0 21:-1.0194817781448364 22:-0.9667623043060303 23:-0.8441417217254639 24:-1.0199174880981445 25:0.0 26:0.0 27:0.0 28:-1.0196040868759155 29:-1.0195280313491821 30:-1.0195817947387695 31:-1.019582748413086 32:-1.0195817947387695 33:-1.0195854902267456 34:0.0
-0.03850358362069392 1:-1.0056246519088745 2:-1.009658694267273 3:-0.9935514330863953 4:-1.0194979906082153 5:-1.019808053970337 6:-1.0136653184890747 7:-1.0135992765426636 8:-1.0119577646255493 9:-0.9963476657867432 10:0.0 11:-0.9750216007232666 12:-0.9950119256973267 13:-1.01955246925354 14:0.0 15:-1.0188305377960205 16:-0.9779441952705383 17:-0.9779441952705383 18:0.0 19:-1.0149693489074707 20:0.0 21:-1.0092743635177612 22:-0.8561948537826538 23:-0.8442515730857849 24:-1.0199174880981445 25:0.0 26:0.0 27:0.0 28:-1.0196040868759155 29:-1.0195280313491821 30:-1.0195817947387695 31:-1.019582748413086 32:-1.0195817947387695 33:-1.0195854902267456 34:0.0
0.03850358362069392 1:-1.0010511875152588 2:-0.9992512464523315 3:-0.9897764921188354 4:-0.98155677318573 5:-0.9971045255661011 6:-0.8364791870117188 7:-1.010140299797058 8:-1.0014415979385376 9:-0.9963476657867432 10:0.0 11:-1.0007174015045166 12:-0.9950119256973267 13:-1.01955246925354 14:0.0 15:-0.8756890296936035 16:-0.9779441952705383 17:-0.9779441952705383 18:0.0 19:-1.0149693489074707 20:0.0 21:-0.96525639295578 22:-1.0160808563232422 23:-1.0152240991592407 24:-1.0199174880981445 25:0.0 26:0.0 27:0.0 28:-1.0196040868759155 29:-1.0195280313491821 30:-1.0195817947387695 31:-1.019582748413086 32:-1.0195817947387695 33:-1.0195854902267456 34:0.0
0.03850358362069392 1:-0.9943864941596985 2:-0.9888438582420349 3:-0.9793895483016968 4:-0.9579946398735046 5:-0.9880022406578064 6:-0.8504557013511658 7:-1.014326810836792 8:-0.9691183567047119 9:-0.9963476657867432 10:0.0 11:-0.9846575260162354 12:-0.9950119256973267 13:-0.9457976222038269 14:0.0 15:-0.8756890296936035 16:-0.9779441952705383 17:-0.9779441952705383 18:0.0 19:-1.0149693489074707 20:0.0 21:-0.9777227640151978 22:-1.0029282569885254 23:-1.0119367837905884 24:-0.9812151789665222 25:0.0 26:0.0 27:0.0 28:-1.0196040868759155 29:-1.0195280313491821 30:-1.0195817947387695 31:-1.019582748413086 32:-1.0195817947387695 33:-1.0195854902267456 34:0.0
0.03850358362069392 1:-0.9861347079277039 2:-0.9814974665641785 3:-0.9813004732131958 4:-0.9321779012680054 5:-0.9620854258537292 6:-1.0153560638427734 7:-0.9906231760978699 8:-0.9869006872177124 9:-1.020037055015564 10:0.0 11:-1.0199891328811646 12:-1.0200529098510742 13:-0.9457976222038269 14:0.0 15:-0.8756890296936035 16:-0.9779441952705383 17:-0.9779441952705383 18:0.0 19:-1.0149693489074707 20:0.0 21:-0.9957970976829529 22:-1.0172903537750244 23:-1.01521635055542 24:-0.9812151789665222 25:0.0 26:0.0 27:0.0 28:-0.9535725712776184 29:-0.9486405849456787 30:-1.0195817947387695 31:-1.019582748413086 32:-0.9555045366287231 33:-1.0195854902267456 34:0.0
0.03850358362069392 1:-0.992113471031189 2:-0.9870072603225708 3:-0.9858457446098328 4:-0.947307288646698 5:-0.9718231558799744 6:-1.0150178670883179 7:-1.0098483562469482 8:-0.936127781867981 9:-0.9963476657867432 10:0.0 11:-1.0007174015045166 12:-0.9950119256973267 13:-0.9457976222038269 14:0.0 15:-0.8756890296936035 16:-0.9779441952705383 17:-0.9779441952705383 18:0.0 19:-1.0149693489074707 20:0.0 21:-0.9622042775154114 22:-1.017043948173523 23:-1.0152058601379395 24:-0.9812151789665222 25:0.0 26:0.0 27:0.0 28:-0.9535725712776184 29:-0.9486405849456787 30:-1.0195817947387695 31:-1.019582748413086 32:-1.0195817947387695 33:-1.0195854902267456 34:0.0
0.03850358362069392 1:-0.9861347079277039 2:-0.979341447353363 3:-0.9466416835784912 4:-0.876025915145874 5:-0.9249663352966309 6:-1.0106220245361328 7:-0.875407338142395 8:-0.9480010867118835 9:-0.9726582765579224 10:0.0 11:-0.9878695011138916 12:-0.9950119256973267 13:-0.9457976222038269 14:0.0 15:-0.8756890296936035 16:-0.9779441952705383 17:-0.9779441952705383 18:0.0 19:-1.0149693489074707 20:0.0 21:-0.9813804030418396 22:-1.0046286582946777 23:-1.014075756072998 24:-0.9812151789665222 25:0.0 26:0.0 27:0.0 28:-0.9535725712776184 29:-0.9486405849456787 30:-1.0195817947387695 31:-1.019582748413086 32:-1.0195817947387695 33:-1.0195854902267456 34:0.0
-0.03850358362069392 1:-1.0010511875152588 2:-0.9966493844985962 3:-0.9917857050895691 4:-0.9685660004615784 5:-0.9844058752059937 6:-1.0179483890533447 7:-1.013421654701233 8:-1.0107992887496948 9:-1.020037055015564 10:0.0 11:-1.0199891328811646 12:-1.0200529098510742 13:-0.9457976222038269 14:0.0 15:-0.8756890296936035 16:-0.9779441952705383 17:-0.9779441952705383 18:0.0 19:-1.0149693489074707 20:0.0 21:-0.9848722815513611 22:-1.0185413360595703 23:-1.0152543783187866 24:-1.0199174880981445 25:0.0 26:0.0 27:0.0 28:-0.9535725712776184 29:-1.0195280313491821 30:-1.0195817947387695 31:-1.019582748413086 32:-1.0195817947387695 33:-1.0195854902267456 34:0.0
0.03850358362069392 1:-0.9943864941596985 2:-0.9860054850578308 3:-1.0197969675064087 4:-1.0194979906082153 5:-0.9470435380935669 6:-1.0135525465011597 7:-1.0086265802383423 8:-1.0071696043014526 9:-0.9963476657867432 10:0.0 11:-0.9750216007232666 12:-0.9950119256973267 13:-1.01955246925354 14:0.0 15:-1.0188305377960205 16:-0.9779441952705383 17:-0.9779441952705383 18:0.0 19:-1.0149693489074707 20:0.0 21:-1.00501549243927 22:-0.8574416637420654 23:-0.8448441624641418 24:-0.9812151789665222 25:0.0 26:0.0 27:0.0 28:-1.0196040868759155 29:-1.0195280313491821 30:-1.0195817947387695 31:-1.019582748413086 32:-1.0195817947387695 33:-1.0195854902267456 34:0.0
-0.03850358362069392 1:-0.9894250631332397 2:-0.9849410653114319 3:-1.0197969675064087 4:-1.0194979906082153 5:-0.9718359708786011 6:-0.9537015557289124 7:-0.9924256205558777 8:-0.8597358465194702 9:-1.020037055015564 10:0.0 11:-1.0199891328811646 12:-1.0200529098510742 13:-0.9457976222038269 14:0.0 15:-1.0188305377960205 16:-0.9779441952705383 17:-0.9779441952705383 18:0.0 19:-1.0149693489074707 20:0.0 21:-0.964704155921936 22:-1.0181835889816284 23:-1.0152528285980225 24:-0.9812151789665222 25:0.0 26:0.0 27:0.0 28:-1.0196040868759155 29:-1.0195280313491821 30:-1.0195817947387695 31:-1.019582748413086 32:-1.0195817947387695 33:-1.0195854902267456 34:0.0
0.03850358362069392 1:-1.0010511875152588 2:-1.0066851377487183 3:-1.0197969675064087 4:-1.0194979906082153 5:-1.019808053970337 6:-1.0149052143096924 7:-1.0086661577224731 8:-1.0087262392044067 9:-1.020037055015564 10:0.0 11:-1.0199891328811646 12:-1.0200529098510742 13:-1.01955246925354 14:0.0 15:-1.0188305377960205 16:-0.9779441952705383 17:-0.9779441952705383 18:0.0 19:-1.0149693489074707 20:0.0 21:-1.013712763786316 22:-0.876267671585083 23:-0.9334513545036316 24:-0.9812151789665222 25:0.0 26:0.0 27:0.0 28:-1.0196040868759155 29:-1.0195280313491821 30:-1.0195817947387695 31:-1.019582748413086 32:-1.0195817947387695 33:-1.0195854902267456 34:0.0
-0.03850358362069392 1:-1.0046073198318481 2:-1.0022248029708862 3:-1.0197969675064087 4:-1.0194979906082153 5:-0.9971045255661011 6:-0.9551668167114258 7:-0.980642557144165 8:-0.968315601348877 9:-0.9963476657867432 10:0.0 11:-1.0103532075881958 12:-0.9950119256973267 13:-1.01955246925354 14:0.0 15:-0.8756890296936035 16:-0.9779441952705383 17:-0.9779441952705383 18:0.0 19:-1.0149693489074707 20:0.0 21:-0.9803419709205627 22:-1.0124331712722778 23:-1.0142699480056763 24:-0.9812151789665222 25:0.0 26:0.0 27:0.0 28:-1.0196040868759155 29:-1.0195280313491821 30:-1.0195817947387695 31:-1.019582748413086 32:-1.0195817947387695 33:-1.0195854902267456 34:0.0
0.03850358362069392 1:-1.0056246519088745 2:-1.0030357837677002 3:-1.0197969675064087 4:-1.0194979906082153 5:-0.9971045255661011 6:-1.0161449909210205 7:-1.0124069452285767 8:-1.0172028541564941 9:-0.9963476657867432 10:0.0 11:-1.0039293766021729 12:-0.9950119256973267 13:-1.01955246925354 14:0.0 15:-1.0188305377960205 16:-0.9779441952705383 17:-0.9779441952705383 18:0.0 19:-1.0149693489074707 20:0.0 21:-1.0128614902496338 22:-0.9723857641220093 23:-0.9415645599365234 24:-1.0199174880981445 25:0.0 26:0.0 27:0.0 28:-1.0196040868759155 29:-1.0195280313491821 30:-0.9542978405952454 31:-1.019582748413086 32:-0.9555045366287231 33:-0.9541780948638916 34:0.0
