SVM-light Version V6.01
0 # kernel type
3 # kernel parameter -d
1.0 # kernel parameter -g
1.0 # kernel parameter -s
0.0 # kernel parameter -r
empty# kernel parameter -u
34 # highest feature index
1700 # number of training documents
1688 # number of support vectors plus 1
-7.055563300174549 # threshold b, each following line is a SV (starting with alpha*y)
-0.03848975487844385 1:-0.9947086572647095 2:-0.9866790771484375 3:-1.019810676574707 4:-1.019538164138794 5:-0.952171266078949 6:-1.0174394845962524 7:-1.0160561800003052 8:-0.9864964485168457 9:-0.9961655735969543 10:0.0 11:-1.0103380680084229 12:-0.9948815107345581 13:-0.9505447149276733 14:0.0 15:-1.018895149230957 16:-0.9954487085342407 17:-0.9970505833625793 18:0.0 19:-1.0154060125350952 20:0.0 21:-1.0031720399856567 22:-1.0156431198120117 23:-1.0148571729660034 24:-0.9806845784187317 25:0.0 26:0.0 27:0.0 28:-1.0196329355239868 29:-1.0195341110229492 30:-1.0196261405944824 31:-1.0196328163146973 32:-1.0196453332901 33:-1.0196298360824585 34:0.0
0.03848975487844385 1:-0.999902069568634 2:-1.0017036199569702 3:-0.9867329001426697 4:-0.9998636245727539 5:-1.0103932619094849 6:-1.0158534049987793 7:-0.9822962880134583 8:-0.9406289458274841 9:-0.9961655735969543 10:0.0 11:-1.000687837600708 12:-0.9948815107345581 13:-1.0196014642715454 14:0.0 15:-1.018895149230957 16:-0.9954487085342407 17:-0.9970505833625793 18:0.0 19:-1.0154060125350952 20:0.0 21:-0.9912351369857788 22:-1.0055989027023315 23:-1.0142260789871216 24:-0.9806845784187317 25:0.0 26:0.0 27:0.0 28:-0.956371009349823 29:-0.9496466517448425 30:-0.9555460810661316 31:-0.9573931097984314 32:-0.9597697854042053 33:-0.9556678533554077 34:0.0
-0.03848975487844385 1:-0.999902069568634 2:-1.0017036199569702 3:-0.9865838885307312 4:-0.9997838735580444 5:-1.0103932619094849 6:-0.9594864845275879 7:-1.0143650770187378 8:-1.011527419090271 9:-0.9484282732009888 10:0.0 11:-1.0071213245391846 12:-0.9697133302688599 13:-1.0196014642715454 14:0.0 15:-1.018895149230957 16:-0.9954487085342407 17:-0.9970505833625793 18:0.0 19:-1.0154060125350952 20:0.0 21:-0.9995900392532349 22:-1.0015380382537842 23:-1.011478304862976 24:-0.9806845784187317 25:0.0 26:0.0 27:0.0 28:-0.8931090831756592 29:-0.8797592520713806 30:-0.9555460810661316 31:-0.9573931097984314 32:-0.9597697854042053 33:-0.9556678533554077 34:0.0
-0.03848975487844385 1:-1.0012898445129395 2:-1.0028513669967651 3:-0.9905195236206055 4:-1.0019148588180542 5:-1.0103932619094849 6:-0.9270328283309937 7:-0.93084716796875 8:-0.9055256843566895 9:-0.9961655735969543 10:0.0 11:-1.0039045810699463 12:-0.9948815107345581 13:-1.0196014642715454 14:0.0 15:-0.8819685578346252 16:-0.9954487085342407 17:-0.9970505833625793 18:0.0 19:-1.0154060125350952 20:0.0 21:-0.9610292911529541 22:-1.003804326057434 23:-1.008603811264038 24:-0.9806845784187317 25:0.0 26:0.0 27:0.0 28:-0.956371009349823 29:-0.9496466517448425 30:-0.9555460810661316 31:-0.9573931097984314 32:-0.9597697854042053 33:-0.9556678533554077 34:0.0
-0.03848975487844385 1:-0.9983679056167603 2:-0.9945623278617859 3:-0.9876513481140137 4:-0.9594504833221436 5:-0.9814738035202026 6:-1.0179275274276733 7:-1.0099878311157227 8:-1.0122730731964111 9:-0.9961655735969543 10:0.0 11:-1.0039045810699463 12:-0.9948815107345581 13:-0.9505447149276733 14:0.0 15:-1.018895149230957 16:-0.9954487085342407 17:-0.9970505833625793 18:0.0 19:-1.0154060125350952 20:0.0 21:-1.0032355785369873 22:-1.0110385417938232 23:-1.0145995616912842 24:-1.0199120044708252 25:0.0 26:0.0 27:0.0 28:-0.956371009349823 29:-0.8797592520713806 30:-0.8914660811424255 31:-0.9573931097984314 32:-0.9597697854042053 33:-0.8917058110237122 34:0.0
-0.03848975487844385 1:-0.9966529607772827 2:-1.0033730268478394 3:-0.9768966436386108 4:-1.019538164138794 5:-1.0198267698287964 6:-1.0004806518554688 7:-0.9586393237113953 8:-0.9596752524375916 9:-0.9961655735969543 10:0.0 11:-1.0039045810699463 12:-0.9948815107345581 13:-1.0196014642715454 14:0.0 15:-1.018895149230957 16:-0.9954487085342407 17:-0.9970505833625793 18:0.0 19:-1.0154060125350952 20:0.0 21:-1.0101765394210815 22:-0.8165397644042969 23:-0.9422282576560974 24:-1.0199120044708252 25:0.0 26:0.0 27:0.0 28:-0.956371009349823 29:-0.9496466517448425 30:-0.9555460810661316 31:-0.9573931097984314 32:-0.9597697854042053 33:-0.9556678533554077 34:0.0
-0.03848975487844385 1:-1.0012898445129395 2:-1.0069503784179688 3:-0.9864056706428528 4:-1.019538164138794 5:-1.0198267698287964 6:-0.6818000674247742 7:-0.9889970421791077 8:-1.000817060470581 9:-0.972296953201294 10:0.0 11:-1.0071213245391846 12:-0.9948815107345581 13:-1.0196014642715454 14:0.0 15:-1.018895149230957 16:-0.9954487085342407 17:-0.9970505833625793 18:0.0 19:-1.0154060125350952 20:0.0 21:-1.0018432140350342 22:-0.9962812066078186 23:-1.0023962259292603 24:-0.9806845784187317 25:0.0 26:0.0 27:0.0 28:-0.8931090831756592 29:-0.9496466517448425 30:-0.9555460810661316 31:-0.9573931097984314 32:-0.9597697854042053 33:-0.9556678533554077 34:0.0
0.03848975487844385 1:-0.9924641251564026 2:-0.9841386675834656 3:-1.019810676574707 4:-1.019538164138794 5:-0.9321516156196594 6:-1.017317533493042 7:-1.0165724754333496 8:-1.0094308853149414 9:-0.9961655735969543 10:0.0 11:-0.9910376667976379 12:-0.9948815107345581 13:-0.9505447149276733 14:0.0 15:-1.018895149230957 16:-0.9954487085342407 17:-0.9970505833625793 18:0.0 19:-1.0154060125350952 20:0.0 21:-1.0122315883636475 22:-1.0127010345458984 23:-1.0135754346847534 24:-0.9806845784187317 25:0.0 26:0.0 27:0.0 28:-1.0196329355239868 29:-1.0195341110229492 30:-1.0196261405944824 31:-1.0196328163146973 32:-1.0196453332901 33:-1.0196298360824585 34:0.0
0.03848975487844385 1:-0.9924641251564026 2:-0.982660174369812 3:-1.019810676574707 4:-1.019538164138794 5:-0.9074988961219788 6:-0.9530201554298401 7:-0.9942774772644043 8:-1.0081673860549927 9:-0.9961655735969543 10:0.0 11:-0.9813874363899231 12:-0.9948815107345581 13:-0.9505447149276733 14:0.0 15:-1.018895149230957 16:-0.9954487085342407 17:-0.9970505833625793 18:0.0 19:-1.0154060125350952 20:0.0 21:-1.0053191184997559 22:-0.9646820425987244 23:-0.8255020976066589 24:-0.9806845784187317 25:0.0 26:0.0 27:0.0 28:-1.0196329355239868 29:-1.0195341110229492 30:-1.0196261405944824 31:-1.0196328163146973 32:-1.0196453332901 33:-1.0196298360824585 34:0.0
0.03848975487844385 1:-0.9865603446960449 2:-0.9822600483894348 3:-1.019810676574707 4:-1.019538164138794 5:-0.9207956194877625 6:-1.015243411064148 7:-0.9904283881187439 8:-1.0116913318634033 9:-0.9961655735969543 10:0.0 11:-0.9910376667976379 12:-0.9948815107345581 13:-0.9505447149276733 14:0.0 15:-1.018895149230957 16:-0.9954487085342407 17:-0.9970505833625793 18:0.0 19:-1.0154060125350952 20:0.0 21:-1.0171730518341064 22:-0.984197199344635 23:-0.9615758657455444 24:-0.9806845784187317 25:0.0 26:0.0 27:0.0 28:-1.0196329355239868 29:-1.0195341110229492 30:-1.0196261405944824 31:-1.0196328163146973 32:-1.0196453332901 33:-1.0196298360824585 34:0.0
0.03848975487844385 1:-0.9865603446960449 2:-0.9801466464996338 3:-1.019810676574707 4:-1.019538164138794 5:-0.9348523616790771 6:-0.9891340136528015 7:-1.0184602737426758 8:-1.0146989822387695 9:-0.9961655735969543 10:0.0 11:-0.9942543506622314 12:-0.9948815107345581 13:-0.9505447149276733 14:0.0 15:-1.018895149230957 16:-0.9954487085342407 17:-0.9970505833625793 18:0.0 19:-1.0154060125350952 20:0.0 21:-0.9670547842979431 22:-1.0053919553756714 23:-1.0082306861877441 24:-0.9806845784187317 25:0.0 26:0.0 27:0.0 28:-1.0196329355239868 29:-1.0195341110229492 30:-1.0196261405944824 31:-1.0196328163146973 32:-1.0196453332901 33:-1.0196298360824585 34:0.0
0.03848975487844385 1:-0.9924641251564026 2:-0.9850891828536987 3:-1.019810676574707 4:-1.019538164138794 5:-0.9237623810768127 6:-1.017683506011963 7:-1.014449119567871 8:-0.9926087260246277 9:-0.9961655735969543 10:0.0 11:-0.9878209233283997 12:-0.9948815107345581 13:-0.9505447149276733 14:0.0 15:-0.8819685578346252 16:-0.9954487085342407 17:-0.9970505833625793 18:0.0 19:-1.0154060125350952 20:0.0 21:-1.009694218635559 22:-1.0061938762664795 23:-0.9940870404243469 24:-0.9806845784187317 25:0.0 26:0.0 27:0.0 28:-1.0196329355239868 29:-1.0195341110229492 30:-1.0196261405944824 31:-1.0196328163146973 32:-1.0196453332901 33:-1.0196298360824585 34:0.0
-0.03848975487844385 1:-1.0025568008422852 2:-1.003864049911499 3:-0.9940168261528015 4:-1.0038518905639648 5:-1.0103932619094849 6:-1.0174394845962524 7:-1.0170061588287354 8:-1.0195485353469849 9:-0.9961655735969543 10:0.0 11:-0.9749539494514465 12:-0.9948815107345581 13:-1.0196014642715454 14:0.0 15:-1.018895149230957 16:-0.9954487085342407 17:-0.9970505833625793 18:0.0 19:-1.0154060125350952 20:0.0 21:-1.0163320302963257 22:-0.940915584564209 23:-0.882331907749176 24:-1.0199120044708252 25:0.0 26:0.0 27:0.0 28:-1.0196329355239868 29:-1.0195341110229492 30:-1.0196261405944824 31:-1.0196328163146973 32:-1.0196453332901 33:-1.0196298360824585 34:0.0
0.03848975487844385 1:-0.9983679056167603 2:-0.9945623278617859 3:-0.9764874577522278 4:-0.9612167477607727 5:-0.9925445914268494 6:0.12161160260438919 7:-0.9982401728630066 8:-0.972249448299408 9:-1.0200343132019043 10:0.0 11:-1.0199882984161377 12:-1.0200495719909668 13:-1.0196014642715454 14:0.0 15:-0.8819685578346252 16:-0.9954487085342407 17:-0.9970505833625793 18:0.0 19:-1.0154060125350952 20:0.0 21:-0.9977798461914062 22:-0.9949358105659485 23:-1.005190134048462 24:-0.9806845784187317 25:0.0 26:0.0 27:0.0 28:-0.956371009349823 29:-1.0195341110229492 30:-1.0196261405944824 31:-0.9573931097984314 32:-1.0196453332901 33:-1.0196298360824585 34:0.0
-0.03848975487844385 1:-0.999902069568634 2:-0.9984630346298218 3:-0.9898350238800049 4:-0.9827451705932617 5:-0.9982852935791016 6:-0.27954521775245667 7:-0.9825159311294556 8:-0.9674106240272522 9:-0.9961655735969543 10:0.0 11:-1.000687837600708 12:-0.9948815107345581 13:-1.0196014642715454 14:0.0 15:-1.018895149230957 16:-0.9954487085342407 17:-0.9970505833625793 18:0.0 19:-1.0154060125350952 20:0.0 21:-0.993151068687439 22:-1.0112296342849731 23:-1.0140489339828491 24:-0.9806845784187317 25:0.0 26:0.0 27:0.0 28:-0.956371009349823 29:-0.9496466517448425 30:-1.0196261405944824 31:-0.9573931097984314 32:-0.9597697854042053 33:-1.0196298360824585 34:0.0
-0.03848975487844385 1:-1.0048012733459473 2:-1.005569577217102 3:-1.019810676574707 4:-1.019538164138794 5:-1.0103932619094849 6:-0.7168158888816833 7:-0.9947394728660583 8:-0.9703316688537598 9:-0.9961655735969543 10:0.0 11:-1.0103380680084229 12:-0.9948815107345581 13:-1.0196014642715454 14:0.0 15:-1.018895149230957 16:-0.9954487085342407 17:-0.9970505833625793 18:0.0 19:-1.0154060125350952 20:0.0 21:-0.976739227771759 22:-1.0127140283584595 23:-1.0146666765213013 24:-0.9806845784187317 25:0.0 26:0.0 27:0.0 28:-1.0196329355239868 29:-1.0195341110229492 30:-1.0196261405944824 31:-0.9573931097984314 32:-0.9597697854042053 33:-1.0196298360824585 34:0.0
-0.03848975487844385 1:-0.9983679056167603 2:-1.000391960144043 3:-0.9922618269920349 4:-1.0028746128082275 5:-1.0103932619094849 6:-0.685826301574707 7:-1.0037273168563843 8:-0.9916212558746338 9:-0.972296953201294 10:0.0 11:-0.9749539494514465 12:-0.9948815107345581 13:-1.0196014642715454 14:0.0 15:-1.018895149230957 16:-0.9954487085342407 17:-0.9970505833625793 18:0.0 19:-1.0154060125350952 20:0.0 21:-1.002116084098816 22:-0.9802592992782593 23:-1.0087710618972778 24:-0.9806845784187317 25:0.0 26:0.0 27:0.0 28:-1.0196329355239868 29:-0.9496466517448425 30:-1.0196261405944824 31:-1.0196328163146973 32:-1.0196453332901 33:-1.0196298360824585 34:0.0
-0.03848975487844385 1:-0.9924641251564026 2:-0.9996632933616638 3:-0.9957636594772339 4:-1.019538164138794 5:-1.0198267698287964 6:-0.7542718648910522 7:-1.0049811601638794 8:-0.9930551052093506 9:-0.9961655735969543 10:0.0 11:-0.9878209233283997 12:-0.9948815107345581 13:-1.0196014642715454 14:0.0 15:-0.8819685578346252 16:-0.9954487085342407 17:-0.9970505833625793 18:0.0 19:-1.0154060125350952 20:0.0 21:-1.0045456886291504 22:-0.9799315929412842 23:-0.9929662346839905 24:-0.9806845784187317 25:0.0 26:0.0 27:0.0 28:-1.0196329355239868 29:-1.0195341110229492 30:-1.0196261405944824 31:-1.0196328163146973 32:-1.0196453332901 33:-1.0196298360824585 34:0.0
-0.03848975487844385 1:-0.9983679056167603 2:-0.9971128106117249 3:-0.9742957353591919 4:-0.9565403461456299 5:-0.9908003807067871 6:-0.8066125512123108 7:-1.0169233083724976 8:-1.015408992767334 9:-0.9961655735969543 10:0.0 11:-1.0071213245391846 12:-0.9948815107345581 13:-1.0196014642715454 14:0.0 15:-1.018895149230957 16:-0.9954487085342407 17:-0.9970505833625793 18:0.0 19:-1.0154060125350952 20:0.0 21:-0.969435453414917 22:-1.0152984857559204 23:-1.0149240493774414 24:-0.9806845784187317 25:0.0 26:0.0 27:0.0 28:-1.0196329355239868 29:-1.0195341110229492 30:-1.0196261405944824 31:-1.0196328163146973 32:-1.0196453332901 33:-1.0196298360824585 34:0.0
0.03848975487844385 1:-0.999902069568634 2:-1.0017036199569702 3:-0.9875880479812622 4:-1.000322699546814 5:-1.0103932619094849 6:-1.0156093835830688 7:-1.013421893119812 8:-1.001684546470642 9:-1.0200343132019043 10:0.0 11:-1.0199882984161377 12:-1.0200495719909668 13:-1.0196014642715454 14:0.0 15:-1.018895149230957 16:-0.9954487085342407 17:-0.9970505833625793 18:0.0 19:-1.0154060125350952 20:0.0 21:-0.994992196559906 22:-0.2896987199783325 23:0.019764263182878494 24:-1.0199120044708252 25:0.0 26:0.0 27:0.0 28:-0.956371009349823 29:-0.9496466517448425 30:-1.0196261405944824 31:-1.0196328163146973 32:-0.9597697854042053 33:-1.0196298360824585 34:0.0
0.03848975487844385 1:-1.0012898445129395 2:-1.0028513669967651 3:-0.9890622496604919 4:-1.00111985206604 5:-1.0103932619094849 6:-1.017683506011963 7:-1.0153318643569946 8:-1.0103931427001953 9:-0.9961655735969543 10:0.0 11:-0.9813874363899231 12:-0.9948815107345581 13:-1.0196014642715454 14:0.0 15:-1.018895149230957 16:-0.9954487085342407 17:-0.9970505833625793 18:0.0 19:-1.0154060125350952 20:0.0 21:-0.9880480766296387 22:-0.2884756624698639 23:0.022282738238573074 24:-0.9806845784187317 25:0.0 26:0.0 27:0.0 28:-0.956371009349823 29:-1.0195341110229492 30:-1.0196261405944824 31:-0.9573931097984314 32:-1.0196453332901 33:-1.0196298360824585 34:0.0
0.03848975487844385 1:-0.9983679056167603 2:-1.000391960144043 3:-0.9787708520889282 4:-0.9956996440887451 5:-1.0103932619094849 6:-1.0118272304534912 7:-1.0043387413024902 8:-1.0044625997543335 9:-1.0200343132019043 10:0.0 11:-1.0199882984161377 12:-1.0200495719909668 13:-1.0196014642715454 14:0.0 15:-1.018895149230957 16:-0.9954487085342407 17:-0.9970505833625793 18:0.0 19:-1.0154060125350952 20:0.0 21:-0.9977221488952637 22:-0.36489906907081604 23:-0.09496188163757324 24:-0.9806845784187317 25:0.0 26:0.0 27:0.0 28:-0.956371009349823 29:-1.0195341110229492 30:-0.9555460810661316 31:-0.9573931097984314 32:-0.9597697854042053 33:-0.9556678533554077 34:0.0
0.03848975487844385 1:-0.9947086572647095 2:-0.9925219416618347 3:-0.9692284464836121 4:-0.9280603528022766 5:-0.9717057943344116 6:-1.0026767253875732 7:-0.9484225511550903 8:-0.9711541533470154 9:-0.9961655735969543 10:0.0 11:-1.000687837600708 12:-0.9948815107345581 13:-1.0196014642715454 14:0.0 15:-1.018895149230957 16:-0.9954487085342407 17:-0.9970505833625793 18:0.0 19:-1.0154060125350952 20:0.0 21:-1.0078449249267578 22:-0.613306999206543 23:0.23765604197978973 24:-0.9806845784187317 25:0.0 26:0.0 27:0.0 28:-1.0196329355239868 29:-1.0195341110229492 30:-1.0196261405944824 31:-1.0196328163146973 32:-1.0196453332901 33:-1.0196298360824585 34:0.0
0.03848975487844385 1:-1.0012898445129395 2:-0.9996632933616638 3:-0.9800840616226196 4:-0.9735636711120605 5:-0.9982852935791016 6:-1.0163414478302002 7:-1.0097554922103882 8:-1.0162642002105713 9:-0.9961655735969543 10:0.0 11:-0.9653037786483765 12:-0.9948815107345581 13:-1.0196014642715454 14:0.0 15:-1.018895149230957 16:-0.9954487085342407 17:-0.9970505833625793 18:0.0 19:-1.0154060125350952 20:0.0 21:-1.008180856704712 22:-0.7698029279708862 23:-0.08641408383846283 24:-0.9806845784187317 25:0.0 26:0.0 27:0.0 28:-0.956371009349823 29:-0.9496466517448425 30:-0.9555460810661316 31:-0.9573931097984314 32:-0.9597697854042053 33:-0.9556678533554077 34:0.0
-0.03848975487844385 1:-0.999902069568634 2:-1.0017036199569702 3:-0.987240731716156 4:-1.0001360177993774 5:-1.0103932619094849 6:-1.017683506011963 7:-0.9965702891349792 8:-1.0081255435943604 9:-1.0200343132019043 10:0.0 11:-1.0199882984161377 12:-1.0200495719909668 13:-0.9505447149276733 14:0.0 15:-1.018895149230957 16:-0.9954487085342407 17:-0.9970505833625793 18:0.0 19:-1.0154060125350952 20:0.0 21:-0.9914072155952454 22:-0.2891474962234497 23:0.021509498357772827 24:-1.0199120044708252 25:0.0 26:0.0 27:0.0 28:-0.956371009349823 29:-1.0195341110229492 30:-1.0196261405944824 31:-1.0196328163146973 32:-1.0196453332901 33:-1.0196298360824585 34:0.0
-0.03848975487844385 1:-1.0067455768585205 2:-1.0104020833969116 3:-1.019810676574707 4:-1.019538164138794 5:-1.0198267698287964 6:-1.0178054571151733 7:-1.0171241760253906 8:-1.0113805532455444 9:-1.0200343132019043 10:0.0 11:-1.0199882984161377 12:-1.0200495719909668 13:-1.0196014642715454 14:0.0 15:-1.018895149230957 16:-0.9954487085342407 17:-0.9970505833625793 18:0.0 19:-1.0154060125350952 20:0.0 21:-1.0190709829330444 22:-0.9881782531738281 23:-0.9817248582839966 24:-1.0199120044708252 25:0.0 26:0.0 27:0.0 28:-1.0196329355239868 29:-1.0195341110229492 30:-1.0196261405944824 31:-1.0196328163146973 32:-1.0196453332901 33:-1.0196298360824585 34:0.0
-0.03848975487844385 1:-1.0025568008422852 2:-1.003864049911499 3:-0.987240731716156 4:-1.0001360177993774 5:-1.0103932619094849 6:-1.012193202972412 7:-1.0099639892578125 8:-0.9831662178039551 9:-1.0200343132019043 10:0.0 11:-1.0199882984161377 12:-1.0200495719909668 13:-1.0196014642715454 14:0.0 15:-1.018895149230957 16:-0.9954487085342407 17:-0.9970505833625793 18:0.0 19:-1.0154060125350952 20:0.0 21:-1.0035368204116821 22:-0.29698479175567627 23:0.00929650291800499 24:-1.0199120044708252 25:0.0 26:0.0 27:0.0 28:-0.956371009349823 29:-0.9496466517448425 30:-1.0196261405944824 31:-1.0196328163146973 32:-0.9597697854042053 33:-1.0196298360824585 34:0.0
-0.03848975487844385 1:-0.9983679056167603 2:-0.9945623278617859 3:-0.9743452072143555 4:-0.9501670598983765 5:-0.986236572265625 6:-1.012193202972412 7:-1.0052859783172607 8:-1.0099502801895142 9:-0.9961655735969543 10:0.0 11:-0.9878209233283997 12:-0.9948815107345581 13:-0.9505447149276733 14:0.0 15:-1.018895149230957 16:-0.9954487085342407 17:-0.9970505833625793 18:0.0 19:-1.0154060125350952 20:0.0 21:-1.0044697523117065 22:-0.7657934427261353 23:-0.07929878681898117 24:-1.0199120044708252 25:0.0 26:0.0 27:0.0 28:-0.956371009349823 29:-1.0195341110229492 30:-0.9555460810661316 31:-0.9573931097984314 32:-0.9597697854042053 33:-0.9556678533554077 34:0.0
-0.019763960641896006 1:-0.999902069568634 2:-1.0017036199569702 3:-1.019810676574707 4:-1.019538164138794 5:-1.0103932619094849 6:-1.0132912397384644 7:-1.0113033056259155 8:-1.003937005996704 9:-0.9961655735969543 10:0.0 11:-0.9653037786483765 12:-0.9948815107345581 13:-1.0196014642715454 14:0.0 15:-1.018895149230957 16:-0.9954487085342407 17:-0.9970505833625793 18:0.0 19:-1.0154060125350952 20:0.0 21:-1.013298749923706 22:-0.7663509845733643 23:-0.07935363799333572 24:-0.9806845784187317 25:0.0 26:0.0 27:0.0 28:-1.0196329355239868 29:-1.0195341110229492 30:-0.9555460810661316 31:-0.9573931097984314 32:-1.0196453332901 33:-0.9556678533554077 34:0.0
0.03848975487844385 1:-0.9983679056167603 2:-1.000391960144043 3:-0.987083911895752 4:-1.000051736831665 5:-1.0103932619094849 6:-0.2067074328660965 7:-1.0021663904190063 8:-0.9915479421615601 9:-0.9961655735969543 10:0.0 11:-0.9942543506622314 12:-0.9948815107345581 13:-1.0196014642715454 14:0.0 15:-1.018895149230957 16:-0.9954487085342407 17:-0.9970505833625793 18:0.0 19:-1.0154060125350952 20:0.0 21:-0.9998578429222107 22:-1.00053870677948 23:-1.013274073600769 24:-0.9806845784187317 25:0.0 26:0.0 27:0.0 28:-0.956371009349823 29:-0.9496466517448425 30:-0.9555460810661316 31:-0.9573931097984314 32:-1.0196453332901 33:-0.9556678533554077 34:0.0
0.03848975487844385 1:-1.0012898445129395 2:-0.9996632933616638 3:-0.9871683120727539 4:-0.980125367641449 5:-0.9982852935791016 6:-0.5813888907432556 7:-1.00272536277771 8:-0.9910592436790466 9:-0.9961655735969543 10:0.0 11:-0.9749539494514465 12:-0.9948815107345581 13:-1.0196014642715454 14:0.0 15:-1.018895149230957 16:-0.9954487085342407 17:-0.9970505833625793 18:0.0 19:-1.0154060125350952 20:0.0 21:-0.9920508861541748 22:-1.008676290512085 23:-1.0143897533416748 24:-0.9806845784187317 25:0.0 26:0.0 27:0.0 28:-0.956371009349823 29:-0.9496466517448425 30:-0.9555460810661316 31:-0.9573931097984314 32:-0.9597697854042053 33:-0.9556678533554077 34:0.0
0.03848975487844385 1:-0.999902069568634 2:-1.005941390991211 3:-0.9888933300971985 4:-1.019538164138794 5:-1.0198267698287964 6:-0.6814340353012085 7:-1.0179771184921265 8:-0.9955260157585144 9:-0.9961655735969543 10:0.0 11:-1.0071213245391846 12:-0.9948815107345581 13:-1.0196014642715454 14:0.0 15:-1.018895149230957 16:-0.9954487085342407 17:-0.9970505833625793 18:0.0 19:-1.0154060125350952 20:0.0 21:-0.9930059313774109 22:-1.014474630355835 23:-1.0146948099136353 24:-1.0199120044708252 25:0.0 26:0.0 27:0.0 28:-0.956371009349823 29:-0.9496466517448425 30:-0.9555460810661316 31:-0.9573931097984314 32:-0.9597697854042053 33:-0.9556678533554077 34:0.0
0.03848975487844385 1:-0.9947086572647095 2:-0.9913742542266846 3:-0.959886372089386 4:-0.9470714330673218 5:-0.9925445914268494 6:-0.6633771061897278 7:-1.0025001764297485 8:-0.9734344482421875 9:-0.972296953201294 10:0.0 11:-0.9846041798591614 12:-0.9948815107345581 13:-1.0196014642715454 14:0.0 15:-1.018895149230957 16:-0.9954487085342407 17:-0.9970505833625793 18:0.0 19:-1.0154060125350952 20:0.0 21:-0.9783172607421875 22:-0.9847556352615356 23:-1.0093629360198975 24:-0.9806845784187317 25:0.0 26:0.0 27:0.0 28:-0.956371009349823 29:-0.9496466517448425 30:-0.9555460810661316 31:-0.9573931097984314 32:-0.9597697854042053 33:-0.9556678533554077 34:0.0
0.03848975487844385 1:-0.9898094534873962 2:-0.9856356978416443 3:-0.9569337964057922 4:-0.9173358082771301 5:-0.9717057943344116 6:-0.5286821126937866 7:-1.0019184350967407 8:-0.9936991333961487 9:-0.9961655735969543 10:0.0 11:-1.0135548114776611 12:-0.9948815107345581 13:-0.9505447149276733 14:0.0 15:-1.018895149230957 16:-0.9954487085342407 17:-0.9970505833625793 18:0.0 19:-1.0154060125350952 20:0.0 21:-0.9702376127243042 22:-0.9397559762001038 23:-1.0015416145324707 24:-0.9806845784187317 25:0.0 26:0.0 27:0.0 28:-1.0196329355239868 29:-0.9496466517448425 30:-0.9555460810661316 31:-0.9573931097984314 32:-0.9597697854042053 33:-0.9556678533554077 34:0.0
-0.03848975487844385 1:-1.0037221908569336 2:-1.0085899829864502 3:-0.9964901804924011 4:-1.019538164138794 5:-1.0198267698287964 6:-0.7791611552238464 7:-1.0165575742721558 8:-1.0135042667388916 9:-1.0200343132019043 10:0.0 11:-1.0199882984161377 12:-1.0200495719909668 13:-1.0196014642715454 14:0.0 15:-1.018895149230957 16:-0.9954487085342407 17:-0.9970505833625793 18:0.0 19:-1.0154060125350952 20:0.0 21:-1.0033973455429077 22:-1.0135120153427124 23:-1.0146361589431763 24:-1.0199120044708252 25:0.0 26:0.0 27:0.0 28:-0.956371009349823 29:-0.9496466517448425 30:-1.0196261405944824 31:-0.9573931097984314 32:-0.9597697854042053 33:-1.0196298360824585 34:0.0
0.03848975487844385 1:-1.0058058500289917 2:-1.009865164756775 3:-0.9928300380706787 4:-1.019538164138794 5:-1.0198267698287964 6:-0.8488267660140991 7:-1.0185846090316772 8:-1.019168496131897 9:-0.972296953201294 10:0.0 11:-1.0103380680084229 12:-0.9948815107345581 13:-1.0196014642715454 14:0.0 15:-1.018895149230957 16:-0.9954487085342407 17:-0.9970505833625793 18:0.0 19:-1.0154060125350952 20:0.0 21:-1.0080370903015137 22:-0.7043700814247131 23:-0.31274476647377014 24:-0.9806845784187317 25:0.0 26:0.0 27:0.0 28:-0.956371009349823 29:-0.9496466517448425 30:-0.9555460810661316 31:-0.9573931097984314 32:-0.9597697854042053 33:-0.9556678533554077 34:0.0
-0.03848975487844385 1:-0.9966529607772827 2:-0.998878538608551 3:-0.9729944467544556 4:-0.9927988052368164 5:-1.0103932619094849 6:-0.7673265337944031 7:-0.9985841512680054 8:-0.9731144905090332 9:-0.9961655735969543 10:0.0 11:-0.9878209233283997 12:-0.9948815107345581 13:-1.0196014642715454 14:0.0 15:-1.018895149230957 16:-0.9954487085342407 17:-0.9970505833625793 18:0.0 19:-1.0154060125350952 20:0.0 21:-1.001461386680603 22:-0.9105463027954102 23:-0.8808163404464722 24:-1.0199120044708252 25:0.0 26:0.0 27:0.0 28:-0.956371009349823 29:-1.0195341110229492 30:-0.9555460810661316 31:-0.9573931097984314 32:-0.9597697854042053 33:-0.9556678533554077 34:0.0
0.03848975487844385 1:-0.9865603446960449 2:-0.9938336610794067 3:-0.9804227948188782 4:-1.019538164138794 5:-1.0198267698287964 6:-1.013047218322754 7:-0.9776943325996399 8:-0.9788745045661926 9:-0.9961655735969543 10:0.0 11:-0.9813874363899231 12:-0.9948815107345581 13:-1.0196014642715454 14:0.0 15:-0.8819685578346252 16:-0.9954487085342407 17:-0.9970505833625793 18:0.0 19:-1.0154060125350952 20:0.0 21:-1.0143760442733765 22:-0.8316454887390137 23:-0.8965567350387573 24:-0.9806845784187317 25:0.0 26:0.0 27:0.0 28:-1.0196329355239868 29:-1.0195341110229492 30:-1.0196261405944824 31:-1.0196328163146973 32:-1.0196453332901 33:-1.0196298360824585 34:0.0
-0.03848975487844385 1:-0.9983679056167603 2:-0.9971128106117249 3:-0.9817861914634705 4:-0.9750900268554688 5:-0.9982852935791016 6:-0.8217413425445557 7:-0.9990885853767395 8:-0.9895222187042236 9:-0.9961655735969543 10:0.0 11:-1.0071213245391846 12:-0.9948815107345581 13:-1.0196014642715454 14:0.0 15:-1.018895149230957 16:-0.9954487085342407 17:-0.9970505833625793 18:0.0 19:-1.0154060125350952 20:0.0 21:-1.0160776376724243 22:-0.9972507357597351 23:-0.9924874305725098 24:-0.9806845784187317 25:0.0 26:0.0 27:0.0 28:-1.0196329355239868 29:-1.0195341110229492 30:-1.0196261405944824 31:-1.0196328163146973 32:-1.0196453332901 33:-1.0196298360824585 34:0.0
0.03848975487844385 1:-1.0067455768585205 2:-1.0104020833969116 3:-0.992859959602356 4:-1.019538164138794 5:-1.0198267698287964 6:-1.015121340751648 7:-1.017204999923706 8:-1.0123486518859863 9:-0.972296953201294 10:0.0 11:-0.9846041798591614 12:-0.9948815107345581 13:-1.0196014642715454 14:0.0 15:-1.018895149230957 16:-0.9954487085342407 17:-0.9970505833625793 18:0.0 19:-1.0154060125350952 20:0.0 21:-1.0109301805496216 22:-0.9116386771202087 23:-0.980261504650116 24:-1.0199120044708252 25:0.0 26:0.0 27:0.0 28:-0.956371009349823 29:-0.9496466517448425 30:-0.9555460810661316 31:-0.9573931097984314 32:-0.9597697854042053 33:-0.9556678533554077 34:0.0
-0.03848975487844385 1:-0.9865603446960449 2:-0.9833402633666992 3:-0.9043375849723816 4:-0.8894849419593811 5:-0.9727007746696472 6:-0.8622474670410156 7:-0.9629321694374084 8:-0.9537904262542725 9:-0.9961655735969543 10:0.0 11:-0.9878209233283997 12:-0.9948815107345581 13:-0.9505447149276733 14:0.0 15:-1.018895149230957 16:-0.9954487085342407 17:-0.9970505833625793 18:0.0 19:-1.0154060125350952 20:0.0 21:-0.9753252863883972 22:-1.0087937116622925 23:-1.0137308835983276 24:-0.9806845784187317 25:0.0 26:0.0 27:0.0 28:-0.956371009349823 29:-0.9496466517448425 30:-0.9555460810661316 31:-0.9573931097984314 32:-0.9597697854042053 33:-0.9556678533554077 34:0.0
-0.03848975487844385 1:-1.0058058500289917 2:-1.009865164756775 3:-0.9923124313354492 4:-1.019538164138794 5:-1.0198267698287964 6:-0.7561019062995911 7:-0.9937389492988586 8:-0.9937974810600281 9:-0.9961655735969543 10:0.0 11:-0.9749539494514465 12:-0.9948815107345581 13:-1.0196014642715454 14:0.0 15:-1.018895149230957 16:-0.9954487085342407 17:-0.9970505833625793 18:0.0 19:-1.0154060125350952 20:0.0 21:-0.9974416494369507 22:-0.8759414553642273 23:-0.9675732851028442 24:-1.0199120044708252 25:0.0 26:0.0 27:0.0 28:-0.956371009349823 29:-0.9496466517448425 30:-1.0196261405944824 31:-0.9573931097984314 32:-0.9597697854042053 33:-1.0196298360824585 34:0.0
-0.03848975487844385 1:-0.9947086572647095 2:-0.9913742542266846 3:-1.019810676574707 4:-1.019538164138794 5:-0.9727513790130615 6:-0.864931583404541 7:-1.0079240798950195 8:-1.0095617771148682 9:-0.972296953201294 10:0.0 11:-1.0103380680084229 12:-0.9697133302688599 13:-0.9505447149276733 14:0.0 15:-1.018895149230957 16:-0.9954487085342407 17:-0.9970505833625793 18:0.0 19:-1.0154060125350952 20:0.0 21:-0.9705707430839539 22:-1.0153748989105225 23:-1.0148853063583374 24:-0.9806845784187317 25:0.0 26:0.0 27:0.0 28:-1.0196329355239868 29:-1.0195341110229492 30:-1.0196261405944824 31:-1.0196328163146973 32:-1.0196453332901 33:-1.0196298360824585 34:0.0
-0.03848975487844385 1:-1.0037221908569336 2:-1.004764199256897 3:-0.9969335198402405 4:-1.0054994821548462 5:-1.0103932619094849 6:-0.8565131425857544 7:-1.0151575803756714 8:-1.0071130990982056 9:-1.0200343132019043 10:0.0 11:-1.0199882984161377 12:-1.0200495719909668 13:-1.0196014642715454 14:0.0 15:-1.018895149230957 16:-0.9954487085342407 17:-0.9970505833625793 18:0.0 19:-1.0154060125350952 20:0.0 21:-0.9739696383476257 22:-1.0168758630752563 23:-1.0149357318878174 24:-1.0199120044708252 25:0.0 26:0.0 27:0.0 28:-0.956371009349823 29:-1.0195341110229492 30:-0.9555460810661316 31:-0.9573931097984314 32:-1.0196453332901 33:-0.9556678533554077 34:0.0
-0.03848975487844385 1:-0.9823715686798096 2:-0.9787494540214539 3:-0.8436838388442993 4:-0.8486707210540771 5:-0.9168569445610046 6:-0.9568023681640625 7:-0.8716673851013184 8:-0.9330937266349792 9:-0.9961655735969543 10:0.0 11:-1.0039045810699463 12:-0.9948815107345581 13:-0.9505447149276733 14:0.0 15:-0.8819685578346252 16:1.4220696687698364 17:1.2629307508468628 18:0.0 19:-0.5424771904945374 20:0.0 21:-0.9825474619865417 22:-1.0164045095443726 23:-1.0149503946304321 24:-0.9806845784187317 25:0.0 26:0.0 27:0.0 28:-0.956371009349823 29:-0.9496466517448425 30:-0.9555460810661316 31:-0.9573931097984314 32:-0.9597697854042053 33:-0.9556678533554077 34:0.0
0.03848975487844385 1:-1.0025568008422852 2:-1.003864049911499 3:-0.9914934039115906 4:-1.0024501085281372 5:-1.0103932619094849 6:-1.012681245803833 7:-1.0107841491699219 8:-1.0119298696517944 9:-1.0200343132019043 10:0.0 11:-1.0199882984161377 12:-1.0200495719909668 13:-1.0196014642715454 14:0.0 15:-1.018895149230957 16:-0.9954487085342407 17:-0.9970505833625793 18:0.0 19:-1.0154060125350952 20:0.0 21:-1.0009831190109253 22:-0.9168695211410522 23:-0.9846574664115906 24:-1.0199120044708252 25:0.0 26:0.0 27:0.0 28:-0.956371009349823 29:-1.0195341110229492 30:-1.0196261405944824 31:-1.0196328163146973 32:-1.0196453332901 33:-1.0196298360824585 34:0.0
0.03848975487844385 1:-1.0025568008422852 2:-1.0078247785568237 3:-0.9953328967094421 4:-1.019538164138794 5:-1.0198267698287964 6:-1.017683506011963 7:-1.0102026462554932 8:-1.0098992586135864 9:-1.0200343132019043 10:0.0 11:-1.0199882984161377 12:-1.0200495719909668 13:-1.0196014642715454 14:0.0 15:-1.018895149230957 16:-0.9954487085342407 17:-0.9970505833625793 18:0.0 19:-1.0154060125350952 20:0.0 21:-1.0029852390289307 22:-0.9443952441215515 23:-0.9725810289382935 24:-1.0199120044708252 25:0.0 26:0.0 27:0.0 28:-0.956371009349823 29:-1.0195341110229492 30:-0.9555460810661316 31:-1.0196328163146973 32:-0.9597697854042053 33:-0.9556678533554077 34:0.0
0.03848975487844385 1:-1.0012898445129395 2:-1.0028513669967651 3:-1.019810676574707 4:-1.019538164138794 5:-1.0103932619094849 6:-1.016707420349121 7:-0.9947112202644348 8:-1.0146827697753906 9:-0.9961655735969543 10:0.0 11:-1.0071213245391846 12:-0.9948815107345581 13:-1.0196014642715454 14:0.0 15:-1.018895149230957 16:-0.9954487085342407 17:-0.9970505833625793 18:0.0 19:-1.0154060125350952 20:0.0 21:-0.993405282497406 22:-0.9385493397712708 23:-1.004257321357727 24:-1.0199120044708252 25:0.0 26:0.0 27:0.0 28:-1.0196329355239868 29:-1.0195341110229492 30:-1.0196261405944824 31:-1.0196328163146973 32:-1.0196453332901 33:-1.0196298360824585 34:0.0
0.03848975487844385 1:-1.0048012733459473 2:-1.0092650651931763 3:-0.9923991560935974 4:-1.019538164138794 5:-1.0198267698287964 6:-1.0157314538955688 7:-1.0161505937576294 8:-0.9981210827827454 9:-0.972296953201294 10:0.0 11:-0.9846041798591614 12:-0.9948815107345581 13:-1.0196014642715454 14:0.0 15:-1.018895149230957 16:-0.9954487085342407 17:-0.9970505833625793 18:0.0 19:-1.0154060125350952 20:0.0 21:-1.0081429481506348 22:-0.9510553479194641 23:-1.004683017730713 24:-1.0199120044708252 25:0.0 26:0.0 27:0.0 28:-0.956371009349823 29:-0.9496466517448425 30:-0.9555460810661316 31:-0.9573931097984314 32:-0.9597697854042053 33:-0.9556678533554077 34:0.0
0.03848975487844385 1:-1.0025568008422852 2:-1.0078247785568237 3:-0.9960422515869141 4:-1.019538164138794 5:-1.0198267698287964 6:-1.0169514417648315 7:-1.0098276138305664 8:-0.9975186586380005 9:-0.9961655735969543 10:0.0 11:-0.9846041798591614 12:-0.9948815107345581 13:-1.0196014642715454 14:0.0 15:-1.018895149230957 16:-0.9954487085342407 17:-0.9970505833625793 18:0.0 19:-1.0154060125350952 20:0.0 21:-0.9953675270080566 22:-1.0169895887374878 23:-1.0149401426315308 24:-1.0199120044708252 25:0.0 26:0.0 27:0.0 28:-0.956371009349823 29:-0.9496466517448425 30:-1.0196261405944824 31:-1.0196328163146973 32:-0.9597697854042053 33:-1.0196298360824585 34:0.0
-0.03848975487844385 1:-1.0025568008422852 2:-1.0078247785568237 3:-0.9990441203117371 4:-1.019538164138794 5:-1.0198267698287964 6:-1.0181715488433838 7:-1.019300937652588 8:-1.0198363065719604 9:-0.9961655735969543 10:0.0 11:-0.9813874363899231 12:-0.9948815107345581 13:-1.0196014642715454 14:0.0 15:-1.018895149230957 16:-0.9954487085342407 17:-0.9970505833625793 18:0.0 19:-1.0154060125350952 20:0.0 21:-1.019866704940796 22:-0.9401962161064148 23:-0.21552352607250214 24:-1.0199120044708252 25:0.0 26:0.0 27:0.0 28:-1.0196329355239868 29:-0.9496466517448425 30:-0.9555460810661316 31:-0.9573931097984314 32:-0.9597697854042053 33:-0.9556678533554077 34:0.0
-0.03848975487844385 1:-1.0058058500289917 2:-1.009865164756775 3:-0.9903205633163452 4:-1.019538164138794 5:-1.0198267698287964 6:-1.0119491815567017 7:-1.0127776861190796 8:-1.0103931427001953 9:-0.9961655735969543 10:0.0 11:-0.9878209233283997 12:-0.9948815107345581 13:-1.0196014642715454 14:0.0 15:-1.018895149230957 16:-0.9954487085342407 17:-0.9970505833625793 18:0.0 19:-1.0154060125350952 20:0.0 21:-1.010572910308838 22:-0.7674669623374939 23:-0.0809570848941803 24:-1.0199120044708252 25:0.0 26:0.0 27:0.0 28:-0.956371009349823 29:-1.0195341110229492 30:-0.9555460810661316 31:-0.9573931097984314 32:-0.9597697854042053 33:-0.9556678533554077 34:0.0
-0.028782568062439395 1:-1.0012898445129395 2:-1.0028513669967651 3:-0.9893589615821838 4:-1.0012811422348022 5:-1.0103932619094849 6:-1.0110951662063599 7:-1.0127497911453247 8:-1.0160850286483765 9:-0.9961655735969543 10:0.0 11:-0.9974710941314697 12:-0.9948815107345581 13:-1.0196014642715454 14:0.0 15:-1.018895149230957 16:-0.9954487085342407 17:-0.9970505833625793 18:0.0 19:-1.0154060125350952 20:0.0 21:-1.006799578666687 22:-0.6696061491966248 23:-0.36229169368743896 24:-0.9806845784187317 25:0.0 26:0.0 27:0.0 28:-1.0196329355239868 29:-1.0195341110229492 30:-1.0196261405944824 31:-1.0196328163146973 32:-1.0196453332901 33:-1.0196298360824585 34:0.0
-0.03848975487844385 1:-1.008460521697998 2:-1.0080909729003906 3:-1.019810676574707 4:-1.019538164138794 5:-1.0103932619094849 6:-1.0157314538955688 7:-1.0088529586791992 8:-1.006722092628479 9:-0.9961655735969543 10:0.0 11:-0.9878209233283997 12:-0.9948815107345581 13:-1.0196014642715454 14:0.0 15:-1.018895149230957 16:-0.9954487085342407 17:-0.9970505833625793 18:0.0 19:-1.0154060125350952 20:0.0 21:-1.0092287063598633 22:-0.9399948120117188 23:-0.6696397662162781 24:-0.9806845784187317 25:0.0 26:0.0 27:0.0 28:-1.0196329355239868 29:-1.0195341110229492 30:-1.0196261405944824 31:-1.0196328163146973 32:-1.0196453332901 33:-1.0196298360824585 34:0.0
-0.03848975487844385 1:-0.9947086572647095 2:-0.9938336610794067 3:-0.9888153672218323 4:-0.9929570555686951 5:-1.0056756734848022 6:-1.0013346672058105 7:-0.9741518497467041 8:-0.9938514828681946 9:-0.9961655735969543 10:0.0 11:-1.0039045810699463 12:-0.9948815107345581 13:-1.0196014642715454 14:0.0 15:-1.018895149230957 16:-0.9954487085342407 17:-0.9970505833625793 18:0.0 19:-1.0154060125350952 20:0.0 21:-1.010109543800354 22:-0.8175700902938843 23:-0.09730291366577148 24:-1.0199120044708252 25:0.0 26:0.0 27:0.0 28:-0.956371009349823 29:-0.9496466517448425 30:-0.9555460810661316 31:-1.0196328163146973 32:-0.9597697854042053 33:-0.9556678533554077 34:0.0
0.03848975487844385 1:-0.9823715686798096 2:-0.9783321022987366 3:-1.019810676574707 4:-1.019538164138794 5:-0.9311938285827637 6:-0.9862058758735657 7:-0.880212664604187 8:-0.9995995759963989 9:-0.9961655735969543 10:0.0 11:-0.9974710941314697 12:-0.9948815107345581 13:-0.9505447149276733 14:0.0 15:-0.8819685578346252 16:1.4220696687698364 17:1.2629307508468628 18:0.0 19:-0.5424771904945374 20:0.0 21:-0.981635570526123 22:-1.000931978225708 23:-1.0080431699752808 24:-1.0199120044708252 25:0.0 26:0.0 27:0.0 28:-1.0196329355239868 29:-0.9496466517448425 30:-1.0196261405944824 31:-1.0196328163146973 32:-0.9597697854042053 33:-1.0196298360824585 34:0.0
0.03848975487844385 1:-0.9823715686798096 2:-0.9792595505714417 3:-0.9527223706245422 4:-0.884645938873291 5:-0.9291848540306091 6:-0.7403631210327148 7:-0.8172311186790466 8:-0.9290778636932373 9:-0.9961655735969543 10:0.0 11:-0.9974710941314697 12:-0.9948815107345581 13:-0.9505447149276733 14:0.0 15:-1.018895149230957 16:-0.9954487085342407 17:-0.9970505833625793 18:0.0 19:-0.5424771904945374 20:0.0 21:-0.973031222820282 22:-1.014238953590393 23:-1.0149325132369995 24:-0.9806845784187317 25:0.0 26:0.0 27:0.0 28:-0.956371009349823 29:-0.9496466517448425 30:-1.0196261405944824 31:-0.9573931097984314 32:-1.0196453332901 33:-1.0196298360824585 34:0.0
0.03848975487844385 1:-0.9823715686798096 2:-0.9833402633666992 3:-0.9739514589309692 4:-0.966313362121582 5:-0.9971368908882141 6:-0.8219853639602661 7:-0.9264794588088989 8:-0.878938615322113 9:-0.9961655735969543 10:0.0 11:-1.000687837600708 12:-0.9948815107345581 13:-1.0196014642715454 14:0.0 15:-0.8819685578346252 16:-0.9954487085342407 17:1.2629307508468628 18:0.0 19:-0.5424771904945374 20:0.0 21:-0.9836242198944092 22:-1.002830982208252 23:-1.0116462707519531 24:-0.9806845784187317 25:0.0 26:0.0 27:0.0 28:-0.956371009349823 29:-1.0195341110229492 30:-1.0196261405944824 31:-1.0196328163146973 32:-1.0196453332901 33:-1.0196298360824585 34:0.0
0.03848975487844385 1:-0.9823715686798096 2:-0.979897141456604 3:-0.9429852366447449 4:-0.8868857026100159 5:-0.9446789026260376 6:-0.9943802952766418 7:-0.9545287489891052 8:-1.0097686052322388 9:-0.9961655735969543 10:0.0 11:-0.9942543506622314 12:-0.9948815107345581 13:-0.9505447149276733 14:0.0 15:-0.8819685578346252 16:1.4220696687698364 17:1.2629307508468628 18:0.0 19:-0.5424771904945374 20:0.0 21:-0.9669374823570251 22:-0.9674608111381531 23:-0.9254651665687561 24:-0.9806845784187317 25:0.0 26:0.0 27:0.0 28:-1.0196329355239868 29:-1.0195341110229492 30:-1.0196261405944824 31:-1.0196328163146973 32:-1.0196453332901 33:-1.0196298360824585 34:0.0
0.03848975487844385 1:-0.9823715686798096 2:-0.9807169437408447 3:-1.019810676574707 4:-1.019538164138794 5:-0.9717057943344116 6:-0.9772993922233582 7:-0.8083450198173523 8:-0.9141772389411926 9:-0.9961655735969543 10:0.0 11:-0.9846041798591614 12:-0.9948815107345581 13:-0.9505447149276733 14:0.0 15:-0.8819685578346252 16:1.4220696687698364 17:1.2629307508468628 18:0.0 19:-0.5424771904945374 20:0.0 21:-1.0051727294921875 22:-1.0166172981262207 23:-1.014752745628357 24:-1.0199120044708252 25:0.0 26:0.0 27:0.0 28:-1.0196329355239868 29:-1.0195341110229492 30:-1.0196261405944824 31:-1.0196328163146973 32:-1.0196453332901 33:-1.0196298360824585 34:0.0
-0.03848975487844385 1:-0.9823715686798096 2:-0.9779843091964722 3:-1.019810676574707 4:-1.019538164138794 5:-0.9101996421813965 6:-1.008533000946045 7:-0.8262977004051208 8:-0.9739471673965454 9:-1.0200343132019043 10:0.0 11:-1.0199882984161377 12:-1.0200495719909668 13:-0.9505447149276733 14:0.0 15:-0.8819685578346252 16:1.4220696687698364 17:1.2629307508468628 18:0.0 19:-0.5424771904945374 20:0.0 21:-1.0170555114746094 22:-1.0080480575561523 23:-1.009948968887329 24:-0.9806845784187317 25:0.0 26:0.0 27:0.0 28:-1.0196329355239868 29:-1.0195341110229492 30:-0.9555460810661316 31:-1.0196328163146973 32:-1.0196453332901 33:-1.0196298360824585 34:0.0
-0.03848975487844385 1:-0.9823715686798096 2:-0.9807169437408447 3:-1.019810676574707 4:-1.019538164138794 5:-0.9025914669036865 6:-0.9414295554161072 7:-0.8002285957336426 8:-0.8253539800643921 9:-0.9961655735969543 10:0.0 11:-1.0071213245391846 12:-0.9948815107345581 13:-0.9505447149276733 14:0.0 15:-1.018895149230957 16:-0.9954487085342407 17:-0.9970505833625793 18:0.0 19:-0.5424771904945374 20:0.0 21:-0.9843998551368713 22:-1.0175328254699707 23:-1.014957308769226 24:-0.9806845784187317 25:0.0 26:0.0 27:0.0 28:-1.0196329355239868 29:-1.0195341110229492 30:-1.0196261405944824 31:-1.0196328163146973 32:-1.0196453332901 33:-1.0196298360824585 34:0.0
-0.03848975487844385 1:-0.9823715686798096 2:-0.979897141456604 3:-1.019810676574707 4:-1.019538164138794 5:-0.9207956194877625 6:-0.9668068885803223 7:-0.8067969679832458 8:-0.9020956754684448 9:-1.0200343132019043 10:0.0 11:-1.0199882984161377 12:-1.0200495719909668 13:-0.9505447149276733 14:0.0 15:-1.018895149230957 16:-0.9954487085342407 17:-0.9970505833625793 18:0.0 19:-0.5424771904945374 20:0.0 21:-1.0015194416046143 22:-1.015342116355896 23:-1.0148903131484985 24:-0.9806845784187317 25:0.0 26:0.0 27:0.0 28:-1.0196329355239868 29:-1.0195341110229492 30:-1.0196261405944824 31:-1.0196328163146973 32:-1.0196453332901 33:-1.0196298360824585 34:0.0
-0.03848975487844385 1:-0.9823715686798096 2:-0.979897141456604 3:-0.8386796712875366 4:-0.8478231430053711 5:-0.9158881902694702 6:-0.9614385962486267 7:-0.9458813667297363 8:-0.9669672846794128 9:-0.9961655735969543 10:0.0 11:-1.0103380680084229 12:-0.9948815107345581 13:-0.9505447149276733 14:0.0 15:-1.018895149230957 16:-0.9954487085342407 17:-0.9970505833625793 18:0.0 19:-0.5424771904945374 20:0.0 21:-1.0081887245178223 22:-1.0041629076004028 23:-1.00534188747406 24:-1.0199120044708252 25:0.0 26:0.0 27:0.0 28:-1.0196329355239868 29:-1.0195341110229492 30:-1.0196261405944824 31:-1.0196328163146973 32:-1.0196453332901 33:-1.0196298360824585 34:0.0
-0.03848975487844385 1:-0.9823715686798096 2:-0.9787494540214539 3:-1.019810676574707 4:-1.019538164138794 5:-0.9321516156196594 6:-1.0070689916610718 7:-0.8007449507713318 8:-0.9449605941772461 9:-0.9961655735969543 10:0.0 11:-0.9974710941314697 12:-0.9948815107345581 13:-0.9505447149276733 14:0.0 15:-1.018895149230957 16:-0.9954487085342407 17:-0.9970505833625793 18:0.0 19:-0.5424771904945374 20:0.0 21:-0.9705522656440735 22:-1.0115478038787842 23:-1.0140577554702759 24:-0.9806845784187317 25:0.0 26:0.0 27:0.0 28:-1.0196329355239868 29:-1.0195341110229492 30:-1.0196261405944824 31:-1.0196328163146973 32:-0.9597697854042053 33:-1.0196298360824585 34:0.0
0.03848975487844385 1:-0.9865603446960449 2:-0.9822600483894348 3:-1.019810676574707 4:-1.019538164138794 5:-0.9393676519393921 6:-0.9686369299888611 7:-0.9578731656074524 8:-0.9747700095176697 9:-0.9961655735969543 10:0.0 11:-1.0103380680084229 12:-0.9948815107345581 13:-0.9505447149276733 14:0.0 15:-0.8819685578346252 16:-0.9954487085342407 17:-0.9970505833625793 18:0.0 19:-1.0154060125350952 20:0.0 21:-0.9991940855979919 22:-0.802117645740509 23:-0.38077378273010254 24:-0.9806845784187317 25:0.0 26:0.0 27:0.0 28:-1.0196329355239868 29:-1.0195341110229492 30:-1.0196261405944824 31:-1.0196328163146973 32:-1.0196453332901 33:-1.0196298360824585 34:0.0
0.03848975487844385 1:-1.0048012733459473 2:-1.005569577217102 3:-0.9940750002861023 4:-1.0038844347000122 5:-1.0103932619094849 6:-0.9975524544715881 7:-1.0099934339523315 8:-1.001573920249939 9:-0.9961655735969543 10:0.0 11:-1.000687837600708 12:-0.9948815107345581 13:-1.0196014642715454 14:0.0 15:-1.018895149230957 16:-0.9954487085342407 17:-0.9970505833625793 18:0.0 19:-1.0154060125350952 20:0.0 21:-1.0079540014266968 22:-0.850828230381012 23:-0.46907198429107666 24:-0.9806845784187317 25:0.0 26:0.0 27:0.0 28:-0.956371009349823 29:-0.9496466517448425 30:-0.9555460810661316 31:-0.8951534032821655 32:-0.9597697854042053 33:-0.9556678533554077 34:0.0
0.03848975487844385 1:-1.0037221908569336 2:-1.0017036199569702 3:-0.990401566028595 4:-0.9659640789031982 5:-0.984126627445221 6:-1.0090210437774658 7:-1.0117436647415161 8:-0.9625151753425598 9:-0.9961655735969543 10:0.0 11:-1.0135548114776611 12:-0.9948815107345581 13:-1.0196014642715454 14:0.0 15:-1.018895149230957 16:-0.9954487085342407 17:-0.9970505833625793 18:0.0 19:-1.0154060125350952 20:0.0 21:-0.9652352333068848 22:-0.9625341892242432 23:-0.6022379994392395 24:-0.9806845784187317 25:0.0 26:0.0 27:0.0 28:-1.0196329355239868 29:-1.0195341110229492 30:-1.0196261405944824 31:-1.0196328163146973 32:-1.0196453332901 33:-1.0196298360824585 34:0.0
0.03848975487844385 1:-1.0012898445129395 2:-1.0069503784179688 3:-0.9987743496894836 4:-1.019538164138794 5:-1.0198267698287964 6:-1.0180494785308838 7:-1.0139330625534058 8:-1.0156474113464355 9:-0.9961655735969543 10:0.0 11:-0.9942543506622314 12:-0.9948815107345581 13:-1.0196014642715454 14:0.0 15:-1.018895149230957 16:-0.9954487085342407 17:-0.9970505833625793 18:0.0 19:-1.0154060125350952 20:0.0 21:-1.013068675994873 22:-0.8718653917312622 23:-0.7086911201477051 24:-0.9806845784187317 25:0.0 26:0.0 27:0.0 28:-0.956371009349823 29:-0.9496466517448425 30:-0.9555460810661316 31:-0.9573931097984314 32:-0.9597697854042053 33:-0.9556678533554077 34:0.0
0.03848975487844385 1:-0.9898094534873962 2:-0.9833402633666992 3:-0.9889997243881226 4:-0.9798299670219421 5:-0.9967907071113586 6:-1.0180494785308838 7:-1.0100067853927612 8:-1.0198363065719604 9:-0.9961655735969543 10:0.0 11:-0.9942543506622314 12:-0.9948815107345581 13:-0.9505447149276733 14:0.0 15:-1.018895149230957 16:-0.9954487085342407 17:-0.9970505833625793 18:0.0 19:-1.0154060125350952 20:0.0 21:-1.0114914178848267 22:-0.8765509724617004 23:-0.713779866695404 24:-0.9806845784187317 25:0.0 26:0.0 27:0.0 28:-1.0196329355239868 29:-1.0195341110229492 30:-1.0196261405944824 31:-1.0196328163146973 32:-1.0196453332901 33:-1.0196298360824585 34:0.0
-0.03848975487844385 1:-0.9865603446960449 2:-0.9822600483894348 3:-0.9738971590995789 4:-0.9405606389045715 5:-0.9788870811462402 6:-1.0096310377120972 7:-0.9979006052017212 8:-0.9830874800682068 9:-0.9961655735969543 10:0.0 11:-0.9846041798591614 12:-0.9948815107345581 13:-0.9505447149276733 14:0.0 15:-0.8819685578346252 16:-0.9954487085342407 17:-0.9970505833625793 18:0.0 19:-1.0154060125350952 20:0.0 21:-0.9925436973571777 22:-1.0132243633270264 23:-1.0146541595458984 24:-0.9806845784187317 25:0.0 26:0.0 27:0.0 28:-0.956371009349823 29:-0.9496466517448425 30:-0.9555460810661316 31:-0.9573931097984314 32:-0.9597697854042053 33:-0.9556678533554077 34:0.0
-0.03848975487844385 1:-0.9966529607772827 2:-0.9910722374916077 3:-0.9829925298690796 4:-0.9619642496109009 5:-0.9883052110671997 6:-0.9611945748329163 7:-1.0112553834915161 8:-1.0166330337524414 9:-1.0200343132019043 10:0.0 11:-1.0199882984161377 12:-1.0200495719909668 13:-0.9505447149276733 14:0.0 15:-0.8819685578346252 16:-0.9954487085342407 17:-0.9970505833625793 18:0.0 19:-1.0154060125350952 20:0.0 21:-1.009611964225769 22:-1.0070606470108032 23:-1.0139695405960083 24:-1.0199120044708252 25:0.0 26:0.0 27:0.0 28:-0.956371009349823 29:-1.0195341110229492 30:-0.9555460810661316 31:-0.9573931097984314 32:-0.9597697854042053 33:-0.9556678533554077 34:0.0
-0.03848975487844385 1:-0.9947086572647095 2:-0.9879311323165894 3:-0.9819027185440063 4:-0.9494420289993286 5:-0.9788870811462402 6:-1.0157314538955688 7:-1.0092406272888184 8:-0.9517675042152405 9:-0.9961655735969543 10:0.0 11:-0.9846041798591614 12:-0.9948815107345581 13:-0.9505447149276733 14:0.0 15:-0.8819685578346252 16:-0.9954487085342407 17:-0.9970505833625793 18:0.0 19:-1.0154060125350952 20:0.0 21:-1.0057920217514038 22:-1.0151160955429077 23:-1.0145341157913208 24:-0.9806845784187317 25:0.0 26:0.0 27:0.0 28:-0.956371009349823 29:-0.9496466517448425 30:-0.9555460810661316 31:-1.0196328163146973 32:-0.9597697854042053 33:-0.9556678533554077 34:0.0
-0.03848975487844385 1:-0.9966529607772827 2:-0.9955825209617615 3:-0.9863495826721191 4:-0.9590917229652405 5:-0.9826486706733704 6:-1.0158534049987793 7:-1.0087823867797852 8:-0.9747461080551147 9:-0.9961655735969543 10:0.0 11:-0.9685205221176147 12:-0.9948815107345581 13:-0.9505447149276733 14:0.0 15:-0.8819685578346252 16:-0.9954487085342407 17:-0.9970505833625793 18:0.0 19:-1.0154060125350952 20:0.0 21:-1.0128674507141113 22:-0.9997075200080872 23:-1.010984182357788 24:-1.0199120044708252 25:0.0 26:0.0 27:0.0 28:-0.956371009349823 29:-0.9496466517448425 30:-0.9555460810661316 31:-0.9573931097984314 32:-0.9597697854042053 33:-0.9556678533554077 34:0.0
-0.03848975487844385 1:-0.9966529607772827 2:-0.9894614219665527 3:-0.976722240447998 4:-0.9697484970092773 5:-0.9977620244026184 6:-0.8834765553474426 7:-1.018032431602478 8:-1.0194578170776367 9:-0.9961655735969543 10:0.0 11:-1.0071213245391846 12:-0.9948815107345581 13:-1.0196014642715454 14:0.0 15:-0.8819685578346252 16:-0.9954487085342407 17:-0.9970505833625793 18:0.0 19:-1.0154060125350952 20:0.0 21:-1.0117243528366089 22:-0.948073148727417 23:-1.001560091972351 24:-1.0199120044708252 25:0.0 26:0.0 27:0.0 28:-1.0196329355239868 29:-1.0195341110229492 30:-1.0196261405944824 31:-1.0196328163146973 32:-1.0196453332901 33:-1.0196298360824585 34:0.0
0.03848975487844385 1:-0.9823715686798096 2:-0.9787494540214539 3:-0.8077079057693481 4:-0.8484252095222473 5:-0.9334005117416382 6:-0.9934042692184448 7:-0.9130420088768005 8:-0.9222281575202942 9:-0.9961655735969543 10:0.0 11:-0.9846041798591614 12:-0.9948815107345581 13:-1.0196014642715454 14:0.0 15:-1.018895149230957 16:-0.9954487085342407 17:-0.9970505833625793 18:0.0 19:-0.5424771904945374 20:0.0 21:-0.9928938746452332 22:-0.8405645489692688 23:-0.7930648922920227 24:-0.9806845784187317 25:0.0 26:0.0 27:0.0 28:-1.0196329355239868 29:-1.0195341110229492 30:-1.0196261405944824 31:-1.0196328163146973 32:-1.0196453332901 33:-1.0196298360824585 34:0.0
0.03848975487844385 1:-0.9823715686798096 2:-0.9792595505714417 3:-1.019810676574707 4:-1.019538164138794 5:-0.927375078201294 6:-0.9932822585105896 7:-0.8002285957336426 8:-0.8576297760009766 9:-0.9961655735969543 10:0.0 11:-1.0135548114776611 12:-0.9948815107345581 13:-0.9505447149276733 14:0.0 15:-1.018895149230957 16:-0.9954487085342407 17:-0.9970505833625793 18:0.0 19:-0.5424771904945374 20:0.0 21:-0.9624007940292358 22:-1.0159783363342285 23:-1.0148024559020996 24:-0.9806845784187317 25:0.0 26:0.0 27:0.0 28:-1.0196329355239868 29:-1.0195341110229492 30:-1.0196261405944824 31:-1.0196328163146973 32:-1.0196453332901 33:-1.0196298360824585 34:0.0
0.03848975487844385 1:-0.9823715686798096 2:-0.9776899814605713 3:-1.019810676574707 4:-1.019538164138794 5:-0.9240226745605469 6:-1.0084110498428345 7:-0.800352931022644 8:-0.9158766269683838 9:-0.9961655735969543 10:0.0 11:-0.9653037786483765 12:-0.9948815107345581 13:-0.9505447149276733 14:0.0 15:-1.018895149230957 16:-0.9954487085342407 17:-0.9970505833625793 18:0.0 19:-0.5424771904945374 20:0.0 21:-0.9661780595779419 22:-1.0175559520721436 23:-1.0149574279785156 24:-1.0199120044708252 25:0.0 26:0.0 27:0.0 28:-1.0196329355239868 29:-1.0195341110229492 30:-1.0196261405944824 31:-1.0196328163146973 32:-1.0196453332901 33:-1.0196298360824585 34:0.0
0.03848975487844385 1:-0.9823715686798096 2:-0.9818099737167358 3:-1.019810676574707 4:-1.019538164138794 5:-0.9562364220619202 6:-1.0075570344924927 7:-0.8005237579345703 8:-0.9373286366462708 9:-0.9961655735969543 10:0.0 11:-1.0103380680084229 12:-0.9948815107345581 13:-0.9505447149276733 14:0.0 15:-1.018895149230957 16:-0.9954487085342407 17:-0.9970505833625793 18:0.0 19:-0.5424771904945374 20:0.0 21:-1.014651894569397 22:-1.0128757953643799 23:-1.011924147605896 24:-0.9806845784187317 25:0.0 26:0.0 27:0.0 28:-1.0196329355239868 29:-1.0195341110229492 30:-1.0196261405944824 31:-1.0196328163146973 32:-1.0196453332901 33:-1.0196298360824585 34:0.0
0.03848975487844385 1:-0.9823715686798096 2:-0.9807169437408447 3:-1.019810676574707 4:-1.019538164138794 5:-0.9727007746696472 6:-1.0115832090377808 7:-0.8002285957336426 8:-0.9420433640480042 9:-0.9961655735969543 10:0.0 11:-1.000687837600708 12:-0.9948815107345581 13:-0.9505447149276733 14:0.0 15:-1.018895149230957 16:-0.9954487085342407 17:-0.9970505833625793 18:0.0 19:-0.5424771904945374 20:0.0 21:-1.0078961849212646 22:-1.017155647277832 23:-1.0149288177490234 24:-0.9806845784187317 25:0.0 26:0.0 27:0.0 28:-1.0196329355239868 29:-1.0195341110229492 30:-1.0196261405944824 31:-1.0196328163146973 32:-1.0196453332901 33:-1.0196298360824585 34:0.0
-0.03848975487844385 1:-0.9823715686798096 2:-0.9779843091964722 3:-1.019810676574707 4:-1.019538164138794 5:-0.8969029188156128 6:-0.9974304437637329 7:-0.8183396458625793 8:-0.959330677986145 9:-0.9961655735969543 10:0.0 11:-1.0103380680084229 12:-0.9948815107345581 13:-0.9505447149276733 14:0.0 15:-1.018895149230957 16:-0.9954487085342407 17:-0.9970505833625793 18:0.0 19:-0.5424771904945374 20:0.0 21:-1.0101360082626343 22:-1.0092090368270874 23:-1.0049500465393066 24:-1.0199120044708252 25:0.0 26:0.0 27:0.0 28:-1.0196329355239868 29:-1.0195341110229492 30:-1.0196261405944824 31:-1.0196328163146973 32:-1.0196453332901 33:-1.0196298360824585 34:0.0
-0.03848975487844385 1:-0.9823715686798096 2:-0.9787494540214539 3:-1.019810676574707 4:-1.019538164138794 5:-0.9635840654373169 6:-0.9804715514183044 7:-0.9762604832649231 8:-1.013157844543457 9:-0.9961655735969543 10:0.0 11:-0.9846041798591614 12:-0.9948815107345581 13:-0.9505447149276733 14:0.0 15:-1.018895149230957 16:-0.9954487085342407 17:-0.9970505833625793 18:0.0 19:-0.5424771904945374 20:0.0 21:-0.9744859337806702 22:-0.8548678755760193 23:-0.9444462060928345 24:-0.9806845784187317 25:0.0 26:0.0 27:0.0 28:-1.0196329355239868 29:-1.0195341110229492 30:-1.0196261405944824 31:-1.0196328163146973 32:-1.0196453332901 33:-1.0196298360824585 34:0.0
-0.03848975487844385 1:-0.9865603446960449 2:-0.9847528338432312 3:-0.9737151861190796 4:-0.9434472918510437 5:-0.9814738035202026 6:-1.0084110498428345 7:-0.9408150911331177 8:-0.9634479284286499 9:-0.9961655735969543 10:0.0 11:-1.0103380680084229 12:-0.9948815107345581 13:-0.9505447149276733 14:0.0 15:-1.018895149230957 16:-0.9954487085342407 17:-0.9970505833625793 18:0.0 19:-1.0154060125350952 20:0.0 21:-0.9693657755851746 22:-1.016466498374939 23:-1.0149489641189575 24:-0.9806845784187317 25:0.0 26:0.0 27:0.0 28:-1.0196329355239868 29:-1.0195341110229492 30:-1.0196261405944824 31:-1.0196328163146973 32:-1.0196453332901 33:-1.0196298360824585 34:0.0
-0.03848975487844385 1:-0.9865603446960449 2:-0.9814072847366333 3:-0.9844836592674255 4:-0.9408699870109558 5:-0.9669650793075562 6:-1.0024327039718628 7:-0.9590684771537781 8:-0.9866319894790649 9:-0.9961655735969543 10:0.0 11:-1.0135548114776611 12:-0.9948815107345581 13:-0.9505447149276733 14:0.0 15:-0.8819685578346252 16:-0.9954487085342407 17:-0.9970505833625793 18:0.0 19:-1.0154060125350952 20:0.0 21:-1.0119187831878662 22:-1.0097033977508545 23:-1.012863278388977 24:-0.9806845784187317 25:0.0 26:0.0 27:0.0 28:-1.0196329355239868 29:-1.0195341110229492 30:-1.0196261405944824 31:-1.0196328163146973 32:-1.0196453332901 33:-1.0196298360824585 34:0.0
-0.03848975487844385 1:-0.9947086572647095 2:-0.9913742542266846 3:-0.9537372589111328 4:-0.8941329717636108 5:-0.9455357193946838 6:-1.0160974264144897 7:-1.0041491985321045 8:-0.9906639456748962 9:-0.9961655735969543 10:0.0 11:-1.0071213245391846 12:-0.9948815107345581 13:-0.9505447149276733 14:0.0 15:-1.018895149230957 16:-0.9954487085342407 17:-0.9970505833625793 18:0.0 19:-1.0154060125350952 20:0.0 21:-0.998851478099823 22:-1.0088329315185547 23:-1.0136218070983887 24:-0.9806845784187317 25:0.0 26:0.0 27:0.0 28:-1.0196329355239868 29:-1.0195341110229492 30:-1.0196261405944824 31:-1.0196328163146973 32:-1.0196453332901 33:-1.0196298360824585 34:0.0
0.03848975487844385 1:-0.9966529607772827 2:-0.9894614219665527 3:-0.9549994468688965 4:-0.9229116439819336 5:-0.9781304597854614 6:-0.9559482932090759 7:-1.006116509437561 8:-1.0102593898773193 9:-0.9961655735969543 10:0.0 11:-1.000687837600708 12:-0.9948815107345581 13:-0.9505447149276733 14:0.0 15:-1.018895149230957 16:-0.9954487085342407 17:-0.9970505833625793 18:0.0 19:-1.0154060125350952 20:0.0 21:-1.0036360025405884 22:-0.9011361598968506 23:-0.7552506923675537 24:-1.0199120044708252 25:0.0 26:0.0 27:0.0 28:-1.0196329355239868 29:-0.9496466517448425 30:-0.9555460810661316 31:-0.9573931097984314 32:-0.9597697854042053 33:-0.9556678533554077 34:0.0
0.03848975487844385 1:-1.0037221908569336 2:-1.004764199256897 3:-0.994819164276123 4:-1.0043021440505981 5:-1.0103932619094849 6:-1.008167028427124 7:-1.0044718980789185 8:-0.9966639280319214 9:-0.9961655735969543 10:0.0 11:-1.0103380680084229 12:-0.9948815107345581 13:-1.0196014642715454 14:0.0 15:-1.018895149230957 16:-0.9954487085342407 17:-0.9970505833625793 18:0.0 19:-1.0154060125350952 20:0.0 21:-0.95963454246521 22:-0.9757335782051086 23:-0.8384982347488403 24:-0.9806845784187317 25:0.0 26:0.0 27:0.0 28:-0.956371009349823 29:-0.8797592520713806 30:-1.0196261405944824 31:-0.9573931097984314 32:-0.9597697854042053 33:-1.0196298360824585 34:0.0
0.03848975487844385 1:-1.007628321647644 2:-1.0108853578567505 3:-1.019810676574707 4:-1.019538164138794 5:-1.0198267698287964 6:-1.0180494785308838 7:-1.0134756565093994 8:-1.0158902406692505 9:-1.0200343132019043 10:0.0 11:-1.0199882984161377 12:-1.0200495719909668 13:-1.0196014642715454 14:0.0 15:-1.018895149230957 16:-0.9954487085342407 17:-0.9970505833625793 18:0.0 19:-1.0154060125350952 20:0.0 21:-1.0186213254928589 22:-0.9906247854232788 23:-0.9159539341926575 24:-1.0199120044708252 25:0.0 26:0.0 27:0.0 28:-1.0196329355239868 29:-0.9496466517448425 30:-1.0196261405944824 31:-0.9573931097984314 32:-0.9597697854042053 33:-1.0196298360824585 34:0.0
0.03848975487844385 1:-0.9947086572647095 2:-0.9866790771484375 3:-1.019810676574707 4:-1.019538164138794 5:-0.9507865309715271 6:-1.0132912397384644 7:-1.0090104341506958 8:-1.0069031715393066 9:-0.9961655735969543 10:0.0 11:-0.9749539494514465 12:-0.9948815107345581 13:-1.0196014642715454 14:0.0 15:-1.018895149230957 16:-0.9954487085342407 17:-0.9970505833625793 18:0.0 19:-1.0154060125350952 20:0.0 21:-1.0048831701278687 22:-0.86637943983078 23:-0.8534197211265564 24:-0.9806845784187317 25:0.0 26:0.0 27:0.0 28:-1.0196329355239868 29:-1.0195341110229492 30:-1.0196261405944824 31:-1.0196328163146973 32:-1.0196453332901 33:-1.0196298360824585 34:0.0
0.03848975487844385 1:-0.9983679056167603 2:-0.9925219416618347 3:-1.019810676574707 4:-1.019538164138794 5:-0.9883052110671997 6:-1.0178054571151733 7:-1.0135328769683838 8:-1.0126711130142212 9:-1.0200343132019043 10:0.0 11:-1.0199882984161377 12:-1.0200495719909668 13:-0.9505447149276733 14:0.0 15:-0.8819685578346252 16:-0.9954487085342407 17:-0.9970505833625793 18:0.0 19:-1.0154060125350952 20:0.0 21:-1.0056685209274292 22:-0.9913967251777649 23:-0.916242778301239 24:-1.0199120044708252 25:0.0 26:0.0 27:0.0 28:-1.0196329355239868 29:-0.9496466517448425 30:-0.9555460810661316 31:-1.0196328163146973 32:-0.9597697854042053 33:-0.9556678533554077 34:0.0
-0.03848975487844385 1:-0.9924641251564026 2:-0.9850891828536987 3:-0.9854757785797119 4:-0.9762834310531616 5:-0.9967907071113586 6:-0.8809143900871277 7:-0.9967495799064636 8:-0.9747645854949951 9:-0.9961655735969543 10:0.0 11:-1.0135548114776611 12:-0.9948815107345581 13:-0.9505447149276733 14:0.0 15:-1.018895149230957 16:-0.9954487085342407 17:-0.9970505833625793 18:0.0 19:-1.0154060125350952 20:0.0 21:-1.0140399932861328 22:-0.9582565426826477 23:-0.9900965690612793 24:-0.9806845784187317 25:0.0 26:0.0 27:0.0 28:-0.956371009349823 29:-0.9496466517448425 30:-0.9555460810661316 31:-0.9573931097984314 32:-0.9597697854042053 33:-0.9556678533554077 34:0.0
0.03848975487844385 1:-1.007628321647644 2:-1.0108853578567505 3:-1.019810676574707 4:-1.019538164138794 5:-1.0198267698287964 6:-1.0180494785308838 7:-1.0134756565093994 8:-1.0164328813552856 9:-0.9961655735969543 10:0.0 11:-0.9846041798591614 12:-0.9948815107345581 13:-1.0196014642715454 14:0.0 15:-0.8819685578346252 16:-0.9954487085342407 17:-0.9970505833625793 18:0.0 19:-1.0154060125350952 20:0.0 21:-1.0184450149536133 22:-0.9965881109237671 23:-0.9641731381416321 24:-1.0199120044708252 25:0.0 26:0.0 27:0.0 28:-1.0196329355239868 29:-1.0195341110229492 30:-1.0196261405944824 31:-1.0196328163146973 32:-1.0196453332901 33:-1.0196298360824585 34:0.0
-0.03848975487844385 1:-1.0012898445129395 2:-1.0069503784179688 3:-0.9953764081001282 4:-1.019538164138794 5:-1.0198267698287964 6:-0.9842537641525269 7:-1.0008631944656372 8:-1.0167597532272339 9:-0.9961655735969543 10:0.0 11:-0.9974710941314697 12:-0.9948815107345581 13:-1.0196014642715454 14:0.0 15:-1.018895149230957 16:-0.9954487085342407 17:-0.9970505833625793 18:0.0 19:-1.0154060125350952 20:0.0 21:-0.9995501637458801 22:-1.0120412111282349 23:-1.0147695541381836 24:-0.9806845784187317 25:0.0 26:0.0 27:0.0 28:-0.956371009349823 29:-0.8797592520713806 30:-0.9555460810661316 31:-0.9573931097984314 32:-0.9597697854042053 33:-0.9556678533554077 34:0.0
0.03848975487844385 1:-1.0058058500289917 2:-1.0033730268478394 3:-1.019810676574707 4:-1.019538164138794 5:-0.9982852935791016 6:-1.0160974264144897 7:-1.012649655342102 8:-1.017140507698059 9:-0.9961655735969543 10:0.0 11:-1.0039045810699463 12:-0.9948815107345581 13:-1.0196014642715454 14:0.0 15:-1.018895149230957 16:-0.9954487085342407 17:-0.9970505833625793 18:0.0 19:-1.0154060125350952 20:0.0 21:-1.0127991437911987 22:-0.9747232794761658 23:-0.9451054334640503 24:-1.0199120044708252 25:0.0 26:0.0 27:0.0 28:-1.0196329355239868 29:-1.0195341110229492 30:-0.9555460810661316 31:-1.0196328163146973 32:-0.9597697854042053 33:-0.9556678533554077 34:0.0
-0.03848975487844385 1:-1.0037221908569336 2:-1.004764199256897 3:-0.9913992881774902 4:-1.0023982524871826 5:-1.0103932619094849 6:-0.9895000457763672 7:-1.0043822526931763 8:-1.0005215406417847 9:-1.0200343132019043 10:0.0 11:-1.0199882984161377 12:-1.0200495719909668 13:-1.0196014642715454 14:0.0 15:-0.8819685578346252 16:-0.9954487085342407 17:-0.9970505833625793 18:0.0 19:-1.0154060125350952 20:0.0 21:-0.9983928203582764 22:-1.0119550228118896 23:-1.0147625207901 24:-0.9806845784187317 25:0.0 26:0.0 27:0.0 28:-1.0196329355239868 29:-1.0195341110229492 30:-1.0196261405944824 31:-1.0196328163146973 32:-1.0196453332901 33:-1.0196298360824585 34:0.0
0.03848975487844385 1:-1.0025568008422852 2:-1.003864049911499 3:-0.9947720170021057 4:-1.0042755603790283 5:-1.0103932619094849 6:-1.0178054571151733 7:-1.006917119026184 8:-1.012854814529419 9:-0.9961655735969543 10:0.0 11:-0.971737265586853 12:-0.9948815107345581 13:-0.9505447149276733 14:0.0 15:-1.018895149230957 16:-0.9954487085342407 17:-0.9970505833625793 18:0.0 19:-1.0154060125350952 20:0.0 21:-0.9729847311973572 22:-1.0167319774627686 23:-1.0149503946304321 24:-1.0199120044708252 25:0.0 26:0.0 27:0.0 28:-0.956371009349823 29:-1.0195341110229492 30:-0.9555460810661316 31:-0.9573931097984314 32:-0.9597697854042053 33:-0.9556678533554077 34:0.0
-0.03848975487844385 1:-0.9865603446960449 2:-0.9847528338432312 3:-0.9301306009292603 4:-0.8860682845115662 5:-0.954226016998291 6:-1.0156093835830688 7:-0.9827840924263 8:-0.9861527681350708 9:-0.9961655735969543 10:0.0 11:-0.9942543506622314 12:-0.9948815107345581 13:-0.9505447149276733 14:0.0 15:-1.018895149230957 16:-0.9954487085342407 17:-0.9970505833625793 18:0.0 19:-1.0154060125350952 20:0.0 21:-1.004492998123169 22:-0.9928338527679443 23:-1.012669324874878 24:-0.9806845784187317 25:0.0 26:0.0 27:0.0 28:-0.956371009349823 29:-0.9496466517448425 30:-0.9555460810661316 31:-0.9573931097984314 32:-0.9597697854042053 33:-0.9556678533554077 34:0.0
-0.03848975487844385 1:-1.0012898445129395 2:-1.0028513669967651 3:-0.9914796948432922 4:-1.002442479133606 5:-1.0103932619094849 6:-0.948871910572052 7:-0.9875993728637695 8:-1.0055418014526367 9:-0.9961655735969543 10:0.0 11:-1.0071213245391846 12:-0.9948815107345581 13:-1.0196014642715454 14:0.0 15:-1.018895149230957 16:-0.9954487085342407 17:-0.9970505833625793 18:0.0 19:-1.0154060125350952 20:0.0 21:-0.9894074201583862 22:-1.001432180404663 23:-1.0106643438339233 24:-0.9806845784187317 25:0.0 26:0.0 27:0.0 28:-0.956371009349823 29:-0.9496466517448425 30:-0.9555460810661316 31:-0.9573931097984314 32:-0.9597697854042053 33:-0.9556678533554077 34:0.0
-0.03848975487844385 1:-0.9983679056167603 2:-1.000391960144043 3:-0.9909279346466064 4:-1.0021389722824097 5:-1.0103932619094849 6:-0.9952343106269836 7:-1.0103949308395386 8:-1.0180567502975464 9:-0.972296953201294 10:0.0 11:-0.9685205221176147 12:-0.9948815107345581 13:-1.0196014642715454 14:0.0 15:-1.018895149230957 16:-0.9954487085342407 17:-0.9970505833625793 18:0.0 19:-1.0154060125350952 20:0.0 21:-0.994951069355011 22:-0.886121928691864 23:-0.9895056486129761 24:-0.9806845784187317 25:0.0 26:0.0 27:0.0 28:-0.956371009349823 29:-0.9496466517448425 30:-0.9555460810661316 31:-0.9573931097984314 32:-0.9597697854042053 33:-0.9556678533554077 34:0.0
-0.03848975487844385 1:-0.9898094534873962 2:-0.9843604564666748 3:-0.9721190333366394 4:-0.9209753274917603 5:-0.9608955383300781 6:-1.0174394845962524 7:-0.9819114804267883 8:-1.0038200616836548 9:-0.9961655735969543 10:0.0 11:-0.9781706929206848 12:-0.9948815107345581 13:-1.0196014642715454 14:0.0 15:-1.018895149230957 16:-0.9954487085342407 17:-0.9970505833625793 18:0.0 19:-1.0154060125350952 20:0.0 21:-1.0106374025344849 22:-1.0030782222747803 23:-0.9851943254470825 24:-0.9806845784187317 25:0.0 26:0.0 27:0.0 28:-0.956371009349823 29:-1.0195341110229492 30:-0.9555460810661316 31:-0.9573931097984314 32:-0.9597697854042053 33:-0.9556678533554077 34:0.0
-0.03848975487844385 1:-0.9947086572647095 2:-0.9894614219665527 3:-0.9838302731513977 4:-0.9628984332084656 5:-0.9883052110671997 6:-1.014633297920227 7:-0.9818294048309326 8:-0.9895834922790527 9:-0.9961655735969543 10:0.0 11:-1.0103380680084229 12:-0.9948815107345581 13:-1.0196014642715454 14:0.0 15:-1.018895149230957 16:-0.9954487085342407 17:-0.9970505833625793 18:0.0 19:-1.0154060125350952 20:0.0 21:-0.9892901182174683 22:-1.0101374387741089 23:-1.0145201683044434 24:-0.9806845784187317 25:0.0 26:0.0 27:0.0 28:-0.956371009349823 29:-0.9496466517448425 30:-0.9555460810661316 31:-0.9573931097984314 32:-0.9597697854042053 33:-0.9556678533554077 34:0.0
0.03848975487844385 1:-1.0058058500289917 2:-1.009865164756775 3:-0.9994128346443176 4:-1.019538164138794 5:-1.0198267698287964 6:-1.0179275274276733 7:-1.01641047000885 8:-1.0198363065719604 9:-1.0200343132019043 10:0.0 11:-1.0199882984161377 12:-1.0200495719909668 13:-0.9505447149276733 14:0.0 15:-1.018895149230957 16:-0.9954487085342407 17:-0.9970505833625793 18:0.0 19:-1.0154060125350952 20:0.0 21:-0.997553288936615 22:-1.0088274478912354 23:-1.013877272605896 24:-1.0199120044708252 25:0.0 26:0.0 27:0.0 28:-1.0196329355239868 29:-1.0195341110229492 30:-1.0196261405944824 31:-1.0196328163146973 32:-1.0196453332901 33:-1.0196298360824585 34:0.0
0.03848975487844385 1:-1.0048012733459473 2:-1.0025781393051147 3:-1.019810676574707 4:-1.019538164138794 5:-0.9982852935791016 6:-1.0179275274276733 7:-1.017031192779541 8:-1.0198363065719604 9:-1.0200343132019043 10:0.0 11:-1.0199882984161377 12:-1.0200495719909668 13:-0.9505447149276733 14:0.0 15:-1.018895149230957 16:-0.9954487085342407 17:-0.9970505833625793 18:0.0 19:-1.0154060125350952 20:0.0 21:-0.9961246252059937 22:-0.9985477328300476 23:-0.9854962229728699 24:-1.0199120044708252 25:0.0 26:0.0 27:0.0 28:-1.0196329355239868 29:-1.0195341110229492 30:-1.0196261405944824 31:-1.0196328163146973 32:-1.0196453332901 33:-1.0196298360824585 34:0.0
0.03848975487844385 1:-1.0058058500289917 2:-1.009865164756775 3:-1.019810676574707 4:-1.019538164138794 5:-1.0198267698287964 6:-1.0181715488433838 7:-1.0149204730987549 8:-1.0144975185394287 9:-0.9961655735969543 10:0.0 11:-0.9846041798591614 12:-0.9948815107345581 13:-0.9505447149276733 14:0.0 15:-1.018895149230957 16:-0.9954487085342407 17:-0.9970505833625793 18:0.0 19:-1.0154060125350952 20:0.0 21:-1.0117207765579224 22:-1.0136544704437256 23:-1.013962984085083 24:-1.0199120044708252 25:0.0 26:0.0 27:0.0 28:-1.0196329355239868 29:-1.0195341110229492 30:-1.0196261405944824 31:-1.0196328163146973 32:-1.0196453332901 33:-1.0196298360824585 34:0.0
0.03848975487844385 1:-0.9983679056167603 2:-0.9925219416618347 3:-1.019810676574707 4:-1.019538164138794 5:-0.9883052110671997 6:-1.0178054571151733 7:-1.0135328769683838 8:-1.0135771036148071 9:-1.0200343132019043 10:0.0 11:-1.0199882984161377 12:-1.0200495719909668 13:-0.9505447149276733 14:0.0 15:-0.8819685578346252 16:-0.9954487085342407 17:-0.9970505833625793 18:0.0 19:-1.0154060125350952 20:0.0 21:-1.0051957368850708 22:-0.9973021149635315 23:-0.9643868803977966 24:-1.0199120044708252 25:0.0 26:0.0 27:0.0 28:-1.0196329355239868 29:-1.0195341110229492 30:-1.0196261405944824 31:-1.0196328163146973 32:-1.0196453332901 33:-1.0196298360824585 34:0.0
0.03848975487844385 1:-0.999902069568634 2:-0.9938336610794067 3:-1.019810676574707 4:-1.019538164138794 5:-0.9883052110671997 6:-1.0180494785308838 7:-1.0079790353775024 8:-1.0119059085845947 9:-1.0200343132019043 10:0.0 11:-1.0199882984161377 12:-1.0200495719909668 13:-0.9505447149276733 14:0.0 15:-1.018895149230957 16:-0.9954487085342407 17:-0.9970505833625793 18:0.0 19:-1.0154060125350952 20:0.0 21:-1.0188757181167603 22:-0.9963682889938354 23:-0.9641519784927368 24:-1.0199120044708252 25:0.0 26:0.0 27:0.0 28:-1.0196329355239868 29:-1.0195341110229492 30:-1.0196261405944824 31:-1.0196328163146973 32:-1.0196453332901 33:-1.0196298360824585 34:0.0
-0.03848975487844385 1:-0.9865603446960449 2:-0.9807169437408447 3:-1.019810676574707 4:-1.019538164138794 5:-0.9084676504135132 6:-1.0178054571151733 7:-0.960371732711792 8:-1.0055060386657715 9:-1.0200343132019043 10:0.0 11:-1.0199882984161377 12:-1.0200495719909668 13:-0.9505447149276733 14:0.0 15:-1.018895149230957 16:-0.9954487085342407 17:-0.9970505833625793 18:0.0 19:-1.0154060125350952 20:0.0 21:-1.0008723735809326 22:-1.0150090456008911 23:-1.0148851871490479 24:-1.0199120044708252 25:0.0 26:0.0 27:0.0 28:-1.0196329355239868 29:-1.0195341110229492 30:-1.0196261405944824 31:-1.0196328163146973 32:-1.0196453332901 33:-1.0196298360824585 34:0.0
0.03848975487844385 1:-0.9924641251564026 2:-0.9862397313117981 3:-0.9672830700874329 4:-0.9341065883636475 5:-0.9788870811462402 6:-0.962536633014679 7:-1.0143743753433228 8:-0.9869117140769958 9:-0.9484282732009888 10:0.0 11:-1.0071213245391846 12:-0.9948815107345581 13:-0.9505447149276733 14:0.0 15:-1.018895149230957 16:-0.9954487085342407 17:-0.9970505833625793 18:0.0 19:-1.0154060125350952 20:0.0 21:-0.9659811854362488 22:-0.958128809928894 23:-0.9764807224273682 24:-0.9806845784187317 25:0.0 26:0.0 27:0.0 28:-0.8931090831756592 29:-0.8797592520713806 30:-0.8914660811424255 31:-0.8951534032821655 32:-0.8998942375183105 33:-0.8917058110237122 34:0.0
-0.03848975487844385 1:-0.9947086572647095 2:-0.9894614219665527 3:-1.019810676574707 4:-1.019538164138794 5:-0.9896488785743713 6:-0.9558262825012207 7:-1.0145729780197144 8:-1.0156443119049072 9:-0.9961655735969543 10:0.0 11:-1.0039045810699463 12:-0.9948815107345581 13:-0.9505447149276733 14:0.0 15:-0.8819685578346252 16:-0.9954487085342407 17:-0.9970505833625793 18:0.0 19:-1.0154060125350952 20:0.0 21:-1.0169683694839478 22:-0.8315013647079468 23:-0.713540256023407 24:-1.0199120044708252 25:0.0 26:0.0 27:0.0 28:-1.0196329355239868 29:-1.0195341110229492 30:-1.0196261405944824 31:-1.0196328163146973 32:-1.0196453332901 33:-1.0196298360824585 34:0.0
-0.03848975487844385 1:-1.0067455768585205 2:-1.004098892211914 3:-1.019810676574707 4:-1.019538164138794 5:-0.9982852935791016 6:-1.0143892765045166 7:-0.9166963696479797 8:-0.9201298952102661 9:-0.9961655735969543 10:0.0 11:-1.0039045810699463 12:-0.9948815107345581 13:-0.9505447149276733 14:0.0 15:-0.8819685578346252 16:-0.9954487085342407 17:-0.9970505833625793 18:0.0 19:-1.0154060125350952 20:0.0 21:-0.9628525972366333 22:-1.007362961769104 23:-1.0073851346969604 24:-1.0199120044708252 25:0.0 26:0.0 27:0.0 28:-1.0196329355239868 29:-1.0195341110229492 30:-1.0196261405944824 31:-1.0196328163146973 32:-1.0196453332901 33:-1.0196298360824585 34:0.0
-0.03848975487844385 1:-1.0037221908569336 2:-1.0017036199569702 3:-1.019810676574707 4:-1.019538164138794 5:-1.0056756734848022 6:-1.0181715488433838 7:-1.018580675125122 8:-1.0198363065719604 9:-1.0200343132019043 10:0.0 11:-1.0199882984161377 12:-1.0200495719909668 13:-0.9505447149276733 14:0.0 15:-0.8819685578346252 16:-0.9954487085342407 17:-0.9970505833625793 18:0.0 19:-1.0154060125350952 20:0.0 21:-1.0101298093795776 22:-1.015613079071045 23:-1.0147050619125366 24:-0.9806845784187317 25:0.0 26:0.0 27:0.0 28:-1.0196329355239868 29:-1.0195341110229492 30:-1.0196261405944824 31:-1.0196328163146973 32:-1.0196453332901 33:-1.0196298360824585 34:0.0
-0.03848975487844385 1:-0.9983679056167603 2:-0.9908525943756104 3:-1.019810676574707 4:-1.019538164138794 5:-0.9788870811462402 6:-1.017195463180542 7:-1.0059274435043335 8:-1.0087230205535889 9:-0.9961655735969543 10:0.0 11:-0.9942543506622314 12:-0.9948815107345581 13:-0.9505447149276733 14:0.0 15:-0.8819685578346252 16:-0.9954487085342407 17:-0.9970505833625793 18:0.0 19:-1.0154060125350952 20:0.0 21:-1.0100287199020386 22:-1.0164790153503418 23:-1.0149235725402832 24:-1.0199120044708252 25:0.0 26:0.0 27:0.0 28:-1.0196329355239868 29:-1.0195341110229492 30:-1.0196261405944824 31:-1.0196328163146973 32:-1.0196453332901 33:-1.0196298360824585 34:0.0
-0.03848975487844385 1:-0.9966529607772827 2:-0.9910722374916077 3:-1.019810676574707 4:-1.019538164138794 5:-0.9883052110671997 6:-1.0073130130767822 7:-0.9751681685447693 8:-0.9744570851325989 9:-0.972296953201294 10:0.0 11:-1.000687837600708 12:-0.9948815107345581 13:-0.9505447149276733 14:0.0 15:-0.8819685578346252 16:-0.9954487085342407 17:-0.9970505833625793 18:0.0 19:-1.0154060125350952 20:0.0 21:-1.0060524940490723 22:-1.0117571353912354 23:-1.0144466161727905 24:-0.9806845784187317 25:0.0 26:0.0 27:0.0 28:-1.0196329355239868 29:-1.0195341110229492 30:-1.0196261405944824 31:-1.0196328163146973 32:-1.0196453332901 33:-1.0196298360824585 34:0.0
0.03848975487844385 1:-0.9947086572647095 2:-0.9938336610794067 3:-0.9732469916343689 4:-0.9555591940879822 5:-0.9908003807067871 6:-1.0067028999328613 7:-1.0089125633239746 8:-0.9972323179244995 9:-0.972296953201294 10:0.0 11:-0.9910376667976379 12:-0.9948815107345581 13:-1.0196014642715454 14:0.0 15:-1.018895149230957 16:-0.9954487085342407 17:-0.9970505833625793 18:0.0 19:-1.0154060125350952 20:0.0 21:-1.0071520805358887 22:-0.9458245635032654 23:-1.0052708387374878 24:-0.9806845784187317 25:0.0 26:0.0 27:0.0 28:-0.956371009349823 29:-0.8797592520713806 30:-0.8914660811424255 31:-0.8951534032821655 32:-0.8400186896324158 33:-0.8917058110237122 34:0.0
0.03848975487844385 1:-0.9924641251564026 2:-0.9876610636711121 3:-0.9640165567398071 4:-0.912316083908081 5:-0.9597676992416382 6:-0.9970644116401672 7:-1.0070327520370483 8:-0.9929922223091125 9:-0.972296953201294 10:0.0 11:-0.9878209233283997 12:-0.9948815107345581 13:-0.9505447149276733 14:0.0 15:-1.018895149230957 16:-0.9954487085342407 17:-0.9970505833625793 18:0.0 19:-1.0154060125350952 20:0.0 21:-0.9977830648422241 22:-1.0153164863586426 23:-1.0148545503616333 24:-0.9806845784187317 25:0.0 26:0.0 27:0.0 28:-0.8931090831756592 29:-0.8797592520713806 30:-0.8914660811424255 31:-0.8951534032821655 32:-0.8998942375183105 33:-0.8917058110237122 34:0.0
0.03848975487844385 1:-0.9983679056167603 2:-0.9971128106117249 3:-0.9741402268409729 4:-0.9453265070915222 5:-0.9826486706733704 6:-1.0128031969070435 7:-1.0051461458206177 8:-1.004970669746399 9:-0.972296953201294 10:0.0 11:-0.9878209233283997 12:-0.9948815107345581 13:-0.9505447149276733 14:0.0 15:-1.018895149230957 16:-0.9954487085342407 17:-0.9970505833625793 18:0.0 19:-1.0154060125350952 20:0.0 21:-0.9931877255439758 22:-1.0021131038665771 23:-1.0136610269546509 24:-0.9806845784187317 25:0.0 26:0.0 27:0.0 28:-0.8931090831756592 29:-0.8797592520713806 30:-0.8914660811424255 31:-0.8951534032821655 32:-0.8998942375183105 33:-0.8917058110237122 34:0.0
0.03848975487844385 1:-0.9983679056167603 2:-1.000391960144043 3:-0.9861321449279785 4:-0.9995424747467041 5:-1.0103932619094849 6:-0.9552162885665894 7:-1.0085123777389526 8:-0.9870087504386902 9:-0.9484282732009888 10:0.0 11:-1.0071213245391846 12:-0.9697133302688599 13:-1.0196014642715454 14:0.0 15:-1.018895149230957 16:-0.9954487085342407 17:-0.9970505833625793 18:0.0 19:-1.0154060125350952 20:0.0 21:-0.9794366359710693 22:-0.9501256942749023 23:-0.9993664026260376 24:-0.9806845784187317 25:0.0 26:0.0 27:0.0 28:-0.8931090831756592 29:-0.9496466517448425 30:-0.8914660811424255 31:-0.9573931097984314 32:-0.8998942375183105 33:-0.8917058110237122 34:0.0
0.03848975487844385 1:-1.0037221908569336 2:-1.0085899829864502 3:-0.9896308183670044 4:-1.019538164138794 5:-1.0198267698287964 6:-1.0027986764907837 7:-1.005960464477539 8:-0.99482661485672 9:-0.9961655735969543 10:0.0 11:-0.9878209233283997 12:-0.9948815107345581 13:-1.0196014642715454 14:0.0 15:-1.018895149230957 16:-0.9954487085342407 17:-0.9970505833625793 18:0.0 19:-1.0154060125350952 20:0.0 21:-1.0009920597076416 22:-1.011582851409912 23:-1.0144582986831665 24:-0.9806845784187317 25:0.0 26:0.0 27:0.0 28:-0.956371009349823 29:-0.9496466517448425 30:-0.8914660811424255 31:-0.8951534032821655 32:-0.8998942375183105 33:-0.8917058110237122 34:0.0
-0.03848975487844385 1:-1.008460521697998 2:-1.0113226175308228 3:-0.9947131276130676 4:-1.019538164138794 5:-1.0198267698287964 6:-0.9779094457626343 7:-1.0086382627487183 8:-1.0087981224060059 9:-0.9961655735969543 10:0.0 11:-1.0039045810699463 12:-0.9948815107345581 13:-1.0196014642715454 14:0.0 15:-1.018895149230957 16:-0.9954487085342407 17:-0.9970505833625793 18:0.0 19:-1.0154060125350952 20:0.0 21:-1.0126516819000244 22:-1.0065912008285522 23:-1.0136843919754028 24:-0.9806845784187317 25:0.0 26:0.0 27:0.0 28:-0.956371009349823 29:-0.8797592520713806 30:-0.9555460810661316 31:-0.9573931097984314 32:-0.9597697854042053 33:-0.9556678533554077 34:0.0
0.03848975487844385 1:-0.9865603446960449 2:-0.9807169437408447 3:-1.019810676574707 4:-1.019538164138794 5:-0.9232243299484253 6:-1.0132912397384644 7:-0.9860796332359314 8:-0.9768454432487488 9:-0.9961655735969543 10:0.0 11:-1.000687837600708 12:-0.9948815107345581 13:-0.9505447149276733 14:0.0 15:-0.8819685578346252 16:-0.9954487085342407 17:-0.9970505833625793 18:0.0 19:-1.0154060125350952 20:0.0 21:-1.0141379833221436 22:-0.9475086331367493 23:-0.8296247124671936 24:-0.9806845784187317 25:0.0 26:0.0 27:0.0 28:-1.0196329355239868 29:-1.0195341110229492 30:-1.0196261405944824 31:-1.0196328163146973 32:-1.0196453332901 33:-1.0196298360824585 34:0.0
-0.03848975487844385 1:-0.999902069568634 2:-0.9959046840667725 3:-0.9859691858291626 4:-0.9708319902420044 5:-0.9925445914268494 6:-1.013169288635254 7:-1.0111948251724243 8:-1.0198363065719604 9:-0.9961655735969543 10:0.0 11:-1.0039045810699463 12:-0.9948815107345581 13:-1.0196014642715454 14:0.0 15:-1.018895149230957 16:-0.9954487085342407 17:-0.9970505833625793 18:0.0 19:-1.0154060125350952 20:0.0 21:-1.0051243305206299 22:-1.0076771974563599 23:-1.0135003328323364 24:-0.9806845784187317 25:0.0 26:0.0 27:0.0 28:-0.956371009349823 29:-1.0195341110229492 30:-0.9555460810661316 31:-0.8951534032821655 32:-0.8998942375183105 33:-0.9556678533554077 34:0.0
0.03848975487844385 1:-1.0037221908569336 2:-1.0085899829864502 3:-1.019810676574707 4:-1.019538164138794 5:-1.0198267698287964 6:-1.0174394845962524 7:-1.016678810119629 8:-0.9847040176391602 9:-0.9961655735969543 10:0.0 11:-1.000687837600708 12:-0.9948815107345581 13:-1.0196014642715454 14:0.0 15:-0.8819685578346252 16:-0.9954487085342407 17:-0.9970505833625793 18:0.0 19:-1.0154060125350952 20:0.0 21:-1.0150237083435059 22:-1.0173650979995728 23:-1.0149309635162354 24:-1.0199120044708252 25:0.0 26:0.0 27:0.0 28:-1.0196329355239868 29:-1.0195341110229492 30:-1.0196261405944824 31:-1.0196328163146973 32:-1.0196453332901 33:-1.0196298360824585 34:0.0
-0.03848975487844385 1:-0.999902069568634 2:-1.0017036199569702 3:-0.9922413229942322 4:-1.0028632879257202 5:-1.0103932619094849 6:-1.0157314538955688 7:-1.0035855770111084 8:-1.0063451528549194 9:-0.972296953201294 10:0.0 11:-0.9910376667976379 12:-0.9948815107345581 13:-1.0196014642715454 14:0.0 15:-1.018895149230957 16:-0.9954487085342407 17:-0.9970505833625793 18:0.0 19:-1.0154060125350952 20:0.0 21:-0.992542564868927 22:-1.0151066780090332 23:-1.0149123668670654 24:-0.9806845784187317 25:0.0 26:0.0 27:0.0 28:-0.8931090831756592 29:-0.9496466517448425 30:-0.9555460810661316 31:-0.9573931097984314 32:-0.9597697854042053 33:-0.9556678533554077 34:0.0
0.03848975487844385 1:-1.0048012733459473 2:-1.0092650651931763 3:-1.019810676574707 4:-1.019538164138794 5:-1.0198267698287964 6:-1.0170735120773315 7:-1.018169641494751 8:-0.9895834922790527 9:-0.9961655735969543 10:0.0 11:-1.0071213245391846 12:-0.9948815107345581 13:-1.0196014642715454 14:0.0 15:-0.8819685578346252 16:-0.9954487085342407 17:-0.9970505833625793 18:0.0 19:-1.0154060125350952 20:0.0 21:-0.9945592284202576 22:-1.0085043907165527 23:-1.012624740600586 24:-1.0199120044708252 25:0.0 26:0.0 27:0.0 28:-1.0196329355239868 29:-1.0195341110229492 30:-1.0196261405944824 31:-1.0196328163146973 32:-1.0196453332901 33:-1.0196298360824585 34:0.0
-0.03848975487844385 1:-0.9983679056167603 2:-1.004764199256897 3:-1.019810676574707 4:-1.019538164138794 5:-1.0198267698287964 6:-1.0153653621673584 7:-1.013441562652588 8:-1.0190166234970093 9:-0.9961655735969543 10:0.0 11:-0.9878209233283997 12:-0.9948815107345581 13:-1.0196014642715454 14:0.0 15:-1.018895149230957 16:-0.9954487085342407 17:-0.9970505833625793 18:0.0 19:-1.0154060125350952 20:0.0 21:-1.0121182203292847 22:-0.9667981266975403 23:-0.9992338418960571 24:-1.0199120044708252 25:0.0 26:0.0 27:0.0 28:-1.0196329355239868 29:-0.8797592520713806 30:-0.9555460810661316 31:-0.9573931097984314 32:-0.9597697854042053 33:-0.9556678533554077 34:0.0
0.03848975487844385 1:-1.0037221908569336 2:-1.004764199256897 3:-1.019810676574707 4:-1.019538164138794 5:-1.0103932619094849 6:-1.017683506011963 7:-1.0086331367492676 8:-0.9676984548568726 9:-1.0200343132019043 10:0.0 11:-1.0199882984161377 12:-1.0200495719909668 13:-1.0196014642715454 14:0.0 15:-0.8819685578346252 16:-0.9954487085342407 17:-0.9970505833625793 18:0.0 19:-1.0154060125350952 20:0.0 21:-1.008667230606079 22:-1.016196370124817 23:-1.014824628829956 24:-0.9806845784187317 25:0.0 26:0.0 27:0.0 28:-1.0196329355239868 29:-1.0195341110229492 30:-1.0196261405944824 31:-1.0196328163146973 32:-1.0196453332901 33:-1.0196298360824585 34:0.0
-0.03848975487844385 1:-0.9924641251564026 2:-0.9894614219665527 3:-0.9729613661766052 4:-0.948811948299408 5:-0.986236572265625 6:-0.989378035068512 7:-0.9808026552200317 8:-0.9689565896987915 9:-1.0200343132019043 10:0.0 11:-1.0199882984161377 12:-1.0200495719909668 13:-0.9505447149276733 14:0.0 15:-1.018895149230957 16:-0.9954487085342407 17:-0.9970505833625793 18:0.0 19:-1.0154060125350952 20:0.0 21:-1.0016520023345947 22:-1.0044400691986084 23:-1.011915922164917 24:-0.9806845784187317 25:0.0 26:0.0 27:0.0 28:-0.956371009349823 29:-0.9496466517448425 30:-0.9555460810661316 31:-0.9573931097984314 32:-0.9597697854042053 33:-0.9556678533554077 34:0.0
0.03848975487844385 1:-0.999902069568634 2:-0.9921227693557739 3:-1.019810676574707 4:-1.019538164138794 5:-0.9788870811462402 6:-1.0154874324798584 7:-1.0063194036483765 8:-1.0000016689300537 9:-0.9961655735969543 10:0.0 11:-1.0039045810699463 12:-0.9948815107345581 13:-0.9505447149276733 14:0.0 15:-1.018895149230957 16:-0.9954487085342407 17:-0.9970505833625793 18:0.0 19:-1.0154060125350952 20:0.0 21:-1.0146520137786865 22:-0.9881900548934937 23:-0.906268835067749 24:-0.9806845784187317 25:0.0 26:0.0 27:0.0 28:-1.0196329355239868 29:-1.0195341110229492 30:-1.0196261405944824 31:-1.0196328163146973 32:-1.0196453332901 33:-1.0196298360824585 34:0.0
-0.03848975487844385 1:-1.0012898445129395 2:-1.0028513669967651 3:-0.9963929653167725 4:-1.0051919221878052 5:-1.0103932619094849 6:-0.9588764309883118 7:-1.012747883796692 8:-1.0198363065719604 9:-0.9961655735969543 10:0.0 11:-1.0039045810699463 12:-0.9948815107345581 13:-1.0196014642715454 14:0.0 15:-1.018895149230957 16:-0.9954487085342407 17:-0.9970505833625793 18:0.0 19:-1.0154060125350952 20:0.0 21:-0.9911540746688843 22:-1.0167051553726196 23:-1.01490318775177 24:-1.0199120044708252 25:0.0 26:0.0 27:0.0 28:-0.956371009349823 29:-0.9496466517448425 30:-0.9555460810661316 31:-0.9573931097984314 32:-0.9597697854042053 33:-0.9556678533554077 34:0.0
0.03848975487844385 1:-1.0048012733459473 2:-1.0092650651931763 3:-0.9961667060852051 4:-1.019538164138794 5:-1.0198267698287964 6:-1.017683506011963 7:-1.0138834714889526 8:-1.008250117301941 9:-0.9961655735969543 10:0.0 11:-1.0135548114776611 12:-0.9948815107345581 13:-1.0196014642715454 14:0.0 15:-1.018895149230957 16:-0.9954487085342407 17:-0.9970505833625793 18:0.0 19:-1.0154060125350952 20:0.0 21:-1.0092899799346924 22:-1.006206750869751 23:-1.0117543935775757 24:-1.0199120044708252 25:0.0 26:0.0 27:0.0 28:-1.0196329355239868 29:-1.0195341110229492 30:-1.0196261405944824 31:-1.0196328163146973 32:-1.0196453332901 33:-1.0196298360824585 34:0.0
-0.03848975487844385 1:-0.9947086572647095 2:-0.9866790771484375 3:-1.019810676574707 4:-1.019538164138794 5:-0.9669650793075562 6:-1.0052388906478882 7:-0.9950540065765381 8:-0.975821852684021 9:-0.9961655735969543 10:0.0 11:-0.9974710941314697 12:-0.9948815107345581 13:-0.9505447149276733 14:0.0 15:-1.018895149230957 16:-0.9954487085342407 17:-0.9970505833625793 18:0.0 19:-1.0154060125350952 20:0.0 21:-1.014945387840271 22:-1.004242181777954 23:-1.01229989528656 24:-1.0199120044708252 25:0.0 26:0.0 27:0.0 28:-1.0196329355239868 29:-0.9496466517448425 30:-0.9555460810661316 31:-0.9573931097984314 32:-0.9597697854042053 33:-0.9556678533554077 34:0.0
0.03848975487844385 1:-0.9947086572647095 2:-0.9938336610794067 3:-0.983102023601532 4:-0.9568864107131958 5:-0.984126627445221 6:-1.0169514417648315 7:-1.0183981657028198 8:-1.007460117340088 9:-0.9961655735969543 10:0.0 11:-0.9974710941314697 12:-0.9948815107345581 13:-1.0196014642715454 14:0.0 15:-1.018895149230957 16:-0.9954487085342407 17:-0.9970505833625793 18:0.0 19:-1.0154060125350952 20:0.0 21:-1.0142203569412231 22:-1.0162312984466553 23:-1.0148507356643677 24:-1.0199120044708252 25:0.0 26:0.0 27:0.0 28:-0.956371009349823 29:-1.0195341110229492 30:-1.0196261405944824 31:-1.0196328163146973 32:-1.0196453332901 33:-1.0196298360824585 34:0.0
-0.03848975487844385 1:-1.007628321647644 2:-1.0075465440750122 3:-0.9971814751625061 4:-1.005640983581543 5:-1.0103932619094849 6:-0.891772985458374 7:-1.010753870010376 8:-1.0034997463226318 9:-1.0200343132019043 10:0.0 11:-1.0199882984161377 12:-1.0200495719909668 13:-1.0196014642715454 14:0.0 15:-1.018895149230957 16:-0.9954487085342407 17:-0.9970505833625793 18:0.0 19:-1.0154060125350952 20:0.0 21:-0.976682722568512 22:-1.0168778896331787 23:-1.0149375200271606 24:-1.0199120044708252 25:0.0 26:0.0 27:0.0 28:-1.0196329355239868 29:-1.0195341110229492 30:-1.0196261405944824 31:-1.0196328163146973 32:-1.0196453332901 33:-1.0196298360824585 34:0.0
0.03848975487844385 1:-0.9924641251564026 2:-0.9876610636711121 3:-0.9672648906707764 4:-0.9464722275733948 5:-0.9883052110671997 6:-1.003652811050415 7:-1.0036379098892212 8:-0.9889886379241943 9:-1.0200343132019043 10:0.0 11:-1.0199882984161377 12:-1.0200495719909668 13:-0.9505447149276733 14:0.0 15:-1.018895149230957 16:-0.9954487085342407 17:-0.9970505833625793 18:0.0 19:-1.0154060125350952 20:0.0 21:-1.0091661214828491 22:-0.8856840133666992 23:-0.8749063611030579 24:-1.0199120044708252 25:0.0 26:0.0 27:0.0 28:-0.956371009349823 29:-1.0195341110229492 30:-0.9555460810661316 31:-0.9573931097984314 32:-1.0196453332901 33:-0.9556678533554077 34:0.0
-0.03848975487844385 1:-1.0012898445129395 2:-1.0028513669967651 3:-0.9950241446495056 4:-1.0044175386428833 5:-1.0103932619094849 6:-1.0170735120773315 7:-1.012020230293274 8:-1.0146989822387695 9:-0.9961655735969543 10:0.0 11:-1.000687837600708 12:-0.9948815107345581 13:-0.9505447149276733 14:0.0 15:-1.018895149230957 16:-0.9954487085342407 17:-0.9970505833625793 18:0.0 19:-1.0154060125350952 20:0.0 21:-1.0109379291534424 22:-0.8511798977851868 23:-0.469317227602005 24:-1.0199120044708252 25:0.0 26:0.0 27:0.0 28:-0.956371009349823 29:-0.9496466517448425 30:-0.9555460810661316 31:-0.9573931097984314 32:-0.9597697854042053 33:-0.9556678533554077 34:0.0
-0.03848975487844385 1:-0.9983679056167603 2:-0.9945623278617859 3:-0.9764450788497925 4:-0.9295100569725037 5:-0.9653329849243164 6:-1.0169514417648315 7:-1.0147813558578491 8:-1.0140564441680908 9:-0.9961655735969543 10:0.0 11:-0.9942543506622314 12:-0.9948815107345581 13:-0.9505447149276733 14:0.0 15:-1.018895149230957 16:-0.9954487085342407 17:-0.9970505833625793 18:0.0 19:-1.0154060125350952 20:0.0 21:-1.0137577056884766 22:-0.9133740663528442 23:-0.6743258833885193 24:-0.9806845784187317 25:0.0 26:0.0 27:0.0 28:-1.0196329355239868 29:-1.0195341110229492 30:-1.0196261405944824 31:-1.0196328163146973 32:-1.0196453332901 33:-1.0196298360824585 34:0.0
-0.03848975487844385 1:-1.0025568008422852 2:-0.9961147904396057 3:-1.019810676574707 4:-1.019538164138794 5:-0.9896488785743713 6:-1.0108511447906494 7:-0.9926470518112183 8:-1.0118516683578491 9:-0.9961655735969543 10:0.0 11:-1.0039045810699463 12:-0.9948815107345581 13:-0.9505447149276733 14:0.0 15:-1.018895149230957 16:-0.9954487085342407 17:-0.9970505833625793 18:0.0 19:-1.0154060125350952 20:0.0 21:-0.9962998628616333 22:-0.8711463809013367 23:-0.742372989654541 24:-0.9806845784187317 25:0.0 26:0.0 27:0.0 28:-1.0196329355239868 29:-1.0195341110229492 30:-1.0196261405944824 31:-1.0196328163146973 32:-1.0196453332901 33:-1.0196298360824585 34:0.0
-0.03848975487844385 1:-0.9966529607772827 2:-0.9930620789527893 3:-0.9900118112564087 4:-0.9901033043861389 5:-1.0032503604888916 6:-0.971199095249176 7:-1.0035520792007446 8:-0.9916736483573914 9:-0.9961655735969543 10:0.0 11:-0.9974710941314697 12:-0.9948815107345581 13:-1.0196014642715454 14:0.0 15:-1.018895149230957 16:-0.9954487085342407 17:-0.9970505833625793 18:0.0 19:-1.0154060125350952 20:0.0 21:-1.0168362855911255 22:-0.8954533934593201 23:-0.8327860832214355 24:-1.0199120044708252 25:0.0 26:0.0 27:0.0 28:-0.956371009349823 29:-1.0195341110229492 30:-0.9555460810661316 31:-0.9573931097984314 32:-0.9597697854042053 33:-1.0196298360824585 34:0.0
-0.03848975487844385 1:-1.0067455768585205 2:-1.0069503784179688 3:-1.019810676574707 4:-1.019538164138794 5:-1.0123909711837769 6:-1.0163414478302002 7:-1.011238694190979 8:-1.0088778734207153 9:-0.9961655735969543 10:0.0 11:-0.9846041798591614 12:-0.9948815107345581 13:-1.0196014642715454 14:0.0 15:-1.018895149230957 16:-0.9954487085342407 17:-0.9970505833625793 18:0.0 19:-1.0154060125350952 20:0.0 21:-0.9996241331100464 22:-0.8371726870536804 23:-0.7903833985328674 24:-1.0199120044708252 25:0.0 26:0.0 27:0.0 28:-1.0196329355239868 29:-1.0195341110229492 30:-1.0196261405944824 31:-1.0196328163146973 32:-1.0196453332901 33:-1.0196298360824585 34:0.0
0.03848975487844385 1:-1.0048012733459473 2:-1.005569577217102 3:-1.019810676574707 4:-1.019538164138794 5:-1.0103932619094849 6:-0.9975524544715881 7:-0.9455786943435669 8:-0.9082480669021606 9:-0.9961655735969543 10:0.0 11:-1.0103380680084229 12:-0.9948815107345581 13:-1.0196014642715454 14:0.0 15:-1.018895149230957 16:-0.9954487085342407 17:-0.9970505833625793 18:0.0 19:-1.0154060125350952 20:0.0 21:-0.9596463441848755 22:-1.0142585039138794 23:-1.0144504308700562 24:-1.0199120044708252 25:0.0 26:0.0 27:0.0 28:-1.0196329355239868 29:-1.0195341110229492 30:-1.0196261405944824 31:-1.0196328163146973 32:-1.0196453332901 33:-1.0196298360824585 34:0.0
0.03848975487844385 1:-1.0012898445129395 2:-1.0028513669967651 3:-1.019810676574707 4:-1.019538164138794 5:-1.0103932619094849 6:-1.0142673254013062 7:-0.974950909614563 8:-0.9649420976638794 9:-1.0200343132019043 10:0.0 11:-1.0199882984161377 12:-1.0200495719909668 13:-1.0196014642715454 14:0.0 15:-1.018895149230957 16:-0.9954487085342407 17:-0.9970505833625793 18:0.0 19:-1.0154060125350952 20:0.0 21:-0.9973987936973572 22:-1.0132198333740234 23:-1.0148870944976807 24:-1.0199120044708252 25:0.0 26:0.0 27:0.0 28:-1.0196329355239868 29:-1.0195341110229492 30:-1.0196261405944824 31:-1.0196328163146973 32:-1.0196453332901 33:-1.0196298360824585 34:0.0
0.03848975487844385 1:-1.0037221908569336 2:-1.004764199256897 3:-1.019810676574707 4:-1.019538164138794 5:-1.0103932619094849 6:-0.9389894008636475 7:-0.9828479886054993 8:-0.971787691116333 9:-0.9961655735969543 10:0.0 11:-1.0039045810699463 12:-0.9948815107345581 13:-1.0196014642715454 14:0.0 15:-1.018895149230957 16:-0.9954487085342407 17:-0.9970505833625793 18:0.0 19:-1.0154060125350952 20:0.0 21:-0.9738050699234009 22:-1.017295002937317 23:-1.0149554014205933 24:-1.0199120044708252 25:0.0 26:0.0 27:0.0 28:-1.0196329355239868 29:-1.0195341110229492 30:-1.0196261405944824 31:-1.0196328163146973 32:-1.0196453332901 33:-1.0196298360824585 34:0.0
0.03848975487844385 1:-1.0058058500289917 2:-1.009865164756775 3:-1.019810676574707 4:-1.019538164138794 5:-1.0198267698287964 6:-1.0180494785308838 7:-1.0174325704574585 8:-1.0107604265213013 9:-1.0200343132019043 10:0.0 11:-1.0199882984161377 12:-1.0200495719909668 13:-1.0196014642715454 14:0.0 15:-1.018895149230957 16:-0.9954487085342407 17:-0.9970505833625793 18:0.0 19:-1.0154060125350952 20:0.0 21:-1.0024957656860352 22:-1.0174623727798462 23:-1.01495361328125 24:-1.0199120044708252 25:0.0 26:0.0 27:0.0 28:-1.0196329355239868 29:-1.0195341110229492 30:-1.0196261405944824 31:-1.0196328163146973 32:-1.0196453332901 33:-1.0196298360824585 34:0.0
0.03848975487844385 1:-1.007628321647644 2:-1.0108853578567505 3:-1.019810676574707 4:-1.019538164138794 5:-1.0198267698287964 6:-1.0174394845962524 7:-1.0082290172576904 8:-1.0007292032241821 9:-0.9961655735969543 10:0.0 11:-1.000687837600708 12:-0.9948815107345581 13:-1.0196014642715454 14:0.0 15:-1.018895149230957 16:-0.9954487085342407 17:-0.9970505833625793 18:0.0 19:-1.0154060125350952 20:0.0 21:-1.0113162994384766 22:-1.0140116214752197 23:-1.0144076347351074 24:-1.0199120044708252 25:0.0 26:0.0 27:0.0 28:-1.0196329355239868 29:-1.0195341110229492 30:-1.0196261405944824 31:-1.0196328163146973 32:-1.0196453332901 33:-1.0196298360824585 34:0.0
-0.03848975487844385 1:-1.0058058500289917 2:-1.009865164756775 3:-0.9987743496894836 4:-1.019538164138794 5:-1.0198267698287964 6:-1.0169514417648315 7:-0.9961050152778625 8:-0.9789949655532837 9:-1.0200343132019043 10:0.0 11:-1.0199882984161377 12:-1.0200495719909668 13:-1.0196014642715454 14:0.0 15:-1.018895149230957 16:-0.9954487085342407 17:-0.9970505833625793 18:0.0 19:-1.0154060125350952 20:0.0 21:-0.9915415644645691 22:-1.0180168151855469 23:-1.014957308769226 24:-1.0199120044708252 25:0.0 26:0.0 27:0.0 28:-1.0196329355239868 29:-1.0195341110229492 30:-1.0196261405944824 31:-1.0196328163146973 32:-1.0196453332901 33:-1.0196298360824585 34:0.0
0.03848975487844385 1:-1.0025568008422852 2:-1.003864049911499 3:-0.9904648661613464 4:-1.001884937286377 5:-1.0103932619094849 6:-0.7234042286872864 7:-1.0183779001235962 8:-1.0187500715255737 9:-0.972296953201294 10:0.0 11:-0.9974710941314697 12:-0.9948815107345581 13:-1.0196014642715454 14:0.0 15:-1.018895149230957 16:-0.9954487085342407 17:-0.9970505833625793 18:0.0 19:-1.0154060125350952 20:0.0 21:-0.9916264414787292 22:-0.7926774621009827 23:-0.7937066555023193 24:-0.9806845784187317 25:0.0 26:0.0 27:0.0 28:-0.956371009349823 29:-0.9496466517448425 30:-1.0196261405944824 31:-0.9573931097984314 32:-0.8998942375183105 33:-1.0196298360824585 34:0.0
-0.03848975487844385 1:-1.0058058500289917 2:-1.009865164756775 3:-1.019810676574707 4:-1.019538164138794 5:-1.0198267698287964 6:-0.9550942778587341 7:-1.016399621963501 8:-0.9890126585960388 9:-0.9961655735969543 10:0.0 11:-0.9974710941314697 12:-0.9948815107345581 13:-1.0196014642715454 14:0.0 15:-1.018895149230957 16:-0.9954487085342407 17:-0.9970505833625793 18:0.0 19:-1.0154060125350952 20:0.0 21:-0.9601830244064331 22:-1.0098317861557007 23:-1.0139209032058716 24:-0.9806845784187317 25:0.0 26:0.0 27:0.0 28:-1.0196329355239868 29:-1.0195341110229492 30:-1.0196261405944824 31:-1.0196328163146973 32:-1.0196453332901 33:-1.0196298360824585 34:0.0
0.03848975487844385 1:-0.9865603446960449 2:-0.9833402633666992 3:-1.019810676574707 4:-1.019538164138794 5:-0.9883052110671997 6:-1.0054829120635986 7:-0.9394363760948181 8:-0.9898059368133545 9:-0.9961655735969543 10:0.0 11:-0.9878209233283997 12:-0.9948815107345581 13:-0.9505447149276733 14:0.0 15:-0.8819685578346252 16:-0.9954487085342407 17:-0.9970505833625793 18:0.0 19:-1.0154060125350952 20:0.0 21:-1.008375883102417 22:-0.8795636892318726 23:-0.8729788064956665 24:-0.9806845784187317 25:0.0 26:0.0 27:0.0 28:-1.0196329355239868 29:-0.9496466517448425 30:-0.9555460810661316 31:-0.9573931097984314 32:-0.9597697854042053 33:-0.9556678533554077 34:0.0
-0.03848975487844385 1:-1.0025568008422852 2:-1.003864049911499 3:-0.9893791675567627 4:-1.001292109489441 5:-1.0103932619094849 6:-1.0104851722717285 7:-0.998871386051178 8:-0.98871910572052 9:-0.9961655735969543 10:0.0 11:-1.0039045810699463 12:-0.9948815107345581 13:-1.0196014642715454 14:0.0 15:-0.8819685578346252 16:-0.9954487085342407 17:-0.9970505833625793 18:0.0 19:-1.0154060125350952 20:0.0 21:-0.9841497540473938 22:-1.0104533433914185 23:-1.0144575834274292 24:-0.9806845784187317 25:0.0 26:0.0 27:0.0 28:-0.956371009349823 29:-0.9496466517448425 30:-0.9555460810661316 31:-0.9573931097984314 32:-0.9597697854042053 33:-0.9556678533554077 34:0.0
0.03848975487844385 1:-0.9865603446960449 2:-0.9866790771484375 3:-0.9698566794395447 4:-0.9799579381942749 5:-1.0056756734848022 6:-0.9273988008499146 7:-0.9763599038124084 8:-0.9814385175704956 9:-1.0200343132019043 10:0.0 11:-1.0199882984161377 12:-1.0200495719909668 13:-1.0196014642715454 14:0.0 15:-1.018895149230957 16:-0.9954487085342407 17:-0.9970505833625793 18:0.0 19:-1.0154060125350952 20:0.0 21:-1.01284921169281 22:-0.8932796716690063 23:-0.8699725866317749 24:-1.0199120044708252 25:0.0 26:0.0 27:0.0 28:-0.956371009349823 29:-0.9496466517448425 30:-0.9555460810661316 31:-0.9573931097984314 32:-0.9597697854042053 33:-0.9556678533554077 34:0.0
