SVM-light Version V6.01
0 # kernel type
3 # kernel parameter -d
1.0 # kernel parameter -g
1.0 # kernel parameter -s
0.0 # kernel parameter -r
empty# kernel parameter -u
22 # highest feature index
1700 # number of training documents
1093 # number of support vectors plus 1
-1.7454650810942507 # threshold b, each following line is a SV (starting with alpha*y)
-0.07972120312697845 1:-0.4719081223011017 2:-0.5517241358757019 3:-1.0 4:-1.0 5:-0.8890299797058105 6:-1.0 7:-0.9703766107559204 8:-0.9689440727233887 9:-0.9649074673652649 10:-0.9658675193786621 11:-0.9793712496757507 12:1.0 13:0.0 14:0.0 15:0.0 16:-1.0 17:-1.0 18:-1.0 19:-1.0 20:-1.0 21:-1.0 22:0.0
-0.07972120312697845 1:-0.3915612995624542 2:-0.5010141730308533 3:-0.800455629825592 4:-0.8251441121101379 5:-0.8592171669006348 6:-0.9989295601844788 7:-0.8823529481887817 8:-0.807692289352417 9:-0.7462843060493469 10:-0.9812759160995483 11:-0.9991888403892517 12:-1.0 13:0.0 14:0.0 15:0.0 16:0.0 17:-1.0 18:-0.3333333432674408 19:0.0 20:-0.3333333432674408 21:-0.3333333432674408 22:0.0
-0.06836941184366396 1:-0.10278624296188354 2:0.02298850566148758 3:-0.7885563969612122 4:-0.6951178312301636 5:-0.7526165843009949 6:-0.9995718002319336 7:-0.9832149744033813 8:-0.9038461446762085 9:-0.8932836055755615 10:-0.9687218070030212 11:-0.9970108866691589 12:-1.0 13:0.0 14:0.0 15:0.0 16:-1.0 17:-1.0 18:-1.0 19:-1.0 20:-1.0 21:-1.0 22:0.0
-0.07972120312697845 1:-0.7411913275718689 2:-0.8965517282485962 3:-1.0 4:-1.0 5:-1.0 6:-0.9993577599525452 7:-0.8702702522277832 8:-0.9358974099159241 9:0.2618241310119629 10:-0.9762790203094482 11:-0.9973809123039246 12:1.0 13:0.0 14:0.0 15:0.0 16:-1.0 17:-1.0 18:-1.0 19:0.0 20:-1.0 21:-1.0 22:0.0
-0.07972120312697845 1:-0.7985668778419495 2:-0.9211822748184204 3:-1.0 4:-1.0 5:-1.0 6:-0.9997859001159668 7:-0.9986385107040405 8:-0.9166666865348816 9:-0.5185893177986145 10:-0.9928949475288391 11:-0.9998887181282043 12:1.0 13:0.0 14:0.0 15:0.0 16:-1.0 17:-1.0 18:-1.0 19:-1.0 20:-1.0 21:-1.0 22:0.0
0.07972120312697845 1:-0.10278624296188354 2:0.13793103396892548 3:-1.0 4:-1.0 5:-0.5496304035186768 6:-0.9987154603004456 7:-0.9305555820465088 8:-0.9038461446762085 9:-0.7115459442138672 10:-0.9778081178665161 11:-0.9970857501029968 12:1.0 13:0.0 14:0.0 15:0.0 16:-1.0 17:-1.0 18:-1.0 19:-1.0 20:-1.0 21:-1.0 22:0.0
0.07972120312697845 1:-0.4719081223011017 2:-0.5517241358757019 3:-1.0 4:-1.0 5:-0.8592171669006348 6:-0.9464782476425171 7:-0.7110609412193298 8:-0.49421966075897217 9:0.07273423671722412 10:-0.9811511039733887 11:-0.9980331659317017 12:1.0 13:0.0 14:0.0 15:0.0 16:-1.0 17:-1.0 18:-1.0 19:-1.0 20:-1.0 21:-1.0 22:0.0
0.07972120312697845 1:-0.3915612995624542 2:-0.7241379022598267 3:-0.7766814231872559 4:-1.0 5:-1.0 6:-0.7191179394721985 7:-0.829527735710144 8:-0.7425629496574402 9:-0.7894876599311829 10:-0.9298731684684753 11:-0.9818415641784668 12:-1.0 13:0.0 14:0.0 15:0.0 16:0.0 17:-1.0 18:-0.3333333432674408 19:0.0 20:-0.3333333432674408 21:-0.3333333432674408 22:0.0
0.07972120312697845 1:0.48723360896110535 2:0.4334975481033325 3:-0.6820487380027771 4:-0.27483516931533813 5:-0.49870580434799194 6:-0.9970027804374695 7:-0.6091954112052917 8:-0.8770492076873779 9:0.14391368627548218 10:-0.8527878522872925 11:-0.9800073504447937 12:-1.0 13:0.0 14:0.0 15:0.0 16:-1.0 17:-1.0 18:-1.0 19:-1.0 20:-1.0 21:-1.0 22:0.0
0.07972120312697845 1:-0.4719081223011017 2:-0.767241358757019 3:-1.0 4:-1.0 5:-1.0 6:-0.9340612292289734 7:-0.9863508343696594 8:-0.8876404762268066 9:0.09158570319414139 10:-0.9914318323135376 11:-0.9996695518493652 12:-1.0 13:0.0 14:0.0 15:0.0 16:-1.0 17:-1.0 18:-1.0 19:-1.0 20:-1.0 21:-1.0 22:0.0
-0.07972120312697845 1:1.0 2:0.9373040795326233 3:-0.3958074450492859 4:0.5802784562110901 5:0.3429579436779022 6:-0.004709911998361349 7:0.9691630005836487 8:0.875 9:0.6463831067085266 10:-0.9919363260269165 11:-0.9999374151229858 12:-1.0 13:0.0 14:0.0 15:0.0 16:0.0 17:-0.3333333432674408 18:-0.3333333432674408 19:0.0 20:-0.3333333432674408 21:-0.3333333432674408 22:0.0
0.07972120312697845 1:-0.7411913275718689 2:-0.8965517282485962 3:-1.0 4:-1.0 5:-1.0 6:-0.9997859001159668 7:-0.9461883306503296 8:-0.9637681245803833 9:-0.958186149597168 10:-0.9245682954788208 11:-0.8419227600097656 12:-1.0 13:0.0 14:0.0 15:0.0 16:-1.0 17:-0.3333333432674408 18:-1.0 19:0.0 20:-0.3333333432674408 21:-1.0 22:0.0
-0.07972120312697845 1:0.3042193353176117 2:0.6551724076271057 3:-1.0 4:-1.0 5:0.4150109589099884 6:-1.0 7:-0.9099099040031433 8:-1.0 9:0.2494867891073227 10:-0.9772065877914429 11:-0.9993082284927368 12:1.0 13:0.0 14:0.0 15:0.0 16:-1.0 17:-1.0 18:-1.0 19:-1.0 20:-1.0 21:-1.0 22:0.0
-0.07972120312697845 1:0.7112249135971069 2:0.6551724076271057 3:-1.0 4:-1.0 5:-0.3205346465110779 6:-0.9978591203689575 7:-0.8602597713470459 8:-0.5982142686843872 9:0.8163738250732422 10:-0.9970532655715942 11:-0.9999799728393555 12:1.0 13:0.0 14:0.0 15:0.0 16:-1.0 17:-1.0 18:-1.0 19:-1.0 20:-1.0 21:-1.0 22:0.0
-0.07972120312697845 1:0.3042193353176117 2:0.4117647111415863 3:-1.0 4:-1.0 5:-0.5496304035186768 6:-0.913294792175293 7:-0.9934664368629456 8:-0.965753436088562 9:-0.17158806324005127 10:-0.9912087321281433 11:-0.9998740553855896 12:1.0 13:0.0 14:0.0 15:0.0 16:-1.0 17:-1.0 18:-1.0 19:-1.0 20:-1.0 21:-1.0 22:0.0
0.07972120312697845 1:-0.4719081223011017 2:-0.37931033968925476 3:-0.7869805097579956 4:-0.6171027421951294 5:-0.6785190105438232 6:-0.9884393215179443 7:-0.8418604731559753 8:-0.6835442781448364 9:-0.11813931167125702 10:-0.9930421113967896 11:-0.9999058842658997 12:1.0 13:0.0 14:0.0 15:0.0 16:-1.0 17:-1.0 18:-1.0 19:-1.0 20:-1.0 21:-1.0 22:0.0
0.07972120312697845 1:-0.5462976694107056 2:-0.5970962047576904 3:-0.7440203428268433 4:-0.7805784344673157 5:-0.8592171669006348 6:-0.9985014200210571 7:-0.9231905341148376 8:-0.8177083134651184 9:-0.441423624753952 10:-0.9847974181175232 11:-0.9989259243011475 12:1.0 13:0.0 14:0.0 15:0.0 16:0.0 17:-0.3333333432674408 18:-0.3333333432674408 19:0.0 20:-0.3333333432674408 21:-0.3333333432674408 22:0.0
0.07972120312697845 1:-0.20854705572128296 2:-0.6180371642112732 3:-0.7091160416603088 4:-1.0 5:-1.0 6:-0.96938556432724 7:-0.8850815296173096 8:-0.8846153616905212 9:-0.6033710837364197 10:-0.8406251668930054 11:-0.9771287441253662 12:1.0 13:0.0 14:0.0 15:0.0 16:0.0 17:-0.3333333432674408 18:-0.3333333432674408 19:0.0 20:-0.3333333432674408 21:-0.3333333432674408 22:0.0
-0.07972120312697845 1:1.0 2:0.802955687046051 3:-0.3473164141178131 4:0.4216821491718292 5:-0.10368858277797699 6:-0.8128880262374878 7:0.9866319894790649 8:-0.28977271914482117 9:0.3448447585105896 10:-0.9827551245689392 11:-0.9997725486755371 12:1.0 13:0.0 14:0.0 15:0.0 16:0.0 17:-0.3333333432674408 18:-0.3333333432674408 19:0.0 20:-0.3333333432674408 21:-0.3333333432674408 22:0.0
0.07972120312697845 1:-0.6803363561630249 2:-0.869328498840332 3:-1.0 4:-1.0 5:-1.0 6:-0.9843716621398926 7:-0.8600000143051147 8:-0.5833333134651184 9:0.9742081165313721 10:-0.9624596238136292 11:-0.9829068779945374 12:-1.0 13:0.0 14:0.0 15:0.0 16:-1.0 17:-1.0 18:-1.0 19:-1.0 20:-1.0 21:-1.0 22:0.0
-0.07972120312697845 1:0.14948301017284393 2:0.20258620381355286 3:-0.6594613790512085 4:-0.11714065074920654 5:-0.36298781633377075 6:-0.9546135663986206 7:-0.8735244274139404 8:-0.8399903774261475 9:-0.5237939953804016 10:-0.8086376190185547 11:-0.9408127069473267 12:-1.0 13:0.0 14:0.0 15:0.0 16:0.0 17:-0.3333333432674408 18:-0.3333333432674408 19:1.0 20:0.3333333432674408 21:-0.3333333432674408 22:0.0
-0.07972120312697845 1:1.0 2:0.8491379022598267 3:-0.582134485244751 4:0.37374117970466614 5:0.27617207169532776 6:-0.8180261254310608 7:1.0 8:0.6279069781303406 9:0.5199999213218689 10:-0.9945992827415466 11:-0.9999474287033081 12:-1.0 13:0.0 14:0.0 15:0.0 16:-1.0 17:-1.0 18:-1.0 19:-1.0 20:-1.0 21:-1.0 22:0.0
-0.07972120312697845 1:0.14948301017284393 2:0.3103448152542114 3:-0.39890173077583313 4:0.39625978469848633 5:-0.07366003841161728 6:-0.9980732202529907 7:-0.7609561681747437 8:-0.7222222089767456 9:-0.500036358833313 10:-0.9803269505500793 11:-0.9983071088790894 12:-1.0 13:0.0 14:0.0 15:0.0 16:0.0 17:-0.3333333432674408 18:-0.3333333432674408 19:0.0 20:-0.3333333432674408 21:-0.3333333432674408 22:0.0
-0.07972120312697845 1:-0.10278624296188354 2:0.13793103396892548 3:-0.6934594511985779 4:-0.34317347407341003 5:-0.5496304035186768 6:-0.8649111390113831 7:-0.6210601925849915 8:-0.18335901200771332 9:-0.8244401216506958 10:-0.7446275353431702 11:-0.5999224781990051 12:-1.0 13:0.0 14:0.0 15:0.0 16:0.0 17:-0.3333333432674408 18:-0.3333333432674408 19:0.0 20:-0.3333333432674408 21:-0.3333333432674408 22:0.0
0.07972120312697845 1:0.3042193353176117 2:0.49183303117752075 3:-1.0 4:-1.0 5:-0.1359175443649292 6:-0.9976450204849243 7:-0.8935108184814453 8:-0.6527777910232544 9:0.33461496233940125 10:-0.9956297278404236 11:-0.9999443292617798 12:-1.0 13:0.0 14:0.0 15:0.0 16:-1.0 17:-1.0 18:-1.0 19:-1.0 20:-1.0 21:-1.0 22:0.0
0.07972120312697845 1:-0.10278624296188354 2:-0.5517241358757019 3:-0.743161678314209 4:-1.0 5:-1.0 6:-0.989723801612854 7:-0.8053935766220093 8:-0.8247978687286377 9:-0.7745157480239868 10:-0.9640955328941345 11:-0.9968236684799194 12:1.0 13:0.0 14:0.0 15:0.0 16:0.0 17:-0.3333333432674408 18:-0.3333333432674408 19:0.0 20:-0.3333333432674408 21:-0.3333333432674408 22:0.0
-0.07972120312697845 1:-0.10278624296188354 2:-0.3054187297821045 3:-1.0 4:-1.0 5:-0.8592171669006348 6:-0.999143660068512 7:-0.9611650705337524 8:-0.7413793206214905 9:-0.6341579556465149 10:-0.9937416315078735 11:-0.999862551689148 12:-1.0 13:0.0 14:0.0 15:0.0 16:-1.0 17:-1.0 18:-0.3333333432674408 19:0.0 20:-0.3333333432674408 21:-0.3333333432674408 22:0.0
0.07972120312697845 1:-0.20854705572128296 2:-0.1967545598745346 3:-1.0 4:-1.0 5:-0.5668150186538696 6:-0.9835153222084045 7:-0.8093457818031311 8:-0.7385621070861816 9:-0.11426898092031479 10:-0.9818902015686035 11:-0.9996837377548218 12:1.0 13:0.0 14:0.0 15:0.0 16:-1.0 17:-1.0 18:-1.0 19:-1.0 20:-1.0 21:-1.0 22:0.0
-0.07972120312697845 1:-0.10278624296188354 2:-0.12068965286016464 3:-1.0 4:-1.0 5:-0.5668150186538696 6:-0.9995718002319336 7:-0.7831325531005859 8:-0.9806201457977295 9:0.8208338022232056 10:-0.9797971248626709 11:-0.9998465776443481 12:1.0 13:0.0 14:0.0 15:0.0 16:-1.0 17:-1.0 18:-1.0 19:-1.0 20:-1.0 21:-1.0 22:0.0
0.07972120312697845 1:1.0 2:0.802955687046051 3:-0.2561309039592743 4:0.4956408143043518 5:-0.08820884674787521 6:-0.887818455696106 7:0.3504442274570465 8:-0.7053108811378479 9:-0.7025496363639832 10:-0.925588071346283 11:-0.9863148331642151 12:-1.0 13:0.0 14:0.0 15:0.0 16:0.0 17:-0.3333333432674408 18:-0.3333333432674408 19:0.0 20:-0.3333333432674408 21:-0.3333333432674408 22:0.0
-0.07972120312697845 1:1.0 2:0.9137930870056152 3:-1.0 4:-1.0 5:0.6920784115791321 6:-0.7923356890678406 7:0.6842105388641357 8:-0.1875 9:-0.38740625977516174 10:-0.9758652448654175 11:-0.9968629479408264 12:1.0 13:0.0 14:0.0 15:0.0 16:-1.0 17:-1.0 18:-1.0 19:-1.0 20:-1.0 21:-1.0 22:0.0
-0.07972120312697845 1:0.14948301017284393 2:0.5258620977401733 3:-1.0 4:-1.0 5:0.06002190336585045 6:-0.9995718002319336 7:-0.557959794998169 8:-0.5370370149612427 9:0.86086106300354 10:-0.9983606934547424 11:-0.9999815225601196 12:1.0 13:0.0 14:0.0 15:0.0 16:-1.0 17:-1.0 18:-1.0 19:-1.0 20:-1.0 21:-1.0 22:0.0
-0.07972120312697845 1:0.7112249135971069 2:0.7640653252601624 3:-0.7032625079154968 4:-0.048859428614377975 5:-0.17004747688770294 6:-0.9877970218658447 7:-0.23120974004268646 8:-0.7540983557701111 9:0.6322705745697021 10:-0.995008111000061 11:-0.9999704957008362 12:1.0 13:0.0 14:0.0 15:0.0 16:-1.0 17:-0.3333333432674408 18:-1.0 19:-1.0 20:-1.0 21:-1.0 22:0.0
-0.07972120312697845 1:1.0 2:0.8850574493408203 3:-0.037596188485622406 4:0.6791480183601379 5:0.05952635779976845 6:-0.9920787811279297 7:0.8701481819152832 8:-0.7517730593681335 9:-0.5230715870857239 10:-0.9846792221069336 11:-0.9994154572486877 12:1.0 13:0.0 14:0.0 15:0.0 16:-1.0 17:-1.0 18:-1.0 19:-1.0 20:-1.0 21:-1.0 22:0.0
0.07972120312697845 1:-0.6803363561630249 2:-0.869328498840332 3:-0.7613582611083984 4:-1.0 5:-1.0 6:-0.994861900806427 7:-0.8765432238578796 8:-0.6788991093635559 9:-0.7611483335494995 10:-0.9775638580322266 11:-0.9987179040908813 12:-1.0 13:0.0 14:0.0 15:0.0 16:0.0 17:-0.3333333432674408 18:-0.3333333432674408 19:0.0 20:-0.3333333432674408 21:-0.3333333432674408 22:0.0
0.07972120312697845 1:-0.7985668778419495 2:-0.9211822748184204 3:-0.8094994425773621 4:-1.0 5:-1.0 6:-0.8291586637496948 7:-0.8658536672592163 8:-0.6646341681480408 9:-0.26633286476135254 10:-0.9694483876228333 11:-0.9990972876548767 12:-1.0 13:0.0 14:0.0 15:0.0 16:0.0 17:-0.3333333432674408 18:-0.3333333432674408 19:0.0 20:-0.3333333432674408 21:-0.3333333432674408 22:0.0
0.07972120312697845 1:-0.6803363561630249 2:-0.674876868724823 3:-0.7738056182861328 4:-0.8038544058799744 5:-0.8592171669006348 6:-0.9987154603004456 7:-0.7634408473968506 8:-0.6551724076271057 9:-0.5451406240463257 10:-0.9799605011940002 11:-0.9988779425621033 12:-1.0 13:0.0 14:0.0 15:0.0 16:0.0 17:-0.3333333432674408 18:-0.3333333432674408 19:0.0 20:-0.3333333432674408 21:-0.3333333432674408 22:0.0
-0.07972120312697845 1:-0.4719081223011017 2:-0.767241358757019 3:-0.7565547823905945 4:-1.0 5:-1.0 6:-0.4776279032230377 7:-0.690278172492981 8:-0.585677981376648 9:-0.8470009565353394 10:-0.7990316152572632 11:-0.7823618650436401 12:-1.0 13:0.0 14:0.0 15:0.0 16:1.0 17:0.3333333432674408 18:0.3333333432674408 19:0.0 20:-0.3333333432674408 21:0.3333333432674408 22:0.0
0.07972120312697845 1:-0.10278624296188354 2:-0.3054187297821045 3:-0.7466937899589539 4:-0.7826457619667053 5:-0.8592171669006348 6:-0.9978591203689575 7:-0.8469899892807007 8:-0.6895424723625183 9:-0.3327946364879608 10:-0.9778182506561279 11:-0.9973525404930115 12:1.0 13:0.0 14:0.0 15:0.0 16:-1.0 17:-1.0 18:-1.0 19:-1.0 20:-0.3333333432674408 21:-1.0 22:0.0
-0.07972120312697845 1:-0.6155526638031006 2:-0.8390804529190063 3:-0.8027819991111755 4:-1.0 5:-1.0 6:-0.9961464405059814 7:-0.9169755578041077 8:-0.7272727489471436 9:0.41276928782463074 10:-0.984026312828064 11:-0.9996702671051025 12:-1.0 13:0.0 14:0.0 15:0.0 16:0.0 17:-0.3333333432674408 18:-1.0 19:0.0 20:-0.3333333432674408 21:-1.0 22:0.0
0.07972120312697845 1:0.14948301017284393 2:0.06403940916061401 3:-0.6635264754295349 4:-0.450151264667511 5:-0.6785190105438232 6:-0.7846285700798035 7:-0.5503753423690796 8:-0.0914948433637619 9:0.7734686732292175 10:-0.9963065981864929 11:-0.9999861121177673 12:-1.0 13:0.0 14:0.0 15:0.0 16:0.0 17:-0.3333333432674408 18:-0.3333333432674408 19:0.0 20:-0.3333333432674408 21:-0.3333333432674408 22:0.0
-0.07972120312697845 1:1.0 2:0.7413793206214905 3:-0.630508542060852 4:-0.13061225414276123 5:-0.4276271164417267 6:-0.864054799079895 7:0.9777054190635681 8:-0.14012739062309265 9:-0.6073896288871765 10:-0.9688072800636292 11:-0.9956220388412476 12:1.0 13:0.0 14:0.0 15:0.0 16:0.0 17:-0.3333333432674408 18:-0.3333333432674408 19:0.0 20:-0.3333333432674408 21:-0.3333333432674408 22:0.0
-0.07972120312697845 1:1.0 2:0.802955687046051 3:-0.6942064166069031 4:-0.15936057269573212 5:-0.3452037274837494 6:-0.9492614269256592 7:0.8932291865348816 8:-0.54347825050354 9:-0.40612590312957764 10:-0.9896213412284851 11:-0.9997732043266296 12:1.0 13:0.0 14:0.0 15:0.0 16:0.0 17:-0.3333333432674408 18:-0.3333333432674408 19:0.0 20:-1.0 21:-0.3333333432674408 22:0.0
0.07972120312697845 1:-0.20854705572128296 2:-0.6180371642112732 3:-0.7585107088088989 4:-1.0 5:-1.0 6:-0.409120112657547 7:-0.9872713088989258 8:-0.7767857313156128 9:-0.10892226547002792 10:-0.9899399280548096 11:-0.9995782971382141 12:-1.0 13:0.0 14:0.0 15:0.0 16:0.0 17:-0.3333333432674408 18:-0.3333333432674408 19:0.0 20:-0.3333333432674408 21:-0.3333333432674408 22:0.0
0.07972120312697845 1:-0.5462976694107056 2:-0.5970962047576904 3:-0.8213106989860535 4:-0.8421193957328796 5:-0.8592171669006348 6:-0.8636266589164734 7:-0.995541512966156 8:-0.8478260636329651 9:-0.21119071543216705 10:-0.9882294535636902 11:-0.9997285604476929 12:-1.0 13:0.0 14:0.0 15:0.0 16:0.0 17:-0.3333333432674408 18:-0.3333333432674408 19:0.0 20:-1.0 21:-0.3333333432674408 22:0.0
0.07972120312697845 1:-0.3915612995624542 2:-0.5010141730308533 3:-0.8117945194244385 4:-0.8343387842178345 5:-0.8592171669006348 6:-0.9993577599525452 7:-1.0 8:-1.0 9:0.39160075783729553 10:-0.9525555372238159 11:-0.9980421662330627 12:-1.0 13:0.0 14:0.0 15:0.0 16:0.0 17:-0.3333333432674408 18:-0.3333333432674408 19:0.0 20:-0.3333333432674408 21:-0.3333333432674408 22:0.0
-0.07972120312697845 1:-0.6155526638031006 2:-0.8390804529190063 3:-0.7746074199676514 4:-1.0 5:-1.0 6:-0.9922928810119629 7:-0.9652271270751953 8:-0.9808428883552551 9:-0.13746613264083862 10:-0.9735275506973267 11:-0.9990705847740173 12:-1.0 13:0.0 14:0.0 15:0.0 16:0.0 17:-1.0 18:-0.3333333432674408 19:0.0 20:-0.3333333432674408 21:-0.3333333432674408 22:0.0
-0.07972120312697845 1:-0.7411913275718689 2:-0.8965517282485962 3:-0.7955952286720276 4:-1.0 5:-1.0 6:-0.8291586637496948 7:-0.8151260614395142 8:-0.9173553586006165 9:-0.28578484058380127 10:-0.9726301431655884 11:-0.9984670281410217 12:-1.0 13:0.0 14:0.0 15:0.0 16:0.0 17:-1.0 18:-0.3333333432674408 19:0.0 20:-0.3333333432674408 21:-0.3333333432674408 22:0.0
0.07972120312697845 1:1.0 2:0.802955687046051 3:-1.0 4:-1.0 5:0.3981177508831024 6:-0.9274245500564575 7:0.837837815284729 8:-0.35483869910240173 9:-0.32906755805015564 10:-0.9916624426841736 11:-0.9999097585678101 12:-1.0 13:0.0 14:0.0 15:0.0 16:-1.0 17:-1.0 18:-1.0 19:-1.0 20:-1.0 21:-1.0 22:0.0
-0.07972120312697845 1:-0.4719081223011017 2:-0.767241358757019 3:-0.8073452711105347 4:-1.0 5:-1.0 6:-0.9931492209434509 7:-0.9658767580986023 8:-0.8784194588661194 9:-0.26917019486427307 10:-0.8473101258277893 11:-0.9899920225143433 12:-1.0 13:0.0 14:0.0 15:0.0 16:-1.0 17:-1.0 18:-1.0 19:-1.0 20:-1.0 21:-1.0 22:0.0
-0.07972120312697845 1:-0.6803363561630249 2:-0.869328498840332 3:-1.0 4:-1.0 5:-1.0 6:-1.0 7:-0.9693192839622498 8:-1.0 9:-0.7486171126365662 10:-0.9928839206695557 11:-0.9997138977050781 12:1.0 13:0.0 14:0.0 15:0.0 16:-1.0 17:-1.0 18:-1.0 19:-1.0 20:-1.0 21:-1.0 22:0.0
0.07972120312697845 1:0.14948301017284393 2:0.3103448152542114 3:-0.7759876847267151 4:-0.4608880281448364 5:-0.5295780897140503 6:-0.9723827838897705 7:-0.8367859125137329 8:-0.5911949872970581 9:-0.36828798055648804 10:-0.9822691679000854 11:-0.9994990229606628 12:-1.0 13:0.0 14:0.0 15:0.0 16:-1.0 17:-1.0 18:-1.0 19:-1.0 20:-1.0 21:-1.0 22:0.0
-0.07972120312697845 1:0.48723360896110535 2:0.5258620977401733 3:-0.5968865156173706 4:0.2860526144504547 5:0.12219228595495224 6:-0.9993577599525452 7:-0.7352941036224365 8:-0.8636363744735718 9:0.4712972939014435 10:-0.9946274757385254 11:-0.999984085559845 12:1.0 13:0.0 14:0.0 15:0.0 16:-1.0 17:-1.0 18:-1.0 19:-1.0 20:-1.0 21:-1.0 22:0.0
-0.07972120312697845 1:1.0 2:0.802955687046051 3:-1.0 4:-1.0 5:0.03896792232990265 6:-0.9925069808959961 7:0.9687212705612183 8:-0.45121949911117554 9:0.5314437747001648 10:-0.9992584586143494 11:-0.9999988079071045 12:1.0 13:0.0 14:0.0 15:0.0 16:0.0 17:-0.3333333432674408 18:-0.3333333432674408 19:0.0 20:-0.3333333432674408 21:-0.3333333432674408 22:0.0
-0.07972120312697845 1:0.7112249135971069 2:0.6551724076271057 3:-0.1577431857585907 4:0.3565744459629059 5:-0.38719648122787476 6:-0.272746741771698 7:-0.6158940196037292 8:-0.7104904651641846 9:0.30510926246643066 10:-0.8234652280807495 11:-0.9727080464363098 12:1.0 13:0.0 14:0.0 15:0.0 16:-1.0 17:-1.0 18:-1.0 19:-1.0 20:-1.0 21:-1.0 22:0.0
0.07972120312697845 1:-0.6803363561630249 2:-0.869328498840332 3:-0.7894933223724365 4:-1.0 5:-1.0 6:-0.9946478009223938 7:-0.9802237749099731 8:-0.9312499761581421 9:-0.7031912207603455 10:-0.7080698609352112 11:-0.944599986076355 12:-1.0 13:0.0 14:0.0 15:0.0 16:0.0 17:-0.3333333432674408 18:-0.3333333432674408 19:0.0 20:-0.3333333432674408 21:-0.3333333432674408 22:0.0
0.07972120312697845 1:-0.6803363561630249 2:-0.869328498840332 3:-0.7810885310173035 4:-1.0 5:-1.0 6:-0.9961464405059814 7:-0.9872068166732788 8:-0.9348230957984924 9:-0.6871933341026306 10:-0.8747570514678955 11:-0.993172824382782 12:-1.0 13:0.0 14:0.0 15:0.0 16:0.0 17:-0.3333333432674408 18:-0.3333333432674408 19:0.0 20:-0.3333333432674408 21:-0.3333333432674408 22:0.0
0.07972120312697845 1:-0.5462976694107056 2:-0.8052738308906555 3:-1.0 4:-1.0 5:-1.0 6:-0.9997859001159668 7:-0.9957756400108337 8:-1.0 9:-0.8304761052131653 10:-0.9839383959770203 11:-0.9989250302314758 12:-1.0 13:0.0 14:0.0 15:0.0 16:-1.0 17:-0.3333333432674408 18:-0.3333333432674408 19:0.0 20:-0.3333333432674408 21:-0.3333333432674408 22:0.0
0.07972120312697845 1:-0.6155526638031006 2:-0.8390804529190063 3:-1.0 4:-1.0 5:-1.0 6:-1.0 7:-0.9640287756919861 8:-1.0 9:-0.7095312476158142 10:-0.9878411889076233 11:-0.9984156489372253 12:-1.0 13:0.0 14:0.0 15:0.0 16:-1.0 17:-0.3333333432674408 18:-0.3333333432674408 19:0.0 20:-0.3333333432674408 21:-0.3333333432674408 22:0.0
-0.07972120312697845 1:-0.6155526638031006 2:-0.8390804529190063 3:-1.0 4:-1.0 5:-1.0 6:-0.9901520013809204 7:-0.9247311949729919 8:-0.7388059496879578 9:-0.7230775356292725 10:-0.9070276618003845 11:-0.9375956058502197 12:-1.0 13:0.0 14:0.0 15:0.0 16:-1.0 17:-0.3333333432674408 18:-0.3333333432674408 19:0.0 20:0.3333333432674408 21:-0.3333333432674408 22:0.0
0.07972120312697845 1:-0.20854705572128296 2:-0.37931033968925476 3:-0.8111205101013184 4:-0.8337898850440979 5:-0.8592171669006348 6:-0.9950760006904602 7:-0.7904762029647827 8:-0.6499999761581421 9:0.07204131036996841 10:-0.9921050667762756 11:-0.9998825788497925 12:-1.0 13:0.0 14:0.0 15:0.0 16:-1.0 17:-1.0 18:-1.0 19:-1.0 20:-1.0 21:-1.0 22:0.0
-0.07972120312697845 1:-0.6155526638031006 2:-0.8390804529190063 3:-0.8223900198936462 4:-1.0 5:-1.0 6:-0.9355598092079163 7:-0.8063851594924927 8:-0.7916666865348816 9:0.5394420027732849 10:-0.9810909628868103 11:-0.9995024800300598 12:-1.0 13:0.0 14:0.0 15:0.0 16:-1.0 17:-1.0 18:-1.0 19:-1.0 20:-1.0 21:-1.0 22:0.0
0.07972120312697845 1:0.3042193353176117 2:0.4117647111415863 3:-0.6366409659385681 4:-0.028714321553707123 5:-0.2966997027397156 6:-0.989723801612854 7:-0.8603174686431885 8:-0.7632575631141663 9:-0.8304356336593628 10:-0.9802626371383667 11:-0.9980846047401428 12:1.0 13:0.0 14:0.0 15:0.0 16:0.0 17:0.3333333432674408 18:-0.3333333432674408 19:0.0 20:-0.3333333432674408 21:-0.3333333432674408 22:0.0
-0.07972120312697845 1:0.7112249135971069 2:0.802955687046051 3:-0.36323830485343933 4:0.49327829480171204 5:0.06002190336585045 6:-0.9526867866516113 7:-0.5745013952255249 8:-0.498229056596756 9:0.7702046036720276 10:-0.9838767051696777 11:-0.9992380142211914 12:-1.0 13:0.0 14:0.0 15:0.0 16:0.0 17:-0.3333333432674408 18:-0.3333333432674408 19:0.0 20:-0.3333333432674408 21:-0.3333333432674408 22:0.0
0.07972120312697845 1:-0.6155526638031006 2:-0.8390804529190063 3:-1.0 4:-1.0 5:-1.0 6:-0.9963605403900146 7:-0.971742570400238 8:-0.98046875 9:-0.47237107157707214 10:-0.9862037301063538 11:-0.9994832277297974 12:1.0 13:0.0 14:0.0 15:0.0 16:-1.0 17:-1.0 18:-1.0 19:-1.0 20:-1.0 21:-1.0 22:0.0
-0.07972120312697845 1:-0.7985668778419495 2:-0.9211822748184204 3:-0.807543158531189 4:-1.0 5:-1.0 6:-0.9970027804374695 7:-0.9720812439918518 8:-0.9435028433799744 9:-0.9585845470428467 10:-0.8867393732070923 11:-0.9731948375701904 12:1.0 13:0.0 14:0.0 15:0.0 16:-1.0 17:-1.0 18:-1.0 19:-1.0 20:-1.0 21:-1.0 22:0.0
0.07972120312697845 1:0.14948301017284393 2:0.3103448152542114 3:-0.7146562337875366 4:-0.1762690544128418 5:-0.32071560621261597 6:-0.9976450204849243 7:-0.9653794765472412 8:-0.9177631735801697 9:0.24240900576114655 10:-0.9864703416824341 11:-0.9998522400856018 12:-1.0 13:0.0 14:0.0 15:0.0 16:-1.0 17:-1.0 18:-1.0 19:-1.0 20:-1.0 21:-1.0 22:0.0
-0.07972120312697845 1:-0.3915612995624542 2:-0.7241379022598267 3:-0.7364198565483093 4:-1.0 5:-1.0 6:-0.9798758029937744 7:-0.898566722869873 8:-0.9400990009307861 9:0.23333843052387238 10:-0.7634778022766113 11:-0.9738669991493225 12:1.0 13:0.0 14:0.0 15:0.0 16:1.0 17:-0.3333333432674408 18:0.3333333432674408 19:1.0 20:-0.3333333432674408 21:0.3333333432674408 22:0.0
-0.07972120312697845 1:1.0 2:0.802955687046051 3:-0.2399834245443344 4:0.6774019002914429 5:0.335965096950531 6:-0.9259259104728699 7:1.0 8:-0.06862745434045792 9:0.8943166732788086 10:-0.9952850937843323 11:-0.9999811053276062 12:1.0 13:0.0 14:0.0 15:0.0 16:-1.0 17:-1.0 18:-1.0 19:-1.0 20:-1.0 21:-1.0 22:0.0
-0.07972120312697845 1:-0.4719081223011017 2:-0.767241358757019 3:-0.8453693389892578 4:-1.0 5:-1.0 6:-0.9952901005744934 7:-0.9716598987579346 8:-0.9925816059112549 9:-0.38523223996162415 10:-0.978461503982544 11:-0.9994725584983826 12:-1.0 13:0.0 14:0.0 15:0.0 16:-1.0 17:-1.0 18:-1.0 19:-1.0 20:-1.0 21:-1.0 22:0.0
-0.07972120312697845 1:-0.4719081223011017 2:-0.767241358757019 3:-0.7743163704872131 4:-1.0 5:-1.0 6:-0.8882466554641724 7:-0.5614457726478577 8:0.5189873576164246 9:0.9666748046875 10:-0.9584517478942871 11:-0.9987751841545105 12:1.0 13:0.0 14:0.0 15:0.0 16:0.0 17:-0.3333333432674408 18:-0.3333333432674408 19:0.0 20:-0.3333333432674408 21:-0.3333333432674408 22:0.0
0.07972120312697845 1:-0.10278624296188354 2:0.3103448152542114 3:-0.7824941873550415 4:-0.5884361863136292 5:-0.6562143564224243 6:-0.9681010246276855 7:-0.98975670337677 8:-0.9431818127632141 9:-0.5577772855758667 10:-0.987376868724823 11:-0.9992629289627075 12:1.0 13:0.0 14:0.0 15:0.0 16:-1.0 17:-1.0 18:-1.0 19:-1.0 20:-1.0 21:-1.0 22:0.0
0.07972120312697845 1:0.015444284304976463 2:-0.2201591581106186 3:-1.0 4:-1.0 5:-0.8592171669006348 6:-0.988867461681366 7:-0.9287671446800232 8:-0.9865350127220154 9:-0.6347691416740417 10:-0.9801256656646729 11:-0.9982686638832092 12:1.0 13:0.0 14:0.0 15:0.0 16:-1.0 17:-1.0 18:-1.0 19:-1.0 20:-1.0 21:-1.0 22:0.0
0.07972120312697845 1:0.14948301017284393 2:0.3103448152542114 3:-1.0 4:-1.0 5:-0.5496304035186768 6:-1.0 7:-0.8615711331367493 8:-1.0 9:-0.7014560699462891 10:-0.9899392127990723 11:-0.999610185623169 12:1.0 13:0.0 14:0.0 15:0.0 16:-1.0 17:-1.0 18:-1.0 19:-1.0 20:-1.0 21:-1.0 22:0.0
0.07972120312697845 1:-0.3915612995624542 2:-0.5010141730308533 3:-1.0 4:-1.0 5:-0.8890299797058105 6:-0.999143660068512 7:-0.9864099621772766 8:-0.9777777791023254 9:-0.8825924396514893 10:-0.9569826126098633 11:-0.9810523390769958 12:1.0 13:0.0 14:0.0 15:0.0 16:-1.0 17:-1.0 18:-1.0 19:-1.0 20:-1.0 21:-1.0 22:0.0
-0.07972120312697845 1:0.015444284304976463 2:0.38530734181404114 3:-1.0 4:-1.0 5:-0.17004747688770294 6:-0.9920787811279297 7:-0.913258969783783 8:-0.9545454382896423 9:-0.930192768573761 10:-0.8709010481834412 11:-0.939561128616333 12:1.0 13:0.0 14:0.0 15:0.0 16:-1.0 17:-1.0 18:-1.0 19:-1.0 20:-1.0 21:-1.0 22:0.0
0.07972120312697845 1:-0.20854705572128296 2:-0.37931033968925476 3:-0.7552891373634338 4:-0.7893213033676147 5:-0.8592171669006348 6:-0.9976450204849243 7:-0.9464114904403687 8:-0.7629310488700867 9:-0.6094265580177307 10:-0.8772799372673035 11:-0.9807495474815369 12:1.0 13:0.0 14:0.0 15:0.0 16:0.0 17:-0.3333333432674408 18:-0.3333333432674408 19:0.0 20:-0.3333333432674408 21:-0.3333333432674408 22:0.0
-0.07972120312697845 1:0.015444284304976463 2:-0.2201591581106186 3:-1.0 4:-1.0 5:-0.8592171669006348 6:-0.9931492209434509 7:-0.9037675857543945 8:-0.945652186870575 9:-0.2640596926212311 10:0.9943804740905762 11:0.6508130431175232 12:1.0 13:0.0 14:0.0 15:0.0 16:-1.0 17:-1.0 18:-1.0 19:-1.0 20:-1.0 21:-1.0 22:0.0
0.07972120312697845 1:-0.6155526638031006 2:-0.4733542203903198 3:-0.7487625479698181 4:-0.3287603259086609 5:-0.4332105219364166 6:-0.6743738055229187 7:-0.4632352888584137 8:-0.45121949911117554 9:0.27893179655075073 10:-0.9065921902656555 11:-0.9930429458618164 12:-1.0 13:0.0 14:0.0 15:0.0 16:0.0 17:-0.3333333432674408 18:-0.3333333432674408 19:0.0 20:-0.3333333432674408 21:-0.3333333432674408 22:0.0
-0.07972120312697845 1:-0.5462976694107056 2:-0.5970962047576904 3:-0.8196963667869568 4:-0.8407953381538391 5:-0.8592171669006348 6:-0.9995718002319336 7:-0.9973042011260986 8:-0.9603174328804016 9:-0.5690720081329346 10:-0.9873982071876526 11:-0.9997302889823914 12:1.0 13:0.0 14:0.0 15:0.0 16:0.0 17:-1.0 18:-1.0 19:-1.0 20:-0.3333333432674408 21:-1.0 22:0.0
0.07972120312697845 1:-0.3042193353176117 2:-0.44396552443504333 3:-0.7598298788070679 4:-0.7928658723831177 5:-0.8592171669006348 6:-0.999143660068512 7:-0.9631290435791016 8:-0.913294792175293 9:0.05545133724808693 10:1.0 11:0.656122088432312 12:1.0 13:0.0 14:0.0 15:0.0 16:0.0 17:-1.0 18:-1.0 19:0.0 20:-1.0 21:-1.0 22:0.0
-0.07972120312697845 1:0.7112249135971069 2:0.7640653252601624 3:-0.3615439832210541 4:0.3595580756664276 5:-0.18699772655963898 6:-0.3239135146141052 7:-0.9849006533622742 8:-0.9905734062194824 9:0.5504575967788696 10:-0.14040255546569824 11:0.11487453430891037 12:1.0 13:0.0 14:0.0 15:0.0 16:0.0 17:-0.3333333432674408 18:-0.3333333432674408 19:0.0 20:-0.3333333432674408 21:-0.3333333432674408 22:0.0
-0.07972120312697845 1:-0.10278624296188354 2:-0.5517241358757019 3:-0.800881564617157 4:-1.0 5:-1.0 6:-0.9967886805534363 7:-0.8938723802566528 8:-0.9840255379676819 9:-0.7677704691886902 10:-0.6085731387138367 11:-0.5137797594070435 12:1.0 13:0.0 14:0.0 15:0.0 16:0.0 17:-0.3333333432674408 18:-0.3333333432674408 19:0.0 20:-0.3333333432674408 21:-0.3333333432674408 22:0.0
-0.07972120312697845 1:0.7112249135971069 2:0.802955687046051 3:-1.0 4:-1.0 5:0.7092939019203186 6:-0.9905802011489868 7:-0.6628674268722534 8:-0.45783132314682007 9:-0.8908533453941345 10:-0.9013751745223999 11:-0.82228022813797 12:1.0 13:0.0 14:0.0 15:0.0 16:-1.0 17:-1.0 18:-1.0 19:-1.0 20:-1.0 21:-1.0 22:0.0
-0.07972120312697845 1:-0.10278624296188354 2:-0.3054187297821045 3:-0.7867122888565063 4:-0.8141094446182251 5:-0.8592171669006348 6:-0.9995718002319336 7:-0.9880682229995728 8:-0.9823943376541138 9:-0.8573230504989624 10:-0.9631401896476746 11:-0.9936578273773193 12:1.0 13:0.0 14:0.0 15:0.0 16:0.0 17:-1.0 18:-1.0 19:-1.0 20:-1.0 21:-1.0 22:0.0
0.07972120312697845 1:-0.3915612995624542 2:-0.5010141730308533 3:-0.7547027468681335 4:-0.7888644933700562 5:-0.8592171669006348 6:-0.9955042004585266 7:-0.9545071721076965 8:-0.7647058963775635 9:-0.2692726254463196 10:-0.9667381048202515 11:-0.9934711456298828 12:-1.0 13:0.0 14:0.0 15:0.0 16:0.0 17:-0.3333333432674408 18:-0.3333333432674408 19:0.0 20:-1.0 21:-0.3333333432674408 22:0.0
0.07972120312697845 1:1.0 2:0.802955687046051 3:-1.0 4:-1.0 5:-0.28185129165649414 6:-0.9282808899879456 7:0.9259259104728699 8:-0.02985074557363987 9:-0.5123036503791809 10:-0.9958127737045288 11:-0.9996709227561951 12:-1.0 13:0.0 14:0.0 15:0.0 16:-1.0 17:-1.0 18:-1.0 19:-1.0 20:-1.0 21:-1.0 22:0.0
0.07972120312697845 1:-0.5462976694107056 2:-0.5970962047576904 3:-1.0 4:-1.0 5:-0.8592171669006348 6:-0.9638193249702454 7:-0.3265306055545807 8:0.02459016442298889 9:0.9970933198928833 10:-0.989347517490387 11:-0.9991881847381592 12:-1.0 13:0.0 14:0.0 15:0.0 16:-1.0 17:-1.0 18:-1.0 19:-1.0 20:-1.0 21:-1.0 22:0.0
0.07972120312697845 1:-0.20854705572128296 2:-0.37931033968925476 3:-0.7483150959014893 4:-0.7839015126228333 5:-0.8592171669006348 6:-0.9955042004585266 7:-0.9456981420516968 8:-0.8333333134651184 9:-0.17477580904960632 10:0.9966475963592529 11:0.6521009206771851 12:-1.0 13:0.0 14:0.0 15:0.0 16:0.0 17:-0.3333333432674408 18:-1.0 19:-1.0 20:-0.3333333432674408 21:-1.0 22:0.0
-0.07972120312697845 1:-0.4719081223011017 2:-0.767241358757019 3:-0.8044161200523376 4:-1.0 5:-1.0 6:-0.9833012223243713 7:-0.9105527400970459 8:-0.8625592589378357 9:0.7047507762908936 10:-0.9391067624092102 11:-0.9981370568275452 12:-1.0 13:0.0 14:0.0 15:0.0 16:-1.0 17:-1.0 18:-1.0 19:-1.0 20:-1.0 21:-1.0 22:0.0
-0.009985367492514996 1:-0.3042193353176117 2:-0.0031347961630672216 3:-0.785155713558197 4:-0.47776228189468384 5:-0.5295780897140503 6:-0.995718240737915 7:-0.9675236940383911 8:-0.9961715340614319 9:-0.8885338306427002 10:-0.7240198850631714 11:0.15355168282985687 12:-1.0 13:0.0 14:0.0 15:0.0 16:-1.0 17:-1.0 18:-1.0 19:-1.0 20:-1.0 21:-1.0 22:0.0
-0.07972120312697845 1:-0.3042193353176117 2:-0.44396552443504333 3:-0.7245736718177795 4:-0.7656683921813965 5:-0.8592171669006348 6:-0.9922928810119629 7:-0.6911764740943909 8:-0.53125 9:0.29720553755760193 10:-0.9703698754310608 11:-0.9988754987716675 12:-1.0 13:0.0 14:0.0 15:0.0 16:0.0 17:-0.3333333432674408 18:-0.3333333432674408 19:0.0 20:-0.3333333432674408 21:-0.3333333432674408 22:0.0
-0.07972120312697845 1:0.015444284304976463 2:-0.4733542203903198 3:-0.6648069024085999 4:-1.0 5:-1.0 6:-0.9689574241638184 7:-0.44572749733924866 8:-0.44760820269584656 9:-0.6782035231590271 10:-0.44740673899650574 11:-0.8838739395141602 12:-1.0 13:0.0 14:0.0 15:0.0 16:0.0 17:-0.3333333432674408 18:-0.3333333432674408 19:0.0 20:-0.3333333432674408 21:-0.3333333432674408 22:0.0
0.07972120312697845 1:-0.3915612995624542 2:-0.5010141730308533 3:-1.0 4:-1.0 5:-0.8592171669006348 6:-0.9143652319908142 7:-0.9142857193946838 8:-0.8571428656578064 9:0.2891833484172821 10:-0.997383713722229 11:-0.9999463558197021 12:1.0 13:0.0 14:0.0 15:0.0 16:-1.0 17:-1.0 18:-1.0 19:-1.0 20:-1.0 21:-1.0 22:0.0
0.07972120312697845 1:-0.3915612995624542 2:-0.5010141730308533 3:-1.0 4:-1.0 5:-0.8592171669006348 6:-0.9952901005744934 7:-0.8810068368911743 8:-0.6875 9:0.12413396686315536 10:-0.9947463274002075 11:-0.9999726414680481 12:1.0 13:0.0 14:0.0 15:0.0 16:-1.0 17:-1.0 18:-1.0 19:-1.0 20:-1.0 21:-1.0 22:0.0
-0.07972120312697845 1:-0.6155526638031006 2:-0.8390804529190063 3:-0.8303803205490112 4:-1.0 5:-1.0 6:-0.954185426235199 7:-0.7876564264297485 8:-0.5161290168762207 9:0.3903961479663849 10:-0.9982619881629944 11:-0.9999951720237732 12:-1.0 13:0.0 14:0.0 15:0.0 16:0.0 17:-1.0 18:-0.3333333432674408 19:0.0 20:-0.3333333432674408 21:-0.3333333432674408 22:0.0
-0.07972120312697845 1:-0.3915612995624542 2:-0.1822660118341446 3:-0.801490843296051 4:-0.5617170333862305 5:-0.5928457975387573 6:-0.9955042004585266 7:-0.9134020805358887 8:-0.8591549396514893 9:0.999247133731842 10:-0.8527875542640686 11:-0.5473458170890808 12:-1.0 13:0.0 14:0.0 15:0.0 16:-1.0 17:-1.0 18:-0.3333333432674408 19:0.0 20:-1.0 21:-0.3333333432674408 22:0.0
-0.07972120312697845 1:-0.3042193353176117 2:-0.674876868724823 3:-0.7925494313240051 4:-1.0 5:-1.0 6:-0.9770926833152771 7:-0.9918802380561829 8:-0.1201716735959053 9:0.46319499611854553 10:-0.8610826134681702 11:-0.9893845319747925 12:-1.0 13:0.0 14:0.0 15:0.0 16:0.0 17:-0.3333333432674408 18:-0.3333333432674408 19:0.0 20:-0.3333333432674408 21:-0.3333333432674408 22:0.0
0.07972120312697845 1:-0.4719081223011017 2:-0.5517241358757019 3:-0.7364934682846069 4:-0.7747809886932373 5:-0.8592171669006348 6:-0.9882252216339111 7:-0.9210526347160339 8:-0.8997772932052612 9:-0.04146593436598778 10:-0.1260506957769394 11:-0.703231930732727 12:-1.0 13:0.0 14:0.0 15:0.0 16:0.0 17:-0.3333333432674408 18:-0.3333333432674408 19:0.0 20:-0.3333333432674408 21:-0.3333333432674408 22:0.0
0.07972120312697845 1:-0.6155526638031006 2:-0.8390804529190063 3:-1.0 4:-1.0 5:-1.0 6:-0.9139370322227478 7:-0.8545454740524292 8:-0.9324324131011963 9:-0.05428588390350342 10:-0.9957630634307861 11:-0.9999403357505798 12:1.0 13:0.0 14:0.0 15:0.0 16:-1.0 17:-1.0 18:-1.0 19:-1.0 20:-1.0 21:-1.0 22:0.0
0.07972120312697845 1:0.015444284304976463 2:-0.03448275849223137 3:-1.0 4:-1.0 5:-0.6785190105438232 6:-0.9967886805534363 7:-0.8090185523033142 8:-0.7431507110595703 9:-0.14098535478115082 10:-0.9632808566093445 11:-0.9987998604774475 12:1.0 13:0.0 14:0.0 15:0.0 16:-1.0 17:-1.0 18:-0.3333333432674408 19:0.0 20:-0.3333333432674408 21:-0.3333333432674408 22:0.0
-0.07972120312697845 1:0.7112249135971069 2:0.6551724076271057 3:-0.5652716159820557 4:0.10449344664812088 5:-0.25173816084861755 6:-0.9160779118537903 7:-0.4210105538368225 8:-0.7155963182449341 9:-0.15895837545394897 10:-0.8827487230300903 11:-0.9814125299453735 12:1.0 13:0.0 14:0.0 15:0.0 16:-1.0 17:-1.0 18:-1.0 19:-1.0 20:-1.0 21:-1.0 22:0.0
-0.07972120312697845 1:0.48723360896110535 2:0.5258620977401733 3:-0.7208402156829834 4:-0.36606302857398987 5:-0.5295780897140503 6:-0.9905802011489868 7:-0.11913815140724182 8:-0.75 9:-0.37985679507255554 10:-0.9717673659324646 11:-0.9991495013237 12:1.0 13:0.0 14:0.0 15:0.0 16:-1.0 17:-1.0 18:-1.0 19:-1.0 20:-1.0 21:-1.0 22:0.0
-0.07972120312697845 1:0.7112249135971069 2:0.7640653252601624 3:-0.7240676879882812 4:-0.11529116332530975 5:-0.21110114455223083 6:-0.9723827838897705 7:-0.44964417815208435 8:-0.6951219439506531 9:-0.7359653115272522 10:-0.9768622517585754 11:-0.9966540336608887 12:1.0 13:0.0 14:0.0 15:0.0 16:-1.0 17:-1.0 18:-1.0 19:-1.0 20:-1.0 21:-1.0 22:0.0
-0.07972120312697845 1:0.7112249135971069 2:0.6551724076271057 3:-0.20063571631908417 4:0.6249955296516418 5:0.12219228595495224 6:-0.5345750451087952 7:-0.844011127948761 8:-0.8046875 9:0.443580687046051 10:-0.9874016046524048 11:-0.9999056458473206 12:1.0 13:0.0 14:0.0 15:0.0 16:0.0 17:-0.3333333432674408 18:-0.3333333432674408 19:0.0 20:-0.3333333432674408 21:-0.3333333432674408 22:0.0
0.07972120312697845 1:-0.4719081223011017 2:-0.767241358757019 3:-0.768042266368866 4:-1.0 5:-1.0 6:-0.8023977875709534 7:-0.9500866532325745 8:-0.9213309288024902 9:0.6033985614776611 10:-0.9057599902153015 11:-0.9799801111221313 12:-1.0 13:0.0 14:0.0 15:0.0 16:0.0 17:-0.3333333432674408 18:-0.3333333432674408 19:0.0 20:-0.3333333432674408 21:-0.3333333432674408 22:0.0
0.07972120312697845 1:-0.4719081223011017 2:-0.767241358757019 3:-0.8018251657485962 4:-1.0 5:-1.0 6:-0.9982873201370239 7:-0.8699551820755005 8:-0.5289855003356934 9:-0.22312429547309875 10:-0.9832732677459717 11:-0.9997538328170776 12:-1.0 13:0.0 14:0.0 15:0.0 16:0.0 17:-0.3333333432674408 18:-0.3333333432674408 19:0.0 20:-0.3333333432674408 21:-0.3333333432674408 22:0.0
0.07972120312697845 1:-0.3915612995624542 2:-0.7241379022598267 3:-0.7696458101272583 4:-1.0 5:-1.0 6:-0.9997859001159668 7:-0.8169934749603271 8:-0.841269850730896 9:-0.250326544046402 10:-0.9880233407020569 11:-0.9997559189796448 12:-1.0 13:0.0 14:0.0 15:0.0 16:0.0 17:-0.3333333432674408 18:-1.0 19:0.0 20:-0.3333333432674408 21:-0.3333333432674408 22:0.0
-0.07972120312697845 1:-0.5462976694107056 2:-0.8052738308906555 3:-0.666228175163269 4:-1.0 5:-1.0 6:-0.5750374794006348 7:-0.6609686613082886 8:0.35777777433395386 9:-0.4538044333457947 10:-0.9708074927330017 11:-0.9957658052444458 12:-1.0 13:0.0 14:0.0 15:0.0 16:0.0 17:-0.3333333432674408 18:-0.3333333432674408 19:0.0 20:-0.3333333432674408 21:-1.0 22:0.0
0.07972120312697845 1:-0.10278624296188354 2:-0.3054187297821045 3:-0.679445743560791 4:-0.7319096922874451 5:-0.8592171669006348 6:-0.988867461681366 7:-0.8628011345863342 8:-0.8588410019874573 9:-0.26528608798980713 10:0.7905259132385254 11:0.46892231702804565 12:1.0 13:0.0 14:0.0 15:0.0 16:0.0 17:-1.0 18:-0.3333333432674408 19:0.0 20:-0.3333333432674408 21:-0.3333333432674408 22:0.0
0.07972120312697845 1:0.7112249135971069 2:0.6551724076271057 3:-0.008694411255419254 4:0.6961944103240967 5:0.07287411391735077 6:-0.994861900806427 7:-0.6055900454521179 8:-0.5859872698783875 9:0.046807315200567245 10:-0.9724011421203613 11:-0.9994390606880188 12:-1.0 13:0.0 14:0.0 15:0.0 16:0.0 17:-0.3333333432674408 18:-0.3333333432674408 19:0.0 20:-0.3333333432674408 21:-0.3333333432674408 22:0.0
0.07972120312697845 1:-0.4719081223011017 2:-0.5517241358757019 3:-0.7943778038024902 4:-0.8202494382858276 5:-0.8592171669006348 6:-0.9959323406219482 7:-0.8682634830474854 8:-0.7972972989082336 9:-0.3168042004108429 10:-0.9893931746482849 11:-0.999893069267273 12:-1.0 13:0.0 14:0.0 15:0.0 16:0.0 17:-1.0 18:-0.3333333432674408 19:0.0 20:-1.0 21:-0.3333333432674408 22:0.0
0.07972120312697845 1:-0.3915612995624542 2:-0.5010141730308533 3:-0.8170889019966125 4:-0.8386603593826294 5:-0.8592171669006348 6:-0.9475486874580383 7:-0.8484848737716675 8:-0.7018348574638367 9:0.10540297627449036 10:-0.9907243847846985 11:-0.9998207092285156 12:-1.0 13:0.0 14:0.0 15:0.0 16:0.0 17:-1.0 18:-1.0 19:0.0 20:-0.3333333432674408 21:-1.0 22:0.0
0.07972120312697845 1:-0.3042193353176117 2:-0.674876868724823 3:-0.8094994425773621 4:-1.0 5:-1.0 6:-0.8128880262374878 7:-0.4853801131248474 8:-0.5432692170143127 9:-0.5985862612724304 10:-0.9762542247772217 11:-0.9982737302780151 12:1.0 13:0.0 14:0.0 15:0.0 16:-1.0 17:-1.0 18:-1.0 19:-1.0 20:-1.0 21:-1.0 22:0.0
-0.07972120312697845 1:-0.20854705572128296 2:-0.6180371642112732 3:-0.7788228392601013 4:-1.0 5:-1.0 6:-0.9985014200210571 7:-0.6485355496406555 8:-0.8958333134651184 9:0.06507889181375504 10:-0.48516955971717834 11:-0.8104825615882874 12:-1.0 13:0.0 14:0.0 15:0.0 16:0.0 17:-0.3333333432674408 18:-1.0 19:0.0 20:-0.3333333432674408 21:-0.3333333432674408 22:0.0
-0.07972120312697845 1:0.015444284304976463 2:-0.4733542203903198 3:-0.7543882131576538 4:-1.0 5:-1.0 6:-0.9880111217498779 7:-0.6987060904502869 8:-0.7167139053344727 9:0.13798443973064423 10:-0.8884314298629761 11:-0.9937452673912048 12:-1.0 13:0.0 14:0.0 15:0.0 16:0.0 17:-0.3333333432674408 18:-0.3333333432674408 19:0.0 20:-0.3333333432674408 21:-0.3333333432674408 22:0.0
-0.07972120312697845 1:-0.4719081223011017 2:-0.5517241358757019 3:-0.7652740478515625 4:-0.7971321940422058 5:-0.8592171669006348 6:-0.8798972368240356 7:-0.9075850248336792 8:-0.8344370722770691 9:0.48750168085098267 10:-0.9876106381416321 11:-0.9997050762176514 12:-1.0 13:0.0 14:0.0 15:0.0 16:0.0 17:-0.3333333432674408 18:-0.3333333432674408 19:0.0 20:-0.3333333432674408 21:-0.3333333432674408 22:0.0
-0.07972120312697845 1:-0.10278624296188354 2:-0.5517241358757019 3:-0.804882287979126 4:-1.0 5:-1.0 6:-0.9963605403900146 7:-0.5857142806053162 8:-0.4680851101875305 9:-0.6048035621643066 10:-0.483446329832077 11:-0.809640645980835 12:-1.0 13:0.0 14:0.0 15:0.0 16:0.0 17:-0.3333333432674408 18:-0.3333333432674408 19:0.0 20:-0.3333333432674408 21:-0.3333333432674408 22:0.0
0.07972120312697845 1:0.14948301017284393 2:0.20258620381355286 3:-0.6975089311599731 4:-0.09955895692110062 5:-0.2588394284248352 6:-0.9995718002319336 7:-0.9669811129570007 8:-0.9702380895614624 9:-0.7851473093032837 10:-0.99395751953125 11:-0.9999009370803833 12:1.0 13:0.0 14:0.0 15:0.0 16:-1.0 17:-1.0 18:-1.0 19:-1.0 20:-1.0 21:-1.0 22:0.0
0.07972120312697845 1:0.3042193353176117 2:0.4117647111415863 3:-1.0 4:-1.0 5:-0.2966997027397156 6:-0.9997859001159668 7:-0.9959452748298645 8:-0.9816176295280457 9:-0.8838316798210144 10:-0.9771528840065002 11:-0.9978939294815063 12:1.0 13:0.0 14:0.0 15:0.0 16:-1.0 17:-1.0 18:-1.0 19:-1.0 20:-1.0 21:-1.0 22:0.0
0.07972120312697845 1:0.3042193353176117 2:0.49183303117752075 3:-0.5344328284263611 4:0.030164141207933426 5:-0.389023095369339 6:-0.9843716621398926 7:-0.92720627784729 8:-0.8792270421981812 9:-0.7183675169944763 10:-0.8011414408683777 11:-0.8779651522636414 12:1.0 13:0.0 14:0.0 15:0.0 16:-1.0 17:-1.0 18:-1.0 19:-1.0 20:-1.0 21:-1.0 22:0.0
0.07972120312697845 1:0.14948301017284393 2:0.3103448152542114 3:-0.767560601234436 4:-0.4635910093784332 5:-0.5496304035186768 6:-0.9993577599525452 7:-0.9387755393981934 8:-0.8655914068222046 9:-0.8131787776947021 10:-0.9846001863479614 11:-0.9989991784095764 12:1.0 13:0.0 14:0.0 15:0.0 16:-1.0 17:-1.0 18:-1.0 19:-1.0 20:-1.0 21:-1.0 22:0.0
-0.07972120312697845 1:0.7112249135971069 2:0.835082471370697 3:-1.0 4:-1.0 5:0.4991988241672516 6:-0.9484050273895264 7:-0.6851385235786438 8:-0.33453238010406494 9:-0.8227034211158752 10:-0.9886596202850342 11:-0.9993376731872559 12:1.0 13:0.0 14:0.0 15:0.0 16:-1.0 17:-1.0 18:-1.0 19:-1.0 20:-1.0 21:-1.0 22:0.0
0.07972120312697845 1:-0.3042193353176117 2:-0.674876868724823 3:-0.7571423053741455 4:-1.0 5:-1.0 6:-0.9289231300354004 7:-0.8542793393135071 8:-0.7188969850540161 9:0.25124049186706543 10:-0.891474187374115 11:-0.9855275750160217 12:-1.0 13:0.0 14:0.0 15:0.0 16:0.0 17:-0.3333333432674408 18:-0.3333333432674408 19:0.0 20:-0.3333333432674408 21:-0.3333333432674408 22:0.0
-0.07972120312697845 1:0.3042193353176117 2:0.4117647111415863 3:-0.7356154322624207 4:-0.17362675070762634 5:-0.26311925053596497 6:-0.9950760006904602 7:-0.800000011920929 8:-0.7451456189155579 9:-0.21569719910621643 10:-0.939730703830719 11:-0.963913083076477 12:1.0 13:0.0 14:0.0 15:0.0 16:-1.0 17:-1.0 18:-1.0 19:-1.0 20:-1.0 21:-1.0 22:0.0
0.07972120312697845 1:-0.20854705572128296 2:-0.6180371642112732 3:-0.7898277640342712 4:-1.0 5:-1.0 6:-0.9959323406219482 7:-0.852090060710907 8:-0.9308865666389465 9:0.13313151895999908 10:-0.9467992782592773 11:-0.9989942908287048 12:-1.0 13:0.0 14:0.0 15:0.0 16:0.0 17:-0.3333333432674408 18:-0.3333333432674408 19:0.0 20:-0.3333333432674408 21:-0.3333333432674408 22:0.0
-0.07972120312697845 1:-0.3915612995624542 2:-0.7241379022598267 3:-0.8085877895355225 4:-1.0 5:-1.0 6:-0.9818025827407837 7:-0.18564526736736298 8:-0.6090047359466553 9:0.07644158601760864 10:-0.9641798138618469 11:-0.9958390593528748 12:1.0 13:0.0 14:0.0 15:0.0 16:-1.0 17:-1.0 18:-1.0 19:-1.0 20:-1.0 21:-1.0 22:0.0
0.07972120312697845 1:0.7112249135971069 2:0.4670846462249756 3:-0.6098189353942871 4:-0.5548771023750305 5:-0.7888122200965881 6:-0.8407193422317505 7:-0.6074534058570862 8:-0.6474359035491943 9:-0.7668128609657288 10:-0.6577484011650085 11:-0.7685061097145081 12:-1.0 13:0.0 14:0.0 15:0.0 16:0.0 17:-0.3333333432674408 18:-0.3333333432674408 19:0.0 20:-0.3333333432674408 21:-0.3333333432674408 22:0.0
-0.07972120312697845 1:0.015444284304976463 2:0.4482758641242981 3:-0.5934460759162903 4:0.2163548618555069 5:-0.020668458193540573 6:-0.9766645431518555 7:-0.8954758048057556 8:-0.6111111044883728 9:-0.7384648323059082 10:-0.9587360620498657 11:-0.9946577548980713 12:-1.0 13:0.0 14:0.0 15:0.0 16:-1.0 17:-0.3333333432674408 18:-0.3333333432674408 19:0.0 20:-0.3333333432674408 21:-0.3333333432674408 22:0.0
-0.07972120312697845 1:0.3042193353176117 2:0.49183303117752075 3:-0.5131548047065735 4:0.054877202957868576 5:-0.389023095369339 6:-0.9912224411964417 7:-0.8746380805969238 8:-0.8784933090209961 9:-0.9469420313835144 10:-0.9009727835655212 11:-0.8529329299926758 12:-1.0 13:0.0 14:0.0 15:0.0 16:0.0 17:-0.3333333432674408 18:-0.3333333432674408 19:0.0 20:-0.3333333432674408 21:-0.3333333432674408 22:0.0
-0.07972120312697845 1:0.3042193353176117 2:0.49183303117752075 3:-0.6285008192062378 4:0.006135679315775633 5:-0.2669755816459656 6:-0.989723801612854 7:-0.8053528070449829 8:-0.7893772721290588 9:-0.2840176522731781 10:-0.988834798336029 11:-0.9998123645782471 12:-1.0 13:0.0 14:0.0 15:0.0 16:0.0 17:-0.3333333432674408 18:-0.3333333432674408 19:0.0 20:-0.3333333432674408 21:-0.3333333432674408 22:0.0
-0.07972120312697845 1:-0.20854705572128296 2:-0.37931033968925476 3:-0.8104856014251709 4:-0.83327317237854 5:-0.8592171669006348 6:-0.9967886805534363 7:-0.9589235186576843 8:-0.5833333134651184 9:-0.9866836667060852 10:-0.9837116003036499 11:-0.9973521828651428 12:-1.0 13:0.0 14:0.0 15:0.0 16:-1.0 17:-1.0 18:-1.0 19:-1.0 20:-1.0 21:-1.0 22:0.0
0.07972120312697845 1:-0.4719081223011017 2:-0.5517241358757019 3:-0.8009881377220154 4:-0.8255741000175476 5:-0.8592171669006348 6:-0.9993577599525452 7:-0.9724137783050537 8:-0.9311926364898682 9:-0.5721669793128967 10:-0.9458104372024536 11:-0.9956712126731873 12:1.0 13:0.0 14:0.0 15:0.0 16:0.0 17:-1.0 18:-1.0 19:-1.0 20:-1.0 21:-1.0 22:0.0
0.07972120312697845 1:-0.6803363561630249 2:-0.674876868724823 3:-1.0 4:-1.0 5:-0.8592171669006348 6:-1.0 7:-1.0 8:-1.0 9:-0.6078881025314331 10:-0.99288409948349 11:-0.9996461868286133 12:1.0 13:0.0 14:0.0 15:0.0 16:-1.0 17:-1.0 18:-1.0 19:-1.0 20:-1.0 21:-1.0 22:0.0
0.07972120312697845 1:-0.3915612995624542 2:-0.7241379022598267 3:-1.0 4:-1.0 5:-1.0 6:-1.0 7:-0.974554717540741 8:-1.0 9:-0.8260475993156433 10:-0.9910202026367188 11:-0.9996958374977112 12:1.0 13:0.0 14:0.0 15:0.0 16:-1.0 17:-1.0 18:-1.0 19:-1.0 20:-1.0 21:-1.0 22:0.0
0.07972120312697845 1:-0.6155526638031006 2:-0.8390804529190063 3:-1.0 4:-1.0 5:-1.0 6:-1.0 7:-0.9733079075813293 8:-0.9709302186965942 9:-0.9333454370498657 10:-0.9652076959609985 11:-0.9824022650718689 12:1.0 13:0.0 14:0.0 15:0.0 16:-1.0 17:-1.0 18:-1.0 19:-1.0 20:-0.3333333432674408 21:-1.0 22:0.0
-0.07972120312697845 1:-0.8528395295143127 2:-0.9435736536979675 3:-1.0 4:-1.0 5:-1.0 6:-0.999143660068512 7:-0.970310389995575 8:-0.9561403393745422 9:-0.9213809967041016 10:-0.9813660383224487 11:-0.9929167628288269 12:1.0 13:0.0 14:0.0 15:0.0 16:-1.0 17:-1.0 18:-1.0 19:-1.0 20:-1.0 21:-1.0 22:0.0
-0.07972120312697845 1:-0.7411913275718689 2:-0.8965517282485962 3:-0.8215978741645813 4:-1.0 5:-1.0 6:-0.9929351210594177 7:-0.742397129535675 8:-0.782608687877655 9:0.2070658653974533 10:-0.9902076721191406 11:-0.9998233318328857 12:1.0 13:0.0 14:0.0 15:0.0 16:-1.0 17:-1.0 18:-1.0 19:-1.0 20:-1.0 21:-1.0 22:0.0
0.07972120312697845 1:0.48723360896110535 2:0.4334975481033325 3:-0.5359840393066406 4:0.12651607394218445 5:-0.27059224247932434 6:-0.9933633208274841 7:-0.8133686184883118 8:-0.8125 9:0.08509165048599243 10:-0.9476916790008545 11:-0.9956790208816528 12:-1.0 13:0.0 14:0.0 15:0.0 16:0.0 17:-0.3333333432674408 18:-0.3333333432674408 19:0.0 20:-0.3333333432674408 21:-0.3333333432674408 22:0.0
-0.07972120312697845 1:-0.3915612995624542 2:-0.7241379022598267 3:-0.822812020778656 4:-1.0 5:-1.0 6:-0.9989295601844788 7:-0.5298651456832886 8:-0.778761088848114 9:-0.18972522020339966 10:-0.9891059398651123 11:-0.9995322823524475 12:1.0 13:0.0 14:0.0 15:0.0 16:-1.0 17:-1.0 18:-1.0 19:-1.0 20:-1.0 21:-1.0 22:0.0
0.07972120312697845 1:-0.4719081223011017 2:-0.37931033968925476 3:-0.6965183615684509 4:-0.24777142703533173 5:-0.44516071677207947 6:-0.9976450204849243 7:-0.9801136255264282 8:-0.8287671208381653 9:0.6912323236465454 10:-0.9668895602226257 11:-0.97967529296875 12:-1.0 13:0.0 14:0.0 15:0.0 16:0.0 17:-0.3333333432674408 18:-0.3333333432674408 19:0.0 20:-0.3333333432674408 21:-0.3333333432674408 22:0.0
-0.07972120312697845 1:-0.10278624296188354 2:0.13793103396892548 3:-0.6993759274482727 4:-0.3521517813205719 5:-0.5496304035186768 6:-0.9818025827407837 7:-0.882758617401123 8:-0.8959473967552185 9:0.957165002822876 10:-0.917718768119812 11:-0.9817781448364258 12:1.0 13:0.0 14:0.0 15:0.0 16:-1.0 17:-1.0 18:-1.0 19:-1.0 20:-1.0 21:-1.0 22:0.0
0.07972120312697845 1:-0.3042193353176117 2:-0.44396552443504333 3:-0.7900142669677734 4:-0.8167497515678406 5:-0.8592171669006348 6:-0.9989295601844788 7:-0.9185382723808289 8:-0.5754716992378235 9:-0.4827447831630707 10:-0.9936832189559937 11:-0.999973714351654 12:-1.0 13:0.0 14:0.0 15:0.0 16:0.0 17:-0.3333333432674408 18:-0.3333333432674408 19:0.0 20:-0.3333333432674408 21:-0.3333333432674408 22:0.0
0.07972120312697845 1:1.0 2:0.802955687046051 3:-1.0 4:-1.0 5:0.3981177508831024 6:-0.802825927734375 7:0.12546584010124207 8:-0.46256038546562195 9:-0.17618867754936218 10:-0.9865805506706238 11:-0.9998957514762878 12:-1.0 13:0.0 14:0.0 15:0.0 16:-1.0 17:-1.0 18:-1.0 19:-1.0 20:-1.0 21:-1.0 22:0.0
0.07972120312697845 1:-0.3042193353176117 2:-0.12068965286016464 3:-0.7703598737716675 4:-0.5082080960273743 5:-0.5928457975387573 6:-0.9980732202529907 7:-0.9721115827560425 8:-0.949999988079071 9:0.19114616513252258 10:-0.9833805561065674 11:-0.9997276663780212 12:1.0 13:0.0 14:0.0 15:0.0 16:-1.0 17:-0.3333333432674408 18:-1.0 19:-1.0 20:-1.0 21:-1.0 22:0.0
-0.07972120312697845 1:0.7112249135971069 2:0.6551724076271057 3:-0.733715832233429 4:-0.19400516152381897 5:-0.2966997027397156 6:-0.9925069808959961 7:-0.7295082211494446 8:-0.7402597665786743 9:-0.504770040512085 10:-0.9911467432975769 11:-0.999441921710968 12:1.0 13:0.0 14:0.0 15:0.0 16:0.0 17:-0.3333333432674408 18:-1.0 19:-1.0 20:-1.0 21:-1.0 22:0.0
0.07972120312697845 1:-0.6155526638031006 2:-0.6379310488700867 3:-1.0 4:-1.0 5:-0.8592171669006348 6:-0.7657889127731323 7:-0.9776536226272583 8:-0.8611111044883728 9:0.7608421444892883 10:-0.9979826807975769 11:-0.9999927878379822 12:-1.0 13:0.0 14:0.0 15:0.0 16:-1.0 17:-0.3333333432674408 18:-0.3333333432674408 19:0.0 20:-0.3333333432674408 21:-0.3333333432674408 22:0.0
-0.07972120312697845 1:-0.3915612995624542 2:-0.7241379022598267 3:-0.8118746876716614 4:-1.0 5:-1.0 6:-0.9385570287704468 7:-0.8533333539962769 8:-0.7368420958518982 9:0.5289614200592041 10:-0.9007185697555542 11:-0.9826378226280212 12:-1.0 13:0.0 14:0.0 15:0.0 16:0.0 17:-0.3333333432674408 18:-0.3333333432674408 19:0.0 20:-0.3333333432674408 21:-0.3333333432674408 22:0.0
0.07972120312697845 1:-0.6155526638031006 2:-0.6379310488700867 3:-0.7760679125785828 4:-0.8056444525718689 5:-0.8592171669006348 6:-0.9854421019554138 7:-0.9748124480247498 8:-0.8448275923728943 9:0.5555902719497681 10:-0.9903621077537537 11:-0.9997074604034424 12:1.0 13:0.0 14:0.0 15:0.0 16:-1.0 17:-1.0 18:-1.0 19:-1.0 20:-1.0 21:-1.0 22:0.0
-0.07972120312697845 1:0.48723360896110535 2:0.4334975481033325 3:-1.0 4:-1.0 5:-0.36298781633377075 6:-0.9985014200210571 7:-0.7357798218727112 8:-0.9680511355400085 9:-0.3121156096458435 10:-0.9456157088279724 11:-0.9960681796073914 12:1.0 13:0.0 14:0.0 15:0.0 16:-1.0 17:-1.0 18:-1.0 19:-1.0 20:-1.0 21:-1.0 22:0.0
0.07972120312697845 1:-0.3042193353176117 2:-0.674876868724823 3:-0.7793290615081787 4:-1.0 5:-1.0 6:-0.9980732202529907 7:-0.767534077167511 8:-0.7077922224998474 9:-0.3344719707965851 10:-0.986702561378479 11:-0.9997630715370178 12:-1.0 13:0.0 14:0.0 15:0.0 16:0.0 17:-0.3333333432674408 18:-0.3333333432674408 19:0.0 20:-0.3333333432674408 21:-0.3333333432674408 22:0.0
0.07972120312697845 1:0.3042193353176117 2:0.5566502213478088 3:-1.0 4:-1.0 5:-0.21110114455223083 6:-0.994861900806427 7:-0.9680542945861816 8:-0.7183098793029785 9:-0.9248679876327515 10:-0.9416810274124146 11:-0.9354578256607056 12:1.0 13:0.0 14:0.0 15:0.0 16:-1.0 17:-1.0 18:-1.0 19:-1.0 20:-1.0 21:-1.0 22:0.0
-0.07972120312697845 1:-0.20854705572128296 2:-0.1967545598745346 3:-0.6041503548622131 4:-0.11054025590419769 5:-0.44516071677207947 6:-0.9925069808959961 7:-0.8082191944122314 8:-0.7522522807121277 9:0.09461285918951035 10:-0.9672998785972595 11:-0.997511088848114 12:-1.0 13:0.0 14:0.0 15:0.0 16:0.0 17:-0.3333333432674408 18:-0.3333333432674408 19:0.0 20:-0.3333333432674408 21:-0.3333333432674408 22:0.0
-0.07972120312697845 1:-0.20854705572128296 2:-0.6180371642112732 3:-0.8015823364257812 4:-1.0 5:-1.0 6:-0.9976450204849243 7:-0.7592232823371887 8:-0.7916666865348816 9:-0.7526649832725525 10:-0.9683371186256409 11:-0.9926121830940247 12:-1.0 13:0.0 14:0.0 15:0.0 16:0.0 17:-0.3333333432674408 18:-0.3333333432674408 19:0.0 20:-0.3333333432674408 21:-1.0 22:0.0
-0.07972120312697845 1:-0.5462976694107056 2:-0.4285714328289032 3:-0.7329643368721008 4:-0.5401203036308289 5:-0.6785190105438232 6:-0.9995718002319336 7:-0.9584905505180359 8:-0.8999999761581421 9:-0.02154286950826645 10:-0.8634500503540039 11:-0.9862176775932312 12:-1.0 13:0.0 14:0.0 15:0.0 16:0.0 17:-0.3333333432674408 18:-0.3333333432674408 19:0.0 20:-0.3333333432674408 21:-0.3333333432674408 22:0.0
0.07972120312697845 1:-0.10278624296188354 2:-0.3054187297821045 3:-1.0 4:-1.0 5:-0.8592171669006348 6:-0.8891029953956604 7:-0.9154868721961975 8:-0.9609375 9:0.06486662477254868 10:-0.9745834469795227 11:-0.999215841293335 12:1.0 13:0.0 14:0.0 15:0.0 16:-1.0 17:-1.0 18:-1.0 19:-1.0 20:-1.0 21:-1.0 22:0.0
0.07972120312697845 1:0.015444284304976463 2:0.501915693283081 3:-1.0 4:-1.0 5:-0.14618591964244843 6:-0.7049882411956787 7:-0.9043062329292297 8:-0.7972972989082336 9:-0.6775223016738892 10:-0.9736674427986145 11:-0.9913079142570496 12:1.0 13:0.0 14:0.0 15:0.0 16:-1.0 17:-1.0 18:-1.0 19:-1.0 20:-1.0 21:-1.0 22:0.0
0.07972120312697845 1:0.48723360896110535 2:0.5258620977401733 3:-1.0 4:-1.0 5:-0.08820884674787521 6:-0.9935774207115173 7:-0.9450117945671082 8:-0.841269850730896 9:-0.6413449048995972 10:-0.9871898293495178 11:-0.9993468523025513 12:1.0 13:0.0 14:0.0 15:0.0 16:-1.0 17:-1.0 18:-1.0 19:-1.0 20:-1.0 21:-1.0 22:0.0
0.07972120312697845 1:0.48723360896110535 2:0.5258620977401733 3:-1.0 4:-1.0 5:-0.28185129165649414 6:-0.994861900806427 7:-0.7948718070983887 8:-0.6875 9:-0.9690782427787781 10:-0.9863710999488831 11:-0.9974378347396851 12:1.0 13:0.0 14:0.0 15:0.0 16:-1.0 17:-1.0 18:-1.0 19:-1.0 20:-1.0 21:-1.0 22:0.0
-0.07972120312697845 1:0.3042193353176117 2:0.49183303117752075 3:-1.0 4:-1.0 5:-0.37773165106773376 6:-0.8689787983894348 7:-0.7640449404716492 8:-0.8706896305084229 9:-0.4820840060710907 10:-0.9068222045898438 11:-0.8183104991912842 12:1.0 13:0.0 14:0.0 15:0.0 16:-1.0 17:-1.0 18:-1.0 19:-1.0 20:-1.0 21:-1.0 22:0.0
0.07972120312697845 1:-0.4719081223011017 2:-0.767241358757019 3:-0.7776258587837219 4:-1.0 5:-1.0 6:-0.8786126971244812 7:-0.8666666746139526 8:-0.7029703259468079 9:0.7694764137268066 10:-0.9215331077575684 11:-0.991125226020813 12:-1.0 13:0.0 14:0.0 15:0.0 16:0.0 17:-1.0 18:-0.3333333432674408 19:0.0 20:-0.3333333432674408 21:-0.3333333432674408 22:0.0
-0.07972120312697845 1:0.015444284304976463 2:0.38530734181404114 3:-1.0 4:-1.0 5:-0.17004747688770294 6:-0.9907942414283752 7:-0.7823129296302795 8:-0.7549019455909729 9:0.23581188917160034 10:-0.9964362382888794 11:-0.9999722242355347 12:1.0 13:0.0 14:0.0 15:0.0 16:-1.0 17:-1.0 18:-1.0 19:-1.0 20:-1.0 21:-1.0 22:0.0
0.07972120312697845 1:-0.3042193353176117 2:-0.674876868724823 3:-0.7648003697395325 4:-1.0 5:-1.0 6:-0.9972168803215027 7:-0.7777777910232544 8:-0.7897196412086487 9:-0.2721247375011444 10:-0.9848884344100952 11:-0.9997529983520508 12:-1.0 13:0.0 14:0.0 15:0.0 16:0.0 17:-0.3333333432674408 18:-0.3333333432674408 19:0.0 20:-0.3333333432674408 21:-0.3333333432674408 22:0.0
-0.07972120312697845 1:0.3042193353176117 2:0.5566502213478088 3:-1.0 4:-1.0 5:-0.6562143564224243 6:-0.9989295601844788 7:-0.929121732711792 8:-0.9005424976348877 9:-0.2858917713165283 10:-0.6211931109428406 11:-0.9367935061454773 12:1.0 13:0.0 14:0.0 15:0.0 16:-1.0 17:-1.0 18:-1.0 19:-1.0 20:-1.0 21:-1.0 22:0.0
0.07972120312697845 1:-0.3915612995624542 2:-0.1822660118341446 3:-0.7752383351325989 4:-0.4331100285053253 5:-0.49870580434799194 6:-0.9514022469520569 7:-0.9439252614974976 8:-1.0 9:0.6493874788284302 10:-0.9959485530853271 11:-0.9999873042106628 12:-1.0 13:0.0 14:0.0 15:0.0 16:0.0 17:-0.3333333432674408 18:-0.3333333432674408 19:0.0 20:-0.3333333432674408 21:-0.3333333432674408 22:0.0
-0.07972120312697845 1:0.015444284304976463 2:-0.2201591581106186 3:-0.7493560910224915 4:-0.7847086787223816 5:-0.8592171669006348 6:-0.9944337606430054 7:-0.8514240980148315 8:-0.8854166865348816 9:0.36797091364860535 10:-0.9130083322525024 11:-0.9965392351150513 12:-1.0 13:0.0 14:0.0 15:0.0 16:0.0 17:-0.3333333432674408 18:-0.3333333432674408 19:0.0 20:-0.3333333432674408 21:-0.3333333432674408 22:0.0
0.07972120312697845 1:-0.20854705572128296 2:-0.37931033968925476 3:-1.0 4:-1.0 5:-0.8592171669006348 6:-0.9993577599525452 7:-0.9691516757011414 8:-0.8557692170143127 9:-0.98421710729599 10:-0.9713701009750366 11:-0.9949397444725037 12:1.0 13:0.0 14:0.0 15:0.0 16:-1.0 17:-1.0 18:-1.0 19:-1.0 20:-1.0 21:-1.0 22:0.0
-0.07972120312697845 1:-0.8528395295143127 2:-0.9435736536979675 3:-0.8406762480735779 4:-1.0 5:-1.0 6:-0.9995718002319336 7:-0.9928229451179504 8:-0.9479166865348816 9:-0.918774425983429 10:-0.9887654185295105 11:-0.9992867708206177 12:1.0 13:0.0 14:0.0 15:0.0 16:-1.0 17:-1.0 18:-1.0 19:-1.0 20:-1.0 21:-1.0 22:0.0
0.07972120312697845 1:0.7112249135971069 2:0.4670846462249756 3:-0.5677461624145508 4:0.09463907033205032 5:-0.2606980800628662 6:-0.9028045535087585 7:-0.4500366747379303 8:-0.6605550050735474 9:0.3072710335254669 10:-0.9487018585205078 11:-0.9976342916488647 12:-1.0 13:0.0 14:0.0 15:0.0 16:0.0 17:-0.3333333432674408 18:-0.3333333432674408 19:0.0 20:-0.3333333432674408 21:-0.3333333432674408 22:0.0
-0.07972120312697845 1:0.48723360896110535 2:0.4334975481033325 3:-0.606045126914978 4:0.015066073276102543 5:-0.2974556088447571 6:-0.9877970218658447 7:-0.9020000100135803 8:-0.7783687710762024 9:-0.5910906791687012 10:-0.9802136421203613 11:-0.9975520968437195 12:-1.0 13:0.0 14:0.0 15:0.0 16:0.0 17:-0.3333333432674408 18:-0.3333333432674408 19:0.0 20:-0.3333333432674408 21:-0.3333333432674408 22:0.0
-0.07972120312697845 1:0.7112249135971069 2:0.6551724076271057 3:-0.6053611040115356 4:0.2958601713180542 5:0.16728636622428894 6:-0.9993577599525452 7:-0.8753117322921753 8:-0.625 9:0.28518199920654297 10:-0.9870798587799072 11:-0.9998478889465332 12:-1.0 13:0.0 14:0.0 15:0.0 16:-1.0 17:-1.0 18:-1.0 19:-1.0 20:-1.0 21:-1.0 22:0.0
-0.07972120312697845 1:0.48723360896110535 2:0.3103448152542114 3:-0.7048466205596924 4:-0.3781111240386963 5:-0.5668150186538696 6:-0.9987154603004456 7:-0.8974359035491943 8:-0.9622030258178711 9:-0.4114092290401459 10:-0.8864126205444336 11:-0.9937938451766968 12:-1.0 13:0.0 14:0.0 15:0.0 16:0.0 17:-0.3333333432674408 18:-0.3333333432674408 19:0.0 20:-0.3333333432674408 21:-0.3333333432674408 22:0.0
-0.07972120312697845 1:0.3042193353176117 2:0.4117647111415863 3:-0.6832802295684814 4:-0.1755812019109726 5:-0.38719648122787476 6:-0.9963605403900146 7:-0.8526315689086914 8:-0.8284313678741455 9:-0.7809293866157532 10:-0.9680421948432922 11:-0.9923309087753296 12:-1.0 13:0.0 14:0.0 15:0.0 16:0.0 17:-0.3333333432674408 18:-0.3333333432674408 19:0.0 20:-0.3333333432674408 21:-1.0 22:0.0
0.07972120312697845 1:-0.5462976694107056 2:-0.8052738308906555 3:-0.8247166275978088 4:-1.0 5:-1.0 6:-0.9952901005744934 7:-0.9834162592887878 8:-0.8648648858070374 9:-0.7195045351982117 10:-0.9721789360046387 11:-0.9985318183898926 12:1.0 13:0.0 14:0.0 15:0.0 16:-1.0 17:-1.0 18:-1.0 19:-1.0 20:-1.0 21:-1.0 22:0.0
0.07972120312697845 1:-0.4719081223011017 2:-0.5517241358757019 3:-1.0 4:-1.0 5:-0.8592171669006348 6:-1.0 7:-0.9736841917037964 8:-1.0 9:-0.9342526197433472 10:-0.990397036075592 11:-0.9988750219345093 12:1.0 13:0.0 14:0.0 15:0.0 16:-1.0 17:-1.0 18:-1.0 19:-1.0 20:-1.0 21:-1.0 22:0.0
0.07972120312697845 1:-0.6155526638031006 2:-0.4733542203903198 3:-1.0 4:-1.0 5:-0.6785190105438232 6:-1.0 7:-0.9944289922714233 8:-1.0 9:-0.9628232717514038 10:-0.969496488571167 11:-0.9968503713607788 12:1.0 13:0.0 14:0.0 15:0.0 16:-1.0 17:-1.0 18:-1.0 19:-1.0 20:-1.0 21:-1.0 22:0.0
-0.07972120312697845 1:-0.8528395295143127 2:-0.9435736536979675 3:-1.0 4:-1.0 5:-1.0 6:-1.0 7:-1.0 8:-1.0 9:-0.9274653196334839 10:-0.9920464754104614 11:-0.9995540976524353 12:1.0 13:0.0 14:0.0 15:0.0 16:-1.0 17:-1.0 18:-1.0 19:-1.0 20:-1.0 21:-1.0 22:0.0
0.07972120312697845 1:0.48723360896110535 2:0.6551724076271057 3:-0.4685634672641754 4:0.2446775585412979 5:-0.21110114455223083 6:-0.9218582510948181 7:-0.29812899231910706 8:-0.7151134610176086 9:0.12055516242980957 10:-0.8149497509002686 11:-0.978916347026825 12:-1.0 13:0.0 14:0.0 15:0.0 16:0.0 17:-0.3333333432674408 18:-0.3333333432674408 19:0.0 20:-0.3333333432674408 21:-0.3333333432674408 22:0.0
-0.07972120312697845 1:-0.8528395295143127 2:-0.9435736536979675 3:-0.8057884573936462 4:-1.0 5:-1.0 6:-0.9965745806694031 7:-0.8372092843055725 8:-0.6428571343421936 9:-0.23549699783325195 10:-0.9871466755867004 11:-0.9992302656173706 12:1.0 13:0.0 14:0.0 15:0.0 16:-1.0 17:-1.0 18:-1.0 19:-1.0 20:-1.0 21:-1.0 22:0.0
0.07972120312697845 1:0.3042193353176117 2:0.3103448152542114 3:-0.14873066544532776 4:0.2543473541736603 5:-0.49870580434799194 6:-0.8351530432701111 7:-0.5907284617424011 8:-0.5417156219482422 9:-0.5268526673316956 10:-0.8076691627502441 11:-0.9697811007499695 12:-1.0 13:0.0 14:0.0 15:0.0 16:0.0 17:-1.0 18:-0.3333333432674408 19:0.0 20:-0.3333333432674408 21:-0.3333333432674408 22:0.0
-0.07972120312697845 1:0.3042193353176117 2:0.49183303117752075 3:-0.39442768692970276 4:0.28142115473747253 5:-0.25934821367263794 6:-0.9045172333717346 7:-0.8967810869216919 8:-0.8649789094924927 9:-0.5878505110740662 10:-0.7051986455917358 11:-0.9440162777900696 12:1.0 13:0.0 14:0.0 15:0.0 16:0.0 17:-1.0 18:-0.3333333432674408 19:0.0 20:-0.3333333432674408 21:-0.3333333432674408 22:0.0
-0.07972120312697845 1:0.3042193353176117 2:0.49183303117752075 3:-0.6382133364677429 4:-0.0027378725353628397 5:-0.25934821367263794 6:-0.9914365410804749 7:-0.8555184006690979 8:-0.6910112500190735 9:-0.7799658179283142 10:-0.9874165058135986 11:-0.9989326000213623 12:1.0 13:0.0 14:0.0 15:0.0 16:0.0 17:-1.0 18:-0.3333333432674408 19:-1.0 20:-0.3333333432674408 21:-0.3333333432674408 22:0.0
-0.07972120312697845 1:0.48723360896110535 2:0.6551724076271057 3:-0.7730926275253296 4:-0.5740593075752258 5:-0.6562143564224243 6:-0.9601798057556152 7:-0.6091954112052917 8:-0.675000011920929 9:0.10476171970367432 10:-0.9899430871009827 11:-0.9995485544204712 12:1.0 13:0.0 14:0.0 15:0.0 16:0.0 17:-0.3333333432674408 18:-0.3333333432674408 19:0.0 20:-0.3333333432674408 21:-0.3333333432674408 22:0.0
-0.07972120312697845 1:-0.3042193353176117 2:-0.26436781883239746 3:-0.7919197678565979 4:-0.6244792938232422 5:-0.6785190105438232 6:-0.9914365410804749 7:-0.5818431973457336 8:-0.6965317726135254 9:-0.7677286863327026 10:-0.9611568450927734 11:-0.9972577691078186 12:1.0 13:0.0 14:0.0 15:0.0 16:0.0 17:-0.3333333432674408 18:-1.0 19:0.0 20:-0.3333333432674408 21:-0.3333333432674408 22:0.0
-0.07972120312697845 1:-0.20854705572128296 2:-0.6180371642112732 3:-0.7636758685112 4:-1.0 5:-1.0 6:-0.8873902559280396 7:-0.6370090842247009 8:-0.3986928164958954 9:-0.6363751888275146 10:-0.9279956221580505 11:-0.9925606846809387 12:1.0 13:0.0 14:0.0 15:0.0 16:0.0 17:-0.3333333432674408 18:-0.3333333432674408 19:0.0 20:0.3333333432674408 21:-0.3333333432674408 22:0.0
0.07972120312697845 1:0.015444284304976463 2:-0.2201591581106186 3:-0.7416223287582397 4:-0.7787277698516846 5:-0.8592171669006348 6:-0.9670305848121643 7:-0.7662771344184875 8:-0.5261437892913818 9:-0.5674101114273071 10:-0.9108412265777588 11:-0.9907034039497375 12:-1.0 13:0.0 14:0.0 15:0.0 16:0.0 17:-0.3333333432674408 18:-0.3333333432674408 19:0.0 20:-0.3333333432674408 21:-0.3333333432674408 22:0.0
0.07972120312697845 1:-0.4719081223011017 2:-0.5517241358757019 3:-0.8170889019966125 4:-0.8386603593826294 5:-0.8592171669006348 6:-0.9967886805534363 7:-0.799227774143219 8:-0.49494948983192444 9:0.31472042202949524 10:-0.9978716373443604 11:-0.9999753832817078 12:-1.0 13:0.0 14:0.0 15:0.0 16:0.0 17:-1.0 18:-1.0 19:0.0 20:-0.3333333432674408 21:-1.0 22:0.0
0.07972120312697845 1:0.14948301017284393 2:-0.12068965286016464 3:-0.6284833550453186 4:-0.6951403617858887 5:-0.8592171669006348 6:-0.9747377634048462 7:-0.9430553317070007 8:-0.7303128242492676 9:0.12768782675266266 10:-0.8991519212722778 11:-0.9942871332168579 12:-1.0 13:0.0 14:0.0 15:0.0 16:0.0 17:-0.3333333432674408 18:-0.3333333432674408 19:0.0 20:-1.0 21:-0.3333333432674408 22:0.0
-0.07972120312697845 1:-0.7985668778419495 2:-0.9211822748184204 3:-1.0 4:-1.0 5:-1.0 6:-0.9715264439582825 7:-0.9352785348892212 8:-0.9038461446762085 9:0.7229229807853699 10:-0.9530521035194397 11:-0.948052704334259 12:-1.0 13:0.0 14:0.0 15:0.0 16:-1.0 17:-1.0 18:-1.0 19:-1.0 20:-1.0 21:-1.0 22:0.0
0.07972120312697845 1:-0.4719081223011017 2:-0.5517241358757019 3:-0.8163933753967285 4:-0.8703763484954834 5:-0.8890299797058105 6:-0.9967886805534363 7:-0.8231653571128845 8:-0.6359223127365112 9:-0.20489494502544403 10:-0.9619375467300415 11:-0.9981203675270081 12:1.0 13:0.0 14:0.0 15:0.0 16:0.0 17:-0.3333333432674408 18:-0.3333333432674408 19:0.0 20:-0.3333333432674408 21:-0.3333333432674408 22:0.0
0.07972120312697845 1:-0.5462976694107056 2:-0.8052738308906555 3:-1.0 4:-1.0 5:-1.0 6:-0.9982873201370239 7:-0.9248685240745544 8:-0.9433106780052185 9:-0.9600434899330139 10:-0.9690279364585876 11:-0.9913276433944702 12:1.0 13:0.0 14:0.0 15:0.0 16:-1.0 17:-1.0 18:-1.0 19:-1.0 20:-1.0 21:-1.0 22:0.0
-0.07972120312697845 1:-0.3915612995624542 2:-0.7241379022598267 3:-1.0 4:-1.0 5:-1.0 6:-0.9890815615653992 7:-0.9262576699256897 8:-0.9472972750663757 9:-0.3351970613002777 10:-0.04542810097336769 11:0.040866777300834656 12:-1.0 13:0.0 14:0.0 15:0.0 16:-1.0 17:-1.0 18:-1.0 19:-1.0 20:-1.0 21:-1.0 22:0.0
0.07972120312697845 1:0.015444284304976463 2:-0.03448275849223137 3:-1.0 4:-1.0 5:-0.7888122200965881 6:-0.999143660068512 7:-0.9285714030265808 8:-0.9702380895614624 9:-0.9131981134414673 10:-0.9856610298156738 11:-0.9994107484817505 12:1.0 13:0.0 14:0.0 15:0.0 16:-1.0 17:-1.0 18:-0.3333333432674408 19:-1.0 20:-1.0 21:-0.3333333432674408 22:0.0
-0.07972120312697845 1:0.015444284304976463 2:-0.2201591581106186 3:-0.7074453234672546 4:-0.7527186870574951 5:-0.8592171669006348 6:-0.9980732202529907 7:-0.7368420958518982 8:-0.8863636255264282 9:-0.6789025664329529 10:-0.9569223523139954 11:-0.9916326403617859 12:-1.0 13:0.0 14:0.0 15:0.0 16:-1.0 17:-1.0 18:-1.0 19:-1.0 20:-1.0 21:-1.0 22:0.0
-0.07972120312697845 1:0.14948301017284393 2:0.3103448152542114 3:-0.6729493141174316 4:-0.15887726843357086 5:-0.38719648122787476 6:-0.9972168803215027 7:-0.8054474592208862 8:-0.7448979616165161 9:0.3656843900680542 10:-0.9966443181037903 11:-0.9999872446060181 12:1.0 13:0.0 14:0.0 15:0.0 16:-1.0 17:-1.0 18:-1.0 19:0.0 20:-1.0 21:-1.0 22:0.0
0.07972120312697845 1:-0.20854705572128296 2:-0.1967545598745346 3:-0.7268305420875549 4:-0.6684306859970093 5:-0.7888122200965881 6:-0.9381288886070251 7:-0.9442818760871887 8:-0.6620450615882874 9:-0.8204358220100403 10:-0.9173129796981812 11:-0.9801325798034668 12:1.0 13:0.0 14:0.0 15:0.0 16:0.0 17:-1.0 18:-1.0 19:-1.0 20:-0.3333333432674408 21:-1.0 22:0.0
-0.04377144991540427 1:-0.6803363561630249 2:-0.869328498840332 3:-0.8201842308044434 4:-1.0 5:-1.0 6:-0.9931492209434509 7:-0.8779342770576477 8:-0.8251748085021973 9:-0.8723207712173462 10:-0.9042967557907104 11:-0.9912469983100891 12:-1.0 13:0.0 14:0.0 15:0.0 16:0.0 17:-1.0 18:-1.0 19:-1.0 20:-1.0 21:-0.3333333432674408 22:0.0
-0.07972120312697845 1:-0.3915612995624542 2:-0.5010141730308533 3:-0.7964746952056885 4:-0.8219354748725891 5:-0.8592171669006348 6:-0.9989295601844788 7:-0.7808219194412231 8:-0.6470588445663452 9:-0.6216453313827515 10:-0.9934980273246765 11:-0.9998500347137451 12:-1.0 13:0.0 14:0.0 15:0.0 16:0.0 17:-1.0 18:-1.0 19:-1.0 20:-1.0 21:-1.0 22:0.0
-0.02667499295049411 1:-0.20854705572128296 2:-0.37931033968925476 3:-0.7700552940368652 4:-0.8008939623832703 5:-0.8592171669006348 6:-0.9860843420028687 7:-0.926834225654602 8:-0.7990196347236633 9:-0.7671458721160889 10:-0.8426531553268433 11:-0.946385383605957 12:-1.0 13:0.0 14:0.0 15:0.0 16:0.0 17:-1.0 18:-0.3333333432674408 19:0.0 20:-1.0 21:-0.3333333432674408 22:0.0
-0.07972120312697845 1:-0.5462976694107056 2:-0.8052738308906555 3:-0.8271125555038452 4:-1.0 5:-1.0 6:-0.9942196607589722 7:-0.8323586583137512 8:-0.8591549396514893 9:-0.46908485889434814 10:-0.991963267326355 11:-0.9998918771743774 12:-1.0 13:0.0 14:0.0 15:0.0 16:0.0 17:-0.3333333432674408 18:-1.0 19:-1.0 20:-1.0 21:-1.0 22:0.0
0.07972120312697845 1:0.14948301017284393 2:0.3103448152542114 3:-1.0 4:-1.0 5:-0.14839062094688416 6:-0.9993577599525452 7:-0.90574711561203 8:-0.9038461446762085 9:0.4903988242149353 10:-0.9745360612869263 11:-0.9996686577796936 12:-1.0 13:0.0 14:0.0 15:0.0 16:-1.0 17:-0.3333333432674408 18:-0.3333333432674408 19:0.0 20:-0.3333333432674408 21:-0.3333333432674408 22:0.0
0.07972120312697845 1:0.015444284304976463 2:-0.03448275849223137 3:-0.7703519463539124 4:-0.48405858874320984 5:-0.5668150186538696 6:-0.9865125417709351 7:-0.8370786309242249 8:-0.6341463327407837 9:0.07365883141756058 10:-0.9965659379959106 11:-0.9999350905418396 12:-1.0 13:0.0 14:0.0 15:0.0 16:-1.0 17:-0.3333333432674408 18:-0.3333333432674408 19:0.0 20:-0.3333333432674408 21:-0.3333333432674408 22:0.0
0.07972120312697845 1:-0.10278624296188354 2:0.02298850566148758 3:-0.7506452202796936 4:-0.47595280408859253 5:-0.5928457975387573 6:-0.9929351210594177 7:-0.5626911520957947 8:-0.6651785969734192 9:-0.3293217122554779 10:-0.99479740858078 11:-0.9999482035636902 12:1.0 13:0.0 14:0.0 15:0.0 16:-1.0 17:-1.0 18:-1.0 19:-1.0 20:-1.0 21:-1.0 22:0.0
0.07972120312697845 1:-0.10278624296188354 2:-0.12068965286016464 3:-0.7371423840522766 4:-0.5458438396453857 5:-0.6785190105438232 6:-0.9965745806694031 7:-0.7209302186965942 8:-0.609375 9:-0.4101961851119995 10:-0.9951255321502686 11:-0.9997092485427856 12:1.0 13:0.0 14:0.0 15:0.0 16:0.0 17:-0.3333333432674408 18:-0.3333333432674408 19:0.0 20:-0.3333333432674408 21:-0.3333333432674408 22:0.0
-0.07972120312697845 1:0.3042193353176117 2:0.6551724076271057 3:-1.0 4:-1.0 5:-0.14618591964244843 6:-0.9997859001159668 7:-0.9698340892791748 8:-1.0 9:-0.7181832194328308 10:-0.9625106453895569 11:-0.9827283620834351 12:1.0 13:0.0 14:0.0 15:0.0 16:-1.0 17:-0.3333333432674408 18:-0.3333333432674408 19:0.0 20:-0.3333333432674408 21:-0.3333333432674408 22:0.0
0.07972120312697845 1:-0.10278624296188354 2:-0.5517241358757019 3:-0.782785177230835 4:-1.0 5:-1.0 6:-0.9993577599525452 7:-0.8023369312286377 8:-0.8790322542190552 9:-0.31588345766067505 10:-0.9833771586418152 11:-0.9997433423995972 12:-1.0 13:0.0 14:0.0 15:0.0 16:0.0 17:-0.3333333432674408 18:-0.3333333432674408 19:0.0 20:-0.3333333432674408 21:-0.3333333432674408 22:0.0
0.07972120312697845 1:-0.3042193353176117 2:-0.44396552443504333 3:-0.7769002914428711 4:-0.806303858757019 5:-0.8592171669006348 6:-0.9978591203689575 7:-0.8921568393707275 8:-0.6951219439506531 9:-0.4086659252643585 10:-0.9982196688652039 11:-0.9999962449073792 12:-1.0 13:0.0 14:0.0 15:0.0 16:0.0 17:-0.3333333432674408 18:-0.3333333432674408 19:0.0 20:-0.3333333432674408 21:-0.3333333432674408 22:0.0
0.07972120312697845 1:-0.3915612995624542 2:-0.5010141730308533 3:-1.0 4:-1.0 5:-0.8592171669006348 6:-0.9993577599525452 7:-0.9736495614051819 8:-0.9152542352676392 9:-0.8384056091308594 10:-0.9790307283401489 11:-0.9989666938781738 12:1.0 13:0.0 14:0.0 15:0.0 16:-1.0 17:-1.0 18:-1.0 19:-1.0 20:-1.0 21:-1.0 22:0.0
0.07972120312697845 1:-0.10278624296188354 2:-0.3054187297821045 3:-0.7931461930274963 4:-0.8192604184150696 5:-0.8592171669006348 6:-0.9987154603004456 7:-0.8112359642982483 8:-0.8026315569877625 9:-0.45433399081230164 10:-0.9994324445724487 11:-0.9999980330467224 12:-1.0 13:0.0 14:0.0 15:0.0 16:0.0 17:-0.3333333432674408 18:-0.3333333432674408 19:0.0 20:-0.3333333432674408 21:-0.3333333432674408 22:0.0
0.07972120312697845 1:-0.3915612995624542 2:-0.32486388087272644 3:-1.0 4:-1.0 5:-0.6785190105438232 6:-1.0 7:-0.8933333158493042 8:-1.0 9:-0.9641170501708984 10:-0.9627239108085632 11:-0.9765337705612183 12:1.0 13:0.0 14:0.0 15:0.0 16:-1.0 17:-1.0 18:-1.0 19:-1.0 20:-1.0 21:-1.0 22:0.0
-0.07972120312697845 1:-0.3042193353176117 2:-0.12068965286016464 3:-0.7580083012580872 4:-0.4013696312904358 5:-0.49870580434799194 6:-0.9980732202529907 7:-0.9518072009086609 8:-0.921875 9:-0.8368459939956665 10:-0.9837742447853088 11:-0.9972469210624695 12:-1.0 13:0.0 14:0.0 15:0.0 16:0.0 17:-1.0 18:-0.3333333432674408 19:0.0 20:-0.3333333432674408 21:-0.3333333432674408 22:0.0
0.07972120312697845 1:-0.4719081223011017 2:-0.5517241358757019 3:-1.0 4:-1.0 5:-0.8592171669006348 6:-1.0 7:-0.9707456231117249 8:-0.9418604373931885 9:-0.6027660965919495 10:-0.9962691068649292 11:-0.9998762011528015 12:1.0 13:0.0 14:0.0 15:0.0 16:-1.0 17:-1.0 18:-1.0 19:-1.0 20:-1.0 21:-1.0 22:0.0
-0.07972120312697845 1:-0.3042193353176117 2:-0.44396552443504333 3:-0.8232475519180298 4:-0.8437103033065796 5:-0.8592171669006348 6:-0.9901520013809204 7:-0.8367452621459961 8:-0.6153846383094788 9:0.711230456829071 10:-0.988039493560791 11:-0.9994380474090576 12:1.0 13:0.0 14:0.0 15:0.0 16:-1.0 17:-0.3333333432674408 18:-1.0 19:0.0 20:-0.3333333432674408 21:-1.0 22:0.0
-0.07972120312697845 1:-0.3915612995624542 2:-0.7241379022598267 3:-0.8102356791496277 4:-1.0 5:-1.0 6:-0.9740954637527466 7:-0.7631579041481018 8:-0.4852941036224365 9:0.9991987943649292 10:-0.9459152221679688 11:-0.9304432272911072 12:1.0 13:0.0 14:0.0 15:0.0 16:-1.0 17:-0.3333333432674408 18:-0.3333333432674408 19:0.0 20:-0.3333333432674408 21:-0.3333333432674408 22:0.0
-0.07972120312697845 1:0.015444284304976463 2:0.21960072219371796 3:-1.0 4:-1.0 5:-0.5295780897140503 6:-0.9987154603004456 7:-0.9533898234367371 8:-0.9691358208656311 9:-0.17371562123298645 10:-0.9947280287742615 11:-0.9998681545257568 12:1.0 13:0.0 14:0.0 15:0.0 16:-1.0 17:-0.3333333432674408 18:-0.3333333432674408 19:0.0 20:-0.3333333432674408 21:-0.3333333432674408 22:0.0
-0.07972120312697845 1:-0.3042193353176117 2:-0.674876868724823 3:-0.8252599239349365 4:-1.0 5:-1.0 6:-0.9995718002319336 7:-0.9468196034431458 8:-0.8113207817077637 9:0.09881721436977386 10:-0.9904815554618835 11:-0.9998809099197388 12:1.0 13:0.0 14:0.0 15:0.0 16:-1.0 17:-0.3333333432674408 18:-0.3333333432674408 19:0.0 20:-0.3333333432674408 21:-0.3333333432674408 22:0.0
-0.07972120312697845 1:-0.20854705572128296 2:-0.6180371642112732 3:-0.7872332334518433 4:-1.0 5:-1.0 6:-0.9967886805534363 7:-0.8888888955116272 8:-0.7301136255264282 9:-0.19976112246513367 10:-0.9283328056335449 11:-0.9937679171562195 12:1.0 13:0.0 14:0.0 15:0.0 16:-1.0 17:-0.3333333432674408 18:-0.3333333432674408 19:0.0 20:-0.3333333432674408 21:-0.3333333432674408 22:0.0
0.07972120312697845 1:-0.3042193353176117 2:-0.26436781883239746 3:-0.7558429837226868 4:-0.3518943190574646 5:-0.44516071677207947 6:-0.9955042004585266 7:-0.8214285969734192 8:-0.856630802154541 9:0.2891750633716583 10:-0.9851579070091248 11:-0.9995874166488647 12:-1.0 13:0.0 14:0.0 15:0.0 16:0.0 17:-1.0 18:-0.3333333432674408 19:0.0 20:-0.3333333432674408 21:-0.3333333432674408 22:0.0
0.07972120312697845 1:-0.10278624296188354 2:-0.12068965286016464 3:-0.7875288128852844 4:-0.5142056941986084 5:-0.5668150186538696 6:-0.9379147887229919 7:-0.9358288645744324 8:-0.7426470518112183 9:-0.5727611780166626 10:-0.989589273929596 11:-0.9996493458747864 12:1.0 13:0.0 14:0.0 15:0.0 16:0.0 17:-1.0 18:-1.0 19:-1.0 20:-1.0 21:-1.0 22:0.0
0.07972120312697845 1:-0.3915612995624542 2:-0.5010141730308533 3:-0.8044279217720032 4:-0.8283558487892151 5:-0.8592171669006348 6:-0.9993577599525452 7:-0.8863328695297241 8:-0.9358974099159241 9:0.5548678636550903 10:-0.9961273670196533 11:-0.9999862909317017 12:-1.0 13:0.0 14:0.0 15:0.0 16:0.0 17:-1.0 18:-0.3333333432674408 19:0.0 20:-0.3333333432674408 21:-0.3333333432674408 22:0.0
0.07972120312697845 1:0.14948301017284393 2:0.20258620381355286 3:-0.7665171027183533 4:-0.35811370611190796 5:-0.4276271164417267 6:-0.9997859001159668 7:-0.9644970297813416 8:-0.8863636255264282 9:-0.5982280373573303 10:-0.9984980225563049 11:-0.9999637007713318 12:1.0 13:0.0 14:0.0 15:0.0 16:0.0 17:-1.0 18:-1.0 19:-1.0 20:-1.0 21:-1.0 22:0.0
0.07972120312697845 1:-0.3042193353176117 2:-0.12068965286016464 3:-0.7046015858650208 4:-0.3102940320968628 5:-0.49870580434799194 6:-0.8689787983894348 7:-0.8870967626571655 8:-0.748062014579773 9:0.05070843547582626 10:-0.9894086122512817 11:-0.9999382495880127 12:-1.0 13:0.0 14:0.0 15:0.0 16:0.0 17:-0.3333333432674408 18:-0.3333333432674408 19:0.0 20:-0.3333333432674408 21:-0.3333333432674408 22:0.0
-0.07972120312697845 1:0.7112249135971069 2:0.7160243391990662 3:-0.4461630880832672 4:0.28642183542251587 5:-0.182648167014122 6:-0.9937914609909058 7:-0.7283163070678711 8:-0.9031007885932922 9:-0.4389316439628601 10:-0.8390604257583618 11:-0.9689621329307556 12:-1.0 13:0.0 14:0.0 15:0.0 16:-1.0 17:-1.0 18:-1.0 19:-1.0 20:-1.0 21:-1.0 22:0.0
0.07972120312697845 1:-0.3042193353176117 2:-0.674876868724823 3:-1.0 4:-1.0 5:-1.0 6:-0.9997859001159668 7:-0.9117646813392639 8:-0.9038461446762085 9:-0.6981213092803955 10:-0.9933208227157593 11:-0.9998175501823425 12:1.0 13:0.0 14:0.0 15:0.0 16:-1.0 17:-1.0 18:-1.0 19:-1.0 20:-1.0 21:-1.0 22:0.0
-0.07972120312697845 1:0.015444284304976463 2:0.21960072219371796 3:-0.7679945826530457 4:-0.44644761085510254 5:-0.5295780897140503 6:-0.9922928810119629 7:-0.745945930480957 8:-0.8717948794364929 9:-0.7235766053199768 10:-0.9542574882507324 11:-0.9884443879127502 12:-1.0 13:0.0 14:0.0 15:0.0 16:0.0 17:-1.0 18:-1.0 19:-1.0 20:-1.0 21:-1.0 22:0.0
0.07972120312697845 1:0.015444284304976463 2:0.38530734181404114 3:-1.0 4:-1.0 5:0.00967906042933464 6:-0.9976450204849243 7:-0.868852436542511 8:-0.8360655903816223 9:-0.21912342309951782 10:-0.987835705280304 11:-0.9996020793914795 12:1.0 13:0.0 14:0.0 15:0.0 16:-1.0 17:-1.0 18:-1.0 19:-1.0 20:-1.0 21:-1.0 22:0.0
-0.07972120312697845 1:0.14948301017284393 2:0.06403940916061401 3:-0.6787294745445251 4:-0.4477892220020294 5:-0.6613808870315552 6:-0.9025904536247253 7:-0.776701807975769 8:-0.4003579914569855 9:-0.7484394311904907 10:-0.9321696758270264 11:-0.9923017621040344 12:-1.0 13:0.0 14:0.0 15:0.0 16:0.0 17:-1.0 18:-1.0 19:-1.0 20:-1.0 21:-1.0 22:0.0
0.07972120312697845 1:-0.3915612995624542 2:-0.5010141730308533 3:-0.8104856014251709 4:-0.83327317237854 5:-0.8592171669006348 6:-0.9901520013809204 7:-0.9158819913864136 8:-0.8741007447242737 9:-0.6723495721817017 10:-0.9689685702323914 11:-0.9923352599143982 12:1.0 13:0.0 14:0.0 15:0.0 16:-1.0 17:-1.0 18:-1.0 19:-1.0 20:-1.0 21:-1.0 22:0.0
-0.07972120312697845 1:-0.3915612995624542 2:-0.7241379022598267 3:-0.8088088035583496 4:-1.0 5:-1.0 6:-1.0 7:-0.9393140077590942 8:-1.0 9:-0.2193639874458313 10:-0.9880302548408508 11:-0.9998522400856018 12:1.0 13:0.0 14:0.0 15:0.0 16:0.0 17:-1.0 18:-1.0 19:-1.0 20:-1.0 21:-1.0 22:0.0
0.07972120312697845 1:0.14948301017284393 2:0.06403940916061401 3:-0.6035714745521545 4:-0.10976104438304901 5:-0.44516071677207947 6:-0.9899379014968872 7:-0.8697806000709534 8:-0.8265306353569031 9:-0.07569791376590729 10:-0.9570091366767883 11:-0.9952264428138733 12:-1.0 13:0.0 14:0.0 15:0.0 16:0.0 17:-0.3333333432674408 18:-0.3333333432674408 19:0.0 20:-0.3333333432674408 21:-0.3333333432674408 22:0.0
-0.07972120312697845 1:-0.10278624296188354 2:-0.12068965286016464 3:-0.7539995312690735 4:-0.3789277970790863 5:-0.48120877146720886 6:-0.9944337606430054 7:-0.9710144996643066 8:-0.9445983171463013 9:-0.9279472827911377 10:-0.7807432413101196 11:-0.444072425365448 12:-1.0 13:0.0 14:0.0 15:0.0 16:0.0 17:-1.0 18:-1.0 19:0.0 20:-0.3333333432674408 21:-1.0 22:0.0
-0.07972120312697845 1:0.015444284304976463 2:-0.03448275849223137 3:-0.7490144371986389 4:-0.33916324377059937 5:-0.44516071677207947 6:-0.9362021088600159 7:-0.8907563090324402 8:-0.782608687877655 9:-0.3595833480358124 10:-0.992228090763092 11:-0.9999324679374695 12:-1.0 13:0.0 14:0.0 15:0.0 16:0.0 17:-1.0 18:-1.0 19:0.0 20:-0.3333333432674408 21:-1.0 22:0.0
-0.07972120312697845 1:0.14948301017284393 2:0.06403940916061401 3:-0.6896799802780151 4:-0.35543206334114075 5:-0.5668150186538696 6:-0.9922928810119629 7:-0.9535323977470398 8:-0.8244680762290955 9:-0.6109230518341064 10:-0.8611054420471191 11:-0.9821585416793823 12:-1.0 13:0.0 14:0.0 15:0.0 16:0.0 17:-0.3333333432674408 18:-1.0 19:0.0 20:-0.3333333432674408 21:-1.0 22:0.0
0.07972120312697845 1:-0.3042193353176117 2:-0.44396552443504333 3:-1.0 4:-1.0 5:-0.8592171669006348 6:-0.999143660068512 7:-0.9140453338623047 8:-0.523809552192688 9:-0.8644586801528931 10:-0.9774746298789978 11:-0.9951566457748413 12:1.0 13:0.0 14:0.0 15:0.0 16:-1.0 17:-1.0 18:-1.0 19:-1.0 20:-1.0 21:-1.0 22:0.0
0.07972120312697845 1:-0.20854705572128296 2:-0.6180371642112732 3:-0.8091487884521484 4:-1.0 5:-1.0 6:-0.8935987949371338 7:-0.8807106614112854 8:-0.7400000095367432 9:-0.8327150940895081 10:-0.8939360976219177 11:-0.9651282429695129 12:1.0 13:0.0 14:0.0 15:0.0 16:-1.0 17:-1.0 18:-1.0 19:-1.0 20:-1.0 21:-1.0 22:0.0
0.07972120312697845 1:-0.20854705572128296 2:-0.37931033968925476 3:-0.782794713973999 4:-0.8109857439994812 5:-0.8592171669006348 6:-0.9937914609909058 7:-0.852104663848877 8:-0.6261682510375977 9:-0.7258092761039734 10:-0.9733652472496033 11:-0.998693585395813 12:1.0 13:0.0 14:0.0 15:0.0 16:-1.0 17:-1.0 18:-1.0 19:-1.0 20:-1.0 21:-1.0 22:0.0
0.07972120312697845 1:-0.3042193353176117 2:-0.44396552443504333 3:-1.0 4:-1.0 5:-0.8592171669006348 6:-0.9877970218658447 7:-0.8021978139877319 8:-0.608433723449707 9:-0.951387882232666 10:-0.9888239502906799 11:-0.9987936615943909 12:1.0 13:0.0 14:0.0 15:0.0 16:-1.0 17:-1.0 18:-1.0 19:-1.0 20:-1.0 21:-1.0 22:0.0
-0.07972120312697845 1:-0.7411913275718689 2:-0.8965517282485962 3:-1.0 4:-1.0 5:-1.0 6:-0.999143660068512 7:-0.8198757767677307 8:-0.7631579041481018 9:-0.9178083539009094 10:-0.891934335231781 11:-0.789607584476471 12:1.0 13:0.0 14:0.0 15:0.0 16:-1.0 17:-1.0 18:-1.0 19:-1.0 20:-1.0 21:-1.0 22:0.0
-0.07972120312697845 1:-0.6155526638031006 2:-0.8390804529190063 3:-1.0 4:-1.0 5:-1.0 6:-0.9989295601844788 7:-0.8799999952316284 8:-0.8491379022598267 9:-0.9763524532318115 10:-0.9737341403961182 11:-0.9909665584564209 12:1.0 13:0.0 14:0.0 15:0.0 16:-1.0 17:-1.0 18:-1.0 19:-1.0 20:-1.0 21:-1.0 22:0.0
-0.07972120312697845 1:-0.7411913275718689 2:-0.8965517282485962 3:-1.0 4:-1.0 5:-1.0 6:-0.9972168803215027 7:-0.9476743936538696 8:-0.6969696879386902 9:-0.8009158372879028 10:-0.9826890230178833 11:-0.9957602620124817 12:1.0 13:0.0 14:0.0 15:0.0 16:-1.0 17:-1.0 18:-1.0 19:-1.0 20:-1.0 21:-1.0 22:0.0
-0.07972120312697845 1:-0.4719081223011017 2:-0.767241358757019 3:-1.0 4:-1.0 5:-1.0 6:-0.9982873201370239 7:-0.7876712083816528 8:-0.780701756477356 9:-0.6811026334762573 10:-0.9943192601203918 11:-0.9999095797538757 12:1.0 13:0.0 14:0.0 15:0.0 16:-1.0 17:-1.0 18:-1.0 19:-1.0 20:-1.0 21:-1.0 22:0.0
-0.07972120312697845 1:-0.4719081223011017 2:-0.767241358757019 3:-1.0 4:-1.0 5:-1.0 6:-0.9974309802055359 7:-0.8966613411903381 8:-0.9706745147705078 9:-0.9621152281761169 10:-0.9749970436096191 11:-0.9969456791877747 12:1.0 13:0.0 14:0.0 15:0.0 16:-1.0 17:-1.0 18:-1.0 19:-1.0 20:-1.0 21:-1.0 22:0.0
0.07972120312697845 1:-0.3042193353176117 2:-0.12068965286016464 3:-0.7305378317832947 4:-0.3532101511955261 5:-0.49870580434799194 6:-0.8745450377464294 7:-0.8324607610702515 8:-0.7340425252914429 9:0.0802159234881401 10:-0.997617244720459 11:-0.9999804496765137 12:-1.0 13:0.0 14:0.0 15:0.0 16:0.0 17:-0.3333333432674408 18:-0.3333333432674408 19:0.0 20:-0.3333333432674408 21:-0.3333333432674408 22:0.0
0.07972120312697845 1:-0.20854705572128296 2:-0.1967545598745346 3:-0.6728954315185547 4:-0.4617500603199005 5:-0.6785190105438232 6:-0.8439306616783142 7:-0.8041034936904907 8:-0.6757984757423401 9:0.6541904807090759 10:-0.8961744904518127 11:-0.9170624613761902 12:-1.0 13:0.0 14:0.0 15:0.0 16:0.0 17:-1.0 18:-0.3333333432674408 19:0.0 20:-0.3333333432674408 21:-0.3333333432674408 22:0.0
0.07972120312697845 1:0.3042193353176117 2:-0.0031347961630672216 3:-0.5290513634681702 4:-0.6953514814376831 5:-0.8890299797058105 6:-0.9466923475265503 7:-0.8156028389930725 8:-0.8408845663070679 9:-0.43758103251457214 10:-0.6460824608802795 11:-0.7684882283210754 12:-1.0 13:0.0 14:0.0 15:0.0 16:0.0 17:-0.3333333432674408 18:-0.3333333432674408 19:0.0 20:-0.3333333432674408 21:-0.3333333432674408 22:0.0
0.07972120312697845 1:0.015444284304976463 2:-0.03448275849223137 3:-0.6589465141296387 4:-0.18867366015911102 5:-0.44516071677207947 6:-0.9822307825088501 7:-0.7463414669036865 8:-0.49152541160583496 9:0.16400223970413208 10:-0.9526009559631348 11:-0.9965710639953613 12:-1.0 13:0.0 14:0.0 15:0.0 16:0.0 17:-1.0 18:-1.0 19:0.0 20:-0.3333333432674408 21:-1.0 22:0.0
0.07972120312697845 1:0.015444284304976463 2:-0.2201591581106186 3:-0.7790905237197876 4:-0.808040976524353 5:-0.8592171669006348 6:-0.893812894821167 7:-0.8461538553237915 8:-0.7849462628364563 9:-0.16681461036205292 10:-0.9775050282478333 11:-0.9990298748016357 12:-1.0 13:0.0 14:0.0 15:0.0 16:0.0 17:-0.3333333432674408 18:-0.3333333432674408 19:0.0 20:-0.3333333432674408 21:-0.3333333432674408 22:0.0
-0.07972120312697845 1:0.015444284304976463 2:-0.03448275849223137 3:-0.7325238585472107 4:-0.30925196409225464 5:-0.44516071677207947 6:-1.0 7:-1.0 8:-1.0 9:0.1640549898147583 10:-0.9955254793167114 11:-0.9999683499336243 12:-1.0 13:0.0 14:0.0 15:0.0 16:0.0 17:-0.3333333432674408 18:-0.3333333432674408 19:0.0 20:-0.3333333432674408 21:-0.3333333432674408 22:0.0
0.07972120312697845 1:-0.3042193353176117 2:-0.674876868724823 3:-1.0 4:-1.0 5:-1.0 6:-0.9985014200210571 7:-0.9430485963821411 8:-0.7991071343421936 9:-0.8266017436981201 10:-0.906791627407074 11:-0.9738311767578125 12:1.0 13:0.0 14:0.0 15:0.0 16:-1.0 17:-1.0 18:-1.0 19:-1.0 20:-1.0 21:-1.0 22:0.0
-0.07972120312697845 1:0.14948301017284393 2:-0.37931033968925476 3:-0.7831130027770996 4:-1.0 5:-1.0 6:-0.9963605403900146 7:-0.9134687781333923 8:-0.6904761791229248 9:-0.13002349436283112 10:-0.48998111486434937 11:-0.8113556504249573 12:-1.0 13:0.0 14:0.0 15:0.0 16:0.0 17:-0.3333333432674408 18:-0.3333333432674408 19:0.0 20:-0.3333333432674408 21:-0.3333333432674408 22:0.0
-0.07972120312697845 1:-0.10278624296188354 2:-0.3054187297821045 3:-0.7297044992446899 4:-0.7695806622505188 5:-0.8592171669006348 6:-0.9571826457977295 7:-0.8970840573310852 8:-0.8711340427398682 9:0.6436936259269714 10:-0.8228112459182739 11:-0.9860051274299622 12:1.0 13:0.0 14:0.0 15:0.0 16:0.0 17:-0.3333333432674408 18:-0.3333333432674408 19:0.0 20:-0.3333333432674408 21:-0.3333333432674408 22:0.0
0.07972120312697845 1:-0.3042193353176117 2:-0.44396552443504333 3:-1.0 4:-1.0 5:-0.8592171669006348 6:-0.9995718002319336 7:-0.9418604373931885 8:-0.9137930870056152 9:-0.774195671081543 10:-0.9815140962600708 11:-0.9959349036216736 12:1.0 13:0.0 14:0.0 15:0.0 16:-1.0 17:-1.0 18:-1.0 19:-1.0 20:-1.0 21:-1.0 22:0.0
-0.07972120312697845 1:0.48723360896110535 2:0.6551724076271057 3:-1.0 4:-1.0 5:0.17183637619018555 6:-0.9942196607589722 7:-0.7957860827445984 8:-0.4117647111415863 9:-0.46218326687812805 10:-0.993202269077301 11:-0.999894917011261 12:-1.0 13:0.0 14:0.0 15:0.0 16:-1.0 17:-1.0 18:-1.0 19:-1.0 20:-1.0 21:-1.0 22:0.0
0.07972120312697845 1:-0.4719081223011017 2:-0.23824451863765717 3:-1.0 4:-1.0 5:-0.7526165843009949 6:-0.9972168803215027 7:-0.9073482155799866 8:-0.8674242496490479 9:-0.7556451559066772 10:-0.9757192730903625 11:-0.9993385076522827 12:1.0 13:0.0 14:0.0 15:0.0 16:-1.0 17:-1.0 18:-1.0 19:-1.0 20:-1.0 21:-1.0 22:0.0
-0.07972120312697845 1:0.015444284304976463 2:0.10750506818294525 3:-1.0 4:-1.0 5:-0.4276271164417267 6:-0.9961464405059814 7:-0.8136020302772522 8:-0.767002522945404 9:0.9111636877059937 10:-0.986015796661377 11:-0.9997905492782593 12:1.0 13:0.0 14:0.0 15:0.0 16:-1.0 17:-1.0 18:-1.0 19:-1.0 20:-1.0 21:-1.0 22:0.0
-0.07972120312697845 1:0.3042193353176117 2:0.5566502213478088 3:-1.0 4:-1.0 5:-0.6562143564224243 6:-0.988867461681366 7:-0.9612902998924255 8:-0.8809523582458496 9:0.4159308969974518 10:-0.9770224094390869 11:-0.9983270764350891 12:1.0 13:0.0 14:0.0 15:0.0 16:-1.0 17:-1.0 18:-1.0 19:-1.0 20:-1.0 21:-1.0 22:0.0
-0.07972120312697845 1:0.14948301017284393 2:0.3103448152542114 3:-1.0 4:-1.0 5:-0.5496304035186768 6:-0.9985014200210571 7:-0.8907777070999146 8:-0.8379629850387573 9:0.4454481899738312 10:-0.9835901856422424 11:-0.9993845224380493 12:1.0 13:0.0 14:0.0 15:0.0 16:-1.0 17:-1.0 18:-1.0 19:-1.0 20:-1.0 21:-1.0 22:0.0
-0.07972120312697845 1:-0.3042193353176117 2:-0.44396552443504333 3:-0.8132832646369934 4:-0.8355520963668823 5:-0.8592171669006348 6:-0.8706914782524109 7:-0.8467243313789368 8:-0.14179104566574097 9:0.8210507035255432 10:-0.9979700446128845 11:-0.9999722242355347 12:1.0 13:0.0 14:0.0 15:0.0 16:-1.0 17:-1.0 18:-1.0 19:-1.0 20:-1.0 21:-1.0 22:0.0
-0.07972120312697845 1:-0.3042193353176117 2:-0.26436781883239746 3:-1.0 4:-1.0 5:-0.7888122200965881 6:-0.9978591203689575 7:-0.8666666746139526 8:-0.7777777910232544 9:0.6485723257064819 10:-0.9931279420852661 11:-0.9997754096984863 12:1.0 13:0.0 14:0.0 15:0.0 16:-1.0 17:-1.0 18:-0.3333333432674408 19:-1.0 20:-1.0 21:-1.0 22:0.0
0.07972120312697845 1:-0.3042193353176117 2:-0.44396552443504333 3:-0.800455629825592 4:-0.8251441121101379 5:-0.8592171669006348 6:-0.9843716621398926 7:-0.8082706928253174 8:-0.9561403393745422 9:0.10635241121053696 10:-0.9913052916526794 11:-0.9998959898948669 12:-1.0 13:0.0 14:0.0 15:0.0 16:0.0 17:-0.3333333432674408 18:-0.3333333432674408 19:0.0 20:-0.3333333432674408 21:-0.3333333432674408 22:0.0
0.07972120312697845 1:-0.20854705572128296 2:-0.37931033968925476 3:-0.7435410022735596 4:-0.7802082300186157 5:-0.8592171669006348 6:-0.7540141344070435 7:-0.9687373638153076 8:-0.9865047931671143 9:-0.0971241146326065 10:-0.36802640557289124 11:-0.6238911747932434 12:-1.0 13:0.0 14:0.0 15:0.0 16:0.0 17:-0.3333333432674408 18:-0.3333333432674408 19:0.0 20:-0.3333333432674408 21:-0.3333333432674408 22:0.0
0.07972120312697845 1:-0.10278624296188354 2:-0.3054187297821045 3:-0.6904625296592712 4:-0.7400446534156799 5:-0.8592171669006348 6:-0.7403125762939453 7:-0.6287109851837158 8:-0.7518980503082275 9:0.7351163625717163 10:-0.9474221467971802 11:-0.9814773797988892 12:-1.0 13:0.0 14:0.0 15:0.0 16:0.0 17:-1.0 18:-0.3333333432674408 19:0.0 20:-0.3333333432674408 21:-0.3333333432674408 22:0.0
0.07972120312697845 1:0.3042193353176117 2:0.5566502213478088 3:-1.0 4:-1.0 5:0.4336487054824829 6:-0.999143660068512 7:-0.9550729990005493 8:-0.75 9:-0.6622110605239868 10:-0.9672425389289856 11:-0.9666747450828552 12:1.0 13:0.0 14:0.0 15:0.0 16:-1.0 17:-1.0 18:-1.0 19:-1.0 20:-1.0 21:-1.0 22:0.0
-0.07972120312697845 1:0.14948301017284393 2:-0.12068965286016464 3:-0.7166575193405151 4:-0.759662389755249 5:-0.8592171669006348 6:-0.9899379014968872 7:-0.8896104097366333 8:-0.9082880616188049 9:-0.6932006478309631 10:-0.9635156393051147 11:-0.9968687295913696 12:-1.0 13:0.0 14:0.0 15:0.0 16:0.0 17:-0.3333333432674408 18:-0.3333333432674408 19:0.0 20:-0.3333333432674408 21:-0.3333333432674408 22:0.0
0.07972120312697845 1:-0.3042193353176117 2:-0.44396552443504333 3:-1.0 4:-1.0 5:-0.8592171669006348 6:-1.0 7:-0.9799196720123291 8:-1.0 9:-0.4445730149745941 10:-0.9858494400978088 11:-0.9990649223327637 12:1.0 13:0.0 14:0.0 15:0.0 16:-1.0 17:-1.0 18:-1.0 19:-1.0 20:-1.0 21:-1.0 22:0.0
0.07972120312697845 1:-0.3042193353176117 2:-0.44396552443504333 3:-1.0 4:-1.0 5:-0.8592171669006348 6:-0.9985014200210571 7:-0.9749001860618591 8:-0.9299065470695496 9:0.4506123661994934 10:-0.975890576839447 11:-0.9880587458610535 12:1.0 13:0.0 14:0.0 15:0.0 16:-1.0 17:-1.0 18:-1.0 19:-1.0 20:-1.0 21:-1.0 22:0.0
0.07972120312697845 1:-0.3042193353176117 2:-0.0031347961630672216 3:-0.7728673815727234 4:-0.4552212655544281 5:-0.5295780897140503 6:-0.9899379014968872 7:-0.9607843160629272 8:-0.9193548560142517 9:-0.40693649649620056 10:-0.985717236995697 11:-0.9994568228721619 12:1.0 13:0.0 14:0.0 15:0.0 16:-1.0 17:-1.0 18:-1.0 19:-1.0 20:-1.0 21:-1.0 22:0.0
-0.07972120312697845 1:-0.5462976694107056 2:-0.5970962047576904 3:-0.795383870601654 4:-0.8210580348968506 5:-0.8592171669006348 6:-0.9987154603004456 7:-0.9788359999656677 8:-0.9691358208656311 9:0.05966489017009735 10:-0.9940519332885742 11:-0.9999597668647766 12:1.0 13:0.0 14:0.0 15:0.0 16:1.0 17:0.3333333432674408 18:0.3333333432674408 19:0.0 20:-0.3333333432674408 21:0.3333333432674408 22:0.0
-0.07972120312697845 1:0.14948301017284393 2:0.20258620381355286 3:-0.658060610294342 4:-0.23887935280799866 5:-0.49870580434799194 6:-0.9922928810119629 7:-0.937924325466156 8:-0.9229222536087036 9:-0.19224588572978973 10:-0.9479624629020691 11:-0.9946714639663696 12:1.0 13:0.0 14:0.0 15:0.0 16:0.0 17:-0.3333333432674408 18:-0.3333333432674408 19:0.0 20:-0.3333333432674408 21:-0.3333333432674408 22:0.0
-0.07972120312697845 1:-0.20854705572128296 2:-0.37931033968925476 3:-0.7846609354019165 4:-0.8124725818634033 5:-0.8592171669006348 6:-0.995718240737915 7:-0.8559274077415466 8:-0.8761261105537415 9:-0.09356094896793365 10:-0.9916722774505615 11:-0.9999257326126099 12:1.0 13:0.0 14:0.0 15:0.0 16:1.0 17:-0.3333333432674408 18:-0.3333333432674408 19:0.0 20:-0.3333333432674408 21:-0.3333333432674408 22:0.0
-0.07972120312697845 1:-0.3042193353176117 2:-0.44396552443504333 3:-0.7580379843711853 4:-0.7914655804634094 5:-0.8592171669006348 6:-0.20809248089790344 7:-0.7679300308227539 8:-0.7870662212371826 9:-0.19950050115585327 10:-0.912997305393219 11:-0.9910027384757996 12:1.0 13:0.0 14:0.0 15:0.0 16:0.0 17:-0.3333333432674408 18:-0.3333333432674408 19:0.0 20:-0.3333333432674408 21:-0.3333333432674408 22:0.0
-0.07972120312697845 1:-0.10278624296188354 2:0.13793103396892548 3:-0.7120527029037476 4:-0.3717401623725891 5:-0.5496304035186768 6:-0.96938556432724 7:-0.8681778311729431 8:-0.7806603908538818 9:-0.6927003264427185 10:-0.9431713223457336 11:-0.9968275427818298 12:-1.0 13:0.0 14:0.0 15:0.0 16:0.0 17:-0.3333333432674408 18:-0.3333333432674408 19:0.0 20:-0.3333333432674408 21:-0.3333333432674408 22:0.0
0.07972120312697845 1:-0.20854705572128296 2:-0.37931033968925476 3:-1.0 4:-1.0 5:-0.8592171669006348 6:-0.9978591203689575 7:-0.9391056299209595 8:-0.795918345451355 9:-0.6243221163749695 10:-0.9932300448417664 11:-0.9998403191566467 12:1.0 13:0.0 14:0.0 15:0.0 16:-1.0 17:-1.0 18:-1.0 19:-1.0 20:-1.0 21:-1.0 22:0.0
0.07972120312697845 1:-0.7985668778419495 2:-0.9211822748184204 3:-1.0 4:-1.0 5:-1.0 6:-0.9826589822769165 7:0.02304147556424141 8:-0.0555555559694767 9:1.0 10:-0.9938580393791199 11:-0.9993797540664673 12:-1.0 13:0.0 14:0.0 15:0.0 16:-1.0 17:-1.0 18:-1.0 19:-1.0 20:-1.0 21:-1.0 22:0.0
0.07972120312697845 1:-0.10278624296188354 2:-0.3054187297821045 3:-1.0 4:-1.0 5:-0.8890299797058105 6:-0.9935774207115173 7:-0.9377612471580505 8:-0.7747747898101807 9:-0.5852683186531067 10:-0.991461992263794 11:-0.9995723366737366 12:1.0 13:0.0 14:0.0 15:0.0 16:-1.0 17:-1.0 18:-1.0 19:-1.0 20:-1.0 21:-1.0 22:0.0
0.07972120312697845 1:-0.10278624296188354 2:-0.3054187297821045 3:-0.7925708889961243 4:-0.8187987804412842 5:-0.8592171669006348 6:-0.9152215719223022 7:-0.9255120754241943 8:-0.6790540814399719 9:-0.5231513977050781 10:-0.9570258259773254 11:-0.9979769587516785 12:1.0 13:0.0 14:0.0 15:0.0 16:-1.0 17:-1.0 18:-1.0 19:-1.0 20:-1.0 21:-1.0 22:0.0
0.07972120312697845 1:-0.20854705572128296 2:-0.37931033968925476 3:-1.0 4:-1.0 5:-0.8890299797058105 6:-0.999143660068512 7:-0.8493449687957764 8:-0.9438202381134033 9:-0.8095026016235352 10:-0.9669318199157715 11:-0.9905253052711487 12:1.0 13:0.0 14:0.0 15:0.0 16:-1.0 17:-1.0 18:-1.0 19:-1.0 20:-1.0 21:-1.0 22:0.0
-0.07972120312697845 1:-0.3042193353176117 2:-0.674876868724823 3:-1.0 4:-1.0 5:-1.0 6:-0.9593234658241272 7:-0.6637167930603027 8:-0.34873950481414795 9:-0.37462911009788513 10:-0.9933363795280457 11:-0.9997005462646484 12:1.0 13:0.0 14:0.0 15:0.0 16:-1.0 17:-1.0 18:-1.0 19:-1.0 20:-1.0 21:-1.0 22:0.0
0.07972120312697845 1:-0.7411913275718689 2:-0.7084639668464661 3:-0.7380228042602539 4:-0.7759562134742737 5:-0.8592171669006348 6:-0.9997859001159668 7:-0.5849056839942932 8:-0.9702380895614624 9:-0.3901822865009308 10:-0.9816094636917114 11:-0.9988980889320374 12:1.0 13:0.0 14:0.0 15:0.0 16:0.0 17:-0.3333333432674408 18:-1.0 19:0.0 20:-0.3333333432674408 21:-0.3333333432674408 22:0.0
-0.07972120312697845 1:0.3042193353176117 2:0.5566502213478088 3:-1.0 4:-1.0 5:-0.17004747688770294 6:-0.9877970218658447 7:-0.3984375 8:-0.8333333134651184 9:-0.7386887073516846 10:-0.9677127599716187 11:-0.9825183749198914 12:-1.0 13:0.0 14:0.0 15:0.0 16:-1.0 17:-1.0 18:-1.0 19:-1.0 20:-1.0 21:-1.0 22:0.0
-0.07972120312697845 1:0.015444284304976463 2:-0.03448275849223137 3:-0.7037330865859985 4:-0.2924623489379883 5:-0.48120877146720886 6:-0.9952901005744934 7:-0.7282888889312744 8:-0.767699122428894 9:-0.1980850249528885 10:-0.8965209126472473 11:-0.9858346581459045 12:1.0 13:0.0 14:0.0 15:0.0 16:-1.0 17:-1.0 18:-1.0 19:-1.0 20:-1.0 21:-1.0 22:0.0
0.07972120312697845 1:1.0 2:0.8850574493408203 3:-1.0 4:-1.0 5:-0.6562143564224243 6:-0.6878612637519836 7:0.9649460315704346 8:-0.8911103010177612 9:0.04191531240940094 10:-0.8173407912254333 11:-0.9803502559661865 12:-1.0 13:0.0 14:0.0 15:0.0 16:-1.0 17:-1.0 18:-1.0 19:-1.0 20:-1.0 21:-1.0 22:0.0
0.07972120312697845 1:-0.3042193353176117 2:-0.12068965286016464 3:-1.0 4:-1.0 5:-0.5928457975387573 6:-0.9980732202529907 7:-0.9347826242446899 8:-1.0 9:-0.8420103788375854 10:-0.9816365838050842 11:-0.9986753463745117 12:1.0 13:0.0 14:0.0 15:0.0 16:-1.0 17:-1.0 18:-1.0 19:-1.0 20:-1.0 21:-1.0 22:0.0
