SVM-light Version V6.01
2 # kernel type
3 # kernel parameter -d
1.0 # kernel parameter -g
1.0 # kernel parameter -s
0.0 # kernel parameter -r
empty# kernel parameter -u
34 # highest feature index
1700 # number of training documents
1318 # number of support vectors plus 1
-0.6032208187639208 # threshold b, each following line is a SV (starting with alpha*y)
-0.5000002579483761 1:-1.0 2:-1.0 3:-1.0 4:-1.0 5:-1.0 6:-0.9997859001159668 7:-0.9979838728904724 8:-0.9790794849395752 9:-0.3333333432674408 10:0.0 11:-0.699999988079071 12:0.0 13:-1.0 14:0.0 15:-1.0 16:-1.0 17:-1.0 18:0.0 19:-1.0 20:0.0 21:-0.2102566361427307 22:-0.9747147560119629 23:-0.9983941316604614 24:-1.0 25:0.0 26:0.0 27:0.0 28:-1.0 29:-0.3333333432674408 30:-0.3333333432674408 31:0.0 32:-0.3333333432674408 33:-0.3333333432674408 34:0.0
-0.5000002579483761 1:-0.7895134091377258 2:-0.9203919172286987 3:-0.8453693389892578 4:-1.0 5:-1.0 6:-0.9980732202529907 7:-0.9058823585510254 8:-0.7916666865348816 9:0.3333333432674408 10:0.0 11:1.0 12:0.0 13:-1.0 14:0.0 15:-1.0 16:-1.0 17:-1.0 18:0.0 19:-1.0 20:0.0 21:-0.6315519213676453 22:-0.9911266565322876 23:-0.999838650226593 24:1.0 25:0.0 26:0.0 27:0.0 28:-1.0 29:-1.0 30:-0.3333333432674408 31:-1.0 32:-1.0 33:-0.3333333432674408 34:0.0
-0.5000002579483761 1:-0.3831649124622345 2:-0.5117371082305908 3:-0.8021283745765686 4:-0.8285772204399109 5:-0.8592171669006348 6:-0.9995718002319336 7:-0.9918032884597778 8:-0.9618320465087891 9:-0.3333333432674408 10:0.0 11:-0.5 12:0.0 13:-1.0 14:0.0 15:-1.0 16:-1.0 17:-1.0 18:0.0 19:-1.0 20:0.0 21:-0.5806169509887695 22:-0.9785441160202026 23:-0.9982561469078064 24:1.0 25:0.0 26:0.0 27:0.0 28:-1.0 29:-1.0 30:-1.0 31:-1.0 32:-1.0 33:-1.0 34:0.0
0.5000002579483761 1:0.0748043954372406 2:9.389671613462269E-4 3:-1.0 4:-1.0 5:-0.7888122200965881 6:-0.999143660068512 7:-0.9285714030265808 8:-0.9702380895614624 9:-0.3333333432674408 10:0.0 11:-0.4000000059604645 12:0.0 13:-1.0 14:0.0 15:-1.0 16:-1.0 17:-1.0 18:0.0 19:-1.0 20:0.0 21:-0.9132310748100281 22:-0.9848148822784424 23:-0.9994092583656311 24:1.0 25:0.0 26:0.0 27:0.0 28:-1.0 29:-1.0 30:-0.3333333432674408 31:-1.0 32:-1.0 33:-0.3333333432674408 34:0.0
-0.5000002579483761 1:0.20076175034046173 2:0.34272301197052 3:-0.746144711971283 4:-0.41531112790107727 5:-0.5295780897140503 6:-0.9978591203689575 7:-0.8920634984970093 8:-0.8958333134651184 9:-0.3333333432674408 10:0.0 11:-0.4000000059604645 12:0.0 13:1.0 14:0.0 15:-1.0 16:-1.0 17:-1.0 18:0.0 19:-1.0 20:0.0 21:-0.019228925928473473 22:-0.994825005531311 23:-0.9999541640281677 24:-1.0 25:0.0 26:0.0 27:0.0 28:0.0 29:-0.3333333432674408 30:-0.3333333432674408 31:-1.0 32:-1.0 33:-0.3333333432674408 34:0.0
0.5000002579483761 1:-0.22558631002902985 2:-0.6338028311729431 3:-1.0 4:-1.0 5:-1.0 6:-0.9944337606430054 7:-0.8842750191688538 8:-0.8595505356788635 9:-0.3333333432674408 10:0.0 11:0.10000000149011612 12:0.0 13:-1.0 14:0.0 15:-1.0 16:-1.0 17:-1.0 18:0.0 19:-1.0 20:0.0 21:0.20636549592018127 22:-0.8900589942932129 23:-0.9898372888565063 24:1.0 25:0.0 26:0.0 27:0.0 28:-1.0 29:-1.0 30:-1.0 31:-1.0 32:-1.0 33:-1.0 34:0.0
0.1940664482253996 1:-0.22558631002902985 2:-0.40492957830429077 3:-0.7530080080032349 4:-0.7900946140289307 5:-0.8592171669006348 6:-0.9595375657081604 7:-0.8625954389572144 8:-0.6951219439506531 9:-0.3333333432674408 10:0.0 11:-0.30000001192092896 12:0.0 13:-1.0 14:0.0 15:-1.0 16:-1.0 17:-1.0 18:0.0 19:-1.0 20:0.0 21:-0.47236716747283936 22:-0.9744375348091125 23:-0.9988663196563721 24:1.0 25:0.0 26:0.0 27:0.0 28:-1.0 29:-1.0 30:-0.3333333432674408 31:0.0 32:0.3333333432674408 33:-0.3333333432674408 34:0.0
0.10584387039879664 1:1.0 2:0.9123630523681641 3:-1.0 4:-1.0 5:0.3797331750392914 6:-0.9563262462615967 7:1.0 8:0.4893617033958435 9:-0.3333333432674408 10:0.0 11:-0.800000011920929 12:0.0 13:1.0 14:0.0 15:-1.0 16:-1.0 17:-1.0 18:0.0 19:1.0 20:0.0 21:0.9050495028495789 22:-0.9932117462158203 23:-0.999748706817627 24:1.0 25:0.0 26:0.0 27:0.0 28:-1.0 29:-1.0 30:-1.0 31:-1.0 32:-1.0 33:-1.0 34:0.0
0.4703155982497287 1:0.20076175034046173 2:0.23591549694538116 3:-0.6250771284103394 4:0.11807694286108017 5:-0.08886288851499557 6:-0.9362021088600159 7:-0.7223796248435974 8:-0.761904776096344 9:-0.3333333432674408 10:0.0 11:-0.5 12:0.0 13:1.0 14:0.0 15:-1.0 16:-1.0 17:-1.0 18:0.0 19:-1.0 20:0.0 21:0.8343489170074463 22:-0.9246290326118469 23:-0.9842358827590942 24:1.0 25:0.0 26:0.0 27:0.0 28:-1.0 29:-1.0 30:-1.0 31:-1.0 32:-1.0 33:-1.0 34:0.0
0.5000002579483761 1:0.20076175034046173 2:0.09859155118465424 3:-1.0 4:-1.0 5:-0.48120877146720886 6:-0.9995718002319336 7:-0.9874312877655029 8:-0.8039215803146362 9:-0.3333333432674408 10:0.0 11:-0.6000000238418579 12:0.0 13:1.0 14:0.0 15:1.0 16:-1.0 17:-1.0 18:0.0 19:-1.0 20:0.0 21:0.19023391604423523 22:-0.9945555329322815 23:-0.9998838901519775 24:1.0 25:0.0 26:0.0 27:0.0 28:-1.0 29:-1.0 30:-1.0 31:-1.0 32:-1.0 33:-1.0 34:0.0
-0.5000002579483761 1:-0.22558631002902985 2:0.032010242342948914 3:-1.0 4:-1.0 5:-0.5295780897140503 6:-0.9987154603004456 7:-0.9156327247619629 8:-0.8809523582458496 9:-0.3333333432674408 10:0.0 11:-0.699999988079071 12:0.0 13:1.0 14:0.0 15:1.0 16:-1.0 17:-1.0 18:0.0 19:-1.0 20:0.0 21:-0.015328345820307732 22:-0.9854463934898376 23:-0.9994460344314575 24:1.0 25:0.0 26:0.0 27:0.0 28:-1.0 29:-1.0 30:-1.0 31:-1.0 32:-1.0 33:-1.0 34:0.0
-0.5000002579483761 1:-0.036297865211963654 2:0.057902973145246506 3:-0.7437200546264648 4:-0.32300427556037903 5:-0.4276271164417267 6:-0.9822307825088501 7:-0.8691588640213013 8:-0.7435897588729858 9:-0.3333333432674408 10:0.0 11:-0.4000000059604645 12:0.0 13:1.0 14:0.0 15:-1.0 16:-1.0 17:-1.0 18:0.0 19:-1.0 20:0.0 21:0.7757495045661926 22:-0.9894239902496338 23:-0.9997649788856506 24:1.0 25:0.0 26:0.0 27:0.0 28:-1.0 29:-1.0 30:-1.0 31:-1.0 32:-1.0 33:-1.0 34:0.0
-0.5000002579483761 1:0.7286355495452881 2:0.6056337952613831 3:-0.44354841113090515 4:0.33096885681152344 5:-0.08886288851499557 6:-0.9931492209434509 7:-0.7159420251846313 8:-0.8619632124900818 9:-0.3333333432674408 10:0.0 11:-0.20000000298023224 12:0.0 13:1.0 14:0.0 15:-1.0 16:-1.0 17:-1.0 18:0.0 19:-1.0 20:0.0 21:0.5677213668823242 22:-0.9118714928627014 23:-0.9960307478904724 24:1.0 25:0.0 26:0.0 27:0.0 28:-1.0 29:-1.0 30:-1.0 31:-1.0 32:-1.0 33:-1.0 34:0.0
0.5000002579483761 1:-0.22558631002902985 2:-0.40492957830429077 3:-1.0 4:-1.0 5:-0.8592171669006348 6:-0.9922928810119629 7:-0.7926136255264282 8:-0.9155405163764954 9:-0.3333333432674408 10:0.0 11:-0.30000001192092896 12:0.0 13:-1.0 14:0.0 15:-1.0 16:-1.0 17:-1.0 18:0.0 19:-1.0 20:0.0 21:-0.6333310604095459 22:-0.9886720180511475 23:-0.9993613958358765 24:-1.0 25:0.0 26:0.0 27:0.0 28:-1.0 29:-1.0 30:-1.0 31:-1.0 32:-1.0 33:-1.0 34:0.0
0.5000002579483761 1:-0.13568222522735596 2:-0.3408450782299042 3:-1.0 4:-1.0 5:-0.8592171669006348 6:-0.9207878112792969 7:-0.9245283007621765 8:-0.9468085169792175 9:-0.3333333432674408 10:0.0 11:-0.30000001192092896 12:0.0 13:-1.0 14:0.0 15:-1.0 16:-1.0 17:-1.0 18:0.0 19:-1.0 20:0.0 21:-0.5218085050582886 22:-0.9930938482284546 23:-0.9997758269309998 24:-1.0 25:0.0 26:0.0 27:0.0 28:-1.0 29:-1.0 30:-1.0 31:-1.0 32:-1.0 33:-1.0 34:0.0
0.5000002579483761 1:-0.45306941866874695 2:-0.7630488872528076 3:-0.8326249122619629 4:-1.0 5:-1.0 6:-0.9638193249702454 7:-1.0 8:-1.0 9:-0.3333333432674408 10:0.0 11:-0.30000001192092896 12:0.0 13:-1.0 14:0.0 15:-1.0 16:-1.0 17:-1.0 18:0.0 19:-1.0 20:0.0 21:-0.6214416027069092 22:-0.983539342880249 23:-0.9984003305435181 24:-1.0 25:0.0 26:0.0 27:0.0 28:-1.0 29:-1.0 30:-1.0 31:-1.0 32:-1.0 33:-1.0 34:0.0
-0.5000002579483761 1:-0.036297865211963654 2:0.057902973145246506 3:-0.7980718612670898 4:-0.710543155670166 5:-0.7526165843009949 6:-0.9993577599525452 7:-0.8543046116828918 8:-1.0 9:-1.0 10:0.0 11:-1.0 12:-1.0 13:-1.0 14:0.0 15:-1.0 16:-1.0 17:-1.0 18:0.0 19:-1.0 20:0.0 21:-0.8430242538452148 22:-0.9856703281402588 23:-0.9991166591644287 24:-1.0 25:0.0 26:0.0 27:0.0 28:-1.0 29:-1.0 30:-1.0 31:-1.0 32:-1.0 33:-1.0 34:0.0
0.22379928374464067 1:-0.22558631002902985 2:-0.6338028311729431 3:-0.8356894254684448 4:-1.0 5:-1.0 6:-0.9997859001159668 7:-0.9503632187843323 8:-0.9615384340286255 9:-1.0 10:0.0 11:-1.0 12:-1.0 13:-1.0 14:0.0 15:-1.0 16:-1.0 17:-1.0 18:0.0 19:-1.0 20:0.0 21:-0.7741762399673462 22:-0.5983710885047913 23:-0.5109934210777283 24:1.0 25:0.0 26:0.0 27:0.0 28:0.0 29:-0.3333333432674408 30:-0.3333333432674408 31:0.0 32:-0.3333333432674408 33:-0.3333333432674408 34:0.0
-0.5000002579483761 1:-0.30766230821609497 2:-0.4614747166633606 3:-0.8033876419067383 4:-0.829583466053009 5:-0.8592171669006348 6:-0.9952901005744934 7:-0.8857142925262451 8:-0.8154362440109253 9:-0.3333333432674408 10:0.0 11:-0.30000001192092896 12:0.0 13:-1.0 14:0.0 15:-1.0 16:-1.0 17:-1.0 18:0.0 19:-1.0 20:0.0 21:-0.32931801676750183 22:-0.9578106999397278 23:-0.996822714805603 24:-1.0 25:0.0 26:0.0 27:0.0 28:-1.0 29:-1.0 30:-1.0 31:-1.0 32:-1.0 33:-1.0 34:0.0
0.5000002579483761 1:-0.30766230821609497 2:-0.4614747166633606 3:-1.0 4:-1.0 5:-0.8592171669006348 6:-0.9993577599525452 7:-0.9736495614051819 8:-0.9152542352676392 9:-0.3333333432674408 10:0.0 11:-0.6000000238418579 12:0.0 13:-1.0 14:0.0 15:-1.0 16:-1.0 17:-1.0 18:0.0 19:-1.0 20:0.0 21:-0.8384669423103333 22:-0.9781873226165771 23:-0.9989652037620544 24:1.0 25:0.0 26:0.0 27:0.0 28:-1.0 29:-1.0 30:-1.0 31:-1.0 32:-1.0 33:-1.0 34:0.0
0.5000002579483761 1:-0.30766230821609497 2:-0.4614747166633606 3:-0.8104856014251709 4:-0.8352736830711365 5:-0.8592171669006348 6:-0.9901520013809204 7:-0.9158819913864136 8:-0.8741007447242737 9:-0.3333333432674408 10:0.0 11:-0.4000000059604645 12:0.0 13:-1.0 14:0.0 15:-1.0 16:-1.0 17:-1.0 18:0.0 19:-1.0 20:0.0 21:-0.6724738478660583 22:-0.9681295156478882 23:-0.9923337697982788 24:1.0 25:0.0 26:0.0 27:0.0 28:-1.0 29:-1.0 30:-1.0 31:-1.0 32:-1.0 33:-1.0 34:0.0
0.5000002579483761 1:-0.5181489586830139 2:-0.43405890464782715 3:-1.0 4:-1.0 5:-0.6785190105438232 6:-1.0 7:-0.9944289922714233 8:-1.0 9:-0.3333333432674408 10:0.0 11:-0.6000000238418579 12:0.0 13:-1.0 14:0.0 15:-1.0 16:-1.0 17:-1.0 18:0.0 19:-1.0 20:0.0 21:-0.9628373384475708 22:-0.9686571955680847 23:-0.9968489408493042 24:1.0 25:0.0 26:0.0 27:0.0 28:-1.0 29:-1.0 30:-1.0 31:-1.0 32:-1.0 33:-1.0 34:0.0
-0.5000002579483761 1:-0.45306941866874695 2:-0.38967135548591614 3:-1.0 4:-1.0 5:-0.6785190105438232 6:-1.0 7:-0.9591836929321289 8:-1.0 9:-0.3333333432674408 10:0.0 11:-0.5 12:0.0 13:-1.0 14:0.0 15:-1.0 16:-1.0 17:-1.0 18:0.0 19:-1.0 20:0.0 21:-0.932451069355011 22:-0.9740967154502869 23:-0.9779349565505981 24:1.0 25:0.0 26:0.0 27:0.0 28:-1.0 29:-1.0 30:-1.0 31:-1.0 32:-1.0 33:-1.0 34:0.0
-0.5000002579483761 1:-0.22558631002902985 2:-0.40492957830429077 3:-1.0 4:-1.0 5:-0.8890299797058105 6:-0.9989295601844788 7:-0.9216138124465942 8:-0.9090909361839294 9:-0.3333333432674408 10:0.0 11:-0.4000000059604645 12:0.0 13:-1.0 14:0.0 15:-1.0 16:-1.0 17:-1.0 18:0.0 19:-1.0 20:0.0 21:-0.6871585845947266 22:-0.9903851747512817 23:-0.9996933937072754 24:1.0 25:0.0 26:0.0 27:0.0 28:-1.0 29:-1.0 30:-1.0 31:-1.0 32:-1.0 33:-1.0 34:0.0
-0.5000002579483761 1:-0.22558631002902985 2:-0.40492957830429077 3:-0.8196963667869568 4:-0.8427056670188904 5:-0.8592171669006348 6:-0.9987154603004456 7:-0.9690189361572266 8:-0.9009901285171509 9:-0.3333333432674408 10:0.0 11:-0.5 12:0.0 13:-1.0 14:0.0 15:-1.0 16:-1.0 17:-1.0 18:0.0 19:-1.0 20:0.0 21:-0.7591830492019653 22:-0.9926044940948486 23:-0.999629557132721 24:1.0 25:0.0 26:0.0 27:0.0 28:-1.0 29:-1.0 30:-1.0 31:-1.0 32:-1.0 33:-1.0 34:0.0
0.5000002579483761 1:-0.30766230821609497 2:-0.6826291084289551 3:-1.0 4:-1.0 5:-1.0 6:-0.9982873201370239 7:-0.9849868416786194 8:-0.8529411554336548 9:-0.3333333432674408 10:0.0 11:-0.20000000298023224 12:0.0 13:-1.0 14:0.0 15:-1.0 16:-1.0 17:-1.0 18:0.0 19:-1.0 20:0.0 21:-0.4513661861419678 22:-0.9838518500328064 23:-0.9995099306106567 24:-1.0 25:0.0 26:0.0 27:0.0 28:-1.0 29:-1.0 30:-1.0 31:-1.0 32:-1.0 33:-1.0 34:0.0
0.5000002579483761 1:-0.5181489586830139 2:-0.597183108329773 3:-0.8196963667869568 4:-0.8427056670188904 5:-0.8592171669006348 6:-0.9657461047172546 7:-0.9473684430122375 8:-0.9152542352676392 9:-0.3333333432674408 10:0.0 11:-0.30000001192092896 12:0.0 13:-1.0 14:0.0 15:-1.0 16:-1.0 17:-1.0 18:0.0 19:-1.0 20:0.0 21:-0.48422908782958984 22:-0.9895843863487244 23:-0.9998319149017334 24:-1.0 25:0.0 26:0.0 27:0.0 28:-1.0 29:-1.0 30:-1.0 31:-1.0 32:-1.0 33:-1.0 34:0.0
0.5000002579483761 1:-0.3831649124622345 2:-0.5117371082305908 3:-0.8150139451026917 4:-0.8389207124710083 5:-0.8592171669006348 6:-0.9989295601844788 7:-0.9693877696990967 8:-0.90625 9:-0.3333333432674408 10:0.0 11:0.0 12:0.0 13:-1.0 14:0.0 15:-1.0 16:-1.0 17:-1.0 18:0.0 19:-1.0 20:0.0 21:-0.19571951031684875 22:-0.9960435628890991 23:-0.9999412894248962 24:-1.0 25:0.0 26:0.0 27:0.0 28:-1.0 29:-1.0 30:-1.0 31:-1.0 32:-1.0 33:-1.0 34:0.0
0.30649839886486846 1:1.0 2:0.8309859037399292 3:-0.5701887011528015 4:0.1931518167257309 5:-0.08820884674787521 6:-0.9032326936721802 7:0.8922345638275146 8:-0.4836956560611725 9:-0.3333333432674408 10:0.0 11:0.6000000238418579 12:0.0 13:1.0 14:0.0 15:-1.0 16:-1.0 17:-1.0 18:0.0 19:1.0 20:0.0 21:0.32663604617118835 22:-0.995872974395752 23:-0.999910295009613 24:-1.0 25:0.0 26:0.0 27:0.0 28:-1.0 29:-1.0 30:-1.0 31:-1.0 32:-1.0 33:-1.0 34:0.0
-0.5000002579483761 1:-0.3831649124622345 2:-0.5117371082305908 3:-1.0 4:-1.0 5:-0.8592171669006348 6:-1.0 7:-0.9492957592010498 8:-1.0 9:-0.3333333432674408 10:0.0 11:-0.10000000149011612 12:0.0 13:-1.0 14:0.0 15:-1.0 16:-1.0 17:-1.0 18:0.0 19:-1.0 20:0.0 21:-0.19300206005573273 22:-0.9855445027351379 23:-0.9997612237930298 24:-1.0 25:0.0 26:0.0 27:0.0 28:-1.0 29:-1.0 30:-1.0 31:-1.0 32:-1.0 33:-1.0 34:0.0
0.3137708190669805 1:-0.13568222522735596 2:-0.017049666494131088 3:-0.7242032289505005 4:-0.3503970503807068 5:-0.49870580434799194 6:-0.9995718002319336 7:-0.920634925365448 8:-0.8846153616905212 9:-0.3333333432674408 10:0.0 11:-0.10000000149011612 12:0.0 13:1.0 14:0.0 15:1.0 16:-1.0 17:-1.0 18:0.0 19:-1.0 20:0.0 21:-0.8173051476478577 22:-0.9965481758117676 23:-0.9999426603317261 24:1.0 25:0.0 26:0.0 27:0.0 28:0.0 29:-0.3333333432674408 30:-1.0 31:-1.0 32:-0.3333333432674408 33:-1.0 34:0.0
0.5000002579483761 1:-0.13568222522735596 2:-0.3408450782299042 3:-1.0 4:-1.0 5:-0.8890299797058105 6:-0.999143660068512 7:-0.8493449687957764 8:-0.9438202381134033 9:-0.3333333432674408 10:0.0 11:-0.6000000238418579 12:0.0 13:-1.0 14:0.0 15:-1.0 16:-1.0 17:-1.0 18:0.0 19:-1.0 20:0.0 21:-0.8095749020576477 22:-0.9660936594009399 23:-0.9905238747596741 24:1.0 25:0.0 26:0.0 27:0.0 28:-1.0 29:-1.0 30:-1.0 31:-1.0 32:-1.0 33:-1.0 34:0.0
0.5000002579483761 1:0.0748043954372406 2:-0.18309858441352844 3:-1.0 4:-1.0 5:-0.8592171669006348 6:-0.988867461681366 7:-0.9287671446800232 8:-0.9865350127220154 9:-0.3333333432674408 10:0.0 11:-0.5 12:0.0 13:-1.0 14:0.0 15:-1.0 16:-1.0 17:-1.0 18:0.0 19:-1.0 20:0.0 21:-0.6349077224731445 22:-0.9792818427085876 23:-0.9982672333717346 24:1.0 25:0.0 26:0.0 27:0.0 28:-1.0 29:-1.0 30:-1.0 31:-1.0 32:-1.0 33:-1.0 34:0.0
0.5000002579483761 1:-0.30766230821609497 2:-0.28687918186187744 3:-1.0 4:-1.0 5:-0.6785190105438232 6:-1.0 7:-0.8933333158493042 8:-1.0 9:-0.3333333432674408 10:0.0 11:-0.4000000059604645 12:0.0 13:-1.0 14:0.0 15:-1.0 16:-1.0 17:-1.0 18:0.0 19:-1.0 20:0.0 21:-0.9641306400299072 22:-0.961887538433075 23:-0.9765323400497437 24:1.0 25:0.0 26:0.0 27:0.0 28:-1.0 29:-1.0 30:-1.0 31:-1.0 32:-1.0 33:-1.0 34:0.0
-0.5000002579483761 1:-0.22558631002902985 2:-0.40492957830429077 3:-1.0 4:-1.0 5:-0.8592171669006348 6:-1.0 7:-0.9917808175086975 8:-1.0 9:-0.3333333432674408 10:0.0 11:-0.20000000298023224 12:0.0 13:-1.0 14:0.0 15:-1.0 16:-1.0 17:-1.0 18:0.0 19:-1.0 20:0.0 21:-0.7838113903999329 22:-0.9692984819412231 23:-0.9994038939476013 24:1.0 25:0.0 26:0.0 27:0.0 28:-1.0 29:-1.0 30:-1.0 31:-1.0 32:-1.0 33:-1.0 34:0.0
-0.5000002579483761 1:-0.22558631002902985 2:-0.40492957830429077 3:-1.0 4:-1.0 5:-0.8592171669006348 6:-0.9965745806694031 7:-0.9081632494926453 8:-0.8355262875556946 9:-0.3333333432674408 10:0.0 11:-0.5 12:0.0 13:-1.0 14:0.0 15:-1.0 16:-1.0 17:-1.0 18:0.0 19:-1.0 20:0.0 21:-0.4051979184150696 22:-0.9836220741271973 23:-0.99981689453125 24:1.0 25:0.0 26:0.0 27:0.0 28:-1.0 29:-1.0 30:-1.0 31:-1.0 32:-1.0 33:-1.0 34:0.0
-0.5000002579483761 1:-0.036297865211963654 2:-0.26760563254356384 3:-1.0 4:-1.0 5:-0.8890299797058105 6:-0.9952901005744934 7:-0.9831852316856384 8:-0.8913043737411499 9:-0.3333333432674408 10:0.0 11:-0.10000000149011612 12:0.0 13:-1.0 14:0.0 15:-1.0 16:-1.0 17:-1.0 18:0.0 19:-1.0 20:0.0 21:-0.8138526082038879 22:-0.9748150706291199 23:-0.9989635348320007 24:1.0 25:0.0 26:0.0 27:0.0 28:-1.0 29:-1.0 30:-1.0 31:-1.0 32:-1.0 33:-1.0 34:0.0
0.5000002579483761 1:-0.30766230821609497 2:-0.4614747166633606 3:-1.0 4:-1.0 5:-0.8890299797058105 6:-0.9974309802055359 7:-0.8731443881988525 8:-0.8033707737922668 9:-0.3333333432674408 10:0.0 11:-0.10000000149011612 12:0.0 13:-1.0 14:0.0 15:-1.0 16:-1.0 17:-1.0 18:0.0 19:-1.0 20:0.0 21:-0.3810560405254364 22:-0.8712183237075806 23:-0.9860193729400635 24:-1.0 25:0.0 26:0.0 27:0.0 28:-1.0 29:-1.0 30:-1.0 31:-1.0 32:-1.0 33:-1.0 34:0.0
0.5000002579483761 1:-0.45306941866874695 2:-0.7630488872528076 3:-1.0 4:-1.0 5:-1.0 6:-1.0 7:-0.9267175793647766 8:-1.0 9:-0.3333333432674408 10:0.0 11:0.10000000149011612 12:0.0 13:-1.0 14:0.0 15:-1.0 16:-1.0 17:-1.0 18:0.0 19:-1.0 20:0.0 21:-0.7248797416687012 22:-0.980581521987915 23:-0.9982588887214661 24:-1.0 25:0.0 26:0.0 27:0.0 28:-1.0 29:-1.0 30:-1.0 31:-1.0 32:-1.0 33:-1.0 34:0.0
0.5000002579483761 1:-0.30766230821609497 2:-0.4614747166633606 3:-0.7906096577644348 4:-0.8194196820259094 5:-0.8592171669006348 6:-0.9967886805534363 7:-0.914421558380127 8:-0.9628713130950928 9:-0.3333333432674408 10:0.0 11:-0.10000000149011612 12:0.0 13:-1.0 14:0.0 15:-1.0 16:-1.0 17:-1.0 18:0.0 19:-1.0 20:0.0 21:-0.5234190821647644 22:-0.9700585007667542 23:-0.9959990382194519 24:-1.0 25:0.0 26:0.0 27:0.0 28:-1.0 29:-1.0 30:-1.0 31:-1.0 32:-1.0 33:-1.0 34:0.0
0.21081004000544 1:-0.6362127065658569 2:-0.6670934557914734 3:-0.7716854810714722 4:-0.8045533895492554 5:-0.8592171669006348 6:-0.9931492209434509 7:-0.9100528955459595 8:-0.9239543676376343 9:-0.3333333432674408 10:0.0 11:-0.699999988079071 12:0.0 13:1.0 14:0.0 15:-1.0 16:-1.0 17:-1.0 18:0.0 19:-1.0 20:0.0 21:0.533530592918396 22:-0.9764111042022705 23:-0.9978100061416626 24:1.0 25:0.0 26:0.0 27:0.0 28:0.0 29:-0.3333333432674408 30:-0.3333333432674408 31:0.0 32:-0.3333333432674408 33:-0.3333333432674408 34:0.0
0.3686596143890937 1:0.5181489586830139 2:0.4647887349128723 3:-0.5589787364006042 4:-0.046998996287584305 5:-0.4276271164417267 6:-0.7955470085144043 7:-0.7385492324829102 8:0.2394564151763916 9:-0.3333333432674408 10:0.0 11:-0.5 12:0.0 13:1.0 14:0.0 15:-1.0 16:-1.0 17:-1.0 18:0.0 19:-1.0 20:0.0 21:0.4662320613861084 22:-0.9778199791908264 23:-0.9997711777687073 24:-1.0 25:0.0 26:0.0 27:0.0 28:-1.0 29:-1.0 30:-1.0 31:-1.0 32:-1.0 33:-1.0 34:0.0
0.35987298415842384 1:-0.22558631002902985 2:-0.40492957830429077 3:-0.7794786095619202 4:-0.8106487393379211 5:-0.8592171669006348 6:-0.949047327041626 7:-0.9127429723739624 8:-0.6830986142158508 9:1.0 10:0.0 11:-0.5 12:0.0 13:-1.0 14:0.0 15:-1.0 16:-1.0 17:-1.0 18:0.0 19:-1.0 20:0.0 21:0.6400175094604492 22:-0.9604003429412842 23:-0.9991412162780762 24:1.0 25:0.0 26:0.0 27:0.0 28:1.0 29:1.0 30:-0.3333333432674408 31:0.0 32:-0.3333333432674408 33:-0.3333333432674408 34:0.0
0.5000002579483761 1:-0.13568222522735596 2:-0.577464759349823 3:-1.0 4:-1.0 5:-1.0 6:-0.9982873201370239 7:-0.8854869604110718 8:-0.8876404762268066 9:-0.3333333432674408 10:0.0 11:0.10000000149011612 12:0.0 13:-1.0 14:0.0 15:-1.0 16:-1.0 17:-1.0 18:0.0 19:-1.0 20:0.0 21:-0.5951265692710876 22:-0.9085550308227539 23:-0.9749636650085449 24:1.0 25:0.0 26:0.0 27:0.0 28:-1.0 29:-1.0 30:-1.0 31:-1.0 32:-1.0 33:-1.0 34:0.0
0.5000002579483761 1:-0.30766230821609497 2:-0.4614747166633606 3:-0.7779819965362549 4:-0.809475302696228 5:-0.8592171669006348 6:-0.9903661012649536 7:-0.9464094042778015 8:-0.9030470848083496 9:-0.3333333432674408 10:0.0 11:-0.4000000059604645 12:0.0 13:-1.0 14:0.0 15:-1.0 16:-1.0 17:-1.0 18:0.0 19:-1.0 20:0.0 21:-0.49090662598609924 22:-0.9255398511886597 23:-0.9955583214759827 24:1.0 25:0.0 26:0.0 27:0.0 28:-1.0 29:-1.0 30:-1.0 31:-1.0 32:-1.0 33:-1.0 34:0.0
0.5000002579483761 1:-0.13568222522735596 2:-0.3408450782299042 3:-0.782794713973999 4:-0.8132537007331848 5:-0.8592171669006348 6:-0.9937914609909058 7:-0.852104663848877 8:-0.6261682510375977 9:-0.3333333432674408 10:0.0 11:-0.20000000298023224 12:0.0 13:-1.0 14:0.0 15:-1.0 16:-1.0 17:-1.0 18:0.0 19:-1.0 20:0.0 21:-0.7259132862091064 22:-0.9725242853164673 23:-0.9986920952796936 24:1.0 25:0.0 26:0.0 27:0.0 28:-1.0 29:-1.0 30:-1.0 31:-1.0 32:-1.0 33:-1.0 34:0.0
-0.5000002579483761 1:-0.30766230821609497 2:-0.4614747166633606 3:-1.0 4:-1.0 5:-0.8592171669006348 6:-0.9978591203689575 7:-0.800000011920929 8:-0.75 9:-0.3333333432674408 10:0.0 11:-0.10000000149011612 12:0.0 13:-1.0 14:0.0 15:-1.0 16:-1.0 17:-1.0 18:0.0 19:-1.0 20:0.0 21:-0.35583269596099854 22:-0.9627020955085754 23:-0.9987105131149292 24:1.0 25:0.0 26:0.0 27:0.0 28:-1.0 29:-1.0 30:-1.0 31:-1.0 32:-1.0 33:-1.0 34:0.0
-0.5000002579483761 1:-0.036297865211963654 2:-0.5117371082305908 3:-0.7529192566871643 4:-1.0 5:-1.0 6:-0.9916505813598633 7:-0.9581046104431152 8:-0.9368990659713745 9:-0.3333333432674408 10:0.0 11:-0.4000000059604645 12:0.0 13:-1.0 14:0.0 15:-1.0 16:-1.0 17:-1.0 18:0.0 19:-1.0 20:0.0 21:-0.7171636819839478 22:-0.9675679206848145 23:-0.9951511025428772 24:1.0 25:0.0 26:0.0 27:0.0 28:-1.0 29:-1.0 30:-1.0 31:-1.0 32:-1.0 33:-1.0 34:0.0
-0.5000002579483761 1:-0.22558631002902985 2:-0.6338028311729431 3:-1.0 4:-1.0 5:-1.0 6:-0.9978591203689575 7:-0.9130434989929199 8:-0.6794871687889099 9:-0.3333333432674408 10:0.0 11:-0.4000000059604645 12:0.0 13:-1.0 14:0.0 15:-1.0 16:-1.0 17:-1.0 18:0.0 19:-1.0 20:0.0 21:-0.6657132506370544 22:-0.9764674305915833 23:-0.9990553855895996 24:1.0 25:0.0 26:0.0 27:0.0 28:-1.0 29:-1.0 30:-1.0 31:-1.0 32:-1.0 33:-1.0 34:0.0
0.5000002579483761 1:-0.45306941866874695 2:-0.5567086935043335 3:-0.8159995079040527 4:-0.8397161960601807 5:-0.8592171669006348 6:-0.9967886805534363 7:-0.8991097807884216 8:-0.8809523582458496 9:-0.3333333432674408 10:0.0 11:0.5 12:0.0 13:-1.0 14:0.0 15:-1.0 16:-1.0 17:-1.0 18:0.0 19:-1.0 20:0.0 21:-0.733720600605011 22:-0.9670206308364868 23:-0.9909303784370422 24:-1.0 25:0.0 26:0.0 27:0.0 28:-1.0 29:-1.0 30:-1.0 31:-1.0 32:-1.0 33:-1.0 34:0.0
0.5000002579483761 1:-0.30766230821609497 2:-0.4614747166633606 3:-0.8063971400260925 4:-0.8319921493530273 5:-0.8592171669006348 6:-0.999143660068512 7:-0.897711992263794 8:-0.9784482717514038 9:-0.3333333432674408 10:0.0 11:0.30000001192092896 12:0.0 13:-1.0 14:0.0 15:-1.0 16:-1.0 17:-1.0 18:0.0 19:-1.0 20:0.0 21:-0.7837439775466919 22:-0.9876917600631714 23:-0.9987335801124573 24:-1.0 25:0.0 26:0.0 27:0.0 28:-1.0 29:-1.0 30:-1.0 31:-1.0 32:-1.0 33:-1.0 34:0.0
0.5000002579483761 1:-0.5181489586830139 2:-0.7965571284294128 3:-1.0 4:-1.0 5:-1.0 6:-0.9997859001159668 7:-0.982300877571106 8:-0.9166666865348816 9:-0.3333333432674408 10:0.0 11:0.4000000059604645 12:0.0 13:-1.0 14:0.0 15:-1.0 16:-1.0 17:-1.0 18:0.0 19:-1.0 20:0.0 21:-0.42377135157585144 22:-0.9972778558731079 23:-0.9999900460243225 24:-1.0 25:0.0 26:0.0 27:0.0 28:-1.0 29:-1.0 30:-1.0 31:-1.0 32:-1.0 33:-1.0 34:0.0
-0.14831507049165676 1:-0.13568222522735596 2:-0.15990057587623596 3:-1.0 4:-1.0 5:-0.44516071677207947 6:-1.0 7:-1.0 8:-1.0 9:-0.3333333432674408 10:0.0 11:0.10000000149011612 12:0.0 13:1.0 14:0.0 15:-1.0 16:-1.0 17:-1.0 18:0.0 19:-1.0 20:0.0 21:-0.797404944896698 22:-0.9881492257118225 23:-0.9990517497062683 24:-1.0 25:0.0 26:0.0 27:0.0 28:-1.0 29:-1.0 30:-1.0 31:-1.0 32:-1.0 33:-1.0 34:0.0
0.5000002579483761 1:-0.3831649124622345 2:-0.7253521084785461 3:-0.8215978741645813 4:-1.0 5:-1.0 6:-0.9987154603004456 7:-0.8600823283195496 8:-0.7932330965995789 9:-0.3333333432674408 10:0.0 11:-0.30000001192092896 12:0.0 13:-1.0 14:0.0 15:-1.0 16:-1.0 17:-1.0 18:0.0 19:-1.0 20:0.0 21:-0.454579621553421 22:-0.9940017461776733 23:-0.9998577237129211 24:1.0 25:0.0 26:0.0 27:0.0 28:-1.0 29:-1.0 30:-1.0 31:-1.0 32:-1.0 33:-1.0 34:0.0
-0.4385876679143752 1:-0.30766230821609497 2:-0.6826291084289551 3:-0.7954469919204712 4:-1.0 5:-1.0 6:-0.9997859001159668 7:-0.9225806593894958 8:-0.9618320465087891 9:-0.3333333432674408 10:0.0 11:0.30000001192092896 12:0.0 13:-1.0 14:0.0 15:-1.0 16:-1.0 17:-1.0 18:0.0 19:-1.0 20:0.0 21:-0.8543441891670227 22:-0.9884234070777893 23:-0.9987300038337708 24:-1.0 25:0.0 26:0.0 27:0.0 28:-1.0 29:-1.0 30:-1.0 31:-1.0 32:-1.0 33:-1.0 34:0.0
0.2663643682600409 1:0.7286355495452881 2:0.6845070719718933 3:-0.008694411255419254 4:0.6758418083190918 5:0.07287411391735077 6:-0.994861900806427 7:-0.6055900454521179 8:-0.5859872698783875 9:-1.0 10:0.0 11:-1.0 12:-1.0 13:1.0 14:0.0 15:-1.0 16:-1.0 17:-1.0 18:0.0 19:-1.0 20:0.0 21:0.04641014337539673 22:-0.9715605974197388 23:-0.9994376301765442 24:-1.0 25:0.0 26:0.0 27:0.0 28:0.0 29:-0.3333333432674408 30:-0.3333333432674408 31:0.0 32:-0.3333333432674408 33:-0.3333333432674408 34:0.0
0.5000002579483761 1:-0.30766230821609497 2:-0.6826291084289551 3:-1.0 4:-1.0 5:-1.0 6:-1.0 7:-0.974554717540741 8:-1.0 9:-0.3333333432674408 10:0.0 11:-0.30000001192092896 12:0.0 13:-1.0 14:0.0 15:-1.0 16:-1.0 17:-1.0 18:0.0 19:-1.0 20:0.0 21:-0.8261135816574097 22:-0.9901717305183411 23:-0.9996944069862366 24:1.0 25:0.0 26:0.0 27:0.0 28:-1.0 29:-1.0 30:-1.0 31:-1.0 32:-1.0 33:-1.0 34:0.0
0.5000002579483761 1:-0.13568222522735596 2:-0.577464759349823 3:-1.0 4:-1.0 5:-1.0 6:-0.9976450204849243 7:-0.9101731777191162 8:-0.8031495809555054 9:-0.3333333432674408 10:0.0 11:-0.5 12:0.0 13:-1.0 14:0.0 15:-1.0 16:-1.0 17:-1.0 18:0.0 19:-1.0 20:0.0 21:-0.308646559715271 22:-0.9375271201133728 23:-0.9765974283218384 24:1.0 25:0.0 26:0.0 27:0.0 28:-1.0 29:-1.0 30:-1.0 31:-1.0 32:-1.0 33:-1.0 34:0.0
-0.3075673201150182 1:-0.13568222522735596 2:-0.577464759349823 3:-0.74986332654953 4:-1.0 5:-1.0 6:-0.9458360075950623 7:-0.7946292161941528 8:-0.8942952752113342 9:-1.0 10:0.0 11:-1.0 12:-1.0 13:-1.0 14:0.0 15:-1.0 16:-1.0 17:-1.0 18:0.0 19:-1.0 20:0.0 21:-0.6988107562065125 22:-0.9258909225463867 23:-0.9762614965438843 24:-1.0 25:0.0 26:0.0 27:0.0 28:0.0 29:-0.3333333432674408 30:-0.3333333432674408 31:0.0 32:-0.3333333432674408 33:-1.0 34:0.0
0.27280369633129803 1:0.0748043954372406 2:9.389671613462269E-4 3:-1.0 4:-1.0 5:-0.48120877146720886 6:-0.9980732202529907 7:-0.8704690933227539 8:-0.7674418687820435 9:-0.3333333432674408 10:0.0 11:-0.699999988079071 12:0.0 13:1.0 14:0.0 15:-1.0 16:-1.0 17:-1.0 18:0.0 19:-1.0 20:0.0 21:-0.31080934405326843 22:-0.9931074380874634 23:-0.9999041557312012 24:1.0 25:0.0 26:0.0 27:0.0 28:-1.0 29:-1.0 30:-1.0 31:-1.0 32:-1.0 33:-1.0 34:0.0
0.338526223819788 1:-0.22558631002902985 2:-0.40492957830429077 3:-1.0 4:-1.0 5:-0.8592171669006348 6:-0.9989295601844788 7:-0.9430199265480042 8:-1.0 9:0.3333333432674408 10:0.0 11:-0.5 12:1.0 13:1.0 14:0.0 15:-1.0 16:-1.0 17:-1.0 18:0.0 19:-1.0 20:0.0 21:0.5348340272903442 22:-0.9902871251106262 23:-0.9999443292617798 24:1.0 25:0.0 26:0.0 27:0.0 28:-1.0 29:-1.0 30:-1.0 31:-1.0 32:-1.0 33:-1.0 34:0.0
0.409553757745725 1:-0.13568222522735596 2:-0.3408450782299042 3:-0.8093158602714539 4:-0.8343337178230286 5:-0.8592171669006348 6:-0.93877112865448 7:-0.914004921913147 8:-0.8986486196517944 9:-0.3333333432674408 10:0.0 11:-0.5 12:0.0 13:1.0 14:0.0 15:-1.0 16:-1.0 17:-1.0 18:0.0 19:-1.0 20:0.0 21:0.7457776069641113 22:-0.9963353276252747 23:-0.9999873042106628 24:1.0 25:0.0 26:0.0 27:0.0 28:-1.0 29:-1.0 30:-1.0 31:-1.0 32:-1.0 33:-1.0 34:0.0
0.5000002579483761 1:-0.22558631002902985 2:-0.6338028311729431 3:-1.0 4:-1.0 5:-1.0 6:-0.9895097613334656 7:-0.9846873879432678 8:-0.9803996086120605 9:-0.3333333432674408 10:0.0 11:-0.4000000059604645 12:0.0 13:-1.0 14:0.0 15:-1.0 16:-1.0 17:-1.0 18:0.0 19:-1.0 20:0.0 21:-0.34841522574424744 22:-0.8581161499023438 23:-0.9753877520561218 24:-1.0 25:0.0 26:0.0 27:0.0 28:-1.0 29:-0.3333333432674408 30:-0.3333333432674408 31:0.0 32:-0.3333333432674408 33:-0.3333333432674408 34:0.0
0.5000002579483761 1:0.0748043954372406 2:0.25277984142303467 3:-0.7345467805862427 4:-0.2227841019630432 5:-0.32071560621261597 6:-0.9989295601844788 7:-0.8960244655609131 8:-0.8786407709121704 9:-0.3333333432674408 10:0.0 11:-0.6000000238418579 12:0.0 13:1.0 14:0.0 15:-1.0 16:-1.0 17:-1.0 18:0.0 19:-1.0 20:0.0 21:0.22814790904521942 22:-0.9916321635246277 23:-0.9998672008514404 24:1.0 25:0.0 26:0.0 27:0.0 28:-1.0 29:-1.0 30:-1.0 31:-1.0 32:-1.0 33:-1.0 34:0.0
-0.5000002579483761 1:-0.3831649124622345 2:-0.5117371082305908 3:-0.8104856014251709 4:-0.8352736830711365 5:-0.8592171669006348 6:-0.9997859001159668 7:-1.0 8:-1.0 9:-0.3333333432674408 10:0.0 11:-0.5 12:0.0 13:-1.0 14:0.0 15:-1.0 16:-1.0 17:-1.0 18:0.0 19:-1.0 20:0.0 21:-0.6547308564186096 22:-0.9731680750846863 23:-0.9986739158630371 24:1.0 25:0.0 26:0.0 27:0.0 28:-1.0 29:-1.0 30:-1.0 31:-1.0 32:-1.0 33:-1.0 34:0.0
0.5000002579483761 1:-0.22558631002902985 2:-0.6338028311729431 3:-1.0 4:-1.0 5:-1.0 6:-1.0 7:-0.9435146450996399 8:-1.0 9:-0.3333333432674408 10:0.0 11:0.4000000059604645 12:0.0 13:-1.0 14:0.0 15:-1.0 16:-1.0 17:-1.0 18:0.0 19:-1.0 20:0.0 21:-0.5362781882286072 22:-0.9813291430473328 23:-0.9996286630630493 24:-1.0 25:0.0 26:0.0 27:0.0 28:-1.0 29:-1.0 30:-1.0 31:-1.0 32:-1.0 33:-1.0 34:0.0
-0.5000002579483761 1:-0.3831649124622345 2:-0.5117371082305908 3:-0.8033876419067383 4:-0.829583466053009 5:-0.8592171669006348 6:-0.9486191272735596 7:-0.896774172782898 8:-0.9234693646430969 9:-0.3333333432674408 10:0.0 11:-0.30000001192092896 12:0.0 13:-1.0 14:0.0 15:-1.0 16:-1.0 17:-1.0 18:0.0 19:-1.0 20:0.0 21:-0.31005361676216125 22:-0.9885708689689636 23:-0.9998370409011841 24:1.0 25:0.0 26:0.0 27:0.0 28:-1.0 29:-1.0 30:-1.0 31:-1.0 32:-1.0 33:-1.0 34:0.0
-0.5000002579483761 1:-0.30766230821609497 2:-0.6826291084289551 3:-0.7419078946113586 4:-1.0 5:-1.0 6:-0.9916505813598633 7:-0.8144329786300659 8:-0.7975708246231079 9:-0.3333333432674408 10:0.0 11:-0.6000000238418579 12:0.0 13:-1.0 14:0.0 15:-1.0 16:-1.0 17:-1.0 18:0.0 19:-1.0 20:0.0 21:-0.7040513753890991 22:-0.9409711360931396 23:-0.9804592728614807 24:1.0 25:0.0 26:0.0 27:0.0 28:-1.0 29:-1.0 30:-1.0 31:-1.0 32:-1.0 33:-1.0 34:0.0
0.5000002579483761 1:-0.3831649124622345 2:-0.7253521084785461 3:-0.8168561458587646 4:-1.0 5:-1.0 6:-0.9554699063301086 7:-0.9398496150970459 8:-0.9734042286872864 9:-0.3333333432674408 10:0.0 11:0.5 12:0.0 13:-1.0 14:0.0 15:-1.0 16:-1.0 17:-1.0 18:0.0 19:-1.0 20:0.0 21:-0.49007147550582886 22:-0.9652778506278992 23:-0.9972419142723083 24:-1.0 25:0.0 26:0.0 27:0.0 28:-1.0 29:-1.0 30:-1.0 31:-1.0 32:-1.0 33:-1.0 34:0.0
0.5000002579483761 1:-0.22558631002902985 2:-0.6338028311729431 3:-0.8258369565010071 4:-1.0 5:-1.0 6:-1.0 7:-0.9149265289306641 8:-1.0 9:-0.3333333432674408 10:0.0 11:0.4000000059604645 12:0.0 13:-1.0 14:0.0 15:-1.0 16:-1.0 17:-1.0 18:0.0 19:-1.0 20:0.0 21:-0.35858380794525146 22:-0.9816578030586243 23:-0.9996326565742493 24:-1.0 25:0.0 26:0.0 27:0.0 28:-1.0 29:-1.0 30:-1.0 31:-1.0 32:-1.0 33:-1.0 34:0.0
-0.5000002579483761 1:-0.036297865211963654 2:0.057902973145246506 3:-0.7364504933357239 4:-0.3709721267223358 5:-0.49870580434799194 6:-0.9985014200210571 7:-0.9038901329040527 8:-0.9007936716079712 9:-0.3333333432674408 10:0.0 11:-0.30000001192092896 12:0.0 13:1.0 14:0.0 15:-1.0 16:-1.0 17:-1.0 18:0.0 19:-1.0 20:0.0 21:0.011665618047118187 22:-0.9874997138977051 23:-0.999565839767456 24:1.0 25:0.0 26:0.0 27:0.0 28:-1.0 29:-1.0 30:-1.0 31:-1.0 32:-1.0 33:-1.0 34:0.0
-0.5000002579483761 1:-0.3831649124622345 2:-0.7253521084785461 3:-0.8010530471801758 4:-1.0 5:-1.0 6:-0.6375508308410645 7:-0.9141531586647034 8:-0.9019607901573181 9:-0.3333333432674408 10:0.0 11:0.10000000149011612 12:0.0 13:-1.0 14:0.0 15:-1.0 16:-1.0 17:-1.0 18:0.0 19:-1.0 20:0.0 21:0.272337406873703 22:-0.9876742362976074 23:-0.9997016787528992 24:1.0 25:0.0 26:0.0 27:0.0 28:-1.0 29:-1.0 30:-1.0 31:-1.0 32:-1.0 33:-1.0 34:0.0
-0.5000002579483761 1:0.20076175034046173 2:0.498079389333725 3:-0.7749664783477783 4:-0.581983208656311 5:-0.6562143564224243 6:-0.994861900806427 7:-0.984046995639801 8:-0.9794238805770874 9:-0.3333333432674408 10:0.0 11:-0.6000000238418579 12:0.0 13:1.0 14:0.0 15:-1.0 16:-1.0 17:-1.0 18:0.0 19:-1.0 20:0.0 21:0.12838493287563324 22:-0.977314293384552 23:-0.9992210268974304 24:1.0 25:0.0 26:0.0 27:0.0 28:-1.0 29:-1.0 30:-1.0 31:-1.0 32:-1.0 33:-1.0 34:0.0
0.5000002579483761 1:-0.5181489586830139 2:-0.7965571284294128 3:-1.0 4:-1.0 5:-1.0 6:-0.9976450204849243 7:-0.8979206085205078 8:-0.926778256893158 9:-0.3333333432674408 10:0.0 11:0.4000000059604645 12:0.0 13:-1.0 14:0.0 15:-1.0 16:-1.0 17:-1.0 18:0.0 19:-1.0 20:0.0 21:-0.9393633008003235 22:-0.9495448470115662 23:-0.993754506111145 24:-1.0 25:0.0 26:0.0 27:0.0 28:-1.0 29:-1.0 30:-1.0 31:-1.0 32:-1.0 33:-1.0 34:0.0
0.5000002579483761 1:-0.5790267586708069 2:-0.8265382051467896 3:-0.8051225543022156 4:-1.0 5:-1.0 6:-0.999143660068512 7:-0.9904862642288208 8:-0.9519230723381042 9:-0.3333333432674408 10:0.0 11:0.10000000149011612 12:0.0 13:-1.0 14:0.0 15:-1.0 16:-1.0 17:-1.0 18:0.0 19:-1.0 20:0.0 21:-0.6825827956199646 22:-0.9876990914344788 23:-0.9983120560646057 24:-1.0 25:0.0 26:0.0 27:0.0 28:-1.0 29:-1.0 30:-1.0 31:-1.0 32:-1.0 33:-1.0 34:0.0
0.5000002579483761 1:-0.13568222522735596 2:-0.3408450782299042 3:-1.0 4:-1.0 5:-0.8592171669006348 6:-1.0 7:-1.0 8:-1.0 9:-0.3333333432674408 10:0.0 11:0.6000000238418579 12:0.0 13:-1.0 14:0.0 15:-1.0 16:-1.0 17:-1.0 18:0.0 19:-1.0 20:0.0 21:-0.3954235017299652 22:-0.9964556097984314 23:-0.9999368190765381 24:-1.0 25:0.0 26:0.0 27:0.0 28:-1.0 29:-1.0 30:-1.0 31:-1.0 32:-1.0 33:-1.0 34:0.0
-0.5000002579483761 1:-0.30766230821609497 2:-0.6826291084289551 3:-0.808478832244873 4:-1.0 5:-1.0 6:-0.9970027804374695 7:-0.9408224821090698 8:-0.9069767594337463 9:-0.3333333432674408 10:0.0 11:0.4000000059604645 12:0.0 13:-1.0 14:0.0 15:-1.0 16:-1.0 17:-1.0 18:0.0 19:-1.0 20:0.0 21:-0.4156816303730011 22:-0.9354720115661621 23:-0.9924676418304443 24:-1.0 25:0.0 26:0.0 27:0.0 28:-1.0 29:-1.0 30:-1.0 31:-1.0 32:-1.0 33:-1.0 34:0.0
0.2164644410392964 1:0.3461688458919525 2:0.7224830389022827 3:-0.31138136982917786 4:0.6080490350723267 5:0.31042248010635376 6:-0.833440363407135 7:-0.9568345546722412 8:-0.8863636255264282 9:-1.0 10:0.0 11:-1.0 12:-1.0 13:1.0 14:0.0 15:1.0 16:-1.0 17:-1.0 18:0.0 19:-1.0 20:0.0 21:-0.47444453835487366 22:-0.9783238768577576 23:-0.9947872757911682 24:1.0 25:0.0 26:0.0 27:0.0 28:0.0 29:-0.3333333432674408 30:-0.3333333432674408 31:0.0 32:-0.3333333432674408 33:-0.3333333432674408 34:0.0
0.24148119892010678 1:-0.13568222522735596 2:-0.3408450782299042 3:-0.7886825799942017 4:-0.8178957104682922 5:-0.8592171669006348 6:-0.9212160110473633 7:-0.7871705889701843 8:-0.2400881052017212 9:-0.3333333432674408 10:0.0 11:-0.30000001192092896 12:0.0 13:-1.0 14:0.0 15:1.0 16:-1.0 17:-1.0 18:0.0 19:-1.0 20:0.0 21:-0.15362298488616943 22:-0.9873560667037964 23:-0.9997354745864868 24:1.0 25:0.0 26:0.0 27:0.0 28:0.0 29:-1.0 30:-1.0 31:0.0 32:-1.0 33:-1.0 34:0.0
0.5000002579483761 1:-0.45306941866874695 2:-0.5567086935043335 3:-0.8290050029754639 4:-0.8502721190452576 5:-0.8592171669006348 6:-1.0 7:-1.0 8:-1.0 9:-0.3333333432674408 10:0.0 11:-0.5 12:0.0 13:-1.0 14:0.0 15:-1.0 16:-1.0 17:-1.0 18:0.0 19:-1.0 20:0.0 21:-0.41763898730278015 22:-0.9973379373550415 23:-0.9999417662620544 24:1.0 25:0.0 26:0.0 27:0.0 28:-1.0 29:-1.0 30:-1.0 31:-1.0 32:-1.0 33:-1.0 34:0.0
0.5000002579483761 1:-0.3831649124622345 2:-0.5117371082305908 3:-1.0 4:-1.0 5:-0.8592171669006348 6:-0.9997859001159668 7:-0.931506872177124 8:-0.949999988079071 9:-0.3333333432674408 10:0.0 11:-0.4000000059604645 12:0.0 13:-1.0 14:0.0 15:-1.0 16:-1.0 17:-1.0 18:0.0 19:-1.0 20:0.0 21:-0.2787454128265381 22:-0.9943503141403198 23:-0.9998898506164551 24:1.0 25:0.0 26:0.0 27:0.0 28:-1.0 29:-1.0 30:-1.0 31:-1.0 32:-1.0 33:-1.0 34:0.0
0.5000002579483761 1:-0.22558631002902985 2:-0.40492957830429077 3:-0.8068345189094543 4:-0.8323427438735962 5:-0.8592171669006348 6:-0.9997859001159668 7:-0.9092783331871033 8:-0.9482758641242981 9:-0.3333333432674408 10:0.0 11:-0.30000001192092896 12:0.0 13:-1.0 14:0.0 15:-1.0 16:-1.0 17:-1.0 18:0.0 19:-1.0 20:0.0 21:-0.26606807112693787 22:-0.9951048493385315 23:-0.9999818205833435 24:1.0 25:0.0 26:0.0 27:0.0 28:-1.0 29:-1.0 30:-1.0 31:-1.0 32:-1.0 33:-1.0 34:0.0
-0.5000002579483761 1:-0.30766230821609497 2:-0.4614747166633606 3:-1.0 4:-1.0 5:-0.8592171669006348 6:-0.9987154603004456 7:-0.9890217185020447 8:-1.0 9:-0.3333333432674408 10:0.0 11:-0.6000000238418579 12:0.0 13:-1.0 14:0.0 15:-1.0 16:-1.0 17:-1.0 18:0.0 19:-1.0 20:0.0 21:-0.39263272285461426 22:-0.9878683686256409 23:-0.9987122416496277 24:1.0 25:0.0 26:0.0 27:0.0 28:-1.0 29:-1.0 30:-1.0 31:-1.0 32:-1.0 33:-1.0 34:0.0
-0.5000002579483761 1:-0.45306941866874695 2:-0.5567086935043335 3:-1.0 4:-1.0 5:-0.8592171669006348 6:-0.9993577599525452 7:-0.9797979593276978 8:-1.0 9:-0.3333333432674408 10:0.0 11:-0.6000000238418579 12:0.0 13:-1.0 14:0.0 15:-1.0 16:-1.0 17:-1.0 18:0.0 19:-1.0 20:0.0 21:-0.08787965029478073 22:-0.990513265132904 23:-0.999906063079834 24:1.0 25:0.0 26:0.0 27:0.0 28:-1.0 29:-1.0 30:-1.0 31:-1.0 32:-1.0 33:-1.0 34:0.0
-0.5000002579483761 1:-0.45306941866874695 2:-0.5567086935043335 3:-1.0 4:-1.0 5:-0.8592171669006348 6:-1.0 7:-1.0 8:-1.0 9:-0.3333333432674408 10:0.0 11:-0.5 12:0.0 13:-1.0 14:0.0 15:-1.0 16:-1.0 17:-1.0 18:0.0 19:-1.0 20:0.0 21:-0.49572449922561646 22:-0.9940823912620544 23:-0.9998624324798584 24:1.0 25:0.0 26:0.0 27:0.0 28:-1.0 29:-1.0 30:-1.0 31:-1.0 32:-1.0 33:-1.0 34:0.0
0.32683519916551795 1:0.20076175034046173 2:0.34272301197052 3:-0.7702527046203613 4:-0.4570953845977783 5:-0.5295780897140503 6:-0.9989295601844788 7:-0.9267399311065674 8:-0.982758641242981 9:-0.3333333432674408 10:0.0 11:-0.5 12:0.0 13:1.0 14:0.0 15:-1.0 16:-1.0 17:-1.0 18:0.0 19:-1.0 20:0.0 21:-0.1707156002521515 22:-0.9940725564956665 23:-0.9998359084129333 24:1.0 25:0.0 26:0.0 27:0.0 28:-1.0 29:-1.0 30:-1.0 31:-1.0 32:-1.0 33:-1.0 34:0.0
0.5000002579483761 1:-0.30766230821609497 2:-0.14553990960121155 3:-0.7703598737716675 4:-0.5141090750694275 5:-0.5928457975387573 6:-0.9997859001159668 7:-0.969072163105011 8:-1.0 9:-0.3333333432674408 10:0.0 11:0.30000001192092896 12:0.0 13:-1.0 14:0.0 15:-1.0 16:-1.0 17:-1.0 18:0.0 19:-1.0 20:0.0 21:-0.3506910502910614 22:-0.9976285099983215 23:-0.9999830722808838 24:-1.0 25:0.0 26:0.0 27:0.0 28:-1.0 29:-1.0 30:-1.0 31:-1.0 32:-1.0 33:-1.0 34:0.0
0.5000002579483761 1:0.3461688458919525 2:0.5868544578552246 3:-0.7585623860359192 4:-0.5576559901237488 5:-0.6562143564224243 6:-0.9779490232467651 7:-0.9351464509963989 8:-0.9294670820236206 9:-0.3333333432674408 10:0.0 11:-0.6000000238418579 12:0.0 13:1.0 14:0.0 15:-1.0 16:-1.0 17:-1.0 18:0.0 19:-1.0 20:0.0 21:0.3075364828109741 22:-0.9509049654006958 23:-0.997380256652832 24:1.0 25:0.0 26:0.0 27:0.0 28:-1.0 29:-1.0 30:-1.0 31:-1.0 32:-1.0 33:-1.0 34:0.0
-0.5000002579483761 1:0.5181489586830139 2:0.6845070719718933 3:-0.6404392123222351 4:-0.400394082069397 5:-0.6562143564224243 6:-0.9907942414283752 7:-0.7001375555992126 8:-0.8588039875030518 9:-0.3333333432674408 10:0.0 11:-0.5 12:0.0 13:1.0 14:0.0 15:-1.0 16:-1.0 17:-1.0 18:0.0 19:-1.0 20:0.0 21:0.4051516056060791 22:-0.9809650182723999 23:-0.9993019700050354 24:1.0 25:0.0 26:0.0 27:0.0 28:-1.0 29:-1.0 30:-1.0 31:-1.0 32:-1.0 33:-1.0 34:0.0
-0.5000002579483761 1:-0.22558631002902985 2:0.032010242342948914 3:-1.0 4:-1.0 5:-0.5496304035186768 6:-0.9366302490234375 7:-0.9327731132507324 8:-0.8611111044883728 9:-0.3333333432674408 10:0.0 11:-0.699999988079071 12:0.0 13:1.0 14:0.0 15:-1.0 16:-1.0 17:-1.0 18:0.0 19:-1.0 20:0.0 21:0.8596806526184082 22:-0.9794658422470093 23:-0.9881653785705566 24:1.0 25:0.0 26:0.0 27:0.0 28:-1.0 29:-1.0 30:-1.0 31:-1.0 32:-1.0 33:-1.0 34:0.0
-0.5000002579483761 1:-0.22558631002902985 2:-0.6338028311729431 3:-1.0 4:-1.0 5:-1.0 6:-0.9302076697349548 7:-0.9734576940536499 8:-1.0 9:-0.3333333432674408 10:0.0 11:-0.4000000059604645 12:0.0 13:-1.0 14:0.0 15:-1.0 16:-1.0 17:-1.0 18:0.0 19:-1.0 20:0.0 21:-0.17866411805152893 22:-0.9880729913711548 23:-0.9998325109481812 24:-1.0 25:0.0 26:0.0 27:0.0 28:-1.0 29:-0.3333333432674408 30:-0.3333333432674408 31:0.0 32:-0.3333333432674408 33:-0.3333333432674408 34:0.0
0.5000002579483761 1:-0.5181489586830139 2:-0.597183108329773 3:-0.8256835341453552 4:-0.8475658297538757 5:-0.8592171669006348 6:-0.7886962294578552 7:-0.9454545378684998 8:-0.9431818127632141 9:-0.3333333432674408 10:0.0 11:-0.699999988079071 12:0.0 13:-1.0 14:0.0 15:-1.0 16:-1.0 17:-1.0 18:0.0 19:-1.0 20:0.0 21:-0.1876077502965927 22:-0.9906668066978455 23:-0.9997227191925049 24:1.0 25:0.0 26:0.0 27:0.0 28:-1.0 29:-1.0 30:-1.0 31:-1.0 32:-1.0 33:-1.0 34:0.0
0.5000002579483761 1:-0.45306941866874695 2:-0.5567086935043335 3:-0.8290050029754639 4:-0.8502721190452576 5:-0.8592171669006348 6:-1.0 7:-0.9626168012619019 8:-1.0 9:-0.3333333432674408 10:0.0 11:-0.699999988079071 12:0.0 13:-1.0 14:0.0 15:-1.0 16:-1.0 17:-1.0 18:0.0 19:-1.0 20:0.0 21:-0.19833673536777496 22:-0.9963913559913635 23:-0.9999731779098511 24:1.0 25:0.0 26:0.0 27:0.0 28:-1.0 29:-1.0 30:-1.0 31:-1.0 32:-1.0 33:-1.0 34:0.0
0.5000002579483761 1:-0.5790267586708069 2:-0.6338028311729431 3:-1.0 4:-1.0 5:-0.8592171669006348 6:-1.0 7:-1.0 8:-1.0 9:-0.3333333432674408 10:0.0 11:-0.5 12:0.0 13:-1.0 14:0.0 15:-1.0 16:-1.0 17:-1.0 18:0.0 19:-1.0 20:0.0 21:-0.6080368757247925 22:-0.9920348525047302 23:-0.9996447563171387 24:1.0 25:0.0 26:0.0 27:0.0 28:-1.0 29:-1.0 30:-1.0 31:-1.0 32:-1.0 33:-1.0 34:0.0
-0.5000002579483761 1:-0.5181489586830139 2:-0.597183108329773 3:-0.8196963667869568 4:-0.8427056670188904 5:-0.8592171669006348 6:-0.9997859001159668 7:-0.9574209451675415 8:-0.977477490901947 9:-0.3333333432674408 10:0.0 11:-0.4000000059604645 12:0.0 13:-1.0 14:0.0 15:-1.0 16:-1.0 17:-1.0 18:0.0 19:-1.0 20:0.0 21:-0.4259202182292938 22:-0.9603462815284729 23:-0.9978984594345093 24:1.0 25:0.0 26:0.0 27:0.0 28:-1.0 29:-1.0 30:-1.0 31:-1.0 32:-1.0 33:-1.0 34:0.0
-0.5000002579483761 1:-0.22558631002902985 2:-0.40492957830429077 3:-0.8170889019966125 4:-0.8405962586402893 5:-0.8592171669006348 6:-0.9967886805534363 7:-0.8813056349754333 8:-0.807692289352417 9:-0.3333333432674408 10:0.0 11:-0.6000000238418579 12:0.0 13:-1.0 14:0.0 15:-1.0 16:-1.0 17:-1.0 18:0.0 19:-1.0 20:0.0 21:-0.05261131748557091 22:-0.9931545853614807 23:-0.9998144507408142 24:1.0 25:0.0 26:0.0 27:0.0 28:-1.0 29:-1.0 30:-1.0 31:-1.0 32:-1.0 33:-1.0 34:0.0
-0.5000002579483761 1:-0.3831649124622345 2:-0.7253521084785461 3:-1.0 4:-1.0 5:-1.0 6:-1.0 7:-0.9853372573852539 8:-1.0 9:-0.3333333432674408 10:0.0 11:-0.6000000238418579 12:0.0 13:-1.0 14:0.0 15:-1.0 16:-1.0 17:-1.0 18:0.0 19:-1.0 20:0.0 21:-0.2869613766670227 22:-0.9907949566841125 23:-0.9994814991950989 24:1.0 25:0.0 26:0.0 27:0.0 28:-1.0 29:-1.0 30:-1.0 31:-1.0 32:-1.0 33:-1.0 34:0.0
0.5000002579483761 1:-0.22558631002902985 2:0.032010242342948914 3:-1.0 4:-1.0 5:-0.5295780897140503 6:-0.9496895670890808 7:-0.954607367515564 8:-0.8645598292350769 9:-0.3333333432674408 10:0.0 11:-0.800000011920929 12:0.0 13:1.0 14:0.0 15:-1.0 16:-1.0 17:-1.0 18:0.0 19:-1.0 20:0.0 21:0.8519389629364014 22:-0.9537639617919922 23:-0.9899806380271912 24:1.0 25:0.0 26:0.0 27:0.0 28:-1.0 29:-1.0 30:-1.0 31:-1.0 32:-1.0 33:-1.0 34:0.0
0.119888891975449 1:0.3461688458919525 2:0.4432477355003357 3:-0.7597375512123108 4:-0.43860650062561035 5:-0.5295780897140503 6:-0.9873688817024231 7:-0.47445255517959595 8:-0.6499999761581421 9:-0.3333333432674408 10:0.0 11:0.10000000149011612 12:0.0 13:1.0 14:0.0 15:-1.0 16:-1.0 17:-1.0 18:0.0 19:-1.0 20:0.0 21:0.25468841195106506 22:-0.9851232171058655 23:-0.9997859001159668 24:1.0 25:0.0 26:0.0 27:0.0 28:-1.0 29:-1.0 30:-1.0 31:-1.0 32:-1.0 33:-1.0 34:0.0
0.5000002579483761 1:0.0748043954372406 2:-0.43405890464782715 3:-1.0 4:-1.0 5:-1.0 6:-0.9965745806694031 7:-0.6649305820465088 8:-0.6173469424247742 9:-0.3333333432674408 10:0.0 11:0.10000000149011612 12:0.0 13:-1.0 14:0.0 15:-1.0 16:-1.0 17:-1.0 18:0.0 19:-1.0 20:0.0 21:-0.7811977863311768 22:-0.8956210017204285 23:-0.9687248468399048 24:-1.0 25:0.0 26:0.0 27:0.0 28:-1.0 29:-1.0 30:-1.0 31:-1.0 32:-1.0 33:-1.0 34:0.0
-0.5000002579483761 1:-0.036297865211963654 2:0.057902973145246506 3:-0.7936892509460449 4:-0.5534222722053528 5:-0.5928457975387573 6:-0.9987154603004456 7:-0.9160839319229126 8:-0.9264705777168274 9:-0.3333333432674408 10:0.0 11:0.30000001192092896 12:0.0 13:-1.0 14:0.0 15:-1.0 16:-1.0 17:-1.0 18:0.0 19:-1.0 20:0.0 21:0.20314636826515198 22:-0.9919497966766357 23:-0.9999744892120361 24:-1.0 25:0.0 26:0.0 27:0.0 28:-1.0 29:-1.0 30:-1.0 31:-1.0 32:-1.0 33:-1.0 34:0.0
-0.5000002579483761 1:-0.036297865211963654 2:0.014084506779909134 3:-1.0 4:-1.0 5:-0.6707097887992859 6:-0.9995718002319336 7:-0.8619120121002197 8:-0.8888888955116272 9:-0.3333333432674408 10:0.0 11:0.10000000149011612 12:0.0 13:-1.0 14:0.0 15:-1.0 16:-1.0 17:-1.0 18:0.0 19:-1.0 20:0.0 21:-0.018247434869408607 22:-0.9945493936538696 23:-0.9999579787254333 24:-1.0 25:0.0 26:0.0 27:0.0 28:-1.0 29:-1.0 30:-1.0 31:-1.0 32:-1.0 33:-1.0 34:0.0
-0.08534665520277906 1:0.0748043954372406 2:9.389671613462269E-4 3:-0.8057811856269836 4:-0.5528619289398193 5:-0.5668150186538696 6:-0.9997859001159668 7:-0.9935275316238403 8:-1.0 9:-0.3333333432674408 10:0.0 11:-0.10000000149011612 12:0.0 13:-1.0 14:0.0 15:-1.0 16:-1.0 17:-1.0 18:0.0 19:-1.0 20:0.0 21:-0.5715150833129883 22:-0.9941330552101135 23:-0.9998103976249695 24:-1.0 25:0.0 26:0.0 27:0.0 28:-1.0 29:-1.0 30:-1.0 31:-1.0 32:-1.0 33:-1.0 34:0.0
0.5000002579483761 1:-0.30766230821609497 2:-0.4614747166633606 3:-1.0 4:-1.0 5:-0.8592171669006348 6:-0.999143660068512 7:-0.9306666851043701 8:-0.9734042286872864 9:-0.3333333432674408 10:0.0 11:-0.6000000238418579 12:0.0 13:-1.0 14:0.0 15:-1.0 16:-1.0 17:-1.0 18:0.0 19:-1.0 20:0.0 21:-0.49990037083625793 22:-0.9790017008781433 23:-0.9993314743041992 24:1.0 25:0.0 26:0.0 27:0.0 28:-1.0 29:-1.0 30:-1.0 31:-1.0 32:-1.0 33:-1.0 34:0.0
0.5000002579483761 1:-0.45306941866874695 2:-0.7630488872528076 3:-0.8356894254684448 4:-1.0 5:-1.0 6:-0.9997859001159668 7:-0.9803921580314636 8:-1.0 9:-0.3333333432674408 10:0.0 11:-0.4000000059604645 12:0.0 13:-1.0 14:0.0 15:-1.0 16:-1.0 17:-1.0 18:0.0 19:-1.0 20:0.0 21:-0.16267776489257812 22:-0.9841901659965515 23:-0.9997724890708923 24:1.0 25:0.0 26:0.0 27:0.0 28:-1.0 29:-1.0 30:-1.0 31:-1.0 32:-1.0 33:-1.0 34:0.0
0.5000002579483761 1:-0.30766230821609497 2:-0.6826291084289551 3:-1.0 4:-1.0 5:-1.0 6:-0.949047327041626 7:-0.8947368264198303 8:-0.6875 9:-0.3333333432674408 10:0.0 11:-0.4000000059604645 12:0.0 13:-1.0 14:0.0 15:-1.0 16:-1.0 17:-1.0 18:0.0 19:-1.0 20:0.0 21:-0.1884080320596695 22:-0.9942966103553772 23:-0.9999692440032959 24:1.0 25:0.0 26:0.0 27:0.0 28:-1.0 29:-1.0 30:-1.0 31:-1.0 32:-1.0 33:-1.0 34:0.0
-0.5000002579483761 1:-0.5181489586830139 2:-0.7965571284294128 3:-0.8356894254684448 4:-1.0 5:-1.0 6:-1.0 7:-0.9776649475097656 8:-1.0 9:-0.3333333432674408 10:0.0 11:-0.30000001192092896 12:0.0 13:-1.0 14:0.0 15:-1.0 16:-1.0 17:-1.0 18:0.0 19:-1.0 20:0.0 21:-0.47626835107803345 22:-0.9893811345100403 23:-0.9997804760932922 24:1.0 25:0.0 26:0.0 27:0.0 28:-1.0 29:-1.0 30:-1.0 31:-1.0 32:-1.0 33:-1.0 34:0.0
-0.5000002579483761 1:-0.5181489586830139 2:-0.7965571284294128 3:-1.0 4:-1.0 5:-1.0 6:-1.0 7:-0.9714285731315613 8:-1.0 9:-0.3333333432674408 10:0.0 11:-0.4000000059604645 12:0.0 13:-1.0 14:0.0 15:-1.0 16:-1.0 17:-1.0 18:0.0 19:-1.0 20:0.0 21:-0.6147202849388123 22:-0.9958335757255554 23:-0.9998932480812073 24:1.0 25:0.0 26:0.0 27:0.0 28:-1.0 29:-1.0 30:-1.0 31:-1.0 32:-1.0 33:-1.0 34:0.0
-0.5000002579483761 1:-0.5181489586830139 2:-0.7965571284294128 3:-1.0 4:-1.0 5:-1.0 6:-0.999143660068512 7:-0.9897241592407227 8:-0.841269850730896 9:-0.3333333432674408 10:0.0 11:-0.4000000059604645 12:0.0 13:-1.0 14:0.0 15:-1.0 16:-1.0 17:-1.0 18:0.0 19:-1.0 20:0.0 21:0.14769107103347778 22:-0.9959277510643005 23:-0.9999637007713318 24:1.0 25:0.0 26:0.0 27:0.0 28:-1.0 29:-1.0 30:-1.0 31:-1.0 32:-1.0 33:-1.0 34:0.0
0.5000002579483761 1:-0.036297865211963654 2:-0.26760563254356384 3:-0.7749384045600891 4:-0.8070931434631348 5:-0.8592171669006348 6:-0.9965745806694031 7:-0.9728583693504333 8:-0.9692623019218445 9:-0.3333333432674408 10:0.0 11:-0.10000000149011612 12:0.0 13:-1.0 14:0.0 15:-1.0 16:-1.0 17:-1.0 18:0.0 19:-1.0 20:0.0 21:0.21077293157577515 22:-0.9878371953964233 23:-0.9999061822891235 24:-1.0 25:0.0 26:0.0 27:0.0 28:-1.0 29:-1.0 30:-1.0 31:-1.0 32:-1.0 33:-1.0 34:0.0
0.5000002579483761 1:-0.036297865211963654 2:-0.26760563254356384 3:-0.805569052696228 4:-0.8313288688659668 5:-0.8592171669006348 6:-0.9967886805534363 7:-0.976190447807312 8:-0.9675324559211731 9:-0.3333333432674408 10:0.0 11:-0.10000000149011612 12:0.0 13:-1.0 14:0.0 15:-1.0 16:-1.0 17:-1.0 18:0.0 19:-1.0 20:0.0 21:-0.40616142749786377 22:-0.9926021099090576 23:-0.9998568892478943 24:-1.0 25:0.0 26:0.0 27:0.0 28:-1.0 29:-1.0 30:-1.0 31:-1.0 32:-1.0 33:-1.0 34:0.0
0.5000002579483761 1:-0.30766230821609497 2:-0.14553990960121155 3:-1.0 4:-1.0 5:-0.7526165843009949 6:-0.6897880434989929 7:-0.9415501952171326 8:-1.0 9:-0.3333333432674408 10:0.0 11:-0.10000000149011612 12:0.0 13:-1.0 14:0.0 15:-1.0 16:-1.0 17:-1.0 18:0.0 19:-1.0 20:0.0 21:-0.10816878080368042 22:-0.9954600930213928 23:-0.9999781847000122 24:-1.0 25:0.0 26:0.0 27:0.0 28:-1.0 29:-1.0 30:-1.0 31:-1.0 32:-1.0 33:-1.0 34:0.0
-0.5000002579483761 1:-0.13568222522735596 2:-0.3408450782299042 3:-1.0 4:-1.0 5:-0.8890299797058105 6:-1.0 7:-0.897185742855072 8:-1.0 9:-0.3333333432674408 10:0.0 11:-0.4000000059604645 12:0.0 13:-1.0 14:0.0 15:-1.0 16:-1.0 17:-1.0 18:0.0 19:-1.0 20:0.0 21:-0.11567442864179611 22:-0.9976585507392883 23:-0.9999933242797852 24:-1.0 25:0.0 26:0.0 27:0.0 28:-1.0 29:-1.0 30:-1.0 31:-1.0 32:-1.0 33:-1.0 34:0.0
-0.5000002579483761 1:-0.22558631002902985 2:-0.6338028311729431 3:-1.0 4:-1.0 5:-1.0 6:-1.0 7:-0.9708868265151978 8:-1.0 9:-0.3333333432674408 10:0.0 11:-0.4000000059604645 12:0.0 13:-1.0 14:0.0 15:-1.0 16:-1.0 17:-1.0 18:0.0 19:-1.0 20:0.0 21:-0.08744965493679047 22:-0.9866500496864319 23:-0.9999021887779236 24:-1.0 25:0.0 26:0.0 27:0.0 28:-1.0 29:-1.0 30:-1.0 31:-1.0 32:-1.0 33:-1.0 34:0.0
-0.5000002579483761 1:-0.13568222522735596 2:-0.577464759349823 3:-0.7640121579170227 4:-1.0 5:-1.0 6:-0.9882252216339111 7:-0.8162515163421631 8:-0.8812260627746582 9:-0.3333333432674408 10:0.0 11:0.0 12:0.0 13:-1.0 14:0.0 15:-1.0 16:-1.0 17:-1.0 18:0.0 19:-1.0 20:0.0 21:-0.20390790700912476 22:-0.9478923678398132 23:-0.9961535930633545 24:-1.0 25:0.0 26:0.0 27:0.0 28:-1.0 29:-1.0 30:-1.0 31:-1.0 32:-1.0 33:-1.0 34:0.0
0.5000002579483761 1:-0.5181489586830139 2:-0.7965571284294128 3:-0.822812020778656 4:-1.0 5:-1.0 6:-0.9980732202529907 7:-0.88416987657547 8:-0.9465811848640442 9:-0.3333333432674408 10:0.0 11:-0.20000000298023224 12:0.0 13:-1.0 14:0.0 15:-1.0 16:-1.0 17:-1.0 18:0.0 19:-1.0 20:0.0 21:-0.6306384205818176 22:-0.9661181569099426 23:-0.9977127313613892 24:1.0 25:0.0 26:0.0 27:0.0 28:-1.0 29:-1.0 30:-1.0 31:-1.0 32:-1.0 33:-1.0 34:0.0
0.5000002579483761 1:-0.5181489586830139 2:-0.597183108329773 3:-1.0 4:-1.0 5:-0.8592171669006348 6:-0.999143660068512 7:-0.920265793800354 8:-0.9880383014678955 9:-0.3333333432674408 10:0.0 11:-0.4000000059604645 12:0.0 13:-1.0 14:0.0 15:-1.0 16:-1.0 17:-1.0 18:0.0 19:-1.0 20:0.0 21:-0.503179132938385 22:-0.9575440287590027 23:-0.9951351881027222 24:1.0 25:0.0 26:0.0 27:0.0 28:-1.0 29:-1.0 30:-1.0 31:-1.0 32:-1.0 33:-1.0 34:0.0
0.5000002579483761 1:-0.45306941866874695 2:-0.7630488872528076 3:-1.0 4:-1.0 5:-1.0 6:-0.9955042004585266 7:-0.7766749262809753 8:-1.0 9:-0.3333333432674408 10:0.0 11:-0.5 12:0.0 13:-1.0 14:0.0 15:-1.0 16:-1.0 17:-1.0 18:0.0 19:-1.0 20:0.0 21:-0.5630855560302734 22:-0.9288218021392822 23:-0.9725098013877869 24:1.0 25:0.0 26:0.0 27:0.0 28:-1.0 29:-1.0 30:-1.0 31:-1.0 32:-1.0 33:-1.0 34:0.0
-0.5000002579483761 1:-0.5790267586708069 2:-0.8265382051467896 3:-1.0 4:-1.0 5:-1.0 6:-0.9997859001159668 7:-0.8429319262504578 8:-0.9038461446762085 9:-0.3333333432674408 10:0.0 11:-0.4000000059604645 12:0.0 13:-1.0 14:0.0 15:-1.0 16:-1.0 17:-1.0 18:0.0 19:-1.0 20:0.0 21:-0.7211068868637085 22:-0.9858611822128296 23:-0.999209463596344 24:1.0 25:0.0 26:0.0 27:0.0 28:-1.0 29:-1.0 30:-1.0 31:-1.0 32:-1.0 33:-1.0 34:0.0
-0.5000002579483761 1:-0.6362127065658569 2:-0.6670934557914734 3:-1.0 4:-1.0 5:-0.8592171669006348 6:-1.0 7:-0.88165682554245 8:-1.0 9:-0.3333333432674408 10:0.0 11:-0.699999988079071 12:0.0 13:-1.0 14:0.0 15:-1.0 16:-1.0 17:-1.0 18:0.0 19:-1.0 20:0.0 21:-0.6361464858055115 22:-0.996569037437439 23:-0.9999539256095886 24:1.0 25:0.0 26:0.0 27:0.0 28:-1.0 29:-1.0 30:-1.0 31:-1.0 32:-1.0 33:-1.0 34:0.0
-0.5000002579483761 1:-0.3831649124622345 2:-0.5117371082305908 3:-1.0 4:-1.0 5:-0.8890299797058105 6:-0.9970027804374695 7:-0.8585858345031738 8:-0.9236640930175781 9:-0.3333333432674408 10:0.0 11:-0.10000000149011612 12:0.0 13:-1.0 14:0.0 15:-1.0 16:-1.0 17:-1.0 18:0.0 19:-1.0 20:0.0 21:-0.7246297597885132 22:-0.9545130729675293 23:-0.9971471428871155 24:1.0 25:0.0 26:0.0 27:0.0 28:-1.0 29:-1.0 30:-1.0 31:-1.0 32:-1.0 33:-1.0 34:0.0
0.5000002579483761 1:-0.3831649124622345 2:-0.5117371082305908 3:-1.0 4:-1.0 5:-0.8890299797058105 6:-1.0 7:-0.9835931062698364 8:-0.9090909361839294 9:-0.3333333432674408 10:0.0 11:0.0 12:0.0 13:-1.0 14:0.0 15:-1.0 16:-1.0 17:-1.0 18:0.0 19:-1.0 20:0.0 21:0.023874470964074135 22:-0.9949445724487305 23:-0.9999416470527649 24:-1.0 25:0.0 26:0.0 27:0.0 28:-1.0 29:-1.0 30:-1.0 31:-1.0 32:-1.0 33:-1.0 34:0.0
0.5000002579483761 1:-0.30766230821609497 2:-0.6826291084289551 3:-1.0 4:-1.0 5:-1.0 6:-0.9963605403900146 7:-0.9331550598144531 8:-0.6590909361839294 9:-0.3333333432674408 10:0.0 11:-0.10000000149011612 12:0.0 13:-1.0 14:0.0 15:-1.0 16:-1.0 17:-1.0 18:0.0 19:-1.0 20:0.0 21:-0.16276776790618896 22:-0.9958743453025818 23:-0.999977171421051 24:-1.0 25:0.0 26:0.0 27:0.0 28:-1.0 29:-1.0 30:-1.0 31:-1.0 32:-1.0 33:-1.0 34:0.0
0.5000002579483761 1:-0.22558631002902985 2:-0.40492957830429077 3:-1.0 4:-1.0 5:-0.8890299797058105 6:-1.0 7:-0.9857853651046753 8:-1.0 9:-0.3333333432674408 10:0.0 11:-0.4000000059604645 12:0.0 13:-1.0 14:0.0 15:-1.0 16:-1.0 17:-1.0 18:0.0 19:-1.0 20:0.0 21:0.1346566081047058 22:-0.9942992925643921 23:-0.999970555305481 24:-1.0 25:0.0 26:0.0 27:0.0 28:-1.0 29:-1.0 30:-1.0 31:-1.0 32:-1.0 33:-1.0 34:0.0
-0.5000002579483761 1:-0.3831649124622345 2:-0.5117371082305908 3:-1.0 4:-1.0 5:-0.8592171669006348 6:-0.9995718002319336 7:-0.9720930457115173 8:-0.9019607901573181 9:-0.3333333432674408 10:0.0 11:-0.10000000149011612 12:0.0 13:-1.0 14:0.0 15:-1.0 16:-1.0 17:-1.0 18:0.0 19:-1.0 20:0.0 21:0.07599025964736938 22:-0.9931880235671997 23:-0.9999804496765137 24:-1.0 25:0.0 26:0.0 27:0.0 28:-1.0 29:-1.0 30:-1.0 31:-1.0 32:-1.0 33:-1.0 34:0.0
0.5000002579483761 1:-0.45306941866874695 2:-0.7630488872528076 3:-1.0 4:-1.0 5:-1.0 6:-0.9982873201370239 7:-0.9248685240745544 8:-0.9433106780052185 9:-0.3333333432674408 10:0.0 11:-0.30000001192092896 12:0.0 13:-1.0 14:0.0 15:-1.0 16:-1.0 17:-1.0 18:0.0 19:-1.0 20:0.0 21:-0.9600586295127869 22:-0.9681888222694397 23:-0.9913262128829956 24:1.0 25:0.0 26:0.0 27:0.0 28:-1.0 29:-1.0 30:-1.0 31:-1.0 32:-1.0 33:-1.0 34:0.0
-0.5000002579483761 1:-0.30766230821609497 2:-0.4614747166633606 3:-0.7953605651855469 4:-0.8582092523574829 5:-0.8890299797058105 6:-0.9995718002319336 7:-0.967391312122345 8:-0.9637681245803833 9:-0.3333333432674408 10:0.0 11:-0.20000000298023224 12:0.0 13:-1.0 14:0.0 15:-1.0 16:-1.0 17:-1.0 18:0.0 19:-1.0 20:0.0 21:0.08419176191091537 22:-0.9917487502098083 23:-0.9999399185180664 24:-1.0 25:0.0 26:0.0 27:0.0 28:-1.0 29:-1.0 30:-1.0 31:-1.0 32:-1.0 33:-1.0 34:0.0
-0.5000002579483761 1:-0.22558631002902985 2:-0.40492957830429077 3:-1.0 4:-1.0 5:-0.8592171669006348 6:-0.9993577599525452 7:-0.9184466004371643 8:-0.8999999761581421 9:-0.3333333432674408 10:0.0 11:-0.10000000149011612 12:0.0 13:-1.0 14:0.0 15:-1.0 16:-1.0 17:-1.0 18:0.0 19:-1.0 20:0.0 21:0.011721169576048851 22:-0.9732797741889954 23:-0.9943102598190308 24:-1.0 25:0.0 26:0.0 27:0.0 28:-1.0 29:-1.0 30:-1.0 31:-1.0 32:-1.0 33:-1.0 34:0.0
0.5000002579483761 1:-0.3831649124622345 2:-0.5117371082305908 3:-1.0 4:-1.0 5:-0.8592171669006348 6:-0.999143660068512 7:-0.9019939303398132 8:-0.521276593208313 9:-0.3333333432674408 10:0.0 11:-0.20000000298023224 12:0.0 13:-1.0 14:0.0 15:-1.0 16:-1.0 17:-1.0 18:0.0 19:-1.0 20:0.0 21:-0.6283056139945984 22:-0.9938092231750488 23:-0.9997840523719788 24:1.0 25:0.0 26:0.0 27:0.0 28:-1.0 29:-1.0 30:-1.0 31:-1.0 32:-1.0 33:-1.0 34:0.0
0.5000002579483761 1:-0.5790267586708069 2:-0.8265382051467896 3:-0.8294438719749451 4:-1.0 5:-1.0 6:-0.9995718002319336 7:-0.7262012958526611 8:-0.9242424368858337 9:-0.3333333432674408 10:0.0 11:-0.10000000149011612 12:0.0 13:-1.0 14:0.0 15:-1.0 16:-1.0 17:-1.0 18:0.0 19:-1.0 20:0.0 21:-0.8702124953269958 22:-0.9871179461479187 23:-0.9989688396453857 24:1.0 25:0.0 26:0.0 27:0.0 28:-1.0 29:-1.0 30:-1.0 31:-1.0 32:-1.0 33:-1.0 34:0.0
-0.5000002579483761 1:-0.036297865211963654 2:0.17183098196983337 3:-1.0 4:-1.0 5:-0.5295780897140503 6:-0.9916505813598633 7:-0.844748854637146 8:-0.8611111044883728 9:-0.3333333432674408 10:0.0 11:-0.5 12:0.0 13:1.0 14:0.0 15:-1.0 16:-1.0 17:-1.0 18:0.0 19:-1.0 20:0.0 21:-0.15845757722854614 22:-0.9928216934204102 23:-0.9999362826347351 24:1.0 25:0.0 26:0.0 27:0.0 28:-1.0 29:-1.0 30:-1.0 31:-1.0 32:-1.0 33:-1.0 34:0.0
-0.5000002579483761 1:0.20076175034046173 2:0.34272301197052 3:-0.7828032970428467 4:-0.49680936336517334 5:-0.5496304035186768 6:-0.9847998023033142 7:-0.9882698059082031 8:-0.7291666865348816 9:-0.3333333432674408 10:0.0 11:-0.4000000059604645 12:0.0 13:1.0 14:0.0 15:-1.0 16:-1.0 17:-1.0 18:0.0 19:-1.0 20:0.0 21:-0.6721556186676025 22:-0.9036229848861694 23:-0.9654958844184875 24:1.0 25:0.0 26:0.0 27:0.0 28:-1.0 29:-1.0 30:-1.0 31:-1.0 32:-1.0 33:-1.0 34:0.0
-0.5000002579483761 1:0.3461688458919525 2:0.4432477355003357 3:-0.762408435344696 4:-0.2773626744747162 5:-0.3205346465110779 6:-0.9976450204849243 7:-0.9176622629165649 8:-0.29347825050354004 9:-0.3333333432674408 10:0.0 11:-0.699999988079071 12:0.0 13:1.0 14:0.0 15:-1.0 16:-1.0 17:-1.0 18:0.0 19:-1.0 20:0.0 21:-0.5614206790924072 22:-0.9928808212280273 23:-0.9997305870056152 24:1.0 25:0.0 26:0.0 27:0.0 28:-1.0 29:-1.0 30:-1.0 31:-1.0 32:-1.0 33:-1.0 34:0.0
0.5000002579483761 1:-0.036297865211963654 2:0.17183098196983337 3:-0.7414639592170715 4:-0.4074423611164093 5:-0.5295780897140503 6:-0.9914365410804749 7:-0.8907103538513184 8:-0.7142857313156128 9:-0.3333333432674408 10:0.0 11:-0.30000001192092896 12:0.0 13:-1.0 14:0.0 15:-1.0 16:-1.0 17:-1.0 18:0.0 19:-1.0 20:0.0 21:-0.42656251788139343 22:-0.9731870889663696 23:-0.9963192343711853 24:-1.0 25:0.0 26:0.0 27:0.0 28:-1.0 29:-1.0 30:-1.0 31:-1.0 32:-1.0 33:-1.0 34:0.0
0.5000002579483761 1:-0.5181489586830139 2:-0.597183108329773 3:-1.0 4:-1.0 5:-0.8592171669006348 6:-1.0 7:-0.916167676448822 8:-1.0 9:-0.3333333432674408 10:0.0 11:-0.6000000238418579 12:0.0 13:-1.0 14:0.0 15:-1.0 16:-1.0 17:-1.0 18:0.0 19:-1.0 20:0.0 21:0.19414621591567993 22:-0.9944340586662292 23:-0.9999130368232727 24:1.0 25:0.0 26:0.0 27:0.0 28:-1.0 29:-1.0 30:-1.0 31:-1.0 32:-1.0 33:-1.0 34:0.0
0.5000002579483761 1:-0.6901290416717529 2:-0.8779342770576477 3:-1.0 4:-1.0 5:-1.0 6:-0.9548276662826538 7:-0.7516340017318726 8:-0.707207202911377 9:-0.3333333432674408 10:0.0 11:-0.6000000238418579 12:0.0 13:-1.0 14:0.0 15:-1.0 16:-1.0 17:-1.0 18:0.0 19:-1.0 20:0.0 21:0.7122679948806763 22:-0.9878315925598145 23:-0.9994763731956482 24:1.0 25:0.0 26:0.0 27:0.0 28:-1.0 29:-1.0 30:-1.0 31:-1.0 32:-1.0 33:-1.0 34:0.0
-0.5000002579483761 1:-0.30766230821609497 2:-0.6826291084289551 3:-1.0 4:-1.0 5:-1.0 6:-0.9967886805534363 7:-0.9410395622253418 8:-0.8134328126907349 9:-0.3333333432674408 10:0.0 11:-0.30000001192092896 12:0.0 13:-1.0 14:0.0 15:-1.0 16:-1.0 17:-1.0 18:0.0 19:-1.0 20:0.0 21:-0.7207659482955933 22:-0.9815157055854797 23:-0.999275267124176 24:1.0 25:0.0 26:0.0 27:0.0 28:-1.0 29:-1.0 30:-1.0 31:-1.0 32:-1.0 33:-1.0 34:0.0
-0.29738919631236865 1:-0.45306941866874695 2:-0.7630488872528076 3:-1.0 4:-1.0 5:-1.0 6:-0.9955042004585266 7:-0.8561643958091736 8:-0.8275862336158752 9:-0.3333333432674408 10:0.0 11:-0.10000000149011612 12:0.0 13:-1.0 14:0.0 15:-1.0 16:-1.0 17:-1.0 18:0.0 19:-1.0 20:0.0 21:-0.8723140358924866 22:-0.9864718317985535 23:-0.9992578625679016 24:1.0 25:0.0 26:0.0 27:0.0 28:-1.0 29:-1.0 30:-1.0 31:-1.0 32:-1.0 33:-1.0 34:0.0
-0.5000002579483761 1:-0.45306941866874695 2:-0.5567086935043335 3:-1.0 4:-1.0 5:-0.8592171669006348 6:-0.9978591203689575 7:-0.922950804233551 8:-0.9015747904777527 9:-0.3333333432674408 10:0.0 11:-0.30000001192092896 12:0.0 13:-1.0 14:0.0 15:-1.0 16:-1.0 17:-1.0 18:0.0 19:-1.0 20:0.0 21:0.09677804261445999 22:-0.953940749168396 23:-0.9991903305053711 24:1.0 25:0.0 26:0.0 27:0.0 28:-1.0 29:-1.0 30:-1.0 31:-1.0 32:-1.0 33:-1.0 34:0.0
0.1557420374333222 1:0.3461688458919525 2:0.4432477355003357 3:-1.0 4:-1.0 5:-0.5496304035186768 6:-0.9297794699668884 7:-0.7929515242576599 8:-0.10447761416435242 9:-0.3333333432674408 10:0.0 11:0.10000000149011612 12:0.0 13:1.0 14:0.0 15:-1.0 16:-1.0 17:-1.0 18:0.0 19:-1.0 20:0.0 21:0.9075027704238892 22:-0.9393110275268555 23:-0.9707247614860535 24:1.0 25:0.0 26:0.0 27:0.0 28:-1.0 29:-1.0 30:-1.0 31:-1.0 32:-1.0 33:-1.0 34:0.0
0.5000002579483761 1:0.0748043954372406 2:9.389671613462269E-4 3:-1.0 4:-1.0 5:-0.44516071677207947 6:-0.9997859001159668 7:-0.9850885272026062 8:-0.7916666865348816 9:-0.3333333432674408 10:0.0 11:-0.30000001192092896 12:0.0 13:1.0 14:0.0 15:-1.0 16:-1.0 17:-1.0 18:0.0 19:-1.0 20:0.0 21:-0.535439133644104 22:-0.9848775267601013 23:-0.9990700483322144 24:1.0 25:0.0 26:0.0 27:0.0 28:-1.0 29:-1.0 30:-1.0 31:-1.0 32:-1.0 33:-1.0 34:0.0
-0.13142042309127533 1:-0.30766230821609497 2:-0.3408450782299042 3:-0.8141975998878479 4:-0.7660057544708252 5:-0.7888122200965881 6:-0.9993577599525452 7:-0.9966550469398499 8:-0.888059675693512 9:-0.3333333432674408 10:0.0 11:0.699999988079071 12:0.0 13:-1.0 14:0.0 15:-1.0 16:-1.0 17:-1.0 18:0.0 19:-1.0 20:0.0 21:-0.8916300535202026 22:-0.9481647610664368 23:-0.9774160385131836 24:-1.0 25:0.0 26:0.0 27:0.0 28:-1.0 29:-1.0 30:-1.0 31:-1.0 32:-1.0 33:-1.0 34:0.0
-0.5000002579483761 1:-0.13568222522735596 2:-0.15990057587623596 3:-1.0 4:-1.0 5:-0.44516071677207947 6:-0.9995718002319336 7:-0.9852631688117981 8:-0.9440298676490784 9:-0.3333333432674408 10:0.0 11:-0.10000000149011612 12:0.0 13:1.0 14:0.0 15:-1.0 16:-1.0 17:-1.0 18:0.0 19:-1.0 20:0.0 21:-0.13459639251232147 22:-0.9883880615234375 23:-0.9997395873069763 24:1.0 25:0.0 26:0.0 27:0.0 28:-1.0 29:-1.0 30:-1.0 31:-1.0 32:-1.0 33:-1.0 34:0.0
-0.5000002579483761 1:-0.036297865211963654 2:0.17183098196983337 3:-1.0 4:-1.0 5:-0.5496304035186768 6:-0.9985014200210571 7:-0.7876823544502258 8:-0.9759615659713745 9:-0.3333333432674408 10:0.0 11:-0.699999988079071 12:0.0 13:1.0 14:0.0 15:-1.0 16:-1.0 17:-1.0 18:0.0 19:-1.0 20:0.0 21:-0.866101086139679 22:-0.8781051635742188 23:-0.929064929485321 24:1.0 25:0.0 26:0.0 27:0.0 28:-1.0 29:-1.0 30:-1.0 31:-1.0 32:-1.0 33:-1.0 34:0.0
-0.5000002579483761 1:-0.22558631002902985 2:0.032010242342948914 3:-1.0 4:-1.0 5:-0.5496304035186768 6:-0.9993577599525452 7:-0.8920378088951111 8:-0.8943662047386169 9:-0.3333333432674408 10:0.0 11:0.0 12:0.0 13:1.0 14:0.0 15:-1.0 16:-1.0 17:-1.0 18:0.0 19:-1.0 20:0.0 21:-0.5593553185462952 22:-0.9863067865371704 23:-0.9993621706962585 24:1.0 25:0.0 26:0.0 27:0.0 28:-1.0 29:-1.0 30:-1.0 31:-1.0 32:-1.0 33:-1.0 34:0.0
0.5000002579483761 1:-0.5181489586830139 2:-0.597183108329773 3:-0.8063971400260925 4:-0.8319921493530273 5:-0.8592171669006348 6:-1.0 7:-1.0 8:-1.0 9:-0.3333333432674408 10:0.0 11:-0.30000001192092896 12:0.0 13:-1.0 14:0.0 15:-1.0 16:-1.0 17:-1.0 18:0.0 19:-1.0 20:0.0 21:0.07265158742666245 22:-0.9955770969390869 23:-0.9999895691871643 24:-1.0 25:0.0 26:0.0 27:0.0 28:-1.0 29:-1.0 30:-1.0 31:-1.0 32:-1.0 33:-1.0 34:0.0
0.5000002579483761 1:-0.45306941866874695 2:-0.5567086935043335 3:-0.8196963667869568 4:-0.8427056670188904 5:-0.8592171669006348 6:-1.0 7:-0.9789473414421082 8:-0.9583333134651184 9:-0.3333333432674408 10:0.0 11:-0.4000000059604645 12:0.0 13:-1.0 14:0.0 15:-1.0 16:-1.0 17:-1.0 18:0.0 19:-1.0 20:0.0 21:0.025691788643598557 22:-0.9924883246421814 23:-0.9998461604118347 24:-1.0 25:0.0 26:0.0 27:0.0 28:-1.0 29:-1.0 30:-1.0 31:-1.0 32:-1.0 33:-1.0 34:0.0
0.5000002579483761 1:-0.5790267586708069 2:-0.6338028311729431 3:-1.0 4:-1.0 5:-0.8592171669006348 6:-0.8957396745681763 7:-0.9639527797698975 8:-1.0 9:-0.3333333432674408 10:0.0 11:0.20000000298023224 12:0.0 13:-1.0 14:0.0 15:-1.0 16:-1.0 17:-1.0 18:0.0 19:-1.0 20:0.0 21:0.01905178464949131 22:-0.9949142932891846 23:-0.9999232292175293 24:-1.0 25:0.0 26:0.0 27:0.0 28:-1.0 29:-1.0 30:-1.0 31:-1.0 32:-1.0 33:-1.0 34:0.0
-0.5000002579483761 1:-0.45306941866874695 2:-0.5567086935043335 3:-0.7760679125785828 4:-0.8079765439033508 5:-0.8592171669006348 6:-0.9608221054077148 7:-0.9892473220825195 8:-0.9764150977134705 9:-0.3333333432674408 10:0.0 11:-0.4000000059604645 12:0.0 13:-1.0 14:0.0 15:-1.0 16:-1.0 17:-1.0 18:0.0 19:-1.0 20:0.0 21:-0.26475611329078674 22:-0.9878941774368286 23:-0.9994539022445679 24:-1.0 25:0.0 26:0.0 27:0.0 28:-1.0 29:-1.0 30:-1.0 31:-1.0 32:-1.0 33:-1.0 34:0.0
0.5000002579483761 1:-0.22558631002902985 2:0.032010242342948914 3:-0.7728673815727234 4:-0.4617580473423004 5:-0.5295780897140503 6:-0.9899379014968872 7:-0.9607843160629272 8:-0.9193548560142517 9:-0.3333333432674408 10:0.0 11:-0.10000000149011612 12:0.0 13:1.0 14:0.0 15:-1.0 16:-1.0 17:-1.0 18:0.0 19:-1.0 20:0.0 21:-0.40716150403022766 22:-0.9848710298538208 23:-0.9994553923606873 24:1.0 25:0.0 26:0.0 27:0.0 28:-1.0 29:-1.0 30:-1.0 31:-1.0 32:-1.0 33:-1.0 34:0.0
-0.5000002579483761 1:-0.45306941866874695 2:-0.7630488872528076 3:-1.0 4:-1.0 5:-1.0 6:-1.0 7:-1.0 8:-1.0 9:-0.3333333432674408 10:0.0 11:-0.20000000298023224 12:0.0 13:-1.0 14:0.0 15:-1.0 16:-1.0 17:-1.0 18:0.0 19:-1.0 20:0.0 21:-0.06825389713048935 22:-0.9931964874267578 23:-0.9999395608901978 24:-1.0 25:0.0 26:0.0 27:0.0 28:-1.0 29:-1.0 30:-1.0 31:-1.0 32:-1.0 33:-1.0 34:0.0
-0.5000002579483761 1:-0.5181489586830139 2:-0.7965571284294128 3:-1.0 4:-1.0 5:-1.0 6:-1.0 7:-0.9821902513504028 8:-1.0 9:-0.3333333432674408 10:0.0 11:-0.20000000298023224 12:0.0 13:-1.0 14:0.0 15:-1.0 16:-1.0 17:-1.0 18:0.0 19:-1.0 20:0.0 21:-0.14989785850048065 22:-0.9946185946464539 23:-0.9999753832817078 24:-1.0 25:0.0 26:0.0 27:0.0 28:-1.0 29:-1.0 30:-1.0 31:-1.0 32:-1.0 33:-1.0 34:0.0
0.5000002579483761 1:-0.13568222522735596 2:0.09859155118465424 3:-0.7728673815727234 4:-0.4617580473423004 5:-0.5295780897140503 6:-0.9961464405059814 7:-0.8552631735801697 8:-0.9056603908538818 9:-0.3333333432674408 10:0.0 11:0.10000000149011612 12:0.0 13:1.0 14:0.0 15:-1.0 16:-1.0 17:-1.0 18:0.0 19:-1.0 20:0.0 21:-0.7434349656105042 22:-0.9783067107200623 23:-0.9985133409500122 24:1.0 25:0.0 26:0.0 27:0.0 28:-1.0 29:-1.0 30:-1.0 31:-1.0 32:-1.0 33:-1.0 34:0.0
0.5000002579483761 1:-0.036297865211963654 2:0.34272301197052 3:-0.7824941873550415 4:-0.593374490737915 5:-0.6562143564224243 6:-0.9681010246276855 7:-0.98975670337677 8:-0.9431818127632141 9:-0.3333333432674408 10:0.0 11:0.0 12:0.0 13:1.0 14:0.0 15:-1.0 16:-1.0 17:-1.0 18:0.0 19:-1.0 20:0.0 21:-0.5579450726509094 22:-0.9865299463272095 23:-0.9992614984512329 24:1.0 25:0.0 26:0.0 27:0.0 28:-1.0 29:-1.0 30:-1.0 31:-1.0 32:-1.0 33:-1.0 34:0.0
-0.5000002579483761 1:-0.45306941866874695 2:-0.7630488872528076 3:-1.0 4:-1.0 5:-1.0 6:-0.9282808899879456 7:-0.8823529481887817 8:-0.8170731663703918 9:-0.3333333432674408 10:0.0 11:-0.699999988079071 12:0.0 13:-1.0 14:0.0 15:-1.0 16:-1.0 17:-1.0 18:0.0 19:-1.0 20:0.0 21:0.7092313766479492 22:-0.9605269432067871 23:-0.9770626425743103 24:1.0 25:0.0 26:0.0 27:0.0 28:-1.0 29:-1.0 30:-1.0 31:-1.0 32:-1.0 33:-1.0 34:0.0
-0.5000002579483761 1:-0.5790267586708069 2:-0.6338028311729431 3:-1.0 4:-1.0 5:-0.8592171669006348 6:-0.999143660068512 7:-0.9586563110351562 8:-0.954954981803894 9:-0.3333333432674408 10:0.0 11:-0.30000001192092896 12:0.0 13:-1.0 14:0.0 15:-1.0 16:-1.0 17:-1.0 18:0.0 19:-1.0 20:0.0 21:0.6914668679237366 22:-0.9890733957290649 23:-0.9998571872711182 24:-1.0 25:0.0 26:0.0 27:0.0 28:-1.0 29:-1.0 30:-1.0 31:-1.0 32:-1.0 33:-1.0 34:0.0
-0.5000002579483761 1:-0.45306941866874695 2:-0.5567086935043335 3:-1.0 4:-1.0 5:-0.8592171669006348 6:-0.8931706547737122 7:-0.7356321811676025 8:-0.5744680762290955 9:-0.3333333432674408 10:0.0 11:-0.30000001192092896 12:0.0 13:-1.0 14:0.0 15:-1.0 16:-1.0 17:-1.0 18:0.0 19:-1.0 20:0.0 21:0.660946786403656 22:-0.9838027954101562 23:-0.9985529184341431 24:1.0 25:0.0 26:0.0 27:0.0 28:-1.0 29:-1.0 30:-1.0 31:-1.0 32:-1.0 33:-1.0 34:0.0
0.5000002579483761 1:0.3461688458919525 2:0.34272301197052 3:-0.6438888311386108 4:-0.2278163880109787 5:-0.49870580434799194 6:-0.9060158133506775 7:-0.8482051491737366 8:-0.8156682252883911 9:-0.3333333432674408 10:0.0 11:-0.6000000238418579 12:0.0 13:1.0 14:0.0 15:-1.0 16:-1.0 17:-1.0 18:0.0 19:-1.0 20:0.0 21:-0.8046774864196777 22:-0.9335014820098877 23:-0.9615041017532349 24:1.0 25:0.0 26:0.0 27:0.0 28:-1.0 29:-1.0 30:-1.0 31:-1.0 32:-1.0 33:-1.0 34:0.0
0.5000002579483761 1:-0.13568222522735596 2:0.19412125647068024 3:-1.0 4:-1.0 5:-0.389023095369339 6:-0.9952901005744934 7:-0.8808777332305908 8:-0.8178808093070984 9:-0.3333333432674408 10:0.0 11:-0.5 12:0.0 13:1.0 14:0.0 15:-1.0 16:-1.0 17:-1.0 18:0.0 19:-1.0 20:0.0 21:-0.8266499042510986 22:-0.917077362537384 23:-0.8264576196670532 24:1.0 25:0.0 26:0.0 27:0.0 28:-1.0 29:-1.0 30:-1.0 31:-1.0 32:-1.0 33:-1.0 34:0.0
0.5000002579483761 1:-0.30766230821609497 2:-0.4614747166633606 3:-1.0 4:-1.0 5:-0.8592171669006348 6:-0.9972168803215027 7:-0.8817567825317383 8:-0.8978365659713745 9:-0.3333333432674408 10:0.0 11:-0.10000000149011612 12:0.0 13:1.0 14:0.0 15:-1.0 16:-1.0 17:-1.0 18:0.0 19:-1.0 20:0.0 21:-0.45301690697669983 22:-0.96202152967453 23:-0.9920517802238464 24:1.0 25:0.0 26:0.0 27:0.0 28:-1.0 29:-1.0 30:-1.0 31:-1.0 32:-1.0 33:-1.0 34:0.0
-0.5000002579483761 1:-0.036297865211963654 2:0.057902973145246506 3:-0.7743822932243347 4:-0.4039180874824524 5:-0.45653972029685974 6:-0.9995718002319336 7:-0.9699903726577759 8:-0.9757281541824341 9:-0.3333333432674408 10:0.0 11:-0.30000001192092896 12:0.0 13:1.0 14:0.0 15:-1.0 16:-1.0 17:-1.0 18:0.0 19:-1.0 20:0.0 21:-0.7954510450363159 22:-0.9639092087745667 23:-0.9924176335334778 24:1.0 25:0.0 26:0.0 27:0.0 28:-1.0 29:-1.0 30:-1.0 31:-1.0 32:-1.0 33:-1.0 34:0.0
-0.5000002579483761 1:0.0748043954372406 2:0.25277984142303467 3:-0.7759876847267151 4:-0.46735680103302 5:-0.5295780897140503 6:-0.9843716621398926 7:-0.7339901328086853 8:-0.7916666865348816 9:-0.3333333432674408 10:0.0 11:-0.5 12:0.0 13:1.0 14:0.0 15:-1.0 16:-1.0 17:-1.0 18:0.0 19:-1.0 20:0.0 21:-0.8029816746711731 22:-0.9857605695724487 23:-0.999670147895813 24:1.0 25:0.0 26:0.0 27:0.0 28:-1.0 29:-1.0 30:-1.0 31:-1.0 32:-1.0 33:-1.0 34:0.0
-0.5000002579483761 1:-0.036297865211963654 2:-0.0845070406794548 3:-0.7060202360153198 4:-0.272348016500473 5:-0.44516071677207947 6:-1.0 7:-0.9929494857788086 8:-0.97826087474823 9:-0.3333333432674408 10:0.0 11:-0.5 12:0.0 13:1.0 14:0.0 15:-1.0 16:-1.0 17:-1.0 18:0.0 19:-1.0 20:0.0 21:-0.5784302353858948 22:-0.9943537712097168 23:-0.9998626112937927 24:1.0 25:0.0 26:0.0 27:0.0 28:-1.0 29:-1.0 30:-1.0 31:-1.0 32:-1.0 33:-1.0 34:0.0
0.5000002579483761 1:-0.3831649124622345 2:-0.7253521084785461 3:-1.0 4:-1.0 5:-1.0 6:-0.9340612292289734 7:-0.9863508343696594 8:-0.8876404762268066 9:-0.3333333432674408 10:0.0 11:-0.5 12:0.0 13:-1.0 14:0.0 15:-1.0 16:-1.0 17:-1.0 18:0.0 19:-1.0 20:0.0 21:0.09117154031991959 22:-0.9905831813812256 23:-0.9996681213378906 24:-1.0 25:0.0 26:0.0 27:0.0 28:-1.0 29:-1.0 30:-1.0 31:-1.0 32:-1.0 33:-1.0 34:0.0
0.5000002579483761 1:-0.5790267586708069 2:-0.8265382051467896 3:-1.0 4:-1.0 5:-1.0 6:-0.9959323406219482 7:-0.949367105960846 8:-0.9264705777168274 9:-0.3333333432674408 10:0.0 11:-0.10000000149011612 12:0.0 13:-1.0 14:0.0 15:-1.0 16:-1.0 17:-1.0 18:0.0 19:-1.0 20:0.0 21:-0.14547523856163025 22:-0.9979642629623413 23:-0.9999898672103882 24:-1.0 25:0.0 26:0.0 27:0.0 28:-1.0 29:-1.0 30:-1.0 31:-1.0 32:-1.0 33:-1.0 34:0.0
0.5000002579483761 1:-0.22558631002902985 2:-0.6338028311729431 3:-0.7853564620018005 4:-1.0 5:-1.0 6:-0.9922928810119629 7:-0.9749274253845215 8:-0.9617067575454712 9:-0.3333333432674408 10:0.0 11:-0.30000001192092896 12:0.0 13:-1.0 14:0.0 15:-1.0 16:-1.0 17:-1.0 18:0.0 19:-1.0 20:0.0 21:0.3672483265399933 22:-0.9118872284889221 23:-0.9963952302932739 24:-1.0 25:0.0 26:0.0 27:0.0 28:-1.0 29:-1.0 30:-1.0 31:-1.0 32:-1.0 33:-1.0 34:0.0
-0.5000002579483761 1:-0.30766230821609497 2:-0.028781384229660034 3:-1.0 4:-1.0 5:-0.5496304035186768 6:-0.9933633208274841 7:-0.9594271779060364 8:-0.7159090638160706 9:-0.3333333432674408 10:0.0 11:0.10000000149011612 12:0.0 13:1.0 14:0.0 15:-1.0 16:-1.0 17:-1.0 18:0.0 19:-1.0 20:0.0 21:-0.815123438835144 22:-0.9700950384140015 23:-0.9949793815612793 24:1.0 25:0.0 26:0.0 27:0.0 28:-1.0 29:-1.0 30:-1.0 31:-1.0 32:-1.0 33:-1.0 34:0.0
-0.5000002579483761 1:-0.13568222522735596 2:0.19412125647068024 3:-1.0 4:-1.0 5:-0.25934821367263794 6:-0.9993577599525452 7:-0.95333331823349 8:-1.0 9:-0.3333333432674408 10:0.0 11:0.30000001192092896 12:0.0 13:1.0 14:0.0 15:-1.0 16:-1.0 17:-1.0 18:0.0 19:-1.0 20:0.0 21:-0.5885744094848633 22:-0.9967036247253418 23:-0.9999700784683228 24:1.0 25:0.0 26:0.0 27:0.0 28:-1.0 29:-1.0 30:-1.0 31:-1.0 32:-1.0 33:-1.0 34:0.0
-0.5000002579483761 1:-0.22558631002902985 2:0.2112676054239273 3:-1.0 4:-1.0 5:-0.6562143564224243 6:-1.0 7:-0.770629346370697 8:-1.0 9:-0.3333333432674408 10:0.0 11:-0.20000000298023224 12:0.0 13:1.0 14:0.0 15:-1.0 16:-1.0 17:-1.0 18:0.0 19:-1.0 20:0.0 21:-0.8508864045143127 22:-0.9914707541465759 23:-0.9989984035491943 24:1.0 25:0.0 26:0.0 27:0.0 28:-1.0 29:-1.0 30:-1.0 31:-1.0 32:-1.0 33:-1.0 34:0.0
0.5000002579483761 1:-0.45306941866874695 2:-0.7630488872528076 3:-0.8223900198936462 4:-1.0 5:-1.0 6:-0.9974309802055359 7:-0.8894008994102478 8:-0.699999988079071 9:-0.3333333432674408 10:0.0 11:-0.4000000059604645 12:0.0 13:-1.0 14:0.0 15:-1.0 16:-1.0 17:-1.0 18:0.0 19:-1.0 20:0.0 21:0.6060160994529724 22:-0.9927605390548706 23:-0.9999790787696838 24:1.0 25:0.0 26:0.0 27:0.0 28:-1.0 29:-1.0 30:-1.0 31:-1.0 32:-1.0 33:-1.0 34:0.0
0.5000002579483761 1:-0.5181489586830139 2:-0.597183108329773 3:-0.7760679125785828 4:-0.8079765439033508 5:-0.8592171669006348 6:-0.9854421019554138 7:-0.9748124480247498 8:-0.8448275923728943 9:-0.3333333432674408 10:0.0 11:-0.4000000059604645 12:0.0 13:-1.0 14:0.0 15:-1.0 16:-1.0 17:-1.0 18:0.0 19:-1.0 20:0.0 21:0.5550000071525574 22:-0.9895139336585999 23:-0.999705970287323 24:1.0 25:0.0 26:0.0 27:0.0 28:-1.0 29:-1.0 30:-1.0 31:-1.0 32:-1.0 33:-1.0 34:0.0
0.06166091649572012 1:0.0748043954372406 2:-0.18309858441352844 3:-0.5234414935112 4:-0.6280758380889893 5:-0.8592171669006348 6:-0.9850139021873474 7:-0.5876542925834656 8:-0.6726862192153931 9:-0.3333333432674408 10:0.0 11:-0.800000011920929 12:0.0 13:-1.0 14:0.0 15:-1.0 16:-1.0 17:-1.0 18:0.0 19:-1.0 20:0.0 21:0.46113231778144836 22:-0.9871472716331482 23:-0.9998751282691956 24:1.0 25:0.0 26:0.0 27:0.0 28:-1.0 29:-1.0 30:-1.0 31:-1.0 32:-1.0 33:-1.0 34:0.0
-0.5000002579483761 1:-0.30766230821609497 2:-0.6826291084289551 3:-0.8294438719749451 4:-1.0 5:-1.0 6:-0.9918646812438965 7:-0.9041198492050171 8:-0.8734177350997925 9:-0.3333333432674408 10:0.0 11:-0.5 12:0.0 13:-1.0 14:0.0 15:-1.0 16:-1.0 17:-1.0 18:0.0 19:-1.0 20:0.0 21:0.3745043873786926 22:-0.9568251967430115 23:-0.9926060438156128 24:1.0 25:0.0 26:0.0 27:0.0 28:-1.0 29:-1.0 30:-1.0 31:-1.0 32:-1.0 33:-1.0 34:0.0
-0.5000002579483761 1:-0.45306941866874695 2:-0.38967135548591614 3:-0.8112586736679077 4:-0.658092737197876 5:-0.6785190105438232 6:-0.9925069808959961 7:-0.7777777910232544 8:-0.4871794879436493 9:-0.3333333432674408 10:0.0 11:-0.699999988079071 12:0.0 13:-1.0 14:0.0 15:-1.0 16:-1.0 17:-1.0 18:0.0 19:-1.0 20:0.0 21:0.5809212327003479 22:-0.9961244463920593 23:-0.9999634027481079 24:1.0 25:0.0 26:0.0 27:0.0 28:-1.0 29:-1.0 30:-1.0 31:-1.0 32:-1.0 33:-1.0 34:0.0
-0.5000002579483761 1:-0.3831649124622345 2:-0.5117371082305908 3:-1.0 4:-1.0 5:-0.8592171669006348 6:-0.9766645431518555 7:-0.9608227014541626 8:-0.9479166865348816 9:-0.3333333432674408 10:0.0 11:-0.6000000238418579 12:0.0 13:-1.0 14:0.0 15:-1.0 16:-1.0 17:-1.0 18:0.0 19:-1.0 20:0.0 21:0.558366596698761 22:-0.991847813129425 23:-0.9999222755432129 24:1.0 25:0.0 26:0.0 27:0.0 28:-1.0 29:-1.0 30:-1.0 31:-1.0 32:-1.0 33:-1.0 34:0.0
0.5000002579483761 1:0.0748043954372406 2:0.14167356491088867 3:-1.0 4:-1.0 5:-0.36298781633377075 6:-1.0 7:-0.9769230484962463 8:-0.9468085169792175 9:-0.3333333432674408 10:0.0 11:-0.10000000149011612 12:0.0 13:1.0 14:0.0 15:-1.0 16:-1.0 17:-1.0 18:0.0 19:-1.0 20:0.0 21:-0.6855430603027344 22:-0.9533360600471497 23:-0.9971368312835693 24:1.0 25:0.0 26:0.0 27:0.0 28:-1.0 29:-1.0 30:-1.0 31:-1.0 32:-1.0 33:-1.0 34:0.0
0.5000002579483761 1:0.0748043954372406 2:9.389671613462269E-4 3:-1.0 4:-1.0 5:-0.37707090377807617 6:-0.9972168803215027 7:-0.6792452931404114 8:-0.656862735748291 9:-0.3333333432674408 10:0.0 11:0.10000000149011612 12:0.0 13:1.0 14:0.0 15:-1.0 16:-1.0 17:-1.0 18:0.0 19:-1.0 20:0.0 21:-0.7303285002708435 22:-0.9890958666801453 23:-0.9977840781211853 24:1.0 25:0.0 26:0.0 27:0.0 28:-1.0 29:-1.0 30:-1.0 31:-1.0 32:-1.0 33:-1.0 34:0.0
0.5000002579483761 1:0.0748043954372406 2:-0.18309858441352844 3:-0.7898982167243958 4:-0.8188567757606506 5:-0.8592171669006348 6:-0.893812894821167 7:-0.8879551887512207 8:-0.8775510191917419 9:-0.3333333432674408 10:0.0 11:-0.5 12:0.0 13:1.0 14:0.0 15:-1.0 16:-1.0 17:-1.0 18:0.0 19:-1.0 20:0.0 21:-0.9145222902297974 22:-0.872001588344574 23:-0.9287181496620178 24:1.0 25:0.0 26:0.0 27:0.0 28:-1.0 29:-1.0 30:-1.0 31:-1.0 32:-1.0 33:-1.0 34:0.0
-0.5000002579483761 1:0.3461688458919525 2:0.2112676054239273 3:-1.0 4:-1.0 5:-0.48120877146720886 6:-0.9920787811279297 7:-0.4274274408817291 8:-0.782608687877655 9:-0.3333333432674408 10:0.0 11:-0.30000001192092896 12:0.0 13:1.0 14:0.0 15:-1.0 16:-1.0 17:-1.0 18:0.0 19:-1.0 20:0.0 21:-0.8058153390884399 22:-0.9642171263694763 23:-0.9969159364700317 24:1.0 25:0.0 26:0.0 27:0.0 28:-1.0 29:-1.0 30:-1.0 31:-1.0 32:-1.0 33:-1.0 34:0.0
-0.5000002579483761 1:-0.22558631002902985 2:0.032010242342948914 3:-1.0 4:-1.0 5:-0.5295780897140503 6:-0.9918646812438965 7:-0.8616352081298828 8:-0.375 9:-0.3333333432674408 10:0.0 11:-0.5 12:0.0 13:1.0 14:0.0 15:-1.0 16:-1.0 17:-1.0 18:0.0 19:-1.0 20:0.0 21:-0.14161860942840576 22:-0.9956119656562805 23:-0.9999749660491943 24:1.0 25:0.0 26:0.0 27:0.0 28:-1.0 29:-1.0 30:-1.0 31:-1.0 32:-1.0 33:-1.0 34:0.0
-0.5000002579483761 1:-0.30766230821609497 2:-0.4614747166633606 3:-0.7972570657730103 4:-0.8246943354606628 5:-0.8592171669006348 6:-0.9995718002319336 7:-0.9589743614196777 8:-0.9324324131011963 9:-0.3333333432674408 10:0.0 11:-0.4000000059604645 12:0.0 13:-1.0 14:0.0 15:-1.0 16:-1.0 17:-1.0 18:0.0 19:-1.0 20:0.0 21:-0.05623957887291908 22:-0.9863229393959045 23:-0.9999043941497803 24:-1.0 25:0.0 26:0.0 27:0.0 28:-1.0 29:-1.0 30:-1.0 31:-1.0 32:-1.0 33:-1.0 34:0.0
0.5000002579483761 1:-0.22558631002902985 2:-0.40492957830429077 3:-1.0 4:-1.0 5:-0.8592171669006348 6:-0.9985014200210571 7:-0.9749001860618591 8:-0.9299065470695496 9:-0.3333333432674408 10:0.0 11:-0.800000011920929 12:0.0 13:-1.0 14:0.0 15:-1.0 16:-1.0 17:-1.0 18:0.0 19:-1.0 20:0.0 21:0.45006197690963745 22:-0.9750485420227051 23:-0.9880572557449341 24:1.0 25:0.0 26:0.0 27:0.0 28:-1.0 29:-1.0 30:-1.0 31:-1.0 32:-1.0 33:-1.0 34:0.0
0.5000002579483761 1:-0.30766230821609497 2:-0.4614747166633606 3:-1.0 4:-1.0 5:-0.8592171669006348 6:-0.9980732202529907 7:-0.9513677954673767 8:-0.8417721390724182 9:-0.3333333432674408 10:0.0 11:-0.4000000059604645 12:0.0 13:-1.0 14:0.0 15:-1.0 16:-1.0 17:-1.0 18:0.0 19:-1.0 20:0.0 21:0.10617280006408691 22:-0.9926517605781555 23:-0.9999530911445618 24:1.0 25:0.0 26:0.0 27:0.0 28:-1.0 29:-1.0 30:-1.0 31:-1.0 32:-1.0 33:-1.0 34:0.0
0.5000002579483761 1:-0.13568222522735596 2:-0.3408450782299042 3:-1.0 4:-1.0 5:-0.8592171669006348 6:-0.8792549967765808 7:-0.9094076752662659 8:-0.8913043737411499 9:-0.3333333432674408 10:0.0 11:-0.6000000238418579 12:0.0 13:-1.0 14:0.0 15:-1.0 16:-1.0 17:-1.0 18:0.0 19:-1.0 20:0.0 21:0.25834351778030396 22:-0.9933097958564758 23:-0.9999804496765137 24:1.0 25:0.0 26:0.0 27:0.0 28:-1.0 29:-1.0 30:-1.0 31:-1.0 32:-1.0 33:-1.0 34:0.0
-0.5000002579483761 1:-0.13568222522735596 2:-0.3408450782299042 3:-1.0 4:-1.0 5:-0.8592171669006348 6:-1.0 7:-0.9902200698852539 8:-0.949999988079071 9:-0.3333333432674408 10:0.0 11:-0.5 12:0.0 13:-1.0 14:0.0 15:-1.0 16:-1.0 17:-1.0 18:0.0 19:-1.0 20:0.0 21:0.4814552962779999 22:-0.9771142601966858 23:-0.9997950792312622 24:1.0 25:0.0 26:0.0 27:0.0 28:-1.0 29:-1.0 30:-1.0 31:-1.0 32:-1.0 33:-1.0 34:0.0
0.5000002579483761 1:-0.30766230821609497 2:-0.28687918186187744 3:-1.0 4:-1.0 5:-0.4332105219364166 6:-0.9974309802055359 7:-0.88852459192276 8:-0.8481308221817017 9:-0.3333333432674408 10:0.0 11:-0.5 12:0.0 13:-1.0 14:0.0 15:-1.0 16:-1.0 17:-1.0 18:0.0 19:-1.0 20:0.0 21:-0.5461618304252625 22:-0.894022524356842 23:-0.9890720844268799 24:-1.0 25:0.0 26:0.0 27:0.0 28:-1.0 29:-1.0 30:-1.0 31:-1.0 32:-1.0 33:-1.0 34:0.0
-0.5000002579483761 1:-0.036297865211963654 2:-0.26760563254356384 3:-0.7888957858085632 4:-0.8180642127990723 5:-0.8592171669006348 6:-0.995718240737915 7:-0.8765008449554443 8:-0.9228395223617554 9:-0.3333333432674408 10:0.0 11:-0.20000000298023224 12:0.0 13:-1.0 14:0.0 15:-1.0 16:-1.0 17:-1.0 18:0.0 19:-1.0 20:0.0 21:0.15792608261108398 22:-0.9642354249954224 23:-0.9978270530700684 24:1.0 25:0.0 26:0.0 27:0.0 28:-1.0 29:-1.0 30:-1.0 31:-1.0 32:-1.0 33:-1.0 34:0.0
-0.5000002579483761 1:-0.13568222522735596 2:-0.3408450782299042 3:-1.0 4:-1.0 5:-0.8592171669006348 6:-0.9989295601844788 7:-0.9789746403694153 8:-0.8478260636329651 9:-0.3333333432674408 10:0.0 11:-0.699999988079071 12:0.0 13:-1.0 14:0.0 15:-1.0 16:-1.0 17:-1.0 18:0.0 19:-1.0 20:0.0 21:0.46344608068466187 22:-0.939430296421051 23:-0.9678089022636414 24:1.0 25:0.0 26:0.0 27:0.0 28:-1.0 29:-1.0 30:-1.0 31:-1.0 32:-1.0 33:-1.0 34:0.0
0.5000002579483761 1:-0.45306941866874695 2:-0.7630488872528076 3:-0.8181121945381165 4:-1.0 5:-1.0 6:-0.9995718002319336 7:-0.9832636117935181 8:-0.954954981803894 9:-0.3333333432674408 10:0.0 11:-0.6000000238418579 12:0.0 13:-1.0 14:0.0 15:-1.0 16:-1.0 17:-1.0 18:0.0 19:-1.0 20:0.0 21:-0.8100157380104065 22:-0.98817378282547 23:-0.9990273118019104 24:-1.0 25:0.0 26:0.0 27:0.0 28:-1.0 29:-1.0 30:-1.0 31:-1.0 32:-1.0 33:-1.0 34:0.0
0.5000002579483761 1:-0.22558631002902985 2:-0.40492957830429077 3:-1.0 4:-1.0 5:-0.8592171669006348 6:-0.9974309802055359 7:-0.7749360799789429 8:-0.9526813626289368 9:-0.3333333432674408 10:0.0 11:-0.6000000238418579 12:0.0 13:-1.0 14:0.0 15:-1.0 16:-1.0 17:-1.0 18:0.0 19:-1.0 20:0.0 21:-0.12249666452407837 22:-0.7810717821121216 23:-0.9829118251800537 24:-1.0 25:0.0 26:0.0 27:0.0 28:-1.0 29:-1.0 30:-1.0 31:-1.0 32:-1.0 33:-1.0 34:0.0
-0.5000002579483761 1:-0.13568222522735596 2:-0.15990057587623596 3:-1.0 4:-1.0 5:-0.7888122200965881 6:-0.8747591376304626 7:-0.7304307818412781 8:-0.8971193432807922 9:-0.3333333432674408 10:0.0 11:-0.6000000238418579 12:0.0 13:-1.0 14:0.0 15:-1.0 16:-1.0 17:-1.0 18:0.0 19:-1.0 20:0.0 21:-0.1694968342781067 22:-0.9602267146110535 23:-0.9762418866157532 24:1.0 25:0.0 26:0.0 27:0.0 28:-1.0 29:-1.0 30:-1.0 31:-1.0 32:-1.0 33:-1.0 34:0.0
-0.5000002579483761 1:-0.13568222522735596 2:-0.3408450782299042 3:-0.7741211652755737 4:-0.8064544200897217 5:-0.8592171669006348 6:-0.9965745806694031 7:-0.9519849419593811 8:-0.8574561476707458 9:-0.3333333432674408 10:0.0 11:-0.800000011920929 12:0.0 13:-1.0 14:0.0 15:-1.0 16:-1.0 17:-1.0 18:0.0 19:-1.0 20:0.0 21:0.06932075321674347 22:-0.8638721704483032 23:-0.9910016655921936 24:1.0 25:0.0 26:0.0 27:0.0 28:-1.0 29:-1.0 30:-1.0 31:-1.0 32:-1.0 33:-1.0 34:0.0
-0.5000002579483761 1:-0.036297865211963654 2:-0.26760563254356384 3:-0.8040708899497986 4:-0.8301298022270203 5:-0.8592171669006348 6:-0.9995718002319336 7:-0.9785768985748291 8:-0.949999988079071 9:-0.3333333432674408 10:0.0 11:-0.30000001192092896 12:0.0 13:-1.0 14:0.0 15:-1.0 16:-1.0 17:-1.0 18:0.0 19:-1.0 20:0.0 21:-0.054308582097291946 22:-0.9899232983589172 23:-0.999868631362915 24:1.0 25:0.0 26:0.0 27:0.0 28:-1.0 29:-1.0 30:-1.0 31:-1.0 32:-1.0 33:-1.0 34:0.0
0.5000002579483761 1:-0.5181489586830139 2:-0.43405890464782715 3:-1.0 4:-1.0 5:-0.44516071677207947 6:-0.994861900806427 7:-0.9120879173278809 8:-0.8790322542190552 9:-0.3333333432674408 10:0.0 11:-0.699999988079071 12:0.0 13:1.0 14:0.0 15:-1.0 16:-1.0 17:-1.0 18:0.0 19:-1.0 20:0.0 21:-0.549131453037262 22:-0.967540979385376 23:-0.9803285002708435 24:1.0 25:0.0 26:0.0 27:0.0 28:-1.0 29:-1.0 30:-1.0 31:-1.0 32:-1.0 33:-1.0 34:0.0
0.30796036215796296 1:0.3461688458919525 2:0.5226093530654907 3:-0.5344328284263611 4:0.017803242430090904 5:-0.389023095369339 6:-0.9843716621398926 7:-0.92720627784729 8:-0.8792270421981812 9:-0.3333333432674408 10:0.0 11:-0.6000000238418579 12:0.0 13:1.0 14:0.0 15:-1.0 16:-1.0 17:-1.0 18:0.0 19:-1.0 20:0.0 21:-0.7184743881225586 22:-0.8003738522529602 23:-0.8779637813568115 24:1.0 25:0.0 26:0.0 27:0.0 28:-1.0 29:-1.0 30:-1.0 31:-1.0 32:-1.0 33:-1.0 34:0.0
0.25905492911493855 1:0.5181489586830139 2:0.5563380122184753 3:-0.7375175356864929 4:-0.4196499288082123 5:-0.5496304035186768 6:-0.9156497716903687 7:-0.758320152759552 8:-0.18018017709255219 9:-0.3333333432674408 10:0.0 11:-0.4000000059604645 12:0.0 13:1.0 14:0.0 15:-1.0 16:-1.0 17:-1.0 18:0.0 19:-1.0 20:0.0 21:-0.3145327568054199 22:-0.9855157732963562 23:-0.9993175864219666 24:1.0 25:0.0 26:0.0 27:0.0 28:-1.0 29:-1.0 30:-1.0 31:-1.0 32:-1.0 33:-1.0 34:0.0
0.19007872851396665 1:-0.22558631002902985 2:-0.40492957830429077 3:-0.758274495601654 4:-0.7941502928733826 5:-0.8592171669006348 6:-0.9950760006904602 7:-0.8709677457809448 8:-0.8317307829856873 9:-0.3333333432674408 10:0.0 11:-0.4000000059604645 12:0.0 13:-1.0 14:0.0 15:-1.0 16:-1.0 17:-1.0 18:0.0 19:-1.0 20:0.0 21:0.14570112526416779 22:-0.9674683809280396 23:-0.998894453048706 24:1.0 25:0.0 26:0.0 27:0.0 28:-1.0 29:-1.0 30:-1.0 31:0.0 32:-1.0 33:-1.0 34:0.0
0.09497231556609555 1:0.3461688458919525 2:0.34272301197052 3:-0.7852494120597839 4:-0.538992702960968 5:-0.5928457975387573 6:-0.9972168803215027 7:-0.9657676219940186 8:-0.6666666865348816 9:-0.3333333432674408 10:0.0 11:-0.6000000238418579 12:0.0 13:-1.0 14:0.0 15:-1.0 16:-1.0 17:-1.0 18:0.0 19:-1.0 20:0.0 21:0.1414538323879242 22:-0.9965470433235168 23:-0.9999867677688599 24:1.0 25:0.0 26:0.0 27:0.0 28:0.0 29:-0.3333333432674408 30:-1.0 31:-1.0 32:-1.0 33:-1.0 34:0.0
0.5000002579483761 1:-0.30766230821609497 2:-0.4614747166633606 3:-1.0 4:-1.0 5:-0.8592171669006348 6:-1.0 7:-0.9606656432151794 8:-1.0 9:-0.3333333432674408 10:0.0 11:-0.30000001192092896 12:0.0 13:-1.0 14:0.0 15:-1.0 16:-1.0 17:-1.0 18:0.0 19:-1.0 20:0.0 21:-0.053366877138614655 22:-0.9946816563606262 23:-0.9999139904975891 24:1.0 25:0.0 26:0.0 27:0.0 28:-1.0 29:-1.0 30:-1.0 31:-1.0 32:-1.0 33:-1.0 34:0.0
0.5000002579483761 1:-0.13568222522735596 2:-0.3408450782299042 3:-1.0 4:-1.0 5:-0.8592171669006348 6:-0.9980732202529907 7:-0.7657864689826965 8:-0.7395833134651184 9:-0.3333333432674408 10:0.0 11:-0.6000000238418579 12:0.0 13:-1.0 14:0.0 15:-1.0 16:-1.0 17:-1.0 18:0.0 19:-1.0 20:0.0 21:0.5205789804458618 22:-0.9981114864349365 23:-0.9999940395355225 24:1.0 25:0.0 26:0.0 27:0.0 28:-1.0 29:-1.0 30:-1.0 31:-1.0 32:-1.0 33:-1.0 34:0.0
0.2621271863987867 1:0.0748043954372406 2:0.14167356491088867 3:-0.7339386940002441 4:-0.45615154504776 5:-0.5928457975387573 6:-0.9989295601844788 7:-0.9547511339187622 8:-0.9783080220222473 9:-0.3333333432674408 10:0.0 11:-0.699999988079071 12:0.0 13:-1.0 14:0.0 15:-1.0 16:-1.0 17:-1.0 18:0.0 19:-1.0 20:0.0 21:-0.4667619466781616 22:-0.9382964968681335 23:-0.9958062171936035 24:1.0 25:0.0 26:0.0 27:0.0 28:-1.0 29:-0.3333333432674408 30:-0.3333333432674408 31:-1.0 32:-0.3333333432674408 33:-0.3333333432674408 34:0.0
-0.5000002579483761 1:-0.30766230821609497 2:-0.4614747166633606 3:-0.8117945194244385 4:-0.836326539516449 5:-0.8592171669006348 6:-0.9989295601844788 7:-0.8373983502388 8:-0.7115384340286255 9:-0.3333333432674408 10:0.0 11:-0.5 12:0.0 13:-1.0 14:0.0 15:-1.0 16:-1.0 17:-1.0 18:0.0 19:-1.0 20:0.0 21:-0.34200209379196167 22:-0.9894599318504333 23:-0.9984846711158752 24:-1.0 25:0.0 26:0.0 27:0.0 28:-1.0 29:-1.0 30:-1.0 31:-1.0 32:-1.0 33:-1.0 34:0.0
-0.5000002579483761 1:-0.45306941866874695 2:-0.7630488872528076 3:-0.8258369565010071 4:-1.0 5:-1.0 6:-0.9993577599525452 7:-0.9212598204612732 8:-0.8529411554336548 9:-0.3333333432674408 10:0.0 11:-0.5 12:0.0 13:-1.0 14:0.0 15:-1.0 16:-1.0 17:-1.0 18:0.0 19:-1.0 20:0.0 21:-0.4176271855831146 22:-0.9867295026779175 23:-0.99985671043396 24:-1.0 25:0.0 26:0.0 27:0.0 28:-1.0 29:-1.0 30:-1.0 31:-1.0 32:-1.0 33:-1.0 34:0.0
0.5000002579483761 1:-0.13568222522735596 2:-0.577464759349823 3:-1.0 4:-1.0 5:-1.0 6:-0.9087989926338196 7:-0.979964017868042 8:-0.849397599697113 9:-0.3333333432674408 10:0.0 11:-0.699999988079071 12:0.0 13:-1.0 14:0.0 15:-1.0 16:-1.0 17:-1.0 18:0.0 19:-1.0 20:0.0 21:0.11441439390182495 22:-0.9838609099388123 23:-0.9996308088302612 24:1.0 25:0.0 26:0.0 27:0.0 28:-1.0 29:-1.0 30:-1.0 31:-1.0 32:-1.0 33:-1.0 34:0.0
0.4444753482682868 1:-0.3831649124622345 2:-0.5117371082305908 3:-0.8082571625709534 4:-0.8334837555885315 5:-0.8592171669006348 6:-0.9987154603004456 7:-0.9042553305625916 8:-0.8125 9:-0.3333333432674408 10:0.0 11:-0.6000000238418579 12:0.0 13:-1.0 14:0.0 15:-1.0 16:-1.0 17:-1.0 18:0.0 19:-1.0 20:0.0 21:0.19780166447162628 22:-0.9958891868591309 23:-0.9999892711639404 24:1.0 25:0.0 26:0.0 27:0.0 28:-1.0 29:-1.0 30:-1.0 31:-1.0 32:-1.0 33:-1.0 34:0.0
0.5000002579483761 1:-0.30766230821609497 2:-0.28687918186187744 3:-0.7998531460762024 4:-0.6408145427703857 5:-0.6785190105438232 6:-0.9993577599525452 7:-1.0 8:-1.0 9:-0.3333333432674408 10:0.0 11:-0.699999988079071 12:0.0 13:-1.0 14:0.0 15:-1.0 16:-1.0 17:-1.0 18:0.0 19:-1.0 20:0.0 21:0.10329043865203857 22:-0.9921879768371582 23:-0.9999706745147705 24:1.0 25:0.0 26:0.0 27:0.0 28:-1.0 29:-1.0 30:-1.0 31:-1.0 32:-1.0 33:-1.0 34:0.0
-0.5000002579483761 1:-0.5181489586830139 2:-0.7965571284294128 3:-0.822812020778656 4:-1.0 5:-1.0 6:-0.9942196607589722 7:-0.8297872543334961 8:-0.7627737522125244 9:-0.3333333432674408 10:0.0 11:-0.699999988079071 12:0.0 13:-1.0 14:0.0 15:-1.0 16:-1.0 17:-1.0 18:0.0 19:-1.0 20:0.0 21:0.17401692271232605 22:-0.9902832508087158 23:-0.9999297857284546 24:1.0 25:0.0 26:0.0 27:0.0 28:-1.0 29:-1.0 30:-1.0 31:-1.0 32:-1.0 33:-1.0 34:0.0
0.5000002579483761 1:-0.45306941866874695 2:-0.7630488872528076 3:-0.815321683883667 4:-1.0 5:-1.0 6:-0.999143660068512 7:-0.949910581111908 8:-0.8936170339584351 9:-0.3333333432674408 10:0.0 11:-0.800000011920929 12:0.0 13:-1.0 14:0.0 15:-1.0 16:-1.0 17:-1.0 18:0.0 19:-1.0 20:0.0 21:-0.6489418148994446 22:-0.9664395451545715 23:-0.9948821067810059 24:-1.0 25:0.0 26:0.0 27:0.0 28:-1.0 29:-1.0 30:-1.0 31:-1.0 32:-1.0 33:-1.0 34:0.0
-0.5000002579483761 1:-0.30766230821609497 2:-0.4614747166633606 3:-1.0 4:-1.0 5:-0.8592171669006348 6:-0.9995718002319336 7:-0.8301486372947693 8:-0.8717948794364929 9:-0.3333333432674408 10:0.0 11:-0.4000000059604645 12:0.0 13:-1.0 14:0.0 15:-1.0 16:-1.0 17:-1.0 18:0.0 19:-1.0 20:0.0 21:0.2713368535041809 22:-0.9971082210540771 23:-0.999991238117218 24:1.0 25:0.0 26:0.0 27:0.0 28:-1.0 29:-1.0 30:-1.0 31:-1.0 32:-1.0 33:-1.0 34:0.0
-0.5000002579483761 1:-0.45306941866874695 2:-0.5567086935043335 3:-1.0 4:-1.0 5:-0.8592171669006348 6:-0.9773067831993103 7:-0.914893627166748 8:-0.7916666865348816 9:-0.3333333432674408 10:0.0 11:-0.699999988079071 12:0.0 13:-1.0 14:0.0 15:-1.0 16:-1.0 17:-1.0 18:0.0 19:-1.0 20:0.0 21:-0.055457934737205505 22:-0.9973940253257751 23:-0.9999672770500183 24:1.0 25:0.0 26:0.0 27:0.0 28:-1.0 29:-1.0 30:-1.0 31:-1.0 32:-1.0 33:-1.0 34:0.0
-0.5000002579483761 1:-0.30766230821609497 2:-0.4614747166633606 3:-1.0 4:-1.0 5:-0.8592171669006348 6:-0.9997859001159668 7:-0.9065690636634827 8:-0.9242424368858337 9:-0.3333333432674408 10:0.0 11:-0.6000000238418579 12:0.0 13:1.0 14:0.0 15:-1.0 16:-1.0 17:-1.0 18:0.0 19:-1.0 20:0.0 21:-0.9531501531600952 22:-0.9746780395507812 23:-0.9983342885971069 24:1.0 25:0.0 26:0.0 27:0.0 28:-1.0 29:-1.0 30:-1.0 31:-1.0 32:-1.0 33:-1.0 34:0.0
-0.5000002579483761 1:0.5181489586830139 2:0.5563380122184753 3:-0.6306453943252563 4:-0.07000073045492172 5:-0.3452037274837494 6:-0.9978591203689575 7:-0.6680748462677002 8:-0.8684210777282715 9:-0.3333333432674408 10:0.0 11:0.699999988079071 12:0.0 13:1.0 14:0.0 15:-1.0 16:-1.0 17:-1.0 18:0.0 19:-1.0 20:0.0 21:-0.45989784598350525 22:-0.9872266054153442 23:-0.9997565746307373 24:1.0 25:0.0 26:0.0 27:0.0 28:-1.0 29:-1.0 30:-1.0 31:-1.0 32:-1.0 33:-1.0 34:0.0
-0.5000002579483761 1:-0.5790267586708069 2:-0.6338028311729431 3:-1.0 4:-1.0 5:-0.8890299797058105 6:-1.0 7:-1.0 8:-1.0 9:-0.3333333432674408 10:0.0 11:-0.20000000298023224 12:0.0 13:1.0 14:0.0 15:-1.0 16:-1.0 17:-1.0 18:0.0 19:-1.0 20:0.0 21:-0.981398344039917 22:-0.9898546934127808 23:-0.9994210600852966 24:1.0 25:0.0 26:0.0 27:0.0 28:-1.0 29:-1.0 30:-1.0 31:-1.0 32:-1.0 33:-1.0 34:0.0
0.5000002579483761 1:-0.3831649124622345 2:-0.7253521084785461 3:-0.7999003529548645 4:-1.0 5:-1.0 6:-0.9929351210594177 7:-0.9663257598876953 8:-0.5454545617103577 9:-0.3333333432674408 10:0.0 11:-0.30000001192092896 12:0.0 13:-1.0 14:0.0 15:-1.0 16:-1.0 17:-1.0 18:0.0 19:-1.0 20:0.0 21:-0.15689794719219208 22:-0.987836480140686 23:-0.9997719526290894 24:-1.0 25:0.0 26:0.0 27:0.0 28:-1.0 29:-1.0 30:-1.0 31:-1.0 32:-1.0 33:-1.0 34:0.0
0.5000002579483761 1:-0.6362127065658569 2:-0.8535211086273193 3:-1.0 4:-1.0 5:-1.0 6:-0.9987154603004456 7:-0.8983050584793091 8:-0.8245614171028137 9:-0.3333333432674408 10:0.0 11:-0.4000000059604645 12:0.0 13:-1.0 14:0.0 15:-1.0 16:-1.0 17:-1.0 18:0.0 19:-1.0 20:0.0 21:-0.7160972952842712 22:-0.987823486328125 23:-0.9991183280944824 24:-1.0 25:0.0 26:0.0 27:0.0 28:-1.0 29:-1.0 30:-1.0 31:-1.0 32:-1.0 33:-1.0 34:0.0
0.5000002579483761 1:-0.5181489586830139 2:-0.7965571284294128 3:-1.0 4:-1.0 5:-1.0 6:-0.9963605403900146 7:-0.9419729113578796 8:-0.608433723449707 9:-0.3333333432674408 10:0.0 11:-0.4000000059604645 12:0.0 13:-1.0 14:0.0 15:-1.0 16:-1.0 17:-1.0 18:0.0 19:-1.0 20:0.0 21:-0.8551230430603027 22:-0.9886150360107422 23:-0.9993538856506348 24:-1.0 25:0.0 26:0.0 27:0.0 28:-1.0 29:-1.0 30:-1.0 31:-1.0 32:-1.0 33:-1.0 34:0.0
-0.5000002579483761 1:-0.8355361223220825 2:-0.9389671087265015 3:-1.0 4:-1.0 5:-1.0 6:-1.0 7:-0.9642857313156128 8:-0.9390243887901306 9:-0.3333333432674408 10:0.0 11:-0.20000000298023224 12:0.0 13:-1.0 14:0.0 15:-1.0 16:-1.0 17:-1.0 18:0.0 19:-1.0 20:0.0 21:-0.9889534115791321 22:-0.9622281789779663 23:-0.9903899431228638 24:-1.0 25:0.0 26:0.0 27:0.0 28:-1.0 29:-1.0 30:-1.0 31:-1.0 32:-1.0 33:-1.0 34:0.0
0.5000002579483761 1:0.0748043954372406 2:-0.18309858441352844 3:-1.0 4:-1.0 5:-0.8592171669006348 6:-0.9993577599525452 7:-0.9307201504707336 8:-0.8449612259864807 9:-0.3333333432674408 10:0.0 11:-0.20000000298023224 12:0.0 13:-1.0 14:0.0 15:-1.0 16:-1.0 17:-1.0 18:0.0 19:-1.0 20:0.0 21:-0.11452620476484299 22:-0.9727096557617188 23:-0.9994431734085083 24:1.0 25:0.0 26:0.0 27:0.0 28:-1.0 29:-1.0 30:-1.0 31:-1.0 32:-1.0 33:-1.0 34:0.0
0.09915761099295799 1:0.20076175034046173 2:0.42816901206970215 3:-0.6988901495933533 4:-0.21269001066684723 5:-0.389023095369339 6:-0.9248554706573486 7:-0.707317054271698 8:-0.7839506268501282 9:-0.3333333432674408 10:0.0 11:-0.699999988079071 12:0.0 13:1.0 14:0.0 15:-1.0 16:-1.0 17:-1.0 18:0.0 19:-1.0 20:0.0 21:-0.22310040891170502 22:-0.992628812789917 23:-0.9997702836990356 24:1.0 25:0.0 26:0.0 27:0.0 28:0.0 29:-1.0 30:-1.0 31:-1.0 32:-1.0 33:-1.0 34:0.0
-0.5000002579483761 1:-0.7895134091377258 2:-0.9203919172286987 3:-1.0 4:-1.0 5:-1.0 6:-1.0 7:-1.0 8:-1.0 9:-0.3333333432674408 10:0.0 11:-0.4000000059604645 12:0.0 13:-1.0 14:0.0 15:-1.0 16:-1.0 17:-1.0 18:0.0 19:-1.0 20:0.0 21:-0.9467283487319946 22:-0.9738930463790894 23:-0.9942834377288818 24:-1.0 25:0.0 26:0.0 27:0.0 28:-1.0 29:-1.0 30:-1.0 31:-1.0 32:-1.0 33:-1.0 34:0.0
0.5000002579483761 1:-0.22558631002902985 2:-0.6338028311729431 3:-0.7695061564445496 4:-1.0 5:-1.0 6:-0.8668379187583923 7:-0.8082191944122314 8:-0.7961956262588501 9:-0.3333333432674408 10:0.0 11:-0.6000000238418579 12:0.0 13:-1.0 14:0.0 15:-1.0 16:-1.0 17:-1.0 18:0.0 19:-1.0 20:0.0 21:-0.39689430594444275 22:-0.8159314393997192 23:-0.9805863499641418 24:1.0 25:0.0 26:0.0 27:0.0 28:-1.0 29:-1.0 30:-1.0 31:-1.0 32:-1.0 33:-1.0 34:0.0
0.018630412371992384 1:0.0748043954372406 2:-0.18309858441352844 3:-1.0 4:-1.0 5:-0.8890299797058105 6:-0.9997859001159668 7:-0.8307692408561707 8:-0.9609375 9:-1.0 10:0.0 11:-1.0 12:-1.0 13:-1.0 14:0.0 15:-1.0 16:-1.0 17:-1.0 18:0.0 19:-1.0 20:0.0 21:9.698666981421411E-4 22:-0.9962791204452515 23:-0.9999863505363464 24:1.0 25:0.0 26:0.0 27:0.0 28:-1.0 29:-1.0 30:-1.0 31:-1.0 32:-1.0 33:-1.0 34:0.0
-0.5000002579483761 1:-0.5790267586708069 2:-0.8265382051467896 3:-1.0 4:-1.0 5:-1.0 6:-0.9995718002319336 7:-0.9978538751602173 8:-0.8591549396514893 9:-0.3333333432674408 10:0.0 11:0.0 12:0.0 13:-1.0 14:0.0 15:-1.0 16:-1.0 17:-1.0 18:0.0 19:-1.0 20:0.0 21:-0.20169991254806519 22:-0.9976155757904053 23:-0.9999915957450867 24:-1.0 25:0.0 26:0.0 27:0.0 28:-1.0 29:-1.0 30:-1.0 31:-1.0 32:-1.0 33:-1.0 34:0.0
0.5000002579483761 1:-0.6901290416717529 2:-0.8779342770576477 3:-1.0 4:-1.0 5:-1.0 6:-0.9967886805534363 7:-0.7862595319747925 8:-0.7674418687820435 9:-1.0 10:0.0 11:-1.0 12:-1.0 13:1.0 14:0.0 15:-1.0 16:-1.0 17:-1.0 18:0.0 19:-1.0 20:0.0 21:-0.9121814966201782 22:-0.9649482369422913 23:-0.9962426424026489 24:1.0 25:0.0 26:0.0 27:0.0 28:-1.0 29:-1.0 30:-1.0 31:-1.0 32:-1.0 33:-1.0 34:0.0
0.5000002579483761 1:-0.22558631002902985 2:-0.40492957830429077 3:-1.0 4:-1.0 5:-0.8592171669006348 6:-0.9877970218658447 7:-0.8021978139877319 8:-0.608433723449707 9:-0.3333333432674408 10:0.0 11:-0.4000000059604645 12:0.0 13:1.0 14:0.0 15:-1.0 16:-1.0 17:-1.0 18:0.0 19:-1.0 20:0.0 21:-0.9514063000679016 22:-0.9879763722419739 23:-0.9987922310829163 24:1.0 25:0.0 26:0.0 27:0.0 28:-1.0 29:-1.0 30:-1.0 31:-1.0 32:-1.0 33:-1.0 34:0.0
0.4484871818733559 1:0.0748043954372406 2:0.47943660616874695 3:-1.0 4:-1.0 5:-0.19013039767742157 6:-0.9997859001159668 7:-0.9594095945358276 8:-0.9662162065505981 9:-0.3333333432674408 10:0.0 11:0.4000000059604645 12:0.0 13:1.0 14:0.0 15:-1.0 16:-1.0 17:-1.0 18:0.0 19:-1.0 20:0.0 21:-0.9339329600334167 22:-0.9809765219688416 23:-0.9967077970504761 24:1.0 25:0.0 26:0.0 27:0.0 28:-1.0 29:-1.0 30:-1.0 31:-1.0 32:-1.0 33:-1.0 34:0.0
0.5000002579483761 1:-0.036297865211963654 2:0.17183098196983337 3:-0.6927013993263245 4:-0.20087599754333496 5:-0.38719648122787476 6:-0.9959323406219482 7:-0.9455999732017517 8:-0.9285714030265808 9:-0.3333333432674408 10:0.0 11:-0.30000001192092896 12:0.0 13:1.0 14:0.0 15:-1.0 16:-1.0 17:-1.0 18:0.0 19:-1.0 20:0.0 21:-0.3274857699871063 22:-0.9825407862663269 23:-0.9975830912590027 24:-1.0 25:0.0 26:0.0 27:0.0 28:0.0 29:-0.3333333432674408 30:-1.0 31:-1.0 32:-1.0 33:-1.0 34:0.0
