SVM-light Version V6.01
0 # kernel type
3 # kernel parameter -d
1.0 # kernel parameter -g
1.0 # kernel parameter -s
0.0 # kernel parameter -r
empty# kernel parameter -u
34 # highest feature index
1756 # number of training documents
1512 # number of support vectors plus 1
1.008416780666763 # threshold b, each following line is a SV (starting with alpha*y)
-3.197368680760672E-5 1:1.742969274520874 2:0.7272727489471436 3:0.0557626374065876 4:0.17509877681732178 5:1.9033026695251465 6:18.0 7:0.06611569970846176 8:0.05128205195069313 9:1.0 10:0.0 11:11.0 12:1.0 13:1.0 14:0.0 15:0.0 16:0.0 17:0.0 18:0.0 19:0.0 20:0.0 21:0.3598182797431946 22:8.94808501470834E-4 23:3.780809265663265E-8 24:1.0 25:0.0 26:0.0 27:0.0 28:0.0 29:0.0 30:0.0 31:0.0 32:0.0 33:0.0 34:0.0
3.197368680760672E-5 1:2.5902671813964844 2:0.8571428656578064 3:0.20603807270526886 4:0.7032887935638428 5:5.752044677734375 6:76.0 7:0.9050151705741882 8:0.25229358673095703 9:1.0 10:0.0 11:5.0 12:1.0 13:1.0 14:0.0 15:0.0 16:0.0 17:0.0 18:0.0 19:1.0 20:0.0 21:0.32079169154167175 22:0.0013344839680939913 23:2.537857994866499E-7 24:1.0 25:0.0 26:0.0 27:0.0 28:1.0 29:2.0 30:1.0 31:2.0 32:1.0 33:1.0 34:0.0
-3.197368680760672E-5 1:1.0498220920562744 2:0.23529411852359772 3:0.0539931021630764 4:0.0 5:0.0 6:3647.0 7:0.0634920671582222 8:0.0873015895485878 9:2.0 10:0.0 11:4.0 12:1.0 13:0.0 14:0.0 15:0.0 16:0.0 17:0.0 18:0.0 19:0.0 20:0.0 21:0.962712824344635 22:0.004648147150874138 23:1.5832795270398492E-6 24:1.0 25:0.0 26:0.0 27:0.0 28:1.0 29:2.0 30:2.0 31:2.0 32:2.0 33:2.0 34:0.0
3.197368680760672E-5 1:1.2909841537475586 2:0.375 3:0.0 4:0.0 5:0.7794168591499329 6:0.0 7:0.01004016026854515 8:0.0 9:1.0 10:0.0 11:17.0 12:1.0 13:0.0 14:0.0 15:1.0 16:0.0 17:0.0 18:0.0 19:0.0 20:0.0 21:0.27877435088157654 22:0.001865822239778936 23:3.9420982034243934E-7 24:1.0 25:0.0 26:0.0 27:0.0 28:0.0 29:0.0 30:0.0 31:0.0 32:0.0 33:0.0 34:0.0
-3.197368680760672E-5 1:1.8971199989318848 2:0.6153846383094788 3:0.070404551923275 4:0.28796741366386414 5:2.8721871376037598 6:0.0 7:0.033644236624240875 8:0.0 9:0.0 10:0.0 11:0.0 12:0.0 13:1.0 14:0.0 15:0.0 16:0.0 17:0.0 18:0.0 19:0.0 20:0.0 21:0.07519619911909103 22:0.003739395411685109 23:5.116458851261996E-6 24:1.0 25:0.0 26:0.0 27:0.0 28:0.0 29:0.0 30:0.0 31:0.0 32:0.0 33:0.0 34:0.0
3.197368680760672E-5 1:1.1239300966262817 2:0.3333333432674408 3:0.053206682205200195 4:0.07658811658620834 5:0.7794168591499329 6:263.0 7:0.013846153393387794 8:0.0 9:1.0 10:0.0 11:4.0 12:1.0 13:0.0 14:0.0 15:0.0 16:0.0 17:0.0 18:0.0 19:0.0 20:0.0 21:0.2627542018890381 22:0.0053079319186508656 23:1.3756455246038968E-6 24:1.0 25:0.0 26:0.0 27:0.0 28:0.0 29:0.0 30:0.0 31:0.0 32:0.0 33:0.0 34:0.0
3.197368680760672E-5 1:0.8556661009788513 2:0.27272728085517883 3:0.0 4:0.0 5:0.7794168591499329 6:2.0 7:0.007092198356986046 8:0.016393441706895828 9:1.0 10:0.0 11:20.0 12:1.0 13:0.0 14:0.0 15:0.0 16:0.0 17:0.0 18:0.0 19:0.0 20:0.0 21:0.02206445299088955 22:0.0029183528386056423 23:3.3556543712620623E-6 24:0.0 25:0.0 26:0.0 27:0.0 28:0.0 29:0.0 30:1.0 31:0.0 32:0.0 33:0.0 34:0.0
-3.197368680760672E-5 1:1.2039728164672852 2:0.3529411852359772 3:0.046993497759103775 4:0.06825502216815948 5:0.7794168591499329 6:5.0 7:0.010727968998253345 8:0.019999999552965164 9:1.0 10:0.0 11:5.0 12:1.0 13:0.0 14:0.0 15:0.0 16:0.0 17:0.0 18:0.0 19:0.0 20:0.0 21:0.5009371638298035 22:4.6227313578128815E-4 23:6.296668519922832E-9 24:1.0 25:0.0 26:0.0 27:0.0 28:1.0 29:0.0 30:0.0 31:0.0 32:0.0 33:0.0 34:0.0
3.197368680760672E-5 1:1.1239300966262817 2:0.3333333432674408 3:0.06519173830747604 4:0.09224849939346313 5:0.7794168591499329 6:300.0 7:0.05315614491701126 8:0.012195121496915817 9:1.0 10:0.0 11:5.0 12:1.0 13:0.0 14:0.0 15:0.0 16:0.0 17:0.0 18:0.0 19:0.0 20:0.0 21:0.7967858910560608 22:6.307345465756953E-4 23:5.993588558794727E-8 24:1.0 25:0.0 26:0.0 27:0.0 28:1.0 29:1.0 30:1.0 31:1.0 32:0.0 33:1.0 34:0.0
-3.197368680760672E-5 1:1.742969274520874 2:0.699999988079071 3:0.0 4:0.0 5:5.496663570404053 6:1.0 7:0.022875817492604256 8:0.0 9:1.0 10:0.0 11:5.0 12:1.0 13:1.0 14:0.0 15:0.0 16:0.0 17:0.0 18:0.0 19:0.0 20:0.0 21:0.08068693429231644 22:0.0013242303393781185 23:1.5735800218408258E-7 24:0.0 25:0.0 26:0.0 27:0.0 28:0.0 29:0.0 30:0.0 31:0.0 32:0.0 33:0.0 34:0.0
3.197368680760672E-5 1:1.3862943649291992 2:0.5263158082962036 3:0.0 4:0.0 5:2.2541303634643555 6:158.0 7:0.005989518482238054 8:0.0833333358168602 9:1.0 10:0.0 11:10.0 12:1.0 13:0.0 14:0.0 15:1.0 16:0.0 17:0.0 18:0.0 19:0.0 20:0.0 21:0.8367048501968384 22:2.0218671124894172E-4 23:2.4154984679114477E-9 24:1.0 25:0.0 26:0.0 27:0.0 28:0.0 29:0.0 30:0.0 31:0.0 32:0.0 33:0.0 34:0.0
3.197368680760672E-5 1:1.2909841537475586 2:0.2857142984867096 3:0.0478641539812088 4:0.0 5:0.0 6:0.0 7:0.04253673553466797 8:0.0 9:1.0 10:0.0 11:14.0 12:1.0 13:0.0 14:0.0 15:0.0 16:0.0 17:0.0 18:0.0 19:0.0 20:0.0 21:0.3217981159687042 22:0.002273763995617628 23:1.546748507053053E-7 24:0.0 25:0.0 26:0.0 27:0.0 28:0.0 29:0.0 30:0.0 31:0.0 32:0.0 33:0.0 34:0.0
-3.197368680760672E-5 1:2.079441547393799 2:0.7777777910232544 3:0.0981091558933258 4:0.39893704652786255 5:3.3825552463531494 6:0.0 7:0.017100157216191292 8:0.0 9:1.0 10:0.0 11:3.0 12:1.0 13:1.0 14:0.0 15:0.0 16:0.0 17:0.0 18:0.0 19:0.0 20:0.0 21:0.07006456702947617 22:0.0071591525338590145 23:5.962228442513151E-6 24:1.0 25:0.0 26:0.0 27:0.0 28:0.0 29:0.0 30:0.0 31:0.0 32:0.0 33:0.0 34:0.0
-3.197368680760672E-5 1:1.742969274520874 2:0.6666666865348816 3:0.0 4:0.0 5:4.079597473144531 6:0.0 7:0.006162188947200775 8:0.0 9:1.0 10:0.0 11:10.0 12:1.0 13:0.0 14:0.0 15:1.0 16:0.0 17:0.0 18:0.0 19:0.0 20:0.0 21:0.2426174432039261 22:0.0011883347760885954 23:5.7678096965219083E-8 24:1.0 25:0.0 26:0.0 27:0.0 28:0.0 29:0.0 30:0.0 31:0.0 32:0.0 33:0.0 34:0.0
3.197368680760672E-5 1:1.6094379425048828 2:0.6315789222717285 3:0.08491580933332443 4:0.36555561423301697 5:3.3926680088043213 6:5.0 7:0.16908212006092072 8:0.0476190485060215 9:1.0 10:0.0 11:12.0 12:1.0 13:1.0 14:0.0 15:1.0 16:0.0 17:0.0 18:0.0 19:0.0 20:0.0 21:0.2013261765241623 22:4.072808369528502E-4 23:3.39437677965293E-9 24:0.0 25:0.0 26:0.0 27:0.0 28:1.0 29:1.0 30:0.0 31:1.0 32:1.0 33:1.0 34:0.0
3.197368680760672E-5 1:0.7985076904296875 2:0.190476194024086 3:0.0 4:0.0 5:0.0 6:0.0 7:0.001300119562074542 8:0.0 9:1.0 10:0.0 11:4.0 12:1.0 13:0.0 14:0.0 15:1.0 16:0.0 17:0.0 18:0.0 19:0.0 20:0.0 21:0.11568193137645721 22:0.0010454298462718725 23:3.445207141794526E-7 24:0.0 25:0.0 26:0.0 27:0.0 28:0.0 29:0.0 30:0.0 31:0.0 32:0.0 33:0.0 34:0.0
-3.197368680760672E-5 1:1.2039728164672852 2:0.3529411852359772 3:0.0 4:0.0 5:0.7794168591499329 6:0.0 7:0.0150602413341403 8:0.0 9:0.0 10:0.0 11:0.0 12:0.0 13:0.0 14:0.0 15:0.0 16:0.0 17:0.0 18:0.0 19:0.0 20:0.0 21:0.4835980236530304 22:0.0013035529991611838 23:3.934511383363315E-8 24:0.0 25:0.0 26:0.0 27:0.0 28:0.0 29:0.0 30:0.0 31:0.0 32:0.0 33:0.0 34:0.0
-3.197368680760672E-5 1:1.8971199989318848 2:0.6666666865348816 3:0.0 4:0.0 5:6.138138771057129 6:1.0 7:0.08418367058038712 8:0.032786883413791656 9:1.0 10:0.0 11:10.0 12:1.0 13:1.0 14:0.0 15:0.0 16:0.0 17:0.0 18:0.0 19:0.0 20:0.0 21:0.5037822127342224 22:9.17706114705652E-4 23:5.345587794636231E-8 24:1.0 25:0.0 26:0.0 27:0.0 28:0.0 29:0.0 30:0.0 31:0.0 32:0.0 33:0.0 34:0.0
3.197368680760672E-5 1:1.0498220920562744 2:0.23529411852359772 3:0.0478641539812088 4:0.0 5:0.0 6:4.0 7:0.030371204018592834 8:0.035087719559669495 9:2.0 10:0.0 11:8.0 12:1.0 13:0.0 14:0.0 15:0.0 16:0.0 17:0.0 18:0.0 19:0.0 20:0.0 21:0.30950960516929626 22:9.694065083749592E-4 23:6.951582776082432E-8 24:1.0 25:0.0 26:0.0 27:0.0 28:0.0 29:0.0 30:0.0 31:0.0 32:0.0 33:0.0 34:0.0
-3.197368680760672E-5 1:0.8556661009788513 2:0.20000000298023224 3:0.0 4:0.0 5:0.0 6:0.0 7:0.0 8:0.0 9:0.0 10:0.0 11:0.0 12:0.0 13:0.0 14:0.0 15:0.0 16:0.0 17:0.0 18:0.0 19:0.0 20:0.0 21:0.051185887306928635 22:0.0019333137897774577 23:6.071812777008745E-7 24:0.0 25:0.0 26:0.0 27:0.0 28:0.0 29:1.0 30:1.0 31:1.0 32:1.0 33:1.0 34:0.0
-3.197368680760672E-5 1:0.9808292388916016 2:0.30000001192092896 3:0.0 4:0.0 5:0.7794168591499329 6:2.0 7:0.020348837599158287 8:0.03448275849223137 9:1.0 10:0.0 11:10.0 12:1.0 13:0.0 14:0.0 15:0.0 16:0.0 17:0.0 18:0.0 19:0.0 20:0.0 21:0.1606752872467041 22:0.002062068320810795 23:3.342894672186958E-7 24:0.0 25:0.0 26:0.0 27:0.0 28:0.0 29:0.0 30:0.0 31:0.0 32:0.0 33:0.0 34:0.0
3.197368680760672E-5 1:1.491654872894287 2:0.6000000238418579 3:0.0 4:0.0 5:3.893685817718506 6:0.0 7:0.00256739417091012 8:0.009433962404727936 9:1.0 10:0.0 11:9.0 12:1.0 13:1.0 14:0.0 15:0.0 16:0.0 17:0.0 18:0.0 19:0.0 20:0.0 21:0.14979571104049683 22:0.0011284046340733767 23:1.9116569660582172E-7 24:1.0 25:0.0 26:0.0 27:0.0 28:0.0 29:0.0 30:0.0 31:0.0 32:0.0 33:0.0 34:0.0
3.197368680760672E-5 1:2.3025851249694824 2:0.8571428656578064 3:0.0 4:0.0 5:7.461694717407227 6:0.0 7:0.06603773683309555 8:0.0 9:0.0 10:0.0 11:0.0 12:0.0 13:1.0 14:0.0 15:0.0 16:0.0 17:0.0 18:0.0 19:0.0 20:0.0 21:0.21449773013591766 22:6.502830074168742E-4 23:6.857779766278327E-8 24:1.0 25:0.0 26:0.0 27:0.0 28:0.0 29:0.0 30:0.0 31:0.0 32:0.0 33:0.0 34:0.0
-3.197368680760672E-5 1:1.3862943649291992 2:0.4000000059604645 3:0.0 4:0.0 5:0.7794168591499329 6:53.0 7:0.02581755630671978 8:0.0833333358168602 9:2.0 10:0.0 11:7.0 12:2.0 13:0.0 14:0.0 15:0.0 16:0.0 17:0.0 18:0.0 19:0.0 20:0.0 21:0.7580404877662659 22:9.749004384502769E-4 23:2.3095273249396087E-8 24:1.0 25:0.0 26:0.0 27:0.0 28:0.0 29:0.0 30:0.0 31:0.0 32:0.0 33:0.0 34:0.0
3.197368680760672E-5 1:1.2039728164672852 2:0.52173912525177 3:0.0 4:0.0 5:2.4933841228485107 6:0.0 7:0.03658536449074745 8:0.04938271641731262 9:1.0 10:0.0 11:8.0 12:1.0 13:1.0 14:0.0 15:0.0 16:0.0 17:0.0 18:0.0 19:0.0 20:0.0 21:0.6675185561180115 22:0.0027111382223665714 23:2.0694769773399457E-6 24:1.0 25:0.0 26:0.0 27:0.0 28:0.0 29:0.0 30:1.0 31:1.0 32:0.0 33:1.0 34:0.0
-3.197368680760672E-5 1:1.1239300966262817 2:0.3333333432674408 3:0.0 4:0.0 5:0.7794168591499329 6:0.0 7:0.030534351244568825 8:0.016194332391023636 9:0.0 10:0.0 11:0.0 12:0.0 13:0.0 14:0.0 15:0.0 16:0.0 17:0.0 18:0.0 19:0.0 20:0.0 21:0.0668594092130661 22:0.003857572562992573 23:3.6072474358661566E-6 24:0.0 25:0.0 26:0.0 27:0.0 28:0.0 29:0.0 30:0.0 31:0.0 32:0.0 33:0.0 34:0.0
-3.197368680760672E-5 1:1.2039728164672852 2:0.2666666805744171 3:0.0 4:0.0 5:0.0 6:1.0 7:0.03678929805755615 8:0.05000000074505806 9:0.0 10:0.0 11:0.0 12:0.0 13:0.0 14:0.0 15:0.0 16:0.0 17:0.0 18:0.0 19:0.0 20:0.0 21:0.0695667415857315 22:0.00959573220461607 23:2.1854725673620123E-6 24:0.0 25:0.0 26:0.0 27:0.0 28:0.0 29:1.0 30:0.0 31:0.0 32:0.0 33:0.0 34:0.0
-3.197368680760672E-5 1:0.8556661009788513 2:0.20000000298023224 3:0.0 4:0.0 5:0.0 6:0.0 7:0.013426423072814941 8:0.0 9:0.0 10:0.0 11:0.0 12:0.0 13:0.0 14:0.0 15:1.0 16:0.0 17:0.0 18:0.0 19:0.0 20:0.0 21:0.021008437499403954 22:0.006613796576857567 23:2.022687294811476E-5 24:1.0 25:0.0 26:0.0 27:0.0 28:0.0 29:0.0 30:0.0 31:0.0 32:0.0 33:0.0 34:0.0
3.197368680760672E-5 1:2.079441547393799 2:0.800000011920929 3:0.0 4:0.0 5:7.5610671043396 6:2.0 7:0.095238097012043 8:0.02777777798473835 9:1.0 10:0.0 11:11.0 12:1.0 13:1.0 14:0.0 15:0.0 16:0.0 17:0.0 18:0.0 19:0.0 20:0.0 21:0.29698505997657776 22:0.005626193713396788 23:5.703137958334992E-6 24:0.0 25:0.0 26:0.0 27:0.0 28:0.0 29:0.0 30:0.0 31:0.0 32:0.0 33:0.0 34:0.0
3.197368680760672E-5 1:1.6094379425048828 2:0.5882353186607361 3:0.05945003777742386 4:0.26348310708999634 5:3.0087625980377197 6:3.0 7:0.026865672320127487 8:0.05263157933950424 9:1.0 10:0.0 11:14.0 12:1.0 13:1.0 14:0.0 15:1.0 16:0.0 17:0.0 18:0.0 19:0.0 20:0.0 21:0.26777926087379456 22:0.0012168368557468057 23:8.198104239909298E-8 24:1.0 25:0.0 26:0.0 27:0.0 28:1.0 29:1.0 30:1.0 31:0.0 32:1.0 33:1.0 34:0.0
3.197368680760672E-5 1:1.8971199989318848 2:0.7368420958518982 3:0.16263271868228912 4:0.7171622514724731 5:7.795467853546143 6:1.0 7:0.03589743748307228 8:0.017241379246115685 9:1.0 10:0.0 11:8.0 12:1.0 13:1.0 14:0.0 15:0.0 16:0.0 17:0.0 18:0.0 19:0.0 20:0.0 21:0.1154564693570137 22:0.0010411180555820465 23:5.959207882710871E-8 24:0.0 25:0.0 26:0.0 27:0.0 28:0.0 29:0.0 30:0.0 31:0.0 32:0.0 33:0.0 34:0.0
-3.197368680760672E-5 1:0.9162907600402832 2:0.3478260934352875 3:0.0 4:0.0 5:1.7798171043395996 6:1.0 7:0.03125 8:0.0 9:1.0 10:0.0 11:20.0 12:1.0 13:0.0 14:0.0 15:0.0 16:0.0 17:0.0 18:0.0 19:0.0 20:0.0 21:0.048918794840574265 22:8.803295204415917E-4 23:1.4647270063505857E-7 24:0.0 25:0.0 26:0.0 27:0.0 28:0.0 29:0.0 30:0.0 31:0.0 32:0.0 33:0.0 34:0.0
3.197368680760672E-5 1:0.9808292388916016 2:0.2222222238779068 3:0.0 4:0.0 5:0.0 6:0.0 7:0.02549019642174244 8:0.0 9:0.0 10:0.0 11:0.0 12:0.0 13:0.0 14:0.0 15:0.0 16:0.0 17:0.0 18:0.0 19:0.0 20:0.0 21:0.1939474195241928 22:0.0010458939941599965 23:8.799613482324276E-8 24:0.0 25:0.0 26:0.0 27:0.0 28:0.0 29:0.0 30:0.0 31:0.0 32:0.0 33:0.0 34:0.0
3.197368680760672E-5 1:0.8556661009788513 2:0.20000000298023224 3:0.0 4:0.0 5:0.0 6:1.0 7:0.026905829086899757 8:0.012500000186264515 9:0.0 10:0.0 11:0.0 12:0.0 13:0.0 14:0.0 15:0.0 16:0.0 17:0.0 18:0.0 19:0.0 20:0.0 21:0.025436164811253548 22:0.007343133445829153 23:3.4127973776776344E-5 24:0.0 25:0.0 26:0.0 27:0.0 28:0.0 29:0.0 30:0.0 31:0.0 32:0.0 33:0.0 34:0.0
-3.197368680760672E-5 1:0.7985076904296875 2:0.190476194024086 3:0.05389444902539253 4:0.0 5:0.0 6:25.0 7:0.028867505490779877 8:0.01568627543747425 9:1.0 10:0.0 11:12.0 12:1.0 13:0.0 14:0.0 15:0.0 16:0.0 17:0.0 18:0.0 19:0.0 20:0.0 21:0.049282506108284 22:0.004258404485881329 23:8.097727004496846E-7 24:0.0 25:0.0 26:0.0 27:0.0 28:1.0 29:0.0 30:0.0 31:0.0 32:0.0 33:0.0 34:0.0
-3.197368680760672E-5 1:1.0498220920562744 2:0.31578946113586426 3:0.05240454524755478 4:0.07552068680524826 5:0.7794168591499329 6:3.0 7:0.011070110835134983 8:0.0 9:1.0 10:0.0 11:15.0 12:1.0 13:0.0 14:0.0 15:0.0 16:0.0 17:0.0 18:0.0 19:0.0 20:0.0 21:0.6776899099349976 22:7.719621062278748E-4 23:9.605737538720405E-9 24:0.0 25:0.0 26:0.0 27:0.0 28:0.0 29:0.0 30:0.0 31:0.0 32:0.0 33:0.0 34:0.0
-3.197368680760672E-5 1:1.3862943649291992 2:0.3076923191547394 3:0.05752729997038841 4:0.0 5:0.0 6:8.0 7:0.021459227427840233 8:0.020618556067347527 9:1.0 10:0.0 11:15.0 12:1.0 13:0.0 14:0.0 15:0.0 16:0.0 17:0.0 18:0.0 19:0.0 20:0.0 21:0.20881405472755432 22:0.0042405021376907825 23:7.816238394298125E-7 24:0.0 25:0.0 26:0.0 27:0.0 28:0.0 29:1.0 30:1.0 31:1.0 32:1.0 33:1.0 34:0.0
3.197368680760672E-5 1:0.9162907600402832 2:0.21052631735801697 3:0.04687288776040077 4:0.0 5:0.0 6:2.0 7:0.13689936697483063 8:0.03030303120613098 9:0.0 10:0.0 11:0.0 12:0.0 13:0.0 14:0.0 15:0.0 16:0.0 17:0.0 18:0.0 19:0.0 20:0.0 21:0.06643596291542053 22:0.0016079398337751627 23:4.3403349536674796E-7 24:1.0 25:0.0 26:0.0 27:0.0 28:0.0 29:0.0 30:0.0 31:0.0 32:0.0 33:0.0 34:0.0
3.197368680760672E-5 1:0.8556661009788513 2:0.20000000298023224 3:0.0 4:0.0 5:0.0 6:1.0 7:0.026905829086899757 8:0.014492753893136978 9:0.0 10:0.0 11:0.0 12:0.0 13:0.0 14:0.0 15:0.0 16:0.0 17:0.0 18:0.0 19:0.0 20:0.0 21:0.022518975660204887 22:0.009335475973784924 23:6.65305633447133E-5 24:0.0 25:0.0 26:0.0 27:0.0 28:0.0 29:1.0 30:0.0 31:1.0 32:1.0 33:0.0 34:0.0
-3.197368680760672E-5 1:1.491654872894287 2:0.6363636255264282 3:0.06913801282644272 4:0.3186740577220917 5:3.3825552463531494 6:3.0 7:0.023217247799038887 8:0.014925372786819935 9:0.0 10:0.0 11:0.0 12:0.0 13:1.0 14:0.0 15:0.0 16:0.0 17:0.0 18:0.0 19:0.0 20:0.0 21:0.4566478729248047 22:0.0017224993789568543 23:3.925774194613041E-8 24:0.0 25:0.0 26:0.0 27:0.0 28:0.0 29:0.0 30:0.0 31:0.0 32:0.0 33:0.0 34:0.0
-3.197368680760672E-5 1:1.2909841537475586 2:0.4444444477558136 3:0.07037324458360672 4:0.30184149742126465 5:3.0717601776123047 6:2.0 7:0.05433347821235657 8:0.019736841320991516 9:0.0 10:0.0 11:0.0 12:0.0 13:1.0 14:0.0 15:0.0 16:0.0 17:0.0 18:0.0 19:0.0 20:0.0 21:0.36145228147506714 22:0.001907904981635511 23:1.5651200158117717E-7 24:0.0 25:0.0 26:0.0 27:0.0 28:0.0 29:0.0 30:0.0 31:0.0 32:0.0 33:0.0 34:0.0
3.197368680760672E-5 1:1.2039728164672852 2:0.3529411852359772 3:0.0 4:0.0 5:0.614363968372345 6:4.0 7:0.006795017048716545 8:0.008888889104127884 9:2.0 10:0.0 11:18.0 12:1.0 13:0.0 14:0.0 15:0.0 16:0.0 17:0.0 18:0.0 19:0.0 20:0.0 21:0.060234710574150085 22:0.005384441930800676 23:7.975177140906453E-6 24:1.0 25:0.0 26:0.0 27:0.0 28:0.0 29:0.0 30:0.0 31:0.0 32:0.0 33:0.0 34:0.0
-3.197368680760672E-5 1:1.1239300966262817 2:0.5 3:0.0899554118514061 4:0.4929031729698181 5:5.402731895446777 6:1.0 7:0.05970149114727974 8:0.0517241396009922 9:1.0 10:0.0 11:11.0 12:1.0 13:0.0 14:0.0 15:1.0 16:0.0 17:0.0 18:0.0 19:0.0 20:0.0 21:0.41495636105537415 22:6.79470133036375E-4 23:5.435806471609794E-8 24:1.0 25:0.0 26:0.0 27:0.0 28:1.0 29:0.0 30:1.0 31:0.0 32:0.0 33:0.0 34:0.0
-3.197368680760672E-5 1:1.2909841537475586 2:0.4444444477558136 3:0.0 4:0.0 5:1.16920006275177 6:0.0 7:0.01157742366194725 8:0.0 9:1.0 10:0.0 11:17.0 12:1.0 13:0.0 14:0.0 15:0.0 16:0.0 17:0.0 18:0.0 19:0.0 20:0.0 21:0.09883204102516174 22:0.0014451955212280154 23:6.181014668982243E-7 24:0.0 25:0.0 26:0.0 27:0.0 28:0.0 29:1.0 30:1.0 31:1.0 32:1.0 33:1.0 34:0.0
-3.197368680760672E-5 1:1.491654872894287 2:0.6000000238418579 3:0.0 4:0.0 5:2.6043996810913086 6:0.0 7:0.0 8:0.0 9:1.0 10:0.0 11:15.0 12:1.0 13:1.0 14:0.0 15:0.0 16:0.0 17:0.0 18:0.0 19:0.0 20:0.0 21:0.007673218380659819 22:0.009828156791627407 23:4.259677371010184E-5 24:1.0 25:0.0 26:0.0 27:0.0 28:0.0 29:0.0 30:0.0 31:0.0 32:0.0 33:0.0 34:0.0
3.197368680760672E-5 1:1.2909841537475586 2:0.375 3:0.04993315041065216 4:0.07221633940935135 5:0.7794168591499329 6:0.0 7:0.0 8:0.0 9:0.0 10:0.0 11:0.0 12:0.0 13:0.0 14:0.0 15:0.0 16:0.0 17:0.0 18:0.0 19:0.0 20:0.0 21:0.566250205039978 22:0.0021918679121881723 23:1.4252239566303615E-7 24:0.0 25:0.0 26:0.0 27:0.0 28:0.0 29:0.0 30:0.0 31:0.0 32:0.0 33:0.0 34:0.0
3.197368680760672E-5 1:0.9808292388916016 2:0.2222222238779068 3:0.043785955756902695 4:0.0 5:0.0 6:2.0 7:0.013513513840734959 8:0.0 9:0.0 10:0.0 11:0.0 12:0.0 13:1.0 14:0.0 15:1.0 16:0.0 17:0.0 18:0.0 19:0.0 20:0.0 21:0.37101876735687256 22:0.003253946779295802 23:7.27509416265093E-7 24:0.0 25:0.0 26:0.0 27:0.0 28:0.0 29:0.0 30:0.0 31:0.0 32:0.0 33:0.0 34:0.0
3.197368680760672E-5 1:1.0498220920562744 2:0.23529411852359772 3:0.06186659634113312 4:0.0 5:0.0 6:1.0 7:0.08815576136112213 8:0.014925372786819935 9:0.0 10:0.0 11:0.0 12:0.0 13:0.0 14:0.0 15:0.0 16:0.0 17:0.0 18:0.0 19:0.0 20:0.0 21:0.28838592767715454 22:0.0020342294592410326 23:1.0561117136376197E-7 24:0.0 25:0.0 26:0.0 27:0.0 28:1.0 29:1.0 30:0.0 31:1.0 32:1.0 33:1.0 34:0.0
-3.197368680760672E-5 1:1.1239300966262817 2:0.25 3:0.0 4:0.0 5:0.0 6:3.0 7:0.04284772649407387 8:0.07407407462596893 9:0.0 10:0.0 11:0.0 12:0.0 13:0.0 14:0.0 15:0.0 16:0.0 17:0.0 18:0.0 19:0.0 20:0.0 21:0.17276155948638916 22:0.0010958946077153087 23:2.1574908970478646E-8 24:0.0 25:0.0 26:0.0 27:0.0 28:0.0 29:0.0 30:0.0 31:0.0 32:0.0 33:0.0 34:0.0
3.197368680760672E-5 1:1.742969274520874 2:0.6666666865348816 3:0.0 4:0.0 5:2.4933841228485107 6:2.0 7:0.004716981202363968 8:0.0 9:1.0 10:0.0 11:17.0 12:1.0 13:1.0 14:0.0 15:0.0 16:0.0 17:0.0 18:0.0 19:0.0 20:0.0 21:0.05025969073176384 22:0.0017294397111982107 23:3.787762921092508E-7 24:0.0 25:0.0 26:0.0 27:0.0 28:0.0 29:0.0 30:0.0 31:0.0 32:0.0 33:0.0 34:0.0
-3.197368680760672E-5 1:1.6094379425048828 2:0.5 3:0.0 4:0.0 5:1.16920006275177 6:3.0 7:0.014410760253667831 8:0.006097560748457909 9:0.0 10:0.0 11:0.0 12:0.0 13:0.0 14:0.0 15:0.0 16:0.0 17:0.0 18:0.0 19:0.0 20:0.0 21:0.09065768122673035 22:0.04481405392289162 23:5.2233772294130176E-5 24:0.0 25:0.0 26:0.0 27:0.0 28:0.0 29:0.0 30:0.0 31:0.0 32:0.0 33:0.0 34:0.0
3.197368680760672E-5 1:1.3862943649291992 2:0.4000000059604645 3:0.0 4:0.0 5:0.7794168591499329 6:0.0 7:0.0 8:0.0 9:1.0 10:0.0 11:16.0 12:1.0 13:0.0 14:0.0 15:0.0 16:0.0 17:0.0 18:0.0 19:0.0 20:0.0 21:0.3034108281135559 22:4.692680959124118E-4 23:2.6654904061729212E-8 24:0.0 25:0.0 26:0.0 27:0.0 28:0.0 29:0.0 30:0.0 31:0.0 32:0.0 33:0.0 34:0.0
-3.197368680760672E-5 1:1.2909841537475586 2:0.2857142984867096 3:0.056479562073946 4:0.0 5:0.0 6:2.0 7:0.04749612882733345 8:0.021671826019883156 9:0.0 10:0.0 11:0.0 12:0.0 13:0.0 14:0.0 15:0.0 16:0.0 17:0.0 18:0.0 19:0.0 20:0.0 21:0.05655163526535034 22:0.0026272106915712357 23:2.606491875667416E-7 24:0.0 25:0.0 26:0.0 27:0.0 28:1.0 29:1.0 30:1.0 31:1.0 32:1.0 33:1.0 34:0.0
-3.197368680760672E-5 1:0.9808292388916016 2:0.2222222238779068 3:0.051170431077480316 4:0.0 5:0.0 6:1.0 7:0.0016064257360994816 8:0.0062500000931322575 9:0.0 10:0.0 11:0.0 12:0.0 13:0.0 14:0.0 15:0.0 16:0.0 17:0.0 18:0.0 19:0.0 20:0.0 21:0.061196740716695786 22:0.003817708231508732 23:3.706423967742012E-6 24:0.0 25:0.0 26:0.0 27:0.0 28:1.0 29:2.0 30:1.0 31:1.0 32:1.0 33:1.0 34:0.0
-3.197368680760672E-5 1:0.9808292388916016 2:0.30000001192092896 3:0.0 4:0.0 5:0.7794168591499329 6:3.0 7:0.007194244768470526 8:0.03999999910593033 9:0.0 10:0.0 11:0.0 12:0.0 13:0.0 14:0.0 15:0.0 16:0.0 17:0.0 18:0.0 19:0.0 20:0.0 21:0.009538074024021626 22:0.004212767817080021 23:2.97309588859207E-6 24:0.0 25:0.0 26:0.0 27:0.0 28:0.0 29:0.0 30:0.0 31:0.0 32:0.0 33:0.0 34:0.0
3.197368680760672E-5 1:1.6094379425048828 2:0.5333333611488342 3:0.0 4:0.0 5:1.7798171043395996 6:3.0 7:0.01590106077492237 8:0.054054055362939835 9:1.0 10:0.0 11:16.0 12:1.0 13:0.0 14:0.0 15:0.0 16:0.0 17:0.0 18:0.0 19:0.0 20:0.0 21:0.26664480566978455 22:5.251052789390087E-4 23:2.771862028794203E-8 24:0.0 25:0.0 26:0.0 27:0.0 28:0.0 29:0.0 30:0.0 31:0.0 32:0.0 33:0.0 34:0.0
3.197368680760672E-5 1:0.8556661009788513 2:0.20000000298023224 3:0.04983608052134514 4:0.0 5:0.0 6:7.0 7:0.10486634820699692 8:0.03488372266292572 9:1.0 10:0.0 11:17.0 12:1.0 13:0.0 14:0.0 15:0.0 16:0.0 17:0.0 18:0.0 19:0.0 20:0.0 21:0.791577160358429 22:0.010155923664569855 23:2.1253687009448186E-5 24:0.0 25:0.0 26:0.0 27:0.0 28:0.0 29:0.0 30:0.0 31:0.0 32:0.0 33:0.0 34:0.0
3.197368680760672E-5 1:0.744440495967865 2:0.1818181872367859 3:0.0 4:0.0 5:0.0 6:8.0 7:0.03030303120613098 8:0.020618556067347527 9:1.0 10:0.0 11:17.0 12:1.0 13:0.0 14:0.0 15:0.0 16:0.0 17:0.0 18:0.0 19:0.0 20:0.0 21:0.08786005526781082 22:0.0022189852315932512 23:2.1454255261232902E-7 24:0.0 25:0.0 26:0.0 27:0.0 28:0.0 29:0.0 30:0.0 31:0.0 32:0.0 33:0.0 34:0.0
3.197368680760672E-5 1:1.0498220920562744 2:0.31578946113586426 3:0.07154934108257294 4:0.10034202039241791 5:0.7794168591499329 6:0.0 7:0.04194260388612747 8:0.0 9:0.0 10:0.0 11:0.0 12:0.0 13:0.0 14:0.0 15:0.0 16:0.0 17:0.0 18:0.0 19:0.0 20:0.0 21:0.3620823621749878 22:0.002022800501435995 23:4.3944120875494264E-7 24:1.0 25:0.0 26:0.0 27:0.0 28:1.0 29:1.0 30:1.0 31:1.0 32:1.0 33:1.0 34:0.0
-3.197368680760672E-5 1:1.0498220920562744 2:0.31578946113586426 3:0.0 4:0.0 5:0.7794168591499329 6:6.0 7:0.09503239393234253 8:0.1265822798013687 9:1.0 10:0.0 11:15.0 12:1.0 13:0.0 14:0.0 15:0.0 16:0.0 17:0.0 18:0.0 19:0.0 20:0.0 21:0.08147285133600235 22:0.002204691059887409 23:9.573545867169742E-7 24:0.0 25:0.0 26:0.0 27:0.0 28:0.0 29:0.0 30:0.0 31:0.0 32:0.0 33:0.0 34:0.0
-3.197368680760672E-5 1:1.0498220920562744 2:0.23529411852359772 3:0.0 4:0.0 5:0.0 6:10.0 7:0.03297179937362671 8:0.08609271794557571 9:1.0 10:0.0 11:12.0 12:1.0 13:0.0 14:0.0 15:1.0 16:0.0 17:0.0 18:0.0 19:0.0 20:0.0 21:0.0734545886516571 22:0.001096415100619197 23:3.311436955755198E-7 24:1.0 25:0.0 26:0.0 27:0.0 28:0.0 29:0.0 30:0.0 31:0.0 32:0.0 33:0.0 34:0.0
3.197368680760672E-5 1:1.491654872894287 2:0.4285714328289032 3:0.06571130454540253 4:0.09291539341211319 5:0.7794168591499329 6:1.0 7:0.10432824492454529 8:0.042553190141916275 9:0.0 10:0.0 11:0.0 12:0.0 13:0.0 14:0.0 15:0.0 16:0.0 17:0.0 18:0.0 19:0.0 20:0.0 21:0.6198217272758484 22:6.092637777328491E-4 23:9.665706457440137E-9 24:1.0 25:0.0 26:0.0 27:0.0 28:1.0 29:1.0 30:1.0 31:1.0 32:1.0 33:1.0 34:0.0
-3.197368680760672E-5 1:1.2909841537475586 2:0.2857142984867096 3:0.04710552096366882 4:0.0 5:0.0 6:6.0 7:0.058394160121679306 8:0.054054055362939835 9:1.0 10:0.0 11:10.0 12:1.0 13:0.0 14:0.0 15:1.0 16:0.0 17:0.0 18:0.0 19:0.0 20:0.0 21:0.09758492559194565 22:0.0019609469454735518 23:5.199570978220436E-7 24:1.0 25:0.0 26:0.0 27:0.0 28:1.0 29:0.0 30:0.0 31:1.0 32:0.0 33:0.0 34:0.0
3.197368680760672E-5 1:1.2039728164672852 2:0.2666666805744171 3:0.06330682337284088 4:0.0 5:0.0 6:1.0 7:0.09150326997041702 8:0.0634920671582222 9:0.0 10:0.0 11:0.0 12:0.0 13:0.0 14:0.0 15:0.0 16:0.0 17:0.0 18:0.0 19:0.0 20:0.0 21:0.3756890892982483 22:0.0016008410602807999 23:1.0341084788478838E-7 24:0.0 25:0.0 26:0.0 27:0.0 28:1.0 29:1.0 30:0.0 31:1.0 32:1.0 33:1.0 34:0.0
-3.197368680760672E-5 1:1.491654872894287 2:0.5555555820465088 3:0.05771471560001373 4:0.13651001453399658 5:1.3695902824401855 6:2.0 7:0.02766251750290394 8:0.06451612710952759 9:0.0 10:0.0 11:0.0 12:0.0 13:0.0 14:0.0 15:0.0 16:0.0 17:0.0 18:0.0 19:0.0 20:0.0 21:0.13824011385440826 22:0.004798633977770805 23:9.926900474965805E-7 24:0.0 25:0.0 26:0.0 27:0.0 28:1.0 29:0.0 30:0.0 31:0.0 32:0.0 33:0.0 34:0.0
-3.197368680760672E-5 1:1.2909841537475586 2:0.4444444477558136 3:0.0 4:0.0 5:1.16920006275177 6:3.0 7:0.029480217024683952 8:0.0615384615957737 9:0.0 10:0.0 11:0.0 12:0.0 13:0.0 14:0.0 15:0.0 16:0.0 17:0.0 18:0.0 19:0.0 20:0.0 21:0.31270384788513184 22:0.0017852600431069732 23:2.1793593418806267E-7 24:1.0 25:0.0 26:0.0 27:0.0 28:0.0 29:0.0 30:0.0 31:0.0 32:0.0 33:0.0 34:0.0
-3.197368680760672E-5 1:1.0498220920562744 2:0.31578946113586426 3:0.057303644716739655 4:0.08200187981128693 5:0.7794168591499329 6:3.0 7:0.0416666679084301 8:0.0139860138297081 9:0.0 10:0.0 11:0.0 12:0.0 13:0.0 14:0.0 15:0.0 16:0.0 17:0.0 18:0.0 19:0.0 20:0.0 21:0.2803274393081665 22:0.0041037737391889095 23:8.155457749126072E-7 24:1.0 25:0.0 26:0.0 27:0.0 28:0.0 29:0.0 30:0.0 31:0.0 32:0.0 33:0.0 34:0.0
3.197368680760672E-5 1:1.1239300966262817 2:0.3333333432674408 3:0.06294886022806168 4:0.08935835212469101 5:0.7794168591499329 6:7.0 7:0.07424960285425186 8:0.03144654259085655 9:1.0 10:0.0 11:17.0 12:1.0 13:0.0 14:0.0 15:0.0 16:0.0 17:0.0 18:0.0 19:0.0 20:0.0 21:0.034696098417043686 22:0.005374368745833635 23:9.794456673262175E-6 24:1.0 25:0.0 26:0.0 27:0.0 28:1.0 29:1.0 30:1.0 31:1.0 32:1.0 33:1.0 34:0.0
3.197368680760672E-5 1:1.2039728164672852 2:0.2666666805744171 3:0.05305211991071701 4:0.0 5:0.0 6:2.0 7:0.014492753893136978 8:0.040816325694322586 9:1.0 10:0.0 11:15.0 12:1.0 13:0.0 14:0.0 15:0.0 16:0.0 17:0.0 18:0.0 19:0.0 20:0.0 21:0.09062107652425766 22:0.004152837675064802 23:3.825164185400354E-6 24:0.0 25:0.0 26:0.0 27:0.0 28:0.0 29:0.0 30:0.0 31:1.0 32:0.0 33:0.0 34:0.0
3.197368680760672E-5 1:0.9808292388916016 2:0.2222222238779068 3:0.047513581812381744 4:0.0 5:0.0 6:4.0 7:0.025830257683992386 8:0.0235294122248888 9:1.0 10:0.0 11:15.0 12:1.0 13:0.0 14:0.0 15:0.0 16:0.0 17:0.0 18:0.0 19:0.0 20:0.0 21:0.48236632347106934 22:4.624748835340142E-4 23:7.73014097177338E-9 24:0.0 25:0.0 26:0.0 27:0.0 28:0.0 29:0.0 30:0.0 31:0.0 32:0.0 33:0.0 34:0.0
-3.197368680760672E-5 1:1.1239300966262817 2:0.25 3:0.0 4:0.0 5:0.0 6:11.0 7:0.03333333507180214 8:0.0357142873108387 9:1.0 10:0.0 11:9.0 12:1.0 13:0.0 14:0.0 15:0.0 16:0.0 17:0.0 18:0.0 19:0.0 20:0.0 21:0.04595380648970604 22:0.0011576765682548285 23:1.2929723425259E-7 24:0.0 25:0.0 26:0.0 27:0.0 28:0.0 29:0.0 30:0.0 31:0.0 32:0.0 33:0.0 34:0.0
3.197368680760672E-5 1:0.9162907600402832 2:0.2857142984867096 3:0.0 4:0.0 5:0.7794168591499329 6:2.0 7:0.005761613138020039 8:0.09756097197532654 9:0.0 10:0.0 11:0.0 12:0.0 13:0.0 14:0.0 15:0.0 16:0.0 17:0.0 18:0.0 19:0.0 20:0.0 21:0.2010791003704071 22:5.286158993840218E-4 23:5.216405796204526E-8 24:1.0 25:0.0 26:0.0 27:0.0 28:0.0 29:0.0 30:0.0 31:0.0 32:0.0 33:0.0 34:0.0
-3.197368680760672E-5 1:1.1239300966262817 2:0.25 3:0.0 4:0.0 5:0.0 6:11.0 7:0.01678321696817875 8:0.03814714029431343 9:1.0 10:0.0 11:11.0 12:1.0 13:0.0 14:0.0 15:0.0 16:0.0 17:0.0 18:0.0 19:0.0 20:0.0 21:0.06335577368736267 22:0.008271734230220318 23:1.5433241742357495E-6 24:0.0 25:0.0 26:0.0 27:0.0 28:0.0 29:0.0 30:0.0 31:0.0 32:0.0 33:0.0 34:0.0
3.197368680760672E-5 1:1.2909841537475586 2:0.5 3:0.0 4:0.0 5:1.3695902824401855 6:0.0 7:0.0039840638637542725 8:0.03030303120613098 9:0.0 10:0.0 11:0.0 12:0.0 13:0.0 14:0.0 15:0.0 16:0.0 17:0.0 18:0.0 19:0.0 20:0.0 21:0.3344857692718506 22:0.0016957991756498814 23:1.1337521499399372E-7 24:0.0 25:0.0 26:0.0 27:0.0 28:0.0 29:0.0 30:0.0 31:0.0 32:0.0 33:0.0 34:0.0
-3.197368680760672E-5 1:1.2909841537475586 2:0.2857142984867096 3:0.054031744599342346 4:0.0 5:0.0 6:17.0 7:0.0760233923792839 8:0.05202312022447586 9:1.0 10:0.0 11:10.0 12:1.0 13:0.0 14:0.0 15:0.0 16:0.0 17:0.0 18:0.0 19:0.0 20:0.0 21:0.7698786854743958 22:0.004903903231024742 23:2.8089050374546787E-7 24:0.0 25:0.0 26:0.0 27:0.0 28:0.0 29:0.0 30:0.0 31:0.0 32:0.0 33:0.0 34:0.0
3.197368680760672E-5 1:1.742969274520874 2:0.5 3:0.06459762156009674 4:0.09148471802473068 5:0.7794168591499329 6:1.0 7:0.09058883041143417 8:0.03703703731298447 9:0.0 10:0.0 11:0.0 12:0.0 13:0.0 14:0.0 15:0.0 16:0.0 17:0.0 18:0.0 19:0.0 20:0.0 21:0.6916301250457764 22:9.26810025703162E-4 23:1.0154269425299844E-8 24:1.0 25:0.0 26:0.0 27:0.0 28:1.0 29:1.0 30:1.0 31:1.0 32:1.0 33:1.0 34:0.0
-3.197368680760672E-5 1:1.742969274520874 2:0.6666666865348816 3:0.0 4:0.0 5:2.6043996810913086 6:1.0 7:0.024336284026503563 8:0.029411764815449715 9:0.0 10:0.0 11:0.0 12:0.0 13:0.0 14:0.0 15:0.0 16:0.0 17:0.0 18:0.0 19:0.0 20:0.0 21:0.11193450540304184 22:0.001610953826457262 23:5.43606290648313E-7 24:1.0 25:0.0 26:0.0 27:0.0 28:0.0 29:0.0 30:0.0 31:0.0 32:0.0 33:0.0 34:0.0
3.197368680760672E-5 1:1.2909841537475586 2:0.2857142984867096 3:0.0 4:0.0 5:0.0 6:0.0 7:0.028242677450180054 8:0.0 9:1.0 10:0.0 11:14.0 12:1.0 13:0.0 14:0.0 15:0.0 16:0.0 17:0.0 18:0.0 19:0.0 20:0.0 21:0.23310798406600952 22:0.0023138467222452164 23:1.563372222790349E-7 24:0.0 25:0.0 26:0.0 27:0.0 28:0.0 29:0.0 30:0.0 31:0.0 32:0.0 33:0.0 34:0.0
-3.197368680760672E-5 1:1.8971199989318848 2:0.761904776096344 3:0.0720839574933052 4:0.21531404554843903 5:1.9033026695251465 6:2.0 7:0.005681938491761684 8:0.05000000074505806 9:1.0 10:0.0 11:11.0 12:1.0 13:1.0 14:0.0 15:1.0 16:0.0 17:0.0 18:0.0 19:0.0 20:0.0 21:0.047077082097530365 22:0.003358646295964718 23:4.963499577570474E-6 24:0.0 25:0.0 26:0.0 27:0.0 28:1.0 29:1.0 30:1.0 31:1.0 32:1.0 33:1.0 34:0.0
3.197368680760672E-5 1:1.2909841537475586 2:0.375 3:0.0 4:0.0 5:0.7794168591499329 6:2.0 7:0.029069768264889717 8:0.03448275849223137 9:0.0 10:0.0 11:0.0 12:0.0 13:0.0 14:0.0 15:0.0 16:0.0 17:0.0 18:0.0 19:0.0 20:0.0 21:0.11431675404310226 22:0.0023942640982568264 23:1.7115561377067934E-6 24:1.0 25:0.0 26:0.0 27:0.0 28:0.0 29:0.0 30:0.0 31:0.0 32:0.0 33:0.0 34:0.0
-3.197368680760672E-5 1:1.2039728164672852 2:0.2666666805744171 3:0.0 4:0.0 5:0.0 6:3.0 7:0.032546266913414 8:0.0 9:0.0 10:0.0 11:0.0 12:0.0 13:0.0 14:0.0 15:0.0 16:0.0 17:0.0 18:0.0 19:0.0 20:0.0 21:0.13830827176570892 22:9.344534482806921E-4 23:3.831792128039524E-8 24:0.0 25:0.0 26:0.0 27:0.0 28:0.0 29:0.0 30:0.0 31:0.0 32:0.0 33:0.0 34:0.0
-3.197368680760672E-5 1:1.1239300966262817 2:0.3333333432674408 3:0.054839543998241425 4:0.07875343412160873 5:0.7794168591499329 6:2.0 7:0.01803278736770153 8:0.03809523954987526 9:0.0 10:0.0 11:0.0 12:0.0 13:0.0 14:0.0 15:0.0 16:0.0 17:0.0 18:0.0 19:0.0 20:0.0 21:0.4852074682712555 22:0.0034174711909145117 23:1.4095977007855254E-7 24:0.0 25:0.0 26:0.0 27:0.0 28:0.0 29:0.0 30:0.0 31:0.0 32:0.0 33:0.0 34:0.0
-3.197368680760672E-5 1:1.2909841537475586 2:0.375 3:0.0 4:0.0 5:0.7794168591499329 6:2.0 7:0.06314700096845627 8:0.05882352963089943 9:0.0 10:0.0 11:0.0 12:0.0 13:0.0 14:0.0 15:0.0 16:0.0 17:0.0 18:0.0 19:0.0 20:0.0 21:0.1401364654302597 22:8.436044445261359E-4 23:6.670844499012674E-8 24:1.0 25:0.0 26:0.0 27:0.0 28:0.0 29:0.0 30:0.0 31:0.0 32:0.0 33:0.0 34:0.0
3.197368680760672E-5 1:1.491654872894287 2:0.5555555820465088 3:0.0 4:0.0 5:2.2541303634643555 6:6.0 7:0.014319809153676033 8:0.022727273404598236 9:1.0 10:0.0 11:15.0 12:1.0 13:0.0 14:0.0 15:0.0 16:0.0 17:0.0 18:0.0 19:0.0 20:0.0 21:0.4300479292869568 22:0.008000092580914497 23:3.8199705159058794E-5 24:1.0 25:0.0 26:0.0 27:0.0 28:0.0 29:0.0 30:0.0 31:0.0 32:0.0 33:0.0 34:0.0
3.197368680760672E-5 1:1.2039728164672852 2:0.3529411852359772 3:0.0 4:0.0 5:0.7794168591499329 6:0.0 7:0.003322259057313204 8:0.0 9:1.0 10:0.0 11:14.0 12:1.0 13:0.0 14:0.0 15:0.0 16:0.0 17:0.0 18:0.0 19:0.0 20:0.0 21:0.3872718811035156 22:1.6977597260847688E-4 23:8.601813150654891E-10 24:0.0 25:0.0 26:0.0 27:0.0 28:0.0 29:0.0 30:0.0 31:0.0 32:0.0 33:0.0 34:0.0
-3.197368680760672E-5 1:0.8556661009788513 2:0.27272728085517883 3:0.0 4:0.0 5:0.614363968372345 6:9.0 7:0.019607843831181526 8:0.02777777798473835 9:1.0 10:0.0 11:9.0 12:1.0 13:0.0 14:0.0 15:0.0 16:0.0 17:0.0 18:0.0 19:0.0 20:0.0 21:0.03498314693570137 22:0.002352391602471471 23:6.544763664351194E-7 24:0.0 25:0.0 26:0.0 27:0.0 28:0.0 29:0.0 30:0.0 31:0.0 32:0.0 33:0.0 34:0.0
3.197368680760672E-5 1:1.0498220920562744 2:0.31578946113586426 3:0.0 4:0.0 5:0.7794168591499329 6:5.0 7:0.032426778227090836 8:0.1111111119389534 9:0.0 10:0.0 11:0.0 12:0.0 13:0.0 14:0.0 15:0.0 16:0.0 17:0.0 18:0.0 19:0.0 20:0.0 21:0.14555324614048004 22:0.0017345792148262262 23:2.0109976617277425E-7 24:0.0 25:0.0 26:0.0 27:0.0 28:0.0 29:0.0 30:0.0 31:0.0 32:0.0 33:0.0 34:0.0
-3.197368680760672E-5 1:0.9808292388916016 2:0.30000001192092896 3:0.06241263821721077 4:0.07122596353292465 5:0.614363968372345 6:15.0 7:0.03799999877810478 8:0.03562340885400772 9:1.0 10:0.0 11:11.0 12:1.0 13:0.0 14:0.0 15:0.0 16:0.0 17:0.0 18:0.0 19:0.0 20:0.0 21:0.21171875298023224 22:0.059560149908065796 23:1.5091485693119466E-4 24:0.0 25:0.0 26:0.0 27:0.0 28:0.0 29:0.0 30:0.0 31:0.0 32:0.0 33:0.0 34:0.0
3.197368680760672E-5 1:1.491654872894287 2:0.5 3:0.06627307832241058 4:0.190878227353096 5:1.7798171043395996 6:1.0 7:0.06595995277166367 8:0.022727273404598236 9:0.0 10:0.0 11:0.0 12:0.0 13:0.0 14:0.0 15:0.0 16:0.0 17:0.0 18:0.0 19:0.0 20:0.0 21:0.29331833124160767 22:0.0010098989587277174 23:1.1861308379934599E-8 24:0.0 25:0.0 26:0.0 27:0.0 28:1.0 29:1.0 30:1.0 31:1.0 32:1.0 33:1.0 34:0.0
-3.197368680760672E-5 1:1.742969274520874 2:0.625 3:0.07156377285718918 4:0.2842954099178314 5:2.7753183841705322 6:2.0 7:0.0573122538626194 8:0.0476190485060215 9:1.0 10:0.0 11:4.0 12:1.0 13:1.0 14:0.0 15:0.0 16:0.0 17:0.0 18:0.0 19:0.0 20:0.0 21:0.5164990425109863 22:0.005279375705868006 23:1.5382884157588705E-6 24:0.0 25:0.0 26:0.0 27:0.0 28:1.0 29:1.0 30:0.0 31:1.0 32:1.0 33:0.0 34:0.0
3.197368680760672E-5 1:0.9162907600402832 2:0.21052631735801697 3:0.0 4:0.0 5:0.0 6:2.0 7:0.032258063554763794 8:0.04054053872823715 9:1.0 10:0.0 11:14.0 12:1.0 13:0.0 14:0.0 15:1.0 16:0.0 17:0.0 18:0.0 19:0.0 20:0.0 21:0.3908739387989044 22:4.917049081996083E-4 23:3.8431582360942684E-9 24:0.0 25:0.0 26:0.0 27:0.0 28:0.0 29:0.0 30:0.0 31:0.0 32:0.0 33:0.0 34:0.0
-3.197368680760672E-5 1:1.2039728164672852 2:0.2666666805744171 3:0.049757350236177444 4:0.0 5:0.0 6:17.0 7:0.0445292629301548 8:0.041450776159763336 9:1.0 10:0.0 11:14.0 12:1.0 13:0.0 14:0.0 15:0.0 16:0.0 17:0.0 18:0.0 19:0.0 20:0.0 21:0.165507972240448 22:0.007825782522559166 23:1.4794476328461315E-6 24:0.0 25:0.0 26:0.0 27:0.0 28:1.0 29:1.0 30:1.0 31:1.0 32:1.0 33:1.0 34:0.0
3.197368680760672E-5 1:1.742969274520874 2:0.6666666865348816 3:0.0 4:0.0 5:3.893685817718506 6:0.0 7:0.02253032848238945 8:0.0 9:0.0 10:0.0 11:0.0 12:0.0 13:1.0 14:0.0 15:0.0 16:0.0 17:0.0 18:0.0 19:0.0 20:0.0 21:0.25336265563964844 22:0.0011921925470232964 23:1.429179548040338E-7 24:0.0 25:0.0 26:0.0 27:0.0 28:0.0 29:0.0 30:0.0 31:0.0 32:0.0 33:0.0 34:0.0
-3.197368680760672E-5 1:1.1239300966262817 2:0.4545454680919647 3:0.0 4:0.0 5:2.2541303634643555 6:1.0 7:0.02229299396276474 8:0.018518518656492233 9:0.0 10:0.0 11:0.0 12:0.0 13:0.0 14:0.0 15:0.0 16:0.0 17:0.0 18:0.0 19:0.0 20:0.0 21:0.2833060026168823 22:7.470200653187931E-4 23:3.6533581493358724E-8 24:0.0 25:0.0 26:0.0 27:0.0 28:0.0 29:0.0 30:0.0 31:0.0 32:0.0 33:0.0 34:0.0
3.197368680760672E-5 1:1.2039728164672852 2:0.4761904776096344 3:0.06311057507991791 4:0.22149842977523804 5:2.2541303634643555 6:1.0 7:0.015463917516171932 8:0.0 9:1.0 10:0.0 11:13.0 12:1.0 13:0.0 14:0.0 15:0.0 16:0.0 17:0.0 18:0.0 19:0.0 20:0.0 21:0.32573753595352173 22:3.262405807618052E-4 23:7.185946060417336E-9 24:0.0 25:0.0 26:0.0 27:0.0 28:0.0 29:0.0 30:0.0 31:0.0 32:0.0 33:0.0 34:0.0
-3.197368680760672E-5 1:0.8556661009788513 2:0.20000000298023224 3:0.0 4:0.0 5:0.0 6:5.0 7:0.011604095809161663 8:0.032786883413791656 9:1.0 10:0.0 11:6.0 12:1.0 13:0.0 14:0.0 15:0.0 16:0.0 17:0.0 18:0.0 19:0.0 20:0.0 21:0.04691636562347412 22:0.0024829276371747255 23:9.975914281312726E-7 24:0.0 25:0.0 26:0.0 27:0.0 28:0.0 29:0.0 30:0.0 31:0.0 32:0.0 33:0.0 34:0.0
-3.197368680760672E-5 1:1.6094379425048828 2:0.5333333611488342 3:0.0 4:0.0 5:2.398244857788086 6:2.0 7:0.025641025975346565 8:0.056338027119636536 9:1.0 10:0.0 11:12.0 12:1.0 13:0.0 14:0.0 15:0.0 16:0.0 17:0.0 18:0.0 19:0.0 20:0.0 21:0.44429439306259155 22:3.052390238735825E-4 23:1.6175465411549794E-9 24:1.0 25:0.0 26:0.0 27:0.0 28:0.0 29:0.0 30:0.0 31:0.0 32:0.0 33:0.0 34:0.0
-3.197368680760672E-5 1:1.2909841537475586 2:0.375 3:0.0 4:0.0 5:0.7794168591499329 6:2.0 7:0.04237288236618042 8:0.06818182021379471 9:1.0 10:0.0 11:14.0 12:1.0 13:0.0 14:0.0 15:0.0 16:0.0 17:0.0 18:0.0 19:0.0 20:0.0 21:0.6963701844215393 22:2.898849779739976E-4 23:1.4220161714817436E-9 24:0.0 25:0.0 26:0.0 27:0.0 28:0.0 29:0.0 30:0.0 31:0.0 32:0.0 33:0.0 34:0.0
3.197368680760672E-5 1:1.6094379425048828 2:0.4615384638309479 3:0.06655259430408478 4:0.0939931571483612 5:0.7794168591499329 6:1.0 7:0.038601603358983994 8:0.03999999910593033 9:0.0 10:0.0 11:0.0 12:0.0 13:0.0 14:0.0 15:1.0 16:0.0 17:0.0 18:0.0 19:0.0 20:0.0 21:0.5877726078033447 22:0.0016575228655710816 23:3.799481618216305E-8 24:1.0 25:0.0 26:0.0 27:0.0 28:1.0 29:1.0 30:0.0 31:1.0 32:1.0 33:1.0 34:0.0
3.197368680760672E-5 1:1.742969274520874 2:0.5 3:0.06361785531044006 4:0.09022233635187149 5:0.7794168591499329 6:2.0 7:0.06476059556007385 8:0.0714285746216774 9:0.0 10:0.0 11:0.0 12:0.0 13:0.0 14:0.0 15:1.0 16:0.0 17:0.0 18:0.0 19:0.0 20:0.0 21:0.6579916477203369 22:8.154201204888523E-4 23:9.89802551032426E-9 24:1.0 25:0.0 26:0.0 27:0.0 28:1.0 29:1.0 30:1.0 31:1.0 32:1.0 33:1.0 34:0.0
3.197368680760672E-5 1:0.9162907600402832 2:0.2857142984867096 3:0.0 4:0.0 5:0.7794168591499329 6:3.0 7:0.05882352963089943 8:0.058139536529779434 9:0.0 10:0.0 11:0.0 12:0.0 13:0.0 14:0.0 15:0.0 16:0.0 17:0.0 18:0.0 19:0.0 20:0.0 21:0.2516143321990967 22:8.961075800471008E-4 23:8.578967936045956E-8 24:0.0 25:0.0 26:0.0 27:0.0 28:0.0 29:0.0 30:0.0 31:0.0 32:0.0 33:0.0 34:0.0
-3.197368680760672E-5 1:1.0498220920562744 2:0.31578946113586426 3:0.045511048287153244 4:0.06624449789524078 5:0.7794168591499329 6:2.0 7:0.01879699155688286 8:0.08196721225976944 9:0.0 10:0.0 11:0.0 12:0.0 13:0.0 14:0.0 15:0.0 16:0.0 17:0.0 18:0.0 19:0.0 20:0.0 21:0.07841687649488449 22:5.954229272902012E-4 23:5.793816271193464E-8 24:0.0 25:0.0 26:0.0 27:0.0 28:1.0 29:0.0 30:1.0 31:1.0 32:0.0 33:0.0 34:0.0
-3.197368680760672E-5 1:0.9808292388916016 2:0.4166666567325592 3:0.0 4:0.0 5:1.3695902824401855 6:2.0 7:0.03703703731298447 8:0.06666667014360428 9:0.0 10:0.0 11:0.0 12:0.0 13:0.0 14:0.0 15:0.0 16:0.0 17:0.0 18:0.0 19:0.0 20:0.0 21:0.14344821870326996 22:0.006791422143578529 23:2.3098389647202566E-5 24:0.0 25:0.0 26:0.0 27:0.0 28:0.0 29:0.0 30:0.0 31:0.0 32:0.0 33:0.0 34:0.0
-3.197368680760672E-5 1:1.0498220920562744 2:0.31578946113586426 3:0.057477954775094986 4:0.08223080635070801 5:0.7794168591499329 6:0.0 7:0.0038910505827516317 8:0.0 9:0.0 10:0.0 11:0.0 12:0.0 13:0.0 14:0.0 15:0.0 16:0.0 17:0.0 18:0.0 19:0.0 20:0.0 21:0.32293450832366943 22:0.0033081895671784878 23:6.675521717625088E-7 24:0.0 25:0.0 26:0.0 27:0.0 28:1.0 29:0.0 30:1.0 31:1.0 32:1.0 33:1.0 34:0.0
3.197368680760672E-5 1:1.6094379425048828 2:0.6315789222717285 3:0.059044335037469864 4:0.23521094024181366 5:2.6043996810913086 6:1.0 7:0.09645506739616394 8:0.0625 9:1.0 10:0.0 11:13.0 12:1.0 13:1.0 14:0.0 15:1.0 16:0.0 17:0.0 18:0.0 19:0.0 20:0.0 21:0.2911737263202667 22:4.3510019895620644E-4 23:8.701232623309352E-9 24:1.0 25:0.0 26:0.0 27:0.0 28:1.0 29:0.0 30:1.0 31:1.0 32:0.0 33:1.0 34:0.0
3.197368680760672E-5 1:1.0498220920562744 2:0.23529411852359772 3:0.0 4:0.0 5:0.0 6:2.0 7:8.047210285440087E-4 8:0.0 9:1.0 10:0.0 11:12.0 12:1.0 13:0.0 14:0.0 15:0.0 16:0.0 17:0.0 18:0.0 19:0.0 20:0.0 21:0.264801561832428 22:5.872856127098203E-4 23:2.249098685069839E-8 24:0.0 25:0.0 26:0.0 27:0.0 28:0.0 29:0.0 30:0.0 31:0.0 32:0.0 33:0.0 34:0.0
3.197368680760672E-5 1:1.2909841537475586 2:0.375 3:0.06600446999073029 4:0.0932912528514862 5:0.7794168591499329 6:4.0 7:0.01843547634780407 8:0.034682080149650574 9:1.0 10:0.0 11:12.0 12:1.0 13:0.0 14:0.0 15:0.0 16:0.0 17:0.0 18:0.0 19:0.0 20:0.0 21:0.5282499194145203 22:0.24392423033714294 23:6.97012001182884E-4 24:1.0 25:0.0 26:0.0 27:0.0 28:1.0 29:0.0 30:0.0 31:1.0 32:0.0 33:0.0 34:0.0
3.197368680760672E-5 1:1.0498220920562744 2:0.23529411852359772 3:0.0 4:0.0 5:0.0 6:0.0 7:0.03664122149348259 8:0.0 9:1.0 10:0.0 11:11.0 12:1.0 13:0.0 14:0.0 15:0.0 16:0.0 17:0.0 18:0.0 19:0.0 20:0.0 21:0.1389738768339157 22:0.002405009465292096 23:7.328443416554364E-7 24:0.0 25:0.0 26:0.0 27:0.0 28:0.0 29:0.0 30:0.0 31:0.0 32:0.0 33:0.0 34:0.0
-3.197368680760672E-5 1:1.742969274520874 2:0.5714285969734192 3:0.08632361143827438 4:0.4140552282333374 5:4.093001842498779 6:1.0 7:0.005174644291400909 8:0.0 9:1.0 10:0.0 11:4.0 12:1.0 13:0.0 14:0.0 15:0.0 16:0.0 17:0.0 18:0.0 19:0.0 20:0.0 21:0.17352037131786346 22:0.00479281647130847 23:7.994279940248816E-7 24:1.0 25:0.0 26:0.0 27:0.0 28:0.0 29:0.0 30:1.0 31:1.0 32:1.0 33:1.0 34:0.0
-3.197368680760672E-5 1:1.2039728164672852 2:0.2666666805744171 3:0.06917612999677658 4:0.0 5:0.0 6:33.0 7:0.045074351131916046 8:0.06443914026021957 9:1.0 10:0.0 11:7.0 12:1.0 13:0.0 14:0.0 15:0.0 16:0.0 17:0.0 18:0.0 19:0.0 20:0.0 21:0.4529609680175781 22:0.0038398844189941883 23:5.147866772858833E-7 24:0.0 25:0.0 26:0.0 27:0.0 28:1.0 29:1.0 30:0.0 31:1.0 32:1.0 33:0.0 34:0.0
3.197368680760672E-5 1:0.7985076904296875 2:0.190476194024086 3:0.045156460255384445 4:0.0 5:0.0 6:3.0 7:0.0019907099194824696 8:0.011363636702299118 9:1.0 10:0.0 11:7.0 12:1.0 13:0.0 14:0.0 15:0.0 16:0.0 17:0.0 18:0.0 19:0.0 20:0.0 21:0.04352712631225586 22:0.0036319454666227102 23:7.403450581477955E-7 24:0.0 25:0.0 26:0.0 27:0.0 28:0.0 29:0.0 30:0.0 31:0.0 32:0.0 33:0.0 34:0.0
-3.197368680760672E-5 1:1.3862943649291992 2:0.4000000059604645 3:0.05744373798370361 4:0.08218587934970856 5:0.7794168591499329 6:2.0 7:0.01189060602337122 8:0.032786883413791656 9:1.0 10:0.0 11:11.0 12:1.0 13:0.0 14:0.0 15:0.0 16:0.0 17:0.0 18:0.0 19:0.0 20:0.0 21:0.4276798367500305 22:7.004548679105937E-4 23:6.164932386809596E-8 24:0.0 25:0.0 26:0.0 27:0.0 28:1.0 29:1.0 30:1.0 31:1.0 32:1.0 33:1.0 34:0.0
-3.197368680760672E-5 1:1.491654872894287 2:0.4285714328289032 3:0.0 4:0.0 5:0.7794168591499329 6:2.0 7:0.08695652335882187 8:0.1111111119389534 9:1.0 10:0.0 11:2.0 12:1.0 13:1.0 14:0.0 15:1.0 16:0.0 17:0.0 18:0.0 19:0.0 20:0.0 21:0.6303613781929016 22:5.733504658564925E-4 23:5.870262853591157E-8 24:1.0 25:0.0 26:0.0 27:0.0 28:0.0 29:0.0 30:0.0 31:0.0 32:0.0 33:0.0 34:0.0
-3.197368680760672E-5 1:1.1239300966262817 2:0.25 3:0.049757350236177444 4:0.0 5:0.0 6:4.0 7:0.004754357971251011 8:0.016129031777381897 9:1.0 10:0.0 11:14.0 12:1.0 13:0.0 14:0.0 15:1.0 16:0.0 17:0.0 18:0.0 19:0.0 20:0.0 21:0.06633184850215912 22:0.0015100387390702963 23:1.0774378012001762E-7 24:0.0 25:0.0 26:0.0 27:0.0 28:1.0 29:1.0 30:1.0 31:1.0 32:1.0 33:1.0 34:0.0
3.197368680760672E-5 1:1.3862943649291992 2:0.5714285969734192 3:0.0 4:0.0 5:2.6043996810913086 6:1.0 7:0.05198776721954346 8:0.029126213863492012 9:0.0 10:0.0 11:0.0 12:0.0 13:1.0 14:0.0 15:0.0 16:0.0 17:0.0 18:0.0 19:0.0 20:0.0 21:0.01831088401377201 22:0.0074165696278214455 23:3.414217644603923E-5 24:0.0 25:0.0 26:0.0 27:0.0 28:0.0 29:0.0 30:0.0 31:0.0 32:0.0 33:0.0 34:0.0
-3.197368680760672E-5 1:1.2909841537475586 2:0.375 3:0.0 4:0.0 5:0.7794168591499329 6:0.0 7:0.030075188726186752 8:0.033898305147886276 9:0.0 10:0.0 11:0.0 12:0.0 13:0.0 14:0.0 15:0.0 16:0.0 17:0.0 18:0.0 19:0.0 20:0.0 21:0.7183963656425476 22:5.320188938640058E-4 23:9.731909500487745E-9 24:0.0 25:0.0 26:0.0 27:0.0 28:0.0 29:0.0 30:0.0 31:0.0 32:0.0 33:0.0 34:0.0
3.197368680760672E-5 1:1.491654872894287 2:0.4285714328289032 3:0.0 4:0.0 5:0.7794168591499329 6:7.0 7:0.02879059500992298 8:0.05673758685588837 9:1.0 10:0.0 11:12.0 12:1.0 13:0.0 14:0.0 15:1.0 16:0.0 17:0.0 18:0.0 19:0.0 20:0.0 21:0.08017464727163315 22:0.0010819013696163893 23:3.1955116241988435E-7 24:0.0 25:0.0 26:0.0 27:0.0 28:0.0 29:0.0 30:0.0 31:0.0 32:0.0 33:0.0 34:0.0
3.197368680760672E-5 1:1.0498220920562744 2:0.31578946113586426 3:0.046993497759103775 4:0.06825502216815948 5:0.7794168591499329 6:0.0 7:0.018691588193178177 8:0.0 9:1.0 10:0.0 11:3.0 12:1.0 13:0.0 14:0.0 15:0.0 16:0.0 17:0.0 18:0.0 19:0.0 20:0.0 21:0.40178003907203674 22:4.7710430226288736E-4 23:1.1359579055181257E-8 24:1.0 25:0.0 26:0.0 27:0.0 28:0.0 29:0.0 30:0.0 31:0.0 32:0.0 33:0.0 34:0.0
-3.197368680760672E-5 1:1.2909841537475586 2:0.5 3:0.059233736246824265 4:0.24743278324604034 5:2.7753183841705322 6:1.0 7:0.06896551698446274 8:0.0882352963089943 9:1.0 10:0.0 11:12.0 12:1.0 13:1.0 14:0.0 15:1.0 16:0.0 17:0.0 18:0.0 19:0.0 20:0.0 21:0.5070832371711731 22:3.1956349266692996E-4 23:2.543780519559391E-9 24:0.0 25:0.0 26:0.0 27:0.0 28:0.0 29:0.0 30:0.0 31:0.0 32:0.0 33:0.0 34:0.0
-3.197368680760672E-5 1:1.6094379425048828 2:0.6666666865348816 3:0.06677952408790588 4:0.3111860752105713 5:3.3825552463531494 6:0.0 7:0.008705114014446735 8:0.020408162847161293 9:1.0 10:0.0 11:13.0 12:1.0 13:1.0 14:0.0 15:0.0 16:0.0 17:0.0 18:0.0 19:0.0 20:0.0 21:0.05827610567212105 22:0.0028409718070179224 23:3.2586510769760935E-6 24:0.0 25:0.0 26:0.0 27:0.0 28:0.0 29:0.0 30:0.0 31:0.0 32:0.0 33:0.0 34:0.0
3.197368680760672E-5 1:1.491654872894287 2:0.5 3:0.0 4:0.0 5:1.7798171043395996 6:5.0 7:0.021645022556185722 8:0.028368793427944183 9:0.0 10:0.0 11:0.0 12:0.0 13:0.0 14:0.0 15:0.0 16:0.0 17:0.0 18:0.0 19:0.0 20:0.0 21:0.29557254910469055 22:0.0036403313279151917 23:2.465606883106375E-7 24:0.0 25:0.0 26:0.0 27:0.0 28:0.0 29:0.0 30:0.0 31:0.0 32:0.0 33:0.0 34:0.0
3.197368680760672E-5 1:1.2039728164672852 2:0.3529411852359772 3:0.0 4:0.0 5:0.7794168591499329 6:4.0 7:0.03466666489839554 8:0.010638297535479069 9:0.0 10:0.0 11:0.0 12:0.0 13:0.0 14:0.0 15:1.0 16:0.0 17:0.0 18:0.0 19:0.0 20:0.0 21:0.251264750957489 22:0.0025976605247706175 23:2.814120705352252E-7 24:1.0 25:0.0 26:0.0 27:0.0 28:0.0 29:0.0 30:0.0 31:0.0 32:0.0 33:0.0 34:0.0
3.197368680760672E-5 1:1.0498220920562744 2:0.23529411852359772 3:0.05075400695204735 4:0.0 5:0.0 6:4.0 7:0.025044722482562065 8:0.042553190141916275 9:1.0 10:0.0 11:2.0 12:1.0 13:0.0 14:0.0 15:0.0 16:0.0 17:0.0 18:0.0 19:0.0 20:0.0 21:0.1768757402896881 22:0.004129534587264061 23:2.1540238321904326E-6 24:0.0 25:0.0 26:0.0 27:0.0 28:0.0 29:0.0 30:0.0 31:0.0 32:0.0 33:0.0 34:0.0
-3.197368680760672E-5 1:1.2909841537475586 2:0.2857142984867096 3:0.0 4:0.0 5:0.0 6:5.0 7:0.026854220777750015 8:0.06481481343507767 9:0.0 10:0.0 11:0.0 12:0.0 13:0.0 14:0.0 15:0.0 16:0.0 17:0.0 18:0.0 19:0.0 20:0.0 21:0.07073011249303818 22:0.009384899400174618 23:2.204699740104843E-6 24:0.0 25:0.0 26:0.0 27:0.0 28:0.0 29:0.0 30:0.0 31:0.0 32:0.0 33:0.0 34:0.0
-3.197368680760672E-5 1:0.6931471824645996 2:0.17391304671764374 3:0.0 4:0.0 5:0.0 6:0.0 7:0.005067567341029644 8:0.0 9:0.0 10:0.0 11:0.0 12:0.0 13:0.0 14:0.0 15:0.0 16:0.0 17:0.0 18:0.0 19:0.0 20:0.0 21:0.0332881361246109 22:0.007087693549692631 23:1.0063048648589756E-5 24:1.0 25:0.0 26:0.0 27:0.0 28:0.0 29:0.0 30:0.0 31:0.0 32:0.0 33:0.0 34:0.0
3.197368680760672E-5 1:1.742969274520874 2:0.6666666865348816 3:0.09235074371099472 4:0.40989434719085693 5:3.7607264518737793 6:2.0 7:0.008528784848749638 8:0.00542005430907011 9:1.0 10:0.0 11:11.0 12:1.0 13:0.0 14:0.0 15:0.0 16:0.0 17:0.0 18:0.0 19:0.0 20:0.0 21:0.21448808908462524 22:0.061040062457323074 23:1.5162488853093237E-4 24:0.0 25:0.0 26:0.0 27:0.0 28:0.0 29:1.0 30:1.0 31:1.0 32:1.0 33:1.0 34:0.0
-3.197368680760672E-5 1:0.8556661009788513 2:0.20000000298023224 3:0.043785955756902695 4:0.0 5:0.0 6:2.0 7:0.05714285746216774 8:0.024390242993831635 9:0.0 10:0.0 11:0.0 12:0.0 13:0.0 14:0.0 15:0.0 16:0.0 17:0.0 18:0.0 19:0.0 20:0.0 21:0.29358822107315063 22:8.714455179870129E-4 23:4.260682828771678E-8 24:0.0 25:0.0 26:0.0 27:0.0 28:0.0 29:0.0 30:0.0 31:0.0 32:0.0 33:0.0 34:0.0
-3.197368680760672E-5 1:0.9808292388916016 2:0.2222222238779068 3:0.0 4:0.0 5:0.0 6:2.0 7:0.016564952209591866 8:0.003838771488517523 9:0.0 10:0.0 11:0.0 12:0.0 13:0.0 14:0.0 15:0.0 16:0.0 17:0.0 18:0.0 19:0.0 20:0.0 21:0.07853545993566513 22:0.027870329096913338 23:1.3849424431100488E-4 24:0.0 25:0.0 26:0.0 27:0.0 28:0.0 29:0.0 30:0.0 31:0.0 32:0.0 33:0.0 34:0.0
-3.197368680760672E-5 1:0.8556661009788513 2:0.20000000298023224 3:0.0 4:0.0 5:0.0 6:2.0 7:0.046783626079559326 8:0.07407407462596893 9:0.0 10:0.0 11:0.0 12:0.0 13:0.0 14:0.0 15:0.0 16:0.0 17:0.0 18:0.0 19:0.0 20:0.0 21:0.08692153543233871 22:0.0024152440018951893 23:1.0402308134871419E-6 24:0.0 25:0.0 26:0.0 27:0.0 28:0.0 29:0.0 30:0.0 31:0.0 32:0.0 33:0.0 34:0.0
3.197368680760672E-5 1:0.9808292388916016 2:0.2222222238779068 3:0.0 4:0.0 5:0.0 6:0.0 7:0.02031249925494194 8:0.019607843831181526 9:1.0 10:0.0 11:11.0 12:1.0 13:1.0 14:0.0 15:0.0 16:0.0 17:0.0 18:0.0 19:0.0 20:0.0 21:0.13666532933712006 22:0.00164124951697886 23:6.699077630401007E-7 24:0.0 25:0.0 26:0.0 27:0.0 28:0.0 29:0.0 30:0.0 31:0.0 32:0.0 33:0.0 34:0.0
3.197368680760672E-5 1:1.1239300966262817 2:0.3333333432674408 3:0.054693207144737244 4:0.07855979353189468 5:0.7794168591499329 6:0.0 7:0.015306122601032257 8:0.0 9:1.0 10:0.0 11:10.0 12:1.0 13:0.0 14:0.0 15:0.0 16:0.0 17:0.0 18:0.0 19:0.0 20:0.0 21:0.37548911571502686 22:5.303175421431661E-4 23:2.7874188290866186E-8 24:1.0 25:0.0 26:0.0 27:0.0 28:1.0 29:0.0 30:0.0 31:0.0 32:0.0 33:0.0 34:0.0
-3.197368680760672E-5 1:1.2039728164672852 2:0.2666666805744171 3:0.0 4:0.0 5:0.0 6:21.0 7:0.024282168596982956 8:0.0067595248110592365 9:1.0 10:0.0 11:11.0 12:1.0 13:0.0 14:0.0 15:0.0 16:0.0 17:0.0 18:0.0 19:0.0 20:0.0 21:0.05137814208865166 22:0.020855912938714027 23:7.940254727145657E-5 24:0.0 25:0.0 26:0.0 27:0.0 28:0.0 29:0.0 30:0.0 31:0.0 32:0.0 33:0.0 34:0.0
3.197368680760672E-5 1:1.0498220920562744 2:0.380952388048172 3:0.0 4:0.0 5:1.7798171043395996 6:2.0 7:0.01068090833723545 8:0.0 9:0.0 10:0.0 11:0.0 12:0.0 13:1.0 14:0.0 15:1.0 16:0.0 17:0.0 18:0.0 19:0.0 20:0.0 21:0.39465102553367615 22:0.006688421592116356 23:1.9799173969659023E-5 24:0.0 25:0.0 26:0.0 27:0.0 28:0.0 29:0.0 30:0.0 31:0.0 32:0.0 33:0.0 34:0.0
-3.197368680760672E-5 1:1.0498220920562744 2:0.23529411852359772 3:0.0 4:0.0 5:0.0 6:9.0 7:0.014925372786819935 8:0.0078125 9:1.0 10:0.0 11:14.0 12:1.0 13:0.0 14:0.0 15:0.0 16:0.0 17:0.0 18:0.0 19:0.0 20:0.0 21:0.11751659214496613 22:0.004683149512857199 23:8.349896347681351E-7 24:0.0 25:0.0 26:0.0 27:0.0 28:0.0 29:0.0 30:0.0 31:0.0 32:0.0 33:0.0 34:0.0
3.197368680760672E-5 1:1.3862943649291992 2:0.5714285969734192 3:0.0 4:0.0 5:2.6043996810913086 6:2.0 7:0.011972634121775627 8:0.017241379246115685 9:0.0 10:0.0 11:0.0 12:0.0 13:1.0 14:0.0 15:1.0 16:0.0 17:0.0 18:0.0 19:0.0 20:0.0 21:0.04251991584897041 22:0.010452323593199253 23:6.644078530371189E-5 24:0.0 25:0.0 26:0.0 27:0.0 28:0.0 29:0.0 30:0.0 31:0.0 32:0.0 33:0.0 34:0.0
-3.197368680760672E-5 1:0.9808292388916016 2:0.30000001192092896 3:0.0 4:0.0 5:0.614363968372345 6:2.0 7:0.01151315774768591 8:0.006382978521287441 9:0.0 10:0.0 11:0.0 12:0.0 13:1.0 14:0.0 15:0.0 16:0.0 17:0.0 18:0.0 19:0.0 20:0.0 21:0.022901328280568123 22:0.00502639589831233 23:1.6578605936956592E-5 24:0.0 25:0.0 26:0.0 27:0.0 28:0.0 29:0.0 30:0.0 31:0.0 32:0.0 33:0.0 34:0.0
3.197368680760672E-5 1:0.9808292388916016 2:0.30000001192092896 3:0.0 4:0.0 5:0.7794168591499329 6:2.0 7:0.02016128972172737 8:0.04878048598766327 9:1.0 10:0.0 11:11.0 12:1.0 13:0.0 14:0.0 15:0.0 16:0.0 17:0.0 18:0.0 19:0.0 20:0.0 21:0.4118155241012573 22:6.473783869296312E-4 23:3.198885067945412E-8 24:0.0 25:0.0 26:0.0 27:0.0 28:0.0 29:0.0 30:0.0 31:0.0 32:0.0 33:0.0 34:0.0
-3.197368680760672E-5 1:1.2039728164672852 2:0.5600000023841858 3:0.0 4:0.0 5:4.100475311279297 6:3.0 7:0.01587301678955555 8:0.025423727929592133 9:1.0 10:0.0 11:7.0 12:1.0 13:1.0 14:0.0 15:0.0 16:0.0 17:0.0 18:0.0 19:0.0 20:0.0 21:0.1561441272497177 22:6.305827992036939E-4 23:8.132002449201536E-8 24:0.0 25:0.0 26:0.0 27:0.0 28:0.0 29:0.0 30:0.0 31:0.0 32:0.0 33:0.0 34:0.0
-3.197368680760672E-5 1:1.6094379425048828 2:0.6315789222717285 3:0.0794115886092186 4:0.29260584712028503 5:2.6043996810913086 6:3.0 7:0.0022727272007614374 8:0.00849256943911314 9:1.0 10:0.0 11:6.0 12:1.0 13:1.0 14:0.0 15:0.0 16:0.0 17:0.0 18:0.0 19:0.0 20:0.0 21:0.11595489829778671 22:0.009210256859660149 23:7.060922143864445E-6 24:1.0 25:0.0 26:0.0 27:0.0 28:1.0 29:1.0 30:1.0 31:1.0 32:1.0 33:1.0 34:0.0
3.197368680760672E-5 1:0.9808292388916016 2:0.30000001192092896 3:0.05700646713376045 4:0.08161132782697678 5:0.7794168591499329 6:2.0 7:0.023706896230578423 8:0.033898305147886276 9:1.0 10:0.0 11:10.0 12:1.0 13:0.0 14:0.0 15:0.0 16:0.0 17:0.0 18:0.0 19:0.0 20:0.0 21:0.3024428188800812 22:0.004337924066931009 23:3.747105665752315E-7 24:0.0 25:0.0 26:0.0 27:0.0 28:0.0 29:0.0 30:0.0 31:0.0 32:0.0 33:0.0 34:0.0
-3.197368680760672E-5 1:1.2039728164672852 2:0.2666666805744171 3:0.0 4:0.0 5:0.0 6:9.0 7:0.026520347222685814 8:0.01840490847826004 9:1.0 10:0.0 11:14.0 12:1.0 13:0.0 14:0.0 15:0.0 16:0.0 17:0.0 18:0.0 19:0.0 20:0.0 21:0.054646432399749756 22:0.0657961294054985 23:4.0514598367735744E-5 24:0.0 25:0.0 26:0.0 27:0.0 28:0.0 29:0.0 30:0.0 31:0.0 32:0.0 33:0.0 34:0.0
3.197368680760672E-5 1:1.3862943649291992 2:0.5714285969734192 3:0.08735252171754837 4:0.3721417486667633 5:3.3926680088043213 6:2.0 7:0.0390625 8:0.04411764815449715 9:0.0 10:0.0 11:0.0 12:0.0 13:1.0 14:0.0 15:0.0 16:0.0 17:0.0 18:0.0 19:0.0 20:0.0 21:0.2773202657699585 22:0.005351622123271227 23:3.7329010638131876E-7 24:1.0 25:0.0 26:0.0 27:0.0 28:1.0 29:0.0 30:1.0 31:1.0 32:1.0 33:1.0 34:0.0
3.197368680760672E-5 1:1.0498220920562744 2:0.23529411852359772 3:0.04661552980542183 4:0.0 5:0.0 6:2.0 7:0.03169013932347298 8:0.028985507786273956 9:1.0 10:0.0 11:11.0 12:1.0 13:0.0 14:0.0 15:1.0 16:0.0 17:0.0 18:0.0 19:0.0 20:0.0 21:0.023478031158447266 22:0.0016006544465199113 23:7.092116902640555E-7 24:0.0 25:0.0 26:0.0 27:0.0 28:1.0 29:1.0 30:1.0 31:0.0 32:0.0 33:1.0 34:0.0
-3.197368680760672E-5 1:1.2039728164672852 2:0.3529411852359772 3:0.0 4:0.0 5:0.7794168591499329 6:2.0 7:0.014492753893136978 8:0.029411764815449715 9:0.0 10:0.0 11:0.0 12:0.0 13:0.0 14:0.0 15:0.0 16:0.0 17:0.0 18:0.0 19:0.0 20:0.0 21:0.07924681901931763 22:0.0016613719053566456 23:3.052947477044654E-7 24:0.0 25:0.0 26:0.0 27:0.0 28:0.0 29:0.0 30:0.0 31:0.0 32:0.0 33:0.0 34:0.0
-3.197368680760672E-5 1:1.742969274520874 2:0.6666666865348816 3:0.0 4:0.0 5:2.4933841228485107 6:3.0 7:0.007055901922285557 8:0.10169491171836853 9:1.0 10:0.0 11:7.0 12:1.0 13:1.0 14:0.0 15:1.0 16:0.0 17:0.0 18:0.0 19:0.0 20:0.0 21:0.13268975913524628 22:0.001016633352264762 23:7.656700518055004E-8 24:0.0 25:0.0 26:0.0 27:0.0 28:0.0 29:0.0 30:0.0 31:0.0 32:0.0 33:0.0 34:0.0
3.197368680760672E-5 1:1.1239300966262817 2:0.3333333432674408 3:0.04857577756047249 4:0.07039140909910202 5:0.7794168591499329 6:0.0 7:0.0386904776096344 8:0.0 9:1.0 10:0.0 11:7.0 12:1.0 13:0.0 14:0.0 15:0.0 16:0.0 17:0.0 18:0.0 19:0.0 20:0.0 21:0.39116358757019043 22:6.112484261393547E-4 23:1.259424120547692E-8 24:0.0 25:0.0 26:0.0 27:0.0 28:0.0 29:0.0 30:0.0 31:0.0 32:0.0 33:0.0 34:0.0
-3.197368680760672E-5 1:0.9808292388916016 2:0.3636363744735718 3:0.054952945560216904 4:0.11386951804161072 5:1.16920006275177 6:0.0 7:0.0 8:0.0 9:1.0 10:0.0 11:4.0 12:1.0 13:0.0 14:0.0 15:1.0 16:0.0 17:0.0 18:0.0 19:0.0 20:0.0 21:0.16408878564834595 22:0.010100523009896278 23:1.5917875089144218E-6 24:1.0 25:0.0 26:0.0 27:0.0 28:1.0 29:1.0 30:1.0 31:1.0 32:1.0 33:1.0 34:0.0
3.197368680760672E-5 1:1.3862943649291992 2:0.5714285969734192 3:0.0 4:0.0 5:2.6043996810913086 6:3.0 7:0.011972634121775627 8:0.015748031437397003 9:1.0 10:0.0 11:11.0 12:1.0 13:1.0 14:0.0 15:0.0 16:0.0 17:0.0 18:0.0 19:0.0 20:0.0 21:0.046610068529844284 22:0.008462118916213512 23:3.4079122997354716E-5 24:0.0 25:0.0 26:0.0 27:0.0 28:0.0 29:0.0 30:0.0 31:0.0 32:0.0 33:0.0 34:0.0
-3.197368680760672E-5 1:0.9162907600402832 2:0.21052631735801697 3:0.0478641539812088 4:0.0 5:0.0 6:20.0 7:0.013661202043294907 8:0.02666666731238365 9:1.0 10:0.0 11:8.0 12:1.0 13:0.0 14:0.0 15:0.0 16:0.0 17:0.0 18:0.0 19:0.0 20:0.0 21:0.0031428562942892313 22:0.011929675005376339 23:7.731249206699431E-5 24:0.0 25:0.0 26:0.0 27:0.0 28:0.0 29:0.0 30:0.0 31:0.0 32:0.0 33:0.0 34:0.0
3.197368680760672E-5 1:1.3862943649291992 2:0.47058823704719543 3:0.07756832987070084 4:0.21637149155139923 5:1.7798171043395996 6:1.0 7:0.07434321194887161 8:0.03333333507180214 9:0.0 10:0.0 11:0.0 12:0.0 13:0.0 14:0.0 15:0.0 16:0.0 17:0.0 18:0.0 19:0.0 20:0.0 21:0.7114065289497375 22:7.490067509934306E-4 23:7.241179655892438E-9 24:1.0 25:0.0 26:0.0 27:0.0 28:1.0 29:1.0 30:0.0 31:1.0 32:1.0 33:1.0 34:0.0
3.197368680760672E-5 1:1.1239300966262817 2:0.3333333432674408 3:0.05795694515109062 4:0.08285929262638092 5:0.7794168591499329 6:1.0 7:0.03407880663871765 8:0.01904761977493763 9:1.0 10:0.0 11:11.0 12:1.0 13:0.0 14:0.0 15:1.0 16:0.0 17:0.0 18:0.0 19:0.0 20:0.0 21:0.3974219858646393 22:9.830571943894029E-4 23:1.0961031193801318E-7 24:1.0 25:0.0 26:0.0 27:0.0 28:0.0 29:0.0 30:0.0 31:0.0 32:0.0 33:0.0 34:0.0
-3.197368680760672E-5 1:1.0498220920562744 2:0.31578946113586426 3:0.0 4:0.0 5:0.7794168591499329 6:1.0 7:0.00800000037997961 8:0.03999999910593033 9:0.0 10:0.0 11:0.0 12:0.0 13:0.0 14:0.0 15:0.0 16:0.0 17:0.0 18:0.0 19:0.0 20:0.0 21:0.06869522482156754 22:0.0010867960518226027 23:7.439022198241219E-8 24:1.0 25:0.0 26:0.0 27:0.0 28:0.0 29:0.0 30:0.0 31:0.0 32:0.0 33:0.0 34:0.0
3.197368680760672E-5 1:1.1239300966262817 2:0.3333333432674408 3:0.0 4:0.0 5:0.614363968372345 6:1.0 7:0.020304568111896515 8:0.0 9:1.0 10:0.0 11:10.0 12:1.0 13:0.0 14:0.0 15:0.0 16:0.0 17:0.0 18:0.0 19:0.0 20:0.0 21:0.30648288130760193 22:0.001733717042952776 23:1.1900533536390867E-7 24:1.0 25:0.0 26:0.0 27:0.0 28:0.0 29:0.0 30:0.0 31:0.0 32:0.0 33:0.0 34:0.0
-3.197368680760672E-5 1:0.6443570256233215 2:0.1666666716337204 3:0.0 4:0.0 5:0.0 6:15.0 7:0.013861386105418205 8:0.026595745235681534 9:1.0 10:0.0 11:7.0 12:1.0 13:0.0 14:0.0 15:0.0 16:0.0 17:0.0 18:0.0 19:0.0 20:0.0 21:0.11497179418802261 22:0.02711876481771469 23:3.0388112645596266E-4 24:0.0 25:0.0 26:0.0 27:0.0 28:0.0 29:0.0 30:0.0 31:0.0 32:0.0 33:0.0 34:0.0
-3.197368680760672E-5 1:0.9808292388916016 2:0.30000001192092896 3:0.0 4:0.0 5:0.7794168591499329 6:1.0 7:0.006923837587237358 8:1.6688919276930392E-4 9:0.0 10:0.0 11:0.0 12:0.0 13:0.0 14:0.0 15:0.0 16:0.0 17:0.0 18:0.0 19:0.0 20:0.0 21:0.00814784038811922 22:0.029937725514173508 23:1.0521980584599078E-4 24:1.0 25:0.0 26:0.0 27:0.0 28:0.0 29:0.0 30:0.0 31:0.0 32:0.0 33:0.0 34:0.0
3.197368680760672E-5 1:0.7985076904296875 2:0.260869562625885 3:0.045511048287153244 4:0.06624449789524078 5:0.7794168591499329 6:1.0 7:0.0016217969823628664 8:0.01666666753590107 9:1.0 10:0.0 11:10.0 12:1.0 13:0.0 14:0.0 15:1.0 16:0.0 17:0.0 18:0.0 19:0.0 20:0.0 21:0.33311063051223755 22:7.201084517873824E-4 23:2.9008967672439212E-8 24:0.0 25:0.0 26:0.0 27:0.0 28:0.0 29:0.0 30:0.0 31:0.0 32:0.0 33:0.0 34:0.0
-3.197368680760672E-5 1:1.2909841537475586 2:0.2857142984867096 3:0.05677745118737221 4:0.0 5:0.0 6:5.0 7:0.017787734046578407 8:0.016393441706895828 9:0.0 10:0.0 11:0.0 12:0.0 13:0.0 14:0.0 15:0.0 16:0.0 17:0.0 18:0.0 19:0.0 20:0.0 21:0.13413141667842865 22:0.0026037010829895735 23:4.6599518555012764E-7 24:0.0 25:0.0 26:0.0 27:0.0 28:0.0 29:0.0 30:0.0 31:0.0 32:0.0 33:0.0 34:0.0
-3.197368680760672E-5 1:1.0498220920562744 2:0.31578946113586426 3:0.0 4:0.0 5:0.7794168591499329 6:0.0 7:0.008771929889917374 8:0.0 9:0.0 10:0.0 11:0.0 12:0.0 13:0.0 14:0.0 15:0.0 16:0.0 17:0.0 18:0.0 19:0.0 20:0.0 21:0.39844873547554016 22:5.294836009852588E-4 23:1.3139811905205079E-8 24:1.0 25:0.0 26:0.0 27:0.0 28:0.0 29:0.0 30:0.0 31:0.0 32:0.0 33:0.0 34:0.0
3.197368680760672E-5 1:1.2039728164672852 2:0.2666666805744171 3:0.05254388600587845 4:0.0 5:0.0 6:4.0 7:0.04184100404381752 8:0.036496348679065704 9:1.0 10:0.0 11:11.0 12:1.0 13:0.0 14:0.0 15:0.0 16:0.0 17:0.0 18:0.0 19:0.0 20:0.0 21:0.28116580843925476 22:0.02478082664310932 23:2.8477983505581506E-5 24:0.0 25:0.0 26:0.0 27:0.0 28:1.0 29:0.0 30:1.0 31:0.0 32:1.0 33:1.0 34:0.0
-3.197368680760672E-5 1:1.1239300966262817 2:0.3333333432674408 3:0.0 4:0.0 5:0.7794168591499329 6:2.0 7:0.003952569328248501 8:0.019999999552965164 9:1.0 10:0.0 11:14.0 12:1.0 13:0.0 14:0.0 15:0.0 16:0.0 17:0.0 18:0.0 19:0.0 20:0.0 21:0.15857186913490295 22:5.204686895012856E-4 23:2.240438945477763E-8 24:0.0 25:0.0 26:0.0 27:0.0 28:0.0 29:0.0 30:0.0 31:0.0 32:0.0 33:0.0 34:0.0
3.197368680760672E-5 1:1.1239300966262817 2:0.3333333432674408 3:0.0 4:0.0 5:0.7794168591499329 6:0.0 7:0.10370370000600815 8:0.020408162847161293 9:1.0 10:0.0 11:3.0 12:1.0 13:0.0 14:0.0 15:0.0 16:0.0 17:0.0 18:0.0 19:0.0 20:0.0 21:0.7478422522544861 22:3.461677406448871E-4 23:3.2715474773681308E-9 24:1.0 25:0.0 26:0.0 27:0.0 28:0.0 29:0.0 30:0.0 31:0.0 32:0.0 33:0.0 34:0.0
3.197368680760672E-5 1:1.1239300966262817 2:0.3333333432674408 3:0.051525842398405075 4:0.07434853166341782 5:0.7794168591499329 6:1.0 7:0.02994011901319027 8:0.024193547666072845 9:1.0 10:0.0 11:9.0 12:1.0 13:0.0 14:0.0 15:0.0 16:0.0 17:0.0 18:0.0 19:0.0 20:0.0 21:0.576512336730957 22:0.0013080475619062781 23:4.5688534555665683E-7 24:0.0 25:0.0 26:0.0 27:0.0 28:0.0 29:0.0 30:0.0 31:0.0 32:0.0 33:0.0 34:0.0
-3.197368680760672E-5 1:1.491654872894287 2:0.5 3:0.05187061429023743 4:0.1558619886636734 5:1.7798171043395996 6:1.0 7:0.06953642517328262 8:0.03125 9:1.0 10:0.0 11:11.0 12:1.0 13:0.0 14:0.0 15:0.0 16:0.0 17:0.0 18:0.0 19:0.0 20:0.0 21:0.5222466588020325 22:9.311895701102912E-5 23:7.612759866937324E-10 24:1.0 25:0.0 26:0.0 27:0.0 28:1.0 29:0.0 30:0.0 31:0.0 32:0.0 33:0.0 34:0.0
3.197368680760672E-5 1:0.9162907600402832 2:0.2857142984867096 3:0.0 4:0.0 5:0.7794168591499329 6:0.0 7:0.0 8:0.0 9:1.0 10:0.0 11:5.0 12:1.0 13:0.0 14:0.0 15:0.0 16:0.0 17:0.0 18:0.0 19:0.0 20:0.0 21:0.19729205965995789 22:0.0010083523811772466 23:1.4958024507905066E-7 24:1.0 25:0.0 26:0.0 27:0.0 28:0.0 29:0.0 30:0.0 31:0.0 32:0.0 33:0.0 34:0.0
-3.197368680760672E-5 1:1.1239300966262817 2:0.4000000059604645 3:0.0 4:0.0 5:1.7798171043395996 6:2.0 7:0.01304347813129425 8:0.030612245202064514 9:1.0 10:0.0 11:4.0 12:1.0 13:0.0 14:0.0 15:1.0 16:0.0 17:0.0 18:0.0 19:0.0 20:0.0 21:0.038781940937042236 22:0.0028239726088941097 23:5.001621047995286E-6 24:1.0 25:0.0 26:0.0 27:0.0 28:0.0 29:0.0 30:0.0 31:0.0 32:0.0 33:0.0 34:0.0
-3.197368680760672E-5 1:2.079441547393799 2:0.800000011920929 3:0.0 4:0.0 5:1.9033026695251465 6:2.0 7:0.0026153349317610264 8:0.09375 9:1.0 10:0.0 11:4.0 12:1.0 13:1.0 14:0.0 15:0.0 16:0.0 17:0.0 18:0.0 19:0.0 20:0.0 21:0.21586908400058746 22:3.780646657105535E-4 23:1.0608601996864309E-8 24:1.0 25:0.0 26:0.0 27:0.0 28:0.0 29:0.0 30:0.0 31:0.0 32:0.0 33:0.0 34:0.0
-3.197368680760672E-5 1:1.491654872894287 2:0.4285714328289032 3:0.06038268283009529 4:0.08602894842624664 5:0.7794168591499329 6:1.0 7:0.04702194407582283 8:0.013513513840734959 9:1.0 10:0.0 11:4.0 12:1.0 13:0.0 14:0.0 15:0.0 16:0.0 17:0.0 18:0.0 19:0.0 20:0.0 21:0.5824902057647705 22:0.003692345693707466 23:2.1865297128442762E-7 24:1.0 25:0.0 26:0.0 27:0.0 28:1.0 29:1.0 30:1.0 31:1.0 32:1.0 33:1.0 34:0.0
3.197368680760672E-5 1:1.0498220920562744 2:0.23529411852359772 3:0.0 4:0.0 5:0.0 6:1.0 7:0.0021121802274137735 8:0.0 9:1.0 10:0.0 11:8.0 12:1.0 13:0.0 14:0.0 15:0.0 16:0.0 17:0.0 18:0.0 19:0.0 20:0.0 21:0.08623693883419037 22:0.0020987619645893574 23:4.5308260609999707E-7 24:0.0 25:0.0 26:0.0 27:0.0 28:0.0 29:1.0 30:1.0 31:1.0 32:1.0 33:1.0 34:0.0
3.197368680760672E-5 1:1.1239300966262817 2:0.3333333432674408 3:0.0 4:0.0 5:0.614363968372345 6:0.0 7:0.0 8:0.0 9:1.0 10:0.0 11:8.0 12:1.0 13:0.0 14:0.0 15:0.0 16:0.0 17:0.0 18:0.0 19:0.0 20:0.0 21:0.7934174537658691 22:7.464388036169112E-4 23:4.0115086363812225E-8 24:0.0 25:0.0 26:0.0 27:0.0 28:0.0 29:0.0 30:1.0 31:0.0 32:1.0 33:1.0 34:0.0
3.197368680760672E-5 1:1.6094379425048828 2:0.4615384638309479 3:0.0 4:0.0 5:0.614363968372345 6:1.0 7:0.08461538702249527 8:0.015625 9:1.0 10:0.0 11:9.0 12:1.0 13:0.0 14:0.0 15:0.0 16:0.0 17:0.0 18:0.0 19:0.0 20:0.0 21:0.5012571811676025 22:4.907891852781177E-4 23:5.801626290491413E-9 24:1.0 25:0.0 26:0.0 27:0.0 28:0.0 29:0.0 30:0.0 31:0.0 32:0.0 33:0.0 34:0.0
-3.197368680760672E-5 1:1.2039728164672852 2:0.2666666805744171 3:0.052220702171325684 4:0.0 5:0.0 6:5.0 7:0.025691986083984375 8:0.05737704783678055 9:1.0 10:0.0 11:7.0 12:1.0 13:0.0 14:0.0 15:0.0 16:0.0 17:0.0 18:0.0 19:0.0 20:0.0 21:0.018552390858530998 22:0.004662127234041691 23:1.07284195109969E-5 24:0.0 25:0.0 26:0.0 27:0.0 28:0.0 29:0.0 30:0.0 31:0.0 32:0.0 33:0.0 34:0.0
3.197368680760672E-5 1:2.079441547393799 2:0.75 3:0.0 4:0.0 5:6.423425674438477 6:2.0 7:0.11003860831260681 8:0.0810810774564743 9:0.0 10:0.0 11:0.0 12:0.0 13:0.0 14:0.0 15:0.0 16:0.0 17:0.0 18:0.0 19:0.0 20:0.0 21:0.37283575534820557 22:3.0413083732128143E-4 23:3.198371345547457E-9 24:1.0 25:0.0 26:0.0 27:0.0 28:0.0 29:0.0 30:0.0 31:0.0 32:0.0 33:0.0 34:0.0
-3.197368680760672E-5 1:1.2039728164672852 2:0.3529411852359772 3:0.0 4:0.0 5:0.7794168591499329 6:0.0 7:0.014285714365541935 8:0.0 9:0.0 10:0.0 11:0.0 12:0.0 13:0.0 14:0.0 15:0.0 16:0.0 17:0.0 18:0.0 19:0.0 20:0.0 21:0.13870078325271606 22:0.0011689735110849142 23:5.6351840527213426E-8 24:1.0 25:0.0 26:0.0 27:0.0 28:0.0 29:0.0 30:0.0 31:0.0 32:0.0 33:0.0 34:0.0
3.197368680760672E-5 1:1.3862943649291992 2:0.3076923191547394 3:0.0 4:0.0 5:0.0 6:8.0 7:0.05725653097033501 8:0.04494382068514824 9:1.0 10:0.0 11:11.0 12:1.0 13:0.0 14:0.0 15:0.0 16:0.0 17:0.0 18:0.0 19:0.0 20:0.0 21:0.203735813498497 22:0.011188182048499584 23:1.0537101843510754E-5 24:1.0 25:0.0 26:0.0 27:0.0 28:0.0 29:0.0 30:0.0 31:0.0 32:0.0 33:0.0 34:0.0
-3.197368680760672E-5 1:1.3862943649291992 2:0.47058823704719543 3:0.0 4:0.0 5:3.0717601776123047 6:1.0 7:0.03014492802321911 8:0.015625 9:1.0 10:0.0 11:12.0 12:1.0 13:1.0 14:0.0 15:0.0 16:0.0 17:0.0 18:0.0 19:0.0 20:0.0 21:0.2381083071231842 22:6.33107265457511E-4 23:4.13122158704482E-8 24:0.0 25:0.0 26:0.0 27:0.0 28:0.0 29:0.0 30:0.0 31:0.0 32:0.0 33:0.0 34:0.0
3.197368680760672E-5 1:1.0498220920562744 2:0.31578946113586426 3:0.049551740288734436 4:0.07170426845550537 5:0.7794168591499329 6:0.0 7:0.010526316240429878 8:0.01666666753590107 9:1.0 10:0.0 11:6.0 12:1.0 13:0.0 14:0.0 15:0.0 16:0.0 17:0.0 18:0.0 19:0.0 20:0.0 21:0.5135962963104248 22:9.530501556582749E-4 23:6.48005311632005E-8 24:0.0 25:0.0 26:0.0 27:0.0 28:0.0 29:0.0 30:0.0 31:0.0 32:0.0 33:0.0 34:0.0
-3.197368680760672E-5 1:1.3862943649291992 2:0.6399999856948853 3:0.0 4:0.0 5:4.594871520996094 6:2.0 7:0.027465667575597763 8:0.06896551698446274 9:1.0 10:0.0 11:6.0 12:1.0 13:1.0 14:0.0 15:0.0 16:0.0 17:0.0 18:0.0 19:0.0 20:0.0 21:0.2340058535337448 22:5.173207609914243E-4 23:1.423438256153986E-8 24:0.0 25:0.0 26:0.0 27:0.0 28:0.0 29:0.0 30:0.0 31:0.0 32:0.0 33:0.0 34:0.0
3.197368680760672E-5 1:0.9808292388916016 2:0.30000001192092896 3:0.053206682205200195 4:0.07658811658620834 5:0.7794168591499329 6:0.0 7:0.0 8:0.0 9:1.0 10:0.0 11:7.0 12:1.0 13:0.0 14:0.0 15:0.0 16:0.0 17:0.0 18:0.0 19:0.0 20:0.0 21:0.5370346903800964 22:5.763970548287034E-4 23:4.457295865734068E-9 24:0.0 25:0.0 26:0.0 27:0.0 28:0.0 29:0.0 30:0.0 31:0.0 32:0.0 33:0.0 34:0.0
-3.197368680760672E-5 1:1.2039728164672852 2:0.42105263471603394 3:0.0500703863799572 4:0.15127089619636536 5:1.7798171043395996 6:2.0 7:0.0810810774564743 8:0.06666667014360428 9:1.0 10:0.0 11:7.0 12:1.0 13:0.0 14:0.0 15:1.0 16:0.0 17:0.0 18:0.0 19:0.0 20:0.0 21:0.39525479078292847 22:6.014861864969134E-4 23:1.5898915961543025E-8 24:0.0 25:0.0 26:0.0 27:0.0 28:1.0 29:0.0 30:0.0 31:0.0 32:1.0 33:0.0 34:0.0
3.197368680760672E-5 1:1.0498220920562744 2:0.380952388048172 3:0.0 4:0.0 5:1.7798171043395996 6:0.0 7:0.03821656107902527 8:0.0 9:1.0 10:0.0 11:7.0 12:1.0 13:0.0 14:0.0 15:0.0 16:0.0 17:0.0 18:0.0 19:0.0 20:0.0 21:0.04561815410852432 22:0.00773181626573205 23:2.041156403720379E-5 24:0.0 25:0.0 26:0.0 27:0.0 28:0.0 29:0.0 30:0.0 31:0.0 32:0.0 33:0.0 34:0.0
-3.197368680760672E-5 1:1.491654872894287 2:0.4285714328289032 3:0.0 4:0.0 5:0.7794168591499329 6:0.0 7:0.0182717926800251 8:0.02500000037252903 9:1.0 10:0.0 11:6.0 12:1.0 13:0.0 14:0.0 15:1.0 16:0.0 17:0.0 18:0.0 19:0.0 20:0.0 21:0.25794047117233276 22:0.001913682441227138 23:7.837416404754549E-8 24:1.0 25:0.0 26:0.0 27:0.0 28:0.0 29:1.0 30:1.0 31:1.0 32:1.0 33:1.0 34:0.0
3.197368680760672E-5 1:2.079441547393799 2:0.800000011920929 3:0.0 4:0.0 5:1.9033026695251465 6:0.0 7:8.840926457196474E-4 8:0.0 9:1.0 10:0.0 11:7.0 12:1.0 13:1.0 14:0.0 15:0.0 16:0.0 17:0.0 18:0.0 19:0.0 20:0.0 21:0.12779298424720764 22:9.083423647098243E-4 23:7.322198314341222E-8 24:0.0 25:0.0 26:0.0 27:0.0 28:0.0 29:0.0 30:0.0 31:0.0 32:0.0 33:0.0 34:0.0
3.197368680760672E-5 1:1.3862943649291992 2:0.47058823704719543 3:0.08897202461957932 4:0.29910802841186523 5:2.398244857788086 6:3.0 7:0.12326043844223022 8:0.09333333373069763 9:0.0 10:0.0 11:0.0 12:0.0 13:0.0 14:0.0 15:1.0 16:0.0 17:0.0 18:0.0 19:0.0 20:0.0 21:0.2724193036556244 22:0.0025589766446501017 23:4.7650462420278927E-7 24:1.0 25:0.0 26:0.0 27:0.0 28:1.0 29:1.0 30:1.0 31:1.0 32:1.0 33:1.0 34:0.0
-3.197368680760672E-5 1:1.491654872894287 2:0.4285714328289032 3:0.0 4:0.0 5:0.7794168591499329 6:1.0 7:0.02001819759607315 8:0.01666666753590107 9:0.0 10:0.0 11:0.0 12:0.0 13:0.0 14:0.0 15:0.0 16:0.0 17:0.0 18:0.0 19:0.0 20:0.0 21:0.15926921367645264 22:0.001401432789862156 23:9.304282855282509E-8 24:0.0 25:0.0 26:0.0 27:0.0 28:0.0 29:0.0 30:0.0 31:0.0 32:0.0 33:0.0 34:0.0
-3.197368680760672E-5 1:1.0498220920562744 2:0.23529411852359772 3:0.045156460255384445 4:0.0 5:0.0 6:1.0 7:0.057205721735954285 8:0.017543859779834747 9:0.0 10:0.0 11:0.0 12:0.0 13:0.0 14:0.0 15:0.0 16:0.0 17:0.0 18:0.0 19:0.0 20:0.0 21:0.2214004248380661 22:0.001623468124307692 23:1.6584006345965463E-7 24:0.0 25:0.0 26:0.0 27:0.0 28:0.0 29:0.0 30:0.0 31:0.0 32:0.0 33:0.0 34:0.0
3.197368680760672E-5 1:1.491654872894287 2:0.6000000238418579 3:0.0 4:0.0 5:2.6043996810913086 6:3.0 7:0.02664446271955967 8:0.02298850566148758 9:1.0 10:0.0 11:11.0 12:1.0 13:1.0 14:0.0 15:0.0 16:0.0 17:0.0 18:0.0 19:0.0 20:0.0 21:0.24460063874721527 22:0.007104589603841305 23:3.3984342735493556E-5 24:0.0 25:0.0 26:0.0 27:0.0 28:0.0 29:0.0 30:0.0 31:0.0 32:0.0 33:0.0 34:0.0
3.197368680760672E-5 1:1.3862943649291992 2:0.4000000059604645 3:0.06496275961399078 4:0.09195428341627121 5:0.7794168591499329 6:2.0 7:0.1884920597076416 8:0.07999999821186066 9:1.0 10:0.0 11:12.0 12:1.0 13:0.0 14:0.0 15:1.0 16:0.0 17:0.0 18:0.0 19:0.0 20:0.0 21:0.6961157321929932 22:2.4588475935161114E-4 23:1.6295133020705066E-9 24:1.0 25:0.0 26:0.0 27:0.0 28:1.0 29:1.0 30:0.0 31:1.0 32:1.0 33:1.0 34:0.0
3.197368680760672E-5 1:1.491654872894287 2:0.4285714328289032 3:0.06926203519105911 4:0.09744685143232346 5:0.7794168591499329 6:4.0 7:0.06650245934724808 8:0.07865168899297714 9:1.0 10:0.0 11:12.0 12:1.0 13:0.0 14:0.0 15:1.0 16:0.0 17:0.0 18:0.0 19:0.0 20:0.0 21:0.6160438060760498 22:6.5992446616292E-4 23:8.523842964791584E-9 24:1.0 25:0.0 26:0.0 27:0.0 28:1.0 29:1.0 30:1.0 31:1.0 32:1.0 33:1.0 34:0.0
-3.197368680760672E-5 1:1.2039728164672852 2:0.2666666805744171 3:0.0 4:0.0 5:0.0 6:14.0 7:0.06766917556524277 8:0.05936073139309883 9:1.0 10:0.0 11:14.0 12:1.0 13:0.0 14:0.0 15:0.0 16:0.0 17:0.0 18:0.0 19:0.0 20:0.0 21:0.5152660012245178 22:0.01108334120362997 23:1.5229001064653858E-6 24:0.0 25:0.0 26:0.0 27:0.0 28:0.0 29:0.0 30:0.0 31:0.0 32:0.0 33:0.0 34:0.0
-3.197368680760672E-5 1:0.744440495967865 2:0.1818181872367859 3:0.04632715880870819 4:0.0 5:0.0 6:11.0 7:0.016183411702513695 8:0.02309468761086464 9:1.0 10:0.0 11:6.0 12:1.0 13:0.0 14:0.0 15:0.0 16:0.0 17:0.0 18:0.0 19:0.0 20:0.0 21:0.05374441668391228 22:0.0056024412624537945 23:5.3289818424673285E-6 24:1.0 25:0.0 26:0.0 27:0.0 28:0.0 29:0.0 30:0.0 31:0.0 32:0.0 33:0.0 34:0.0
3.197368680760672E-5 1:2.079441547393799 2:0.75 3:0.09943734109401703 4:0.40288373827934265 5:3.3926680088043213 6:2.0 7:0.11419752985239029 8:0.013513513840734959 9:0.0 10:0.0 11:0.0 12:0.0 13:1.0 14:0.0 15:0.0 16:0.0 17:0.0 18:0.0 19:0.0 20:0.0 21:0.5453256964683533 22:0.005290252156555653 23:8.658353181090206E-7 24:1.0 25:0.0 26:0.0 27:0.0 28:0.0 29:1.0 30:1.0 31:1.0 32:1.0 33:1.0 34:0.0
-3.197368680760672E-5 1:0.8556661009788513 2:0.20000000298023224 3:0.04249619320034981 4:0.0 5:0.0 6:6.0 7:0.0445544570684433 8:0.0793650820851326 9:1.0 10:0.0 11:8.0 12:1.0 13:0.0 14:0.0 15:0.0 16:0.0 17:0.0 18:0.0 19:0.0 20:0.0 21:0.12114344537258148 22:0.002005994785577059 23:5.458625196297362E-7 24:0.0 25:0.0 26:0.0 27:0.0 28:0.0 29:0.0 30:0.0 31:0.0 32:0.0 33:0.0 34:0.0
3.197368680760672E-5 1:1.2039728164672852 2:0.3529411852359772 3:0.06608917564153671 4:0.09339980036020279 5:0.7794168591499329 6:4.0 7:0.0595681294798851 8:0.043478261679410934 9:0.0 10:0.0 11:0.0 12:0.0 13:0.0 14:0.0 15:1.0 16:0.0 17:0.0 18:0.0 19:0.0 20:0.0 21:0.6783812046051025 22:6.528649246320128E-4 23:7.308596838839776E-9 24:1.0 25:0.0 26:0.0 27:0.0 28:1.0 29:1.0 30:0.0 31:1.0 32:1.0 33:1.0 34:0.0
-3.197368680760672E-5 1:1.0498220920562744 2:0.31578946113586426 3:0.05650988221168518 4:0.08095795661211014 5:0.7794168591499329 6:0.0 7:0.02715466357767582 8:0.0 9:1.0 10:0.0 11:3.0 12:1.0 13:0.0 14:0.0 15:0.0 16:0.0 17:0.0 18:0.0 19:0.0 20:0.0 21:0.23545943200588226 22:6.343982531689107E-4 23:6.881239045242182E-8 24:1.0 25:0.0 26:0.0 27:0.0 28:1.0 29:1.0 30:1.0 31:1.0 32:1.0 33:1.0 34:0.0
-3.197368680760672E-5 1:1.491654872894287 2:0.5 3:0.0 4:0.0 5:3.0717601776123047 6:0.0 7:0.0036231884732842445 8:0.0 9:1.0 10:0.0 11:5.0 12:1.0 13:1.0 14:0.0 15:1.0 16:0.0 17:0.0 18:0.0 19:0.0 20:0.0 21:0.17655380070209503 22:0.0010054862359538674 23:1.3139340637735586E-7 24:1.0 25:0.0 26:0.0 27:0.0 28:0.0 29:0.0 30:0.0 31:0.0 32:0.0 33:0.0 34:0.0
3.197368680754782E-5 1:1.2909841537475586 2:0.375 3:0.0 4:0.0 5:0.614363968372345 6:0.0 7:0.007107320707291365 8:0.0 9:1.0 10:0.0 11:6.0 12:1.0 13:0.0 14:0.0 15:0.0 16:0.0 17:0.0 18:0.0 19:0.0 20:0.0 21:0.5679823756217957 22:7.322162855416536E-4 23:1.2456727205290008E-8 24:0.0 25:0.0 26:0.0 27:0.0 28:0.0 29:0.0 30:0.0 31:0.0 32:0.0 33:0.0 34:0.0
3.197368680760672E-5 1:1.0498220920562744 2:0.23529411852359772 3:0.045156460255384445 4:0.0 5:0.0 6:1.0 7:0.009803921915590763 8:0.0 9:1.0 10:0.0 11:6.0 12:1.0 13:0.0 14:0.0 15:0.0 16:0.0 17:0.0 18:0.0 19:0.0 20:0.0 21:0.4195779860019684 22:0.0019649576861411333 23:9.581435733707622E-8 24:1.0 25:0.0 26:0.0 27:0.0 28:0.0 29:0.0 30:0.0 31:0.0 32:0.0 33:0.0 34:0.0
3.197368680760672E-5 1:0.9808292388916016 2:0.3636363744735718 3:0.0 4:0.0 5:1.7798171043395996 6:0.0 7:0.002785515272989869 8:0.0 9:1.0 10:0.0 11:4.0 12:1.0 13:0.0 14:0.0 15:0.0 16:0.0 17:0.0 18:0.0 19:0.0 20:0.0 21:0.020205389708280563 22:0.003859105985611677 23:1.326257006439846E-6 24:1.0 25:0.0 26:0.0 27:0.0 28:0.0 29:0.0 30:0.0 31:0.0 32:0.0 33:0.0 34:0.0
3.197368680760672E-5 1:1.742969274520874 2:0.5714285969734192 3:0.0602262057363987 4:0.184214249253273 5:1.8746992349624634 6:0.0 7:0.0659824013710022 8:0.0 9:1.0 10:0.0 11:9.0 12:1.0 13:1.0 14:0.0 15:0.0 16:0.0 17:0.0 18:0.0 19:0.0 20:0.0 21:0.19757917523384094 22:0.0012702661333605647 23:3.9290878817155317E-7 24:1.0 25:0.0 26:0.0 27:0.0 28:0.0 29:0.0 30:0.0 31:0.0 32:0.0 33:0.0 34:0.0
3.197368680760672E-5 1:1.1239300966262817 2:0.3333333432674408 3:0.05083857849240303 4:0.0734296664595604 5:0.7794168591499329 6:5.0 7:0.015306122601032257 8:0.03750000149011612 9:1.0 10:0.0 11:10.0 12:1.0 13:0.0 14:0.0 15:0.0 16:0.0 17:0.0 18:0.0 19:0.0 20:0.0 21:0.4030863344669342 22:5.195157136768103E-4 23:2.4781098062476303E-8 24:0.0 25:0.0 26:0.0 27:0.0 28:0.0 29:0.0 30:0.0 31:0.0 32:0.0 33:0.0 34:0.0
3.197368680760672E-5 1:0.9808292388916016 2:0.30000001192092896 3:0.0 4:0.0 5:0.7794168591499329 6:3.0 7:0.01708633080124855 8:0.06451612710952759 9:1.0 10:0.0 11:10.0 12:1.0 13:0.0 14:0.0 15:1.0 16:0.0 17:0.0 18:0.0 19:0.0 20:0.0 21:0.33665725588798523 22:7.914653979241848E-4 23:6.627841742101737E-8 24:1.0 25:0.0 26:0.0 27:0.0 28:0.0 29:0.0 30:0.0 31:0.0 32:0.0 33:0.0 34:0.0
-3.197368680760672E-5 1:2.079441547393799 2:0.800000011920929 3:0.0 4:0.0 5:9.280853271484375 6:5.0 7:0.030405405908823013 8:0.036363635212183 9:1.0 10:0.0 11:20.0 12:1.0 13:1.0 14:0.0 15:0.0 16:0.0 17:0.0 18:0.0 19:0.0 20:0.0 21:0.7716230154037476 22:7.157062646001577E-4 23:2.9464841233561856E-8 24:0.0 25:0.0 26:0.0 27:0.0 28:0.0 29:0.0 30:0.0 31:0.0 32:0.0 33:0.0 34:0.0
-3.197368680760672E-5 1:1.0498220920562744 2:0.31578946113586426 3:0.05083857849240303 4:0.0734296664595604 5:0.7794168591499329 6:3024.0 7:0.06521739065647125 8:0.018518518656492233 9:1.0 10:0.0 11:2.0 12:1.0 13:0.0 14:0.0 15:0.0 16:0.0 17:0.0 18:0.0 19:0.0 20:0.0 21:0.39562660455703735 22:0.0017257806612178683 23:7.39384447001612E-8 24:1.0 25:0.0 26:0.0 27:0.0 28:0.0 29:0.0 30:0.0 31:0.0 32:0.0 33:0.0 34:0.0
3.197368680760672E-5 1:1.742969274520874 2:0.6666666865348816 3:0.0 4:0.0 5:2.4933841228485107 6:0.0 7:0.06921444088220596 8:0.0 9:1.0 10:0.0 11:3.0 12:1.0 13:1.0 14:0.0 15:0.0 16:0.0 17:0.0 18:0.0 19:0.0 20:0.0 21:0.15060849487781525 22:0.0013673135545104742 23:1.6474469077820686E-7 24:1.0 25:0.0 26:0.0 27:0.0 28:0.0 29:0.0 30:0.0 31:0.0 32:0.0 33:0.0 34:0.0
-3.197368680760672E-5 1:1.0498220920562744 2:0.31578946113586426 3:0.0 4:0.0 5:0.7794168591499329 6:3.0 7:0.021684737876057625 8:0.013888888992369175 9:1.0 10:0.0 11:11.0 12:1.0 13:0.0 14:0.0 15:0.0 16:0.0 17:0.0 18:0.0 19:0.0 20:0.0 21:0.09965044260025024 22:9.602531790733337E-4 23:9.984798765572123E-8 24:0.0 25:0.0 26:0.0 27:0.0 28:0.0 29:0.0 30:0.0 31:0.0 32:0.0 33:0.0 34:0.0
3.197368680760672E-5 1:1.6094379425048828 2:0.5882353186607361 3:0.06651467829942703 4:0.2306896597146988 5:2.2541303634643555 6:0.0 7:0.018372703343629837 8:0.0181818176060915 9:1.0 10:0.0 11:4.0 12:1.0 13:0.0 14:0.0 15:0.0 16:0.0 17:0.0 18:0.0 19:0.0 20:0.0 21:0.24620984494686127 22:0.00527202757075429 23:2.851574208762031E-6 24:0.0 25:0.0 26:0.0 27:0.0 28:0.0 29:0.0 30:0.0 31:0.0 32:0.0 33:0.0 34:0.0
-3.197368680760672E-5 1:1.2039728164672852 2:0.3529411852359772 3:0.0 4:0.0 5:0.7794168591499329 6:0.0 7:0.05314009636640549 8:0.023255813866853714 9:1.0 10:0.0 11:11.0 12:1.0 13:0.0 14:0.0 15:0.0 16:0.0 17:0.0 18:0.0 19:0.0 20:0.0 21:0.11192953586578369 22:7.966599077917635E-4 23:7.704660731633339E-8 24:1.0 25:0.0 26:0.0 27:0.0 28:0.0 29:1.0 30:1.0 31:1.0 32:1.0 33:1.0 34:0.0
3.197368680760672E-5 1:1.1239300966262817 2:0.3333333432674408 3:0.054379843175411224 4:0.0781448557972908 5:0.7794168591499329 6:1.0 7:0.004376367665827274 8:0.0036630036775022745 9:1.0 10:0.0 11:5.0 12:1.0 13:0.0 14:0.0 15:0.0 16:0.0 17:0.0 18:0.0 19:0.0 20:0.0 21:0.5673283934593201 22:0.0030223210342228413 23:1.1563885493615089E-7 24:0.0 25:0.0 26:0.0 27:0.0 28:0.0 29:0.0 30:0.0 31:0.0 32:0.0 33:0.0 34:0.0
-3.197368680760672E-5 1:1.742969274520874 2:0.6666666865348816 3:0.0 4:0.0 5:4.079597473144531 6:0.0 7:0.031088082119822502 8:0.0 9:1.0 10:0.0 11:10.0 12:1.0 13:1.0 14:0.0 15:0.0 16:0.0 17:0.0 18:0.0 19:0.0 20:0.0 21:0.0929688960313797 22:0.0010477731702849269 23:5.892444931987484E-8 24:0.0 25:0.0 26:0.0 27:0.0 28:0.0 29:0.0 30:0.0 31:0.0 32:0.0 33:0.0 34:0.0
-3.197368680760672E-5 1:1.0498220920562744 2:0.31578946113586426 3:0.05269549787044525 4:0.07590815424919128 5:0.7794168591499329 6:12.0 7:0.009523809887468815 8:0.02880658395588398 9:1.0 10:0.0 11:5.0 12:1.0 13:0.0 14:0.0 15:0.0 16:0.0 17:0.0 18:0.0 19:0.0 20:0.0 21:0.08615908026695251 22:0.036979060620069504 23:2.0398797641973943E-4 24:0.0 25:0.0 26:0.0 27:0.0 28:0.0 29:0.0 30:0.0 31:0.0 32:0.0 33:0.0 34:0.0
3.197368680760672E-5 1:0.8556661009788513 2:0.20000000298023224 3:0.0 4:0.0 5:0.0 6:6.0 7:0.050847455859184265 8:0.07017543911933899 9:1.0 10:0.0 11:6.0 12:1.0 13:0.0 14:0.0 15:0.0 16:0.0 17:0.0 18:0.0 19:0.0 20:0.0 21:0.14335735142230988 22:0.0015218983171507716 23:3.7113480289008294E-7 24:0.0 25:0.0 26:0.0 27:0.0 28:0.0 29:0.0 30:0.0 31:0.0 32:0.0 33:0.0 34:0.0
-3.197368680760672E-5 1:1.6094379425048828 2:0.4615384638309479 3:0.054693207144737244 4:0.07855979353189468 5:0.7794168591499329 6:24.0 7:0.018033109605312347 8:0.1171548143029213 9:1.0 10:0.0 11:15.0 12:1.0 13:0.0 14:0.0 15:1.0 16:0.0 17:0.0 18:0.0 19:0.0 20:0.0 21:0.394762247800827 22:6.518690497614443E-4 23:9.596708316905733E-9 24:0.0 25:0.0 26:0.0 27:0.0 28:0.0 29:1.0 30:1.0 31:1.0 32:1.0 33:1.0 34:0.0
3.197368680760672E-5 1:1.6094379425048828 2:0.5882353186607361 3:0.0 4:0.0 5:3.5266945362091064 6:0.0 7:0.011538461782038212 8:0.021276595070958138 9:1.0 10:0.0 11:9.0 12:1.0 13:1.0 14:0.0 15:0.0 16:0.0 17:0.0 18:0.0 19:0.0 20:0.0 21:0.15860746800899506 22:0.005727419164031744 23:1.2050769555571605E-6 24:1.0 25:0.0 26:0.0 27:0.0 28:0.0 29:0.0 30:0.0 31:0.0 32:0.0 33:0.0 34:0.0
-3.197368680760672E-5 1:1.2039728164672852 2:0.3529411852359772 3:0.05935168266296387 4:0.08468444645404816 5:0.7794168591499329 6:1.0 7:0.018518518656492233 8:0.0 9:1.0 10:0.0 11:3.0 12:1.0 13:0.0 14:0.0 15:0.0 16:0.0 17:0.0 18:0.0 19:0.0 20:0.0 21:0.2938504219055176 22:0.003313384484499693 23:8.832887488097185E-7 24:0.0 25:0.0 26:0.0 27:0.0 28:1.0 29:1.0 30:1.0 31:1.0 32:1.0 33:1.0 34:0.0
-3.197368680760672E-5 1:2.5902671813964844 2:0.8333333134651184 3:0.2616903483867645 4:0.6238487958908081 5:3.1688315868377686 6:2947.0 7:0.5379250645637512 8:0.07051140815019608 9:1.0 10:0.0 11:2.0 12:1.0 13:1.0 14:0.0 15:0.0 16:0.0 17:0.0 18:0.0 19:1.0 20:0.0 21:0.4772036373615265 22:0.016356438398361206 23:9.224388122675009E-6 24:0.0 25:0.0 26:0.0 27:0.0 28:1.0 29:1.0 30:0.0 31:0.0 32:1.0 33:0.0 34:0.0
-3.197368680760672E-5 1:1.2039728164672852 2:0.3529411852359772 3:0.0 4:0.0 5:0.7794168591499329 6:0.0 7:0.008287292905151844 8:0.024390242993831635 9:1.0 10:0.0 11:7.0 12:1.0 13:0.0 14:0.0 15:1.0 16:0.0 17:0.0 18:0.0 19:0.0 20:0.0 21:0.40477293729782104 22:6.041759043000638E-4 23:7.710226235246864E-9 24:0.0 25:0.0 26:0.0 27:0.0 28:0.0 29:1.0 30:1.0 31:1.0 32:1.0 33:1.0 34:0.0
3.197368680760672E-5 1:1.491654872894287 2:0.5555555820465088 3:0.0 4:0.0 5:5.585743427276611 6:2.0 7:0.0 8:0.0 9:1.0 10:0.0 11:5.0 12:1.0 13:1.0 14:0.0 15:0.0 16:0.0 17:0.0 18:0.0 19:0.0 20:0.0 21:0.9518821239471436 22:4.1199522092938423E-4 23:4.6260826280786205E-9 24:1.0 25:0.0 26:0.0 27:0.0 28:0.0 29:0.0 30:0.0 31:0.0 32:0.0 33:0.0 34:0.0
3.197368680760672E-5 1:1.2909841537475586 2:0.5 3:0.0 4:0.0 5:2.2541303634643555 6:0.0 7:0.0077720205299556255 8:0.0 9:1.0 10:0.0 11:7.0 12:1.0 13:0.0 14:0.0 15:0.0 16:0.0 17:0.0 18:0.0 19:0.0 20:0.0 21:0.18326815962791443 22:0.0031517203897237778 23:9.28489043872105E-7 24:0.0 25:0.0 26:0.0 27:0.0 28:0.0 29:0.0 30:0.0 31:0.0 32:0.0 33:0.0 34:0.0
3.197368680760672E-5 1:1.2909841537475586 2:0.375 3:0.05108611285686493 4:0.07376082986593246 5:0.7794168591499329 6:4.0 7:0.014492753893136978 8:0.04545454680919647 9:1.0 10:0.0 11:11.0 12:1.0 13:0.0 14:0.0 15:0.0 16:0.0 17:0.0 18:0.0 19:0.0 20:0.0 21:0.3216148614883423 22:6.546182557940483E-4 23:9.492318042703118E-9 24:0.0 25:0.0 26:0.0 27:0.0 28:1.0 29:0.0 30:1.0 31:1.0 32:1.0 33:1.0 34:0.0
-3.197368680760672E-5 1:1.8971199989318848 2:0.6666666865348816 3:0.16729570925235748 4:0.42994368076324463 5:2.2541303634643555 6:2609.0 7:0.12910877168178558 8:0.14154411852359772 9:1.0 10:0.0 11:10.0 12:1.0 13:0.0 14:0.0 15:0.0 16:0.0 17:0.0 18:0.0 19:0.0 20:0.0 21:0.2966708242893219 22:0.024279914796352386 23:6.082875552237965E-5 24:1.0 25:0.0 26:0.0 27:0.0 28:1.0 29:2.0 30:1.0 31:1.0 32:1.0 33:1.0 34:0.0
3.197368680760672E-5 1:1.1239300966262817 2:0.25 3:0.0 4:0.0 5:0.0 6:2.0 7:0.03970452398061752 8:0.019801979884505272 9:1.0 10:0.0 11:7.0 12:1.0 13:0.0 14:0.0 15:1.0 16:0.0 17:0.0 18:0.0 19:0.0 20:0.0 21:0.3849073052406311 22:0.0014986013993620872 23:1.4247031288050493E-7 24:1.0 25:0.0 26:0.0 27:0.0 28:0.0 29:0.0 30:0.0 31:0.0 32:0.0 33:0.0 34:0.0
3.197368680760672E-5 1:1.2039728164672852 2:0.42105263471603394 3:0.0 4:0.0 5:1.7798171043395996 6:0.0 7:0.0533333346247673 8:0.0 9:1.0 10:0.0 11:6.0 12:1.0 13:0.0 14:0.0 15:0.0 16:0.0 17:0.0 18:0.0 19:0.0 20:0.0 21:0.01955989934504032 22:0.004684626590460539 23:9.87690145848319E-6 24:1.0 25:0.0 26:0.0 27:0.0 28:0.0 29:0.0 30:0.0 31:0.0 32:0.0 33:0.0 34:0.0
-3.197368680760672E-5 1:0.9808292388916016 2:0.30000001192092896 3:0.05083857849240303 4:0.0734296664595604 5:0.7794168591499329 6:0.0 7:0.001369863050058484 8:0.0 9:1.0 10:0.0 11:12.0 12:1.0 13:0.0 14:0.0 15:0.0 16:0.0 17:0.0 18:0.0 19:0.0 20:0.0 21:0.3896227478981018 22:0.0011755885789170861 23:1.194794094772078E-7 24:0.0 25:0.0 26:0.0 27:0.0 28:1.0 29:0.0 30:1.0 31:1.0 32:1.0 33:1.0 34:0.0
-3.197368680760672E-5 1:1.3862943649291992 2:0.5714285969734192 3:0.0 4:0.0 5:2.4933841228485107 6:0.0 7:0.044570501893758774 8:0.0 9:1.0 10:0.0 11:6.0 12:1.0 13:1.0 14:0.0 15:1.0 16:0.0 17:0.0 18:0.0 19:0.0 20:0.0 21:0.005677809007465839 22:0.0030676936730742455 23:5.178595984034473E-6 24:1.0 25:0.0 26:0.0 27:0.0 28:0.0 29:0.0 30:0.0 31:0.0 32:0.0 33:0.0 34:0.0
-3.197368680760672E-5 1:1.3862943649291992 2:0.5263158082962036 3:0.07455015927553177 4:0.25154832005500793 5:2.2541303634643555 6:134.0 7:0.1309192180633545 8:0.07476635277271271 9:3.0 10:0.0 11:6.0 12:1.0 13:0.0 14:0.0 15:0.0 16:0.0 17:0.0 18:0.0 19:0.0 20:0.0 21:0.5605810284614563 22:0.0027900415007025003 23:1.1541957434246797E-7 24:1.0 25:0.0 26:0.0 27:0.0 28:1.0 29:0.0 30:1.0 31:1.0 32:1.0 33:1.0 34:0.0
3.197368680760672E-5 1:1.2039728164672852 2:0.2666666805744171 3:0.0 4:0.0 5:0.0 6:8.0 7:0.007506593596190214 8:0.05882352963089943 9:1.0 10:0.0 11:8.0 12:1.0 13:0.0 14:0.0 15:0.0 16:0.0 17:0.0 18:0.0 19:0.0 20:0.0 21:0.275488942861557 22:0.0020062150433659554 23:2.0631246400171221E-7 24:0.0 25:0.0 26:0.0 27:0.0 28:0.0 29:0.0 30:0.0 31:0.0 32:0.0 33:0.0 34:0.0
-3.197368680760672E-5 1:1.2039728164672852 2:0.2666666805744171 3:0.06091339513659477 4:0.0 5:0.0 6:24.0 7:0.02765556238591671 8:0.022336769849061966 9:1.0 10:0.0 11:2.0 12:1.0 13:0.0 14:0.0 15:0.0 16:0.0 17:0.0 18:0.0 19:0.0 20:0.0 21:0.1359853446483612 22:0.01138012483716011 23:3.8165093428688124E-5 24:1.0 25:0.0 26:0.0 27:0.0 28:0.0 29:1.0 30:1.0 31:1.0 32:1.0 33:1.0 34:0.0
-3.197368680760672E-5 1:1.8971199989318848 2:0.7058823704719543 3:0.09622643887996674 4:0.33387696743011475 5:2.6043996810913086 6:48.0 7:0.10152582079172134 8:0.13106796145439148 9:0.0 10:0.0 11:0.0 12:0.0 13:1.0 14:0.0 15:0.0 16:0.0 17:0.0 18:0.0 19:0.0 20:0.0 21:0.7599598169326782 22:0.006719558499753475 23:6.316240614978597E-7 24:1.0 25:0.0 26:0.0 27:0.0 28:1.0 29:1.0 30:1.0 31:1.0 32:1.0 33:1.0 34:0.0
-3.197368680760672E-5 1:1.742969274520874 2:0.6666666865348816 3:0.0 4:0.0 5:2.6043996810913086 6:30.0 7:0.10791366547346115 8:0.1190476194024086 9:1.0 10:0.0 11:9.0 12:1.0 13:1.0 14:0.0 15:0.0 16:0.0 17:0.0 18:0.0 19:0.0 20:0.0 21:0.28172117471694946 22:0.0018991740653291345 23:3.8237871535784507E-7 24:0.0 25:0.0 26:0.0 27:0.0 28:0.0 29:0.0 30:0.0 31:0.0 32:0.0 33:0.0 34:0.0
-3.197368680760672E-5 1:1.2039728164672852 2:0.3529411852359772 3:0.05412374809384346 4:0.07780547440052032 5:0.7794168591499329 6:294.0 7:0.02982456050813198 8:0.072727270424366 9:2.0 10:0.0 11:7.0 12:1.0 13:0.0 14:0.0 15:1.0 16:0.0 17:0.0 18:0.0 19:0.0 20:0.0 21:0.6434698104858398 22:6.527762161567807E-4 23:1.4286107408167936E-8 24:1.0 25:0.0 26:0.0 27:0.0 28:1.0 29:0.0 30:1.0 31:1.0 32:0.0 33:1.0 34:0.0
-3.197368680760672E-5 1:1.2039728164672852 2:0.3529411852359772 3:0.0 4:0.0 5:0.7794168591499329 6:0.0 7:0.026217227801680565 8:0.032786883413791656 9:1.0 10:0.0 11:7.0 12:1.0 13:0.0 14:0.0 15:0.0 16:0.0 17:0.0 18:0.0 19:0.0 20:0.0 21:0.7373142838478088 22:9.346375591121614E-4 23:1.66886131580668E-8 24:1.0 25:0.0 26:0.0 27:0.0 28:0.0 29:0.0 30:0.0 31:0.0 32:0.0 33:0.0 34:0.0
-3.197368680760672E-5 1:1.2039728164672852 2:0.3529411852359772 3:0.0 4:0.0 5:0.7794168591499329 6:5.0 7:0.02150537632405758 8:0.0234375 9:1.0 10:0.0 11:15.0 12:1.0 13:0.0 14:0.0 15:0.0 16:0.0 17:0.0 18:0.0 19:0.0 20:0.0 21:0.02748776227235794 22:0.0025164461694657803 23:1.0376198815720272E-6 24:0.0 25:0.0 26:0.0 27:0.0 28:0.0 29:0.0 30:0.0 31:0.0 32:0.0 33:0.0 34:0.0
-3.197368680760672E-5 1:1.491654872894287 2:0.3333333432674408 3:0.05953047797083855 4:0.0 5:0.0 6:47.0 7:0.034075550734996796 8:0.15789473056793213 9:1.0 10:0.0 11:4.0 12:1.0 13:1.0 14:0.0 15:1.0 16:0.0 17:0.0 18:0.0 19:0.0 20:0.0 21:0.9188597798347473 22:0.0012743111001327634 23:4.611764126138951E-8 24:1.0 25:0.0 26:0.0 27:0.0 28:0.0 29:0.0 30:0.0 31:0.0 32:0.0 33:0.0 34:0.0
3.197368680760672E-5 1:1.6094379425048828 2:0.3636363744735718 3:0.0 4:0.0 5:0.0 6:4.0 7:0.17791005969047546 8:0.21621622145175934 9:1.0 10:0.0 11:10.0 12:1.0 13:0.0 14:0.0 15:0.0 16:0.0 17:0.0 18:0.0 19:0.0 20:0.0 21:0.9271812438964844 22:9.028097847476602E-4 23:3.4761302458719E-7 24:1.0 25:0.0 26:0.0 27:0.0 28:0.0 29:0.0 30:0.0 31:0.0 32:0.0 33:0.0 34:0.0
-3.197368680760672E-5 1:2.3025851249694824 2:0.8235294222831726 3:0.0 4:0.0 5:5.5591840744018555 6:19.0 7:0.20469798147678375 8:0.0731707289814949 9:0.0 10:0.0 11:0.0 12:0.0 13:1.0 14:0.0 15:0.0 16:0.0 17:0.0 18:0.0 19:0.0 20:0.0 21:0.934052050113678 22:0.0014105088775977492 23:7.243284727564969E-8 24:1.0 25:0.0 26:0.0 27:0.0 28:0.0 29:0.0 30:1.0 31:1.0 32:1.0 33:1.0 34:0.0
-3.197368680760672E-5 1:1.3862943649291992 2:0.4000000059604645 3:0.0 4:0.0 5:0.7794168591499329 6:14.0 7:0.058394160121679306 8:0.07228915393352509 9:1.0 10:0.0 11:2.0 12:1.0 13:0.0 14:0.0 15:1.0 16:0.0 17:0.0 18:0.0 19:0.0 20:0.0 21:0.6390150785446167 22:0.0016785492189228535 23:4.06669471431087E-8 24:1.0 25:0.0 26:0.0 27:0.0 28:0.0 29:0.0 30:0.0 31:0.0 32:0.0 33:0.0 34:0.0
-3.197368680760672E-5 1:1.3862943649291992 2:0.5714285969734192 3:0.06985490769147873 4:0.26678702235221863 5:2.6043996810913086 6:11.0 7:0.06346967816352844 8:0.035971224308013916 9:1.0 10:0.0 11:3.0 12:1.0 13:1.0 14:0.0 15:1.0 16:0.0 17:0.0 18:0.0 19:0.0 20:0.0 21:0.676222026348114 22:0.0016191061586141586 23:2.846957443125575E-7 24:1.0 25:0.0 26:0.0 27:0.0 28:1.0 29:0.0 30:0.0 31:0.0 32:0.0 33:0.0 34:0.0
-3.197368680760672E-5 1:1.491654872894287 2:0.5 3:0.060039907693862915 4:0.2235909104347229 5:2.398244857788086 6:58.0 7:0.05128205195069313 8:0.06666667014360428 9:1.0 10:0.0 11:7.0 12:1.0 13:0.0 14:0.0 15:1.0 16:0.0 17:0.0 18:0.0 19:0.0 20:0.0 21:0.9859378933906555 22:0.0017294357530772686 23:8.581450856581796E-7 24:1.0 25:0.0 26:0.0 27:0.0 28:1.0 29:0.0 30:1.0 31:1.0 32:1.0 33:1.0 34:0.0
3.197368680760672E-5 1:2.079441547393799 2:0.800000011920929 3:0.06150372326374054 4:0.18970628082752228 5:1.9033026695251465 6:4.0 7:0.039453718811273575 8:0.0 9:1.0 10:0.0 11:10.0 12:1.0 13:1.0 14:0.0 15:0.0 16:0.0 17:0.0 18:0.0 19:0.0 20:0.0 21:0.28032758831977844 22:0.0042473371140658855 23:7.245538427014253E-7 24:0.0 25:0.0 26:0.0 27:0.0 28:0.0 29:0.0 30:0.0 31:0.0 32:0.0 33:0.0 34:0.0
-3.197368680760672E-5 1:1.491654872894287 2:0.4285714328289032 3:0.04857577756047249 4:0.07039140909910202 5:0.7794168591499329 6:1.0 7:0.0382462702691555 8:0.0317460335791111 9:1.0 10:0.0 11:3.0 12:1.0 13:0.0 14:0.0 15:0.0 16:0.0 17:0.0 18:0.0 19:0.0 20:0.0 21:0.24987569451332092 22:7.066052639856935E-4 23:3.075624377402164E-8 24:1.0 25:0.0 26:0.0 27:0.0 28:0.0 29:0.0 30:0.0 31:0.0 32:0.0 33:1.0 34:0.0
-3.197368680760672E-5 1:1.1239300966262817 2:0.3333333432674408 3:0.046275634318590164 4:0.053801026195287704 5:0.614363968372345 6:2319.0 7:0.020341740921139717 8:0.10526315867900848 9:1.0 10:0.0 11:7.0 12:1.0 13:0.0 14:0.0 15:1.0 16:0.0 17:0.0 18:0.0 19:0.0 20:0.0 21:0.1661517173051834 22:4.2178717558272183E-4 23:2.046198410710076E-8 24:0.0 25:0.0 26:0.0 27:0.0 28:0.0 29:0.0 30:0.0 31:0.0 32:0.0 33:0.0 34:0.0
-3.197368680760672E-5 1:2.5902671813964844 2:0.8888888955116272 3:0.0 4:0.0 5:6.395122051239014 6:695.0 7:0.16807816922664642 8:0.06351665407419205 9:1.0 10:0.0 11:7.0 12:1.0 13:1.0 14:0.0 15:1.0 16:1.0 17:1.0 18:0.0 19:1.0 20:0.0 21:0.9885914325714111 22:0.02261618711054325 23:7.031244604149833E-5 24:1.0 25:0.0 26:0.0 27:0.0 28:0.0 29:0.0 30:0.0 31:0.0 32:0.0 33:0.0 34:0.0
3.197368680760672E-5 1:1.6094379425048828 2:0.5333333611488342 3:0.0 4:0.0 5:1.16920006275177 6:4.0 7:0.0357142873108387 8:0.011904762126505375 9:1.0 10:0.0 11:6.0 12:1.0 13:0.0 14:0.0 15:0.0 16:0.0 17:0.0 18:0.0 19:0.0 20:0.0 21:0.04496470093727112 22:0.0018887832993641496 23:2.4867324555089E-7 24:1.0 25:0.0 26:0.0 27:0.0 28:0.0 29:0.0 30:1.0 31:0.0 32:0.0 33:1.0 34:0.0
3.197368680760672E-5 1:1.8971199989318848 2:0.761904776096344 3:0.06912083178758621 4:0.20830689370632172 5:1.9033026695251465 6:1.0 7:0.03270348906517029 8:0.0 9:1.0 10:0.0 11:4.0 12:1.0 13:1.0 14:0.0 15:0.0 16:0.0 17:0.0 18:0.0 19:0.0 20:0.0 21:0.019782712683081627 22:0.011829322203993797 23:3.642694719019346E-5 24:0.0 25:0.0 26:0.0 27:0.0 28:0.0 29:0.0 30:0.0 31:0.0 32:1.0 33:0.0 34:0.0
-3.197368680760672E-5 1:2.3025851249694824 2:0.8421052694320679 3:0.068142831325531 4:0.20596659183502197 5:1.9033026695251465 6:17.0 7:0.01208882499486208 8:0.028169013559818268 9:1.0 10:0.0 11:2.0 12:1.0 13:1.0 14:0.0 15:0.0 16:0.0 17:0.0 18:0.0 19:0.0 20:0.0 21:0.07255005091428757 22:0.050320934504270554 23:2.1814240608364344E-4 24:1.0 25:0.0 26:0.0 27:0.0 28:0.0 29:1.0 30:0.0 31:1.0 32:1.0 33:0.0 34:0.0
3.197368680760672E-5 1:1.3862943649291992 2:0.5263158082962036 3:0.05256722867488861 4:0.19158391654491425 5:2.2541303634643555 6:3.0 7:0.01677018590271473 8:0.018018018454313278 9:2.0 10:0.0 11:11.0 12:1.0 13:0.0 14:0.0 15:0.0 16:0.0 17:0.0 18:0.0 19:0.0 20:0.0 21:0.33905333280563354 22:0.0015603377250954509 23:3.4066701459778415E-8 24:0.0 25:0.0 26:0.0 27:0.0 28:1.0 29:0.0 30:1.0 31:1.0 32:1.0 33:1.0 34:0.0
-3.197368680760672E-5 1:0.9808292388916016 2:0.2222222238779068 3:0.0 4:0.0 5:0.0 6:5.0 7:0.04644495248794556 8:0.03932584449648857 9:1.0 10:0.0 11:6.0 12:1.0 13:0.0 14:0.0 15:0.0 16:0.0 17:0.0 18:0.0 19:0.0 20:0.0 21:0.09317577630281448 22:0.007714854087680578 23:2.310281843165285E-6 24:0.0 25:0.0 26:0.0 27:0.0 28:0.0 29:0.0 30:0.0 31:0.0 32:0.0 33:0.0 34:0.0
-3.197368680760672E-5 1:1.3862943649291992 2:0.4000000059604645 3:0.0 4:0.0 5:0.7794168591499329 6:53.0 7:0.02581755630671978 8:0.0833333358168602 9:2.0 10:0.0 11:7.0 12:2.0 13:0.0 14:0.0 15:0.0 16:0.0 17:0.0 18:0.0 19:0.0 20:0.0 21:0.7580404877662659 22:9.749004384502769E-4 23:2.3095273249396087E-8 24:1.0 25:0.0 26:0.0 27:0.0 28:0.0 29:0.0 30:0.0 31:0.0 32:0.0 33:0.0 34:0.0
-3.197368680760672E-5 1:1.6094379425048828 2:0.695652186870575 3:0.0 4:0.0 5:4.594871520996094 6:43.0 7:0.10884353518486023 8:0.09803921729326248 9:2.0 10:0.0 11:20.0 12:1.0 13:1.0 14:0.0 15:0.0 16:0.0 17:0.0 18:0.0 19:0.0 20:0.0 21:0.6182366013526917 22:5.753764999099076E-4 23:1.23747669888985E-8 24:1.0 25:0.0 26:0.0 27:0.0 28:0.0 29:0.0 30:0.0 31:0.0 32:0.0 33:0.0 34:0.0
-3.197368680760672E-5 1:1.3862943649291992 2:0.3076923191547394 3:0.060784757137298584 4:0.0 5:0.0 6:7.0 7:0.17573221027851105 8:0.0416666679084301 9:0.0 10:0.0 11:0.0 12:0.0 13:0.0 14:0.0 15:0.0 16:0.0 17:0.0 18:0.0 19:0.0 20:0.0 21:0.5330533385276794 22:0.06289450079202652 23:7.976277265697718E-5 24:0.0 25:0.0 26:0.0 27:0.0 28:1.0 29:1.0 30:0.0 31:1.0 32:1.0 33:1.0 34:0.0
3.197368680760672E-5 1:1.6094379425048828 2:0.6315789222717285 3:0.0 4:0.0 5:2.6043996810913086 6:0.0 7:0.012121211737394333 8:0.0 9:1.0 10:0.0 11:8.0 12:1.0 13:0.0 14:0.0 15:1.0 16:0.0 17:0.0 18:0.0 19:0.0 20:0.0 21:0.12555605173110962 22:8.266650256700814E-4 23:9.181817262060576E-8 24:0.0 25:0.0 26:0.0 27:0.0 28:0.0 29:0.0 30:0.0 31:0.0 32:0.0 33:0.0 34:0.0
3.197368680760672E-5 1:2.3025851249694824 2:0.8421052694320679 3:0.0 4:0.0 5:5.913557529449463 6:1.0 7:0.04507042095065117 8:0.01666666753590107 9:1.0 10:0.0 11:8.0 12:1.0 13:1.0 14:0.0 15:0.0 16:0.0 17:0.0 18:0.0 19:0.0 20:0.0 21:0.5660053491592407 22:0.0024165823124349117 23:9.191927006213518E-7 24:1.0 25:0.0 26:0.0 27:0.0 28:0.0 29:0.0 30:0.0 31:0.0 32:0.0 33:0.0 34:0.0
-3.197368680760672E-5 1:2.5902671813964844 2:0.8571428656578064 3:0.0 4:0.0 5:9.686318397521973 6:629.0 7:1.0 8:0.7142857313156128 9:1.0 10:0.0 11:4.0 12:1.0 13:1.0 14:0.0 15:0.0 16:0.0 17:0.0 18:0.0 19:1.0 20:0.0 21:0.5885979533195496 22:3.4547754330560565E-4 23:1.758602152790445E-9 24:1.0 25:0.0 26:0.0 27:0.0 28:0.0 29:0.0 30:0.0 31:0.0 32:0.0 33:0.0 34:0.0
-3.197368680760672E-5 1:1.491654872894287 2:0.4285714328289032 3:0.07956967502832413 4:0.11034869402647018 5:0.7794168591499329 6:1858.0 7:0.11013024300336838 8:0.11260945349931717 9:0.0 10:0.0 11:0.0 12:0.0 13:0.0 14:0.0 15:1.0 16:0.0 17:0.0 18:0.0 19:0.0 20:0.0 21:0.050496045500040054 22:0.024750864133238792 23:8.952523785410449E-5 24:0.0 25:0.0 26:0.0 27:0.0 28:1.0 29:1.0 30:1.0 31:1.0 32:0.0 33:1.0 34:0.0
-3.197368680760672E-5 1:1.8971199989318848 2:0.4444444477558136 3:0.05161919817328453 4:0.0 5:0.0 6:2163.0 7:0.06566820293664932 8:0.09836065769195557 9:1.0 10:0.0 11:10.0 12:1.0 13:0.0 14:0.0 15:1.0 16:0.0 17:0.0 18:0.0 19:0.0 20:0.0 21:0.2553529143333435 22:0.012908096425235271 23:1.477942532801535E-5 24:1.0 25:0.0 26:0.0 27:0.0 28:0.0 29:0.0 30:0.0 31:0.0 32:0.0 33:0.0 34:0.0
3.197368680760672E-5 1:1.2039728164672852 2:0.3529411852359772 3:0.0 4:0.0 5:0.7794168591499329 6:0.0 7:0.01966717094182968 8:0.0 9:1.0 10:0.0 11:7.0 12:1.0 13:0.0 14:0.0 15:0.0 16:0.0 17:0.0 18:0.0 19:0.0 20:0.0 21:0.4741368293762207 22:6.855871761217713E-4 23:3.626962907787856E-8 24:1.0 25:0.0 26:0.0 27:0.0 28:0.0 29:0.0 30:0.0 31:0.0 32:0.0 33:0.0 34:0.0
-3.197368680760672E-5 1:1.1239300966262817 2:0.3333333432674408 3:0.0 4:0.0 5:0.7794168591499329 6:0.0 7:0.024633431807160378 8:0.0 9:0.0 10:0.0 11:0.0 12:0.0 13:0.0 14:0.0 15:0.0 16:0.0 17:0.0 18:0.0 19:0.0 20:0.0 21:0.35224422812461853 22:8.520478149875998E-4 23:3.870209397405233E-8 24:0.0 25:0.0 26:0.0 27:0.0 28:0.0 29:0.0 30:0.0 31:0.0 32:0.0 33:0.0 34:0.0
-3.197368680760672E-5 1:1.0498220920562744 2:0.31578946113586426 3:0.0 4:0.0 5:0.614363968372345 6:0.0 7:0.022727273404598236 8:0.0 9:0.0 10:0.0 11:0.0 12:0.0 13:0.0 14:0.0 15:0.0 16:0.0 17:0.0 18:0.0 19:0.0 20:0.0 21:0.36397016048431396 22:0.001130864373408258 23:4.604921599593581E-8 24:0.0 25:0.0 26:0.0 27:0.0 28:0.0 29:0.0 30:0.0 31:0.0 32:0.0 33:0.0 34:0.0
-3.197368680760672E-5 1:2.079441547393799 2:0.75 3:0.09942907094955444 4:0.42793408036231995 5:3.761728286743164 6:123.0 7:0.12703296542167664 8:0.12177121639251709 9:1.0 10:0.0 11:5.0 12:1.0 13:1.0 14:0.0 15:0.0 16:0.0 17:0.0 18:0.0 19:0.0 20:0.0 21:0.4381859004497528 22:0.00834326259791851 23:2.384017534495797E-6 24:0.0 25:0.0 26:0.0 27:0.0 28:1.0 29:1.0 30:1.0 31:1.0 32:1.0 33:1.0 34:0.0
3.197368680760672E-5 1:1.1239300966262817 2:0.3333333432674408 3:0.0 4:0.0 5:0.7794168591499329 6:6.0 7:0.048701297491788864 8:0.0555555559694767 9:1.0 10:0.0 11:10.0 12:1.0 13:0.0 14:0.0 15:0.0 16:0.0 17:0.0 18:0.0 19:0.0 20:0.0 21:0.4803943932056427 22:2.500146219972521E-4 23:2.510364582875013E-9 24:1.0 25:0.0 26:0.0 27:0.0 28:0.0 29:0.0 30:0.0 31:0.0 32:0.0 33:0.0 34:0.0
-3.197368680760672E-5 1:1.2909841537475586 2:0.2857142984867096 3:0.0 4:0.0 5:0.0 6:14.0 7:0.023448633030056953 8:0.069182388484478 9:1.0 10:0.0 11:11.0 12:1.0 13:0.0 14:0.0 15:1.0 16:0.0 17:0.0 18:0.0 19:0.0 20:0.0 21:0.08777642250061035 22:0.002438668394461274 23:7.35328285372816E-7 24:0.0 25:0.0 26:0.0 27:0.0 28:0.0 29:0.0 30:0.0 31:0.0 32:0.0 33:0.0 34:0.0
