SVM-light Version V6.01
2 # kernel type
3 # kernel parameter -d
1.0 # kernel parameter -g
1.0 # kernel parameter -s
0.0 # kernel parameter -r
empty# kernel parameter -u
35 # highest feature index
1756 # number of training documents
1459 # number of support vectors plus 1
-0.5874658490982574 # threshold b, each following line is a SV (starting with alpha*y)
-0.5000000000000207 1:1.0 2:-0.07871966063976288 3:-0.11184210330247879 4:-1.0 5:-1.0 6:-0.44516071677207947 7:-1.0 8:-0.9927536249160767 9:-1.0 10:-1.0 11:-0.5 12:-1.0 13:-0.5 14:0.0 15:1.0 16:1.0 17:-1.0 18:-1.0 19:-1.0 20:-1.0 21:-1.0 22:-0.65202796459198 23:-0.9920583367347717 24:-0.9996879696846008 25:1.0 26:-1.0 27:-1.0 28:-1.0 29:-1.0 30:-1.0 31:-1.0 32:-1.0 33:-1.0 34:-1.0 35:-1.0
0.07046413507107885 1:-0.5 2:0.7175269722938538 3:0.7182662487030029 4:-0.6131749749183655 5:0.294075071811676 6:0.21306578814983368 7:-0.999143660068512 8:-0.5868544578552246 9:-0.7727272510528564 10:-1.0 11:-0.5 12:-1.0 13:-0.10000000149011612 14:0.0 15:1.0 16:-1.0 17:-1.0 18:-1.0 19:-1.0 20:-1.0 21:-1.0 22:-0.38425150513648987 23:-0.9895634055137634 24:-0.9991111159324646 25:1.0 26:-1.0 27:-1.0 28:-1.0 29:-1.0 30:-0.3333333432674408 31:0.0 32:0.0 33:-0.3333333432674408 34:0.0 35:-1.0
0.3458170041745298 1:-1.0 2:0.16804420948028564 3:0.20888157188892365 4:-1.0 5:-1.0 6:-0.36298781633377075 7:-0.9985014200210571 8:-0.7979797720909119 9:-0.905063271522522 10:-1.0 11:-1.0 12:-1.0 13:-1.0 14:-1.0 15:1.0 16:-1.0 17:-1.0 18:-1.0 19:-1.0 20:-1.0 21:-1.0 22:0.4784713387489319 23:-0.9977952837944031 24:-0.9999684691429138 25:1.0 26:-1.0 27:-1.0 28:-1.0 29:-1.0 30:-0.3333333432674408 31:-1.0 32:-1.0 33:-0.3333333432674408 34:-1.0 35:-1.0
-0.5000000000000207 1:-1.0 2:0.16804420948028564 3:0.0714285746216774 4:-1.0 5:-1.0 6:-0.2606980800628662 7:-0.9963605403900146 8:-0.9317169785499573 9:-0.8410404920578003 10:-1.0 11:-1.0 12:-1.0 13:-1.0 14:-1.0 15:1.0 16:-1.0 17:-1.0 18:-1.0 19:-1.0 20:-1.0 21:-1.0 22:-0.7649537324905396 23:-0.9798669219017029 24:-0.9991549849510193 25:1.0 26:-1.0 27:-1.0 28:-1.0 29:-1.0 30:-1.0 31:-1.0 32:-1.0 33:-1.0 34:-1.0 35:-1.0
-0.5000000000000207 1:-1.0 2:0.16804420948028564 3:0.20888157188892365 4:-0.7970967888832092 5:-0.6147228479385376 6:-0.6562143564224243 7:-0.9961464405059814 8:-0.8677685856819153 9:-0.8717948794364929 10:-1.0 11:-0.5 12:-1.0 13:0.10000000149011612 14:0.0 15:1.0 16:-1.0 17:-1.0 18:-1.0 19:-1.0 20:-1.0 21:-1.0 22:-0.28428348898887634 23:-0.9929659366607666 24:-0.999910295009613 25:1.0 26:-1.0 27:-1.0 28:-1.0 29:-1.0 30:-1.0 31:-1.0 32:-1.0 33:-1.0 34:-1.0 35:-1.0
0.3578116922645461 1:1.0 2:1.0 3:0.8045112490653992 4:-0.2502903342247009 5:0.5474757552146912 6:0.03896792232990265 7:-0.9837294220924377 8:0.8100304007530212 9:-0.3692660629749298 10:-1.0 11:-0.5 12:-1.0 13:-0.5 14:0.0 15:1.0 16:-1.0 17:-1.0 18:-1.0 19:-1.0 20:1.0 21:-1.0 22:-0.36259546875953674 23:-0.9893603920936584 24:-0.9993971586227417 25:1.0 26:-1.0 27:-1.0 28:-1.0 29:0.0 30:0.3333333432674408 31:0.0 32:1.0 33:-0.3333333432674408 34:0.0 35:-1.0
0.5000000000000207 1:-1.0 2:-0.6436656713485718 3:-0.8545706272125244 4:-0.7613582611083984 5:-1.0 6:-1.0 7:-0.994861900806427 8:-0.8765432238578796 9:-0.6788991093635559 10:-1.0 11:-0.5 12:-1.0 13:0.20000000298023224 14:0.0 15:-1.0 16:-1.0 17:-1.0 18:-1.0 19:-1.0 20:-1.0 21:-1.0 22:-0.7638522982597351 23:-0.9767211079597473 24:-0.998716413974762 25:-1.0 26:-1.0 27:-1.0 28:-1.0 29:0.0 30:-0.3333333432674408 31:0.0 32:0.0 33:-0.3333333432674408 34:0.0 35:-1.0
0.27417066619078256 1:-1.0 2:-0.07871966063976288 3:-0.2951127886772156 4:-0.7454701662063599 5:-0.7836608290672302 6:-0.8592171669006348 7:-0.22179405391216278 8:-0.8245614171028137 9:-0.609375 10:-1.0 11:0.0 12:-1.0 13:-0.10000000149011612 14:1.0 15:-1.0 16:-1.0 17:-1.0 18:-1.0 19:-1.0 20:-1.0 21:-1.0 22:-0.11382188647985458 23:-0.9869573712348938 24:-0.9998350143432617 25:1.0 26:-1.0 27:-1.0 28:-1.0 29:0.0 30:-1.0 31:0.0 32:0.0 33:-0.3333333432674408 34:0.0 35:-1.0
0.1824595664365945 1:1.0 2:0.03693067282438278 3:0.11455108225345612 4:-0.7044367790222168 5:-0.25222599506378174 6:-0.4276271164417267 7:-0.9974309802055359 8:-0.7821782231330872 9:-0.7844827771186829 10:-1.0 11:-0.5 12:-1.0 13:0.10000000149011612 14:0.0 15:-1.0 16:-1.0 17:-1.0 18:-1.0 19:-1.0 20:-1.0 21:-1.0 22:0.13591019809246063 23:-0.994635820388794 24:-0.99997878074646 25:1.0 26:-1.0 27:-1.0 28:-1.0 29:0.0 30:-0.3333333432674408 31:0.0 32:0.0 33:-0.3333333432674408 34:0.0 35:-1.0
0.5000000000000207 1:1.0 2:-0.580295741558075 3:-0.625 4:-1.0 5:-1.0 6:-0.8592171669006348 7:-0.9993577599525452 8:-0.9658273458480835 9:-0.8387096524238586 10:-1.0 11:-0.5 12:-1.0 13:0.0 14:0.0 15:-1.0 16:1.0 17:-1.0 18:-1.0 19:-1.0 20:-1.0 21:-1.0 22:-0.33075910806655884 23:-0.9938134551048279 24:-0.999842643737793 25:1.0 26:-1.0 27:-1.0 28:-1.0 29:-1.0 30:-1.0 31:-1.0 32:-1.0 33:-1.0 34:-1.0 35:-1.0
-0.5000000000000207 1:1.0 2:-0.43978601694107056 3:-0.5394737124443054 4:-1.0 5:-1.0 6:-0.8592171669006348 7:-0.999143660068512 8:-0.9685863852500916 9:-0.949999988079071 10:-1.0 11:-0.5 12:-1.0 13:0.0 14:0.0 15:-1.0 16:1.0 17:-1.0 18:-1.0 19:-1.0 20:-1.0 21:-1.0 22:-0.38126879930496216 23:-0.9908691644668579 24:-0.9998657703399658 25:1.0 26:-1.0 27:-1.0 28:-1.0 29:-1.0 30:-1.0 31:-1.0 32:-1.0 33:-1.0 34:-1.0 35:-1.0
-0.5000000000000207 1:1.0 2:-0.580295741558075 3:-0.625 4:-1.0 5:-1.0 6:-0.8592171669006348 7:-0.9980732202529907 8:-0.9784946441650391 9:-0.920634925365448 10:-1.0 11:-0.5 12:-1.0 13:-0.10000000149011612 14:0.0 15:-1.0 16:1.0 17:-1.0 18:-1.0 19:-1.0 20:-1.0 21:-1.0 22:-0.6807220578193665 23:-0.9910950064659119 24:-0.9998632073402405 25:1.0 26:-1.0 27:-1.0 28:-1.0 29:-1.0 30:-1.0 31:-1.0 32:-1.0 33:-1.0 34:-1.0 35:-1.0
-0.5000000000000207 1:1.0 2:-0.43978601694107056 3:-0.7532894611358643 4:-1.0 5:-1.0 6:-1.0 7:-0.9995718002319336 8:-0.9145496487617493 9:-0.920634925365448 10:-1.0 11:-0.5 12:-1.0 13:-0.30000001192092896 14:0.0 15:-1.0 16:1.0 17:-1.0 18:-1.0 19:-1.0 20:-1.0 21:-1.0 22:-0.5719139575958252 23:-0.9966065287590027 24:-0.9999380707740784 25:1.0 26:-1.0 27:-1.0 28:-1.0 29:-1.0 30:-1.0 31:-1.0 32:-1.0 33:-1.0 34:-1.0 35:-1.0
0.5000000000000207 1:-1.0 2:0.16804420948028564 3:0.0714285746216774 4:-0.7324337959289551 5:-0.42628413438796997 6:-0.5668150186538696 7:-0.9976450204849243 8:-0.9149722456932068 9:-0.9342105388641357 10:-1.0 11:-0.5 12:-1.0 13:-0.10000000149011612 14:0.0 15:1.0 16:-1.0 17:-1.0 18:-1.0 19:-1.0 20:-1.0 21:-1.0 22:-0.31261155009269714 23:-0.9035230875015259 24:-0.9915837645530701 25:1.0 26:-1.0 27:-1.0 28:-1.0 29:-1.0 30:-1.0 31:-1.0 32:-1.0 33:-1.0 34:-1.0 35:-1.0
0.2490634153822832 1:1.0 2:-0.18217240273952484 3:-0.1873065084218979 4:-0.7177525162696838 5:-0.5239087343215942 6:-0.6785190105438232 7:-0.9997859001159668 8:-0.851313591003418 9:-0.9166666865348816 10:-1.0 11:-1.0 12:-1.0 13:-1.0 14:-1.0 15:-1.0 16:-1.0 17:-1.0 18:-1.0 19:-1.0 20:-1.0 21:-1.0 22:0.421224981546402 23:-0.9941616058349609 24:-0.9999829530715942 25:1.0 26:-1.0 27:-1.0 28:-1.0 29:0.0 30:-0.3333333432674408 31:-1.0 32:0.0 33:-0.3333333432674408 34:0.0 35:-1.0
0.5000000000000207 1:-1.0 2:-0.07871966063976288 3:0.14473684132099152 4:-1.0 5:-1.0 6:-0.5496304035186768 7:-0.9987154603004456 8:-0.9305555820465088 9:-0.9038461446762085 10:-1.0 11:-1.0 12:-1.0 13:-1.0 14:-1.0 15:1.0 16:-1.0 17:-1.0 18:-1.0 19:-1.0 20:-1.0 21:-1.0 22:-0.714192271232605 23:-0.9769652485847473 24:-0.9970842599868774 25:1.0 26:-1.0 27:-1.0 28:-1.0 29:-1.0 30:-1.0 31:-1.0 32:-1.0 33:-1.0 34:-1.0 35:-1.0
-0.5000000000000207 1:-1.0 2:0.03693067282438278 3:-0.02631578966975212 4:-0.7140237092971802 5:-0.3976161777973175 6:-0.5668150186538696 7:-0.9985014200210571 8:-0.8414633870124817 9:-0.8626373410224915 10:-1.0 11:-0.5 12:-1.0 13:-0.10000000149011612 14:0.0 15:1.0 16:-1.0 17:-1.0 18:-1.0 19:-1.0 20:-1.0 21:-1.0 22:-0.6428016424179077 23:-0.9010675549507141 24:-0.991263210773468 25:1.0 26:-1.0 27:-1.0 28:-1.0 29:-1.0 30:-1.0 31:-1.0 32:-1.0 33:-1.0 34:-1.0 35:-1.0
-0.5000000000000207 1:-1.0 2:-0.07871966063976288 3:0.030701754614710808 4:-0.7743822932243347 5:-0.4021007716655731 6:-0.45653972029685974 7:-0.9995718002319336 8:-0.9699903726577759 9:-0.9757281541824341 10:-1.0 11:-0.5 12:-1.0 13:-0.30000001192092896 14:0.0 15:1.0 16:-1.0 17:-1.0 18:-1.0 19:-1.0 20:-1.0 21:-1.0 22:-0.7981172204017639 23:-0.9639092087745667 24:-0.9924176335334778 25:1.0 26:-1.0 27:-1.0 28:-1.0 29:-1.0 30:-1.0 31:-1.0 32:-1.0 33:-1.0 34:-1.0 35:-1.0
-0.5000000000000207 1:-1.0 2:-0.18217240273952484 3:0.0714285746216774 4:-0.7590881586074829 5:-0.43576329946517944 6:-0.5295780897140503 7:-0.9993577599525452 8:-0.9803921580314636 9:-1.0 10:-1.0 11:-0.5 12:-1.0 13:-0.30000001192092896 14:0.0 15:1.0 16:-1.0 17:-1.0 18:-1.0 19:-1.0 20:-1.0 21:-1.0 22:-0.8004331588745117 23:-0.9812765121459961 24:-0.9995917081832886 25:1.0 26:-1.0 27:-1.0 28:-1.0 29:-1.0 30:-1.0 31:-1.0 32:-1.0 33:-1.0 34:-1.0 35:-1.0
0.5000000000000207 1:1.0 2:-0.2757568061351776 3:-0.6616541147232056 4:-1.0 5:-1.0 6:-1.0 7:-0.9997859001159668 8:-0.9117646813392639 9:-0.9038461446762085 10:-1.0 11:-0.5 12:-1.0 13:-0.30000001192092896 14:0.0 15:-1.0 16:1.0 17:-1.0 18:-1.0 19:-1.0 20:-1.0 21:-1.0 22:-0.7007519602775574 23:-0.9924713969230652 24:-0.9998161196708679 25:1.0 26:-1.0 27:-1.0 28:-1.0 29:-1.0 30:-1.0 31:-1.0 32:-1.0 33:-1.0 34:-1.0 35:-1.0
0.5000000000000207 1:1.0 2:-0.36119264364242554 3:-0.4891640841960907 4:-1.0 5:-1.0 6:-0.8592171669006348 7:-0.9989295601844788 8:-0.8039215803146362 9:-0.807692289352417 10:-1.0 11:-0.5 12:-1.0 13:-0.10000000149011612 14:0.0 15:-1.0 16:1.0 17:-1.0 18:-1.0 19:-1.0 20:-1.0 21:-1.0 22:-0.6060076355934143 23:-0.9910653829574585 24:-0.9989991784095764 25:1.0 26:-1.0 27:-1.0 28:-1.0 29:-1.0 30:-1.0 31:-1.0 32:-1.0 33:-1.0 34:-1.0 35:-1.0
0.5000000000000207 1:1.0 2:-0.5125521421432495 3:-0.5844875574111938 4:-1.0 5:-1.0 6:-0.8592171669006348 7:-0.999143660068512 8:-0.98591548204422 9:-1.0 10:-1.0 11:-0.5 12:-1.0 13:0.0 14:0.0 15:-1.0 16:1.0 17:-1.0 18:-1.0 19:-1.0 20:-1.0 21:-1.0 22:-0.4186239242553711 23:-0.9968650937080383 24:-0.9999822378158569 25:1.0 26:-1.0 27:-1.0 28:-1.0 29:-1.0 30:-1.0 31:-1.0 32:-1.0 33:-1.0 34:-1.0 35:-1.0
-0.5000000000000207 1:-1.0 2:-0.43978601694107056 3:-0.7532894611358643 4:-0.7452141046524048 5:-1.0 6:-1.0 7:-0.9989295601844788 8:-0.967525064945221 9:-0.8994252681732178 10:-1.0 11:-0.5 12:-1.0 13:0.6000000238418579 14:0.0 15:-1.0 16:-1.0 17:-1.0 18:-1.0 19:-1.0 20:-1.0 21:-1.0 22:-0.6573929190635681 23:-0.8963913917541504 24:-0.9679431319236755 25:-1.0 26:-1.0 27:-1.0 28:-1.0 29:0.0 30:-0.3333333432674408 31:0.0 32:0.0 33:-0.3333333432674408 34:0.0 35:-1.0
0.5000000000000207 1:-1.0 2:0.03693067282438278 3:-0.02631578966975212 4:-0.621256411075592 5:-0.14176762104034424 6:-0.44516071677207947 7:-0.9689574241638184 8:-0.9498586058616638 9:-0.896934449672699 10:-1.0 11:-0.5 12:-1.0 13:-0.10000000149011612 14:0.0 15:1.0 16:-1.0 17:-1.0 18:-1.0 19:-1.0 20:-1.0 21:-1.0 22:-0.6706027388572693 23:-0.9259136319160461 24:-0.9766190052032471 25:1.0 26:-1.0 27:-1.0 28:-1.0 29:-1.0 30:-1.0 31:-1.0 32:-1.0 33:-1.0 34:-1.0 35:-1.0
-0.5000000000000207 1:1.0 2:-0.07871966063976288 3:-0.2951127886772156 4:-1.0 5:-1.0 6:-0.8890299797058105 7:-0.9993577599525452 8:-0.9154175519943237 9:-0.8660714030265808 10:-1.0 11:-0.5 12:-1.0 13:-0.4000000059604645 14:0.0 15:-1.0 16:1.0 17:-1.0 18:-1.0 19:-1.0 20:-1.0 21:-1.0 22:-0.810492753982544 23:-0.9883682131767273 24:-0.999664306640625 25:1.0 26:-1.0 27:-1.0 28:-1.0 29:-1.0 30:-1.0 31:-1.0 32:-1.0 33:-1.0 34:-1.0 35:-1.0
-0.5000000000000207 1:1.0 2:-0.2757568061351776 3:-0.6616541147232056 4:-1.0 5:-1.0 6:-1.0 7:-0.9995718002319336 8:-0.9245283007621765 9:-0.9019607901573181 10:-1.0 11:-0.5 12:-1.0 13:-0.4000000059604645 14:0.0 15:-1.0 16:1.0 17:-1.0 18:-1.0 19:-1.0 20:-1.0 21:-1.0 22:-0.6951701045036316 23:-0.9763649106025696 24:-0.9991781115531921 25:1.0 26:-1.0 27:-1.0 28:-1.0 29:-1.0 30:-1.0 31:-1.0 32:-1.0 33:-1.0 34:-1.0 35:-1.0
0.5000000000000207 1:-1.0 2:-0.07871966063976288 3:0.14473684132099152 4:-0.6484439373016357 5:-0.2633781433105469 6:-0.5295780897140503 7:-0.9974309802055359 8:-0.816360592842102 9:-0.9221453070640564 10:-1.0 11:-0.5 12:-1.0 13:-0.6000000238418579 14:0.0 15:1.0 16:-1.0 17:-1.0 18:-1.0 19:-1.0 20:-1.0 21:-1.0 22:-0.7018758058547974 23:-0.967841386795044 24:-0.9978871941566467 25:1.0 26:-1.0 27:-1.0 28:-1.0 29:-1.0 30:-1.0 31:-1.0 32:-1.0 33:-1.0 34:-1.0 35:-1.0
0.45307179410680604 1:-1.0 2:0.16804420948028564 3:0.31578946113586426 4:-0.767560601234436 5:-0.4684115946292877 6:-0.5496304035186768 7:-0.9993577599525452 8:-0.9387755393981934 9:-0.8655914068222046 10:-1.0 11:-0.5 12:-1.0 13:-0.20000000298023224 14:0.0 15:1.0 16:-1.0 17:-1.0 18:-1.0 19:-1.0 20:-1.0 21:-1.0 22:-0.8159432411193848 23:-0.9837544560432434 24:-0.9989977478981018 25:1.0 26:-1.0 27:-1.0 28:-1.0 29:-1.0 30:-1.0 31:-1.0 32:-1.0 33:-1.0 34:-1.0 35:-1.0
-0.5000000000000207 1:1.0 2:-0.5125521421432495 3:-0.7910216450691223 4:-0.8252599239349365 5:-1.0 6:-1.0 7:-0.9985014200210571 8:-0.9306487441062927 9:-0.6460176706314087 10:-1.0 11:-0.5 12:-1.0 13:0.10000000149011612 14:0.0 15:-1.0 16:1.0 17:-1.0 18:-1.0 19:-1.0 20:-1.0 21:-1.0 22:-0.6832469701766968 23:-0.9841277003288269 24:-0.9969255924224854 25:1.0 26:-1.0 27:-1.0 28:-1.0 29:-1.0 30:-1.0 31:-1.0 32:-1.0 33:-1.0 34:-1.0 35:-1.0
-0.5000000000000207 1:1.0 2:-0.5125521421432495 3:-0.7910216450691223 4:-1.0 5:-1.0 6:-1.0 7:-0.9978591203689575 8:-0.9340564012527466 9:-0.7847682237625122 10:-1.0 11:-0.5 12:-1.0 13:0.20000000298023224 14:0.0 15:-1.0 16:1.0 17:-1.0 18:-1.0 19:-1.0 20:-1.0 21:-1.0 22:-0.8589102029800415 23:-0.9913126826286316 24:-0.9992133378982544 25:1.0 26:-1.0 27:-1.0 28:-1.0 29:-1.0 30:-1.0 31:-1.0 32:-1.0 33:-1.0 34:-1.0 35:-1.0
-0.5000000000000207 1:1.0 2:-0.5125521421432495 3:-0.7910216450691223 4:-0.8340169191360474 5:-1.0 6:-1.0 7:-0.9982873201370239 8:-0.9821866154670715 9:-0.8085106611251831 10:-1.0 11:-0.5 12:-1.0 13:0.20000000298023224 14:0.0 15:-1.0 16:1.0 17:-1.0 18:-1.0 19:-1.0 20:-1.0 21:-1.0 22:-0.8628321886062622 23:-0.9825348854064941 24:-0.9984031915664673 25:1.0 26:-1.0 27:-1.0 28:-1.0 29:-1.0 30:-1.0 31:-1.0 32:-1.0 33:-1.0 34:-1.0 35:-1.0
0.5000000000000207 1:-1.0 2:-0.2757568061351776 3:-0.4325657784938812 4:-1.0 5:-1.0 6:-0.8592171669006348 7:-0.9922928810119629 8:-0.7926136255264282 9:-0.9155405163764954 10:-1.0 11:-0.5 12:-1.0 13:-0.30000001192092896 14:0.0 15:-1.0 16:-1.0 17:-1.0 18:-1.0 19:-1.0 20:-1.0 21:-1.0 22:-0.6357470750808716 23:-0.9886720180511475 24:-0.9993613958358765 25:-1.0 26:-1.0 27:-1.0 28:-1.0 29:-1.0 30:-1.0 31:-1.0 32:-1.0 33:-1.0 34:-1.0 35:-1.0
0.5000000000000207 1:-1.0 2:-0.2757568061351776 3:-0.4325657784938812 4:-0.7895559072494507 5:-0.81803297996521 6:-0.8592171669006348 7:-0.9978591203689575 8:-0.9239325523376465 9:-0.8670212626457214 10:-1.0 11:-0.5 12:-1.0 13:0.10000000149011612 14:0.0 15:-1.0 16:-1.0 17:-1.0 18:-1.0 19:-1.0 20:-1.0 21:-1.0 22:-0.46206775307655334 23:-0.9928897023200989 24:-0.999774694442749 25:-1.0 26:-1.0 27:-1.0 28:-1.0 29:-1.0 30:-1.0 31:-1.0 32:-1.0 33:-1.0 34:-1.0 35:-1.0
0.5000000000000207 1:1.0 2:-0.07871966063976288 3:-0.11184210330247879 4:-1.0 5:-1.0 6:-0.6785190105438232 7:-0.9989295601844788 8:-0.9567099809646606 9:-0.9290780425071716 10:-1.0 11:-1.0 12:-1.0 13:-1.0 14:-1.0 15:-1.0 16:-1.0 17:-1.0 18:-1.0 19:-1.0 20:-1.0 21:-1.0 22:-0.4132010340690613 23:-0.9704512357711792 24:-0.999414324760437 25:-1.0 26:-1.0 27:-1.0 28:-1.0 29:-1.0 30:-1.0 31:-1.0 32:-1.0 33:-1.0 34:-1.0 35:-1.0
0.3338380800467462 1:1.0 2:-0.07871966063976288 3:-0.2951127886772156 4:-0.7510323524475098 5:-0.787932813167572 6:-0.8592171669006348 7:-0.8253050446510315 8:-0.6823720335960388 9:-0.3193717300891876 10:-1.0 11:-1.0 12:-1.0 13:-1.0 14:-1.0 15:-1.0 16:-1.0 17:-1.0 18:-1.0 19:-1.0 20:-1.0 21:-1.0 22:0.7508217096328735 23:-0.9886280298233032 24:-0.9998627305030823 25:1.0 26:-1.0 27:-1.0 28:-1.0 29:1.0 30:-0.3333333432674408 31:0.0 32:0.0 33:-1.0 34:0.0 35:-1.0
0.5000000000000207 1:1.0 2:-0.43978601694107056 3:-0.2284688949584961 4:-1.0 5:-1.0 6:-0.7526165843009949 7:-0.9972168803215027 8:-0.9073482155799866 9:-0.8674242496490479 10:-1.0 11:-0.5 12:-1.0 13:-0.30000001192092896 14:0.0 15:-1.0 16:1.0 17:-1.0 18:-1.0 19:-1.0 20:-1.0 21:-1.0 22:-0.7583427429199219 23:-0.9748772978782654 24:-0.9993370175361633 25:1.0 26:-1.0 27:-1.0 28:-1.0 29:-1.0 30:-1.0 31:-1.0 32:-1.0 33:-1.0 34:-1.0 35:-1.0
-0.5000000000000207 1:-1.0 2:-0.18217240273952484 3:-0.3684210479259491 4:-0.8290050029754639 5:-0.8498156070709229 6:-0.8592171669006348 7:-1.0 8:-0.8961937427520752 9:-1.0 10:-1.0 11:-0.5 12:-1.0 13:0.0 14:0.0 15:-1.0 16:-1.0 17:-1.0 18:-1.0 19:-1.0 20:-1.0 21:-1.0 22:-0.24021676182746887 23:-0.9950685501098633 24:-0.9999590516090393 25:-1.0 26:-1.0 27:-1.0 28:-1.0 29:-1.0 30:-1.0 31:-1.0 32:-1.0 33:-1.0 34:-1.0 35:-1.0
-0.4127796610250836 1:-1.0 2:-0.36119264364242554 3:-0.4891640841960907 4:-0.8343991637229919 5:-0.8542394638061523 6:-0.8592171669006348 7:-1.0 8:-0.9104477763175964 9:-1.0 10:-1.0 11:-0.5 12:-1.0 13:0.0 14:0.0 15:-1.0 16:-1.0 17:-1.0 18:-1.0 19:-1.0 20:-1.0 21:-1.0 22:-0.14345861971378326 23:-0.997512698173523 24:-0.9999853372573853 25:-1.0 26:-1.0 27:-1.0 28:-1.0 29:-1.0 30:-1.0 31:-1.0 32:-1.0 33:-1.0 34:-1.0 35:-1.0
0.5000000000000207 1:1.0 2:-0.5125521421432495 3:-0.7910216450691223 4:-1.0 5:-1.0 6:-1.0 7:-0.9993577599525452 8:-0.9092627763748169 9:-0.9242424368858337 10:-1.0 11:-0.5 12:-1.0 13:-0.5 14:0.0 15:-1.0 16:1.0 17:-1.0 18:-1.0 19:-1.0 20:-1.0 21:-1.0 22:-0.41028138995170593 23:-0.9764342904090881 24:-0.9972805380821228 25:1.0 26:-1.0 27:-1.0 28:-1.0 29:-1.0 30:-1.0 31:-1.0 32:-1.0 33:-1.0 34:-1.0 35:-1.0
0.5000000000000207 1:1.0 2:-0.36119264364242554 3:-0.7105262875556946 4:-0.8223900198936462 5:-1.0 6:-1.0 7:-0.9946478009223938 8:-0.9332618713378906 9:-0.84375 10:-1.0 11:-0.5 12:-1.0 13:-0.6000000238418579 14:0.0 15:-1.0 16:1.0 17:-1.0 18:-1.0 19:-1.0 20:-1.0 21:-1.0 22:-0.45763853192329407 23:-0.9601706862449646 24:-0.9994087815284729 25:1.0 26:-1.0 27:-1.0 28:-1.0 29:-1.0 30:-1.0 31:-1.0 32:-1.0 33:-1.0 34:-1.0 35:-1.0
-0.5000000000000207 1:-0.75 2:0.31940367817878723 3:0.4164086580276489 4:-0.7790084481239319 5:-0.4885066747665405 6:-0.5496304035186768 7:-0.9950760006904602 8:-0.9879218339920044 9:-0.8583333492279053 10:-1.0 11:-0.5 12:-1.0 13:-0.5 14:0.0 15:1.0 16:-1.0 17:-1.0 18:-1.0 19:-1.0 20:-1.0 21:-1.0 22:-0.8566722869873047 23:-0.8915436267852783 24:-0.9664880633354187 25:1.0 26:-1.0 27:-1.0 28:-1.0 29:-1.0 30:-1.0 31:-1.0 32:-1.0 33:-1.0 34:-1.0 35:-1.0
-0.5000000000000207 1:-1.0 2:0.03693067282438278 3:0.11455108225345612 4:-0.6457614898681641 5:-0.05176573619246483 6:-0.2974556088447571 7:-0.985656201839447 8:-0.6878048777580261 9:-0.7142857313156128 10:-1.0 11:-0.5 12:-1.0 13:-0.10000000149011612 14:0.0 15:1.0 16:-1.0 17:-1.0 18:-1.0 19:-1.0 20:-1.0 21:-1.0 22:-0.273716539144516 23:-0.9842671155929565 24:-0.9996976256370544 25:1.0 26:-1.0 27:-1.0 28:-1.0 29:-1.0 30:-1.0 31:-1.0 32:-1.0 33:-1.0 34:-1.0 35:-1.0
-0.5000000000000207 1:-0.75 2:0.31940367817878723 3:0.4164086580276489 4:-0.762408435344696 5:-0.2751595377922058 6:-0.3205346465110779 7:-0.9976450204849243 8:-0.9176622629165649 9:-0.29347825050354004 10:-1.0 11:-0.5 12:-1.0 13:-0.699999988079071 14:0.0 15:1.0 16:-1.0 17:-1.0 18:-1.0 19:-1.0 20:-1.0 21:-1.0 22:-0.5637257695198059 23:-0.9928808212280273 24:-0.9997305870056152 25:1.0 26:-1.0 27:-1.0 28:-1.0 29:-1.0 30:-1.0 31:-1.0 32:-1.0 33:-1.0 34:-1.0 35:-1.0
0.5000000000000207 1:1.0 2:-0.43978601694107056 3:-0.7532894611358643 4:-1.0 5:-1.0 6:-1.0 7:-0.9995718002319336 8:-0.9205909371376038 9:-0.9504950642585754 10:-1.0 11:-0.5 12:-1.0 13:-0.30000001192092896 14:0.0 15:-1.0 16:1.0 17:-1.0 18:-1.0 19:-1.0 20:-1.0 21:-1.0 22:-0.23393899202346802 23:-0.9880145788192749 24:-0.9996616244316101 25:1.0 26:-1.0 27:-1.0 28:-1.0 29:-1.0 30:-1.0 31:-1.0 32:-1.0 33:-1.0 34:-1.0 35:-1.0
0.5000000000000207 1:1.0 2:-0.18217240273952484 3:-0.3684210479259491 4:-1.0 5:-1.0 6:-0.8592171669006348 7:-0.9993577599525452 8:-0.9691516757011414 9:-0.8557692170143127 10:-1.0 11:-0.5 12:-1.0 13:-0.6000000238418579 14:0.0 15:-1.0 16:1.0 17:-1.0 18:-1.0 19:-1.0 20:-1.0 21:-1.0 22:-0.9871805310249329 23:-0.9705300331115723 24:-0.994938313961029 25:1.0 26:-1.0 27:-1.0 28:-1.0 29:-1.0 30:-1.0 31:-1.0 32:-1.0 33:-1.0 34:-1.0 35:-1.0
0.5000000000000207 1:1.0 2:-0.43978601694107056 3:-0.5394737124443054 4:-0.7891123294830322 5:-0.8176811933517456 6:-0.8592171669006348 7:-0.9997859001159668 8:-0.9318423867225647 9:-0.9523809552192688 10:-1.0 11:-0.5 12:-1.0 13:0.10000000149011612 14:0.0 15:-1.0 16:1.0 17:-1.0 18:-1.0 19:-1.0 20:-1.0 21:-1.0 22:-0.20882664620876312 23:-0.9922422766685486 24:-0.9997397065162659 25:1.0 26:-1.0 27:-1.0 28:-1.0 29:-1.0 30:-1.0 31:-1.0 32:-1.0 33:-1.0 34:-1.0 35:-1.0
-0.5000000000000207 1:1.0 2:-0.36119264364242554 3:-0.056064072996377945 4:-1.0 5:-1.0 6:-0.5295780897140503 7:-0.9978591203689575 8:-1.0 9:-1.0 10:-1.0 11:-0.5 12:-1.0 13:-0.5 14:0.0 15:-1.0 16:1.0 17:-1.0 18:-1.0 19:-1.0 20:-1.0 21:-1.0 22:-0.09491103142499924 23:-0.9972172975540161 24:-0.9999935626983643 25:1.0 26:-1.0 27:-1.0 28:-1.0 29:-1.0 30:-1.0 31:-1.0 32:-1.0 33:-1.0 34:-1.0 35:-1.0
0.5000000000000207 1:-1.0 2:-0.07871966063976288 3:-0.2951127886772156 4:-0.805569052696228 5:-0.8308145999908447 6:-0.8592171669006348 7:-0.9967886805534363 8:-0.976190447807312 9:-0.9675324559211731 10:-1.0 11:-0.5 12:-1.0 13:-0.10000000149011612 14:0.0 15:-1.0 16:-1.0 17:-1.0 18:-1.0 19:-1.0 20:-1.0 21:-1.0 22:-0.40822696685791016 23:-0.9926021099090576 24:-0.9998568892478943 25:-1.0 26:-1.0 27:-1.0 28:-1.0 29:-1.0 30:-1.0 31:-1.0 32:-1.0 33:-1.0 34:-1.0 35:-1.0
-0.5000000000000207 1:1.0 2:-0.36119264364242554 3:-0.4891640841960907 4:-1.0 5:-1.0 6:-0.8592171669006348 7:-0.9993577599525452 8:-0.907216489315033 9:-0.8310810923576355 10:-1.0 11:-0.5 12:-1.0 13:-0.6000000238418579 14:0.0 15:-1.0 16:1.0 17:-1.0 18:-1.0 19:-1.0 20:-1.0 21:-1.0 22:-0.8739868402481079 23:-0.9848748445510864 24:-0.9990168809890747 25:1.0 26:-1.0 27:-1.0 28:-1.0 29:-1.0 30:-1.0 31:-1.0 32:-1.0 33:-1.0 34:-1.0 35:-1.0
-0.5000000000000207 1:1.0 2:-0.5125521421432495 3:-0.5844875574111938 4:-1.0 5:-1.0 6:-0.8592171669006348 7:-0.9976450204849243 8:-0.9973856210708618 9:-0.9137930870056152 10:-1.0 11:-0.5 12:-1.0 13:-0.5 14:0.0 15:-1.0 16:1.0 17:-1.0 18:-1.0 19:-1.0 20:-1.0 21:-1.0 22:0.487787127494812 23:-0.9874895215034485 24:-0.9999196529388428 25:1.0 26:-1.0 27:-1.0 28:-1.0 29:-1.0 30:-1.0 31:-1.0 32:-1.0 33:-1.0 34:-1.0 35:-1.0
0.5000000000000207 1:-1.0 2:-0.43978601694107056 3:-0.5394737124443054 4:-0.8125131726264954 5:-0.8364078402519226 6:-0.8592171669006348 7:-0.9997859001159668 8:-0.940119743347168 9:-0.9395161271095276 10:-1.0 11:-0.5 12:-1.0 13:-0.10000000149011612 14:0.0 15:-1.0 16:-1.0 17:-1.0 18:-1.0 19:-1.0 20:-1.0 21:-1.0 22:0.15054190158843994 23:-0.9895771741867065 24:-0.9989145398139954 25:-1.0 26:-1.0 27:-1.0 28:-1.0 29:-1.0 30:-1.0 31:-1.0 32:-1.0 33:-1.0 34:-1.0 35:-1.0
-0.5000000000000207 1:1.0 2:-0.43978601694107056 3:-0.3684210479259491 4:-1.0 5:-1.0 6:-0.6785190105438232 7:-0.9995718002319336 8:-0.9739130139350891 9:-0.9234693646430969 10:-1.0 11:-0.5 12:-1.0 13:-0.6000000238418579 14:0.0 15:-1.0 16:1.0 17:-1.0 18:-1.0 19:-1.0 20:-1.0 21:-1.0 22:-0.9284854531288147 23:-0.9771458506584167 24:-0.9881161451339722 25:1.0 26:-1.0 27:-1.0 28:-1.0 29:-1.0 30:-1.0 31:-1.0 32:-1.0 33:-1.0 34:-1.0 35:-1.0
-0.5000000000000207 1:1.0 2:-0.18217240273952484 3:-0.3684210479259491 4:-1.0 5:-1.0 6:-0.8592171669006348 7:-0.9970027804374695 8:-0.8832116723060608 9:-0.8192771077156067 10:-1.0 11:-0.5 12:-1.0 13:-0.800000011920929 14:0.0 15:-1.0 16:1.0 17:-1.0 18:-1.0 19:-1.0 20:-1.0 21:-1.0 22:0.27596190571784973 23:-0.9865388870239258 24:-0.9999035000801086 25:1.0 26:-1.0 27:-1.0 28:-1.0 29:-1.0 30:-1.0 31:-1.0 32:-1.0 33:-1.0 34:-1.0 35:-1.0
-0.5000000000000207 1:1.0 2:0.31940367817878723 3:-0.25438597798347473 4:-0.8121734857559204 5:-1.0 6:-1.0 7:-0.5369299650192261 8:-0.8686636090278625 9:-0.7540983557701111 10:-1.0 11:-0.5 12:-1.0 13:0.0 14:0.0 15:-1.0 16:1.0 17:-1.0 18:-1.0 19:-1.0 20:-1.0 21:-1.0 22:-0.49390703439712524 23:-0.894450843334198 24:-0.9648837447166443 25:1.0 26:-1.0 27:-1.0 28:-1.0 29:-1.0 30:-1.0 31:-1.0 32:-1.0 33:-1.0 34:-1.0 35:-1.0
0.5000000000000207 1:-1.0 2:0.03693067282438278 3:0.11455108225345612 4:-0.683696985244751 5:-0.0924055427312851 6:-0.27059224247932434 7:-0.999143660068512 8:-0.879365086555481 9:-0.8666666746139526 10:-1.0 11:-0.5 12:-1.0 13:-0.4000000059604645 14:0.0 15:1.0 16:-1.0 17:-1.0 18:-1.0 19:-1.0 20:-1.0 21:-1.0 22:-0.6685953736305237 23:-0.9823659062385559 24:-0.9987397789955139 25:1.0 26:-1.0 27:-1.0 28:-1.0 29:-1.0 30:-1.0 31:-1.0 32:-1.0 33:-1.0 34:-1.0 35:-1.0
0.5000000000000207 1:-1.0 2:-0.580295741558075 3:-0.625 4:-0.8063971400260925 5:-0.8314799666404724 6:-0.8592171669006348 7:-1.0 8:-1.0 9:-1.0 10:-1.0 11:-0.5 12:-1.0 13:-0.30000001192092896 14:0.0 15:-1.0 16:-1.0 17:-1.0 18:-1.0 19:-1.0 20:-1.0 21:-1.0 22:0.07132477313280106 23:-0.9955770969390869 24:-0.9999895691871643 25:-1.0 26:-1.0 27:-1.0 28:-1.0 29:-1.0 30:-1.0 31:-1.0 32:-1.0 33:-1.0 34:-1.0 35:-1.0
0.5000000000000207 1:-0.75 2:0.31940367817878723 3:0.4164086580276489 4:-0.6910058856010437 5:-0.325209379196167 6:-0.5295780897140503 7:-0.9972168803215027 8:-0.8880208134651184 9:-0.8989899158477783 10:-1.0 11:-0.5 12:-1.0 13:-0.699999988079071 14:0.0 15:1.0 16:-1.0 17:-1.0 18:-1.0 19:-1.0 20:-1.0 21:-1.0 22:-0.3065415620803833 23:-0.9774469137191772 24:-0.9983450770378113 25:1.0 26:-1.0 27:-1.0 28:-1.0 29:-1.0 30:-1.0 31:-1.0 32:-1.0 33:-1.0 34:-1.0 35:-1.0
-0.5000000000000207 1:-1.0 2:-0.580295741558075 3:-0.625 4:-1.0 5:-1.0 6:-0.8592171669006348 7:-0.9995718002319336 8:-0.9867549538612366 9:-0.9695122241973877 10:-1.0 11:-0.5 12:-1.0 13:-0.30000001192092896 14:0.0 15:-1.0 16:-1.0 17:-1.0 18:-1.0 19:-1.0 20:-1.0 21:-1.0 22:0.32386699318885803 23:-0.9872241020202637 24:-0.9992003440856934 25:-1.0 26:-1.0 27:-1.0 28:-1.0 29:-1.0 30:-1.0 31:-1.0 32:-1.0 33:-1.0 34:-1.0 35:-1.0
-0.5000000000000207 1:-1.0 2:-0.43978601694107056 3:-0.5394737124443054 4:-0.7230446934700012 5:-0.7666218876838684 6:-0.8592171669006348 7:-0.9976450204849243 8:-0.9350000023841858 9:-0.8958333134651184 10:-1.0 11:-0.5 12:-1.0 13:-0.6000000238418579 14:0.0 15:-1.0 16:-1.0 17:-1.0 18:-1.0 19:-1.0 20:-1.0 21:-1.0 22:0.3751804530620575 23:-0.9910494685173035 24:-0.9999051094055176 25:-1.0 26:-1.0 27:-1.0 28:-1.0 29:-1.0 30:-1.0 31:-1.0 32:-1.0 33:-1.0 34:-1.0 35:-1.0
-0.5000000000000207 1:-1.0 2:-0.36119264364242554 3:-0.4891640841960907 4:-0.8072893023490906 5:-0.8321973085403442 6:-0.8592171669006348 7:-0.9985014200210571 8:-0.8461538553237915 9:-0.9285714030265808 10:-1.0 11:-0.5 12:-1.0 13:-0.10000000149011612 14:0.0 15:-1.0 16:-1.0 17:-1.0 18:-1.0 19:-1.0 20:-1.0 21:-1.0 22:0.011191358789801598 23:-0.9853739142417908 24:-0.9994592666625977 25:-1.0 26:-1.0 27:-1.0 28:-1.0 29:-1.0 30:-1.0 31:-1.0 32:-1.0 33:-1.0 34:-1.0 35:-1.0
0.5000000000000207 1:1.0 2:-0.18217240273952484 3:-0.1873065084218979 4:-1.0 5:-1.0 6:-0.7888122200965881 7:-0.9638193249702454 8:-0.6512820720672607 9:-0.8630136847496033 10:-1.0 11:-0.5 12:-1.0 13:0.0 14:0.0 15:-1.0 16:1.0 17:-1.0 18:-1.0 19:-1.0 20:-1.0 21:-1.0 22:-0.6636099815368652 23:-0.9583656787872314 24:-0.9971995949745178 25:1.0 26:-1.0 27:-1.0 28:-1.0 29:-1.0 30:-1.0 31:-1.0 32:-1.0 33:-1.0 34:-1.0 35:-1.0
0.5000000000000207 1:1.0 2:0.03693067282438278 3:-0.02631578966975212 4:-1.0 5:-1.0 6:-0.467217355966568 7:-0.9203596711158752 8:-0.6396396160125732 9:-0.5639534592628479 10:-1.0 11:-0.5 12:-1.0 13:-0.20000000298023224 14:0.0 15:1.0 16:1.0 17:-1.0 18:-1.0 19:-1.0 20:-1.0 21:-1.0 22:-0.3659992218017578 23:-0.9748517870903015 24:-0.9983776211738586 25:1.0 26:-1.0 27:-1.0 28:-1.0 29:-1.0 30:-1.0 31:-1.0 32:-1.0 33:-1.0 34:-1.0 35:-1.0
0.36489851019805897 1:1.0 2:-0.18217240273952484 3:-0.04432132840156555 4:-1.0 5:-1.0 6:-0.5928457975387573 7:-0.9661742448806763 8:-0.9880209565162659 9:-0.7916666865348816 10:-1.0 11:-0.5 12:-1.0 13:0.0 14:0.0 15:-1.0 16:1.0 17:-1.0 18:-1.0 19:-1.0 20:-1.0 21:-1.0 22:0.6726527214050293 23:-0.9986458420753479 24:-0.9999943971633911 25:1.0 26:-1.0 27:-1.0 28:-1.0 29:-1.0 30:-1.0 31:-1.0 32:-1.0 33:-1.0 34:-1.0 35:-1.0
0.5000000000000207 1:-1.0 2:-0.580295741558075 3:-0.625 4:-0.7925708889961243 5:-0.8204271793365479 6:-0.8592171669006348 7:-0.9995718002319336 8:-0.9525862336158752 9:-0.9152542352676392 10:-1.0 11:-0.5 12:-1.0 13:0.0 14:0.0 15:-1.0 16:-1.0 17:-1.0 18:-1.0 19:-1.0 20:-1.0 21:-1.0 22:-0.39941492676734924 23:-0.9647306203842163 24:-0.9991098046302795 25:-1.0 26:-1.0 27:-1.0 28:-1.0 29:-1.0 30:-1.0 31:-1.0 32:-1.0 33:-1.0 34:-1.0 35:-1.0
-0.5000000000000207 1:-1.0 2:-0.18217240273952484 3:-0.04432132840156555 4:-0.7472665905952454 5:-0.3877432644367218 6:-0.49870580434799194 7:-0.9985014200210571 8:-0.9420289993286133 9:-0.9576271176338196 10:-1.0 11:-0.5 12:-1.0 13:-0.5 14:0.0 15:1.0 16:-1.0 17:-1.0 18:-1.0 19:-1.0 20:-1.0 21:-1.0 22:0.1616438776254654 23:-0.910507082939148 24:-0.9957438111305237 25:1.0 26:-1.0 27:-1.0 28:-1.0 29:-1.0 30:-1.0 31:-1.0 32:-1.0 33:-1.0 34:-1.0 35:-1.0
-0.5000000000000207 1:-0.75 2:0.31940367817878723 3:0.18421052396297455 4:-0.6770056486129761 5:-0.22351515293121338 6:-0.44516071677207947 7:-0.9976450204849243 8:-0.8788732290267944 9:-0.9743150472640991 10:-1.0 11:-0.5 12:-1.0 13:-0.20000000298023224 14:0.0 15:1.0 16:-1.0 17:-1.0 18:-1.0 19:-1.0 20:-1.0 21:-1.0 22:0.23257313668727875 23:-0.9732089638710022 24:-0.998201310634613 25:1.0 26:-1.0 27:-1.0 28:-1.0 29:-1.0 30:-1.0 31:-1.0 32:-1.0 33:-1.0 34:-1.0 35:-1.0
-0.5000000000000207 1:1.0 2:0.03693067282438278 3:-0.21052631735801697 4:-0.7615302205085754 5:-0.7960458993911743 6:-0.8592171669006348 7:-0.9907942414283752 8:-0.8285114169120789 9:-0.6987951993942261 10:-1.0 11:-0.5 12:-1.0 13:-0.30000001192092896 14:0.0 15:-1.0 16:-1.0 17:-1.0 18:-1.0 19:-1.0 20:-1.0 21:-1.0 22:0.5929253697395325 23:-0.9544643759727478 24:-0.9988253712654114 25:1.0 26:-1.0 27:-1.0 28:-1.0 29:0.0 30:-0.3333333432674408 31:0.0 32:0.0 33:-0.3333333432674408 34:0.0 35:-1.0
0.5000000000000207 1:-1.0 2:-0.2757568061351776 3:-0.4325657784938812 4:-1.0 5:-1.0 6:-0.8890299797058105 7:-1.0 8:-0.9857853651046753 9:-1.0 10:-1.0 11:-0.5 12:-1.0 13:-0.4000000059604645 14:0.0 15:-1.0 16:-1.0 17:-1.0 18:-1.0 19:-1.0 20:-1.0 21:-1.0 22:0.13342544436454773 23:-0.9942992925643921 24:-0.999970555305481 25:-1.0 26:-1.0 27:-1.0 28:-1.0 29:-1.0 30:-1.0 31:-1.0 32:-1.0 33:-1.0 34:-1.0 35:-1.0
0.5000000000000207 1:-1.0 2:-0.43978601694107056 3:-0.5394737124443054 4:-0.8021283745765686 5:-0.8280546069145203 6:-0.8592171669006348 7:-0.9997859001159668 8:-0.9912472367286682 9:-0.9908424615859985 10:-1.0 11:-0.5 12:-1.0 13:-0.5 14:0.0 15:-1.0 16:-1.0 17:-1.0 18:-1.0 19:-1.0 20:-1.0 21:-1.0 22:0.13211314380168915 23:-0.9755192399024963 24:-0.9997254014015198 25:-1.0 26:-1.0 27:-1.0 28:-1.0 29:-1.0 30:-1.0 31:-1.0 32:-1.0 33:-1.0 34:-1.0 35:-1.0
0.5000000000000207 1:-1.0 2:-0.43978601694107056 3:-0.7532894611358643 4:-1.0 5:-1.0 6:-1.0 7:-0.9340612292289734 8:-0.9863508343696594 9:-0.8876404762268066 10:-1.0 11:-0.5 12:-1.0 13:-0.5 14:0.0 15:-1.0 16:-1.0 17:-1.0 18:-1.0 19:-1.0 20:-1.0 21:-1.0 22:0.0898732990026474 23:-0.9905831813812256 24:-0.9996681213378906 25:-1.0 26:-1.0 27:-1.0 28:-1.0 29:-1.0 30:-1.0 31:-1.0 32:-1.0 33:-1.0 34:-1.0 35:-1.0
-0.5000000000000207 1:-1.0 2:-0.43978601694107056 3:-0.5394737124443054 4:-1.0 5:-1.0 6:-0.8592171669006348 7:-0.9997859001159668 8:-0.9938280582427979 9:-0.9397590160369873 10:-1.0 11:-0.5 12:-1.0 13:-0.4000000059604645 14:0.0 15:-1.0 16:-1.0 17:-1.0 18:-1.0 19:-1.0 20:-1.0 21:-1.0 22:-0.27714118361473083 23:-0.993823230266571 24:-0.9997907876968384 25:-1.0 26:-1.0 27:-1.0 28:-1.0 29:-1.0 30:-1.0 31:-1.0 32:-1.0 33:-1.0 34:-1.0 35:-1.0
0.5000000000000207 1:-1.0 2:-0.2757568061351776 3:0.0047846888191998005 4:-0.7084835171699524 5:-0.1302315890789032 6:-0.26311925053596497 7:-0.9910083413124084 8:-0.8578680157661438 9:-0.8130841255187988 10:-1.0 11:-0.5 12:-1.0 13:-0.5 14:0.0 15:1.0 16:-1.0 17:-1.0 18:-1.0 19:-1.0 20:-1.0 21:-1.0 22:0.2798817455768585 23:-0.9908479452133179 24:-0.9998586177825928 25:1.0 26:-1.0 27:-1.0 28:-1.0 29:-1.0 30:-1.0 31:-1.0 32:-1.0 33:-1.0 34:-1.0 35:-1.0
-0.5000000000000207 1:-1.0 2:-0.43978601694107056 3:-0.7532894611358643 4:-0.8073452711105347 5:-1.0 6:-1.0 7:-0.9931492209434509 8:-0.9658767580986023 9:-0.8784194588661194 10:-1.0 11:-0.5 12:-1.0 13:-0.20000000298023224 14:0.0 15:-1.0 16:-1.0 17:-1.0 18:-1.0 19:-1.0 20:-1.0 21:-1.0 22:-0.27130210399627686 23:-0.846522867679596 24:-0.9899905920028687 25:-1.0 26:-1.0 27:-1.0 28:-1.0 29:-1.0 30:-1.0 31:-1.0 32:-1.0 33:-1.0 34:-1.0 35:-1.0
0.5000000000000207 1:-0.75 2:0.31940367817878723 3:0.4164086580276489 4:-0.7597375512123108 5:-0.436894953250885 6:-0.5295780897140503 7:-0.9873688817024231 8:-0.47445255517959595 9:-0.6499999761581421 10:-1.0 11:-0.5 12:-1.0 13:0.10000000149011612 14:0.0 15:1.0 16:-1.0 17:-1.0 18:-1.0 19:-1.0 20:-1.0 21:-1.0 22:0.2536424398422241 23:-0.9851232171058655 24:-0.9997859001159668 25:1.0 26:-1.0 27:-1.0 28:-1.0 29:-1.0 30:-1.0 31:-1.0 32:-1.0 33:-1.0 34:-1.0 35:-1.0
0.1777203768463891 1:1.0 2:-0.07871966063976288 3:-0.2951127886772156 4:-0.7654152512550354 5:-0.7990652322769165 6:-0.8592171669006348 7:-0.9775208830833435 8:-0.7419185042381287 9:-0.3676222562789917 10:-1.0 11:-0.5 12:-1.0 13:-0.5 14:0.0 15:-1.0 16:-1.0 17:-1.0 18:-1.0 19:-1.0 20:-1.0 21:-1.0 22:0.25102201104164124 23:-0.9498453140258789 24:-0.9978070855140686 25:1.0 26:-1.0 27:-1.0 28:-1.0 29:0.0 30:-0.3333333432674408 31:0.0 32:0.0 33:-0.3333333432674408 34:0.0 35:-1.0
0.5000000000000207 1:-1.0 2:-0.2757568061351776 3:-0.4325657784938812 4:-0.7292402386665344 5:-0.7712999582290649 6:-0.8592171669006348 7:-0.9126525521278381 8:-0.9158022999763489 9:-0.7144288420677185 10:-1.0 11:-0.5 12:-1.0 13:0.0 14:0.0 15:1.0 16:-1.0 17:-1.0 18:-1.0 19:-1.0 20:-1.0 21:-1.0 22:-0.06041047349572182 23:-0.9705505967140198 24:-0.9984564185142517 25:1.0 26:-1.0 27:-1.0 28:-1.0 29:-1.0 30:-1.0 31:-1.0 32:-1.0 33:-1.0 34:-1.0 35:-1.0
-0.5000000000000207 1:-1.0 2:0.16804420948028564 3:0.20888157188892365 4:-0.4839133024215698 5:0.39764314889907837 6:0.10870648175477982 7:-0.9963605403900146 8:-0.8610709309577942 9:-0.7321428656578064 10:-1.0 11:-0.5 12:-1.0 13:-0.6000000238418579 14:0.0 15:1.0 16:-1.0 17:-1.0 18:-1.0 19:-1.0 20:-1.0 21:-1.0 22:-0.30489903688430786 23:-0.973634660243988 24:-0.9978637099266052 25:1.0 26:-1.0 27:-1.0 28:-1.0 29:-1.0 30:-1.0 31:-1.0 32:-1.0 33:-1.0 34:-1.0 35:-1.0
-0.5000000000000207 1:1.0 2:-0.2757568061351776 3:-0.4325657784938812 4:-1.0 5:-1.0 6:-0.8592171669006348 7:-1.0 8:-0.9398496150970459 9:-0.9152542352676392 10:-1.0 11:-1.0 12:-1.0 13:-1.0 14:-1.0 15:-1.0 16:-1.0 17:-1.0 18:-1.0 19:-1.0 20:-1.0 21:-1.0 22:0.43525099754333496 23:-0.9959410429000854 24:-0.9999769926071167 25:-1.0 26:-1.0 27:-1.0 28:-1.0 29:-1.0 30:-1.0 31:-1.0 32:-1.0 33:-1.0 34:-1.0 35:-1.0
-0.5000000000000207 1:1.0 2:-0.36119264364242554 3:-0.4891640841960907 4:-1.0 5:-1.0 6:-0.8592171669006348 7:-1.0 8:-0.9698795080184937 9:-1.0 10:-1.0 11:-1.0 12:-1.0 13:-1.0 14:-1.0 15:-1.0 16:-1.0 17:-1.0 18:-1.0 19:-1.0 20:-1.0 21:-1.0 22:-0.03590300679206848 23:-0.9896140694618225 24:-0.9999066591262817 25:-1.0 26:-1.0 27:-1.0 28:-1.0 29:-1.0 30:-1.0 31:-1.0 32:-1.0 33:-1.0 34:-1.0 35:-1.0
0.5000000000000207 1:1.0 2:-0.2757568061351776 3:-0.4325657784938812 4:-0.7753633260726929 5:-0.8068382740020752 6:-0.8592171669006348 7:-0.8477842211723328 8:-0.7862166166305542 9:-0.08071748912334442 10:-1.0 11:-0.5 12:-1.0 13:-0.5 14:0.0 15:-1.0 16:-1.0 17:-1.0 18:-1.0 19:-1.0 20:-1.0 21:-1.0 22:0.5997484922409058 23:-0.9732627272605896 24:-0.9994108080863953 25:1.0 26:-1.0 27:-1.0 28:-1.0 29:0.0 30:-0.3333333432674408 31:0.0 32:0.0 33:-0.3333333432674408 34:0.0 35:-1.0
0.5000000000000207 1:1.0 2:0.4984239339828491 3:0.4379699230194092 4:-1.0 5:-1.0 6:-0.45653972029685974 7:-0.9852280020713806 8:-0.8217054009437561 9:-0.927066445350647 10:-1.0 11:-0.5 12:-1.0 13:-0.6000000238418579 14:0.0 15:-1.0 16:1.0 17:-1.0 18:-1.0 19:-1.0 20:-1.0 21:-1.0 22:-0.5088745355606079 23:-0.8284918665885925 24:-0.9874137043952942 25:1.0 26:-1.0 27:-1.0 28:-1.0 29:-1.0 30:-1.0 31:-1.0 32:-1.0 33:-1.0 34:-1.0 35:-1.0
0.20579097642656052 1:1.0 2:-0.43978601694107056 3:-0.5394737124443054 4:-0.7999452352523804 5:-0.8263072967529297 6:-0.8592171669006348 7:-0.9773067831993103 8:-0.9243941903114319 9:-0.5904645323753357 10:-1.0 11:-0.5 12:-1.0 13:-0.5 14:0.0 15:-1.0 16:-1.0 17:-1.0 18:-1.0 19:-1.0 20:-1.0 21:-1.0 22:0.11688113212585449 23:-0.9246345162391663 24:-0.9715264439582825 25:1.0 26:-1.0 27:-1.0 28:-1.0 29:0.0 30:-0.3333333432674408 31:0.0 32:0.0 33:-0.3333333432674408 34:0.0 35:-1.0
-0.14138429717799136 1:-1.0 2:-0.2757568061351776 3:-0.6616541147232056 4:-0.7934041619300842 5:-1.0 6:-1.0 7:-0.9989295601844788 8:-0.9644245505332947 9:-0.9590163826942444 10:-1.0 11:-1.0 12:-1.0 13:-1.0 14:-1.0 15:-1.0 16:-1.0 17:-1.0 18:-1.0 19:-1.0 20:-1.0 21:-1.0 22:-0.7371540665626526 23:-0.978952169418335 24:-0.9988929033279419 25:-1.0 26:-1.0 27:-1.0 28:-1.0 29:-1.0 30:-1.0 31:-1.0 32:-1.0 33:-1.0 34:-1.0 35:-1.0
0.5000000000000207 1:-1.0 2:-0.5125521421432495 3:-0.7910216450691223 4:-0.8127971291542053 5:-1.0 6:-1.0 7:-0.9698137640953064 8:-0.8129496574401855 9:-0.6830065250396729 10:-1.0 11:-0.5 12:-1.0 13:0.10000000149011612 14:0.0 15:-1.0 16:-1.0 17:-1.0 18:-1.0 19:-1.0 20:-1.0 21:-1.0 22:-0.6119965314865112 23:-0.9506520628929138 24:-0.9788615703582764 25:1.0 26:-1.0 27:-1.0 28:-1.0 29:-1.0 30:-1.0 31:0.0 32:0.0 33:-0.3333333432674408 34:0.0 35:-1.0
0.3780197103410388 1:-1.0 2:0.03693067282438278 3:0.2257617712020874 4:-0.6388353705406189 5:0.06387007981538773 6:-0.148234024643898 7:-0.9978591203689575 8:-0.791304349899292 9:-0.8584905862808228 10:-1.0 11:-0.5 12:-1.0 13:-0.20000000298023224 14:0.0 15:1.0 16:-1.0 17:-1.0 18:-1.0 19:-1.0 20:-1.0 21:-1.0 22:0.18354874849319458 23:-0.9951547980308533 24:-0.9999651312828064 25:1.0 26:-1.0 27:-1.0 28:-1.0 29:-1.0 30:-1.0 31:-1.0 32:-1.0 33:-1.0 34:-1.0 35:-1.0
-0.5000000000000207 1:1.0 2:-0.36119264364242554 3:-0.4891640841960907 4:-0.7863492965698242 5:-0.8154927492141724 6:-0.8592171669006348 7:-0.9927210211753845 8:-0.9271708726882935 9:-0.8226950168609619 10:-1.0 11:-0.5 12:-1.0 13:-0.20000000298023224 14:0.0 15:-1.0 16:-1.0 17:-1.0 18:-1.0 19:-1.0 20:-1.0 21:-1.0 22:-0.1269812285900116 23:-0.9768083691596985 24:-0.9994324445724487 25:1.0 26:-1.0 27:-1.0 28:-1.0 29:0.0 30:-0.3333333432674408 31:0.0 32:0.0 33:-0.3333333432674408 34:0.0 35:-1.0
-0.5000000000000207 1:-1.0 2:-0.18217240273952484 3:-0.3684210479259491 4:-0.7994551658630371 5:-0.8259154558181763 6:-0.8592171669006348 7:-0.9708842039108276 8:-0.9390962719917297 9:-0.9757281541824341 10:-1.0 11:-0.5 12:-1.0 13:-0.30000001192092896 14:0.0 15:1.0 16:-1.0 17:-1.0 18:-1.0 19:-1.0 20:-1.0 21:-1.0 22:-0.2144801765680313 23:-0.9853411912918091 24:-0.9996986985206604 25:1.0 26:-1.0 27:-1.0 28:-1.0 29:-1.0 30:-1.0 31:-1.0 32:-1.0 33:-1.0 34:-1.0 35:-1.0
-0.5000000000000207 1:1.0 2:0.16804420948028564 3:0.31578946113586426 4:-1.0 5:-1.0 6:-0.26311925053596497 7:-1.0 8:-0.9876756072044373 9:-1.0 10:-1.0 11:-0.5 12:-1.0 13:0.0 14:0.0 15:-1.0 16:1.0 17:-1.0 18:-1.0 19:-1.0 20:-1.0 21:-1.0 22:-0.5194624662399292 23:-0.990558922290802 24:-0.9998630881309509 25:1.0 26:-1.0 27:-1.0 28:-1.0 29:-1.0 30:-1.0 31:-1.0 32:-1.0 33:-1.0 34:-1.0 35:-1.0
0.5000000000000207 1:1.0 2:-0.6436656713485718 3:-0.6616541147232056 4:-1.0 5:-1.0 6:-0.8592171669006348 7:-0.9993577599525452 8:-0.8823529481887817 9:-0.854651153087616 10:-1.0 11:-1.0 12:-1.0 13:-1.0 14:-1.0 15:-1.0 16:-1.0 17:-1.0 18:-1.0 19:-1.0 20:-1.0 21:-1.0 22:-0.5014090538024902 23:-0.9929553270339966 24:-0.9997963309288025 25:-1.0 26:-1.0 27:-1.0 28:-1.0 29:-1.0 30:-1.0 31:-1.0 32:-1.0 33:-1.0 34:-1.0 35:-1.0
0.5000000000000207 1:1.0 2:-0.36119264364242554 3:-0.3144044280052185 4:-1.0 5:-1.0 6:-0.4332105219364166 7:-0.9974309802055359 8:-0.88852459192276 9:-0.8481308221817017 10:-1.0 11:-1.0 12:-1.0 13:-1.0 14:-1.0 15:-1.0 16:-1.0 17:-1.0 18:-1.0 19:-1.0 20:-1.0 21:-1.0 22:-0.5484433770179749 23:-0.894022524356842 24:-0.9890720844268799 25:-1.0 26:-1.0 27:-1.0 28:-1.0 29:-1.0 30:-1.0 31:-1.0 32:-1.0 33:-1.0 34:-1.0 35:-1.0
0.5000000000000207 1:1.0 2:-0.580295741558075 3:-0.8245614171028137 4:-1.0 5:-1.0 6:-1.0 7:-0.9963605403900146 8:-0.9419729113578796 9:-0.608433723449707 10:-1.0 11:-1.0 12:-1.0 13:-1.0 14:-1.0 15:-1.0 16:-1.0 17:-1.0 18:-1.0 19:-1.0 20:-1.0 21:-1.0 22:-0.8578813076019287 23:-0.9886150360107422 24:-0.9993538856506348 25:-1.0 26:-1.0 27:-1.0 28:-1.0 29:-1.0 30:-1.0 31:-1.0 32:-1.0 33:-1.0 34:-1.0 35:-1.0
-0.5000000000000207 1:-1.0 2:-0.43978601694107056 3:-0.7532894611358643 4:-1.0 5:-1.0 6:-1.0 7:-0.9987154603004456 8:-0.90055251121521 9:-0.8360655903816223 10:-1.0 11:-0.5 12:-1.0 13:-0.4000000059604645 14:0.0 15:-1.0 16:-1.0 17:-1.0 18:-1.0 19:-1.0 20:-1.0 21:-1.0 22:-0.2916434109210968 23:-0.9909992814064026 24:-0.9998822808265686 25:-1.0 26:-1.0 27:-1.0 28:-1.0 29:-1.0 30:-1.0 31:-1.0 32:-1.0 33:-1.0 34:-1.0 35:-1.0
-0.18458355516575023 1:-1.0 2:-0.5125521421432495 3:-0.5844875574111938 4:-1.0 5:-1.0 6:-0.8890299797058105 7:-0.9997859001159668 8:-0.9816414713859558 9:-0.9867724776268005 10:-1.0 11:-0.5 12:-1.0 13:-0.4000000059604645 14:0.0 15:-1.0 16:-1.0 17:-1.0 18:-1.0 19:-1.0 20:-1.0 21:-1.0 22:-0.3124930262565613 23:-0.9178093075752258 24:-0.9666699767112732 25:-1.0 26:-1.0 27:-1.0 28:-1.0 29:-1.0 30:-1.0 31:-1.0 32:-1.0 33:-1.0 34:-1.0 35:-1.0
0.24021923694252975 1:-0.75 2:0.31940367817878723 3:0.4164086580276489 4:-0.5642028450965881 5:0.19499200582504272 6:-0.10368858277797699 7:-0.9629629850387573 8:-0.8873873949050903 9:-0.7535211443901062 10:-1.0 11:0.0 12:-1.0 13:0.0 14:0.0 15:1.0 16:-1.0 17:-1.0 18:-1.0 19:-1.0 20:-1.0 21:-1.0 22:-0.2694351375102997 23:-0.9913983345031738 24:-0.9998318552970886 25:1.0 26:-1.0 27:-1.0 28:-1.0 29:1.0 30:0.3333333432674408 31:1.0 32:1.0 33:0.3333333432674408 34:1.0 35:-1.0
-0.5000000000000207 1:1.0 2:-0.7031925320625305 3:-0.8815789222717285 4:-1.0 5:-1.0 6:-1.0 7:-0.9959323406219482 8:-0.9245283007621765 9:-0.8373983502388 10:-1.0 11:-1.0 12:-1.0 13:-1.0 14:-1.0 15:-1.0 16:-1.0 17:-1.0 18:-1.0 19:-1.0 20:-1.0 21:-1.0 22:-0.982404887676239 23:-0.9468773007392883 24:-0.983936071395874 25:-1.0 26:-1.0 27:-1.0 28:-1.0 29:-1.0 30:-1.0 31:-1.0 32:-1.0 33:-1.0 34:-1.0 35:-1.0
-0.02913029875980863 1:1.0 2:-0.18217240273952484 3:-0.3684210479259491 4:-1.0 5:-1.0 6:-0.8592171669006348 7:-0.9997859001159668 8:-0.9887449145317078 9:-0.949999988079071 10:-1.0 11:-0.5 12:-1.0 13:0.10000000149011612 14:0.0 15:-1.0 16:-1.0 17:-1.0 18:-1.0 19:-1.0 20:-1.0 21:-1.0 22:-0.861581027507782 23:-0.9866316318511963 24:-0.9987034797668457 25:-1.0 26:-1.0 27:-1.0 28:-1.0 29:-1.0 30:-1.0 31:-1.0 32:-1.0 33:-1.0 34:-1.0 35:-1.0
0.5000000000000207 1:-1.0 2:-0.36119264364242554 3:-0.7105262875556946 4:-1.0 5:-1.0 6:-1.0 7:-0.9982873201370239 8:-0.9849868416786194 9:-0.8529411554336548 10:-1.0 11:-0.5 12:-1.0 13:-0.20000000298023224 14:0.0 15:-1.0 16:-1.0 17:-1.0 18:-1.0 19:-1.0 20:-1.0 21:-1.0 22:-0.45350146293640137 23:-0.9838518500328064 24:-0.9995099306106567 25:-1.0 26:-1.0 27:-1.0 28:-1.0 29:-1.0 30:-1.0 31:-1.0 32:-1.0 33:-1.0 34:-1.0 35:-1.0
0.5000000000000207 1:-1.0 2:-0.5125521421432495 3:-0.7910216450691223 4:-1.0 5:-1.0 6:-1.0 7:-0.9995718002319336 8:-0.9983905553817749 9:-1.0 10:-1.0 11:-0.5 12:-1.0 13:0.20000000298023224 14:0.0 15:-1.0 16:-1.0 17:-1.0 18:-1.0 19:-1.0 20:-1.0 21:-1.0 22:-0.47494709491729736 23:-0.9954878091812134 24:-0.9999467134475708 25:-1.0 26:-1.0 27:-1.0 28:-1.0 29:-1.0 30:-1.0 31:-1.0 32:-1.0 33:-1.0 34:-1.0 35:-1.0
0.5000000000000207 1:-1.0 2:-0.580295741558075 3:-0.625 4:-0.8196963667869568 5:-0.8422260880470276 6:-0.8592171669006348 7:-0.9657461047172546 8:-0.9473684430122375 9:-0.9152542352676392 10:-1.0 11:-0.5 12:-1.0 13:-0.30000001192092896 14:0.0 15:-1.0 16:-1.0 17:-1.0 18:-1.0 19:-1.0 20:-1.0 21:-1.0 22:-0.4864150583744049 23:-0.9895843863487244 24:-0.9998319149017334 25:-1.0 26:-1.0 27:-1.0 28:-1.0 29:-1.0 30:-1.0 31:-1.0 32:-1.0 33:-1.0 34:-1.0 35:-1.0
-0.5000000000000207 1:1.0 2:-0.2757568061351776 3:-0.4325657784938812 4:-0.7716171145439148 5:-0.8039039969444275 6:-0.8592171669006348 7:-0.9040890336036682 8:-0.630512535572052 9:-0.3687707781791687 10:-1.0 11:-0.5 12:-1.0 13:-0.699999988079071 14:0.0 15:-1.0 16:-1.0 17:-1.0 18:-1.0 19:-1.0 20:-1.0 21:-1.0 22:0.6717147827148438 23:-0.9936254620552063 24:-0.9999623894691467 25:1.0 26:-1.0 27:-1.0 28:-1.0 29:0.0 30:-0.3333333432674408 31:0.0 32:0.0 33:-0.3333333432674408 34:0.0 35:-1.0
-0.5000000000000207 1:-1.0 2:0.16804420948028564 3:0.20888157188892365 4:-0.7617537975311279 5:-0.41348400712013245 6:-0.49870580434799194 7:-0.9985014200210571 8:-0.9061166644096375 9:-0.8611111044883728 10:-1.0 11:-0.5 12:-1.0 13:-0.30000001192092896 14:0.0 15:1.0 16:-1.0 17:-1.0 18:-1.0 19:-1.0 20:-1.0 21:-1.0 22:0.3606147766113281 23:-0.9939457774162292 24:-0.9999308586120605 25:1.0 26:-1.0 27:-1.0 28:-1.0 29:-1.0 30:-1.0 31:-1.0 32:-1.0 33:-1.0 34:-1.0 35:-1.0
-0.35800317395527037 1:1.0 2:-0.07871966063976288 3:-0.11184210330247879 4:-1.0 5:-1.0 6:-0.44516071677207947 7:-0.9653179049491882 8:-0.8389626145362854 9:-0.6549855470657349 10:-1.0 11:-1.0 12:-1.0 13:-1.0 14:-1.0 15:-1.0 16:-1.0 17:-1.0 18:-1.0 19:-1.0 20:-1.0 21:-1.0 22:-0.9095998406410217 23:-0.8513023853302002 24:-0.9321736693382263 25:-1.0 26:-1.0 27:-1.0 28:-1.0 29:-1.0 30:-1.0 31:-1.0 32:-1.0 33:-1.0 34:-1.0 35:-1.0
0.5000000000000207 1:1.0 2:-0.7031925320625305 3:-0.8815789222717285 4:-1.0 5:-1.0 6:-1.0 7:-0.9997859001159668 8:-0.9461883306503296 9:-0.96875 10:-1.0 11:-1.0 12:-1.0 13:-1.0 14:-1.0 15:-1.0 16:-1.0 17:-1.0 18:-1.0 19:-1.0 20:-1.0 21:-1.0 22:-0.9552655220031738 23:-0.9400863647460938 24:-0.9189109802246094 25:-1.0 26:-1.0 27:-1.0 28:-1.0 29:-1.0 30:-1.0 31:-1.0 32:-1.0 33:-1.0 34:-1.0 35:-1.0
0.3802382610580901 1:-1.0 2:-0.18217240273952484 3:-0.3684210479259491 4:-1.0 5:-1.0 6:-0.8592171669006348 7:-0.9987154603004456 8:-0.9217491149902344 9:-0.8853210806846619 10:-1.0 11:-0.5 12:-1.0 13:-0.10000000149011612 14:0.0 15:1.0 16:-1.0 17:-1.0 18:-1.0 19:-1.0 20:-1.0 21:-1.0 22:-0.5080606937408447 23:-0.9727383255958557 24:-0.9991433620452881 25:1.0 26:-1.0 27:-1.0 28:-1.0 29:-1.0 30:-1.0 31:-1.0 32:-1.0 33:-1.0 34:-1.0 35:-1.0
0.5000000000000207 1:-1.0 2:-0.36119264364242554 3:-0.4891640841960907 4:-1.0 5:-1.0 6:-0.8592171669006348 7:-0.9972168803215027 8:-0.8817567825317383 9:-0.8978365659713745 10:-1.0 11:-0.5 12:-1.0 13:-0.10000000149011612 14:0.0 15:1.0 16:-1.0 17:-1.0 18:-1.0 19:-1.0 20:-1.0 21:-1.0 22:-0.4551547169685364 23:-0.96202152967453 24:-0.9920517802238464 25:1.0 26:-1.0 27:-1.0 28:-1.0 29:-1.0 30:-1.0 31:-1.0 32:-1.0 33:-1.0 34:-1.0 35:-1.0
-0.5000000000000207 1:-1.0 2:-0.5125521421432495 3:-0.5844875574111938 4:-1.0 5:-1.0 6:-0.8592171669006348 7:-0.9985014200210571 8:-0.9682539701461792 9:-0.9626865386962891 10:-1.0 11:-0.5 12:-1.0 13:0.0 14:0.0 15:1.0 16:-1.0 17:-1.0 18:-1.0 19:-1.0 20:-1.0 21:-1.0 22:-0.022186579182744026 23:-0.9925827383995056 24:-0.9999606013298035 25:1.0 26:-1.0 27:-1.0 28:-1.0 29:-1.0 30:-1.0 31:-1.0 32:-1.0 33:-1.0 34:-1.0 35:-1.0
-0.5000000000000207 1:-1.0 2:-0.6436656713485718 3:-0.5022883415222168 4:-1.0 5:-1.0 6:-0.6785190105438232 7:-0.9959323406219482 8:-0.9321267008781433 9:-0.8892405033111572 10:-1.0 11:-0.5 12:-1.0 13:-0.4000000059604645 14:0.0 15:1.0 16:-1.0 17:-1.0 18:-1.0 19:-1.0 20:-1.0 21:-1.0 22:-0.9259889125823975 23:-0.9514688849449158 24:-0.9590100646018982 25:1.0 26:-1.0 27:-1.0 28:-1.0 29:-1.0 30:-1.0 31:-1.0 32:-1.0 33:-1.0 34:-1.0 35:-1.0
-0.5000000000000207 1:-1.0 2:0.03693067282438278 3:0.11455108225345612 4:-0.7281668186187744 5:-0.3550359010696411 6:-0.49870580434799194 7:-0.9899379014968872 8:-0.9076719880104065 9:-0.7026800513267517 10:-1.0 11:-0.5 12:-1.0 13:0.20000000298023224 14:0.0 15:1.0 16:-1.0 17:-1.0 18:-1.0 19:-1.0 20:-1.0 21:-1.0 22:-0.31307122111320496 23:-0.9685313701629639 24:-0.9988101124763489 25:1.0 26:-1.0 27:-1.0 28:-1.0 29:-1.0 30:-1.0 31:-1.0 32:-1.0 33:-1.0 34:-1.0 35:-1.0
0.5000000000000207 1:-1.0 2:-0.43978601694107056 3:-0.7532894611358643 4:-0.8326249122619629 5:-1.0 6:-1.0 7:-0.9978591203689575 8:-0.7526881694793701 9:-0.788557231426239 10:-1.0 11:-0.5 12:-1.0 13:-0.699999988079071 14:0.0 15:-1.0 16:-1.0 17:-1.0 18:-1.0 19:-1.0 20:-1.0 21:-1.0 22:-0.09501074254512787 23:-0.9782158136367798 24:-0.9982607960700989 25:-1.0 26:-1.0 27:-1.0 28:-1.0 29:-1.0 30:-1.0 31:-1.0 32:-1.0 33:-1.0 34:-1.0 35:-1.0
0.5000000000000207 1:-1.0 2:-0.5125521421432495 3:-0.7910216450691223 4:-0.815321683883667 5:-1.0 6:-1.0 7:-0.999143660068512 8:-0.949910581111908 9:-0.8936170339584351 10:-1.0 11:-0.5 12:-1.0 13:-0.800000011920929 14:0.0 15:-1.0 16:-1.0 17:-1.0 18:-1.0 19:-1.0 20:-1.0 21:-1.0 22:-0.6513819098472595 23:-0.9664395451545715 24:-0.9948821067810059 25:-1.0 26:-1.0 27:-1.0 28:-1.0 29:-1.0 30:-1.0 31:-1.0 32:-1.0 33:-1.0 34:-1.0 35:-1.0
0.5000000000000207 1:-1.0 2:-0.2757568061351776 3:-0.11184210330247879 4:-1.0 5:-1.0 6:-0.5928457975387573 7:-0.9980732202529907 8:-0.9512194991111755 9:-0.9691358208656311 10:-1.0 11:-0.5 12:-1.0 13:0.0 14:0.0 15:-1.0 16:-1.0 17:-1.0 18:-1.0 19:-1.0 20:-1.0 21:-1.0 22:-0.2444317638874054 23:-0.9949439167976379 24:-0.9998889565467834 25:-1.0 26:-1.0 27:-1.0 28:-1.0 29:-1.0 30:-1.0 31:-1.0 32:-1.0 33:-1.0 34:-1.0 35:-1.0
-0.5000000000000207 1:-1.0 2:-0.43978601694107056 3:-0.5394737124443054 4:-1.0 5:-1.0 6:-0.8592171669006348 7:-0.9182187914848328 8:-0.9607843160629272 9:-1.0 10:-1.0 11:-0.5 12:-1.0 13:-0.5 14:0.0 15:-1.0 16:-1.0 17:-1.0 18:-1.0 19:-1.0 20:-1.0 21:-1.0 22:-0.49262604117393494 23:-0.9943004846572876 24:-0.9999060034751892 25:-1.0 26:-1.0 27:-1.0 28:-1.0 29:-1.0 30:-1.0 31:-1.0 32:-1.0 33:-1.0 34:-1.0 35:-1.0
0.46951580731364795 1:-0.75 2:0.31940367817878723 3:0.31578946113586426 4:-0.7585623860359192 5:-0.5563074350357056 6:-0.6562143564224243 7:-0.9779490232467651 8:-0.9351464509963989 9:-0.9294670820236206 10:-1.0 11:-0.5 12:-1.0 13:-0.6000000238418579 14:0.0 15:1.0 16:-1.0 17:-1.0 18:-1.0 19:-1.0 20:-1.0 21:-1.0 22:0.3065720498561859 23:-0.9509049654006958 24:-0.997380256652832 25:1.0 26:-1.0 27:-1.0 28:-1.0 29:-1.0 30:-1.0 31:-1.0 32:-1.0 33:-1.0 34:-1.0 35:-1.0
0.5000000000000207 1:-1.0 2:0.03693067282438278 3:-0.02631578966975212 4:-0.7490144371986389 5:-0.3451020419597626 6:-0.44516071677207947 7:-0.9978591203689575 8:-0.9760119915008545 9:-0.8287671208381653 10:-1.0 11:-0.5 12:-1.0 13:0.5 14:0.0 15:1.0 16:-1.0 17:-1.0 18:-1.0 19:-1.0 20:-1.0 21:-1.0 22:-0.2894684970378876 23:-0.9901279211044312 24:-0.9997779130935669 25:1.0 26:-1.0 27:-1.0 28:-1.0 29:-1.0 30:-1.0 31:-1.0 32:-1.0 33:-1.0 34:-1.0 35:-1.0
-0.3495162101058855 1:-1.0 2:-0.18217240273952484 3:-0.04432132840156555 4:-1.0 5:-1.0 6:-0.5928457975387573 7:-0.9980732202529907 8:-0.9821255803108215 9:-0.9096385836601257 10:-1.0 11:-0.5 12:-1.0 13:0.10000000149011612 14:0.0 15:-1.0 16:-1.0 17:-1.0 18:-1.0 19:-1.0 20:-1.0 21:-1.0 22:-0.43409428000450134 23:-0.9723758697509766 24:-0.9863517880439758 25:-1.0 26:-1.0 27:-1.0 28:-1.0 29:-1.0 30:-1.0 31:-1.0 32:-1.0 33:-1.0 34:-1.0 35:-1.0
-0.5000000000000207 1:-1.0 2:0.03693067282438278 3:0.2257617712020874 4:-1.0 5:-1.0 6:-0.5295780897140503 7:-0.9980732202529907 8:-0.782608687877655 9:-0.9264705777168274 10:-1.0 11:-0.5 12:-1.0 13:0.30000001192092896 14:0.0 15:-1.0 16:-1.0 17:-1.0 18:-1.0 19:-1.0 20:-1.0 21:-1.0 22:-0.519619882106781 23:-0.9939756393432617 24:-0.9997572302818298 25:-1.0 26:-1.0 27:-1.0 28:-1.0 29:-1.0 30:-1.0 31:-1.0 32:-1.0 33:-1.0 34:-1.0 35:-1.0
0.3458213245979616 1:-0.75 2:-0.07871966063976288 3:0.14473684132099152 4:-1.0 5:-1.0 6:-0.2966997027397156 7:-1.0 8:-0.9948652386665344 9:-0.9764150977134705 10:-1.0 11:-0.5 12:-1.0 13:-0.10000000149011612 14:0.0 15:1.0 16:-1.0 17:-1.0 18:-1.0 19:-1.0 20:-1.0 21:-1.0 22:-0.7057216167449951 23:-0.9910503625869751 24:-0.9995459318161011 25:1.0 26:-1.0 27:-1.0 28:-1.0 29:-1.0 30:-1.0 31:-1.0 32:-1.0 33:-1.0 34:-1.0 35:-1.0
0.37081846119443623 1:1.0 2:1.0 3:0.9144737124443054 4:0.25830012559890747 5:0.8319904208183289 6:0.29888927936553955 7:-0.9755941033363342 8:0.9268292784690857 9:-0.4117647111415863 10:-1.0 11:-0.5 12:-1.0 13:-0.5 14:0.0 15:1.0 16:1.0 17:1.0 18:1.0 19:-1.0 20:1.0 21:-1.0 22:0.7973926663398743 23:-0.950595498085022 24:-0.998307466506958 25:1.0 26:-1.0 27:-1.0 28:-1.0 29:0.0 30:-0.3333333432674408 31:0.0 32:0.0 33:-0.3333333432674408 34:0.0 35:-1.0
-0.5000000000000207 1:-1.0 2:-0.07871966063976288 3:-0.2951127886772156 4:-0.779366672039032 5:-0.8099833726882935 6:-0.8592171669006348 7:-1.0 8:-0.9659442901611328 9:-1.0 10:-1.0 11:-0.5 12:-1.0 13:-0.10000000149011612 14:0.0 15:-1.0 16:-1.0 17:-1.0 18:-1.0 19:-1.0 20:-1.0 21:-1.0 22:-0.116359643638134 23:-0.9927259087562561 24:-0.9999408721923828 25:-1.0 26:-1.0 27:-1.0 28:-1.0 29:-1.0 30:-1.0 31:-1.0 32:-1.0 33:-1.0 34:-1.0 35:-1.0
0.3149505267682465 1:1.0 2:-0.18217240273952484 3:0.0714285746216774 4:-0.691156804561615 5:-0.3254379630088806 6:-0.5295780897140503 7:-0.9843716621398926 8:-0.9147074818611145 9:-0.8032629489898682 10:-1.0 11:-1.0 12:-1.0 13:-1.0 14:-1.0 15:1.0 16:-1.0 17:-1.0 18:-1.0 19:-1.0 20:-1.0 21:-1.0 22:-0.779597282409668 23:-0.9341591000556946 24:-0.9829244017601013 25:1.0 26:-1.0 27:-1.0 28:-1.0 29:0.0 30:-1.0 31:0.0 32:0.0 33:-1.0 34:0.0 35:-1.0
0.5000000000000207 1:-1.0 2:-0.18217240273952484 3:-0.3684210479259491 4:-0.8093158602714539 5:-0.8338286876678467 6:-0.8592171669006348 7:-0.93877112865448 8:-0.914004921913147 9:-0.8986486196517944 10:-1.0 11:-0.5 12:-1.0 13:-0.5 14:0.0 15:1.0 16:-1.0 17:-1.0 18:-1.0 19:-1.0 20:-1.0 21:-1.0 22:0.7454892992973328 23:-0.9963353276252747 24:-0.9999873042106628 25:1.0 26:-1.0 27:-1.0 28:-1.0 29:-1.0 30:-1.0 31:-1.0 32:-1.0 33:-1.0 34:-1.0 35:-1.0
0.4402608331681965 1:1.0 2:0.16804420948028564 3:0.0714285746216774 4:-0.7199286222457886 5:-0.4067005515098572 6:-0.5668150186538696 7:-0.9972168803215027 8:-0.8297079205513 9:-0.8373983502388 10:-1.0 11:-0.5 12:-1.0 13:0.20000000298023224 14:0.0 15:-1.0 16:1.0 17:-1.0 18:-1.0 19:-1.0 20:-1.0 21:-1.0 22:-0.819334089756012 23:-0.992577850818634 24:-0.9995006918907166 25:1.0 26:-1.0 27:-1.0 28:-1.0 29:-1.0 30:-1.0 31:-1.0 32:-1.0 33:-1.0 34:-1.0 35:-1.0
0.2697579946158185 1:-0.375 2:1.0 3:0.8859649300575256 4:-1.0 5:-1.0 6:0.3797331750392914 7:-0.9563262462615967 8:1.0 9:0.4893617033958435 10:-1.0 11:-0.5 12:-1.0 13:-0.800000011920929 14:0.0 15:1.0 16:-1.0 17:-1.0 18:-1.0 19:-1.0 20:1.0 21:-1.0 22:0.9050069451332092 23:-0.9932117462158203 24:-0.999748706817627 25:1.0 26:-1.0 27:-1.0 28:-1.0 29:-1.0 30:-1.0 31:-1.0 32:-1.0 33:-1.0 34:-1.0 35:-1.0
-0.5000000000000207 1:-0.625 2:0.4984239339828491 3:0.4379699230194092 4:-1.0 5:-1.0 6:-0.36298781633377075 7:-0.9985014200210571 8:-0.7357798218727112 9:-0.9680511355400085 10:-1.0 11:-0.5 12:-1.0 13:0.0 14:0.0 15:1.0 16:-1.0 17:-1.0 18:-1.0 19:-1.0 20:-1.0 21:-1.0 22:-0.3142974376678467 23:-0.944786548614502 24:-0.9960667490959167 25:1.0 26:-1.0 27:-1.0 28:-1.0 29:-1.0 30:-1.0 31:-1.0 32:-1.0 33:-1.0 34:-1.0 35:-1.0
0.5000000000000207 1:-1.0 2:-0.36119264364242554 3:-0.4891640841960907 4:-1.0 5:-1.0 6:-0.8592171669006348 7:-1.0 8:-0.9933554530143738 9:-1.0 10:-1.0 11:-0.5 12:-1.0 13:0.4000000059604645 14:0.0 15:-1.0 16:-1.0 17:-1.0 18:-1.0 19:-1.0 20:-1.0 21:-1.0 22:-0.22919416427612305 23:-0.9989116191864014 24:-0.9999980926513672 25:-1.0 26:-1.0 27:-1.0 28:-1.0 29:-1.0 30:-1.0 31:-1.0 32:-1.0 33:-1.0 34:-1.0 35:-1.0
-0.5000000000000207 1:-1.0 2:0.03693067282438278 3:0.2257617712020874 4:-1.0 5:-1.0 6:-0.5295780897140503 7:-0.9839434623718262 8:-0.8952270150184631 9:-0.9342105388641357 10:-1.0 11:-0.5 12:-1.0 13:-0.6000000238418579 14:0.0 15:1.0 16:-1.0 17:-1.0 18:-1.0 19:-1.0 20:-1.0 21:-1.0 22:-0.6485854983329773 23:-0.9563827514648438 24:-0.9944355487823486 25:1.0 26:-1.0 27:-1.0 28:-1.0 29:-1.0 30:-1.0 31:-1.0 32:-1.0 33:-1.0 34:-1.0 35:-1.0
0.5000000000000207 1:-1.0 2:-0.2757568061351776 3:-0.11184210330247879 4:-1.0 5:-1.0 6:-0.5928457975387573 7:-1.0 8:-0.984455943107605 9:-1.0 10:-1.0 11:-0.5 12:-1.0 13:-0.30000001192092896 14:0.0 15:-1.0 16:-1.0 17:-1.0 18:-1.0 19:-1.0 20:-1.0 21:-1.0 22:-0.6385546922683716 23:-0.9744580984115601 24:-0.9977940320968628 25:-1.0 26:-1.0 27:-1.0 28:-1.0 29:-1.0 30:-1.0 31:-1.0 32:-1.0 33:-1.0 34:-1.0 35:-1.0
0.5000000000000207 1:-1.0 2:-0.36119264364242554 3:-0.17293232679367065 4:-0.7703598737716675 5:-0.5126277208328247 6:-0.5928457975387573 7:-0.9997859001159668 8:-0.969072163105011 9:-1.0 10:-1.0 11:-0.5 12:-1.0 13:0.30000001192092896 14:0.0 15:-1.0 16:-1.0 17:-1.0 18:-1.0 19:-1.0 20:-1.0 21:-1.0 22:-0.3526709973812103 23:-0.9976285099983215 24:-0.9999830722808838 25:-1.0 26:-1.0 27:-1.0 28:-1.0 29:-1.0 30:-1.0 31:-1.0 32:-1.0 33:-1.0 34:-1.0 35:-1.0
-0.5000000000000207 1:-1.0 2:-0.36119264364242554 3:-0.4891640841960907 4:-0.8290050029754639 5:-0.8498156070709229 6:-0.8592171669006348 7:-0.9972168803215027 8:-0.9388646483421326 9:-0.8113207817077637 10:-1.0 11:-0.5 12:-1.0 13:-0.6000000238418579 14:0.0 15:1.0 16:-1.0 17:-1.0 18:-1.0 19:-1.0 20:-1.0 21:-1.0 22:0.2837527096271515 23:-0.9968709945678711 24:-0.999977171421051 25:1.0 26:-1.0 27:-1.0 28:-1.0 29:-1.0 30:-1.0 31:-1.0 32:-1.0 33:-1.0 34:-1.0 35:-1.0
-0.5000000000000207 1:-1.0 2:-0.2757568061351776 3:0.0047846888191998005 4:-1.0 5:-1.0 6:-0.5295780897140503 7:-0.9918646812438965 8:-0.8616352081298828 9:-0.375 10:-1.0 11:-0.5 12:-1.0 13:-0.5 14:0.0 15:1.0 16:-1.0 17:-1.0 18:-1.0 19:-1.0 20:-1.0 21:-1.0 22:-0.14327600598335266 23:-0.9956119656562805 24:-0.9999749660491943 25:1.0 26:-1.0 27:-1.0 28:-1.0 29:-1.0 30:-1.0 31:-1.0 32:-1.0 33:-1.0 34:-1.0 35:-1.0
-0.5000000000000207 1:-0.75 2:0.31940367817878723 3:0.18421052396297455 4:-1.0 5:-1.0 6:-0.467217355966568 7:-0.9798758029937744 8:-0.7848880290985107 9:-0.693665623664856 10:-1.0 11:-0.5 12:-1.0 13:-0.20000000298023224 14:0.0 15:1.0 16:-1.0 17:-1.0 18:-1.0 19:-1.0 20:-1.0 21:-1.0 22:0.8996096253395081 23:-0.9613135457038879 24:-0.9952238202095032 25:1.0 26:-1.0 27:-1.0 28:-1.0 29:-1.0 30:-1.0 31:-1.0 32:-1.0 33:-1.0 34:-1.0 35:-1.0
0.5000000000000207 1:-1.0 2:0.03693067282438278 3:-0.21052631735801697 4:-0.775711715221405 5:-0.8071115612983704 6:-0.8592171669006348 7:-0.9899379014968872 8:-0.9482511878013611 9:-0.9087266325950623 10:-1.0 11:-0.5 12:-1.0 13:0.6000000238418579 14:0.0 15:-1.0 16:-1.0 17:-1.0 18:-1.0 19:-1.0 20:-1.0 21:-1.0 22:-0.19917546212673187 23:-0.8735260963439941 24:-0.9766348600387573 25:-1.0 26:-1.0 27:-1.0 28:-1.0 29:-1.0 30:-1.0 31:-1.0 32:-1.0 33:-1.0 34:-1.0 35:-1.0
0.5000000000000207 1:-1.0 2:-0.5125521421432495 3:-0.4172932207584381 4:-1.0 5:-1.0 6:-0.6785190105438232 7:-1.0 8:-0.9235668778419495 9:-1.0 10:-1.0 11:-0.5 12:-1.0 13:-0.30000001192092896 14:0.0 15:-1.0 16:-1.0 17:-1.0 18:-1.0 19:-1.0 20:-1.0 21:-1.0 22:-0.9147676825523376 23:-0.9368990063667297 24:-0.9515016078948975 25:-1.0 26:-1.0 27:-1.0 28:-1.0 29:-1.0 30:-1.0 31:-1.0 32:-1.0 33:-1.0 34:-1.0 35:-1.0
0.5000000000000207 1:-1.0 2:0.03693067282438278 3:-0.4617224931716919 4:-1.0 5:-1.0 6:-1.0 7:-0.9965745806694031 8:-0.6649305820465088 9:-0.6173469424247742 10:-1.0 11:-0.5 12:-1.0 13:0.10000000149011612 14:0.0 15:-1.0 16:-1.0 17:-1.0 18:-1.0 19:-1.0 20:-1.0 21:-1.0 22:-0.7838419079780579 23:-0.8956210017204285 24:-0.9687248468399048 25:-1.0 26:-1.0 27:-1.0 28:-1.0 29:-1.0 30:-1.0 31:-1.0 32:-1.0 33:-1.0 34:-1.0 35:-1.0
0.10895000117069083 1:1.0 2:0.03693067282438278 3:-0.4617224931716919 4:-1.0 5:-1.0 6:-1.0 7:-0.999143660068512 8:-0.6441798806190491 9:-0.45945945382118225 10:-1.0 11:-0.5 12:-1.0 13:0.0 14:0.0 15:-1.0 16:-1.0 17:-1.0 18:-1.0 19:-1.0 20:-1.0 21:-1.0 22:0.8542055487632751 23:-0.9929003715515137 24:-0.999174177646637 25:1.0 26:-1.0 27:-1.0 28:-1.0 29:-1.0 30:-1.0 31:-1.0 32:-1.0 33:-1.0 34:-1.0 35:-1.0
0.5000000000000207 1:-1.0 2:-0.07871966063976288 3:0.23803827166557312 4:-1.0 5:-1.0 6:-0.37773165106773376 7:-0.9929351210594177 8:-0.5932203531265259 9:-0.447674423456192 10:-1.0 11:-0.5 12:-1.0 13:-0.5 14:0.0 15:1.0 16:-1.0 17:-1.0 18:-1.0 19:-1.0 20:-1.0 21:-1.0 22:-0.2445589005947113 23:-0.8597769737243652 24:-0.653328537940979 25:1.0 26:-1.0 27:-1.0 28:-1.0 29:-1.0 30:-1.0 31:-1.0 32:-1.0 33:-1.0 34:-1.0 35:-1.0
-0.009104764821558815 1:-1.0 2:-0.2757568061351776 3:-0.6616541147232056 4:-0.7951915264129639 5:-1.0 6:-1.0 7:-0.9845857620239258 8:-0.9227650165557861 9:-0.9098621606826782 10:-1.0 11:-0.5 12:-1.0 13:-0.5 14:0.0 15:-1.0 16:-1.0 17:-1.0 18:-1.0 19:-1.0 20:-1.0 21:-1.0 22:-0.6463315486907959 23:-0.9631770253181458 24:-0.9944628477096558 25:-1.0 26:-1.0 27:-1.0 28:-1.0 29:-1.0 30:-1.0 31:-1.0 32:-1.0 33:-1.0 34:-1.0 35:-1.0
0.28331703937068636 1:1.0 2:0.03693067282438278 3:-0.02631578966975212 4:-1.0 5:-1.0 6:-0.48120877146720886 7:-0.9980732202529907 8:-0.8704690933227539 9:-0.7674418687820435 10:-1.0 11:-0.5 12:-1.0 13:-0.699999988079071 14:0.0 15:1.0 16:-1.0 17:-1.0 18:-1.0 19:-1.0 20:-1.0 21:-1.0 22:-0.31272777915000916 23:-0.9931074380874634 24:-0.9999041557312012 25:1.0 26:-1.0 27:-1.0 28:-1.0 29:-1.0 30:-1.0 31:-1.0 32:-1.0 33:-1.0 34:-1.0 35:-1.0
0.16297972461573493 1:-1.0 2:0.16804420948028564 3:0.20888157188892365 4:-0.5874661207199097 5:0.1287384182214737 6:-0.16093596816062927 7:-0.9985014200210571 8:-0.7201225757598877 9:-0.9731183052062988 10:-1.0 11:-0.5 12:-1.0 13:-0.30000001192092896 14:0.0 15:1.0 16:-1.0 17:-1.0 18:-1.0 19:-1.0 20:-1.0 21:-1.0 22:0.048798367381095886 23:-0.9859707355499268 24:-0.9995399713516235 25:1.0 26:-1.0 27:-1.0 28:-1.0 29:-1.0 30:-1.0 31:-1.0 32:-1.0 33:-1.0 34:-1.0 35:-1.0
0.15710739012940897 1:-1.0 2:0.03693067282438278 3:-0.02631578966975212 4:-1.0 5:-1.0 6:-0.44516071677207947 7:-0.9967886805534363 8:-0.8086184859275818 9:-0.8381295204162598 10:-1.0 11:-0.5 12:-1.0 13:-0.30000001192092896 14:0.0 15:1.0 16:-1.0 17:-1.0 18:-1.0 19:-1.0 20:-1.0 21:-1.0 22:-0.396477073431015 23:-0.9523579478263855 24:-0.9981009364128113 25:1.0 26:-1.0 27:-1.0 28:-1.0 29:-1.0 30:-1.0 31:-1.0 32:-1.0 33:-1.0 34:-1.0 35:-1.0
-0.010616061291671256 1:-1.0 2:-0.43978601694107056 3:-0.7532894611358643 4:-1.0 5:-1.0 6:-1.0 7:-0.9648897647857666 8:-0.8772727251052856 9:-0.9466891288757324 10:-1.0 11:-1.0 12:-1.0 13:-1.0 14:-1.0 15:-1.0 16:-1.0 17:-1.0 18:-1.0 19:-1.0 20:-1.0 21:-1.0 22:-0.6260701417922974 23:-0.8551302552223206 24:-0.9822192192077637 25:1.0 26:-1.0 27:-1.0 28:-1.0 29:-1.0 30:-1.0 31:-1.0 32:-1.0 33:-1.0 34:-1.0 35:-1.0
0.3155891994020567 1:-0.75 2:0.31940367817878723 3:0.31578946113586426 4:-0.7638350129127502 5:-0.5640772581100464 6:-0.6562143564224243 7:-0.9965745806694031 8:-0.8656126260757446 9:-0.7749999761581421 10:-1.0 11:0.0 12:-1.0 13:-0.6000000238418579 14:0.0 15:1.0 16:-1.0 17:-1.0 18:-1.0 19:-1.0 20:-1.0 21:-1.0 22:-0.1500827670097351 23:-0.9350793957710266 24:-0.9956669211387634 25:1.0 26:-1.0 27:-1.0 28:-1.0 29:-1.0 30:-0.3333333432674408 31:0.0 32:0.0 33:-0.3333333432674408 34:0.0 35:-1.0
0.21946071772065837 1:-0.375 2:1.0 3:0.8503289222717285 4:-1.0 5:-1.0 6:-0.11923794448375702 7:-0.9740954637527466 8:0.9782871007919312 9:-0.5731707215309143 10:-1.0 11:-0.5 12:-1.0 13:0.10000000149011612 14:0.0 15:1.0 16:-1.0 17:-1.0 18:-1.0 19:-1.0 20:1.0 21:-1.0 22:-0.3711770474910736 23:-0.991512656211853 24:-0.999652624130249 25:-1.0 26:-1.0 27:-1.0 28:-1.0 29:-1.0 30:-1.0 31:-1.0 32:-1.0 33:-1.0 34:-1.0 35:-1.0
0.30919535379500857 1:-0.75 2:0.31940367817878723 3:0.4164086580276489 4:-1.0 5:-1.0 6:-0.32071560621261597 7:-0.9976450204849243 8:-0.94199538230896 9:-0.9375 10:-1.0 11:-0.5 12:-1.0 13:-0.5 14:0.0 15:1.0 16:-1.0 17:-1.0 18:-1.0 19:-1.0 20:-1.0 21:-1.0 22:-0.3011804521083832 23:-0.9724034667015076 24:-0.9969791173934937 25:1.0 26:-1.0 27:-1.0 28:-1.0 29:-1.0 30:-1.0 31:-1.0 32:-1.0 33:-1.0 34:-1.0 35:-1.0
0.3477903371684183 1:-1.0 2:0.16804420948028564 3:0.31578946113586426 4:-1.0 5:-1.0 6:-0.5496304035186768 7:-1.0 8:-0.8615711331367493 9:-1.0 10:-1.0 11:-0.5 12:-1.0 13:-0.699999988079071 14:0.0 15:1.0 16:-1.0 17:-1.0 18:-1.0 19:-1.0 20:-1.0 21:-1.0 22:-0.7040906548500061 23:-0.989091157913208 24:-0.9996086955070496 25:1.0 26:-1.0 27:-1.0 28:-1.0 29:-1.0 30:-1.0 31:-1.0 32:-1.0 33:-1.0 34:-1.0 35:-1.0
0.37784006192499187 1:-0.625 2:0.4984239339828491 3:0.6008771657943726 4:-1.0 5:-1.0 6:-0.1359175443649292 7:-0.963391125202179 8:-0.9888476133346558 9:-0.9728260636329651 10:-1.0 11:-0.5 12:-1.0 13:-0.5 14:0.0 15:1.0 16:-1.0 17:-1.0 18:-1.0 19:-1.0 20:-1.0 21:-1.0 22:-0.6391734480857849 23:-0.9950664639472961 24:-0.999867856502533 25:1.0 26:-1.0 27:-1.0 28:-1.0 29:-1.0 30:-1.0 31:-1.0 32:-1.0 33:-1.0 34:-1.0 35:-1.0
-0.5000000000000207 1:-0.75 2:0.31940367817878723 3:0.5601503849029541 4:-1.0 5:-1.0 6:-0.21110114455223083 7:-0.9985014200210571 8:-0.9288946390151978 9:-0.8863636255264282 10:-1.0 11:-0.5 12:-1.0 13:-0.10000000149011612 14:0.0 15:1.0 16:-1.0 17:-1.0 18:-1.0 19:-1.0 20:-1.0 21:-1.0 22:-0.1823144555091858 23:-0.9724300503730774 24:-0.9895065426826477 25:1.0 26:-1.0 27:-1.0 28:-1.0 29:-1.0 30:-1.0 31:-1.0 32:-1.0 33:-1.0 34:-1.0 35:-1.0
-0.5000000000000207 1:-0.625 2:0.4984239339828491 3:0.4379699230194092 4:-1.0 5:-1.0 6:-0.27059224247932434 7:-0.9972168803215027 8:-0.7675438523292542 9:-0.8913043737411499 10:-1.0 11:-0.5 12:-1.0 13:-0.5 14:0.0 15:1.0 16:-1.0 17:-1.0 18:-1.0 19:-1.0 20:-1.0 21:-1.0 22:-0.10129890590906143 23:-0.9929534196853638 24:-0.9998641014099121 25:1.0 26:-1.0 27:-1.0 28:-1.0 29:-1.0 30:-1.0 31:-1.0 32:-1.0 33:-1.0 34:-1.0 35:-1.0
-0.5000000000000207 1:-0.75 2:0.31940367817878723 3:0.4164086580276489 4:-1.0 5:-1.0 6:-0.26311925053596497 7:-0.9892956614494324 8:-0.8202247023582458 9:-0.5220588445663452 10:-1.0 11:0.0 12:-1.0 13:-0.4000000059604645 14:0.0 15:1.0 16:-1.0 17:-1.0 18:-1.0 19:-1.0 20:-1.0 21:-1.0 22:0.044927336275577545 23:-0.996784508228302 24:-0.9999648928642273 25:1.0 26:-1.0 27:-1.0 28:-1.0 29:-1.0 30:-1.0 31:-1.0 32:-1.0 33:-1.0 34:-1.0 35:-1.0
-0.5000000000000207 1:-1.0 2:-0.07871966063976288 3:0.23803827166557312 4:-1.0 5:-1.0 6:-0.37773165106773376 7:-0.9987154603004456 8:-0.9682119488716125 9:-0.90625 10:-1.0 11:-1.0 12:-1.0 13:-1.0 14:-1.0 15:1.0 16:-1.0 17:-1.0 18:-1.0 19:-1.0 20:-1.0 21:-1.0 22:-0.8807010054588318 23:-0.9822534918785095 24:-0.9981013536453247 25:1.0 26:-1.0 27:-1.0 28:-1.0 29:-1.0 30:-1.0 31:-1.0 32:-1.0 33:-1.0 34:-1.0 35:-1.0
0.5000000000000207 1:-1.0 2:-0.7031925320625305 3:-0.8815789222717285 4:-1.0 5:-1.0 6:-1.0 7:-0.9987154603004456 8:-0.8983050584793091 9:-0.8245614171028137 10:-1.0 11:-0.5 12:-1.0 13:-0.4000000059604645 14:0.0 15:-1.0 16:-1.0 17:-1.0 18:-1.0 19:-1.0 20:-1.0 21:-1.0 22:-0.7186410427093506 23:-0.987823486328125 24:-0.9991183280944824 25:-1.0 26:-1.0 27:-1.0 28:-1.0 29:-1.0 30:-1.0 31:-1.0 32:-1.0 33:-1.0 34:-1.0 35:-1.0
0.5000000000000207 1:-1.0 2:-0.7593159675598145 3:-0.9060150384902954 4:-0.8356894254684448 5:-1.0 6:-1.0 7:-0.9993577599525452 8:-0.9960185885429382 9:-0.9715909361839294 10:-1.0 11:-0.5 12:-1.0 13:-0.30000001192092896 14:0.0 15:-1.0 16:-1.0 17:-1.0 18:-1.0 19:-1.0 20:-1.0 21:-1.0 22:-0.918963611125946 23:-0.97052001953125 24:-0.9982410669326782 25:-1.0 26:-1.0 27:-1.0 28:-1.0 29:-1.0 30:-1.0 31:-1.0 32:-1.0 33:-1.0 34:-1.0 35:-1.0
0.5000000000000207 1:-1.0 2:-0.5125521421432495 3:-0.7910216450691223 4:-1.0 5:-1.0 6:-1.0 7:-1.0 8:-0.9267175793647766 9:-1.0 10:-1.0 11:-0.5 12:-1.0 13:0.10000000149011612 14:0.0 15:-1.0 16:-1.0 17:-1.0 18:-1.0 19:-1.0 20:-1.0 21:-1.0 22:-0.7274370193481445 23:-0.980581521987915 24:-0.9982588887214661 25:-1.0 26:-1.0 27:-1.0 28:-1.0 29:-1.0 30:-1.0 31:-1.0 32:-1.0 33:-1.0 34:-1.0 35:-1.0
-0.04106404172219044 1:-1.0 2:-0.43978601694107056 3:-0.7532894611358643 4:-1.0 5:-1.0 6:-1.0 7:-0.9997859001159668 8:-0.9826589822769165 9:-1.0 10:-1.0 11:-0.5 12:-1.0 13:0.10000000149011612 14:0.0 15:-1.0 16:-1.0 17:-1.0 18:-1.0 19:-1.0 20:-1.0 21:-1.0 22:-0.5851423740386963 23:-0.9872728586196899 24:-0.9998053312301636 25:-1.0 26:-1.0 27:-1.0 28:-1.0 29:-1.0 30:-1.0 31:-1.0 32:-1.0 33:-1.0 34:-1.0 35:-1.0
0.28145369328713943 1:-0.75 2:0.31940367817878723 3:0.31578946113586426 4:-0.6979662775993347 5:-0.187471404671669 6:-0.36298781633377075 7:-0.9925069808959961 8:-0.812426745891571 9:-0.8058252334594727 10:-1.0 11:-0.5 12:-1.0 13:-0.10000000149011612 14:0.0 15:1.0 16:-1.0 17:-1.0 18:-1.0 19:-1.0 20:-1.0 21:-1.0 22:-0.08593280613422394 23:-0.9930509924888611 24:-0.9998118877410889 25:1.0 26:-1.0 27:-1.0 28:-1.0 29:-1.0 30:-1.0 31:0.0 32:-1.0 33:-1.0 34:0.0 35:-1.0
0.16210667369498602 1:-1.0 2:-0.580295741558075 3:-0.625 4:-0.8132832646369934 5:-0.8370299935340881 6:-0.8592171669006348 7:-0.9987154603004456 8:-0.9700967669487 9:-0.782608687877655 10:-1.0 11:-0.5 12:-1.0 13:-0.5 14:0.0 15:-1.0 16:-1.0 17:-1.0 18:-1.0 19:-1.0 20:-1.0 21:-1.0 22:0.5612902045249939 23:-0.9909294843673706 24:-0.9996191263198853 25:1.0 26:-1.0 27:-1.0 28:-1.0 29:0.0 30:0.3333333432674408 31:0.0 32:0.0 33:-0.3333333432674408 34:0.0 35:-1.0
0.06143210504757452 1:1.0 2:0.16804420948028564 3:0.4013157784938812 4:-0.7033656239509583 5:-0.2178550362586975 6:-0.389023095369339 7:-0.9920787811279297 8:-0.8421052694320679 9:-0.6220930218696594 10:-1.0 11:-0.5 12:-1.0 13:-0.5 14:0.0 15:1.0 16:-1.0 17:-1.0 18:-1.0 19:-1.0 20:-1.0 21:-1.0 22:-0.15302103757858276 23:-0.9869934320449829 24:-0.9997905492782593 25:1.0 26:-1.0 27:-1.0 28:-1.0 29:0.0 30:-0.3333333432674408 31:0.0 32:0.0 33:-0.3333333432674408 34:0.0 35:-1.0
-0.5000000000000207 1:1.0 2:0.16804420948028564 3:0.0714285746216774 4:-0.7445974946022034 5:-0.1970721036195755 6:-0.2606980800628662 7:-0.9976450204849243 8:-0.9054054021835327 9:-0.9444444179534912 10:-1.0 11:-0.5 12:-1.0 13:-0.5 14:0.0 15:-1.0 16:-1.0 17:-1.0 18:-1.0 19:-1.0 20:-1.0 21:-1.0 22:-0.2379528284072876 23:-0.980916440486908 24:-0.9990511536598206 25:1.0 26:-1.0 27:-1.0 28:-1.0 29:0.0 30:-1.0 31:0.0 32:0.0 33:-0.3333333432674408 34:0.0 35:-1.0
-0.5000000000000207 1:1.0 2:-0.2757568061351776 3:-0.4325657784938812 4:-0.7787120342254639 5:-0.8094683885574341 6:-0.8592171669006348 7:-0.8783986568450928 8:-0.7100297808647156 9:-0.8687499761581421 10:-1.0 11:-0.5 12:-1.0 13:-0.6000000238418579 14:0.0 15:-1.0 16:-1.0 17:-1.0 18:-1.0 19:-1.0 20:-1.0 21:-1.0 22:0.00857597216963768 23:-0.9533582925796509 24:-0.9931416511535645 25:1.0 26:-1.0 27:-1.0 28:-1.0 29:0.0 30:-0.3333333432674408 31:0.0 32:0.0 33:-0.3333333432674408 34:0.0 35:-1.0
-0.5000000000000207 1:1.0 2:-0.18217240273952484 3:-0.6052631735801697 4:-0.80631422996521 5:-1.0 6:-1.0 7:-0.9952901005744934 8:-0.9799240231513977 9:-0.7175140976905823 10:-1.0 11:-0.5 12:-1.0 13:-0.6000000238418579 14:0.0 15:-1.0 16:-1.0 17:-1.0 18:-1.0 19:-1.0 20:-1.0 21:-1.0 22:0.33469125628471375 23:-0.9887698292732239 24:-0.9998580813407898 25:1.0 26:-1.0 27:-1.0 28:-1.0 29:0.0 30:-0.3333333432674408 31:0.0 32:0.0 33:-0.3333333432674408 34:0.0 35:-1.0
0.5000000000000207 1:-0.625 2:0.4984239339828491 3:0.4379699230194092 4:-1.0 5:-1.0 6:-0.27059224247932434 7:-0.9972168803215027 8:-0.9337349534034729 9:-0.9397590160369873 10:-1.0 11:-1.0 12:-1.0 13:-1.0 14:-1.0 15:1.0 16:-1.0 17:-1.0 18:-1.0 19:-1.0 20:-1.0 21:-1.0 22:-0.4878062903881073 23:-0.9873676300048828 24:-0.998988687992096 25:1.0 26:-1.0 27:-1.0 28:-1.0 29:-1.0 30:-1.0 31:-1.0 32:-1.0 33:-1.0 34:-1.0 35:-1.0
0.5000000000000207 1:1.0 2:-0.43978601694107056 3:-0.5394737124443054 4:-0.8085598349571228 5:-0.8663933873176575 6:-0.8890299797058105 7:-0.9743095636367798 8:-0.9073029160499573 9:-0.35650888085365295 10:-1.0 11:-1.0 12:-1.0 13:-1.0 14:-1.0 15:-1.0 16:-1.0 17:-1.0 18:-1.0 19:-1.0 20:-1.0 21:-1.0 22:-0.7944704294204712 23:-0.9888116121292114 24:-0.9996349811553955 25:-1.0 26:-1.0 27:-1.0 28:-1.0 29:-1.0 30:-1.0 31:-1.0 32:-1.0 33:-1.0 34:-1.0 35:-1.0
0.5000000000000207 1:-1.0 2:-0.6436656713485718 3:-0.8545706272125244 4:-1.0 5:-1.0 6:-1.0 7:-0.9770926833152771 8:-0.8432250618934631 9:-0.782608687877655 10:-1.0 11:-0.5 12:-1.0 13:-0.10000000149011612 14:0.0 15:1.0 16:-1.0 17:-1.0 18:-1.0 19:-1.0 20:-1.0 21:-1.0 22:0.03784722089767456 23:-0.9930118918418884 24:-0.9996869564056396 25:1.0 26:-1.0 27:-1.0 28:-1.0 29:-1.0 30:-1.0 31:-1.0 32:-1.0 33:-1.0 34:-1.0 35:-1.0
0.3833773551123022 1:-0.5 2:0.7175269722938538 3:0.6578947305679321 4:-1.0 5:-1.0 6:0.08385778963565826 7:-0.9704560041427612 8:-0.7511627674102783 9:-0.5744680762290955 10:-1.0 11:-0.5 12:-1.0 13:-0.6000000238418579 14:0.0 15:1.0 16:-1.0 17:-1.0 18:-1.0 19:-1.0 20:-1.0 21:-1.0 22:0.22237733006477356 23:-0.9967343211174011 24:-0.999991238117218 25:1.0 26:-1.0 27:-1.0 28:-1.0 29:-1.0 30:-1.0 31:-1.0 32:-1.0 33:-1.0 34:-1.0 35:-1.0
-0.5000000000000207 1:1.0 2:-0.2757568061351776 3:-0.6616541147232056 4:-0.7548500299453735 5:-1.0 6:-1.0 7:-0.9982873201370239 8:-0.8235858082771301 9:-0.60597825050354 10:-1.0 11:-1.0 12:-1.0 13:-1.0 14:-1.0 15:-1.0 16:-1.0 17:-1.0 18:-1.0 19:-1.0 20:-1.0 21:-1.0 22:-0.83460932970047 23:-0.945777416229248 24:-0.9869593381881714 25:-1.0 26:-1.0 27:-1.0 28:-1.0 29:-1.0 30:-1.0 31:-1.0 32:-1.0 33:-1.0 34:-1.0 35:-1.0
-0.5000000000000207 1:-1.0 2:-0.43978601694107056 3:-0.5394737124443054 4:-0.7702426314353943 5:-0.8028296232223511 6:-0.8592171669006348 7:-0.9997859001159668 8:-0.9763779640197754 9:-0.9671052694320679 10:-1.0 11:-0.5 12:-1.0 13:-0.4000000059604645 14:0.0 15:-1.0 16:-1.0 17:-1.0 18:-1.0 19:-1.0 20:-1.0 21:-1.0 22:-0.7435269951820374 23:-0.9524703025817871 24:-0.9787892699241638 25:-1.0 26:-1.0 27:-1.0 28:-1.0 29:0.0 30:-0.3333333432674408 31:0.0 32:0.0 33:-0.3333333432674408 34:0.0 35:-1.0
-0.5000000000000207 1:-1.0 2:-0.43978601694107056 3:-0.5394737124443054 4:-0.8111205101013184 5:-0.8352835774421692 6:-0.8592171669006348 7:-0.9995718002319336 8:-0.9563318490982056 9:-0.9484536051750183 10:-1.0 11:-0.5 12:-1.0 13:0.6000000238418579 14:0.0 15:-1.0 16:-1.0 17:-1.0 18:-1.0 19:-1.0 20:-1.0 21:-1.0 22:0.20475821197032928 23:-0.9842851161956787 24:-0.9998358488082886 25:-1.0 26:-1.0 27:-1.0 28:-1.0 29:-1.0 30:-1.0 31:-1.0 32:-1.0 33:-1.0 34:-1.0 35:-1.0
0.04808352316328935 1:1.0 2:-0.36119264364242554 3:-0.7105262875556946 4:-0.801462709903717 5:-1.0 6:-1.0 7:-0.9730250239372253 8:-0.8134220838546753 9:-0.6120689511299133 10:-1.0 11:0.0 12:-1.0 13:-0.6000000238418579 14:0.0 15:-1.0 16:-1.0 17:-1.0 18:-1.0 19:-1.0 20:-1.0 21:-1.0 22:-0.1365620642900467 23:-0.943878710269928 24:-0.9697762131690979 25:1.0 26:-1.0 27:-1.0 28:-1.0 29:0.0 30:-0.3333333432674408 31:0.0 32:0.0 33:-1.0 34:0.0 35:-1.0
0.5000000000000207 1:1.0 2:0.16804420948028564 3:0.20888157188892365 4:-0.7739273309707642 5:-0.37836742401123047 6:-0.4276271164417267 7:-0.999143660068512 8:-0.9518900513648987 9:-0.8360655903816223 10:-1.0 11:-0.5 12:-1.0 13:-0.6000000238418579 14:0.0 15:-1.0 16:-1.0 17:-1.0 18:-1.0 19:-1.0 20:-1.0 21:-1.0 22:0.2221277356147766 23:-0.993364691734314 24:-0.9999201893806458 25:1.0 26:-1.0 27:-1.0 28:-1.0 29:0.0 30:-1.0 31:0.0 32:0.0 33:-0.3333333432674408 34:0.0 35:-1.0
0.5000000000000207 1:-1.0 2:-0.6436656713485718 3:-0.8545706272125244 4:-0.8147275447845459 5:-1.0 6:-1.0 7:-0.9918646812438965 8:-0.6640625 9:-0.5833333134651184 10:-1.0 11:-0.5 12:-1.0 13:0.0 14:0.0 15:-1.0 16:-1.0 17:-1.0 18:-1.0 19:-1.0 20:-1.0 21:-1.0 22:-0.6667983531951904 23:-0.9853732585906982 24:-0.9995995759963989 25:-1.0 26:-1.0 27:-1.0 28:-1.0 29:-1.0 30:-1.0 31:-1.0 32:-1.0 33:-1.0 34:-1.0 35:-1.0
0.35956759927211196 1:-0.5 2:0.7175269722938538 3:0.7182662487030029 4:-1.0 5:-1.0 6:0.2681429386138916 7:-0.949047327041626 8:-0.9916800260543823 9:-0.9528301954269409 10:-1.0 11:-0.5 12:-1.0 13:-0.20000000298023224 14:0.0 15:1.0 16:-1.0 17:-1.0 18:-1.0 19:-1.0 20:-1.0 21:-1.0 22:0.7505261301994324 23:-0.9642070531845093 24:-0.9892559051513672 25:1.0 26:-1.0 27:-1.0 28:-1.0 29:-1.0 30:-1.0 31:-1.0 32:-1.0 33:-1.0 34:-1.0 35:-1.0
-0.5000000000000207 1:1.0 2:0.31940367817878723 3:0.31578946113586426 4:-0.3912619650363922 5:-0.053976885974407196 6:-0.5928457975387573 7:-0.4414472281932831 8:-0.7417824268341064 9:-0.6461396813392639 10:-1.0 11:-0.5 12:-1.0 13:0.0 14:0.0 15:-1.0 16:-1.0 17:-1.0 18:-1.0 19:-1.0 20:-1.0 21:-1.0 22:-0.4109971821308136 23:-0.8011960983276367 24:-0.8554691076278687 25:1.0 26:-1.0 27:-1.0 28:-1.0 29:0.0 30:0.3333333432674408 31:0.0 32:0.0 33:-0.3333333432674408 34:0.0 35:-1.0
-0.5000000000000207 1:-1.0 2:-0.5125521421432495 3:-0.7910216450691223 4:-1.0 5:-1.0 6:-1.0 7:-0.9950760006904602 8:-0.9303797483444214 9:-0.6120689511299133 10:-1.0 11:-0.5 12:-1.0 13:-0.6000000238418579 14:0.0 15:-1.0 16:-1.0 17:-1.0 18:-1.0 19:-1.0 20:-1.0 21:-1.0 22:-0.17848950624465942 23:-0.99562007188797 24:-0.9999704957008362 25:-1.0 26:-1.0 27:-1.0 28:-1.0 29:-1.0 30:-1.0 31:-1.0 32:-1.0 33:-1.0 34:-1.0 35:-1.0
-0.5000000000000207 1:-0.75 2:0.31940367817878723 3:0.18421052396297455 4:-0.7438192963600159 5:-0.3663732409477234 6:-0.48120877146720886 7:-1.0 8:-0.9327115416526794 9:-1.0 10:-1.0 11:-1.0 12:-1.0 13:-1.0 14:-1.0 15:1.0 16:-1.0 17:-1.0 18:-1.0 19:-1.0 20:-1.0 21:-1.0 22:-0.855415403842926 23:-0.9696388840675354 24:-0.9878432750701904 25:1.0 26:-1.0 27:-1.0 28:-1.0 29:-1.0 30:-1.0 31:-1.0 32:-1.0 33:-1.0 34:-1.0 35:-1.0
0.5000000000000207 1:-1.0 2:-0.43978601694107056 3:-0.5394737124443054 4:-0.7767584323883057 5:-0.8079331517219543 6:-0.8592171669006348 7:-0.9976450204849243 8:-0.9344262480735779 9:-0.9044944047927856 10:-1.0 11:-0.5 12:-1.0 13:0.0 14:0.0 15:-1.0 16:-1.0 17:-1.0 18:-1.0 19:-1.0 20:-1.0 21:-1.0 22:-0.7930986881256104 23:-0.974804699420929 24:-0.9991057515144348 25:-1.0 26:-1.0 27:-1.0 28:-1.0 29:0.0 30:-0.3333333432674408 31:0.0 32:0.0 33:-0.3333333432674408 34:0.0 35:-1.0
0.5000000000000207 1:-1.0 2:-0.36119264364242554 3:-0.4891640841960907 4:-0.7769002914428711 5:-0.8080445528030396 6:-0.8592171669006348 7:-0.9935774207115173 8:-0.7650273442268372 9:-0.8069853186607361 10:-1.0 11:-0.5 12:-1.0 13:-0.699999988079071 14:0.0 15:-1.0 16:-1.0 17:-1.0 18:-1.0 19:-1.0 20:-1.0 21:-1.0 22:-0.5154173374176025 23:-0.8888656497001648 24:-0.9941391348838806 25:-1.0 26:-1.0 27:-1.0 28:-1.0 29:0.0 30:-0.3333333432674408 31:0.0 32:0.0 33:-0.3333333432674408 34:0.0 35:-1.0
0.5000000000000207 1:-1.0 2:-0.07871966063976288 3:-0.11184210330247879 4:-0.7729644179344177 5:-0.4931720197200775 6:-0.5668150186538696 7:-0.9974309802055359 8:-0.9531034231185913 9:-0.8648648858070374 10:-1.0 11:-0.5 12:-1.0 13:-0.4000000059604645 14:0.0 15:-1.0 16:-1.0 17:-1.0 18:-1.0 19:-1.0 20:-1.0 21:-1.0 22:-0.6981400847434998 23:-0.9942460656166077 24:-0.9997216463088989 25:-1.0 26:-1.0 27:-1.0 28:-1.0 29:0.0 30:-0.3333333432674408 31:0.0 32:0.0 33:-0.3333333432674408 34:0.0 35:-1.0
-0.5000000000000207 1:-1.0 2:-0.36119264364242554 3:-0.4891640841960907 4:-0.7840373516082764 5:-0.8136652708053589 6:-0.8592171669006348 7:-0.9997859001159668 8:-0.9629629850387573 9:-1.0 10:-1.0 11:-0.5 12:-1.0 13:-0.699999988079071 14:0.0 15:-1.0 16:-1.0 17:-1.0 18:-1.0 19:-1.0 20:-1.0 21:-1.0 22:-0.4166567325592041 23:-0.9731323719024658 24:-0.997901439666748 25:-1.0 26:-1.0 27:-1.0 28:-1.0 29:0.0 30:-0.3333333432674408 31:0.0 32:0.0 33:-0.3333333432674408 34:0.0 35:-1.0
0.5000000000000207 1:-1.0 2:-0.36119264364242554 3:-0.7105262875556946 4:-1.0 5:-1.0 6:-1.0 7:-0.5065296292304993 8:-0.9272727370262146 9:-1.0 10:-1.0 11:-0.5 12:-1.0 13:-0.5 14:0.0 15:-1.0 16:-1.0 17:-1.0 18:-1.0 19:-1.0 20:-1.0 21:-1.0 22:-0.19247722625732422 23:-0.9863545894622803 24:-0.9977421164512634 25:-1.0 26:-1.0 27:-1.0 28:-1.0 29:-1.0 30:-1.0 31:-1.0 32:-1.0 33:-1.0 34:-1.0 35:-1.0
-0.42594571296844513 1:-1.0 2:-0.36119264364242554 3:-0.4891640841960907 4:-0.8196963667869568 5:-0.8422260880470276 6:-0.8592171669006348 7:-0.999143660068512 8:-0.9894638061523438 9:-0.9702380895614624 10:-1.0 11:-0.5 12:-1.0 13:0.10000000149011612 14:0.0 15:-1.0 16:-1.0 17:-1.0 18:-1.0 19:-1.0 20:-1.0 21:-1.0 22:-0.9199973344802856 23:-0.9559445381164551 24:-0.9939892292022705 25:-1.0 26:-1.0 27:-1.0 28:-1.0 29:0.0 30:-0.3333333432674408 31:0.0 32:0.0 33:-0.3333333432674408 34:0.0 35:-1.0
-0.5000000000000207 1:-1.0 2:-0.18217240273952484 3:-0.6052631735801697 4:-0.7995898723602295 5:-1.0 6:-1.0 7:-0.9987154603004456 8:-0.9504950642585754 9:-0.8600000143051147 10:-1.0 11:-0.5 12:-1.0 13:-0.10000000149011612 14:0.0 15:-1.0 16:-1.0 17:-1.0 18:-1.0 19:-1.0 20:-1.0 21:-1.0 22:-0.5280824899673462 23:-0.9901169538497925 24:-0.9998555183410645 25:-1.0 26:-1.0 27:-1.0 28:-1.0 29:0.0 30:-0.3333333432674408 31:0.0 32:0.0 33:-0.3333333432674408 34:0.0 35:-1.0
0.5000000000000207 1:-1.0 2:-0.2757568061351776 3:-0.6616541147232056 4:-0.8258369565010071 5:-1.0 6:-1.0 7:-1.0 8:-0.9149265289306641 9:-1.0 10:-1.0 11:-0.5 12:-1.0 13:0.4000000059604645 14:0.0 15:-1.0 16:-1.0 17:-1.0 18:-1.0 19:-1.0 20:-1.0 21:-1.0 22:-0.36057594418525696 23:-0.9816578030586243 24:-0.9996326565742493 25:-1.0 26:-1.0 27:-1.0 28:-1.0 29:-1.0 30:-1.0 31:-1.0 32:-1.0 33:-1.0 34:-1.0 35:-1.0
0.5000000000000207 1:-1.0 2:-0.36119264364242554 3:-0.3144044280052185 4:-0.7723382711410522 5:-0.5992120504379272 6:-0.6785190105438232 7:-0.8295868039131165 8:-0.929648220539093 9:-0.9358974099159241 10:-1.0 11:-0.5 12:-1.0 13:-0.699999988079071 14:0.0 15:-1.0 16:-1.0 17:-1.0 18:-1.0 19:-1.0 20:-1.0 21:-1.0 22:-0.5959627628326416 23:-0.9565750360488892 24:-0.9851714372634888 25:-1.0 26:-1.0 27:-1.0 28:-1.0 29:-1.0 30:-1.0 31:-1.0 32:-1.0 33:-1.0 34:-1.0 35:-1.0
-0.5000000000000207 1:-1.0 2:0.16804420948028564 3:0.31578946113586426 4:-0.6585919260978699 5:-0.277660995721817 6:-0.5295780897140503 7:-0.9854421019554138 8:-0.8835904598236084 9:-0.8503236174583435 10:-1.0 11:-0.5 12:-1.0 13:-0.6000000238418579 14:0.0 15:-1.0 16:-1.0 17:-1.0 18:-1.0 19:-1.0 20:-1.0 21:-1.0 22:-0.6058087348937988 23:-0.8440672159194946 24:-0.9483797550201416 25:-1.0 26:-1.0 27:-1.0 28:-1.0 29:0.0 30:-0.3333333432674408 31:0.0 32:0.0 33:-0.3333333432674408 34:0.0 35:-1.0
-0.5000000000000207 1:-1.0 2:-0.07871966063976288 3:-0.2951127886772156 4:-0.7353909015655518 5:-0.7759661674499512 6:-0.8592171669006348 7:-0.9732391238212585 8:-0.9218106865882874 9:-0.885993480682373 10:-1.0 11:-0.5 12:-1.0 13:-0.10000000149011612 14:0.0 15:-1.0 16:-1.0 17:-1.0 18:-1.0 19:-1.0 20:-1.0 21:-1.0 22:-0.6850457787513733 23:-0.9379085302352905 24:-0.9911742806434631 25:-1.0 26:-1.0 27:-1.0 28:-1.0 29:0.0 30:-1.0 31:0.0 32:0.0 33:-0.3333333432674408 34:0.0 35:-1.0
-0.5000000000000207 1:-1.0 2:-0.43978601694107056 3:-0.5394737124443054 4:-0.7790358662605286 5:-0.8097231388092041 6:-0.8592171669006348 7:-1.0 8:-0.9983857870101929 9:-0.9986723065376282 10:-1.0 11:-0.5 12:-1.0 13:-0.10000000149011612 14:0.0 15:-1.0 16:-1.0 17:-1.0 18:-1.0 19:-1.0 20:-1.0 21:-1.0 22:-0.8051848411560059 23:-0.9456915855407715 24:-0.9961884617805481 25:-1.0 26:-1.0 27:-1.0 28:-1.0 29:0.0 30:-0.3333333432674408 31:0.0 32:0.0 33:-1.0 34:0.0 35:-1.0
0.5000000000000207 1:-1.0 2:-0.43978601694107056 3:-0.7532894611358643 4:-0.8168561458587646 5:-1.0 6:-1.0 7:-0.9554699063301086 8:-0.9398496150970459 9:-0.9734042286872864 10:-1.0 11:-0.5 12:-1.0 13:0.5 14:0.0 15:-1.0 16:-1.0 17:-1.0 18:-1.0 19:-1.0 20:-1.0 21:-1.0 22:-0.4922664761543274 23:-0.9652778506278992 24:-0.9972419142723083 25:-1.0 26:-1.0 27:-1.0 28:-1.0 29:-1.0 30:-1.0 31:-1.0 32:-1.0 33:-1.0 34:-1.0 35:-1.0
0.5000000000000207 1:-1.0 2:-0.580295741558075 3:-0.8245614171028137 4:-0.8271125555038452 5:-1.0 6:-1.0 7:-0.999143660068512 8:-0.9483394622802734 9:-0.9411764740943909 10:-1.0 11:-0.5 12:-1.0 13:0.5 14:0.0 15:-1.0 16:-1.0 17:-1.0 18:-1.0 19:-1.0 20:-1.0 21:-1.0 22:-0.03837457671761513 23:-0.9965113401412964 24:-0.9999817609786987 25:-1.0 26:-1.0 27:-1.0 28:-1.0 29:-1.0 30:-1.0 31:-1.0 32:-1.0 33:-1.0 34:-1.0 35:-1.0
0.5000000000000207 1:-1.0 2:-0.2757568061351776 3:-0.6616541147232056 4:-1.0 5:-1.0 6:-1.0 7:-1.0 8:-0.9435146450996399 9:-1.0 10:-1.0 11:-0.5 12:-1.0 13:0.4000000059604645 14:0.0 15:-1.0 16:-1.0 17:-1.0 18:-1.0 19:-1.0 20:-1.0 21:-1.0 22:-0.5385444760322571 23:-0.9813291430473328 24:-0.9996286630630493 25:-1.0 26:-1.0 27:-1.0 28:-1.0 29:-1.0 30:-1.0 31:-1.0 32:-1.0 33:-1.0 34:-1.0 35:-1.0
0.3438992256026508 1:1.0 2:0.03693067282438278 3:-0.02631578966975212 4:-0.6589465141296387 5:-0.19596488773822784 6:-0.44516071677207947 7:-0.9822307825088501 8:-0.7463414669036865 9:-0.49152541160583496 10:-1.0 11:-0.5 12:-1.0 13:-0.20000000298023224 14:0.0 15:1.0 16:-1.0 17:-1.0 18:-1.0 19:-1.0 20:-1.0 21:-1.0 22:0.16237403452396393 23:-0.9517688155174255 24:-0.9965696334838867 25:-1.0 26:-1.0 27:-1.0 28:-1.0 29:0.0 30:-1.0 31:-1.0 32:0.0 33:-0.3333333432674408 34:-1.0 35:-1.0
-0.5000000000000207 1:-1.0 2:-0.580295741558075 3:-0.8245614171028137 4:-1.0 5:-1.0 6:-1.0 7:-0.8689787983894348 8:-0.8671726584434509 9:-0.945652186870575 10:-1.0 11:-0.5 12:-1.0 13:0.20000000298023224 14:0.0 15:-1.0 16:-1.0 17:-1.0 18:-1.0 19:-1.0 20:-1.0 21:-1.0 22:-0.2160116732120514 23:-0.9745121598243713 24:-0.9992530941963196 25:-1.0 26:-1.0 27:-1.0 28:-1.0 29:-1.0 30:-1.0 31:-1.0 32:-1.0 33:-1.0 34:-1.0 35:-1.0
0.16933630441680492 1:1.0 2:-0.2757568061351776 3:-0.11184210330247879 4:-0.7799844145774841 5:-0.5286787748336792 6:-0.5928457975387573 7:-0.8593448996543884 8:-0.8489208817481995 9:-0.8245614171028137 10:-1.0 11:0.0 12:-1.0 13:-0.5 14:0.0 15:-1.0 16:-1.0 17:-1.0 18:-1.0 19:-1.0 20:-1.0 21:-1.0 22:0.7577215433120728 23:-0.9942173361778259 24:-0.9999815821647644 25:1.0 26:-1.0 27:-1.0 28:-1.0 29:-1.0 30:-1.0 31:-1.0 32:-1.0 33:-1.0 34:-1.0 35:-1.0
-0.5000000000000207 1:-1.0 2:-0.36119264364242554 3:-0.7105262875556946 4:-1.0 5:-1.0 6:-1.0 7:-0.9970027804374695 8:-0.8646616339683533 9:-0.8515982031822205 10:-1.0 11:-0.5 12:-1.0 13:0.4000000059604645 14:0.0 15:-1.0 16:-1.0 17:-1.0 18:-1.0 19:-1.0 20:-1.0 21:-1.0 22:0.027642954140901566 23:-0.9094147682189941 24:-0.9963817000389099 25:-1.0 26:-1.0 27:-1.0 28:-1.0 29:-1.0 30:-1.0 31:-1.0 32:-1.0 33:-1.0 34:-1.0 35:-1.0
0.5000000000000207 1:-1.0 2:-0.2757568061351776 3:-0.4325657784938812 4:-0.814113199710846 5:-0.8377009630203247 6:-0.8592171669006348 7:-0.999143660068512 8:-0.9710144996643066 9:-0.8863636255264282 10:-1.0 11:-0.5 12:-1.0 13:0.10000000149011612 14:0.0 15:-1.0 16:-1.0 17:-1.0 18:-1.0 19:-1.0 20:-1.0 21:-1.0 22:-0.36094364523887634 23:-0.9949356317520142 24:-0.9999775886535645 25:-1.0 26:-1.0 27:-1.0 28:-1.0 29:0.0 30:-1.0 31:0.0 32:0.0 33:-0.3333333432674408 34:0.0 35:-1.0
0.5000000000000207 1:-1.0 2:0.16804420948028564 3:-0.11184210330247879 4:-0.7230446934700012 5:-0.7666218876838684 6:-0.8592171669006348 7:-0.994861900806427 8:-0.8685480952262878 9:-0.8032994866371155 10:-1.0 11:-0.5 12:-1.0 13:-0.10000000149011612 14:0.0 15:-1.0 16:-1.0 17:-1.0 18:-1.0 19:-1.0 20:-1.0 21:-1.0 22:-0.2656945586204529 23:-0.8927239775657654 24:-0.9939936399459839 25:-1.0 26:-1.0 27:-1.0 28:-1.0 29:0.0 30:-0.3333333432674408 31:0.0 32:0.0 33:-0.3333333432674408 34:0.0 35:-1.0
0.5000000000000207 1:-1.0 2:-0.18217240273952484 3:-0.6052631735801697 4:-0.8212248086929321 5:-1.0 6:-1.0 7:-0.9944337606430054 8:-0.9749385714530945 9:-0.7596153616905212 10:-1.0 11:-0.5 12:-1.0 13:-0.30000001192092896 14:0.0 15:-1.0 16:-1.0 17:-1.0 18:-1.0 19:-1.0 20:-1.0 21:-1.0 22:-0.3054853677749634 23:-0.9902440309524536 24:-0.9996405243873596 25:-1.0 26:-1.0 27:-1.0 28:-1.0 29:0.0 30:-1.0 31:0.0 32:0.0 33:-1.0 34:0.0 35:-1.0
-0.5000000000000207 1:-1.0 2:-0.2757568061351776 3:-0.4325657784938812 4:-0.7831493616104126 5:-0.8129642605781555 6:-0.8592171669006348 7:-0.9747377634048462 8:-0.8440860509872437 9:-0.8742138147354126 10:-1.0 11:-0.5 12:-1.0 13:-0.20000000298023224 14:0.0 15:-1.0 16:-1.0 17:-1.0 18:-1.0 19:-1.0 20:-1.0 21:-1.0 22:0.2523667812347412 23:-0.8464694023132324 24:-0.9148558974266052 25:-1.0 26:-1.0 27:-1.0 28:-1.0 29:0.0 30:-1.0 31:0.0 32:0.0 33:-0.3333333432674408 34:0.0 35:-1.0
0.4232808160360733 1:1.0 2:-0.43978601694107056 3:-0.5394737124443054 4:-0.7627871632575989 5:-0.797021746635437 6:-0.8592171669006348 7:-0.9357739090919495 8:-0.8936877250671387 9:-0.9695122241973877 10:-1.0 11:-0.5 12:-1.0 13:-0.5 14:0.0 15:-1.0 16:-1.0 17:-1.0 18:-1.0 19:-1.0 20:-1.0 21:-1.0 22:0.5925499796867371 23:-0.9951314926147461 24:-0.9998577237129211 25:1.0 26:-1.0 27:-1.0 28:-1.0 29:0.0 30:-0.3333333432674408 31:0.0 32:0.0 33:-1.0 34:0.0 35:-1.0
0.5000000000000207 1:1.0 2:-0.18217240273952484 3:-0.6052631735801697 4:-0.7091160416603088 5:-1.0 6:-1.0 7:-0.96938556432724 8:-0.8850815296173096 9:-0.8846153616905212 10:-1.0 11:-0.5 12:-1.0 13:-0.5 14:0.0 15:-1.0 16:-1.0 17:-1.0 18:-1.0 19:-1.0 20:-1.0 21:-1.0 22:-0.6058915853500366 23:-0.8398407697677612 24:-0.9771272540092468 25:1.0 26:-1.0 27:-1.0 28:-1.0 29:0.0 30:-0.3333333432674408 31:0.0 32:0.0 33:-0.3333333432674408 34:0.0 35:-1.0
-0.5000000000000207 1:-1.0 2:-0.07871966063976288 3:0.14473684132099152 4:-0.7642163634300232 5:-0.4447431266307831 6:-0.5295780897140503 7:-0.9862984418869019 8:-0.9359999895095825 9:-0.9436936974525452 10:-1.0 11:-0.5 12:-1.0 13:-0.5 14:0.0 15:-1.0 16:-1.0 17:-1.0 18:-1.0 19:-1.0 20:-1.0 21:-1.0 22:-0.22141876816749573 23:-0.9873841404914856 24:-0.9990866184234619 25:-1.0 26:-1.0 27:-1.0 28:-1.0 29:-1.0 30:-1.0 31:-1.0 32:-1.0 33:-1.0 34:-1.0 35:-1.0
-0.5000000000000207 1:-1.0 2:-0.18217240273952484 3:0.16704805195331573 4:-0.7266026139259338 5:-0.2494470328092575 6:-0.37773165106773376 7:-0.9997859001159668 8:-0.9811574816703796 9:-0.9909090995788574 10:-1.0 11:-0.5 12:-1.0 13:-0.4000000059604645 14:0.0 15:-1.0 16:-1.0 17:-1.0 18:-1.0 19:-1.0 20:-1.0 21:-1.0 22:-0.8866957426071167 23:-0.9505099058151245 24:-0.9902752637863159 25:-1.0 26:-1.0 27:-1.0 28:-1.0 29:-1.0 30:-1.0 31:-1.0 32:-1.0 33:-1.0 34:-1.0 35:-1.0
-0.5000000000000207 1:-1.0 2:-0.2757568061351776 3:-0.056064072996377945 4:-1.0 5:-1.0 6:-0.18585652112960815 7:-0.999143660068512 8:-0.9009253978729248 9:-0.8611111044883728 10:-1.0 11:-0.5 12:-1.0 13:-0.6000000238418579 14:0.0 15:-1.0 16:-1.0 17:-1.0 18:-1.0 19:-1.0 20:-1.0 21:-1.0 22:-0.8868606090545654 23:-0.9565867185592651 24:-0.9976429343223572 25:-1.0 26:-1.0 27:-1.0 28:-1.0 29:-1.0 30:-1.0 31:-1.0 32:-1.0 33:-1.0 34:-1.0 35:-1.0
0.5000000000000207 1:-1.0 2:-0.6436656713485718 3:-0.8545706272125244 4:-0.7894933223724365 5:-1.0 6:-1.0 7:-0.9946478009223938 8:-0.9802237749099731 9:-0.9312499761581421 10:-1.0 11:0.0 12:-1.0 13:0.10000000149011612 14:0.0 15:-1.0 16:-1.0 17:-1.0 18:-1.0 19:-1.0 20:-1.0 21:-1.0 22:-0.7058278322219849 23:-0.7073419690132141 24:-0.9445986151695251 25:-1.0 26:-1.0 27:-1.0 28:-1.0 29:0.0 30:-0.3333333432674408 31:0.0 32:0.0 33:-0.3333333432674408 34:0.0 35:-1.0
0.5000000000000207 1:-1.0 2:-0.7031925320625305 3:-0.8815789222717285 4:-0.8186616897583008 5:-1.0 6:-1.0 7:-0.9985014200210571 8:-0.790267288684845 9:-0.9127907156944275 10:-1.0 11:-0.5 12:-1.0 13:0.699999988079071 14:0.0 15:-1.0 16:-1.0 17:-1.0 18:-1.0 19:-1.0 20:-1.0 21:-1.0 22:0.5820980072021484 23:-0.9170200824737549 24:-0.9495006799697876 25:-1.0 26:-1.0 27:-1.0 28:-1.0 29:-1.0 30:-1.0 31:-1.0 32:-1.0 33:-1.0 34:-1.0 35:-1.0
0.5000000000000207 1:-1.0 2:-0.5125521421432495 3:-0.7910216450691223 4:-0.785893976688385 5:-1.0 6:-1.0 7:-0.995718240737915 8:-0.9706013202667236 9:-0.800613522529602 10:-1.0 11:0.0 12:-1.0 13:0.10000000149011612 14:0.0 15:-1.0 16:-1.0 17:-1.0 18:-1.0 19:-1.0 20:-1.0 21:-1.0 22:-0.6133084893226624 23:-0.815335750579834 24:-0.9835914373397827 25:-1.0 26:-1.0 27:-1.0 28:-1.0 29:0.0 30:-0.3333333432674408 31:0.0 32:0.0 33:-0.3333333432674408 34:0.0 35:-1.0
0.5000000000000207 1:1.0 2:0.03693067282438278 3:-0.21052631735801697 4:-0.7882657051086426 5:-0.8170101642608643 6:-0.8592171669006348 7:-0.999143660068512 8:-0.9807186722755432 9:-0.9122806787490845 10:-1.0 11:-0.5 12:-1.0 13:-0.6000000238418579 14:0.0 15:-1.0 16:-1.0 17:-1.0 18:-1.0 19:-1.0 20:-1.0 21:-1.0 22:0.22824230790138245 23:-0.9669203162193298 24:-0.9989612102508545 25:1.0 26:-1.0 27:-1.0 28:-1.0 29:0.0 30:0.3333333432674408 31:0.0 32:0.0 33:-0.3333333432674408 34:0.0 35:-1.0
0.1193574638073099 1:-1.0 2:0.16804420948028564 3:0.4013157784938812 4:-0.6904759407043457 5:-0.19628265500068665 6:-0.389023095369339 7:-0.9933633208274841 8:-0.9580273032188416 9:-0.9666110277175903 10:-1.0 11:-0.5 12:-1.0 13:0.6000000238418579 14:0.0 15:1.0 16:-1.0 17:-1.0 18:-1.0 19:-1.0 20:-1.0 21:-1.0 22:-0.7670791149139404 23:-0.8470641374588013 24:-0.8995157480239868 25:1.0 26:-1.0 27:-1.0 28:-1.0 29:-1.0 30:-1.0 31:-1.0 32:-1.0 33:-1.0 34:-1.0 35:-1.0
-0.5000000000000207 1:-1.0 2:-0.7031925320625305 3:-0.8815789222717285 4:-1.0 5:-1.0 6:-1.0 7:-1.0 8:-0.9910551905632019 9:-1.0 10:-1.0 11:-0.5 12:-1.0 13:0.699999988079071 14:0.0 15:-1.0 16:-1.0 17:-1.0 18:-1.0 19:-1.0 20:-1.0 21:-1.0 22:0.06666861474514008 23:-0.9939088821411133 24:-0.9999522566795349 25:-1.0 26:-1.0 27:-1.0 28:-1.0 29:-1.0 30:-1.0 31:-1.0 32:-1.0 33:-1.0 34:-1.0 35:-1.0
-0.5000000000000207 1:-1.0 2:-0.580295741558075 3:-0.8245614171028137 4:-1.0 5:-1.0 6:-1.0 7:-0.9987154603004456 8:-0.9337748289108276 9:-0.7641509175300598 10:-1.0 11:-0.5 12:-1.0 13:0.5 14:0.0 15:-1.0 16:-1.0 17:-1.0 18:-1.0 19:-1.0 20:-1.0 21:-1.0 22:0.19716332852840424 23:-0.9958689212799072 24:-0.9999752640724182 25:-1.0 26:-1.0 27:-1.0 28:-1.0 29:-1.0 30:-1.0 31:-1.0 32:-1.0 33:-1.0 34:-1.0 35:-1.0
-0.4815823801342362 1:-1.0 2:-0.2757568061351776 3:-0.4325657784938812 4:-0.8159995079040527 5:-0.839227557182312 6:-0.8592171669006348 7:-0.999143660068512 8:-0.9039999842643738 9:-0.8148148059844971 10:-1.0 11:-0.5 12:-1.0 13:0.699999988079071 14:0.0 15:-1.0 16:-1.0 17:-1.0 18:-1.0 19:-1.0 20:-1.0 21:-1.0 22:-0.10239499807357788 23:-0.9950493574142456 24:-0.9999741315841675 25:-1.0 26:-1.0 27:-1.0 28:-1.0 29:-1.0 30:-1.0 31:-1.0 32:-1.0 33:-1.0 34:-1.0 35:-1.0
0.5000000000000207 1:-1.0 2:0.03693067282438278 3:0.11455108225345612 4:-0.7579733729362488 5:-0.49240389466285706 6:-0.5928457975387573 7:-1.0 8:-0.9632545709609985 9:-0.9545454382896423 10:-1.0 11:-0.5 12:-1.0 13:-0.6000000238418579 14:0.0 15:-1.0 16:-1.0 17:-1.0 18:-1.0 19:-1.0 20:-1.0 21:-1.0 22:-0.5122538805007935 23:-0.957070529460907 24:-0.9932247400283813 25:-1.0 26:-1.0 27:-1.0 28:-1.0 29:-1.0 30:-1.0 31:-1.0 32:-1.0 33:-1.0 34:-1.0 35:-1.0
0.5000000000000207 1:-1.0 2:0.16804420948028564 3:0.20888157188892365 4:-0.7506452202796936 5:-0.4806623160839081 6:-0.5928457975387573 7:-0.9139370322227478 8:-0.8435373902320862 9:-0.9033148884773254 10:-1.0 11:-0.5 12:-1.0 13:-0.30000001192092896 14:0.0 15:-1.0 16:-1.0 17:-1.0 18:-1.0 19:-1.0 20:-1.0 21:-1.0 22:-0.6430051326751709 23:-0.9557458758354187 24:-0.9886355400085449 25:-1.0 26:-1.0 27:-1.0 28:-1.0 29:-1.0 30:-1.0 31:-1.0 32:-1.0 33:-1.0 34:-1.0 35:-1.0
0.5000000000000207 1:-1.0 2:0.03693067282438278 3:-0.02631578966975212 4:-1.0 5:-1.0 6:-0.5668150186538696 7:-0.9982873201370239 8:-0.9047619104385376 9:-0.9561403393745422 10:-1.0 11:-0.5 12:-1.0 13:-0.5 14:0.0 15:-1.0 16:-1.0 17:-1.0 18:-1.0 19:-1.0 20:-1.0 21:-1.0 22:-0.16880154609680176 23:-0.9841035604476929 24:-0.999228835105896 25:-1.0 26:-1.0 27:-1.0 28:-1.0 29:-1.0 30:-1.0 31:-1.0 32:-1.0 33:-1.0 34:-1.0 35:-1.0
-0.5000000000000207 1:-1.0 2:-0.18217240273952484 3:-0.3684210479259491 4:-0.7909797430038452 5:-0.8191629648208618 6:-0.8592171669006348 7:-0.9995718002319336 8:-0.9762187600135803 9:-0.9180327653884888 10:-1.0 11:-0.5 12:-1.0 13:0.10000000149011612 14:0.0 15:-1.0 16:-1.0 17:-1.0 18:-1.0 19:-1.0 20:-1.0 21:-1.0 22:-0.14811022579669952 23:-0.9945597648620605 24:-0.9998536705970764 25:-1.0 26:-1.0 27:-1.0 28:-1.0 29:0.0 30:-0.3333333432674408 31:0.0 32:0.0 33:-0.3333333432674408 34:0.0 35:-1.0
-0.5000000000000207 1:1.0 2:-0.18217240273952484 3:-0.3684210479259491 4:-0.6696414947509766 5:-0.7272005081176758 6:-0.8592171669006348 7:-0.6026546955108643 8:-0.9719640612602234 9:-0.9690303802490234 10:-1.0 11:-0.5 12:-1.0 13:-0.5 14:0.0 15:-1.0 16:-1.0 17:-1.0 18:-1.0 19:-1.0 20:-1.0 21:-1.0 22:0.47310498356819153 23:-0.8849236965179443 24:-0.9950340986251831 25:1.0 26:-1.0 27:-1.0 28:-1.0 29:0.0 30:-0.3333333432674408 31:0.0 32:0.0 33:-0.3333333432674408 34:0.0 35:-1.0
-0.5000000000000207 1:-1.0 2:0.16804420948028564 3:0.20888157188892365 4:-1.0 5:-1.0 6:-0.7526165843009949 7:-0.9997859001159668 8:-0.9282395243644714 9:-0.9816176295280457 10:-1.0 11:-0.5 12:-1.0 13:-0.4000000059604645 14:0.0 15:-1.0 16:-1.0 17:-1.0 18:-1.0 19:-1.0 20:-1.0 21:-1.0 22:-0.7283846139907837 23:-0.9719235897064209 24:-0.9989454746246338 25:-1.0 26:-1.0 27:-1.0 28:-1.0 29:-1.0 30:-1.0 31:-1.0 32:-1.0 33:-1.0 34:-1.0 35:-1.0
-0.5000000000000207 1:-1.0 2:-0.580295741558075 3:-0.8245614171028137 4:-0.7309030294418335 5:-1.0 6:-1.0 7:-0.9441233277320862 8:-0.6312769055366516 9:-0.44486984610557556 10:-1.0 11:-0.5 12:-1.0 13:-0.30000001192092896 14:0.0 15:-1.0 16:-1.0 17:-1.0 18:-1.0 19:-1.0 20:-1.0 21:-1.0 22:-0.5846346616744995 23:-0.9625235795974731 24:-0.9955840110778809 25:-1.0 26:-1.0 27:-1.0 28:-1.0 29:0.0 30:-0.3333333432674408 31:0.0 32:0.0 33:-0.3333333432674408 34:-1.0 35:-1.0
0.5000000000000207 1:-1.0 2:-0.812404215335846 3:-0.9282296895980835 4:-1.0 5:-1.0 6:-1.0 7:-0.9982873201370239 8:-0.939393937587738 9:-0.9484536051750183 10:-1.0 11:-0.5 12:-1.0 13:0.699999988079071 14:0.0 15:-1.0 16:-1.0 17:-1.0 18:-1.0 19:-1.0 20:-1.0 21:-1.0 22:-0.8300036787986755 23:-0.9821070432662964 24:-0.9994903802871704 25:-1.0 26:-1.0 27:-1.0 28:-1.0 29:-1.0 30:-1.0 31:-1.0 32:-1.0 33:-1.0 34:-1.0 35:-1.0
0.5000000000000207 1:-1.0 2:-0.43978601694107056 3:-0.7532894611358643 4:-1.0 5:-1.0 6:-1.0 7:-0.9961464405059814 8:-0.9960645437240601 9:-0.9979373216629028 10:-1.0 11:-0.5 12:-1.0 13:1.0 14:0.0 15:-1.0 16:-1.0 17:-1.0 18:-1.0 19:-1.0 20:-1.0 21:-1.0 22:-0.8617275357246399 23:-0.9768519997596741 24:-0.9977472424507141 25:-1.0 26:-1.0 27:-1.0 28:-1.0 29:-1.0 30:-1.0 31:-1.0 32:-1.0 33:-1.0 34:-1.0 35:-1.0
0.5000000000000207 1:-1.0 2:-0.6436656713485718 3:-0.8545706272125244 4:-1.0 5:-1.0 6:-1.0 7:-0.9976450204849243 8:-0.8901602029800415 9:-0.9137930870056152 10:-1.0 11:-0.5 12:-1.0 13:-0.6000000238418579 14:0.0 15:-1.0 16:-1.0 17:-1.0 18:-1.0 19:-1.0 20:-1.0 21:-1.0 22:0.20016323029994965 23:-0.9590269327163696 24:-0.9787939786911011 25:-1.0 26:-1.0 27:-1.0 28:-1.0 29:-1.0 30:-1.0 31:-1.0 32:-1.0 33:-1.0 34:-1.0 35:-1.0
-0.16521107320232886 1:1.0 2:-0.6436656713485718 3:-0.6616541147232056 4:-1.0 5:-1.0 6:-0.8890299797058105 7:-1.0 8:-0.9714285731315613 9:-1.0 10:-1.0 11:-1.0 12:-1.0 13:-1.0 14:-1.0 15:-1.0 16:-1.0 17:-1.0 18:-1.0 19:-1.0 20:-1.0 21:-1.0 22:-0.9176643490791321 23:-0.9816805124282837 24:-0.9984246492385864 25:-1.0 26:-1.0 27:-1.0 28:-1.0 29:-1.0 30:-1.0 31:-1.0 32:-1.0 33:-1.0 34:-1.0 35:-1.0
-0.5000000000000207 1:-1.0 2:-0.812404215335846 3:-0.9282296895980835 4:-1.0 5:-1.0 6:-1.0 7:-1.0 8:-1.0 9:-1.0 10:-1.0 11:-0.5 12:-1.0 13:0.699999988079071 14:0.0 15:-1.0 16:-1.0 17:-1.0 18:-1.0 19:-1.0 20:-1.0 21:-1.0 22:-0.9713016748428345 23:-0.9956299662590027 24:-0.9998403191566467 25:-1.0 26:-1.0 27:-1.0 28:-1.0 29:-1.0 30:-1.0 31:-1.0 32:-1.0 33:-1.0 34:-1.0 35:-1.0
-0.43234195981170154 1:-1.0 2:-0.7031925320625305 3:-0.8815789222717285 4:-1.0 5:-1.0 6:-1.0 7:-0.9987154603004456 8:-0.9804996848106384 9:-0.7897196412086487 10:-1.0 11:-0.5 12:-1.0 13:0.699999988079071 14:0.0 15:-1.0 16:-1.0 17:-1.0 18:-1.0 19:-1.0 20:-1.0 21:-1.0 22:-0.90256667137146 23:-0.9877395629882812 24:-0.9996595978736877 25:-1.0 26:-1.0 27:-1.0 28:-1.0 29:-1.0 30:-1.0 31:-1.0 32:-1.0 33:-1.0 34:-1.0 35:-1.0
0.5000000000000207 1:-1.0 2:-0.18217240273952484 3:-0.6052631735801697 4:-0.7898277640342712 5:-1.0 6:-1.0 7:-0.9959323406219482 8:-0.852090060710907 9:-0.9308865666389465 10:-1.0 11:-0.5 12:-1.0 13:-0.4000000059604645 14:0.0 15:-1.0 16:-1.0 17:-1.0 18:-1.0 19:-1.0 20:-1.0 21:-1.0 22:0.13146741688251495 23:-0.9459696412086487 24:-0.9989928603172302 25:-1.0 26:-1.0 27:-1.0 28:-1.0 29:0.0 30:-0.3333333432674408 31:0.0 32:0.0 33:-0.3333333432674408 34:0.0 35:-1.0
