SVM-light Version V6.01
0 # kernel type
3 # kernel parameter -d
1.0 # kernel parameter -g
1.0 # kernel parameter -s
0.0 # kernel parameter -r
empty# kernel parameter -u
23 # highest feature index
1756 # number of training documents
1521 # number of support vectors plus 1
1.018768289730323 # threshold b, each following line is a SV (starting with alpha*y)
-2.8154031375813394E-5 1:0.0 2:1.2039728164672852 3:0.3529411852359772 4:0.049447789788246155 5:0.057277802377939224 6:0.614363968372345 7:2.0 8:0.0 9:0.0 10:0.0 11:1.0 12:0.0 13:8.0 14:1.0 15:0.0 16:0.0 17:0.0 18:0.0 19:0.0 20:0.0 21:0.16962622106075287 22:0.001516595482826233 23:1.1710886127502818E-7
2.8154031375813394E-5 1:16.0 2:1.2909841537475586 3:0.2857142984867096 4:0.06587962061166763 5:-0.0 6:-0.0 7:242.0 8:0.09837962687015533 9:0.1619812548160553 10:0.0 11:1.0 12:0.0 13:9.0 14:1.0 15:0.0 16:0.0 17:0.0 18:0.0 19:0.0 20:0.0 21:0.13531829416751862 22:0.00555233983322978 23:5.254645657259971E-6
-2.8154031375813394E-5 1:16.0 2:1.742969274520874 3:0.5 4:0.06386785954236984 5:0.09054478257894516 6:0.7794168591499329 7:3875.0 8:0.04998162388801575 9:0.06853582710027695 10:0.0 11:1.0 12:0.0 13:14.0 14:1.0 15:0.0 16:0.0 17:0.0 18:0.0 19:0.0 20:0.0 21:0.703299343585968 22:0.013392184861004353 23:4.218824869894888E-6
2.8154031375813394E-5 1:0.0 2:1.0498220920562744 3:0.31578946113586426 4:0.07154934108257294 5:0.10034202039241791 6:0.7794168591499329 7:0.0 8:0.04194260388612747 9:0.0 10:0.0 11:0.0 12:0.0 13:0.0 14:0.0 15:1.0 16:0.0 17:0.0 18:0.0 19:0.0 20:0.0 21:0.3620823621749878 22:0.002022800501435995 23:4.3944120875494264E-7
2.8154031375813394E-5 1:0.0 2:1.1239300966262817 3:0.3333333432674408 4:0.05364668369293213 5:0.07717259973287582 6:0.7794168591499329 7:82.0 8:0.06799162924289703 9:0.08510638028383255 10:0.0 11:1.0 12:0.0 13:3.0 14:1.0 15:0.0 16:0.0 17:0.0 18:0.0 19:0.0 20:0.0 21:0.9982559680938721 22:0.014310656115412712 23:1.1857966455863789E-4
-2.8154031375813394E-5 1:16.0 2:1.8971199989318848 3:0.7058823704719543 4:0.0 5:0.0 6:2.4933841228485107 7:0.0 8:0.034207526594400406 9:0.0 10:0.0 11:1.0 12:0.0 13:8.0 14:1.0 15:1.0 16:0.0 17:0.0 18:0.0 19:0.0 20:0.0 21:0.17080914974212646 22:0.0010434137657284737 23:5.925898349801173E-8
2.8154031375813394E-5 1:0.0 2:1.6094379425048828 3:0.5882353186607361 4:0.0 5:0.0 6:3.5266945362091064 7:0.0 8:0.011538461782038212 9:0.021276595070958138 10:0.0 11:1.0 12:0.0 13:9.0 14:1.0 15:0.0 16:0.0 17:0.0 18:0.0 19:0.0 20:0.0 21:0.15860746800899506 22:0.005727419164031744 23:1.2050769555571605E-6
-2.8154031375813394E-5 1:0.0 2:1.2039728164672852 3:0.2666666805744171 4:0.0 5:0.0 6:-0.0 7:8.0 8:0.028639618307352066 9:0.03937007859349251 10:0.0 11:1.0 12:0.0 13:5.0 14:1.0 15:0.0 16:0.0 17:0.0 18:0.0 19:0.0 20:0.0 21:0.13109178841114044 22:0.004491600673645735 23:1.4333315903058974E-6
-2.8154031375813394E-5 1:0.0 2:1.3862943649291992 3:0.47058823704719543 4:0.0 5:0.0 6:3.0717601776123047 7:1.0 8:0.003978651016950607 9:0.010204081423580647 10:0.0 11:0.0 12:0.0 13:0.0 14:0.0 15:0.0 16:0.0 17:0.0 18:0.0 19:0.0 20:0.0 21:0.03427252173423767 22:0.004430755507200956 23:3.8489606595248915E-6
-2.8154031375813394E-5 1:16.0 2:1.491654872894287 3:0.5555555820465088 4:0.06930901110172272 5:0.23807381093502045 6:2.2541303634643555 7:0.0 8:0.031609196215867996 9:0.027027027681469917 10:0.0 11:0.0 12:0.0 13:0.0 14:0.0 15:0.0 16:0.0 17:0.0 18:0.0 19:0.0 20:0.0 21:0.5003463625907898 22:0.00222271797247231 23:9.482307206098994E-8
2.8154031375813394E-5 1:0.0 2:1.3862943649291992 3:0.4000000059604645 4:0.0 5:0.0 6:0.7794168591499329 7:0.0 8:0.0 9:0.0 10:0.0 11:1.0 12:0.0 13:16.0 14:1.0 15:0.0 16:0.0 17:0.0 18:0.0 19:0.0 20:0.0 21:0.3034108281135559 22:4.692680959124118E-4 23:2.6654904061729212E-8
-2.8154031375813394E-5 1:0.0 2:0.9808292388916016 3:0.30000001192092896 4:0.05937259644269943 5:0.08471176028251648 6:0.7794168591499329 7:1.0 8:0.02311643771827221 9:0.008196720853447914 10:0.0 11:0.0 12:0.0 13:0.0 14:0.0 15:1.0 16:0.0 17:0.0 18:0.0 19:0.0 20:0.0 21:0.31859099864959717 22:0.0018395200604572892 23:1.1658762133492928E-7
2.8154031375813394E-5 1:0.0 2:1.2039728164672852 3:0.3529411852359772 4:0.04993315041065216 5:0.07221633940935135 6:0.7794168591499329 7:0.0 8:0.014130434952676296 9:0.0 10:0.0 11:0.0 12:0.0 13:0.0 14:0.0 15:0.0 16:0.0 17:0.0 18:0.0 19:0.0 20:0.0 21:0.4095636010169983 22:0.0020482251420617104 23:1.484817033770014E-7
2.8154031375813394E-5 1:0.0 2:1.2909841537475586 3:0.375 4:0.04993315041065216 5:0.07221633940935135 6:0.7794168591499329 7:0.0 8:0.0 9:0.0 10:0.0 11:1.0 12:0.0 13:14.0 14:1.0 15:0.0 16:0.0 17:0.0 18:0.0 19:0.0 20:0.0 21:0.566250205039978 22:0.0021918679121881723 23:1.4252239566303615E-7
-2.8154031375813394E-5 1:16.0 2:1.742969274520874 3:0.699999988079071 4:0.05798325315117836 5:0.17451763153076172 6:1.8230515718460083 7:2.0 8:0.01684483326971531 9:0.0 10:0.0 11:2.0 12:0.0 13:3.0 14:1.0 15:0.0 16:0.0 17:0.0 18:0.0 19:0.0 20:0.0 21:0.19661591947078705 22:0.002412727102637291 23:7.883592161306296E-7
2.8154031375813394E-5 1:0.0 2:1.742969274520874 3:0.5714285969734192 4:0.055242281407117844 5:0.1144004687666893 6:1.16920006275177 7:24.0 8:0.035894639790058136 9:0.08552631735801697 10:0.0 11:1.0 12:0.0 13:17.0 14:1.0 15:0.0 16:0.0 17:0.0 18:0.0 19:0.0 20:0.0 21:0.6814363598823547 22:0.003974366467446089 23:2.520262967209419E-7
2.8154031375813394E-5 1:16.0 2:2.3025851249694824 3:0.8571428656578064 4:0.0 5:0.0 6:7.461694717407227 7:0.0 8:0.06603773683309555 9:0.0 10:0.0 11:0.0 12:0.0 13:0.0 14:0.0 15:0.0 16:0.0 17:0.0 18:0.0 19:0.0 20:0.0 21:0.21449773013591766 22:6.502830074168742E-4 23:6.857779766278327E-8
2.8154031375813394E-5 1:0.0 2:0.9162907600402832 3:0.21052631735801697 4:0.043785955756902695 5:-0.0 6:-0.0 7:0.0 8:0.021400777623057365 9:0.0 10:0.0 11:1.0 12:0.0 13:14.0 14:1.0 15:0.0 16:0.0 17:0.0 18:0.0 19:0.0 20:0.0 21:0.6857771277427673 22:3.6743440432474017E-4 23:1.6511229050664156E-9
2.8154031375813394E-5 1:16.0 2:1.491654872894287 3:0.5555555820465088 4:0.0672554075717926 5:0.32174813747406006 6:3.5266945362091064 7:0.0 8:0.0038860102649778128 9:0.0 10:0.0 11:0.0 12:0.0 13:0.0 14:0.0 15:1.0 16:0.0 17:0.0 18:0.0 19:0.0 20:0.0 21:0.2120177447795868 22:5.508692702278495E-4 23:3.1843757852811905E-8
2.8154031375813394E-5 1:16.0 2:0.9808292388916016 3:0.2222222238779068 4:0.0 5:0.0 6:-0.0 7:0.0 8:0.02031249925494194 9:0.019607843831181526 10:0.0 11:0.0 12:0.0 13:0.0 14:0.0 15:1.0 16:0.0 17:0.0 18:0.0 19:0.0 20:0.0 21:0.13666532933712006 22:0.00164124951697886 23:6.699077630401007E-7
-2.8154031375813394E-5 1:0.0 2:1.0498220920562744 3:0.43478259444236755 4:0.0 5:0.0 6:1.3695902824401855 7:0.0 8:0.0 9:0.0 10:0.0 11:1.0 12:0.0 13:18.0 14:1.0 15:0.0 16:0.0 17:0.0 18:0.0 19:0.0 20:0.0 21:0.047849658876657486 22:0.011307674460113049 23:8.049018651945516E-5
2.8154031375813394E-5 1:16.0 2:0.8556661009788513 3:0.20000000298023224 4:0.0 5:0.0 6:-0.0 7:1.0 8:0.026905829086899757 9:0.012500000186264515 10:0.0 11:0.0 12:0.0 13:0.0 14:0.0 15:0.0 16:0.0 17:0.0 18:0.0 19:0.0 20:0.0 21:0.025436164811253548 22:0.007343133445829153 23:3.4127973776776344E-5
-2.8154031375813394E-5 1:16.0 2:0.744440495967865 3:0.1818181872367859 4:0.0 5:0.0 6:-0.0 7:5.0 8:0.009615384973585606 9:0.06666667014360428 10:0.0 11:1.0 12:0.0 13:20.0 14:1.0 15:0.0 16:0.0 17:0.0 18:0.0 19:0.0 20:0.0 21:0.15596212446689606 22:0.0012255520559847355 23:6.441796784883991E-8
-2.8154031375813394E-5 1:0.0 2:1.1239300966262817 3:0.3333333432674408 4:0.0 5:0.0 6:0.7794168591499329 7:2.0 8:0.02555910497903824 9:0.020134227350354195 10:0.0 11:0.0 12:0.0 13:0.0 14:0.0 15:1.0 16:0.0 17:0.0 18:0.0 19:0.0 20:0.0 21:0.6416265368461609 22:0.0019485020311549306 23:5.936407632134433E-8
2.8154031375813394E-5 1:16.0 2:1.2909841537475586 3:0.375 4:0.0 5:0.0 6:0.7794168591499329 7:0.0 8:0.01004016026854515 9:0.0 10:0.0 11:1.0 12:0.0 13:17.0 14:1.0 15:1.0 16:0.0 17:0.0 18:0.0 19:0.0 20:0.0 21:0.27877435088157654 22:0.001865822239778936 23:3.9420982034243934E-7
2.8154031375813394E-5 1:0.0 2:0.9808292388916016 3:0.2222222238779068 4:0.043785955756902695 5:-0.0 6:-0.0 7:0.0 8:0.006302521098405123 9:0.0 10:0.0 11:0.0 12:0.0 13:0.0 14:0.0 15:0.0 16:0.0 17:0.0 18:0.0 19:0.0 20:0.0 21:0.4362228214740753 22:3.194579912815243E-4 23:2.5889230759190696E-9
-2.8154031375813394E-5 1:16.0 2:1.2039728164672852 3:0.3529411852359772 4:0.0 5:0.0 6:0.7794168591499329 7:3.0 8:0.07792207598686218 9:0.03773584961891174 10:0.0 11:1.0 12:0.0 13:8.0 14:1.0 15:1.0 16:0.0 17:0.0 18:0.0 19:0.0 20:0.0 21:0.061377063393592834 22:0.004972372204065323 23:2.159868472517701E-6
-2.8154031375813394E-5 1:16.0 2:1.6094379425048828 3:0.6315789222717285 4:0.0 5:0.0 6:2.6043996810913086 7:1.0 8:0.028368793427944183 9:0.03333333507180214 10:0.0 11:0.0 12:0.0 13:0.0 14:0.0 15:1.0 16:0.0 17:0.0 18:0.0 19:0.0 20:0.0 21:0.4400686025619507 22:6.651523872278631E-4 23:2.5550301430143918E-8
-2.8154031375813394E-5 1:16.0 2:1.0498220920562744 3:0.23529411852359772 4:0.04249619320034981 5:-0.0 6:-0.0 7:2.0 8:0.0234375 9:0.01875000074505806 10:0.0 11:1.0 12:0.0 13:3.0 14:1.0 15:1.0 16:0.0 17:0.0 18:0.0 19:0.0 20:0.0 21:0.050162363797426224 22:0.0032561318948864937 23:5.464286914502736E-6
-2.8154031375813394E-5 1:0.0 2:1.2909841537475586 3:0.2857142984867096 4:0.05677745118737221 5:-0.0 6:-0.0 7:5.0 8:0.017787734046578407 9:0.016393441706895828 10:0.0 11:1.0 12:0.0 13:5.0 14:1.0 15:0.0 16:0.0 17:0.0 18:0.0 19:0.0 20:0.0 21:0.13413141667842865 22:0.0026037010829895735 23:4.6599518555012764E-7
2.8154031375813394E-5 1:0.0 2:1.6094379425048828 3:0.3636363744735718 4:0.09460379183292389 5:-0.0 6:-0.0 7:173.0 8:0.2279708981513977 9:0.11693548411130905 10:0.0 11:1.0 12:0.0 13:6.0 14:1.0 15:0.0 16:0.0 17:0.0 18:0.0 19:0.0 20:0.0 21:0.6408485174179077 22:0.007991975173354149 23:7.269766229001107E-7
-2.8154031375813394E-5 1:0.0 2:0.9162907600402832 3:0.21052631735801697 4:0.05335032567381859 5:-0.0 6:-0.0 7:6.0 8:0.046422719955444336 9:0.03550295904278755 10:0.0 11:0.0 12:0.0 13:0.0 14:0.0 15:0.0 16:0.0 17:0.0 18:0.0 19:0.0 20:0.0 21:0.14071045815944672 22:0.022424370050430298 23:3.016998562088702E-5
-2.8154031375813394E-5 1:0.0 2:1.6094379425048828 3:0.6666666865348816 4:0.0 5:0.0 6:3.3825552463531494 7:0.0 8:0.00410677632316947 9:0.0 10:0.0 11:0.0 12:0.0 13:0.0 14:0.0 15:0.0 16:0.0 17:0.0 18:0.0 19:0.0 20:0.0 21:0.2982724905014038 22:0.002612931188195944 23:1.5364620367108728E-6
-2.8154031375813394E-5 1:16.0 2:1.1239300966262817 3:0.4545454680919647 4:0.0 5:0.0 6:2.7753183841705322 7:1.0 8:0.011860175058245659 9:0.016129031777381897 10:0.0 11:0.0 12:0.0 13:0.0 14:0.0 15:0.0 16:0.0 17:0.0 18:0.0 19:0.0 20:0.0 21:0.1791795939207077 22:0.004505426622927189 23:8.350695566150534E-7
-2.8154031375813394E-5 1:0.0 2:1.0498220920562744 3:0.23529411852359772 4:0.0539931021630764 5:-0.0 6:-0.0 7:3647.0 8:0.0634920671582222 9:0.0873015895485878 10:0.0 11:2.0 12:0.0 13:4.0 14:1.0 15:0.0 16:0.0 17:0.0 18:0.0 19:0.0 20:0.0 21:0.962712824344635 22:0.004648147150874138 23:1.5832795270398492E-6
2.8154031375813394E-5 1:16.0 2:1.3862943649291992 3:0.4000000059604645 4:0.053206682205200195 5:0.07658811658620834 6:0.7794168591499329 7:0.0 8:0.021121632307767868 9:0.005076142027974129 10:0.0 11:1.0 12:0.0 13:16.0 14:1.0 15:0.0 16:0.0 17:0.0 18:0.0 19:0.0 20:0.0 21:0.06061222031712532 22:0.0071756355464458466 23:2.693655233088066E-6
2.8154031375813394E-5 1:0.0 2:1.2909841537475586 3:0.2857142984867096 4:0.0 5:0.0 6:-0.0 7:0.0 8:0.028242677450180054 9:0.0 10:0.0 11:1.0 12:0.0 13:14.0 14:1.0 15:0.0 16:0.0 17:0.0 18:0.0 19:0.0 20:0.0 21:0.23310798406600952 22:0.0023138467222452164 23:1.563372222790349E-7
2.8154031375813394E-5 1:2.0 2:1.8971199989318848 3:0.6153846383094788 4:0.14801980555057526 5:0.4762650430202484 6:3.0717601776123047 7:386.0 8:0.11210954189300537 9:0.10060286521911621 10:0.0 11:1.0 12:0.0 13:7.0 14:1.0 15:0.0 16:0.0 17:0.0 18:0.0 19:0.0 20:0.0 21:0.8902221322059631 22:0.010659893974661827 23:1.4381304254129645E-6
2.8154031375813394E-5 1:4.0 2:1.6094379425048828 3:0.6666666865348816 4:0.13912343978881836 5:0.4894258975982666 6:3.445068359375 7:510.0 8:0.06048687547445297 9:0.03517342358827591 10:0.0 11:1.0 12:0.0 13:6.0 14:1.0 15:0.0 16:0.0 17:0.0 18:0.0 19:0.0 20:0.0 21:0.27040043473243713 22:0.039233721792697906 23:1.7452082829549909E-4
2.8154031375813394E-5 1:16.0 2:2.079441547393799 3:0.75 4:0.0 5:0.0 6:5.678985118865967 7:0.0 8:0.059163060039281845 9:0.022727273404598236 10:0.0 11:1.0 12:0.0 13:3.0 14:1.0 15:1.0 16:0.0 17:0.0 18:0.0 19:0.0 20:0.0 21:0.219599187374115 22:0.002288895659148693 23:9.908221727528144E-7
-2.8154031375813394E-5 1:16.0 2:1.1239300966262817 3:0.25 4:0.0 5:0.0 6:-0.0 7:4.0 8:0.023861171677708626 9:0.016129031777381897 10:0.0 11:1.0 12:0.0 13:11.0 14:1.0 15:1.0 16:0.0 17:0.0 18:0.0 19:0.0 20:0.0 21:0.05592181161046028 22:0.001632883446291089 23:2.0916617415878136E-7
-2.8154031375813394E-5 1:16.0 2:0.9808292388916016 3:0.2222222238779068 4:0.05902763083577156 5:-0.0 6:-0.0 7:2148.0 8:0.11696869879961014 9:0.0956340953707695 10:0.0 11:0.0 12:0.0 13:0.0 14:0.0 15:1.0 16:0.0 17:0.0 18:0.0 19:0.0 20:0.0 21:0.37286561727523804 22:0.04765130579471588 23:3.184312299708836E-5
-2.8154031375813394E-5 1:0.0 2:1.491654872894287 3:0.4285714328289032 4:0.0591362863779068 5:0.08440305292606354 6:0.7794168591499329 7:2724.0 8:0.07138964533805847 9:0.10362694412469864 10:0.0 11:2.0 12:0.0 13:14.0 14:1.0 15:0.0 16:0.0 17:0.0 18:0.0 19:0.0 20:0.0 21:0.29554295539855957 22:0.01279860083013773 23:4.158830961387139E-6
2.8154031375813394E-5 1:0.0 2:0.9162907600402832 3:0.21052631735801697 4:0.05355696752667427 5:-0.0 6:-0.0 7:4.0 8:0.004756871145218611 9:0.01923076994717121 10:0.0 11:0.0 12:0.0 13:0.0 14:0.0 15:0.0 16:0.0 17:0.0 18:0.0 19:0.0 20:0.0 21:0.16008497774600983 22:0.0015370681649073958 23:7.104739552232786E-7
2.8154031375813394E-5 1:0.0 2:1.2909841537475586 3:0.2857142984867096 4:0.054992154240608215 5:-0.0 6:-0.0 7:0.0 8:0.053589485585689545 9:0.0 10:0.0 11:0.0 12:0.0 13:0.0 14:0.0 15:0.0 16:0.0 17:0.0 18:0.0 19:0.0 20:0.0 21:0.2738164961338043 22:0.0012899896828457713 23:1.8350297281699568E-8
2.8154031375813394E-5 1:0.0 2:0.9162907600402832 3:0.2857142984867096 4:0.0 5:0.0 6:0.7794168591499329 7:0.0 8:0.0 9:0.0 10:0.0 11:1.0 12:0.0 13:5.0 14:1.0 15:0.0 16:0.0 17:0.0 18:0.0 19:0.0 20:0.0 21:0.19729205965995789 22:0.0010083523811772466 23:1.4958024507905066E-7
2.8154031375813394E-5 1:0.0 2:0.9808292388916016 3:0.2222222238779068 4:0.0 5:0.0 6:-0.0 7:0.0 8:0.017985612154006958 9:0.0 10:0.0 11:1.0 12:0.0 13:11.0 14:1.0 15:0.0 16:0.0 17:0.0 18:0.0 19:0.0 20:0.0 21:0.1465795785188675 22:0.0016230465844273567 23:6.674682140328514E-7
-2.8154031375813394E-5 1:5.0 2:2.5902671813964844 3:0.9166666865348816 4:0.0 5:0.0 6:9.280853271484375 7:2194.0 8:0.6637744307518005 9:0.18444444239139557 10:0.0 11:0.0 12:0.0 13:0.0 14:0.0 15:0.0 16:0.0 17:0.0 18:0.0 19:1.0 20:0.0 21:0.28777551651000977 22:0.008412465453147888 23:3.9667836972512305E-5
-2.8154031375813394E-5 1:0.0 2:1.6094379425048828 3:0.6315789222717285 4:0.0 5:0.0 6:3.893685817718506 7:1.0 8:0.008849557489156723 9:0.03846153989434242 10:0.0 11:1.0 12:0.0 13:12.0 14:1.0 15:0.0 16:0.0 17:0.0 18:0.0 19:0.0 20:0.0 21:0.0829719677567482 22:0.0011705232318490744 23:1.3760750050550996E-7
2.8154031375813394E-5 1:0.0 2:1.1239300966262817 3:0.3333333432674408 4:0.05208306759595871 5:0.07509219646453857 6:0.7794168591499329 7:0.0 8:0.028708133846521378 9:0.0 10:0.0 11:0.0 12:0.0 13:0.0 14:0.0 15:1.0 16:0.0 17:0.0 18:0.0 19:0.0 20:0.0 21:0.35383912920951843 22:7.502113585360348E-4 23:2.806278587286215E-8
2.8154031375813394E-5 1:3.0 2:2.079441547393799 3:0.6666666865348816 4:0.09093768149614334 5:0.3037092387676239 6:2.398244857788086 7:156.0 8:0.1397203803062439 9:0.20430107414722443 10:0.0 11:1.0 12:0.0 13:9.0 14:1.0 15:0.0 16:0.0 17:0.0 18:0.0 19:0.0 20:0.0 21:0.5723544955253601 22:0.0012616341700777411 23:5.011180448377672E-8
-2.8154031375813394E-5 1:0.0 2:1.0498220920562744 3:0.31578946113586426 4:0.0 5:0.0 6:0.7794168591499329 7:3417.0 8:0.11325966566801071 9:0.21311475336551666 10:0.0 11:1.0 12:0.0 13:9.0 14:1.0 15:0.0 16:0.0 17:0.0 18:0.0 19:0.0 20:0.0 21:0.4148966073989868 22:8.672808180563152E-4 23:5.307479611360577E-8
2.8154031375813394E-5 1:16.0 2:0.7985076904296875 3:0.190476194024086 4:0.0 5:0.0 6:-0.0 7:0.0 8:0.001300119562074542 9:0.0 10:0.0 11:1.0 12:0.0 13:4.0 14:1.0 15:1.0 16:0.0 17:0.0 18:0.0 19:0.0 20:0.0 21:0.11568193137645721 22:0.0010454298462718725 23:3.445207141794526E-7
-2.8154031375813394E-5 1:16.0 2:1.2909841537475586 3:0.2857142984867096 4:0.0660645067691803 5:-0.0 6:-0.0 7:2476.0 8:0.26038339734077454 9:0.39153438806533813 10:0.0 11:0.0 12:0.0 13:0.0 14:0.0 15:0.0 16:0.0 17:0.0 18:0.0 19:0.0 20:0.0 21:0.2943941652774811 22:0.04486067220568657 23:3.1489209504798055E-5
2.8154031375813394E-5 1:5.0 2:2.5902671813964844 3:0.8999999761581421 4:0.0 5:0.0 6:9.200810432434082 7:485.0 8:0.9081632494926453 9:0.3137255012989044 10:0.0 11:1.0 12:0.0 13:6.0 14:1.0 15:0.0 16:0.0 17:0.0 18:0.0 19:1.0 20:0.0 21:0.3862727880477905 22:9.932752000167966E-4 23:4.346323834170107E-8
2.8154031375813394E-5 1:16.0 2:1.2039728164672852 3:0.3529411852359772 4:0.046993497759103775 5:0.06825502216815948 6:0.7794168591499329 7:111.0 8:0.0892857164144516 9:0.11290322244167328 10:0.0 11:3.0 12:0.0 13:4.0 14:2.0 15:1.0 16:0.0 17:0.0 18:0.0 19:0.0 20:0.0 21:0.8770391345024109 22:2.8813324752263725E-4 23:4.294407052185534E-9
2.8154031375813394E-5 1:16.0 2:1.491654872894287 3:0.5555555820465088 4:0.06945715844631195 5:0.27825528383255005 6:2.7753183841705322 7:506.0 8:0.0602150522172451 9:0.06060606241226196 10:0.0 11:1.0 12:0.0 13:4.0 14:1.0 15:0.0 16:0.0 17:0.0 18:0.0 19:0.0 20:0.0 21:0.3693805932998657 22:0.004603462293744087 23:3.990336153947283E-6
-2.8154031375813394E-5 1:16.0 2:0.744440495967865 3:0.25 4:0.0 5:0.0 6:0.7794168591499329 7:0.0 8:0.007281553465873003 9:0.0 10:0.0 11:2.0 12:0.0 13:6.0 14:2.0 15:0.0 16:0.0 17:0.0 18:0.0 19:0.0 20:0.0 21:0.2249499261379242 22:0.0010917291510850191 23:1.5105453599062457E-7
2.8154031375813394E-5 1:0.0 2:1.2039728164672852 3:0.42105263471603394 4:0.05500511825084686 5:0.1637384295463562 6:1.7798171043395996 7:3.0 8:0.0 9:0.0 10:0.0 11:1.0 12:0.0 13:3.0 14:1.0 15:0.0 16:0.0 17:0.0 18:0.0 19:0.0 20:0.0 21:0.552327036857605 22:9.8968087695539E-4 23:1.239490732274362E-8
2.8154031375813394E-5 1:0.0 2:0.744440495967865 3:0.1818181872367859 4:0.0 5:0.0 6:-0.0 7:8.0 8:0.03030303120613098 9:0.020618556067347527 10:0.0 11:1.0 12:0.0 13:17.0 14:1.0 15:0.0 16:0.0 17:0.0 18:0.0 19:0.0 20:0.0 21:0.08786005526781082 22:0.0022189852315932512 23:2.1454255261232902E-7
2.8154031375813394E-5 1:16.0 2:1.0498220920562744 3:0.31578946113586426 4:0.049551740288734436 5:0.07170426845550537 6:0.7794168591499329 7:0.0 8:0.010526316240429878 9:0.01666666753590107 10:0.0 11:1.0 12:0.0 13:6.0 14:1.0 15:0.0 16:0.0 17:0.0 18:0.0 19:0.0 20:0.0 21:0.5135962963104248 22:9.530501556582749E-4 23:6.48005311632005E-8
2.8154031375813394E-5 1:16.0 2:1.0498220920562744 3:0.23529411852359772 4:0.0 5:0.0 6:-0.0 7:21.0 8:0.11166252940893173 9:0.0 10:0.0 11:0.0 12:0.0 13:0.0 14:0.0 15:0.0 16:0.0 17:0.0 18:0.0 19:0.0 20:0.0 21:0.21972797811031342 22:0.00871677789837122 23:1.1569862181204371E-5
-2.8154031375813394E-5 1:16.0 2:1.0498220920562744 3:0.23529411852359772 4:0.0 5:0.0 6:-0.0 7:2.0 8:0.034383952617645264 9:0.0 10:0.0 11:1.0 12:0.0 13:10.0 14:1.0 15:0.0 16:0.0 17:0.0 18:0.0 19:0.0 20:0.0 21:0.15985143184661865 22:0.0022422943729907274 23:3.3301961366305477E-7
-2.8154031375813394E-5 1:16.0 2:1.491654872894287 3:0.4285714328289032 4:0.053206682205200195 5:0.07658811658620834 6:0.7794168591499329 7:2612.0 8:0.002518631052225828 9:0.024242423474788666 10:0.0 11:0.0 12:0.0 13:0.0 14:0.0 15:0.0 16:0.0 17:0.0 18:0.0 19:0.0 20:0.0 21:0.08050568401813507 22:0.0028475280851125717 23:1.2563889413286233E-6
2.8154031375813394E-5 1:16.0 2:1.2909841537475586 3:0.5 4:0.05455503985285759 5:0.19739851355552673 6:2.2541303634643555 7:0.0 8:0.006122448947280645 9:0.0 10:0.0 11:1.0 12:0.0 13:5.0 14:1.0 15:0.0 16:0.0 17:0.0 18:0.0 19:0.0 20:0.0 21:0.14246779680252075 22:0.0032967119477689266 23:5.603350246019545E-7
-2.8154031375813394E-5 1:0.0 2:1.2909841537475586 3:0.375 4:0.05783504247665405 5:0.08269942551851273 6:0.7794168591499329 7:2557.0 8:0.019406810402870178 9:0.04615384712815285 10:0.0 11:1.0 12:0.0 13:11.0 14:1.0 15:0.0 16:0.0 17:0.0 18:0.0 19:0.0 20:0.0 21:0.799926221370697 22:4.582713881973177E-4 23:4.602341174830826E-9
2.8154031375813394E-5 1:16.0 2:0.9808292388916016 3:0.2222222238779068 4:0.0 5:0.0 6:-0.0 7:1.0 8:0.008849557489156723 9:0.03333333507180214 10:0.0 11:0.0 12:0.0 13:0.0 14:0.0 15:1.0 16:0.0 17:0.0 18:0.0 19:0.0 20:0.0 21:0.28926196694374084 22:3.6900414852425456E-4 23:4.249335550099431E-9
2.8154031375813394E-5 1:16.0 2:1.6094379425048828 3:0.4615384638309479 4:0.058189623057842255 5:0.083164282143116 6:0.7794168591499329 7:4.0 8:0.009640665724873543 9:0.035087719559669495 10:0.0 11:1.0 12:0.0 13:4.0 14:1.0 15:0.0 16:0.0 17:0.0 18:0.0 19:0.0 20:0.0 21:0.6152341365814209 22:0.004070909693837166 23:4.37244381146229E-7
2.8154031375813394E-5 1:16.0 2:1.742969274520874 3:0.699999988079071 4:0.09008911997079849 5:0.382992684841156 6:3.445068359375 7:361.0 8:0.19595645368099213 9:0.20973782241344452 10:0.0 11:1.0 12:0.0 13:5.0 14:1.0 15:0.0 16:0.0 17:0.0 18:0.0 19:0.0 20:0.0 21:0.4045335054397583 22:0.016881175339221954 23:5.833368777530268E-5
2.8154031375813394E-5 1:0.0 2:1.491654872894287 3:0.4285714328289032 4:0.0 5:0.0 6:0.7794168591499329 7:10.0 8:0.0193452388048172 9:0.05978260934352875 10:0.0 11:1.0 12:0.0 13:9.0 14:1.0 15:0.0 16:0.0 17:0.0 18:0.0 19:0.0 20:0.0 21:0.2529015839099884 22:0.0014985875459387898 23:1.0454841969931294E-7
-2.8154031375813394E-5 1:0.0 2:0.9162907600402832 3:0.21052631735801697 4:0.0 5:0.0 6:-0.0 7:8.0 8:0.04233301803469658 9:0.1111111119389534 10:0.0 11:1.0 12:0.0 13:7.0 14:1.0 15:0.0 16:0.0 17:0.0 18:0.0 19:0.0 20:0.0 21:0.41593292355537415 22:4.5679177856072783E-4 23:5.3528772525623936E-8
2.8154031375813394E-5 1:0.0 2:1.0498220920562744 3:0.23529411852359772 4:0.050059642642736435 5:-0.0 6:-0.0 7:130.0 8:0.10891088843345642 9:0.21153846383094788 10:0.0 11:2.0 12:0.0 13:3.0 14:2.0 15:0.0 16:0.0 17:0.0 18:0.0 19:0.0 20:0.0 21:0.5128887295722961 22:5.948822945356369E-4 23:2.261088205557371E-8
-2.8154031375813394E-5 1:16.0 2:0.9162907600402832 3:0.21052631735801697 4:0.0 5:0.0 6:-0.0 7:8.0 8:0.0731707289814949 9:0.06923077255487442 10:0.0 11:1.0 12:0.0 13:17.0 14:1.0 15:0.0 16:0.0 17:0.0 18:0.0 19:0.0 20:0.0 21:0.08026868104934692 22:0.0028565723914653063 23:5.60433250029746E-7
2.8154031375813394E-5 1:16.0 2:1.2039728164672852 3:0.3529411852359772 4:0.0 5:0.0 6:0.614363968372345 7:4.0 8:0.006795017048716545 9:0.008888889104127884 10:0.0 11:2.0 12:0.0 13:18.0 14:1.0 15:0.0 16:0.0 17:0.0 18:0.0 19:0.0 20:0.0 21:0.060234710574150085 22:0.005384441930800676 23:7.975177140906453E-6
-2.8154031375813394E-5 1:0.0 2:1.3862943649291992 3:0.4000000059604645 4:0.08122638612985611 5:0.11238802969455719 6:0.7794168591499329 7:2601.0 8:0.1466277837753296 9:0.23146606981754303 10:0.0 11:0.0 12:0.0 13:0.0 14:0.0 15:0.0 16:0.0 17:0.0 18:0.0 19:0.0 20:0.0 21:0.6125893592834473 22:0.018886052072048187 23:6.146882515167817E-5
-2.8154031375813394E-5 1:16.0 2:0.9808292388916016 3:0.2222222238779068 4:0.0 5:0.0 6:-0.0 7:4.0 8:0.01666666753590107 9:0.03030303120613098 10:0.0 11:1.0 12:0.0 13:10.0 14:1.0 15:1.0 16:0.0 17:0.0 18:0.0 19:0.0 20:0.0 21:0.05918247997760773 22:0.0030903276056051254 23:3.785063881878159E-6
2.8154031375813394E-5 1:5.0 2:2.5902671813964844 3:0.9166666865348816 4:0.0 5:0.0 6:11.072612762451172 7:138.0 8:0.5806451439857483 9:0.19298245012760162 10:0.0 11:1.0 12:0.0 13:6.0 14:1.0 15:0.0 16:0.0 17:0.0 18:0.0 19:1.0 20:0.0 21:0.3304557204246521 22:0.0021931519731879234 23:1.7812475334721967E-6
2.8154031375813394E-5 1:16.0 2:1.2039728164672852 3:0.2666666805744171 4:0.0490291602909565 5:-0.0 6:-0.0 7:0.0 8:0.03125 9:0.06451612710952759 10:0.0 11:1.0 12:0.0 13:7.0 14:1.0 15:1.0 16:0.0 17:0.0 18:0.0 19:0.0 20:0.0 21:0.4595159590244293 22:5.599642754532397E-4 23:1.0151436136141001E-8
2.8154031375813394E-5 1:16.0 2:2.079441547393799 3:0.7142857313156128 4:0.0 5:0.0 6:7.020827770233154 7:465.0 8:0.23827095329761505 9:0.22469325363636017 10:0.0 11:1.0 12:0.0 13:12.0 14:1.0 15:1.0 16:0.0 17:0.0 18:0.0 19:0.0 20:0.0 21:0.8066224455833435 22:9.889539796859026E-4 23:2.1512123637990044E-8
2.8154031375813394E-5 1:16.0 2:0.9162907600402832 3:0.21052631735801697 4:0.0 5:0.0 6:-0.0 7:28.0 8:0.11620977520942688 9:0.3392857015132904 10:0.0 11:1.0 12:0.0 13:18.0 14:1.0 15:1.0 16:0.0 17:0.0 18:0.0 19:0.0 20:0.0 21:0.9991120100021362 22:0.0020931754261255264 23:7.251073839142919E-7
2.8154031375813394E-5 1:0.0 2:1.6094379425048828 3:0.4615384638309479 4:0.057740967720746994 5:0.08257601410150528 6:0.7794168591499329 7:496.0 8:0.05602240934967995 9:0.04897959157824516 10:0.0 11:1.0 12:0.0 13:5.0 14:1.0 15:0.0 16:0.0 17:0.0 18:0.0 19:0.0 20:0.0 21:0.0443202368915081 22:0.015645641833543777 23:3.0000450351508334E-5
2.8154031375813394E-5 1:16.0 2:1.2909841537475586 3:0.5 4:0.07405462116003036 5:0.29130804538726807 6:2.7753183841705322 7:586.0 8:0.08376963436603546 9:0.10638298094272614 10:0.0 11:0.0 12:0.0 13:0.0 14:0.0 15:0.0 16:0.0 17:0.0 18:0.0 19:0.0 20:0.0 21:0.5406056046485901 22:4.314244433771819E-4 23:8.912082627432483E-9
-2.8154031375813394E-5 1:0.0 2:1.6094379425048828 3:0.6666666865348816 4:0.08212914317846298 5:0.46686455607414246 6:5.331213474273682 7:6.0 8:0.003968254197388887 9:0.012500000186264515 10:0.0 11:1.0 12:0.0 13:11.0 14:1.0 15:0.0 16:0.0 17:0.0 18:0.0 19:0.0 20:0.0 21:0.05630078166723251 22:0.0014712363481521606 23:2.0827359037411952E-7
-2.8154031375813394E-5 1:16.0 2:1.8971199989318848 3:0.7368420958518982 4:0.0 5:0.0 6:5.496663570404053 7:0.0 8:0.05000000074505806 9:0.0 10:0.0 11:1.0 12:0.0 13:5.0 14:1.0 15:1.0 16:0.0 17:0.0 18:0.0 19:0.0 20:0.0 21:0.7049625515937805 22:2.565744798630476E-4 23:2.202533044837196E-9
2.8154031375813394E-5 1:16.0 2:2.3025851249694824 3:0.8421052694320679 4:0.1260770708322525 5:0.605984628200531 6:6.0993332862854 7:12.0 8:0.1657303422689438 9:0.12941177189350128 10:0.0 11:0.0 12:0.0 13:0.0 14:0.0 15:1.0 16:0.0 17:0.0 18:0.0 19:0.0 20:0.0 21:0.1063799113035202 22:0.0019859487656503916 23:2.5861587005238107E-7
-2.8154031375813394E-5 1:0.0 2:0.9808292388916016 3:0.30000001192092896 4:0.05676664784550667 5:0.081295907497406 6:0.7794168591499329 7:1.0 8:0.04645760729908943 9:0.006369426846504211 10:0.0 11:1.0 12:0.0 13:6.0 14:1.0 15:0.0 16:0.0 17:0.0 18:0.0 19:0.0 20:0.0 21:0.040776629000902176 22:0.008927424438297749 23:5.1726419769693166E-5
-2.8154031375813394E-5 1:16.0 2:2.5902671813964844 3:0.8999999761581421 4:0.0 5:0.0 6:10.667147636413574 7:49.0 8:1.0 9:0.25 10:0.0 11:1.0 12:0.0 13:9.0 14:1.0 15:0.0 16:0.0 17:0.0 18:0.0 19:1.0 20:0.0 21:0.9673862457275391 22:9.4113644445315E-4 23:6.19194295836678E-8
-2.8154031375813394E-5 1:0.0 2:1.6094379425048828 3:0.3636363744735718 4:0.07332734763622284 5:-0.0 6:-0.0 7:531.0 8:0.09913300722837448 9:0.04014423117041588 10:0.0 11:2.0 12:0.0 13:10.0 14:1.0 15:0.0 16:0.0 17:0.0 18:0.0 19:0.0 20:0.0 21:0.2780126929283142 22:0.01761716604232788 23:2.4862345526344143E-5
-2.8154031375813394E-5 1:0.0 2:1.491654872894287 3:0.4285714328289032 4:0.07028551399707794 5:0.09874462336301804 6:0.7794168591499329 7:510.0 8:0.1296830028295517 9:0.049618322402238846 10:0.0 11:2.0 12:0.0 13:26.0 14:1.0 15:0.0 16:0.0 17:0.0 18:0.0 19:0.0 20:0.0 21:0.27132734656333923 22:0.013372933492064476 23:2.8631638997467235E-5
-2.8154031375813394E-5 1:16.0 2:0.9808292388916016 3:0.2222222238779068 4:0.0 5:0.0 6:-0.0 7:8.0 8:0.008403361774981022 9:0.10000000149011612 10:0.0 11:1.0 12:0.0 13:9.0 14:1.0 15:0.0 16:0.0 17:0.0 18:0.0 19:0.0 20:0.0 21:0.14452806115150452 22:0.01934853382408619 23:1.0656374070094898E-4
-2.8154031375813394E-5 1:3.0 2:2.079441547393799 3:0.800000011920929 4:0.12038805335760117 5:0.6362931728363037 6:7.2659502029418945 7:37.0 8:0.04423077031970024 9:0.048192769289016724 10:0.0 11:0.0 12:0.0 13:0.0 14:0.0 15:0.0 16:0.0 17:0.0 18:0.0 19:0.0 20:0.0 21:0.28969138860702515 22:0.0040311189368367195 23:1.6545390053579467E-6
-2.8154031375813394E-5 1:16.0 2:2.5902671813964844 3:0.8888888955116272 4:0.0 5:0.0 6:6.310438632965088 7:230.0 8:0.8350217342376709 9:0.13970588147640228 10:0.0 11:0.0 12:0.0 13:0.0 14:0.0 15:1.0 16:1.0 17:1.0 18:0.0 19:1.0 20:0.0 21:0.23916351795196533 22:0.0032526408322155476 23:6.121824185356672E-7
-2.8154031375813394E-5 1:16.0 2:1.2909841537475586 3:0.5454545617103577 4:0.0 5:0.0 6:2.6043996810913086 7:0.0 8:0.021834060549736023 9:0.02222222276031971 10:0.0 11:1.0 12:0.0 13:20.0 14:1.0 15:0.0 16:0.0 17:0.0 18:0.0 19:0.0 20:0.0 21:0.018164262175559998 22:0.0025525859091430902 23:3.3052281196432887E-6
-2.8154031375813394E-5 1:16.0 2:0.7985076904296875 3:0.190476194024086 4:0.04249619320034981 5:-0.0 6:-0.0 7:3.0 8:0.02109704725444317 9:0.05882352963089943 10:0.0 11:1.0 12:0.0 13:20.0 14:1.0 15:0.0 16:0.0 17:0.0 18:0.0 19:0.0 20:0.0 21:0.09920942038297653 22:0.0012267844285815954 23:9.673811973698321E-8
-2.8154031375813394E-5 1:0.0 2:1.0498220920562744 3:0.23529411852359772 4:0.061673928052186966 5:-0.0 6:-0.0 7:10.0 8:0.051086317747831345 9:0.01741521619260311 10:0.0 11:0.0 12:0.0 13:0.0 14:0.0 15:0.0 16:0.0 17:0.0 18:0.0 19:0.0 20:0.0 21:0.2444005161523819 22:0.006688104476779699 23:5.125947950546106E-7
2.8154031375813394E-5 1:0.0 2:1.0498220920562744 3:0.380952388048172 4:0.0 5:0.0 6:1.7798171043395996 7:0.0 8:0.03821656107902527 9:0.0 10:0.0 11:1.0 12:0.0 13:7.0 14:1.0 15:0.0 16:0.0 17:0.0 18:0.0 19:0.0 20:0.0 21:0.04561815410852432 22:0.00773181626573205 23:2.041156403720379E-5
-2.8154031375813394E-5 1:16.0 2:1.2039728164672852 3:0.2666666805744171 4:0.0 5:0.0 6:-0.0 7:2.0 8:0.007851852104067802 9:0.054054055362939835 10:0.0 11:1.0 12:0.0 13:7.0 14:1.0 15:0.0 16:0.0 17:0.0 18:0.0 19:0.0 20:0.0 21:0.09586341679096222 22:0.0031668497249484062 23:1.063229547071387E-6
-2.8154031375813394E-5 1:0.0 2:1.1239300966262817 3:0.3333333432674408 4:0.05840897932648659 5:0.08345162123441696 6:0.7794168591499329 7:168.0 8:0.07725507020950317 9:0.2222222238779068 10:0.0 11:1.0 12:0.0 13:4.0 14:1.0 15:0.0 16:0.0 17:0.0 18:0.0 19:0.0 20:0.0 21:0.8988558650016785 22:4.974515759386122E-4 23:1.3380924812622652E-8
-2.8154031375813394E-5 1:16.0 2:1.3862943649291992 3:0.4000000059604645 4:0.0 5:0.0 6:0.7794168591499329 7:0.0 8:0.06560283899307251 9:0.009009009227156639 10:0.0 11:0.0 12:0.0 13:0.0 14:0.0 15:0.0 16:0.0 17:0.0 18:0.0 19:0.0 20:0.0 21:0.2554236054420471 22:7.447719108313322E-4 23:2.7955575632176988E-8
-2.8154031375813394E-5 1:3.0 2:1.491654872894287 3:0.5384615659713745 4:0.0 5:0.0 6:1.8230515718460083 7:0.0 8:0.05652866140007973 9:0.0 10:0.0 11:0.0 12:0.0 13:0.0 14:0.0 15:1.0 16:0.0 17:0.0 18:0.0 19:0.0 20:0.0 21:0.30385100841522217 22:5.149855860508978E-4 23:2.4638305617941114E-8
-2.8154031375813394E-5 1:16.0 2:1.491654872894287 3:0.4285714328289032 4:0.060096271336078644 5:0.08565584570169449 6:0.7794168591499329 7:0.0 8:0.007512152194976807 9:0.005347593687474728 10:0.0 11:1.0 12:0.0 13:16.0 14:1.0 15:0.0 16:0.0 17:0.0 18:0.0 19:0.0 20:0.0 21:0.5090680122375488 22:0.040776629000902176 23:1.5166042430792004E-5
-2.8154031375813394E-5 1:16.0 2:0.9162907600402832 3:0.21052631735801697 4:0.0 5:0.0 6:-0.0 7:1.0 8:0.0015277171041816473 9:0.0 10:0.0 11:1.0 12:0.0 13:6.0 14:1.0 15:0.0 16:0.0 17:0.0 18:0.0 19:0.0 20:0.0 21:0.29381507635116577 22:0.0011444453848525882 23:5.550388593178468E-8
-2.8154031375813394E-5 1:0.0 2:1.2039728164672852 3:0.2666666805744171 4:0.0 5:0.0 6:-0.0 7:1475.0 8:0.015402843244373798 9:0.015625 10:0.0 11:0.0 12:0.0 13:0.0 14:0.0 15:0.0 16:0.0 17:0.0 18:0.0 19:0.0 20:0.0 21:0.5831515789031982 22:9.575043222866952E-4 23:9.570133840952622E-8
-2.8154031375813394E-5 1:0.0 2:1.1239300966262817 3:0.25 4:0.0 5:0.0 6:-0.0 7:7.0 8:0.01650165021419525 9:0.06849315017461777 10:0.0 11:1.0 12:0.0 13:10.0 14:1.0 15:0.0 16:0.0 17:0.0 18:0.0 19:0.0 20:0.0 21:0.25655025243759155 22:0.0012955566635355353 23:1.4413508608868142E-7
-2.8154031375813394E-5 1:0.0 2:1.6094379425048828 3:0.3636363744735718 4:0.06749997287988663 5:-0.0 6:-0.0 7:56.0 8:0.15064695477485657 9:0.11331444978713989 10:0.0 11:0.0 12:0.0 13:0.0 14:0.0 15:0.0 16:0.0 17:0.0 18:0.0 19:0.0 20:0.0 21:0.5694278478622437 22:0.013740258291363716 23:2.6330903892812785E-6
2.8154031375813394E-5 1:0.0 2:1.2909841537475586 3:0.2857142984867096 4:0.0478641539812088 5:-0.0 6:-0.0 7:0.0 8:0.04253673553466797 9:0.0 10:0.0 11:0.0 12:0.0 13:0.0 14:0.0 15:0.0 16:0.0 17:0.0 18:0.0 19:0.0 20:0.0 21:0.3217981159687042 22:0.002273763995617628 23:1.546748507053053E-7
-2.8154031375813394E-5 1:16.0 2:2.5902671813964844 3:0.8888888955116272 4:0.24805977940559387 5:0.8084591627120972 6:8.50766372680664 7:573.0 8:0.6933333277702332 9:0.34166666865348816 10:0.0 11:1.0 12:0.0 13:5.0 14:1.0 15:1.0 16:1.0 17:1.0 18:0.0 19:1.0 20:0.0 21:0.39963528513908386 22:7.690429338254035E-4 23:1.3000231113835525E-8
-2.8154031375813394E-5 1:0.0 2:1.0498220920562744 3:0.23529411852359772 4:0.0 5:0.0 6:-0.0 7:7.0 8:0.051643192768096924 9:0.09000000357627869 10:0.0 11:0.0 12:0.0 13:0.0 14:0.0 15:0.0 16:0.0 17:0.0 18:0.0 19:0.0 20:0.0 21:0.12836651504039764 22:0.004302491899579763 23:7.601371635246323E-6
-2.8154031375813394E-5 1:16.0 2:1.1239300966262817 3:0.25 4:0.04249619320034981 5:-0.0 6:-0.0 7:2.0 8:0.05466238036751747 9:0.04444444552063942 10:0.0 11:1.0 12:0.0 13:18.0 14:1.0 15:0.0 16:0.0 17:0.0 18:0.0 19:0.0 20:0.0 21:0.13644160330295563 22:5.775375757366419E-4 23:3.144459981285763E-8
-2.8154031375813394E-5 1:16.0 2:1.2039728164672852 3:0.2666666805744171 4:0.04769497364759445 5:-0.0 6:-0.0 7:242.0 8:0.07670043408870697 9:0.06639004498720169 10:0.0 11:1.0 12:0.0 13:5.0 14:1.0 15:1.0 16:0.0 17:0.0 18:0.0 19:0.0 20:0.0 21:0.9804338812828064 22:0.019855285063385963 23:1.639122056076303E-4
-2.8154031375813394E-5 1:3.0 2:2.079441547393799 3:0.7142857313156128 4:0.09842538088560104 5:0.27255088090896606 6:1.9033026695251465 7:530.0 8:0.14593596756458282 9:0.17427386343479156 10:0.0 11:1.0 12:0.0 13:2.0 14:1.0 15:0.0 16:0.0 17:0.0 18:0.0 19:0.0 20:0.0 21:0.5143561959266663 22:0.026871880516409874 23:1.0017783642979339E-4
-2.8154031375813394E-5 1:16.0 2:1.742969274520874 3:0.7272727489471436 4:0.0 5:0.0 6:4.594871520996094 7:70.0 8:0.041322313249111176 9:0.1111111119389534 10:0.0 11:1.0 12:0.0 13:20.0 14:1.0 15:0.0 16:0.0 17:0.0 18:0.0 19:0.0 20:0.0 21:0.09032933413982391 22:0.0015649432316422462 23:2.780875547614414E-7
-2.8154031375813394E-5 1:16.0 2:1.1239300966262817 3:0.3333333432674408 4:0.06532413512468338 5:0.09241853654384613 6:0.7794168591499329 7:1493.0 8:0.1661931872367859 9:0.35960590839385986 10:0.0 11:0.0 12:0.0 13:0.0 14:0.0 15:0.0 16:0.0 17:0.0 18:0.0 19:0.0 20:0.0 21:0.6073269844055176 22:0.00514079537242651 23:6.838131980657636E-7
-2.8154031375813394E-5 1:0.0 2:1.6094379425048828 3:0.4615384638309479 4:0.09788503497838974 5:0.10736129432916641 6:0.614363968372345 7:1891.0 8:0.07016441226005554 9:0.04821876436471939 10:0.0 11:1.0 12:0.0 13:5.0 14:1.0 15:0.0 16:0.0 17:0.0 18:0.0 19:0.0 20:0.0 21:0.45200684666633606 22:0.0337771475315094 23:6.634492456214502E-5
-2.8154031375813394E-5 1:0.0 2:1.2909841537475586 3:0.2857142984867096 4:0.0 5:0.0 6:-0.0 7:26.0 8:0.05858748033642769 9:0.03861003741621971 10:0.0 11:0.0 12:0.0 13:0.0 14:0.0 15:1.0 16:0.0 17:0.0 18:0.0 19:0.0 20:0.0 21:0.28732582926750183 22:0.013569054193794727 23:5.343245447875233E-6
-2.8154031375813394E-5 1:0.0 2:1.2039728164672852 3:0.2666666805744171 4:0.054722484201192856 5:-0.0 6:-0.0 7:10.0 8:0.01294642873108387 9:0.0 10:0.0 11:1.0 12:0.0 13:12.0 14:1.0 15:0.0 16:0.0 17:0.0 18:0.0 19:0.0 20:0.0 21:0.0377105250954628 22:0.001757233403623104 23:4.904457568954967E-7
-2.8154031375813394E-5 1:16.0 2:2.5902671813964844 3:0.8888888955116272 4:0.0 5:0.0 6:9.280853271484375 7:51.0 8:0.8623853325843811 9:0.09302325546741486 10:0.0 11:1.0 12:0.0 13:4.0 14:1.0 15:1.0 16:1.0 17:1.0 18:0.0 19:1.0 20:0.0 21:0.5986921787261963 22:7.589317392557859E-4 23:1.3717934344015248E-8
-2.8154031375813394E-5 1:0.0 2:1.1239300966262817 3:0.3333333432674408 4:0.0 5:0.0 6:0.7794168591499329 7:0.0 8:0.0 9:0.0 10:0.0 11:1.0 12:0.0 13:9.0 14:1.0 15:0.0 16:0.0 17:0.0 18:0.0 19:0.0 20:0.0 21:0.14524154365062714 22:0.0022301352582871914 23:2.1934661731393135E-7
-2.8154031375813394E-5 1:16.0 2:1.2909841537475586 3:0.2857142984867096 4:0.0 5:0.0 6:-0.0 7:44.0 8:0.01931949332356453 9:0.025477707386016846 10:0.0 11:0.0 12:0.0 13:0.0 14:0.0 15:1.0 16:0.0 17:0.0 18:0.0 19:0.0 20:0.0 21:0.09927312284708023 22:0.0072858016937971115 23:2.2766305391996866E-6
-2.8154031375813394E-5 1:0.0 2:0.8556661009788513 3:0.20000000298023224 4:0.05096970871090889 5:-0.0 6:-0.0 7:8.0 8:0.026490066200494766 9:0.017094017937779427 10:0.0 11:0.0 12:0.0 13:0.0 14:0.0 15:0.0 16:0.0 17:0.0 18:0.0 19:0.0 20:0.0 21:0.1432725489139557 22:0.006708603817969561 23:6.684814707114128E-6
-2.8154031375813394E-5 1:16.0 2:1.0498220920562744 3:0.31578946113586426 4:0.0 5:0.0 6:0.7794168591499329 7:4.0 8:0.049450550228357315 9:0.09433962404727936 10:0.0 11:2.0 12:0.0 13:5.0 14:2.0 15:1.0 16:0.0 17:0.0 18:0.0 19:0.0 20:0.0 21:0.03079027310013771 22:0.002487459685653448 23:3.246156893510488E-6
-2.8154031375813394E-5 1:0.0 2:0.8556661009788513 3:0.27272728085517883 4:0.051525842398405075 5:0.07434853166341782 6:0.7794168591499329 7:5.0 8:0.020618556067347527 9:0.05128205195069313 10:0.0 11:0.0 12:0.0 13:0.0 14:0.0 15:0.0 16:0.0 17:0.0 18:0.0 19:0.0 20:0.0 21:0.35514217615127563 22:0.0013352357782423496 23:1.0238977665721904E-7
-2.8154031375813394E-5 1:0.0 2:1.742969274520874 3:0.5 4:0.0 5:0.0 6:0.614363968372345 7:0.0 8:0.055796653032302856 9:0.0 10:0.0 11:1.0 12:0.0 13:9.0 14:1.0 15:0.0 16:0.0 17:0.0 18:0.0 19:0.0 20:0.0 21:0.3822925090789795 22:0.013753201812505722 23:3.5395189570408547E-6
-2.8154031375813394E-5 1:16.0 2:1.491654872894287 3:0.5 4:0.08246157318353653 5:0.22692349553108215 6:1.7798171043395996 7:370.0 8:0.04006163403391838 9:0.1589404046535492 10:0.0 11:2.0 12:0.0 13:7.0 14:2.0 15:0.0 16:0.0 17:0.0 18:0.0 19:0.0 20:0.0 21:0.4724811315536499 22:0.0015072760870680213 23:1.3264221365716367E-7
-2.8154031375813394E-5 1:0.0 2:1.1239300966262817 3:0.25 4:0.05161919817328453 5:-0.0 6:-0.0 7:9.0 8:0.007909604348242283 9:0.05999999865889549 10:0.0 11:1.0 12:0.0 13:17.0 14:1.0 15:0.0 16:0.0 17:0.0 18:0.0 19:0.0 20:0.0 21:0.05450744554400444 22:0.003997139632701874 23:1.3317030607140623E-6
2.8154031375813394E-5 1:0.0 2:0.7985076904296875 3:0.190476194024086 4:0.045156460255384445 5:-0.0 6:-0.0 7:3.0 8:0.0019907099194824696 9:0.011363636702299118 10:0.0 11:1.0 12:0.0 13:7.0 14:1.0 15:0.0 16:0.0 17:0.0 18:0.0 19:0.0 20:0.0 21:0.04352712631225586 22:0.0036319454666227102 23:7.403450581477955E-7
-2.8154031375813394E-5 1:16.0 2:2.3025851249694824 3:0.7692307829856873 4:0.07061950117349625 5:0.21186649799346924 6:1.9033026695251465 7:5.0 8:0.02578621730208397 9:0.06382978707551956 10:0.0 11:0.0 12:0.0 13:0.0 14:0.0 15:0.0 16:0.0 17:0.0 18:0.0 19:0.0 20:0.0 21:0.042570557445287704 22:0.003286183811724186 23:4.968974280927796E-6
-2.8154031375813394E-5 1:16.0 2:1.0498220920562744 3:0.23529411852359772 4:0.05496323108673096 5:-0.0 6:-0.0 7:1130.0 8:0.05011135712265968 9:0.07092198729515076 10:0.0 11:1.0 12:0.0 13:2.0 14:1.0 15:0.0 16:0.0 17:0.0 18:0.0 19:0.0 20:0.0 21:0.5600647926330566 22:0.004085845779627562 23:2.031765689025633E-6
-2.8154031375813394E-5 1:0.0 2:1.2909841537475586 3:0.375 4:0.051314208656549454 5:0.07406577467918396 6:0.7794168591499329 7:0.0 8:0.006530825514346361 9:0.0 10:0.0 11:0.0 12:0.0 13:0.0 14:0.0 15:0.0 16:0.0 17:0.0 18:0.0 19:0.0 20:0.0 21:0.12545762956142426 22:8.310175617225468E-4 23:7.461211737336271E-8
-2.8154031375813394E-5 1:0.0 2:0.9162907600402832 3:0.21052631735801697 4:0.04731795936822891 5:-0.0 6:-0.0 7:673.0 8:0.02083333395421505 9:0.018518518656492233 10:0.0 11:0.0 12:0.0 13:0.0 14:0.0 15:0.0 16:0.0 17:0.0 18:0.0 19:0.0 20:0.0 21:0.6482427716255188 22:0.002376412507146597 23:2.8267550078453496E-7
-2.8154031375813394E-5 1:16.0 2:1.2039728164672852 3:0.52173912525177 4:0.0 5:0.0 6:2.6043996810913086 7:0.0 8:0.06521739065647125 9:0.0 10:0.0 11:1.0 12:0.0 13:2.0 14:1.0 15:0.0 16:0.0 17:0.0 18:0.0 19:0.0 20:0.0 21:0.05041041225194931 22:0.005460155662149191 23:4.0799714042805135E-6
-2.8154031375813394E-5 1:16.0 2:1.742969274520874 3:0.625 4:0.09754480421543121 5:0.38203173875808716 6:3.1688315868377686 7:30.0 8:0.12144212424755096 9:0.10357142984867096 10:0.0 11:1.0 12:0.0 13:2.0 14:1.0 15:0.0 16:0.0 17:0.0 18:0.0 19:0.0 20:0.0 21:0.20623113214969635 22:0.0019581024535000324 23:6.922138027221081E-7
-2.8154031375813394E-5 1:16.0 2:1.491654872894287 3:0.5 4:0.0 5:0.0 6:2.398244857788086 7:27.0 8:0.0 9:0.0 10:0.0 11:2.0 12:0.0 13:4.0 14:2.0 15:0.0 16:0.0 17:0.0 18:0.0 19:0.0 20:0.0 21:0.034725625067949295 22:0.006294485181570053 23:2.267797981403419E-6
-2.8154031375813394E-5 1:2.0 2:1.8971199989318848 3:0.6666666865348816 4:0.08386631309986115 5:0.4076727628707886 6:4.103291988372803 7:0.0 8:0.07578558474779129 9:0.0 10:0.0 11:1.0 12:0.0 13:14.0 14:1.0 15:0.0 16:0.0 17:0.0 18:0.0 19:0.0 20:0.0 21:0.6475023031234741 22:8.851027814671397E-4 23:1.3020271971697639E-8
-2.8154031375813394E-5 1:2.0 2:1.8971199989318848 3:0.6666666865348816 4:0.0 5:0.0 6:1.9033026695251465 7:1.0 8:0.10643564164638519 9:0.032786883413791656 10:0.0 11:2.0 12:0.0 13:3.0 14:2.0 15:0.0 16:0.0 17:0.0 18:0.0 19:0.0 20:0.0 21:0.14700135588645935 22:9.328647865913808E-4 23:7.496173992649346E-8
-2.8154031375813394E-5 1:0.0 2:1.2039728164672852 3:0.42105263471603394 4:0.0 5:0.0 6:1.7798171043395996 7:0.0 8:0.0139860138297081 9:0.0 10:0.0 11:1.0 12:0.0 13:2.0 14:1.0 15:0.0 16:0.0 17:0.0 18:0.0 19:0.0 20:0.0 21:0.42734816670417786 22:4.57439455203712E-4 23:5.972913719176631E-9
-2.8154031375813394E-5 1:16.0 2:1.0498220920562744 3:0.31578946113586426 4:0.053206682205200195 5:0.07658811658620834 6:0.7794168591499329 7:1123.0 8:0.08849557489156723 9:0.11764705926179886 10:0.0 11:2.0 12:0.0 13:5.0 14:1.0 15:1.0 16:0.0 17:0.0 18:0.0 19:0.0 20:0.0 21:0.7781180143356323 22:6.46849803160876E-4 23:1.0152471752178371E-8
-2.8154031375813394E-5 1:0.0 2:1.491654872894287 3:0.5555555820465088 4:0.0 5:0.0 6:2.2541303634643555 7:833.0 8:0.11931482702493668 9:0.13899999856948853 10:0.0 11:1.0 12:0.0 13:4.0 14:1.0 15:0.0 16:0.0 17:0.0 18:0.0 19:0.0 20:0.0 21:0.9989383816719055 22:0.023448068648576736 23:1.889081613626331E-4
-2.8154031375813394E-5 1:16.0 2:1.0498220920562744 3:0.23529411852359772 4:0.04913168027997017 5:-0.0 6:-0.0 7:0.0 8:0.05559440702199936 9:0.0 10:0.0 11:1.0 12:0.0 13:3.0 14:1.0 15:0.0 16:0.0 17:0.0 18:0.0 19:0.0 20:0.0 21:0.3131047785282135 22:0.0011251785326749086 23:7.119398048871517E-8
-2.8154031375813394E-5 1:0.0 2:1.742969274520874 3:0.625 4:0.08223249763250351 5:0.3670957386493683 6:3.5266945362091064 7:5.0 8:0.019971469417214394 9:0.03351955488324165 10:0.0 11:0.0 12:0.0 13:0.0 14:0.0 15:0.0 16:0.0 17:0.0 18:0.0 19:0.0 20:0.0 21:0.049521926790475845 22:0.01533100288361311 23:6.151944035082124E-6
2.8154031375813394E-5 1:0.0 2:1.6094379425048828 3:0.6315789222717285 4:0.0 5:0.0 6:4.4836859703063965 7:1.0 8:0.02029520273208618 9:0.013513513840734959 10:0.0 11:1.0 12:0.0 13:14.0 14:1.0 15:0.0 16:0.0 17:0.0 18:0.0 19:0.0 20:0.0 21:0.03463204577565193 22:0.0023568428587168455 23:1.385643827234162E-6
-2.8154031375813394E-5 1:16.0 2:2.5902671813964844 3:0.8999999761581421 4:0.0 5:0.0 6:9.367864608764648 7:970.0 8:0.8421052694320679 9:0.32499998807907104 10:0.0 11:1.0 12:0.0 13:5.0 14:1.0 15:1.0 16:1.0 17:1.0 18:0.0 19:1.0 20:0.0 21:0.30729636549949646 22:0.0030828139279037714 23:1.3209739790909225E-6
2.8154031375813394E-5 1:2.0 2:1.491654872894287 3:0.6000000238418579 4:0.0 5:0.0 6:3.893685817718506 7:0.0 8:0.00256739417091012 9:0.009433962404727936 10:0.0 11:0.0 12:0.0 13:0.0 14:0.0 15:0.0 16:0.0 17:0.0 18:0.0 19:0.0 20:0.0 21:0.14979571104049683 22:0.0011284046340733767 23:1.9116569660582172E-7
-2.8154031375813394E-5 1:0.0 2:0.7985076904296875 3:0.190476194024086 4:0.0 5:0.0 6:-0.0 7:6.0 8:0.01469816267490387 9:0.03211009129881859 10:0.0 11:1.0 12:0.0 13:13.0 14:1.0 15:0.0 16:0.0 17:0.0 18:0.0 19:0.0 20:0.0 21:0.006989854387938976 22:0.007502136752009392 23:2.6152809368795715E-5
-2.8154031375813394E-5 1:0.0 2:0.9808292388916016 3:0.30000001192092896 4:0.056420065462589264 5:0.08083968609571457 6:0.7794168591499329 7:1.0 8:0.01217656023800373 9:0.014925372786819935 10:0.0 11:1.0 12:0.0 13:7.0 14:1.0 15:0.0 16:0.0 17:0.0 18:0.0 19:0.0 20:0.0 21:0.466390460729599 22:0.0015068649081513286 23:8.48143955067826E-8
2.8154031375813394E-5 1:0.0 2:1.2909841537475586 3:0.5 4:0.0 5:0.0 6:1.3695902824401855 7:0.0 8:0.0039840638637542725 9:0.03030303120613098 10:0.0 11:1.0 12:0.0 13:10.0 14:1.0 15:0.0 16:0.0 17:0.0 18:0.0 19:0.0 20:0.0 21:0.3344857692718506 22:0.0016957991756498814 23:1.1337521499399372E-7
2.8154031375813394E-5 1:5.0 2:2.5902671813964844 3:0.9090909361839294 4:0.0 5:0.0 6:10.15632152557373 7:376.0 8:0.9661017060279846 9:0.29411765933036804 10:0.0 11:1.0 12:0.0 13:13.0 14:1.0 15:0.0 16:0.0 17:0.0 18:0.0 19:1.0 20:0.0 21:0.9469795227050781 22:3.0387876904569566E-4 23:1.3200339710195408E-9
2.8154031375813394E-5 1:16.0 2:1.2039728164672852 3:0.52173912525177 4:0.0 5:0.0 6:2.4933841228485107 7:0.0 8:0.03658536449074745 9:0.04938271641731262 10:0.0 11:1.0 12:0.0 13:8.0 14:1.0 15:0.0 16:0.0 17:0.0 18:0.0 19:0.0 20:0.0 21:0.6675185561180115 22:0.0027111382223665714 23:2.0694769773399457E-6
-2.8154031375813394E-5 1:0.0 2:1.1239300966262817 3:0.4545454680919647 4:0.0 5:0.0 6:1.3695902824401855 7:0.0 8:0.006516048219054937 9:0.0 10:0.0 11:1.0 12:0.0 13:17.0 14:1.0 15:0.0 16:0.0 17:0.0 18:0.0 19:0.0 20:0.0 21:0.06870962679386139 22:0.0016946562100201845 23:3.726295290107373E-7
-2.8154031375813394E-5 1:0.0 2:1.2039728164672852 3:0.3529411852359772 4:0.05548945441842079 5:0.07961244881153107 6:0.7794168591499329 7:1.0 8:0.02601156011223793 9:0.0 10:0.0 11:1.0 12:0.0 13:17.0 14:1.0 15:0.0 16:0.0 17:0.0 18:0.0 19:0.0 20:0.0 21:0.05084404721856117 22:0.002138752257451415 23:1.141362758971809E-6
2.8154031375813394E-5 1:16.0 2:0.9162907600402832 3:0.21052631735801697 4:0.05558564513921738 5:-0.0 6:-0.0 7:176.0 8:0.07591623067855835 9:0.3478260934352875 10:0.0 11:0.0 12:0.0 13:0.0 14:0.0 15:0.0 16:0.0 17:0.0 18:0.0 19:0.0 20:0.0 21:0.17277579009532928 22:0.011960147880017757 23:6.197432867338648E-6
2.8154031375813394E-5 1:16.0 2:1.1239300966262817 3:0.25 4:0.05107180401682854 5:-0.0 6:-0.0 7:18.0 8:0.03726708143949509 9:0.14606741070747375 10:0.0 11:0.0 12:0.0 13:0.0 14:0.0 15:0.0 16:0.0 17:0.0 18:0.0 19:0.0 20:0.0 21:0.049781277775764465 22:0.0018135757418349385 23:4.0547482171859883E-7
2.8154031375813394E-5 1:0.0 2:1.1239300966262817 3:0.3333333432674408 4:0.054693207144737244 5:0.07855979353189468 6:0.7794168591499329 7:0.0 8:0.015306122601032257 9:0.0 10:0.0 11:1.0 12:0.0 13:10.0 14:1.0 15:0.0 16:0.0 17:0.0 18:0.0 19:0.0 20:0.0 21:0.37548911571502686 22:5.303175421431661E-4 23:2.7874188290866186E-8
-2.8154031375813394E-5 1:16.0 2:1.742969274520874 3:0.625 4:0.07660704851150513 5:0.2983528971672058 6:2.7753183841705322 7:8.0 8:0.014141414314508438 9:0.06521739065647125 10:0.0 11:0.0 12:0.0 13:0.0 14:0.0 15:0.0 16:0.0 17:0.0 18:0.0 19:0.0 20:0.0 21:0.37028324604034424 22:0.019380943849682808 23:9.7143920356757E-6
2.8154031375813394E-5 1:0.0 2:1.2909841537475586 3:0.375 4:0.08166133612394333 5:0.11292188614606857 6:0.7794168591499329 7:27.0 8:0.06712734699249268 9:0.035943515598773956 10:0.0 11:1.0 12:0.0 13:17.0 14:1.0 15:0.0 16:0.0 17:0.0 18:0.0 19:0.0 20:0.0 21:0.041860129684209824 22:0.08455651998519897 23:6.323581328615546E-4
-2.8154031375813394E-5 1:16.0 2:1.0498220920562744 3:0.23529411852359772 4:0.0 5:0.0 6:-0.0 7:1.0 8:0.020082693547010422 9:0.0833333358168602 10:0.0 11:0.0 12:0.0 13:0.0 14:0.0 15:0.0 16:0.0 17:0.0 18:0.0 19:0.0 20:0.0 21:0.5711051225662231 22:0.004085447173565626 23:3.841667535198212E-7
-2.8154031375813394E-5 1:16.0 2:1.0498220920562744 3:0.23529411852359772 4:0.04632715880870819 5:-0.0 6:-0.0 7:7.0 8:0.06727629154920578 9:0.0833333358168602 10:0.0 11:0.0 12:0.0 13:0.0 14:0.0 15:0.0 16:0.0 17:0.0 18:0.0 19:0.0 20:0.0 21:0.6931686401367188 22:0.001621849020011723 23:4.5876655008214584E-7
2.8154031375813394E-5 1:0.0 2:1.6094379425048828 3:0.5333333611488342 4:0.07037170231342316 5:0.14130453765392303 6:1.16920006275177 7:32.0 8:0.31977078318595886 9:0.08169014006853104 10:0.0 11:1.0 12:0.0 13:17.0 14:1.0 15:0.0 16:0.0 17:0.0 18:0.0 19:0.0 20:0.0 21:0.749566912651062 22:0.0031394152902066708 23:1.6488159815253312E-7
2.8154031375813394E-5 1:0.0 2:1.1239300966262817 3:0.3333333432674408 4:0.06294886022806168 5:0.08935835212469101 6:0.7794168591499329 7:7.0 8:0.07424960285425186 9:0.03144654259085655 10:0.0 11:1.0 12:0.0 13:17.0 14:1.0 15:0.0 16:0.0 17:0.0 18:0.0 19:0.0 20:0.0 21:0.034696098417043686 22:0.005374368745833635 23:9.794456673262175E-6
2.8154031375813394E-5 1:16.0 2:1.2039728164672852 3:0.2666666805744171 4:0.05238655209541321 5:-0.0 6:-0.0 7:191.0 8:0.08595744520425797 9:0.24812030792236328 10:0.0 11:0.0 12:0.0 13:0.0 14:0.0 15:0.0 16:0.0 17:0.0 18:0.0 19:0.0 20:0.0 21:0.44825688004493713 22:7.077626651152968E-4 23:1.1214532946723921E-7
-2.8154031375813394E-5 1:16.0 2:0.9808292388916016 3:0.2222222238779068 4:0.0 5:0.0 6:-0.0 7:8.0 8:0.019430052489042282 9:0.021739130839705467 10:0.0 11:1.0 12:0.0 13:15.0 14:1.0 15:0.0 16:0.0 17:0.0 18:0.0 19:0.0 20:0.0 21:0.04783980920910835 22:0.008079873397946358 23:6.814932930865325E-6
-2.8154031375813394E-5 1:0.0 2:1.491654872894287 3:0.6000000238418579 4:0.0 5:0.0 6:2.6043996810913086 7:1021.0 8:0.10067114233970642 9:0.13793103396892548 10:0.0 11:1.0 12:0.0 13:7.0 14:1.0 15:0.0 16:0.0 17:0.0 18:0.0 19:0.0 20:0.0 21:0.5213291645050049 22:9.642851073294878E-4 23:4.342547299529542E-8
2.8154031375813394E-5 1:16.0 2:1.2039728164672852 3:0.2666666805744171 4:0.06330682337284088 5:-0.0 6:-0.0 7:1.0 8:0.09150326997041702 9:0.0634920671582222 10:0.0 11:0.0 12:0.0 13:0.0 14:0.0 15:0.0 16:0.0 17:0.0 18:0.0 19:0.0 20:0.0 21:0.3756890892982483 22:0.0016008410602807999 23:1.0341084788478838E-7
2.8154031375813394E-5 1:16.0 2:1.3862943649291992 3:0.5714285969734192 4:0.0 5:0.0 6:2.6043996810913086 7:1.0 8:0.05198776721954346 9:0.029126213863492012 10:0.0 11:0.0 12:0.0 13:0.0 14:0.0 15:1.0 16:0.0 17:0.0 18:0.0 19:0.0 20:0.0 21:0.01831088401377201 22:0.0074165696278214455 23:3.414217644603923E-5
2.8154031375813394E-5 1:16.0 2:2.3025851249694824 3:0.7692307829856873 4:0.0 5:0.0 6:6.138138771057129 7:129.0 8:0.1907433420419693 9:0.16778524219989777 10:0.0 11:0.0 12:0.0 13:0.0 14:0.0 15:1.0 16:0.0 17:0.0 18:0.0 19:0.0 20:0.0 21:0.884851336479187 22:0.001631218590773642 23:8.301897480578191E-8
-2.8154031375813394E-5 1:0.0 2:1.1239300966262817 3:0.3333333432674408 4:0.0 5:0.0 6:0.614363968372345 7:6.0 8:0.02976190485060215 9:0.03529411926865578 10:0.0 11:1.0 12:0.0 13:17.0 14:1.0 15:0.0 16:0.0 17:0.0 18:0.0 19:0.0 20:0.0 21:0.28704768419265747 22:0.0010887172538787127 23:1.0080998436023947E-7
-2.8154031375813394E-5 1:16.0 2:1.6094379425048828 3:0.695652186870575 4:0.08067204803228378 5:0.4257346987724304 6:4.594871520996094 7:24.0 8:0.03548387065529823 9:0.031578946858644485 10:0.0 11:0.0 12:0.0 13:0.0 14:0.0 15:1.0 16:0.0 17:0.0 18:0.0 19:0.0 20:0.0 21:0.2510157823562622 22:0.0049163540825247765 23:2.4603666588518536E-6
-2.8154031375813394E-5 1:16.0 2:1.742969274520874 3:0.625 4:0.07353559136390686 5:0.2898581624031067 6:2.7753183841705322 7:19.0 8:0.09557109326124191 9:0.0833333358168602 10:0.0 11:0.0 12:0.0 13:0.0 14:0.0 15:0.0 16:0.0 17:0.0 18:0.0 19:0.0 20:0.0 21:0.5139890909194946 22:0.0020583057776093483 23:2.8905486715302686E-7
2.8154031375813394E-5 1:0.0 2:0.8556661009788513 3:0.20000000298023224 4:0.04983608052134514 5:-0.0 6:-0.0 7:7.0 8:0.10486634820699692 9:0.03488372266292572 10:0.0 11:1.0 12:0.0 13:17.0 14:1.0 15:0.0 16:0.0 17:0.0 18:0.0 19:0.0 20:0.0 21:0.791577160358429 22:0.010155923664569855 23:2.1253687009448186E-5
2.8154031375813394E-5 1:0.0 2:1.2039728164672852 3:0.2666666805744171 4:0.05033230036497116 5:-0.0 6:-0.0 7:120.0 8:0.04028509557247162 9:0.014354066923260689 10:0.0 11:1.0 12:0.0 13:16.0 14:1.0 15:0.0 16:0.0 17:0.0 18:0.0 19:0.0 20:0.0 21:0.1168428584933281 22:0.003953140694648027 23:2.559827407822013E-6
-2.8154031375813394E-5 1:0.0 2:1.0498220920562744 3:0.23529411852359772 4:0.043785955756902695 5:-0.0 6:-0.0 7:11.0 8:0.10526315867900848 9:0.07692307978868484 10:0.0 11:1.0 12:0.0 13:9.0 14:1.0 15:0.0 16:0.0 17:0.0 18:0.0 19:0.0 20:0.0 21:0.14127425849437714 22:0.0013523678062483668 23:2.910275043177535E-7
2.8154031375813394E-5 1:16.0 2:2.079441547393799 3:0.7142857313156128 4:0.0 5:0.0 6:1.9033026695251465 7:0.0 8:8.840926457196474E-4 9:0.0 10:0.0 11:1.0 12:0.0 13:7.0 14:1.0 15:0.0 16:0.0 17:0.0 18:0.0 19:0.0 20:0.0 21:0.12779298424720764 22:9.083423647098243E-4 23:7.322198314341222E-8
-2.8154031375813394E-5 1:0.0 2:1.1239300966262817 3:0.25 4:0.05161919817328453 5:-0.0 6:-0.0 7:8.0 8:0.024444444105029106 9:0.054421767592430115 10:0.0 11:1.0 12:0.0 13:17.0 14:1.0 15:0.0 16:0.0 17:0.0 18:0.0 19:0.0 20:0.0 21:0.02071932703256607 22:0.007159254048019648 23:1.8067074051941745E-5
2.8154031375813394E-5 1:0.0 2:1.491654872894287 3:0.4285714328289032 4:0.05454019829630852 5:0.07835723459720612 6:0.7794168591499329 7:1.0 8:0.041800644248723984 9:0.032608695328235626 10:0.0 11:1.0 12:0.0 13:16.0 14:1.0 15:0.0 16:0.0 17:0.0 18:0.0 19:0.0 20:0.0 21:0.6706432104110718 22:2.2183808323461562E-4 23:2.7113888911856066E-9
-2.8154031375813394E-5 1:0.0 2:0.7985076904296875 3:0.260869562625885 4:0.0 5:0.0 6:0.7794168591499329 7:1908.0 8:0.09578543901443481 9:0.10628019273281097 10:0.0 11:1.0 12:0.0 13:3.0 14:1.0 15:0.0 16:0.0 17:0.0 18:0.0 19:0.0 20:0.0 21:0.8710871338844299 22:0.0030777102801948786 23:4.0605721096653724E-7
2.8154031375813394E-5 1:16.0 2:1.742969274520874 3:0.6666666865348816 4:0.0 5:0.0 6:2.4933841228485107 7:2.0 8:0.004716981202363968 9:0.0 10:0.0 11:1.0 12:0.0 13:17.0 14:1.0 15:0.0 16:0.0 17:0.0 18:0.0 19:0.0 20:0.0 21:0.05025969073176384 22:0.0017294397111982107 23:3.787762921092508E-7
2.8154031375813394E-5 1:16.0 2:2.3025851249694824 3:0.8421052694320679 4:0.0 5:0.0 6:5.913557529449463 7:1.0 8:0.04507042095065117 9:0.01666666753590107 10:0.0 11:1.0 12:0.0 13:8.0 14:1.0 15:0.0 16:0.0 17:0.0 18:0.0 19:0.0 20:0.0 21:0.5660053491592407 22:0.0024165823124349117 23:9.191927006213518E-7
2.8154031375813394E-5 1:16.0 2:1.6094379425048828 3:0.6315789222717285 4:0.0 5:0.0 6:2.6043996810913086 7:0.0 8:0.012121211737394333 9:0.0 10:0.0 11:1.0 12:0.0 13:8.0 14:1.0 15:1.0 16:0.0 17:0.0 18:0.0 19:0.0 20:0.0 21:0.12555605173110962 22:8.266650256700814E-4 23:9.181817262060576E-8
-2.8154031375813394E-5 1:0.0 2:0.8556661009788513 3:0.20000000298023224 4:0.054463159292936325 5:-0.0 6:-0.0 7:56.0 8:0.018685000017285347 9:0.07238605618476868 10:0.0 11:0.0 12:0.0 13:0.0 14:0.0 15:0.0 16:0.0 17:0.0 18:0.0 19:0.0 20:0.0 21:0.6942441463470459 22:0.0091562420129776 23:9.144830073637422E-6
2.8154031375813394E-5 1:16.0 2:2.079441547393799 3:0.7777777910232544 4:0.0 5:0.0 6:6.248306751251221 7:40.0 8:0.4114503860473633 9:0.3614457845687866 10:0.0 11:1.0 12:0.0 13:17.0 14:1.0 15:0.0 16:0.0 17:0.0 18:0.0 19:0.0 20:0.0 21:0.6969370245933533 22:4.115770570933819E-4 23:5.872876407408967E-9
2.8154031375813394E-5 1:16.0 2:1.8971199989318848 3:0.761904776096344 4:0.0 5:0.0 6:7.9371185302734375 7:6.0 8:0.022463496774435043 9:0.17142857611179352 10:0.0 11:1.0 12:0.0 13:10.0 14:1.0 15:1.0 16:0.0 17:0.0 18:0.0 19:0.0 20:0.0 21:0.5924680829048157 22:0.0039191641844809055 23:1.2765938663505949E-5
-2.8154031375813394E-5 1:16.0 2:2.5902671813964844 3:0.8571428656578064 4:0.0 5:0.0 6:7.688222408294678 7:793.0 8:0.9891135096549988 9:0.4137931168079376 10:0.0 11:1.0 12:0.0 13:17.0 14:1.0 15:1.0 16:1.0 17:1.0 18:0.0 19:1.0 20:0.0 21:0.1883595734834671 22:9.15892596822232E-4 23:9.048902427366556E-8
-2.8154031375813394E-5 1:0.0 2:0.7985076904296875 3:0.190476194024086 4:0.0 5:0.0 6:-0.0 7:5.0 8:0.01343570090830326 9:0.0 10:0.0 11:1.0 12:0.0 13:11.0 14:1.0 15:0.0 16:0.0 17:0.0 18:0.0 19:0.0 20:0.0 21:0.11849979311227798 22:0.010105295106768608 23:3.060503149754368E-5
-2.8154031375813394E-5 1:0.0 2:1.2909841537475586 3:0.2857142984867096 4:0.0 5:0.0 6:-0.0 7:6.0 8:0.036118004471063614 9:0.00539811048656702 10:0.0 11:1.0 12:0.0 13:6.0 14:1.0 15:0.0 16:0.0 17:0.0 18:0.0 19:0.0 20:0.0 21:0.03630637377500534 22:0.009518168866634369 23:4.602158696798142E-6
2.8154031375813394E-5 1:0.0 2:0.7985076904296875 3:0.190476194024086 4:0.0 5:0.0 6:-0.0 7:2.0 8:0.07500000298023224 9:0.07692307978868484 10:0.0 11:0.0 12:0.0 13:0.0 14:0.0 15:0.0 16:0.0 17:0.0 18:0.0 19:0.0 20:0.0 21:0.6117919087409973 22:0.004827531985938549 23:6.05245259066578E-6
2.8154031375813394E-5 1:0.0 2:1.3862943649291992 3:0.3076923191547394 4:0.06946368515491486 5:-0.0 6:-0.0 7:0.0 8:0.04993597790598869 9:0.0 10:0.0 11:0.0 12:0.0 13:0.0 14:0.0 15:0.0 16:0.0 17:0.0 18:0.0 19:0.0 20:0.0 21:0.25011470913887024 22:0.001978083746507764 23:5.204636011058028E-8
-2.8154031375813394E-5 1:16.0 2:2.3025851249694824 3:0.800000011920929 4:0.0704137459397316 5:0.3379768431186676 6:3.625152826309204 7:39.0 8:0.11000817269086838 9:0.23622047901153564 10:0.0 11:1.0 12:0.0 13:17.0 14:1.0 15:0.0 16:0.0 17:0.0 18:0.0 19:0.0 20:0.0 21:0.359087735414505 22:0.0012724822154268622 23:9.728587713198067E-8
-2.8154031375813394E-5 1:16.0 2:1.6094379425048828 3:0.7200000286102295 4:0.10334452241659164 5:0.5517211556434631 6:5.95461893081665 7:64.0 8:0.02595936879515648 9:0.03999999910593033 10:0.0 11:1.0 12:0.0 13:12.0 14:1.0 15:0.0 16:0.0 17:0.0 18:0.0 19:0.0 20:0.0 21:0.03184286877512932 22:0.008502968586981297 23:9.950145795301069E-6
-2.8154031375813394E-5 1:16.0 2:2.079441547393799 3:0.800000011920929 4:0.0 5:0.0 6:6.953575611114502 7:12.0 8:0.03875968977808952 9:0.06862745434045792 10:0.0 11:1.0 12:0.0 13:5.0 14:1.0 15:0.0 16:0.0 17:0.0 18:0.0 19:0.0 20:0.0 21:0.8048890233039856 22:0.0015014305245131254 23:3.856165520232935E-8
-2.8154031375813394E-5 1:16.0 2:1.3862943649291992 3:0.47058823704719543 4:0.05769398808479309 5:0.1703788787126541 6:1.7798171043395996 7:7.0 8:0.0508875735104084 9:0.04651162773370743 10:0.0 11:1.0 12:0.0 13:6.0 14:1.0 15:0.0 16:0.0 17:0.0 18:0.0 19:0.0 20:0.0 21:0.6712988615036011 22:3.738311934284866E-4 23:1.2138761107394203E-8
2.8154031375813394E-5 1:0.0 2:1.742969274520874 3:0.625 4:0.08313174545764923 5:0.40555015206336975 6:4.103291988372803 7:2.0 8:0.016509434208273888 9:0.011904762126505375 10:0.0 11:1.0 12:0.0 13:6.0 14:1.0 15:0.0 16:0.0 17:0.0 18:0.0 19:0.0 20:0.0 21:0.10885267704725266 22:8.77510174177587E-4 23:4.237008255358887E-8
-2.8154031375813394E-5 1:16.0 2:1.1239300966262817 3:0.4545454680919647 4:0.07347545772790909 5:0.16754250228405 6:1.3695902824401855 7:970.0 8:0.08238400518894196 9:0.06269016116857529 10:0.0 11:1.0 12:0.0 13:3.0 14:1.0 15:0.0 16:0.0 17:0.0 18:0.0 19:0.0 20:0.0 21:0.8132191896438599 22:0.10303370654582977 23:1.6124713874887675E-4
-2.8154031375813394E-5 1:2.0 2:1.3862943649291992 3:0.6086956262588501 4:0.0 5:0.0 6:3.445068359375 7:0.0 8:0.016317015513777733 9:0.0 10:0.0 11:1.0 12:0.0 13:4.0 14:1.0 15:0.0 16:0.0 17:0.0 18:0.0 19:0.0 20:0.0 21:0.05248485133051872 22:0.0024329600855708122 23:7.823699093023606E-7
-2.8154031375813394E-5 1:2.0 2:1.8971199989318848 3:0.7058823704719543 4:0.19942016899585724 5:0.683790922164917 6:5.421879291534424 7:106.0 8:0.03750000149011612 9:0.027027027681469917 10:0.0 11:1.0 12:0.0 13:2.0 14:1.0 15:0.0 16:0.0 17:0.0 18:0.0 19:0.0 20:0.0 21:0.059324149042367935 22:0.016087403520941734 23:2.480969669704791E-5
2.8154031375813394E-5 1:16.0 2:0.9162907600402832 3:0.21052631735801697 4:0.0 5:0.0 6:-0.0 7:28.0 8:0.1409558355808258 9:0.33870968222618103 10:0.0 11:1.0 12:0.0 13:18.0 14:1.0 15:1.0 16:0.0 17:0.0 18:0.0 19:0.0 20:0.0 21:0.9966212511062622 22:0.0045831333845853806 23:9.983456038753502E-6
-2.8154031375813394E-5 1:16.0 2:0.8556661009788513 3:0.27272728085517883 4:0.0 5:0.0 6:0.7794168591499329 7:3.0 8:0.01075268816202879 9:0.024390242993831635 10:0.0 11:1.0 12:0.0 13:20.0 14:1.0 15:0.0 16:0.0 17:0.0 18:0.0 19:0.0 20:0.0 21:0.02243446186184883 22:0.0072465999983251095 23:1.0077133993036114E-5
-2.8154031375813394E-5 1:2.0 2:1.8971199989318848 3:0.6666666865348816 4:0.05852793902158737 5:0.18219994008541107 6:1.9033026695251465 7:838.0 8:0.014202711172401905 9:0.06382978707551956 10:0.0 11:1.0 12:0.0 13:3.0 14:1.0 15:0.0 16:0.0 17:0.0 18:0.0 19:0.0 20:0.0 21:0.21656152606010437 22:0.0034128050319850445 23:5.50554489109345E-7
-2.8154031375813394E-5 1:16.0 2:0.9808292388916016 3:0.30000001192092896 4:0.0 5:0.0 6:0.7794168591499329 7:0.0 8:0.010416666977107525 9:0.0 10:0.0 11:1.0 12:0.0 13:17.0 14:1.0 15:0.0 16:0.0 17:0.0 18:0.0 19:0.0 20:0.0 21:0.16478794813156128 22:6.89736451022327E-4 23:6.148449216425433E-8
-2.8154031375813394E-5 1:2.0 2:1.8971199989318848 3:0.6153846383094788 4:0.11000549048185349 5:0.40327754616737366 6:3.0717601776123047 7:304.0 8:0.014755197800695896 9:0.017621144652366638 10:0.0 11:0.0 12:0.0 13:0.0 14:0.0 15:0.0 16:0.0 17:0.0 18:0.0 19:0.0 20:0.0 21:0.22714103758335114 22:0.011810416355729103 23:3.2132873457157984E-5
2.8154031375813394E-5 1:16.0 2:1.1239300966262817 3:0.25 4:0.05102120339870453 5:-0.0 6:-0.0 7:6.0 8:0.04062499850988388 9:0.050632912665605545 10:0.0 11:0.0 12:0.0 13:0.0 14:0.0 15:0.0 16:0.0 17:0.0 18:0.0 19:0.0 20:0.0 21:0.17206229269504547 22:8.378488710150123E-4 23:3.762295008868932E-8
-2.8154031375813394E-5 1:16.0 2:2.5902671813964844 3:0.8888888955116272 4:0.07512490451335907 5:0.417157918214798 6:4.763603687286377 7:214.0 8:1.0 9:0.6285714507102966 10:0.0 11:0.0 12:0.0 13:0.0 14:0.0 15:0.0 16:0.0 17:0.0 18:0.0 19:1.0 20:0.0 21:0.9241241812705994 22:3.506066568661481E-4 23:1.0202404476800098E-9
2.8154031375813394E-5 1:0.0 2:1.3862943649291992 3:0.4000000059604645 4:0.05672509968280792 5:0.08124123513698578 6:0.7794168591499329 7:1.0 8:0.07665505260229111 9:0.01886792480945587 10:0.0 11:1.0 12:0.0 13:16.0 14:1.0 15:0.0 16:0.0 17:0.0 18:0.0 19:0.0 20:0.0 21:0.6215111613273621 22:0.0035447580739855766 23:2.453428180615447E-7
-2.8154031375813394E-5 1:16.0 2:0.9808292388916016 3:0.2222222238779068 4:0.0 5:0.0 6:-0.0 7:5.0 8:0.019262980669736862 9:0.056338027119636536 10:0.0 11:1.0 12:0.0 13:10.0 14:1.0 15:1.0 16:0.0 17:0.0 18:0.0 19:0.0 20:0.0 21:0.03895247355103493 22:0.0067969635128974915 23:1.431542568752775E-5
2.8154031375813394E-5 1:16.0 2:1.8971199989318848 3:0.761904776096344 4:0.0 5:0.0 6:5.913557529449463 7:5.0 8:0.005263158120214939 9:0.00917431153357029 10:0.0 11:0.0 12:0.0 13:0.0 14:0.0 15:0.0 16:0.0 17:0.0 18:0.0 19:0.0 20:0.0 21:0.8288083076477051 22:0.0017573951045051217 23:1.033541678907568E-7
2.8154031375813394E-5 1:16.0 2:1.8971199989318848 3:0.6666666865348816 4:0.0 5:0.0 6:5.585743427276611 7:11.0 8:0.06790123134851456 9:0.1071428582072258 10:0.0 11:0.0 12:0.0 13:0.0 14:0.0 15:1.0 16:0.0 17:0.0 18:0.0 19:0.0 20:0.0 21:0.3475106358528137 22:8.852379396557808E-4 23:6.880555503130381E-8
-2.8154031375813394E-5 1:16.0 2:1.3862943649291992 3:0.5263158082962036 4:0.0 5:0.0 6:1.3695902824401855 7:0.0 8:0.006810442544519901 9:0.0 10:0.0 11:0.0 12:0.0 13:0.0 14:0.0 15:0.0 16:0.0 17:0.0 18:0.0 19:0.0 20:0.0 21:0.1418779045343399 22:3.6225427174940705E-4 23:1.1823861001403202E-8
2.8154031375813394E-5 1:16.0 2:1.491654872894287 3:0.6666666865348816 4:0.0 5:0.0 6:4.3675856590271 7:239.0 8:0.03299492225050926 9:0.02278481051325798 10:0.0 11:1.0 12:0.0 13:5.0 14:1.0 15:1.0 16:0.0 17:0.0 18:0.0 19:0.0 20:0.0 21:0.9483610391616821 22:9.050399530678988E-4 23:1.0966342500751125E-7
2.8154031375813394E-5 1:0.0 2:1.0498220920562744 3:0.23529411852359772 4:0.07292036712169647 5:-0.0 6:-0.0 7:170.0 8:0.13533525168895721 9:0.05650319904088974 10:0.0 11:1.0 12:0.0 13:14.0 14:1.0 15:0.0 16:0.0 17:0.0 18:0.0 19:0.0 20:0.0 21:0.18125702440738678 22:0.01644214056432247 23:7.314091362786712E-6
2.8154031375813394E-5 1:16.0 2:2.079441547393799 3:0.7777777910232544 4:0.0 5:0.0 6:4.783825397491455 7:7.0 8:0.3149522840976715 9:0.18421052396297455 10:0.0 11:0.0 12:0.0 13:0.0 14:0.0 15:0.0 16:0.0 17:0.0 18:0.0 19:0.0 20:0.0 21:0.1922411471605301 22:0.005894288886338472 23:1.2178462611700525E-6
2.8154031375813394E-5 1:0.0 2:0.9808292388916016 3:0.3636363744735718 4:0.0 5:0.0 6:1.7798171043395996 7:0.0 8:0.002785515272989869 9:0.0 10:0.0 11:1.0 12:0.0 13:4.0 14:1.0 15:0.0 16:0.0 17:0.0 18:0.0 19:0.0 20:0.0 21:0.020205389708280563 22:0.003859105985611677 23:1.326257006439846E-6
2.8154031375813394E-5 1:0.0 2:1.2909841537475586 3:0.5454545617103577 4:0.0 5:0.0 6:2.6043996810913086 7:235.0 8:0.022696323692798615 9:0.054176073521375656 10:0.0 11:1.0 12:0.0 13:2.0 14:1.0 15:0.0 16:0.0 17:0.0 18:0.0 19:0.0 20:0.0 21:0.9259896278381348 22:0.005675243679434061 23:4.216908564558253E-6
-2.8154031375813394E-5 1:0.0 2:1.3862943649291992 3:0.47058823704719543 4:0.0 5:0.0 6:1.7798171043395996 7:1.0 8:0.028368793427944183 9:0.0476190485060215 10:0.0 11:0.0 12:0.0 13:0.0 14:0.0 15:1.0 16:0.0 17:0.0 18:0.0 19:0.0 20:0.0 21:0.35616275668144226 22:7.296580588445067E-4 23:4.308122214524701E-8
-2.8154031375813394E-5 1:0.0 2:1.491654872894287 3:0.4285714328289032 4:0.054767169058322906 5:0.07865767180919647 6:0.7794168591499329 7:11.0 8:0.029548989608883858 9:0.020501138642430305 10:0.0 11:0.0 12:0.0 13:0.0 14:0.0 15:1.0 16:0.0 17:0.0 18:0.0 19:0.0 20:0.0 21:0.2065180093050003 22:0.009407460689544678 23:5.871078883501468E-6
2.8154031375813394E-5 1:0.0 2:1.1239300966262817 3:0.25 4:0.05033230036497116 5:-0.0 6:-0.0 7:208.0 8:0.030075188726186752 9:0.010638297535479069 10:0.0 11:0.0 12:0.0 13:0.0 14:0.0 15:0.0 16:0.0 17:0.0 18:0.0 19:0.0 20:0.0 21:0.25617051124572754 22:0.004271193873137236 23:1.1608639169935486E-6
-2.8154031375813394E-5 1:0.0 2:1.3862943649291992 3:0.47058823704719543 4:0.10878890752792358 5:0.4006042778491974 6:3.0717601776123047 7:35.0 8:0.09589041024446487 9:0.09909909963607788 10:0.0 11:0.0 12:0.0 13:0.0 14:0.0 15:1.0 16:0.0 17:0.0 18:0.0 19:0.0 20:0.0 21:0.5477886199951172 22:0.004126854706555605 23:1.048186391017225E-6
2.8154031375813394E-5 1:16.0 2:1.1239300966262817 3:0.3333333432674408 4:0.04716051369905472 5:0.05477345734834671 6:0.614363968372345 7:38.0 8:0.033097971230745316 9:0.18095238506793976 10:0.0 11:2.0 12:0.0 13:18.0 14:1.0 15:0.0 16:0.0 17:0.0 18:0.0 19:0.0 20:0.0 21:0.13513171672821045 22:0.0010339246364310384 23:5.956435344955935E-8
2.8154031375813394E-5 1:0.0 2:1.3862943649291992 3:0.5714285969734192 4:0.0 5:0.0 6:2.6043996810913086 7:3.0 8:0.011972634121775627 9:0.015748031437397003 10:0.0 11:0.0 12:0.0 13:0.0 14:0.0 15:0.0 16:0.0 17:0.0 18:0.0 19:0.0 20:0.0 21:0.046610068529844284 22:0.008462118916213512 23:3.4079122997354716E-5
-2.8154031375813394E-5 1:16.0 2:1.1239300966262817 3:0.4000000059604645 4:0.0 5:0.0 6:1.7798171043395996 7:0.0 8:0.03550295904278755 9:0.0 10:0.0 11:1.0 12:0.0 13:17.0 14:1.0 15:0.0 16:0.0 17:0.0 18:0.0 19:0.0 20:0.0 21:0.05766255408525467 22:0.002961436053737998 23:6.863007229185314E-7
-2.8154031375813394E-5 1:16.0 2:1.742969274520874 3:0.5 4:0.10802623629570007 5:0.14412501454353333 6:0.7794168591499329 7:830.0 8:0.2575494647026062 9:0.3582834303379059 10:0.0 11:0.0 12:0.0 13:0.0 14:0.0 15:0.0 16:0.0 17:0.0 18:0.0 19:0.0 20:0.0 21:0.7331002950668335 22:0.0016675203805789351 23:7.714541538916819E-8
2.8154031375813394E-5 1:0.0 2:1.2909841537475586 3:0.375 4:0.0659375861287117 5:0.0932055339217186 6:0.7794168591499329 7:231.0 8:0.03614457696676254 9:0.04929577559232712 10:0.0 11:0.0 12:0.0 13:0.0 14:0.0 15:0.0 16:0.0 17:0.0 18:0.0 19:0.0 20:0.0 21:0.3335898220539093 22:0.002184708835557103 23:2.0830078995004442E-7
-2.8154031375813394E-5 1:0.0 2:1.3862943649291992 3:0.3076923191547394 4:0.05629616603255272 5:-0.0 6:-0.0 7:20.0 8:0.080078125 9:0.12179487198591232 10:0.0 11:0.0 12:0.0 13:0.0 14:0.0 15:0.0 16:0.0 17:0.0 18:0.0 19:0.0 20:0.0 21:0.434629887342453 22:0.0015111415414139628 23:6.821939990686587E-8
2.8154031375813394E-5 1:16.0 2:1.742969274520874 3:0.7272727489471436 4:0.0 5:0.0 6:5.704302787780762 7:40.0 8:0.04728132486343384 9:0.04749999940395355 10:0.0 11:1.0 12:0.0 13:14.0 14:1.0 15:0.0 16:0.0 17:0.0 18:0.0 19:0.0 20:0.0 21:0.2497703582048416 22:0.050845980644226074 23:1.0855266737053171E-4
2.8154031375813394E-5 1:0.0 2:1.1239300966262817 3:0.3333333432674408 4:0.0 5:0.0 6:0.614363968372345 7:1.0 8:0.020304568111896515 9:0.0 10:0.0 11:0.0 12:0.0 13:0.0 14:0.0 15:0.0 16:0.0 17:0.0 18:0.0 19:0.0 20:0.0 21:0.30648288130760193 22:0.001733717042952776 23:1.1900533536390867E-7
2.8154031375813394E-5 1:0.0 2:1.2039728164672852 3:0.4761904776096344 4:0.061985187232494354 5:0.21841134130954742 6:2.2541303634643555 7:23.0 8:0.2170022428035736 9:0.0954773873090744 10:0.0 11:2.0 12:0.0 13:8.0 14:1.0 15:0.0 16:0.0 17:0.0 18:0.0 19:0.0 20:0.0 21:0.5005281567573547 22:0.01123881433159113 23:1.9176024579792283E-5
-2.8154031375813394E-5 1:16.0 2:1.2909841537475586 3:0.42105263471603394 4:0.054287251085042953 5:0.11264550685882568 6:1.16920006275177 7:28.0 8:0.04039812460541725 9:0.10822510719299316 10:0.0 11:1.0 12:0.0 13:18.0 14:1.0 15:0.0 16:0.0 17:0.0 18:0.0 19:0.0 20:0.0 21:0.008500001393258572 22:0.013726625591516495 23:6.571682024514303E-5
2.8154031375813394E-5 1:0.0 2:1.2039728164672852 3:0.2666666805744171 4:0.0 5:0.0 6:-0.0 7:11.0 8:0.006968641187995672 9:0.01955307275056839 10:0.0 11:0.0 12:0.0 13:0.0 14:0.0 15:0.0 16:0.0 17:0.0 18:0.0 19:0.0 20:0.0 21:0.08755084127187729 22:0.004455382935702801 23:2.0683512502728263E-6
-2.8154031375813394E-5 1:2.0 2:1.8971199989318848 3:0.6153846383094788 4:0.10785084217786789 5:0.34093689918518066 6:2.398244857788086 7:363.0 8:0.04866180196404457 9:0.18964077532291412 10:0.0 11:1.0 12:0.0 13:16.0 14:1.0 15:0.0 16:0.0 17:0.0 18:0.0 19:0.0 20:0.0 21:0.0891675055027008 22:0.018734995275735855 23:1.6022075215005316E-5
2.8154031375813394E-5 1:16.0 2:1.2909841537475586 3:0.2857142984867096 4:0.060645632445812225 5:-0.0 6:-0.0 7:9.0 8:0.1162329614162445 9:0.11688311398029327 10:0.0 11:0.0 12:0.0 13:0.0 14:0.0 15:0.0 16:0.0 17:0.0 18:0.0 19:0.0 20:0.0 21:0.33370670676231384 22:0.0017618341371417046 23:1.0038934306066949E-7
-2.8154031375813394E-5 1:16.0 2:2.079441547393799 3:0.8181818127632141 4:0.26662591099739075 5:0.7709077000617981 6:6.310438632965088 7:779.0 8:0.33910036087036133 9:0.2199203222990036 10:0.0 11:0.0 12:0.0 13:0.0 14:0.0 15:0.0 16:0.0 17:0.0 18:0.0 19:0.0 20:0.0 21:0.34126216173171997 22:0.05102987959980965 23:1.972325990209356E-4
2.8154031375813394E-5 1:0.0 2:0.9808292388916016 3:0.2222222238779068 4:0.04844691976904869 5:-0.0 6:-0.0 7:2.0 8:0.007633587811142206 9:0.0 10:0.0 11:1.0 12:0.0 13:15.0 14:1.0 15:0.0 16:0.0 17:0.0 18:0.0 19:0.0 20:0.0 21:0.27107158303260803 22:0.0029110340401530266 23:7.07377864728187E-7
2.8154031375813394E-5 1:0.0 2:1.2039728164672852 3:0.3529411852359772 4:0.053206682205200195 5:0.07658811658620834 6:0.7794168591499329 7:4.0 8:0.051144011318683624 9:0.008620689623057842 10:0.0 11:0.0 12:0.0 13:0.0 14:0.0 15:0.0 16:0.0 17:0.0 18:0.0 19:0.0 20:0.0 21:0.10959380120038986 22:0.0015379664255306125 23:5.330585395313392E-7
-2.8154031375813394E-5 1:0.0 2:1.3862943649291992 3:0.47058823704719543 4:0.06935995072126389 5:0.2496347278356552 6:2.398244857788086 7:8.0 8:0.02465331368148327 9:0.029411764815449715 10:0.0 11:1.0 12:0.0 13:3.0 14:1.0 15:0.0 16:0.0 17:0.0 18:0.0 19:0.0 20:0.0 21:0.9573684930801392 22:0.003335174871608615 23:4.660437298298348E-6
2.8154031375813394E-5 1:16.0 2:2.5902671813964844 3:0.800000011920929 4:0.07439054548740387 5:0.3050014078617096 6:2.949647903442383 7:231.0 8:0.9516616463661194 9:0.2857142984867096 10:0.0 11:1.0 12:0.0 13:6.0 14:1.0 15:1.0 16:1.0 17:1.0 18:0.0 19:1.0 20:0.0 21:0.20204652845859528 22:0.008879318833351135 23:2.570625838416163E-6
-2.8154031375813394E-5 1:16.0 2:1.491654872894287 3:0.4285714328289032 4:0.06590380519628525 5:0.09316223114728928 6:0.7794168591499329 7:17.0 8:0.1764705926179886 9:0.19718310236930847 10:0.0 11:1.0 12:0.0 13:2.0 14:1.0 15:1.0 16:0.0 17:0.0 18:0.0 19:0.0 20:0.0 21:0.7032333612442017 22:8.735054871067405E-4 23:4.354753713187165E-8
2.8154031375813394E-5 1:0.0 2:1.742969274520874 3:0.5714285969734192 4:0.07782751321792603 5:0.2718263864517212 6:2.398244857788086 7:196.0 8:0.0527426153421402 9:0.0036630036775022745 10:0.0 11:2.0 12:0.0 13:16.0 14:1.0 15:0.0 16:0.0 17:0.0 18:0.0 19:0.0 20:0.0 21:0.3709825277328491 22:0.02807018905878067 23:1.0467038919159677E-5
2.8154031375813394E-5 1:4.0 2:1.742969274520874 3:0.6666666865348816 4:0.0 5:0.0 6:3.893685817718506 7:0.0 8:0.02253032848238945 9:0.0 10:0.0 11:0.0 12:0.0 13:0.0 14:0.0 15:1.0 16:0.0 17:0.0 18:0.0 19:0.0 20:0.0 21:0.25336265563964844 22:0.0011921925470232964 23:1.429179548040338E-7
-2.8154031375813394E-5 1:0.0 2:0.9162907600402832 3:0.2857142984867096 4:0.04910808056592941 5:0.07110792398452759 6:0.7794168591499329 7:3.0 8:0.060104530304670334 9:0.0833333358168602 10:0.0 11:1.0 12:0.0 13:11.0 14:1.0 15:0.0 16:0.0 17:0.0 18:0.0 19:0.0 20:0.0 21:0.11981575191020966 22:7.446753443218768E-4 23:3.963314654242822E-8
-2.8154031375813394E-5 1:0.0 2:1.491654872894287 3:0.5555555820465088 4:0.0 5:0.0 6:1.3695902824401855 7:3.0 8:0.015105740167200565 9:0.008064515888690948 10:0.0 11:1.0 12:0.0 13:16.0 14:1.0 15:0.0 16:0.0 17:0.0 18:0.0 19:0.0 20:0.0 21:0.5340518355369568 22:0.008461132645606995 23:8.525489647581708E-7
2.8154031375813394E-5 1:16.0 2:1.1239300966262817 3:0.25 4:0.0684347078204155 5:-0.0 6:-0.0 7:159.0 8:0.2180544137954712 9:0.135869562625885 10:0.0 11:0.0 12:0.0 13:0.0 14:0.0 15:0.0 16:0.0 17:0.0 18:0.0 19:0.0 20:0.0 21:0.4834326505661011 22:0.014146917499601841 23:6.604028385481797E-6
-2.8154031375813394E-5 1:16.0 2:1.8971199989318848 3:0.7058823704719543 4:0.0 5:0.0 6:2.6043996810913086 7:2.0 8:0.0010058676125481725 9:7.062146905809641E-4 10:0.0 11:0.0 12:0.0 13:0.0 14:0.0 15:1.0 16:0.0 17:0.0 18:0.0 19:0.0 20:0.0 21:0.05245838314294815 22:0.025982629507780075 23:8.91505042091012E-5
2.8154031375813394E-5 1:0.0 2:1.742969274520874 3:0.699999988079071 4:0.09855774790048599 5:0.4000314474105835 6:3.3825552463531494 7:76.0 8:0.008776287548244 9:0.004044311586767435 10:0.0 11:2.0 12:0.0 13:16.0 14:2.0 15:0.0 16:0.0 17:0.0 18:0.0 19:0.0 20:0.0 21:0.3105853497982025 22:0.024539222940802574 23:8.769692794885486E-5
-2.8154031375813394E-5 1:0.0 2:1.491654872894287 3:0.4285714328289032 4:0.05560590326786041 5:0.07976619154214859 6:0.7794168591499329 7:0.0 8:0.055800292640924454 9:0.0 10:0.0 11:1.0 12:0.0 13:14.0 14:1.0 15:0.0 16:0.0 17:0.0 18:0.0 19:0.0 20:0.0 21:0.6224372982978821 22:1.6345083713531494E-4 23:6.074648006837435E-10
-2.8154031375813394E-5 1:0.0 2:1.491654872894287 3:0.3333333432674408 4:0.05627630278468132 5:-0.0 6:-0.0 7:10.0 8:0.009379509836435318 9:0.03448275849223137 10:0.0 11:1.0 12:0.0 13:8.0 14:1.0 15:0.0 16:0.0 17:0.0 18:0.0 19:0.0 20:0.0 21:0.1049509346485138 22:0.009855211712419987 23:8.811147381493356E-6
-2.8154031375813394E-5 1:0.0 2:1.491654872894287 3:0.4285714328289032 4:0.06995540112257004 5:0.09832644462585449 6:0.7794168591499329 7:1.0 8:0.007050528656691313 9:0.0029069767333567142 10:0.0 11:1.0 12:0.0 13:16.0 14:1.0 15:0.0 16:0.0 17:0.0 18:0.0 19:0.0 20:0.0 21:0.05900232866406441 22:0.029779769480228424 23:1.3584315638581757E-5
-2.8154031375813394E-5 1:0.0 2:1.742969274520874 3:0.699999988079071 4:0.0949467197060585 5:0.43523073196411133 6:4.0582475662231445 7:7.0 8:0.10275689512491226 9:0.12643678486347198 10:0.0 11:0.0 12:0.0 13:0.0 14:0.0 15:1.0 16:0.0 17:0.0 18:0.0 19:0.0 20:0.0 21:0.3601735830307007 22:0.0012899463763460517 23:4.4082039352133506E-8
-2.8154031375813394E-5 1:0.0 2:1.0498220920562744 3:0.47999998927116394 4:0.0 5:0.0 6:2.6043996810913086 7:0.0 8:0.005172413773834705 9:0.0 10:0.0 11:0.0 12:0.0 13:0.0 14:0.0 15:0.0 16:0.0 17:0.0 18:0.0 19:0.0 20:0.0 21:0.037438228726387024 22:0.004695304203778505 23:2.6555419481155695E-6
-2.8154031375813394E-5 1:0.0 2:1.2909841537475586 3:0.5 4:0.05669910088181496 5:0.20357710123062134 6:2.2541303634643555 7:0.0 8:9.727626456879079E-4 9:0.0 10:0.0 11:0.0 12:0.0 13:0.0 14:0.0 15:0.0 16:0.0 17:0.0 18:0.0 19:0.0 20:0.0 21:0.03744572028517723 22:0.002803739393129945 23:3.1050853976921644E-6
-2.8154031375813394E-5 1:0.0 2:1.491654872894287 3:0.5555555820465088 4:0.0 5:0.0 6:4.600266456604004 7:2.0 8:0.03950338438153267 9:0.008823529817163944 10:0.0 11:0.0 12:0.0 13:0.0 14:0.0 15:0.0 16:0.0 17:0.0 18:0.0 19:0.0 20:0.0 21:0.03076467663049698 22:0.012064442969858646 23:3.257473872508854E-5
2.8154031375813394E-5 1:0.0 2:0.9808292388916016 3:0.2222222238779068 4:0.047513581812381744 5:-0.0 6:-0.0 7:4.0 8:0.025830257683992386 9:0.0235294122248888 10:0.0 11:1.0 12:0.0 13:15.0 14:1.0 15:0.0 16:0.0 17:0.0 18:0.0 19:0.0 20:0.0 21:0.48236632347106934 22:4.624748835340142E-4 23:7.73014097177338E-9
-2.8154031375813394E-5 1:0.0 2:1.2039728164672852 3:0.4761904776096344 4:0.05455503985285759 5:0.19739851355552673 6:2.2541303634643555 7:0.0 8:0.0022831049282103777 9:0.0 10:0.0 11:0.0 12:0.0 13:0.0 14:0.0 15:0.0 16:0.0 17:0.0 18:0.0 19:0.0 20:0.0 21:0.07891207188367844 22:0.0027737529017031193 23:3.072429763051332E-6
-2.8154031375813394E-5 1:0.0 2:1.742969274520874 3:0.6666666865348816 4:0.09092718362808228 5:0.42966359853744507 6:4.142606735229492 7:103.0 8:0.12028302252292633 9:0.14406779408454895 10:0.0 11:0.0 12:0.0 13:0.0 14:0.0 15:0.0 16:0.0 17:0.0 18:0.0 19:0.0 20:0.0 21:0.49917861819267273 22:0.0031408914364874363 23:8.958417083704262E-7
-2.8154031375813394E-5 1:16.0 2:0.9162907600402832 3:0.2857142984867096 4:0.05172334611415863 5:0.07461225241422653 6:0.7794168591499329 7:0.0 8:0.0014585764147341251 9:0.017543859779834747 10:0.0 11:1.0 12:0.0 13:15.0 14:1.0 15:0.0 16:0.0 17:0.0 18:0.0 19:0.0 20:0.0 21:0.04014529287815094 22:0.002993907080963254 23:3.106861186097376E-6
-1.7693311225778613E-5 1:0.0 2:1.1239300966262817 3:0.3333333432674408 4:0.0 5:0.0 6:0.7794168591499329 7:0.0 8:0.027522936463356018 9:0.0 10:0.0 11:0.0 12:0.0 13:0.0 14:0.0 15:0.0 16:0.0 17:0.0 18:0.0 19:0.0 20:0.0 21:0.3016134202480316 22:8.771125576458871E-4 23:1.6314817941065485E-8
-2.8154031375813394E-5 1:16.0 2:1.1239300966262817 3:0.3333333432674408 4:0.0 5:0.0 6:0.7794168591499329 7:0.0 8:0.04545454680919647 9:0.0 10:0.0 11:0.0 12:0.0 13:0.0 14:0.0 15:0.0 16:0.0 17:0.0 18:0.0 19:0.0 20:0.0 21:0.19238755106925964 22:9.223059751093388E-4 23:6.151187648129053E-8
2.8154031375813394E-5 1:16.0 2:1.1239300966262817 3:0.25 4:0.054463159292936325 5:-0.0 6:-0.0 7:8.0 8:0.06502242386341095 9:0.18840579688549042 10:0.0 11:0.0 12:0.0 13:0.0 14:0.0 15:1.0 16:0.0 17:0.0 18:0.0 19:0.0 20:0.0 21:0.38926103711128235 22:0.0021798377856612206 23:1.0427269359070124E-7
2.8154031375813394E-5 1:16.0 2:1.491654872894287 3:0.4285714328289032 4:0.07042495161294937 5:0.09892114996910095 6:0.7794168591499329 7:1.0 8:0.09956710040569305 9:0.025974025949835777 10:0.0 11:1.0 12:0.0 13:12.0 14:1.0 15:1.0 16:0.0 17:0.0 18:0.0 19:0.0 20:0.0 21:0.7583345770835876 22:7.514215540140867E-4 23:7.565574833279243E-9
2.8154031375813394E-5 1:16.0 2:1.491654872894287 3:0.3333333432674408 4:0.059032414108514786 5:-0.0 6:-0.0 7:116.0 8:0.0657554492354393 9:0.01536312885582447 10:0.0 11:1.0 12:0.0 13:16.0 14:1.0 15:0.0 16:0.0 17:0.0 18:0.0 19:0.0 20:0.0 21:0.15346582233905792 22:0.004509058780968189 23:1.3072960882709594E-6
-2.8154031375813394E-5 1:16.0 2:1.2909841537475586 3:0.2857142984867096 4:0.0 5:0.0 6:-0.0 7:7.0 8:0.1076512485742569 9:0.1267605572938919 10:0.0 11:1.0 12:0.0 13:5.0 14:1.0 15:1.0 16:0.0 17:0.0 18:0.0 19:0.0 20:0.0 21:0.34759917855262756 22:0.007301767822355032 23:1.3954362430013134E-6
2.8154031375813394E-5 1:16.0 2:1.2909841537475586 3:0.2857142984867096 4:0.06153534725308418 5:-0.0 6:-0.0 7:1.0 8:0.13759136199951172 9:0.014705882407724857 10:0.0 11:0.0 12:0.0 13:0.0 14:0.0 15:1.0 16:0.0 17:0.0 18:0.0 19:0.0 20:0.0 21:0.39050933718681335 22:0.0016557383351027966 23:9.604773509863662E-8
2.8154031375813394E-5 1:16.0 2:1.2909841537475586 3:0.375 4:0.05269549787044525 5:0.07590815424919128 6:0.7794168591499329 7:528.0 8:0.030309073626995087 9:0.06060606241226196 10:0.0 11:1.0 12:0.0 13:3.0 14:1.0 15:0.0 16:0.0 17:0.0 18:0.0 19:0.0 20:0.0 21:0.40709975361824036 22:7.237502140924335E-4 23:7.558249137673556E-8
2.8154031375813394E-5 1:16.0 2:1.6094379425048828 3:0.6315789222717285 4:0.059044335037469864 5:0.23521094024181366 6:2.6043996810913086 7:1.0 8:0.09645506739616394 9:0.0625 10:0.0 11:1.0 12:0.0 13:13.0 14:1.0 15:1.0 16:0.0 17:0.0 18:0.0 19:0.0 20:0.0 21:0.2911737263202667 22:4.3510019895620644E-4 23:8.701232623309352E-9
2.8154031375813394E-5 1:0.0 2:1.2039728164672852 3:0.4761904776096344 4:0.06311057507991791 5:0.22149842977523804 6:2.2541303634643555 7:1.0 8:0.015463917516171932 9:0.0 10:0.0 11:1.0 12:0.0 13:13.0 14:1.0 15:0.0 16:0.0 17:0.0 18:0.0 19:0.0 20:0.0 21:0.32573753595352173 22:3.262405807618052E-4 23:7.185946060417336E-9
2.8154031375813394E-5 1:16.0 2:1.2039728164672852 3:0.3529411852359772 4:0.0 5:0.0 6:0.7794168591499329 7:0.0 8:0.01966717094182968 9:0.0 10:0.0 11:1.0 12:0.0 13:7.0 14:1.0 15:0.0 16:0.0 17:0.0 18:0.0 19:0.0 20:0.0 21:0.4741368293762207 22:6.855871761217713E-4 23:3.626962907787856E-8
2.8154031375813394E-5 1:0.0 2:1.0498220920562744 3:0.31578946113586426 4:0.046993497759103775 5:0.06825502216815948 6:0.7794168591499329 7:0.0 8:0.0 9:0.0 10:0.0 11:1.0 12:0.0 13:5.0 14:1.0 15:0.0 16:0.0 17:0.0 18:0.0 19:0.0 20:0.0 21:0.29232272505760193 22:3.6167330108582973E-4 23:2.4559549061109465E-8
-2.8154031375813394E-5 1:0.0 2:1.0498220920562744 3:0.31578946113586426 4:0.06992586702108383 5:0.09828902035951614 6:0.7794168591499329 7:8.0 8:0.037081338465213776 9:0.03412969410419464 10:0.0 11:0.0 12:0.0 13:0.0 14:0.0 15:1.0 16:0.0 17:0.0 18:0.0 19:0.0 20:0.0 21:0.15304045379161835 22:0.002458118135109544 23:2.3147784133925597E-7
-2.8154031375813394E-5 1:16.0 2:1.2909841537475586 3:0.4444444477558136 4:0.06411802023649216 5:0.2825937569141388 6:3.0717601776123047 7:1.0 8:0.009345794096589088 9:0.021739130839705467 10:0.0 11:2.0 12:0.0 13:4.0 14:1.0 15:0.0 16:0.0 17:0.0 18:0.0 19:0.0 20:0.0 21:0.2979205548763275 22:0.0022272004280239344 23:9.524937354399299E-7
2.8154031375813394E-5 1:16.0 2:1.491654872894287 3:0.3333333432674408 4:0.07481877505779266 5:-0.0 6:-0.0 7:545.0 8:0.16875572502613068 9:0.20932133495807648 10:0.0 11:0.0 12:0.0 13:0.0 14:0.0 15:1.0 16:0.0 17:0.0 18:0.0 19:0.0 20:0.0 21:0.09958313405513763 22:0.007988547906279564 23:6.66170035401592E-6
-2.8154031375813394E-5 1:0.0 2:1.742969274520874 3:0.5714285969734192 4:0.09067478030920029 5:0.35776495933532715 6:3.0717601776123047 7:18.0 8:0.04756380617618561 9:0.05944056063890457 10:0.0 11:1.0 12:0.0 13:3.0 14:1.0 15:0.0 16:0.0 17:0.0 18:0.0 19:0.0 20:0.0 21:0.6330088376998901 22:0.0020798754412680864 23:1.7013316266911716E-7
2.8154031375813394E-5 1:16.0 2:1.3862943649291992 3:0.4000000059604645 4:0.0633288100361824 5:0.08984924852848053 6:0.7794168591499329 7:96.0 8:0.006979449186474085 9:0.0903225839138031 10:0.0 11:1.0 12:0.0 13:16.0 14:1.0 15:0.0 16:0.0 17:0.0 18:0.0 19:0.0 20:0.0 21:0.17885729670524597 22:0.011743790470063686 23:1.3432131709123496E-5
2.8154031375813394E-5 1:0.0 2:1.6094379425048828 3:0.4615384638309479 4:0.0 5:0.0 6:0.614363968372345 7:1.0 8:0.08461538702249527 9:0.015625 10:0.0 11:0.0 12:0.0 13:0.0 14:0.0 15:0.0 16:0.0 17:0.0 18:0.0 19:0.0 20:0.0 21:0.5012571811676025 22:4.907891852781177E-4 23:5.801626290491413E-9
-2.8154031375813394E-5 1:16.0 2:1.2039728164672852 3:0.2666666805744171 4:0.0 5:0.0 6:-0.0 7:251.0 8:0.055451758205890656 9:0.023395612835884094 10:0.0 11:1.0 12:0.0 13:4.0 14:1.0 15:0.0 16:0.0 17:0.0 18:0.0 19:0.0 20:0.0 21:0.45369699597358704 22:0.048316217958927155 23:4.204941069474444E-5
2.8154031375813394E-5 1:0.0 2:1.742969274520874 3:0.6666666865348816 4:0.07489006221294403 5:0.2806207239627838 6:2.6043996810913086 7:9.0 8:0.04838709533214569 9:0.015625 10:0.0 11:0.0 12:0.0 13:0.0 14:0.0 15:1.0 16:0.0 17:0.0 18:0.0 19:0.0 20:0.0 21:0.13508161902427673 22:4.543341347016394E-4 23:3.245971313958762E-8
-2.8154031375813394E-5 1:0.0 2:1.0498220920562744 3:0.31578946113586426 4:0.0 5:0.0 6:0.614363968372345 7:4.0 8:0.0019134178292006254 9:0.0 10:0.0 11:1.0 12:0.0 13:8.0 14:1.0 15:0.0 16:0.0 17:0.0 18:0.0 19:0.0 20:0.0 21:0.04629667103290558 22:0.0036977557465434074 23:4.290506240067771E-6
2.8154031375813394E-5 1:3.0 2:2.079441547393799 3:0.7142857313156128 4:0.06613868474960327 5:0.201127290725708 6:1.9033026695251465 7:1.0 8:0.04273504391312599 9:0.0 10:0.0 11:0.0 12:0.0 13:0.0 14:0.0 15:0.0 16:0.0 17:0.0 18:0.0 19:0.0 20:0.0 21:0.1404588669538498 22:0.04744765907526016 23:2.0238858996890485E-4
-2.8154031375813394E-5 1:16.0 2:0.7985076904296875 3:0.190476194024086 4:0.0 5:0.0 6:-0.0 7:4.0 8:0.035650622099637985 9:0.020408162847161293 10:0.0 11:1.0 12:0.0 13:6.0 14:1.0 15:0.0 16:0.0 17:0.0 18:0.0 19:0.0 20:0.0 21:0.014014696702361107 22:0.0025314565282315016 23:1.259360828953504E-6
-2.8154031375813394E-5 1:16.0 2:1.1239300966262817 3:0.3333333432674408 4:0.07516724616289139 5:0.08455096185207367 6:0.614363968372345 7:657.0 8:0.0984441265463829 9:0.11753182858228683 10:0.0 11:1.0 12:0.0 13:5.0 14:1.0 15:0.0 16:0.0 17:0.0 18:0.0 19:0.0 20:0.0 21:0.3374854326248169 22:0.021600591018795967 23:1.034943270497024E-4
-2.8154031375813394E-5 1:0.0 2:1.0498220920562744 3:0.23529411852359772 4:0.051447805017232895 5:-0.0 6:-0.0 7:11.0 8:0.012552301399409771 9:0.014705882407724857 10:0.0 11:0.0 12:0.0 13:0.0 14:0.0 15:0.0 16:0.0 17:0.0 18:0.0 19:0.0 20:0.0 21:0.09426943212747574 22:0.0018789551686495543 23:3.500331047234795E-7
-2.8154031375813394E-5 1:0.0 2:1.2909841537475586 3:0.4444444477558136 4:0.07810650020837784 5:0.3242553174495697 6:3.0717601776123047 7:82.0 8:0.07748184353113174 9:0.10256410390138626 10:0.0 11:1.0 12:0.0 13:10.0 14:1.0 15:0.0 16:0.0 17:0.0 18:0.0 19:0.0 20:0.0 21:0.06464730203151703 22:0.01642645336687565 23:9.256565681425855E-5
-2.8154031375813394E-5 1:0.0 2:1.2039728164672852 3:0.3529411852359772 4:0.0 5:0.0 6:0.7794168591499329 7:0.0 8:0.0181818176060915 9:0.017543859779834747 10:0.0 11:1.0 12:0.0 13:13.0 14:1.0 15:0.0 16:0.0 17:0.0 18:0.0 19:0.0 20:0.0 21:0.44266676902770996 22:5.582194426096976E-4 23:8.12699951779905E-9
-2.8154031375813394E-5 1:16.0 2:1.0498220920562744 3:0.23529411852359772 4:0.043785955756902695 5:-0.0 6:-0.0 7:580.0 8:0.00937274657189846 9:0.01315789483487606 10:0.0 11:0.0 12:0.0 13:0.0 14:0.0 15:0.0 16:0.0 17:0.0 18:0.0 19:0.0 20:0.0 21:0.5763047933578491 22:0.010481007397174835 23:9.709535515867174E-5
2.8154031375813394E-5 1:16.0 2:1.3862943649291992 3:0.4000000059604645 4:0.07275491207838058 5:0.10186052322387695 6:0.7794168591499329 7:1.0 8:0.06828978657722473 9:0.04054053872823715 10:0.0 11:0.0 12:0.0 13:0.0 14:0.0 15:0.0 16:0.0 17:0.0 18:0.0 19:0.0 20:0.0 21:0.6045854091644287 22:0.001477335812523961 23:3.4002365367769016E-8
-2.8154031375813394E-5 1:16.0 2:1.3862943649291992 3:0.4000000059604645 4:0.06959428638219833 5:0.07877610623836517 6:0.614363968372345 7:0.0 8:0.010973936878144741 9:0.034246575087308884 10:0.0 11:1.0 12:0.0 13:14.0 14:1.0 15:1.0 16:0.0 17:0.0 18:0.0 19:0.0 20:0.0 21:0.10160060226917267 22:0.0025048372335731983 23:2.877063707273919E-7
-2.8154031375813394E-5 1:5.0 2:2.5902671813964844 3:0.800000011920929 4:0.12101475149393082 5:0.4100831151008606 6:2.8721871376037598 7:570.0 8:0.33283019065856934 9:0.04048370197415352 10:0.0 11:1.0 12:0.0 13:4.0 14:1.0 15:0.0 16:0.0 17:0.0 18:0.0 19:1.0 20:0.0 21:0.5796679258346558 22:0.03457116335630417 23:1.1450857527961489E-5
2.8154031375813394E-5 1:2.0 2:1.8971199989318848 3:0.7368420958518982 4:0.16263271868228912 5:0.7171622514724731 6:7.795467853546143 7:1.0 8:0.03589743748307228 9:0.017241379246115685 10:0.0 11:1.0 12:0.0 13:8.0 14:1.0 15:0.0 16:0.0 17:0.0 18:0.0 19:0.0 20:0.0 21:0.1154564693570137 22:0.0010411180555820465 23:5.959207882710871E-8
2.8154031375813394E-5 1:16.0 2:1.742969274520874 3:0.5 4:0.06459762156009674 5:0.09148471802473068 6:0.7794168591499329 7:1.0 8:0.09058883041143417 9:0.03703703731298447 10:0.0 11:0.0 12:0.0 13:0.0 14:0.0 15:1.0 16:0.0 17:0.0 18:0.0 19:0.0 20:0.0 21:0.6916301250457764 22:9.26810025703162E-4 23:1.0154269425299844E-8
-2.8154031375813394E-5 1:16.0 2:0.9162907600402832 3:0.21052631735801697 4:0.0 5:0.0 6:-0.0 7:6.0 8:0.011032656766474247 9:0.033898305147886276 10:0.0 11:1.0 12:0.0 13:10.0 14:1.0 15:0.0 16:0.0 17:0.0 18:0.0 19:0.0 20:0.0 21:0.11755998432636261 22:0.002603696659207344 23:9.814267514229869E-7
-2.8154031375813394E-5 1:0.0 2:1.6094379425048828 3:0.5882353186607361 4:0.11486490815877914 5:0.389340341091156 6:2.7753183841705322 7:540.0 8:0.09280500560998917 9:0.05263157933950424 10:0.0 11:1.0 12:0.0 13:10.0 14:1.0 15:0.0 16:0.0 17:0.0 18:0.0 19:0.0 20:0.0 21:0.24032354354858398 22:0.0736793577671051 23:5.972586805000901E-4
2.8154031375813394E-5 1:0.0 2:0.9808292388916016 3:0.30000001192092896 4:0.053206682205200195 5:0.07658811658620834 6:0.7794168591499329 7:0.0 8:0.0 9:0.0 10:0.0 11:1.0 12:0.0 13:7.0 14:1.0 15:0.0 16:0.0 17:0.0 18:0.0 19:0.0 20:0.0 21:0.5370346903800964 22:5.763970548287034E-4 23:4.457295865734068E-9
-2.8154031375813394E-5 1:16.0 2:0.744440495967865 3:0.1818181872367859 4:0.0 5:0.0 6:-0.0 7:1.0 8:0.010971786454319954 9:0.0 10:0.0 11:1.0 12:0.0 13:3.0 14:1.0 15:1.0 16:0.0 17:0.0 18:0.0 19:0.0 20:0.0 21:0.6014310121536255 22:5.612023524008691E-4 23:1.491296330868863E-8
-2.8154031375813394E-5 1:16.0 2:1.2909841537475586 3:0.375 4:0.0 5:0.0 6:0.7794168591499329 7:2.0 8:0.08433734625577927 9:0.0317460335791111 10:0.0 11:2.0 12:0.0 13:9.0 14:1.0 15:1.0 16:0.0 17:0.0 18:0.0 19:0.0 20:0.0 21:0.842502236366272 22:0.0022957101464271545 23:9.416291959496448E-7
-2.8154031375813394E-5 1:16.0 2:0.9808292388916016 3:0.2222222238779068 4:0.0 5:0.0 6:-0.0 7:22.0 8:0.06257110089063644 9:0.1071428582072258 10:0.0 11:0.0 12:0.0 13:0.0 14:0.0 15:1.0 16:0.0 17:0.0 18:0.0 19:0.0 20:0.0 21:0.4137699007987976 22:0.004713423550128937 23:4.129182400447462E-7
2.8154031375813394E-5 1:5.0 2:2.5902671813964844 3:0.9090909361839294 4:0.3106674551963806 5:0.8632100224494934 6:10.15632152557373 7:393.0 8:0.8949999809265137 9:0.2142857164144516 10:0.0 11:1.0 12:0.0 13:13.0 14:1.0 15:0.0 16:0.0 17:0.0 18:0.0 19:1.0 20:0.0 21:0.813296914100647 22:8.500674739480019E-4 23:1.686922423971282E-8
-2.8154031375813394E-5 1:0.0 2:1.2039728164672852 3:0.3529411852359772 4:0.06895651668310165 5:0.0970587283372879 6:0.7794168591499329 7:17.0 8:0.04146341606974602 9:0.036363635212183 10:0.0 11:1.0 12:0.0 13:16.0 14:1.0 15:0.0 16:0.0 17:0.0 18:0.0 19:0.0 20:0.0 21:0.31172388792037964 22:0.10552486032247543 23:1.3350672088563442E-4
-2.8154031375813394E-5 1:0.0 2:1.491654872894287 3:0.4285714328289032 4:0.05454019829630852 5:0.07835723459720612 6:0.7794168591499329 7:7.0 8:0.058746736496686935 9:0.04500000178813934 10:0.0 11:1.0 12:0.0 13:16.0 14:1.0 15:0.0 16:0.0 17:0.0 18:0.0 19:0.0 20:0.0 21:0.1988249272108078 22:0.005311246030032635 23:1.0206232445852947E-6
-2.8154031375813394E-5 1:16.0 2:0.9808292388916016 3:0.2222222238779068 4:0.051170431077480316 5:-0.0 6:-0.0 7:7.0 8:0.022140221670269966 9:0.03703703731298447 10:0.0 11:0.0 12:0.0 13:0.0 14:0.0 15:1.0 16:0.0 17:0.0 18:0.0 19:0.0 20:0.0 21:0.3479093313217163 22:0.014918936416506767 23:5.811701612401521E-6
2.8154031375813394E-5 1:5.0 2:2.5902671813964844 3:0.875 4:0.41529178619384766 5:0.8702734708786011 6:8.07688045501709 7:376.0 8:0.6142857074737549 9:0.29591837525367737 10:0.0 11:2.0 12:0.0 13:5.0 14:1.0 15:0.0 16:0.0 17:0.0 18:0.0 19:1.0 20:0.0 21:0.9147313237190247 22:0.0022778036072850227 23:1.482975591216018E-7
-2.8154031375813394E-5 1:16.0 2:1.3862943649291992 3:0.4000000059604645 4:0.051525842398405075 5:0.07434853166341782 6:0.7794168591499329 7:2.0 8:0.028248587623238564 9:0.015384615398943424 10:0.0 11:0.0 12:0.0 13:0.0 14:0.0 15:0.0 16:0.0 17:0.0 18:0.0 19:0.0 20:0.0 21:0.6229247450828552 22:5.117652472108603E-4 23:5.032687599992869E-9
2.8154031375813394E-5 1:4.0 2:2.3025851249694824 3:0.8421052694320679 4:0.09194522351026535 5:0.457980751991272 6:4.594871520996094 7:406.0 8:0.3354714512825012 9:0.1017274484038353 10:0.0 11:1.0 12:0.0 13:3.0 14:1.0 15:0.0 16:0.0 17:0.0 18:0.0 19:0.0 20:0.0 21:0.4199785590171814 22:0.007128830533474684 23:1.5971505717971013E-6
-2.8154031375813394E-5 1:16.0 2:2.5902671813964844 3:0.875 4:0.0 5:0.0 6:7.894558906555176 7:501.0 8:0.9522580504417419 9:0.2023809552192688 10:0.0 11:1.0 12:0.0 13:8.0 14:1.0 15:1.0 16:1.0 17:1.0 18:0.0 19:1.0 20:0.0 21:0.08711684495210648 22:0.0019762760493904352 23:4.251166387803096E-7
2.8154031375813394E-5 1:0.0 2:0.8556661009788513 3:0.27272728085517883 4:0.07199756801128387 5:0.10090719908475876 6:0.7794168591499329 7:1.0 8:0.2075471729040146 9:0.011904762126505375 10:0.0 11:1.0 12:0.0 13:12.0 14:1.0 15:0.0 16:0.0 17:0.0 18:0.0 19:0.0 20:0.0 21:0.3059113323688507 22:0.0023826402612030506 23:4.6444250756394467E-7
-2.8154031375813394E-5 1:16.0 2:1.2909841537475586 3:0.4444444477558136 4:0.0 5:0.0 6:1.7798171043395996 7:9.0 8:0.0025510203558951616 9:0.0 10:0.0 11:0.0 12:0.0 13:0.0 14:0.0 15:0.0 16:0.0 17:0.0 18:0.0 19:0.0 20:0.0 21:0.5594141483306885 22:0.002291641663759947 23:1.0273694783791143E-7
2.8154031375813394E-5 1:16.0 2:2.3025851249694824 3:0.7692307829856873 4:0.12295845150947571 5:0.4379715323448181 6:3.1688315868377686 7:267.0 8:0.39774206280708313 9:0.1980319768190384 10:0.0 11:1.0 12:0.0 13:5.0 14:1.0 15:0.0 16:0.0 17:0.0 18:0.0 19:0.0 20:0.0 21:0.8105985522270203 22:0.012847600504755974 23:2.2283538783085532E-6
-2.8154031375813394E-5 1:16.0 2:2.079441547393799 3:0.75 4:0.11063572764396667 5:0.428800106048584 6:3.3926680088043213 7:107.0 8:0.08523144572973251 9:0.0565476194024086 10:0.0 11:0.0 12:0.0 13:0.0 14:0.0 15:1.0 16:0.0 17:0.0 18:0.0 19:0.0 20:0.0 21:0.5685293078422546 22:0.024671994149684906 23:1.2787173545802943E-5
2.8154031375813394E-5 1:16.0 2:2.079441547393799 3:0.75 4:0.07880506664514542 5:0.4162980616092682 6:4.525110244750977 7:37.0 8:0.12385321408510208 9:0.0762711837887764 10:0.0 11:1.0 12:0.0 13:5.0 14:1.0 15:0.0 16:0.0 17:0.0 18:0.0 19:0.0 20:0.0 21:0.3089448809623718 22:0.0013759481953456998 23:5.3952934564449606E-8
-2.8154031375813394E-5 1:16.0 2:1.3862943649291992 3:0.4000000059604645 4:0.04857577756047249 5:0.07039140909910202 6:0.7794168591499329 7:12.0 8:0.013311147689819336 9:0.08695652335882187 10:0.0 11:1.0 12:0.0 13:2.0 14:1.0 15:1.0 16:0.0 17:0.0 18:0.0 19:0.0 20:0.0 21:0.6694805026054382 22:0.001504529733210802 23:3.8158972870405705E-8
-2.8154031375813394E-5 1:16.0 2:1.0498220920562744 3:0.31578946113586426 4:0.05190858617424965 5:0.07485946267843246 6:0.7794168591499329 7:118.0 8:0.06194690242409706 9:0.05747126415371895 10:0.0 11:1.0 12:0.0 13:2.0 14:1.0 15:1.0 16:0.0 17:0.0 18:0.0 19:0.0 20:0.0 21:0.8228276968002319 22:9.129232494160533E-4 23:1.0108286829790813E-7
2.8154031375813394E-5 1:16.0 2:2.5902671813964844 3:0.8571428656578064 4:0.13047730922698975 5:0.5684608817100525 6:5.04795503616333 7:576.0 8:0.6348174214363098 9:0.05291005223989487 10:0.0 11:0.0 12:0.0 13:0.0 14:0.0 15:1.0 16:1.0 17:1.0 18:0.0 19:1.0 20:0.0 21:0.22973789274692535 22:0.009271391667425632 23:5.726364179281518E-6
-2.8154031375813394E-5 1:0.0 2:0.7985076904296875 3:0.260869562625885 4:0.0 5:0.0 6:0.7794168591499329 7:511.0 8:0.0398230105638504 9:0.03030303120613098 10:0.0 11:2.0 12:0.0 13:6.0 14:1.0 15:0.0 16:0.0 17:0.0 18:0.0 19:0.0 20:0.0 21:0.8467906713485718 22:4.7904186067171395E-4 23:2.541935772981674E-9
2.8154031375813394E-5 1:16.0 2:1.2039728164672852 3:0.3529411852359772 4:0.05374786630272865 5:0.07730690389871597 6:0.7794168591499329 7:3.0 8:0.05683355778455734 9:0.025641025975346565 10:0.0 11:1.0 12:0.0 13:15.0 14:1.0 15:0.0 16:0.0 17:0.0 18:0.0 19:0.0 20:0.0 21:0.7774221897125244 22:6.130259716883302E-4 23:6.4336673766263175E-9
-2.8154031375813394E-5 1:0.0 2:1.2909841537475586 3:0.375 4:0.050268322229385376 5:0.07266585528850555 6:0.7794168591499329 7:486.0 8:0.030226700007915497 9:0.0 10:0.0 11:1.0 12:0.0 13:5.0 14:1.0 15:0.0 16:0.0 17:0.0 18:0.0 19:0.0 20:0.0 21:0.47687193751335144 22:6.220086943358183E-4 23:3.809895332551605E-8
2.8154031375813394E-5 1:3.0 2:2.079441547393799 3:0.800000011920929 4:0.0 5:0.0 6:7.5610671043396 7:2.0 8:0.095238097012043 9:0.02777777798473835 10:0.0 11:1.0 12:0.0 13:11.0 14:1.0 15:0.0 16:0.0 17:0.0 18:0.0 19:0.0 20:0.0 21:0.29698505997657776 22:0.005626193713396788 23:5.703137958334992E-6
2.8154031375813394E-5 1:0.0 2:1.742969274520874 3:0.7272727489471436 4:0.0 5:0.0 6:4.554941177368164 7:1.0 8:0.005235602147877216 9:0.009433962404727936 10:0.0 11:1.0 12:0.0 13:7.0 14:1.0 15:0.0 16:0.0 17:0.0 18:0.0 19:0.0 20:0.0 21:0.20088833570480347 22:0.011448378674685955 23:2.0609950297512114E-6
-2.8154031375813394E-5 1:16.0 2:1.2039728164672852 3:0.3529411852359772 4:0.05429666489362717 5:0.0780346542596817 6:0.7794168591499329 7:264.0 8:0.05444047227501869 9:0.22127659618854523 10:0.0 11:1.0 12:0.0 13:3.0 14:1.0 15:0.0 16:0.0 17:0.0 18:0.0 19:0.0 20:0.0 21:0.33309289813041687 22:0.0013798183063045144 23:3.4341550758654193E-7
2.8154031375813394E-5 1:0.0 2:1.742969274520874 3:0.625 4:0.06416665762662888 5:0.2890995144844055 6:3.1688315868377686 7:1.0 8:0.017751479521393776 9:0.04545454680919647 10:0.0 11:1.0 12:0.0 13:3.0 14:1.0 15:0.0 16:0.0 17:0.0 18:0.0 19:0.0 20:0.0 21:0.20211170613765717 22:3.2406425452791154E-4 23:1.594783505254327E-8
2.8154031375813394E-5 1:16.0 2:2.5902671813964844 3:0.8888888955116272 4:0.1949356198310852 5:0.7683519124984741 6:8.50766372680664 7:477.0 8:0.8291139006614685 9:0.4035087823867798 10:0.0 11:1.0 12:0.0 13:5.0 14:1.0 15:1.0 16:1.0 17:1.0 18:0.0 19:1.0 20:0.0 21:0.28883635997772217 22:3.954766143579036E-4 23:1.1754313078427003E-8
2.8154031375813394E-5 1:16.0 2:1.491654872894287 3:0.6000000238418579 4:0.07105186581611633 5:0.27012357115745544 6:2.6043996810913086 7:559.0 8:0.048991356045007706 9:0.13709677755832672 10:0.0 11:0.0 12:0.0 13:0.0 14:0.0 15:1.0 16:0.0 17:0.0 18:0.0 19:0.0 20:0.0 21:0.4228695333003998 22:0.0038584480062127113 23:1.5543716926913476E-6
2.8154031375813394E-5 1:0.0 2:1.0498220920562744 3:0.23529411852359772 4:0.0 5:0.0 6:-0.0 7:1.0 8:0.0021121802274137735 9:0.0 10:0.0 11:1.0 12:0.0 13:8.0 14:1.0 15:0.0 16:0.0 17:0.0 18:0.0 19:0.0 20:0.0 21:0.08623693883419037 22:0.0020987619645893574 23:4.5308260609999707E-7
-2.8154031375813394E-5 1:16.0 2:0.8556661009788513 3:0.20000000298023224 4:0.0 5:0.0 6:-0.0 7:10.0 8:0.04318936914205551 9:0.0555555559694767 10:0.0 11:1.0 12:0.0 13:14.0 14:1.0 15:1.0 16:0.0 17:0.0 18:0.0 19:0.0 20:0.0 21:0.12250136584043503 22:0.003975038416683674 23:9.498440704192035E-6
-2.8154031375813394E-5 1:16.0 2:1.2909841537475586 3:0.5454545617103577 4:0.0 5:0.0 6:5.678985118865967 7:3.0 8:0.08675798773765564 9:0.025641025975346565 10:0.0 11:1.0 12:0.0 13:10.0 14:1.0 15:1.0 16:0.0 17:0.0 18:0.0 19:0.0 20:0.0 21:0.09382645040750504 22:0.0026844381354749203 23:1.2771718047588365E-6
2.8154031375813394E-5 1:16.0 2:1.2039728164672852 3:0.3529411852359772 4:0.05454019829630852 5:0.07835723459720612 6:0.7794168591499329 7:34.0 8:0.04443405196070671 9:0.13793103396892548 10:0.0 11:1.0 12:0.0 13:3.0 14:1.0 15:0.0 16:0.0 17:0.0 18:0.0 19:0.0 20:0.0 21:0.4725341796875 22:6.104606436565518E-4 23:2.0641580888991484E-8
-2.8154031375813394E-5 1:16.0 2:0.7985076904296875 3:0.190476194024086 4:0.04249619320034981 5:-0.0 6:-0.0 7:465.0 8:0.02150537632405758 9:0.10869564861059189 10:0.0 11:1.0 12:0.0 13:9.0 14:1.0 15:0.0 16:0.0 17:0.0 18:0.0 19:0.0 20:0.0 21:0.270612895488739 22:0.0012685643741860986 23:2.5977470841098693E-7
2.8154031375813394E-5 1:16.0 2:1.1239300966262817 3:0.3333333432674408 4:0.05795694515109062 5:0.08285929262638092 6:0.7794168591499329 7:1.0 8:0.03407880663871765 9:0.01904761977493763 10:0.0 11:1.0 12:0.0 13:11.0 14:1.0 15:1.0 16:0.0 17:0.0 18:0.0 19:0.0 20:0.0 21:0.3974219858646393 22:9.830571943894029E-4 23:1.0961031193801318E-7
