SVM-light Version V6.01
0 # kernel type
3 # kernel parameter -d
1.0 # kernel parameter -g
1.0 # kernel parameter -s
0.0 # kernel parameter -r
empty# kernel parameter -u
26 # highest feature index
1700 # number of training documents
1094 # number of support vectors plus 1
-0.9799421246516795 # threshold b, each following line is a SV (starting with alpha*y)
-0.07517528249443707 1:-0.3333333432674408 2:0.0 3:-0.4000000059604645 4:0.0 5:1.0 6:0.0 7:-1.0 8:-1.0 9:-1.0 10:0.0 11:-1.0 12:0.0 13:-0.019228925928473473 14:-0.994825005531311 15:-0.9999541640281677 16:-1.0 17:0.0 18:0.0 19:0.0 20:0.0 21:-0.3333333432674408 22:-0.3333333432674408 23:-1.0 24:-1.0 25:-0.3333333432674408 26:0.0
0.07517528249443707 1:-0.3333333432674408 2:0.0 3:0.10000000149011612 4:0.0 5:-1.0 6:0.0 7:-1.0 8:-1.0 9:-1.0 10:0.0 11:-1.0 12:0.0 13:0.20636549592018127 14:-0.8900589942932129 15:-0.9898372888565063 16:1.0 17:0.0 18:0.0 19:0.0 20:-1.0 21:-1.0 22:-1.0 23:-1.0 24:-1.0 25:-1.0 26:0.0
-0.07517528249443707 1:-0.3333333432674408 2:0.0 3:1.0 4:0.0 5:-1.0 6:0.0 7:-1.0 8:-1.0 9:-1.0 10:0.0 11:-1.0 12:0.0 13:-0.2868964374065399 14:-0.9951308965682983 15:-0.9997898936271667 16:1.0 17:0.0 18:0.0 19:0.0 20:-1.0 21:-1.0 22:-1.0 23:-1.0 24:-1.0 25:-1.0 26:0.0
0.07517528249443707 1:-1.0 2:0.0 3:-1.0 4:-1.0 5:1.0 6:0.0 7:-1.0 8:-1.0 9:-1.0 10:0.0 11:-1.0 12:0.0 13:-0.7680772542953491 14:-0.9860630631446838 15:-0.9989544153213501 16:-1.0 17:0.0 18:0.0 19:0.0 20:0.0 21:-0.3333333432674408 22:-0.3333333432674408 23:0.0 24:-0.3333333432674408 25:-0.3333333432674408 26:0.0
-0.07517528249443707 1:-1.0 2:0.0 3:-1.0 4:-1.0 5:1.0 6:0.0 7:-1.0 8:-1.0 9:-1.0 10:0.0 11:-1.0 12:0.0 13:-0.9529582858085632 14:-0.902556836605072 15:-0.9610103964805603 16:-1.0 17:0.0 18:0.0 19:0.0 20:-1.0 21:-0.3333333432674408 22:-0.3333333432674408 23:0.0 24:-0.3333333432674408 25:-0.3333333432674408 26:0.0
0.07517528249443707 1:0.3333333432674408 2:0.0 3:0.800000011920929 4:0.0 5:-1.0 6:0.0 7:-1.0 8:-1.0 9:-1.0 10:0.0 11:-1.0 12:0.0 13:-0.7325776815414429 14:-0.9918251633644104 15:-0.9998586177825928 16:1.0 17:0.0 18:0.0 19:0.0 20:-1.0 21:-1.0 22:-1.0 23:-1.0 24:-1.0 25:-1.0 26:0.0
-0.07517528249443707 1:1.0 2:0.0 3:-0.5 4:0.0 5:-1.0 6:0.0 7:-1.0 8:-1.0 9:-1.0 10:0.0 11:-1.0 12:0.0 13:-0.6045604348182678 14:-0.9866304397583008 15:-0.9975790977478027 16:1.0 17:0.0 18:0.0 19:0.0 20:-1.0 21:-1.0 22:-1.0 23:-1.0 24:-1.0 25:-1.0 26:0.0
0.07517528249443707 1:-1.0 2:0.0 3:-1.0 4:-1.0 5:1.0 6:0.0 7:-1.0 8:-1.0 9:-1.0 10:0.0 11:-1.0 12:0.0 13:0.3067750334739685 14:-0.9478713870048523 15:-0.9976328611373901 16:-1.0 17:0.0 18:0.0 19:0.0 20:0.0 21:-0.3333333432674408 22:-0.3333333432674408 23:0.0 24:-0.3333333432674408 25:-0.3333333432674408 26:0.0
-0.07517528249443707 1:-1.0 2:0.0 3:-1.0 4:-1.0 5:-1.0 6:0.0 7:-1.0 8:-1.0 9:-1.0 10:0.0 11:-1.0 12:0.0 13:0.47381287813186646 14:-0.8849236965179443 15:-0.9950340986251831 16:1.0 17:0.0 18:0.0 19:0.0 20:0.0 21:-0.3333333432674408 22:-0.3333333432674408 23:0.0 24:-0.3333333432674408 25:-0.3333333432674408 26:0.0
-0.07517528249443707 1:-1.0 2:0.0 3:-1.0 4:-1.0 5:-1.0 6:0.0 7:-1.0 8:-1.0 9:-1.0 10:0.0 11:-1.0 12:0.0 13:0.27345010638237 14:-0.9967451691627502 15:-0.9999884366989136 16:1.0 17:0.0 18:0.0 19:0.0 20:0.0 21:-0.3333333432674408 22:-0.3333333432674408 23:0.0 24:-0.3333333432674408 25:-0.3333333432674408 26:0.0
-0.07517528249443707 1:-1.0 2:0.0 3:-1.0 4:-1.0 5:-1.0 6:0.0 7:1.0 8:-1.0 9:-1.0 10:0.0 11:-1.0 12:0.0 13:0.05591527745127678 14:-0.9831984639167786 15:-0.9997997283935547 16:1.0 17:0.0 18:0.0 19:0.0 20:0.0 21:-0.3333333432674408 22:-0.3333333432674408 23:0.0 24:-0.3333333432674408 25:-1.0 26:0.0
-0.07517528249443707 1:-1.0 2:0.0 3:-1.0 4:-1.0 5:-1.0 6:0.0 7:-1.0 8:-1.0 9:-1.0 10:0.0 11:-1.0 12:0.0 13:-0.012786359526216984 14:-0.5798752903938293 15:-0.9196754693984985 16:-1.0 17:0.0 18:0.0 19:0.0 20:0.0 21:-0.3333333432674408 22:-1.0 23:0.0 24:-0.3333333432674408 25:-1.0 26:0.0
-0.07517528249443707 1:-1.0 2:0.0 3:-1.0 4:-1.0 5:-1.0 6:0.0 7:-1.0 8:-1.0 9:-1.0 10:0.0 11:-1.0 12:0.0 13:0.5216367244720459 14:-0.9956709146499634 15:-0.9999614953994751 16:-1.0 17:0.0 18:0.0 19:0.0 20:0.0 21:-1.0 22:-0.3333333432674408 23:0.0 24:-1.0 25:-0.3333333432674408 26:0.0
0.07517528249443707 1:0.3333333432674408 2:0.0 3:-0.5 4:1.0 5:-1.0 6:0.0 7:-1.0 8:-1.0 9:-1.0 10:0.0 11:-1.0 12:0.0 13:-0.8726727366447449 14:-0.9867574572563171 15:-0.9989273548126221 16:1.0 17:0.0 18:0.0 19:0.0 20:-1.0 21:-0.3333333432674408 22:-1.0 23:-1.0 24:-1.0 25:-1.0 26:0.0
0.07517528249443707 1:0.3333333432674408 2:0.0 3:-0.5 4:1.0 5:-1.0 6:0.0 7:-1.0 8:-1.0 9:-1.0 10:0.0 11:-1.0 12:0.0 13:-0.7144450545310974 14:-0.992247998714447 15:-0.9992125034332275 16:1.0 17:0.0 18:0.0 19:0.0 20:-1.0 21:-1.0 22:-1.0 23:-1.0 24:-1.0 25:-1.0 26:0.0
0.07517528249443707 1:0.3333333432674408 2:0.0 3:-0.4000000059604645 4:1.0 5:-1.0 6:0.0 7:-1.0 8:-1.0 9:-1.0 10:0.0 11:-1.0 12:0.0 13:-0.6029167771339417 14:-0.99541836977005 15:-0.9998747110366821 16:1.0 17:0.0 18:0.0 19:0.0 20:-1.0 21:-1.0 22:-1.0 23:-1.0 24:-1.0 25:-1.0 26:0.0
0.07517528249443707 1:0.3333333432674408 2:0.0 3:-0.5 4:1.0 5:1.0 6:0.0 7:-1.0 8:-1.0 9:-1.0 10:0.0 11:-1.0 12:0.0 13:-0.4856181740760803 14:-0.9873676300048828 15:-0.998988687992096 16:1.0 17:0.0 18:0.0 19:0.0 20:-1.0 21:-1.0 22:-1.0 23:-1.0 24:-1.0 25:-1.0 26:0.0
0.07517528249443707 1:0.3333333432674408 2:0.0 3:0.800000011920929 4:0.0 5:-1.0 6:0.0 7:-1.0 8:-1.0 9:-1.0 10:0.0 11:-1.0 12:0.0 13:-0.7918099164962769 14:-0.9888116121292114 15:-0.9996349811553955 16:-1.0 17:0.0 18:0.0 19:0.0 20:-1.0 21:-1.0 22:-1.0 23:-1.0 24:-1.0 25:-1.0 26:0.0
-0.07517528249443707 1:-0.3333333432674408 2:0.0 3:0.30000001192092896 4:0.0 5:-1.0 6:0.0 7:-1.0 8:-1.0 9:-1.0 10:0.0 11:-1.0 12:0.0 13:-0.3941067159175873 14:-0.9940052628517151 15:-0.999917209148407 16:-1.0 17:0.0 18:0.0 19:0.0 20:-1.0 21:-1.0 22:-1.0 23:-1.0 24:-1.0 25:-1.0 26:0.0
-0.07517528249443707 1:-0.3333333432674408 2:0.0 3:-0.10000000149011612 4:0.0 5:-1.0 6:0.0 7:-1.0 8:-1.0 9:-1.0 10:0.0 11:-1.0 12:0.0 13:-0.11474370956420898 14:-0.9927259087562561 15:-0.9999408721923828 16:-1.0 17:0.0 18:0.0 19:0.0 20:-1.0 21:-1.0 22:-1.0 23:-1.0 24:-1.0 25:-1.0 26:0.0
-0.07517528249443707 1:0.3333333432674408 2:0.0 3:1.0 4:0.0 5:-1.0 6:0.0 7:-1.0 8:-1.0 9:-1.0 10:0.0 11:-1.0 12:0.0 13:-0.6315519213676453 14:-0.9911266565322876 15:-0.999838650226593 16:1.0 17:0.0 18:0.0 19:0.0 20:-1.0 21:-1.0 22:-0.3333333432674408 23:-1.0 24:-1.0 25:-0.3333333432674408 26:0.0
0.07517528249443707 1:-1.0 2:0.0 3:-1.0 4:-1.0 5:1.0 6:0.0 7:1.0 8:-1.0 9:-1.0 10:0.0 11:-1.0 12:0.0 13:-0.5453131794929504 14:-0.9791167378425598 15:-0.9988765120506287 16:-1.0 17:0.0 18:0.0 19:0.0 20:0.0 21:-0.3333333432674408 22:-0.3333333432674408 23:0.0 24:-0.3333333432674408 25:-0.3333333432674408 26:0.0
-0.07517528249443707 1:0.3333333432674408 2:0.0 3:-0.4000000059604645 4:1.0 5:1.0 6:0.0 7:1.0 8:-1.0 9:-1.0 10:0.0 11:-1.0 12:0.0 13:-0.8915084004402161 14:-0.9887504577636719 15:-0.9994851350784302 16:-1.0 17:0.0 18:0.0 19:0.0 20:-1.0 21:-1.0 22:-1.0 23:-1.0 24:-1.0 25:-1.0 26:0.0
0.07517528249443707 1:-1.0 2:0.0 3:-1.0 4:-1.0 5:-1.0 6:0.0 7:-1.0 8:-1.0 9:-1.0 10:0.0 11:-1.0 12:0.0 13:0.43075165152549744 14:-0.9915995001792908 15:-0.9999387860298157 16:-1.0 17:0.0 18:0.0 19:0.0 20:0.0 21:-1.0 22:-1.0 23:-1.0 24:-1.0 25:-1.0 26:0.0
-0.07517528249443707 1:-1.0 2:0.0 3:-1.0 4:-1.0 5:-1.0 6:0.0 7:-1.0 8:-1.0 9:-1.0 10:0.0 11:-1.0 12:0.0 13:-0.7151862382888794 14:-0.8583869934082031 15:-0.982398509979248 16:1.0 17:0.0 18:0.0 19:0.0 20:0.0 21:1.0 22:-0.3333333432674408 23:0.0 24:-0.3333333432674408 25:-0.3333333432674408 26:0.0
0.07517528249443707 1:-0.3333333432674408 2:0.0 3:0.30000001192092896 4:0.0 5:1.0 6:0.0 7:1.0 8:-1.0 9:-1.0 10:0.0 11:-1.0 12:0.0 13:0.5294865369796753 14:-0.9969908595085144 15:-0.9999819993972778 16:-1.0 17:0.0 18:0.0 19:0.0 20:-1.0 21:-1.0 22:-1.0 23:-1.0 24:-1.0 25:-1.0 26:0.0
-0.07517528249443707 1:-0.3333333432674408 2:0.0 3:0.10000000149011612 4:0.0 5:1.0 6:0.0 7:1.0 8:1.0 9:1.0 10:0.0 11:1.0 12:0.0 13:-0.12998095154762268 14:-0.9849461913108826 15:-0.9995657801628113 16:-1.0 17:0.0 18:0.0 19:0.0 20:-1.0 21:-1.0 22:-1.0 23:-1.0 24:-1.0 25:-1.0 26:0.0
-0.07517528249443707 1:-0.3333333432674408 2:0.0 3:-0.5 4:0.0 5:1.0 6:0.0 7:1.0 8:-1.0 9:-1.0 10:0.0 11:-1.0 12:0.0 13:0.34811127185821533 14:-0.9709954261779785 15:-0.9981487393379211 16:-1.0 17:0.0 18:0.0 19:0.0 20:-1.0 21:-1.0 22:-1.0 23:-1.0 24:-1.0 25:-1.0 26:0.0
-0.07517528249443707 1:0.3333333432674408 2:0.0 3:-0.5 4:0.0 5:-1.0 6:0.0 7:1.0 8:-1.0 9:-1.0 10:0.0 11:-1.0 12:0.0 13:0.5556720495223999 14:-0.994999349117279 15:-0.9999760389328003 16:1.0 17:0.0 18:0.0 19:0.0 20:1.0 21:-0.3333333432674408 22:0.3333333432674408 23:1.0 24:-0.3333333432674408 25:0.3333333432674408 26:0.0
-0.07517528249443707 1:0.3333333432674408 2:0.0 3:-0.5 4:1.0 5:-1.0 6:0.0 7:-1.0 8:-1.0 9:-1.0 10:0.0 11:-1.0 12:0.0 13:0.23406007885932922 14:-0.9886966943740845 15:-0.9999080300331116 16:1.0 17:0.0 18:0.0 19:0.0 20:1.0 21:-1.0 22:-0.3333333432674408 23:0.0 24:-0.3333333432674408 25:-0.3333333432674408 26:0.0
-0.07517528249443707 1:-0.3333333432674408 2:0.0 3:-0.699999988079071 4:0.0 5:-1.0 6:0.0 7:-1.0 8:-1.0 9:-1.0 10:0.0 11:-1.0 12:0.0 13:-0.7087584733963013 14:-0.8890441060066223 15:-0.9735464453697205 16:-1.0 17:0.0 18:0.0 19:0.0 20:0.0 21:0.3333333432674408 22:0.3333333432674408 23:1.0 24:0.3333333432674408 25:0.3333333432674408 26:0.0
0.07517528249443707 1:-1.0 2:0.0 3:-1.0 4:-1.0 5:-1.0 6:0.0 7:-1.0 8:-1.0 9:-1.0 10:0.0 11:-1.0 12:0.0 13:-0.03687877207994461 14:-0.9965113401412964 15:-0.9999817609786987 16:-1.0 17:0.0 18:0.0 19:0.0 20:-1.0 21:-1.0 22:-1.0 23:-1.0 24:-1.0 25:-1.0 26:0.0
0.07517528249443707 1:-0.3333333432674408 2:0.0 3:-0.6000000238418579 4:0.0 5:-1.0 6:0.0 7:-1.0 8:-1.0 9:-1.0 10:0.0 11:-1.0 12:0.0 13:-0.04134392365813255 14:-0.997309148311615 15:-0.999958336353302 16:1.0 17:0.0 18:0.0 19:0.0 20:-1.0 21:-1.0 22:-1.0 23:-1.0 24:-1.0 25:-1.0 26:0.0
0.07517528249443707 1:-0.3333333432674408 2:0.0 3:-0.30000001192092896 4:0.0 5:1.0 6:0.0 7:1.0 8:1.0 9:1.0 10:0.0 11:1.0 12:0.0 13:0.2675735354423523 14:-0.9519878029823303 15:-0.9889565110206604 16:-1.0 17:0.0 18:0.0 19:0.0 20:-1.0 21:-0.3333333432674408 22:-1.0 23:-1.0 24:-0.3333333432674408 25:-1.0 26:0.0
-0.07517528249443707 1:-0.3333333432674408 2:0.0 3:-0.10000000149011612 4:0.0 5:-1.0 6:0.0 7:-1.0 8:-1.0 9:-1.0 10:0.0 11:-1.0 12:0.0 13:-0.09519578516483307 14:-0.9918021559715271 15:-0.9999310970306396 16:-1.0 17:0.0 18:0.0 19:0.0 20:-1.0 21:-1.0 22:-1.0 23:-1.0 24:-1.0 25:-1.0 26:0.0
-0.07517528249443707 1:-0.3333333432674408 2:0.0 3:-0.30000001192092896 4:0.0 5:1.0 6:0.0 7:1.0 8:1.0 9:1.0 10:0.0 11:1.0 12:0.0 13:0.9773642420768738 14:-0.8148395419120789 15:-0.8329355716705322 16:1.0 17:0.0 18:0.0 19:0.0 20:-1.0 21:-1.0 22:-1.0 23:-1.0 24:-1.0 25:-1.0 26:0.0
-0.07517528249443707 1:-0.3333333432674408 2:0.0 3:-0.699999988079071 4:0.0 5:1.0 6:0.0 7:-1.0 8:-1.0 9:-1.0 10:0.0 11:1.0 12:0.0 13:-0.14103646576404572 14:-0.9062448143959045 15:-0.9963549375534058 16:1.0 17:0.0 18:0.0 19:0.0 20:-1.0 21:-1.0 22:-1.0 23:-1.0 24:-1.0 25:-1.0 26:0.0
-0.07517528249443707 1:-0.3333333432674408 2:0.0 3:0.30000001192092896 4:0.0 5:1.0 6:0.0 7:1.0 8:-1.0 9:-1.0 10:0.0 11:-1.0 12:0.0 13:-0.8892202973365784 14:-0.9247000813484192 15:-0.9445623159408569 16:1.0 17:0.0 18:0.0 19:0.0 20:-1.0 21:-1.0 22:-1.0 23:-1.0 24:-1.0 25:-1.0 26:0.0
0.07517528249443707 1:-0.3333333432674408 2:0.0 3:0.6000000238418579 4:0.0 5:1.0 6:0.0 7:-1.0 8:-1.0 9:-1.0 10:0.0 11:1.0 12:0.0 13:-0.7026625275611877 14:-0.9247674942016602 15:-0.9863134026527405 16:-1.0 17:0.0 18:0.0 19:0.0 20:0.0 21:-0.3333333432674408 22:-0.3333333432674408 23:0.0 24:-0.3333333432674408 25:-0.3333333432674408 26:0.0
0.07517528249443707 1:0.3333333432674408 2:0.0 3:-0.30000001192092896 4:0.0 5:-1.0 6:0.0 7:-1.0 8:-1.0 9:-1.0 10:0.0 11:-1.0 12:0.0 13:-0.33495861291885376 14:-0.9823881387710571 15:-0.9995052218437195 16:1.0 17:0.0 18:0.0 19:0.0 20:1.0 21:0.3333333432674408 22:-0.3333333432674408 23:1.0 24:0.3333333432674408 25:-0.3333333432674408 26:0.0
0.07517528249443707 1:-0.3333333432674408 2:0.0 3:-0.10000000149011612 4:0.0 5:-1.0 6:0.0 7:-1.0 8:-1.0 9:-1.0 10:0.0 11:-1.0 12:0.0 13:-0.5234159231185913 14:-0.996126651763916 15:-0.9999382495880127 16:1.0 17:0.0 18:0.0 19:0.0 20:0.0 21:-0.3333333432674408 22:-1.0 23:0.0 24:-0.3333333432674408 25:-1.0 26:0.0
0.07517528249443707 1:0.3333333432674408 2:0.0 3:-0.10000000149011612 4:0.0 5:-1.0 6:0.0 7:-1.0 8:-1.0 9:-1.0 10:0.0 11:-1.0 12:0.0 13:-0.5780889391899109 14:-0.8010045289993286 15:-0.9845300316810608 16:1.0 17:0.0 18:0.0 19:0.0 20:0.0 21:0.3333333432674408 22:0.3333333432674408 23:1.0 24:1.0 25:0.3333333432674408 26:0.0
-0.07517528249443707 1:0.3333333432674408 2:0.0 3:-0.699999988079071 4:1.0 5:-1.0 6:0.0 7:-1.0 8:-1.0 9:-1.0 10:0.0 11:-1.0 12:0.0 13:0.5237081050872803 14:-0.9686629772186279 15:-0.9786607623100281 16:1.0 17:0.0 18:0.0 19:0.0 20:1.0 21:0.3333333432674408 22:0.3333333432674408 23:1.0 24:0.3333333432674408 25:0.3333333432674408 26:0.0
0.07517528249443707 1:-1.0 2:0.0 3:-1.0 4:-1.0 5:1.0 6:0.0 7:1.0 8:-1.0 9:-1.0 10:0.0 11:-1.0 12:0.0 13:-0.8838757872581482 14:-0.9763103127479553 15:-0.9978924989700317 16:1.0 17:0.0 18:0.0 19:0.0 20:-1.0 21:-1.0 22:-1.0 23:-1.0 24:-1.0 25:-1.0 26:0.0
0.07517528249443707 1:0.3333333432674408 2:0.0 3:-0.30000001192092896 4:0.0 5:1.0 6:0.0 7:-1.0 8:-1.0 9:-1.0 10:0.0 11:-1.0 12:0.0 13:-0.2194197028875351 14:-0.9869885444641113 15:-0.9996005892753601 16:1.0 17:0.0 18:0.0 19:0.0 20:-1.0 21:-1.0 22:-1.0 23:-1.0 24:-1.0 25:-1.0 26:0.0
-0.07517528249443707 1:-1.0 2:0.0 3:-1.0 4:-1.0 5:-1.0 6:0.0 7:-1.0 8:-1.0 9:-1.0 10:0.0 11:-1.0 12:0.0 13:-0.6103739142417908 14:-0.99423748254776 15:-0.9999686479568481 16:-1.0 17:0.0 18:0.0 19:0.0 20:0.0 21:-0.3333333432674408 22:-1.0 23:-1.0 24:-0.3333333432674408 25:-1.0 26:0.0
-0.07517528249443707 1:-0.3333333432674408 2:0.0 3:0.4000000059604645 4:0.0 5:-1.0 6:0.0 7:-1.0 8:-1.0 9:-1.0 10:0.0 11:-1.0 12:0.0 13:-0.4134887754917145 14:-0.6324233412742615 15:-0.9251807928085327 16:-1.0 17:0.0 18:0.0 19:0.0 20:0.0 21:-0.3333333432674408 22:-1.0 23:0.0 24:-0.3333333432674408 25:-1.0 26:0.0
-0.07517528249443707 1:-0.3333333432674408 2:0.0 3:0.20000000298023224 4:0.0 5:-1.0 6:0.0 7:-1.0 8:-1.0 9:-1.0 10:0.0 11:-1.0 12:0.0 13:-0.34727585315704346 14:-0.993462860584259 15:-0.9999579191207886 16:-1.0 17:0.0 18:0.0 19:0.0 20:-1.0 21:-1.0 22:-1.0 23:-1.0 24:-1.0 25:-1.0 26:0.0
0.07517528249443707 1:-0.3333333432674408 2:0.0 3:-0.10000000149011612 4:0.0 5:-1.0 6:0.0 7:-1.0 8:-1.0 9:-1.0 10:0.0 11:-1.0 12:0.0 13:0.14341631531715393 14:-0.9899578094482422 15:-0.9998810887336731 16:1.0 17:0.0 18:0.0 19:0.0 20:0.0 21:-0.3333333432674408 22:-0.3333333432674408 23:0.0 24:-1.0 25:-0.3333333432674408 26:0.0
0.07517528249443707 1:-0.3333333432674408 2:0.0 3:-0.4000000059604645 4:0.0 5:1.0 6:0.0 7:-1.0 8:-1.0 9:-1.0 10:0.0 11:-1.0 12:0.0 13:-0.6739780902862549 14:-0.9847148656845093 15:-0.9994499683380127 16:1.0 17:0.0 18:0.0 19:0.0 20:-1.0 21:-1.0 22:-1.0 23:-1.0 24:-1.0 25:-1.0 26:0.0
-0.07517528249443707 1:0.3333333432674408 2:0.0 3:-0.30000001192092896 4:0.0 5:-1.0 6:0.0 7:-1.0 8:-1.0 9:-1.0 10:0.0 11:-1.0 12:0.0 13:-0.13455745577812195 14:-0.9919440150260925 15:-0.9991129040718079 16:1.0 17:0.0 18:0.0 19:0.0 20:-1.0 21:-1.0 22:-1.0 23:-1.0 24:-1.0 25:-1.0 26:0.0
0.07517528249443707 1:-0.3333333432674408 2:0.0 3:-0.6000000238418579 4:0.0 5:-1.0 6:0.0 7:-1.0 8:-1.0 9:-1.0 10:0.0 11:-1.0 12:0.0 13:-0.17508891224861145 14:0.9966490268707275 15:0.6521012187004089 16:-1.0 17:0.0 18:0.0 19:0.0 20:0.0 21:-0.3333333432674408 22:-1.0 23:-1.0 24:-0.3333333432674408 25:-1.0 26:0.0
-0.07517528249443707 1:-1.0 2:0.0 3:-1.0 4:-1.0 5:1.0 6:0.0 7:-1.0 8:-1.0 9:-1.0 10:0.0 11:1.0 12:0.0 13:-0.15340834856033325 14:-0.9914751648902893 15:-0.9998157620429993 16:1.0 17:0.0 18:0.0 19:0.0 20:-1.0 21:-1.0 22:-1.0 23:-1.0 24:-1.0 25:-1.0 26:0.0
0.07517528249443707 1:-0.3333333432674408 2:0.0 3:-0.30000001192092896 4:0.0 5:-1.0 6:0.0 7:1.0 8:-1.0 9:-1.0 10:0.0 11:-1.0 12:0.0 13:-0.7875413298606873 14:-0.9910860657691956 15:-0.9996386170387268 16:-1.0 17:0.0 18:0.0 19:0.0 20:0.0 21:-1.0 22:-0.3333333432674408 23:0.0 24:-0.3333333432674408 25:-0.3333333432674408 26:0.0
-0.07517528249443707 1:-0.3333333432674408 2:0.0 3:0.10000000149011612 4:0.0 5:1.0 6:0.0 7:1.0 8:-1.0 9:-1.0 10:0.0 11:-1.0 12:0.0 13:-0.09394101798534393 14:-0.9856664538383484 15:-0.9995120167732239 16:1.0 17:0.0 18:0.0 19:0.0 20:0.0 21:-0.3333333432674408 22:-0.3333333432674408 23:0.0 24:-0.3333333432674408 25:-0.3333333432674408 26:0.0
0.07517528249443707 1:-1.0 2:0.0 3:-1.0 4:-1.0 5:-1.0 6:0.0 7:-1.0 8:-1.0 9:-1.0 10:0.0 11:-1.0 12:0.0 13:-0.952357292175293 14:-0.9400863647460938 15:-0.9189109802246094 16:-1.0 17:0.0 18:0.0 19:0.0 20:-1.0 21:-1.0 22:-1.0 23:-1.0 24:-1.0 25:-1.0 26:0.0
-0.07517528249443707 1:-0.3333333432674408 2:0.0 3:-0.5 4:0.0 5:-1.0 6:0.0 7:-1.0 8:-1.0 9:-1.0 10:0.0 11:1.0 12:0.0 13:-0.5777022838592529 14:-0.8808534145355225 15:-0.9315001368522644 16:1.0 17:0.0 18:0.0 19:0.0 20:0.0 21:-1.0 22:-1.0 23:0.0 24:-0.3333333432674408 25:-0.3333333432674408 26:0.0
0.07517528249443707 1:-0.3333333432674408 2:0.0 3:-0.5 4:0.0 5:1.0 6:0.0 7:-1.0 8:-1.0 9:-1.0 10:0.0 11:-1.0 12:0.0 13:-0.2992798089981079 14:-0.9724034667015076 15:-0.9969791173934937 16:1.0 17:0.0 18:0.0 19:0.0 20:-1.0 21:-1.0 22:-1.0 23:-1.0 24:-1.0 25:-1.0 26:0.0
0.07517528249443707 1:-1.0 2:0.0 3:-1.0 4:-1.0 5:-1.0 6:0.0 7:-1.0 8:-1.0 9:-1.0 10:0.0 11:-1.0 12:0.0 13:0.7688050866127014 14:-0.9207141995429993 15:-0.9911237955093384 16:-1.0 17:0.0 18:0.0 19:0.0 20:0.0 21:-1.0 22:-0.3333333432674408 23:0.0 24:-0.3333333432674408 25:-0.3333333432674408 26:0.0
-0.07517528249443707 1:-0.3333333432674408 2:0.0 3:-0.6000000238418579 4:0.0 5:1.0 6:0.0 7:1.0 8:-1.0 9:-1.0 10:0.0 11:-1.0 12:0.0 13:-0.6114487051963806 14:-0.9631332755088806 15:-0.9940358400344849 16:-1.0 17:0.0 18:0.0 19:0.0 20:-1.0 21:-0.3333333432674408 22:-0.3333333432674408 23:-1.0 24:-0.3333333432674408 25:-0.3333333432674408 26:0.0
-0.07517528249443707 1:-0.3333333432674408 2:0.0 3:0.20000000298023224 4:0.0 5:1.0 6:0.0 7:1.0 8:-1.0 9:-1.0 10:0.0 11:-1.0 12:0.0 13:-0.4204252362251282 14:-0.9798392057418823 15:-0.9996260404586792 16:-1.0 17:0.0 18:0.0 19:0.0 20:0.0 21:-0.3333333432674408 22:-0.3333333432674408 23:0.0 24:-0.3333333432674408 25:-0.3333333432674408 26:0.0
-0.07517528249443707 1:-0.3333333432674408 2:0.0 3:0.10000000149011612 4:0.0 5:1.0 6:0.0 7:1.0 8:-1.0 9:-1.0 10:0.0 11:-1.0 12:0.0 13:0.5255158543586731 14:-0.9959025382995605 15:-0.9999662041664124 16:1.0 17:0.0 18:0.0 19:0.0 20:-1.0 21:-1.0 22:-1.0 23:0.0 24:-0.3333333432674408 25:-1.0 26:0.0
-0.07517528249443707 1:-0.3333333432674408 2:0.0 3:0.0 4:0.0 5:-1.0 6:0.0 7:-1.0 8:-1.0 9:-1.0 10:0.0 11:-1.0 12:0.0 13:-0.7263498902320862 14:-0.9609525799751282 15:-0.9976415038108826 16:-1.0 17:0.0 18:0.0 19:0.0 20:0.0 21:-1.0 22:-1.0 23:-1.0 24:-1.0 25:-1.0 26:0.0
-0.07517528249443707 1:-0.3333333432674408 2:0.0 3:0.0 4:0.0 5:1.0 6:0.0 7:-1.0 8:-1.0 9:-1.0 10:0.0 11:-1.0 12:0.0 13:-0.8170526623725891 14:-0.9917115569114685 15:-0.9998601078987122 16:-1.0 17:0.0 18:0.0 19:0.0 20:-1.0 21:-1.0 22:-1.0 23:-1.0 24:-1.0 25:-1.0 26:0.0
0.07517528249443707 1:-0.3333333432674408 2:0.0 3:-0.10000000149011612 4:0.0 5:1.0 6:0.0 7:-1.0 8:-1.0 9:-1.0 10:0.0 11:-1.0 12:0.0 13:-0.40716150403022766 14:-0.9848710298538208 15:-0.9994553923606873 16:1.0 17:0.0 18:0.0 19:0.0 20:-1.0 21:-1.0 22:-1.0 23:-1.0 24:-1.0 25:-1.0 26:0.0
0.07517528249443707 1:-1.0 2:0.0 3:-1.0 4:-1.0 5:-1.0 6:0.0 7:-1.0 8:-1.0 9:-1.0 10:0.0 11:-1.0 12:0.0 13:-0.2674773931503296 14:-0.9355593919754028 15:-0.9844011664390564 16:1.0 17:0.0 18:0.0 19:0.0 20:0.0 21:-1.0 22:-1.0 23:0.0 24:-1.0 25:-1.0 26:0.0
-0.07517528249443707 1:-1.0 2:0.0 3:-1.0 4:-1.0 5:-1.0 6:0.0 7:-1.0 8:-1.0 9:-1.0 10:0.0 11:-1.0 12:0.0 13:-0.338039755821228 14:-0.9962201118469238 15:-0.9999532103538513 16:1.0 17:0.0 18:0.0 19:0.0 20:0.0 21:-1.0 22:-1.0 23:-1.0 24:-1.0 25:-1.0 26:0.0
0.07517528249443707 1:-0.3333333432674408 2:0.0 3:-0.4000000059604645 4:0.0 5:1.0 6:0.0 7:1.0 8:-1.0 9:-1.0 10:0.0 11:-1.0 12:0.0 13:0.07980607450008392 14:-0.9967659711837769 15:-0.9999789595603943 16:-1.0 17:0.0 18:0.0 19:0.0 20:0.0 21:-0.3333333432674408 22:-0.3333333432674408 23:0.0 24:-0.3333333432674408 25:-0.3333333432674408 26:0.0
-0.07517528249443707 1:-0.3333333432674408 2:0.0 3:0.0 4:0.0 5:-1.0 6:0.0 7:-1.0 8:-1.0 9:-1.0 10:0.0 11:-1.0 12:0.0 13:-0.006356666795909405 14:-0.3549897074699402 15:0.44492053985595703 16:-1.0 17:0.0 18:0.0 19:0.0 20:0.0 21:-1.0 22:-0.3333333432674408 23:0.0 24:-0.3333333432674408 25:-0.3333333432674408 26:0.0
0.07517528249443707 1:-0.3333333432674408 2:0.0 3:-0.5 4:0.0 5:1.0 6:0.0 7:1.0 8:-1.0 9:-1.0 10:0.0 11:-1.0 12:0.0 13:-0.6197871565818787 14:-0.9875580668449402 15:-0.9973415732383728 16:1.0 17:0.0 18:0.0 19:0.0 20:-1.0 21:-1.0 22:-1.0 23:-1.0 24:-1.0 25:-1.0 26:0.0
0.07517528249443707 1:-0.3333333432674408 2:0.0 3:0.4000000059604645 4:0.0 5:1.0 6:0.0 7:1.0 8:-1.0 9:-1.0 10:0.0 11:-1.0 12:0.0 13:0.3341085910797119 14:-0.9947792291641235 15:-0.9999428987503052 16:-1.0 17:0.0 18:0.0 19:0.0 20:-1.0 21:-1.0 22:-1.0 23:-1.0 24:-1.0 25:-1.0 26:0.0
-0.07517528249443707 1:-1.0 2:0.0 3:-1.0 4:-1.0 5:-1.0 6:0.0 7:-1.0 8:-1.0 9:-1.0 10:0.0 11:-1.0 12:0.0 13:-0.10415112227201462 14:-0.9304736256599426 15:-0.9966223239898682 16:1.0 17:0.0 18:0.0 19:0.0 20:-1.0 21:-0.3333333432674408 22:-1.0 23:-1.0 24:-1.0 25:-1.0 26:0.0
-0.07517528249443707 1:-0.3333333432674408 2:0.0 3:0.10000000149011612 4:0.0 5:1.0 6:0.0 7:-1.0 8:-1.0 9:-1.0 10:0.0 11:1.0 12:0.0 13:-0.7919290661811829 14:-0.9632582068443298 15:-0.9954774379730225 16:-1.0 17:0.0 18:0.0 19:0.0 20:0.0 21:-0.3333333432674408 22:-0.3333333432674408 23:1.0 24:-0.3333333432674408 25:-0.3333333432674408 26:0.0
-0.07517528249443707 1:-0.3333333432674408 2:0.0 3:-0.30000001192092896 4:0.0 5:1.0 6:0.0 7:1.0 8:-1.0 9:-1.0 10:0.0 11:-1.0 12:0.0 13:-0.8664290308952332 14:-0.9105769991874695 15:-0.9685661196708679 16:-1.0 17:0.0 18:0.0 19:0.0 20:0.0 21:-1.0 22:-1.0 23:-1.0 24:-1.0 25:-1.0 26:0.0
0.07517528249443707 1:-0.3333333432674408 2:0.0 3:0.0 4:0.0 5:-1.0 6:0.0 7:-1.0 8:-1.0 9:-1.0 10:0.0 11:-1.0 12:0.0 13:-0.37393662333488464 14:-0.9811690449714661 15:-0.9991992712020874 16:1.0 17:0.0 18:0.0 19:0.0 20:0.0 21:-0.3333333432674408 22:0.3333333432674408 23:1.0 24:0.3333333432674408 25:0.3333333432674408 26:0.0
0.07517528249443707 1:-0.3333333432674408 2:0.0 3:-0.699999988079071 4:0.0 5:-1.0 6:0.0 7:-1.0 8:-1.0 9:-1.0 10:0.0 11:-1.0 12:0.0 13:0.014524663798511028 14:-0.962468147277832 15:-0.9974388480186462 16:1.0 17:0.0 18:0.0 19:0.0 20:0.0 21:-0.3333333432674408 22:-0.3333333432674408 23:0.0 24:-0.3333333432674408 25:-0.3333333432674408 26:0.0
0.07517528249443707 1:-0.3333333432674408 2:0.0 3:-0.4000000059604645 4:0.0 5:-1.0 6:0.0 7:-1.0 8:-1.0 9:-1.0 10:0.0 11:-1.0 12:0.0 13:0.16415341198444366 14:-0.9869122505187988 15:-0.999887228012085 16:1.0 17:0.0 18:0.0 19:0.0 20:-1.0 21:-1.0 22:-1.0 23:-1.0 24:-1.0 25:-1.0 26:0.0
-0.07517528249443707 1:-1.0 2:0.0 3:-1.0 4:-1.0 5:-1.0 6:0.0 7:-1.0 8:-1.0 9:-1.0 10:0.0 11:-1.0 12:0.0 13:-0.5068976283073425 14:-0.8211010694503784 15:-0.9676329493522644 16:1.0 17:0.0 18:0.0 19:0.0 20:0.0 21:-0.3333333432674408 22:-0.3333333432674408 23:0.0 24:-0.3333333432674408 25:-0.3333333432674408 26:0.0
-0.07517528249443707 1:-1.0 2:0.0 3:-1.0 4:-1.0 5:-1.0 6:0.0 7:-1.0 8:-1.0 9:-1.0 10:0.0 11:-1.0 12:0.0 13:-0.537456214427948 14:-0.877892017364502 15:-0.9828800559043884 16:1.0 17:0.0 18:0.0 19:0.0 20:0.0 21:-0.3333333432674408 22:-0.3333333432674408 23:0.0 24:-0.3333333432674408 25:-0.3333333432674408 26:0.0
-0.07517528249443707 1:-1.0 2:0.0 3:-1.0 4:-1.0 5:-1.0 6:0.0 7:-1.0 8:-1.0 9:-1.0 10:0.0 11:-1.0 12:0.0 13:-0.5671704411506653 14:-0.98517906665802 15:-0.9996167421340942 16:1.0 17:0.0 18:0.0 19:0.0 20:0.0 21:-0.3333333432674408 22:-0.3333333432674408 23:-1.0 24:0.3333333432674408 25:-0.3333333432674408 26:0.0
-0.07517528249443707 1:-0.3333333432674408 2:0.0 3:-0.6000000238418579 4:0.0 5:-1.0 6:0.0 7:-1.0 8:-1.0 9:-1.0 10:0.0 11:-1.0 12:0.0 13:0.4938753843307495 14:-0.9920920133590698 15:-0.9997619986534119 16:1.0 17:0.0 18:0.0 19:0.0 20:-1.0 21:0.3333333432674408 22:-0.3333333432674408 23:0.0 24:0.3333333432674408 25:-0.3333333432674408 26:0.0
0.07517528249443707 1:-0.3333333432674408 2:0.0 3:-0.10000000149011612 4:0.0 5:1.0 6:0.0 7:1.0 8:-1.0 9:-1.0 10:0.0 11:-1.0 12:0.0 13:-0.7990272641181946 14:-0.9731929302215576 15:-0.9849712252616882 16:-1.0 17:0.0 18:0.0 19:0.0 20:-1.0 21:-1.0 22:-1.0 23:-1.0 24:-1.0 25:-1.0 26:0.0
0.07517528249443707 1:-0.3333333432674408 2:0.0 3:0.10000000149011612 4:0.0 5:1.0 6:0.0 7:1.0 8:-1.0 9:-1.0 10:0.0 11:-1.0 12:0.0 13:-0.7529506683349609 14:-0.988731861114502 15:-0.9977626800537109 16:-1.0 17:0.0 18:0.0 19:0.0 20:-1.0 21:-1.0 22:-1.0 23:-1.0 24:-1.0 25:-1.0 26:0.0
0.07517528249443707 1:-0.3333333432674408 2:0.0 3:-0.699999988079071 4:0.0 5:1.0 6:0.0 7:1.0 8:-1.0 9:-1.0 10:0.0 11:-1.0 12:0.0 13:-0.5633436441421509 14:-0.9815337061882019 15:-0.997645914554596 16:-1.0 17:0.0 18:0.0 19:0.0 20:-1.0 21:-1.0 22:-0.3333333432674408 23:-1.0 24:-1.0 25:-0.3333333432674408 26:0.0
0.07517528249443707 1:0.3333333432674408 2:0.0 3:-0.4000000059604645 4:0.0 5:-1.0 6:0.0 7:-1.0 8:-1.0 9:-1.0 10:0.0 11:-1.0 12:0.0 13:-0.319308876991272 14:-0.9218466281890869 15:-0.9858543872833252 16:1.0 17:0.0 18:0.0 19:0.0 20:1.0 21:0.3333333432674408 22:1.0 23:1.0 24:0.3333333432674408 25:1.0 26:0.0
-0.07517528249443707 1:-0.3333333432674408 2:0.0 3:0.20000000298023224 4:0.0 5:1.0 6:0.0 7:1.0 8:-1.0 9:-1.0 10:0.0 11:-1.0 12:0.0 13:-0.7288885712623596 14:-0.9884206056594849 15:-0.9995684623718262 16:-1.0 17:0.0 18:0.0 19:0.0 20:-1.0 21:-1.0 22:-1.0 23:-1.0 24:-1.0 25:-1.0 26:0.0
-0.07517528249443707 1:-0.3333333432674408 2:0.0 3:0.6000000238418579 4:0.0 5:1.0 6:0.0 7:1.0 8:-1.0 9:-1.0 10:0.0 11:-1.0 12:0.0 13:-0.7675091028213501 14:-0.9486330151557922 15:-0.9936522245407104 16:-1.0 17:0.0 18:0.0 19:0.0 20:0.0 21:-0.3333333432674408 22:-0.3333333432674408 23:0.0 24:-0.3333333432674408 25:-0.3333333432674408 26:0.0
0.07517528249443707 1:-1.0 2:0.0 3:-1.0 4:-1.0 5:-1.0 6:0.0 7:-1.0 8:-1.0 9:-1.0 10:0.0 11:-1.0 12:0.0 13:-0.4547169804573059 14:-0.9897252917289734 15:-0.9999565482139587 16:1.0 17:0.0 18:0.0 19:0.0 20:-1.0 21:-0.3333333432674408 22:-1.0 23:-1.0 24:-1.0 25:-1.0 26:0.0
-0.07517528249443707 1:0.3333333432674408 2:0.0 3:-0.5 4:0.0 5:-1.0 6:0.0 7:-1.0 8:-1.0 9:-1.0 10:0.0 11:-1.0 12:0.0 13:0.4315674304962158 14:-0.9663969874382019 15:-0.9756641387939453 16:1.0 17:0.0 18:0.0 19:0.0 20:-1.0 21:-1.0 22:-1.0 23:-1.0 24:-1.0 25:-1.0 26:0.0
0.07517528249443707 1:-0.3333333432674408 2:0.0 3:-0.5 4:0.0 5:1.0 6:0.0 7:-1.0 8:-1.0 9:-1.0 10:0.0 11:-1.0 12:0.0 13:-0.6418500542640686 14:-0.9590743184089661 15:-0.9967268705368042 16:-1.0 17:0.0 18:0.0 19:0.0 20:0.0 21:-0.3333333432674408 22:-1.0 23:-1.0 24:-0.3333333432674408 25:-1.0 26:0.0
-0.07517528249443707 1:-1.0 2:0.0 3:-1.0 4:-1.0 5:1.0 6:0.0 7:-1.0 8:-1.0 9:-1.0 10:0.0 11:-1.0 12:0.0 13:-0.8506073951721191 14:-0.9769167304039001 15:-0.9989152550697327 16:-1.0 17:0.0 18:0.0 19:0.0 20:-1.0 21:-1.0 22:-0.3333333432674408 23:-1.0 24:-1.0 25:-0.3333333432674408 26:0.0
0.052584446248502115 1:-0.3333333432674408 2:0.0 3:-0.4000000059604645 4:0.0 5:-1.0 6:0.0 7:-1.0 8:-1.0 9:-1.0 10:0.0 11:-1.0 12:0.0 13:-0.019702773541212082 14:-0.9944781064987183 15:-0.9999574422836304 16:1.0 17:0.0 18:0.0 19:0.0 20:0.0 21:-1.0 22:-0.3333333432674408 23:0.0 24:-0.3333333432674408 25:-0.3333333432674408 26:0.0
-0.07517528249443707 1:1.0 2:0.0 3:-0.30000001192092896 4:0.0 5:-1.0 6:0.0 7:-1.0 8:-1.0 9:-1.0 10:0.0 11:-1.0 12:0.0 13:-0.7524336576461792 14:-0.9597967863082886 15:-0.9901056885719299 16:1.0 17:0.0 18:0.0 19:0.0 20:1.0 21:-0.3333333432674408 22:-0.3333333432674408 23:1.0 24:0.3333333432674408 25:-0.3333333432674408 26:0.0
0.07517528249443707 1:-1.0 2:0.0 3:-1.0 4:-1.0 5:1.0 6:0.0 7:-1.0 8:-1.0 9:-1.0 10:0.0 11:-1.0 12:0.0 13:-0.9181292653083801 14:-0.9145894646644592 15:-0.8421347141265869 16:-1.0 17:0.0 18:0.0 19:0.0 20:-1.0 21:-1.0 22:-1.0 23:-1.0 24:-1.0 25:-1.0 26:0.0
-0.07517528249443707 1:-1.0 2:0.0 3:-1.0 4:-1.0 5:1.0 6:0.0 7:-1.0 8:-1.0 9:-1.0 10:0.0 11:-1.0 12:0.0 13:0.6316512227058411 14:-0.9941579699516296 15:-0.9999690651893616 16:1.0 17:0.0 18:0.0 19:0.0 20:-1.0 21:-0.3333333432674408 22:-1.0 23:-1.0 24:-1.0 25:-1.0 26:0.0
0.07517528249443707 1:-0.3333333432674408 2:0.0 3:-0.6000000238418579 4:0.0 5:1.0 6:0.0 7:-1.0 8:-1.0 9:-1.0 10:0.0 11:-1.0 12:0.0 13:-0.40021154284477234 14:-0.9466899633407593 15:-0.9975314736366272 16:1.0 17:0.0 18:0.0 19:0.0 20:-1.0 21:-1.0 22:-1.0 23:-1.0 24:-1.0 25:-1.0 26:0.0
0.07517528249443707 1:-1.0 2:0.0 3:-1.0 4:-1.0 5:-1.0 6:0.0 7:-1.0 8:-1.0 9:-1.0 10:0.0 11:-1.0 12:0.0 13:0.009381386451423168 14:-0.9672678112983704 15:-0.9940316677093506 16:1.0 17:0.0 18:0.0 19:0.0 20:-1.0 21:-1.0 22:-1.0 23:-1.0 24:-1.0 25:-1.0 26:0.0
-0.07517528249443707 1:-0.3333333432674408 2:0.0 3:0.5 4:0.0 5:1.0 6:0.0 7:-1.0 8:-1.0 9:-1.0 10:0.0 11:-1.0 12:0.0 13:-0.06247352436184883 14:-0.9897553324699402 15:-0.9998447895050049 16:1.0 17:0.0 18:0.0 19:0.0 20:0.0 21:-1.0 22:-1.0 23:-1.0 24:-1.0 25:-1.0 26:0.0
0.07517528249443707 1:-0.3333333432674408 2:0.0 3:-0.30000001192092896 4:0.0 5:-1.0 6:0.0 7:-1.0 8:-1.0 9:-1.0 10:0.0 11:-1.0 12:0.0 13:-0.7990853786468506 14:-0.9760643839836121 15:-0.9976857900619507 16:-1.0 17:0.0 18:0.0 19:0.0 20:-1.0 21:-0.3333333432674408 22:-0.3333333432674408 23:0.0 24:-0.3333333432674408 25:-0.3333333432674408 26:0.0
0.07517528249443707 1:-0.3333333432674408 2:0.0 3:-0.10000000149011612 4:0.0 5:1.0 6:0.0 7:-1.0 8:-1.0 9:-1.0 10:0.0 11:-1.0 12:0.0 13:-0.31069329380989075 14:-0.9035230875015259 15:-0.9915837645530701 16:1.0 17:0.0 18:0.0 19:0.0 20:-1.0 21:-1.0 22:-1.0 23:-1.0 24:-1.0 25:-1.0 26:0.0
-0.07517528249443707 1:0.3333333432674408 2:0.0 3:-0.20000000298023224 4:0.0 5:1.0 6:0.0 7:-1.0 8:-1.0 9:-1.0 10:0.0 11:-1.0 12:0.0 13:0.06902018934488297 14:-0.9818217754364014 15:-0.9996833205223083 16:1.0 17:0.0 18:0.0 19:0.0 20:-1.0 21:-1.0 22:-1.0 23:-1.0 24:-1.0 25:-1.0 26:0.0
-0.07517528249443707 1:0.3333333432674408 2:0.0 3:0.6000000238418579 4:0.0 5:-1.0 6:0.0 7:-1.0 8:-1.0 9:-1.0 10:0.0 11:-1.0 12:0.0 13:-0.19336065649986267 14:-0.9594228267669678 15:-0.9981065988540649 16:1.0 17:0.0 18:0.0 19:0.0 20:-1.0 21:-1.0 22:-1.0 23:-1.0 24:-1.0 25:-1.0 26:0.0
-0.07517528249443707 1:0.3333333432674408 2:0.0 3:0.800000011920929 4:0.0 5:-1.0 6:0.0 7:-1.0 8:-1.0 9:-1.0 10:0.0 11:-1.0 12:0.0 13:-0.3390636444091797 14:-0.9936549663543701 15:-0.9998743534088135 16:1.0 17:0.0 18:0.0 19:0.0 20:-1.0 21:-1.0 22:-1.0 23:-1.0 24:-1.0 25:-1.0 26:0.0
-0.07517528249443707 1:-0.3333333432674408 2:0.0 3:-0.800000011920929 4:0.0 5:1.0 6:0.0 7:1.0 8:-1.0 9:-1.0 10:0.0 11:-1.0 12:0.0 13:0.9210878610610962 14:-0.9875126481056213 15:-0.9989510774612427 16:1.0 17:0.0 18:0.0 19:0.0 20:-1.0 21:-1.0 22:-1.0 23:-1.0 24:-1.0 25:-1.0 26:0.0
0.07517528249443707 1:-1.0 2:0.0 3:-1.0 4:-1.0 5:-1.0 6:0.0 7:-1.0 8:-1.0 9:-1.0 10:0.0 11:-1.0 12:0.0 13:-0.7113986611366272 14:-0.882007360458374 15:-0.9603145122528076 16:-1.0 17:0.0 18:0.0 19:0.0 20:-1.0 21:-1.0 22:-0.3333333432674408 23:0.0 24:-0.3333333432674408 25:-0.3333333432674408 26:0.0
0.07517528249443707 1:-1.0 2:0.0 3:-1.0 4:-1.0 5:-1.0 6:0.0 7:-1.0 8:-1.0 9:-1.0 10:0.0 11:-1.0 12:0.0 13:-0.7033038139343262 14:-0.7073419690132141 15:-0.9445986151695251 16:-1.0 17:0.0 18:0.0 19:0.0 20:0.0 21:-0.3333333432674408 22:-0.3333333432674408 23:0.0 24:-0.3333333432674408 25:-0.3333333432674408 26:0.0
0.07517528249443707 1:-1.0 2:0.0 3:-1.0 4:-1.0 5:-1.0 6:0.0 7:1.0 8:-1.0 9:-1.0 10:0.0 11:-1.0 12:0.0 13:-0.7612389326095581 14:-0.9767211079597473 15:-0.998716413974762 16:-1.0 17:0.0 18:0.0 19:0.0 20:0.0 21:-0.3333333432674408 22:-0.3333333432674408 23:0.0 24:-0.3333333432674408 25:-0.3333333432674408 26:0.0
0.07517528249443707 1:-1.0 2:0.0 3:-1.0 4:-1.0 5:-1.0 6:0.0 7:-1.0 8:-1.0 9:-1.0 10:0.0 11:-1.0 12:0.0 13:-0.41564425826072693 14:-0.9920221567153931 15:-0.9999719858169556 16:-1.0 17:0.0 18:0.0 19:0.0 20:0.0 21:-0.3333333432674408 22:-0.3333333432674408 23:0.0 24:-0.3333333432674408 25:-0.3333333432674408 26:0.0
-0.07517528249443707 1:-1.0 2:0.0 3:-1.0 4:-1.0 5:-1.0 6:0.0 7:-1.0 8:-1.0 9:-1.0 10:0.0 11:-1.0 12:0.0 13:-0.9178988337516785 14:-0.9818978309631348 15:-0.9990153908729553 16:-1.0 17:0.0 18:0.0 19:0.0 20:0.0 21:-0.3333333432674408 22:-0.3333333432674408 23:0.0 24:-0.3333333432674408 25:-0.3333333432674408 26:0.0
0.07517528249443707 1:-0.3333333432674408 2:0.0 3:-0.699999988079071 4:0.0 5:1.0 6:0.0 7:-1.0 8:-1.0 9:-1.0 10:0.0 11:-1.0 12:0.0 13:-0.549131453037262 14:-0.967540979385376 15:-0.9803285002708435 16:1.0 17:0.0 18:0.0 19:0.0 20:-1.0 21:-1.0 22:-1.0 23:-1.0 24:-1.0 25:-1.0 26:0.0
-0.07517528249443707 1:-0.3333333432674408 2:0.0 3:-0.800000011920929 4:0.0 5:-1.0 6:0.0 7:1.0 8:-1.0 9:-1.0 10:0.0 11:-1.0 12:0.0 13:0.16715900599956512 14:-0.9915542006492615 15:-0.9999204277992249 16:-1.0 17:0.0 18:0.0 19:0.0 20:0.0 21:-0.3333333432674408 22:-0.3333333432674408 23:0.0 24:-0.3333333432674408 25:-0.3333333432674408 26:0.0
0.07517528249443707 1:-0.3333333432674408 2:0.0 3:0.5 4:0.0 5:-1.0 6:0.0 7:-1.0 8:-1.0 9:-1.0 10:0.0 11:-1.0 12:0.0 13:-0.7767378687858582 14:-0.9543932676315308 15:-0.9940366148948669 16:1.0 17:0.0 18:0.0 19:0.0 20:-1.0 21:-1.0 22:-1.0 23:-1.0 24:-1.0 25:-1.0 26:0.0
0.07517528249443707 1:-1.0 2:0.0 3:-1.0 4:-1.0 5:1.0 6:0.0 7:-1.0 8:-1.0 9:-1.0 10:0.0 11:-1.0 12:0.0 13:-0.7031977772712708 14:-0.9910503625869751 15:-0.9995459318161011 16:1.0 17:0.0 18:0.0 19:0.0 20:-1.0 21:-1.0 22:-1.0 23:-1.0 24:-1.0 25:-1.0 26:0.0
-0.07517528249443707 1:-1.0 2:0.0 3:-1.0 4:-1.0 5:1.0 6:0.0 7:-1.0 8:-1.0 9:-1.0 10:0.0 11:-1.0 12:0.0 13:0.001267745392397046 14:-0.9894830584526062 15:-0.9994068145751953 16:1.0 17:0.0 18:0.0 19:0.0 20:-1.0 21:-0.3333333432674408 22:-0.3333333432674408 23:0.0 24:-0.3333333432674408 25:-0.3333333432674408 26:0.0
-0.07517528249443707 1:-1.0 2:0.0 3:-1.0 4:-1.0 5:1.0 6:0.0 7:-1.0 8:-1.0 9:-1.0 10:0.0 11:-1.0 12:0.0 13:-0.5446261763572693 14:-0.995160698890686 15:-0.9997311234474182 16:-1.0 17:0.0 18:0.0 19:0.0 20:-1.0 21:-1.0 22:-1.0 23:-1.0 24:-1.0 25:-1.0 26:0.0
-0.07517528249443707 1:-1.0 2:0.0 3:-1.0 4:-1.0 5:1.0 6:0.0 7:-1.0 8:-1.0 9:-1.0 10:0.0 11:-1.0 12:0.0 13:-0.3958061635494232 14:-0.9615991711616516 15:-0.995140016078949 16:1.0 17:0.0 18:0.0 19:0.0 20:0.0 21:-0.3333333432674408 22:-0.3333333432674408 23:0.0 24:-0.3333333432674408 25:-0.3333333432674408 26:0.0
0.07517528249443707 1:-0.3333333432674408 2:0.0 3:0.699999988079071 4:0.0 5:-1.0 6:0.0 7:-1.0 8:-1.0 9:-1.0 10:0.0 11:-1.0 12:0.0 13:-0.16416001319885254 14:-0.9843516945838928 15:-0.9991673827171326 16:1.0 17:0.0 18:0.0 19:0.0 20:0.0 21:-1.0 22:-1.0 23:-1.0 24:-0.3333333432674408 25:-1.0 26:0.0
0.07517528249443707 1:-0.3333333432674408 2:0.0 3:0.699999988079071 4:0.0 5:-1.0 6:0.0 7:1.0 8:-1.0 9:-1.0 10:0.0 11:-1.0 12:0.0 13:-0.4447837471961975 14:-0.9850031733512878 15:-0.9990634918212891 16:1.0 17:0.0 18:0.0 19:0.0 20:-1.0 21:-1.0 22:-1.0 23:-1.0 24:-1.0 25:-1.0 26:0.0
0.07517528249443707 1:-0.3333333432674408 2:0.0 3:0.699999988079071 4:0.0 5:-1.0 6:0.0 7:-1.0 8:-1.0 9:-1.0 10:0.0 11:-1.0 12:0.0 13:-0.9338046312332153 14:-0.9562312960624695 15:-0.9767282009124756 16:1.0 17:0.0 18:0.0 19:0.0 20:0.0 21:-0.3333333432674408 22:-0.3333333432674408 23:0.0 24:-0.3333333432674408 25:-0.3333333432674408 26:0.0
0.07517528249443707 1:-0.3333333432674408 2:0.0 3:0.5 4:0.0 5:-1.0 6:0.0 7:-1.0 8:-1.0 9:-1.0 10:0.0 11:-1.0 12:0.0 13:-0.8217566013336182 14:-0.9662484526634216 15:-0.9909114241600037 16:-1.0 17:0.0 18:0.0 19:0.0 20:-1.0 21:-1.0 22:-1.0 23:0.0 24:-1.0 25:-1.0 26:0.0
0.07517528249443707 1:-0.3333333432674408 2:0.0 3:0.699999988079071 4:0.0 5:-1.0 6:0.0 7:-1.0 8:-1.0 9:-1.0 10:0.0 11:-1.0 12:0.0 13:0.3619663119316101 14:-0.9677119851112366 15:-0.999401330947876 16:1.0 17:0.0 18:0.0 19:0.0 20:-1.0 21:-1.0 22:-1.0 23:-1.0 24:-1.0 25:-1.0 26:0.0
0.07517528249443707 1:-1.0 2:0.0 3:-1.0 4:-1.0 5:1.0 6:0.0 7:-1.0 8:-1.0 9:-1.0 10:0.0 11:-1.0 12:0.0 13:0.04641014337539673 14:-0.9715605974197388 15:-0.9994376301765442 16:-1.0 17:0.0 18:0.0 19:0.0 20:0.0 21:-0.3333333432674408 22:-0.3333333432674408 23:0.0 24:-0.3333333432674408 25:-0.3333333432674408 26:0.0
-0.07517528249443707 1:-0.3333333432674408 2:0.0 3:0.800000011920929 4:0.0 5:-1.0 6:0.0 7:-1.0 8:-1.0 9:-1.0 10:0.0 11:-1.0 12:0.0 13:-0.8967345952987671 14:-0.8573561906814575 15:-0.8383637070655823 16:1.0 17:0.0 18:0.0 19:0.0 20:-1.0 21:-1.0 22:-1.0 23:-1.0 24:-1.0 25:-1.0 26:0.0
-0.07517528249443707 1:-0.3333333432674408 2:0.0 3:0.6000000238418579 4:0.0 5:-1.0 6:0.0 7:-1.0 8:-1.0 9:-1.0 10:0.0 11:-1.0 12:0.0 13:-0.052677035331726074 14:-0.28495723009109497 15:-0.7311561703681946 16:-1.0 17:0.0 18:0.0 19:0.0 20:0.0 21:-0.3333333432674408 22:-0.3333333432674408 23:0.0 24:-0.3333333432674408 25:-0.3333333432674408 26:0.0
0.07517528249443707 1:-1.0 2:0.0 3:-1.0 4:-1.0 5:1.0 6:0.0 7:-1.0 8:-1.0 9:-1.0 10:0.0 11:-1.0 12:0.0 13:-0.9121814966201782 14:-0.9649482369422913 15:-0.9962426424026489 16:1.0 17:0.0 18:0.0 19:0.0 20:-1.0 21:-1.0 22:-1.0 23:-1.0 24:-1.0 25:-1.0 26:0.0
-0.07517528249443707 1:0.3333333432674408 2:0.0 3:-0.10000000149011612 4:0.0 5:-1.0 6:0.0 7:-1.0 8:-1.0 9:-1.0 10:0.0 11:-1.0 12:0.0 13:-0.18452318012714386 14:-0.9915648102760315 15:-0.9995517134666443 16:1.0 17:0.0 18:0.0 19:0.0 20:0.0 21:-1.0 22:-1.0 23:-1.0 24:-1.0 25:-1.0 26:0.0
0.07517528249443707 1:-1.0 2:0.0 3:-1.0 4:-1.0 5:1.0 6:0.0 7:-1.0 8:-1.0 9:-1.0 10:0.0 11:-1.0 12:0.0 13:-0.59995436668396 14:-0.9969639182090759 15:-0.9999920725822449 16:-1.0 17:0.0 18:0.0 19:0.0 20:0.0 21:-0.3333333432674408 22:-1.0 23:0.0 24:-0.3333333432674408 25:-0.3333333432674408 26:0.0
-0.07517528249443707 1:-0.3333333432674408 2:0.0 3:0.800000011920929 4:0.0 5:-1.0 6:0.0 7:-1.0 8:-1.0 9:-1.0 10:0.0 11:-1.0 12:0.0 13:-0.9051026701927185 14:-0.9779013395309448 15:-0.9955883026123047 16:-1.0 17:0.0 18:0.0 19:0.0 20:0.0 21:-1.0 22:-0.3333333432674408 23:0.0 24:-0.3333333432674408 25:-0.3333333432674408 26:0.0
-0.07517528249443707 1:-1.0 2:0.0 3:-1.0 4:-1.0 5:-1.0 6:0.0 7:-1.0 8:-1.0 9:-1.0 10:0.0 11:-1.0 12:0.0 13:-0.6866329312324524 14:-0.975795328617096 15:-0.997586727142334 16:-1.0 17:0.0 18:0.0 19:0.0 20:-1.0 21:-1.0 22:-1.0 23:-1.0 24:-1.0 25:-1.0 26:0.0
-0.07517528249443707 1:0.3333333432674408 2:0.0 3:-0.699999988079071 4:1.0 5:1.0 6:0.0 7:1.0 8:-1.0 9:-1.0 10:0.0 11:-1.0 12:0.0 13:0.6250293850898743 14:-0.9971739053726196 15:-0.9999703168869019 16:1.0 17:0.0 18:0.0 19:0.0 20:-1.0 21:-1.0 22:-1.0 23:-1.0 24:-1.0 25:-1.0 26:0.0
0.07517528249443707 1:-0.3333333432674408 2:0.0 3:0.6000000238418579 4:0.0 5:-1.0 6:0.0 7:-1.0 8:-1.0 9:-1.0 10:0.0 11:-1.0 12:0.0 13:-0.8038007616996765 14:-0.9347936511039734 15:-0.9841717481613159 16:-1.0 17:0.0 18:0.0 19:0.0 20:0.0 21:-0.3333333432674408 22:-0.3333333432674408 23:0.0 24:-0.3333333432674408 25:-0.3333333432674408 26:0.0
-0.07517528249443707 1:-0.3333333432674408 2:0.0 3:0.10000000149011612 4:0.0 5:-1.0 6:0.0 7:-1.0 8:-1.0 9:-1.0 10:0.0 11:-1.0 12:0.0 13:-0.5772929787635803 14:-0.9756554961204529 15:-0.9993942975997925 16:-1.0 17:0.0 18:0.0 19:0.0 20:0.0 21:0.3333333432674408 22:-1.0 23:0.0 24:-1.0 25:-0.3333333432674408 26:0.0
0.07517528249443707 1:-0.3333333432674408 2:0.0 3:0.20000000298023224 4:0.0 5:-1.0 6:0.0 7:-1.0 8:-1.0 9:-1.0 10:0.0 11:-1.0 12:0.0 13:0.1074584573507309 14:-0.9818400144577026 15:-0.9996408224105835 16:1.0 17:0.0 18:0.0 19:0.0 20:-1.0 21:-1.0 22:-1.0 23:-1.0 24:-1.0 25:-1.0 26:0.0
-0.07517528249443707 1:-0.3333333432674408 2:0.0 3:-0.699999988079071 4:0.0 5:1.0 6:0.0 7:-1.0 8:-1.0 9:-1.0 10:0.0 11:-1.0 12:0.0 13:0.8776509165763855 14:-0.9956950545310974 15:-0.9999813437461853 16:1.0 17:0.0 18:0.0 19:0.0 20:-1.0 21:-1.0 22:-1.0 23:-1.0 24:-1.0 25:-1.0 26:0.0
0.07517528249443707 1:-0.3333333432674408 2:0.0 3:0.20000000298023224 4:0.0 5:-1.0 6:0.0 7:-1.0 8:-1.0 9:-1.0 10:0.0 11:-1.0 12:0.0 13:-0.8709916472434998 14:-0.6374420523643494 15:-0.7664560675621033 16:-1.0 17:0.0 18:0.0 19:0.0 20:0.0 21:-0.3333333432674408 22:-0.3333333432674408 23:0.0 24:-0.3333333432674408 25:-0.3333333432674408 26:0.0
-0.041006250968543406 1:-0.3333333432674408 2:0.0 3:0.0 4:0.0 5:-1.0 6:0.0 7:-1.0 8:-1.0 9:-1.0 10:0.0 11:-1.0 12:0.0 13:-0.43165913224220276 14:-0.9893875122070312 15:-0.9999019503593445 16:-1.0 17:0.0 18:0.0 19:0.0 20:-1.0 21:-1.0 22:-1.0 23:-1.0 24:-1.0 25:-1.0 26:0.0
0.07517528249443707 1:-0.3333333432674408 2:0.0 3:-0.30000001192092896 4:0.0 5:1.0 6:0.0 7:-1.0 8:-1.0 9:-1.0 10:0.0 11:-1.0 12:0.0 13:-0.535439133644104 14:-0.9848775267601013 15:-0.9990700483322144 16:1.0 17:0.0 18:0.0 19:0.0 20:-1.0 21:-1.0 22:-1.0 23:-1.0 24:-1.0 25:-1.0 26:0.0
-0.07517528249443707 1:-0.3333333432674408 2:0.0 3:-0.699999988079071 4:0.0 5:1.0 6:0.0 7:-1.0 8:-1.0 9:-1.0 10:0.0 11:-1.0 12:0.0 13:0.8596806526184082 14:-0.9794658422470093 15:-0.9881653785705566 16:1.0 17:0.0 18:0.0 19:0.0 20:-1.0 21:-1.0 22:-1.0 23:-1.0 24:-1.0 25:-1.0 26:0.0
0.07517528249443707 1:0.3333333432674408 2:0.0 3:0.10000000149011612 4:0.0 5:-1.0 6:0.0 7:-1.0 8:-1.0 9:-1.0 10:0.0 11:-1.0 12:0.0 13:-0.6873120069503784 14:-0.8739581108093262 15:-0.9931713342666626 16:-1.0 17:0.0 18:0.0 19:0.0 20:0.0 21:-0.3333333432674408 22:-0.3333333432674408 23:0.0 24:-0.3333333432674408 25:-0.3333333432674408 26:0.0
-0.07517528249443707 1:-0.3333333432674408 2:0.0 3:0.5 4:0.0 5:-1.0 6:0.0 7:-1.0 8:-1.0 9:-1.0 10:0.0 11:-1.0 12:0.0 13:-0.7257674336433411 14:-0.9823369979858398 15:-0.9980086088180542 16:-1.0 17:0.0 18:0.0 19:0.0 20:0.0 21:-1.0 22:-0.3333333432674408 23:0.0 24:-0.3333333432674408 25:-0.3333333432674408 26:0.0
0.07517528249443707 1:0.3333333432674408 2:0.0 3:-0.5 4:0.0 5:-1.0 6:0.0 7:1.0 8:-1.0 9:-1.0 10:0.0 11:-1.0 12:0.0 13:-0.1622854322195053 14:-0.977891206741333 15:-0.9919700026512146 16:1.0 17:0.0 18:0.0 19:0.0 20:-1.0 21:-1.0 22:-1.0 23:-1.0 24:-1.0 25:-1.0 26:0.0
-0.07517528249443707 1:-1.0 2:0.0 3:-1.0 4:-1.0 5:1.0 6:0.0 7:-1.0 8:-1.0 9:-1.0 10:0.0 11:-1.0 12:0.0 13:-0.0470479279756546 14:-0.9793400764465332 15:-0.9995008111000061 16:1.0 17:0.0 18:0.0 19:0.0 20:-1.0 21:-1.0 22:-1.0 23:-1.0 24:-1.0 25:-1.0 26:0.0
0.07517528249443707 1:0.3333333432674408 2:0.0 3:0.10000000149011612 4:0.0 5:-1.0 6:0.0 7:-1.0 8:-1.0 9:-1.0 10:0.0 11:-1.0 12:0.0 13:-0.6109269857406616 14:-0.815335750579834 15:-0.9835914373397827 16:-1.0 17:0.0 18:0.0 19:0.0 20:0.0 21:-0.3333333432674408 22:-0.3333333432674408 23:0.0 24:-0.3333333432674408 25:-0.3333333432674408 26:0.0
-0.07517528249443707 1:-0.3333333432674408 2:0.0 3:0.4000000059604645 4:0.0 5:-1.0 6:0.0 7:-1.0 8:-1.0 9:-1.0 10:0.0 11:-1.0 12:0.0 13:0.36745187640190125 14:-0.9121931195259094 15:-0.9965378046035767 16:-1.0 17:0.0 18:0.0 19:0.0 20:0.0 21:-0.3333333432674408 22:-0.3333333432674408 23:0.0 24:-0.3333333432674408 25:-0.3333333432674408 26:0.0
0.07517528249443707 1:-1.0 2:0.0 3:-1.0 4:-1.0 5:1.0 6:0.0 7:-1.0 8:-1.0 9:-1.0 10:0.0 11:-1.0 12:0.0 13:-0.8887970447540283 14:-0.9882419109344482 15:-0.9979535937309265 16:1.0 17:0.0 18:0.0 19:0.0 20:-1.0 21:-1.0 22:-1.0 23:-1.0 24:-1.0 25:-1.0 26:0.0
-0.07517528249443707 1:-1.0 2:0.0 3:-1.0 4:-1.0 5:1.0 6:0.0 7:-1.0 8:-1.0 9:-1.0 10:0.0 11:-1.0 12:0.0 13:-0.6404873728752136 14:-0.994047224521637 15:-0.9997449517250061 16:1.0 17:0.0 18:0.0 19:0.0 20:-1.0 21:-1.0 22:-1.0 23:-1.0 24:-1.0 25:-1.0 26:0.0
-0.07517528249443707 1:-1.0 2:0.0 3:-1.0 4:-1.0 5:1.0 6:0.0 7:-1.0 8:-1.0 9:-1.0 10:0.0 11:-1.0 12:0.0 13:-0.6312354803085327 14:-0.9840396642684937 15:-0.9992755055427551 16:1.0 17:0.0 18:0.0 19:0.0 20:-1.0 21:-1.0 22:-1.0 23:-1.0 24:-1.0 25:-1.0 26:0.0
-0.07517528249443707 1:-1.0 2:0.0 3:-1.0 4:-1.0 5:1.0 6:0.0 7:-1.0 8:-1.0 9:-1.0 10:0.0 11:-1.0 12:0.0 13:-0.5010976791381836 14:-0.9894865155220032 15:-0.999693751335144 16:1.0 17:0.0 18:0.0 19:0.0 20:-1.0 21:-1.0 22:-1.0 23:-1.0 24:-0.3333333432674408 25:-1.0 26:0.0
0.07517528249443707 1:-0.3333333432674408 2:0.0 3:-0.30000001192092896 4:0.0 5:-1.0 6:0.0 7:-1.0 8:-1.0 9:-1.0 10:0.0 11:-1.0 12:0.0 13:0.39107275009155273 14:-0.9517234563827515 15:-0.9980407357215881 16:-1.0 17:0.0 18:0.0 19:0.0 20:0.0 21:-0.3333333432674408 22:-0.3333333432674408 23:0.0 24:-0.3333333432674408 25:-0.3333333432674408 26:0.0
0.07517528249443707 1:-0.3333333432674408 2:0.0 3:0.0 4:0.0 5:-1.0 6:0.0 7:-1.0 8:-1.0 9:-1.0 10:0.0 11:-1.0 12:0.0 13:-0.266611248254776 14:-0.968609094619751 15:-0.9990958571434021 16:-1.0 17:0.0 18:0.0 19:0.0 20:0.0 21:-0.3333333432674408 22:-0.3333333432674408 23:0.0 24:-0.3333333432674408 25:-0.3333333432674408 26:0.0
0.07517528249443707 1:-0.3333333432674408 2:0.0 3:0.10000000149011612 4:0.0 5:-1.0 6:0.0 7:-1.0 8:-1.0 9:-1.0 10:0.0 11:-1.0 12:0.0 13:-0.3589509427547455 14:-0.9949356317520142 15:-0.9999775886535645 16:-1.0 17:0.0 18:0.0 19:0.0 20:0.0 21:-1.0 22:-0.3333333432674408 23:0.0 24:-0.3333333432674408 25:-0.3333333432674408 26:0.0
-0.07517528249443707 1:-0.3333333432674408 2:0.0 3:0.6000000238418579 4:0.0 5:-1.0 6:0.0 7:-1.0 8:-1.0 9:-1.0 10:0.0 11:-1.0 12:0.0 13:-0.49097809195518494 14:-0.8548269867897034 15:-0.972743809223175 16:-1.0 17:0.0 18:0.0 19:0.0 20:0.0 21:-0.3333333432674408 22:-0.3333333432674408 23:0.0 24:-0.3333333432674408 25:-0.3333333432674408 26:0.0
0.07517528249443707 1:-1.0 2:0.0 3:-1.0 4:-1.0 5:1.0 6:0.0 7:-1.0 8:-1.0 9:-1.0 10:0.0 11:-1.0 12:0.0 13:-0.7116553783416748 14:-0.9769652485847473 15:-0.9970842599868774 16:1.0 17:0.0 18:0.0 19:0.0 20:-1.0 21:-1.0 22:-1.0 23:-1.0 24:-1.0 25:-1.0 26:0.0
-0.07517528249443707 1:-0.3333333432674408 2:0.0 3:-0.5 4:0.0 5:-1.0 6:0.0 7:-1.0 8:-1.0 9:-1.0 10:0.0 11:-1.0 12:0.0 13:0.5042658448219299 14:-0.995945155620575 15:-0.9999869465827942 16:-1.0 17:0.0 18:0.0 19:0.0 20:0.0 21:-0.3333333432674408 22:-0.3333333432674408 23:0.0 24:-0.3333333432674408 25:-0.3333333432674408 26:0.0
-0.07517528249443707 1:-1.0 2:0.0 3:-1.0 4:-1.0 5:1.0 6:0.0 7:-1.0 8:-1.0 9:-1.0 10:0.0 11:-1.0 12:0.0 13:-0.8892423510551453 14:-0.9819907546043396 15:-0.9996297955513 16:1.0 17:0.0 18:0.0 19:0.0 20:-1.0 21:-1.0 22:-1.0 23:-1.0 24:-1.0 25:-1.0 26:0.0
-0.07517528249443707 1:-0.3333333432674408 2:0.0 3:-0.5 4:0.0 5:1.0 6:0.0 7:-1.0 8:-1.0 9:-1.0 10:0.0 11:-1.0 12:0.0 13:-0.9436049461364746 14:-0.9701319336891174 15:-0.994873046875 16:-1.0 17:0.0 18:0.0 19:0.0 20:-1.0 21:-1.0 22:-1.0 23:-1.0 24:-1.0 25:-1.0 26:0.0
-0.07517528249443707 1:-0.3333333432674408 2:0.0 3:-0.5 4:0.0 5:1.0 6:0.0 7:-1.0 8:-1.0 9:-1.0 10:0.0 11:-1.0 12:0.0 13:-0.9225339293479919 14:-0.9555747509002686 15:-0.9963191151618958 16:-1.0 17:0.0 18:0.0 19:0.0 20:-1.0 21:-1.0 22:-1.0 23:-1.0 24:-1.0 25:-1.0 26:0.0
0.07517528249443707 1:-0.3333333432674408 2:0.0 3:0.5 4:0.0 5:-1.0 6:0.0 7:-1.0 8:-1.0 9:-1.0 10:0.0 11:-1.0 12:0.0 13:-0.22502705454826355 14:-0.964788556098938 15:-0.998142421245575 16:1.0 17:0.0 18:0.0 19:0.0 20:0.0 21:-0.3333333432674408 22:-0.3333333432674408 23:-1.0 24:-0.3333333432674408 25:-0.3333333432674408 26:0.0
-0.07517528249443707 1:-0.3333333432674408 2:0.0 3:0.10000000149011612 4:0.0 5:-1.0 6:0.0 7:-1.0 8:-1.0 9:-1.0 10:0.0 11:-1.0 12:0.0 13:-0.30121397972106934 14:-0.6309301257133484 15:-0.8758519291877747 16:-1.0 17:0.0 18:0.0 19:0.0 20:-1.0 21:-1.0 22:-1.0 23:-1.0 24:-1.0 25:-1.0 26:0.0
0.07517528249443707 1:-0.3333333432674408 2:0.0 3:-0.30000001192092896 4:0.0 5:-1.0 6:0.0 7:-1.0 8:-1.0 9:-1.0 10:0.0 11:-1.0 12:0.0 13:-0.09159767627716064 14:-0.994702935218811 15:-0.9999291896820068 16:1.0 17:0.0 18:0.0 19:0.0 20:0.0 21:-0.3333333432674408 22:-1.0 23:0.0 24:-0.3333333432674408 25:-1.0 26:0.0
0.07517528249443707 1:-1.0 2:0.0 3:-1.0 4:-1.0 5:1.0 6:0.0 7:-1.0 8:-1.0 9:-1.0 10:0.0 11:-1.0 12:0.0 13:-0.9099345207214355 14:-0.9309101104736328 15:-0.9190270900726318 16:-1.0 17:0.0 18:0.0 19:0.0 20:-1.0 21:-1.0 22:-1.0 23:-1.0 24:-1.0 25:-1.0 26:0.0
-0.07517528249443707 1:-0.3333333432674408 2:0.0 3:-0.6000000238418579 4:0.0 5:-1.0 6:0.0 7:-1.0 8:-1.0 9:-1.0 10:0.0 11:-1.0 12:0.0 13:0.8361354470252991 14:-0.9700853824615479 15:-0.9994874596595764 16:1.0 17:0.0 18:0.0 19:0.0 20:0.0 21:-0.3333333432674408 22:-0.3333333432674408 23:0.0 24:-0.3333333432674408 25:-0.3333333432674408 26:0.0
0.07517528249443707 1:-0.3333333432674408 2:0.0 3:-0.6000000238418579 4:0.0 5:1.0 6:0.0 7:-1.0 8:-1.0 9:-1.0 10:0.0 11:-1.0 12:0.0 13:-0.951084315776825 14:-0.9590604305267334 15:-0.9955329895019531 16:-1.0 17:0.0 18:0.0 19:0.0 20:-1.0 21:-1.0 22:-1.0 23:-1.0 24:-1.0 25:-1.0 26:0.0
-0.07517528249443707 1:-0.3333333432674408 2:0.0 3:-0.10000000149011612 4:0.0 5:-1.0 6:0.0 7:-1.0 8:-1.0 9:-1.0 10:0.0 11:-1.0 12:0.0 13:-0.19300206005573273 14:-0.9855445027351379 15:-0.9997612237930298 16:-1.0 17:0.0 18:0.0 19:0.0 20:-1.0 21:-1.0 22:-1.0 23:-1.0 24:-1.0 25:-1.0 26:0.0
-0.07517528249443707 1:-0.3333333432674408 2:0.0 3:0.10000000149011612 4:0.0 5:-1.0 6:0.0 7:-1.0 8:-1.0 9:-1.0 10:0.0 11:-1.0 12:0.0 13:-0.6451701521873474 14:-0.9712138175964355 15:-0.9982085824012756 16:-1.0 17:0.0 18:0.0 19:0.0 20:0.0 21:-0.3333333432674408 22:-0.3333333432674408 23:-1.0 24:-0.3333333432674408 25:-0.3333333432674408 26:0.0
-0.07517528249443707 1:-0.3333333432674408 2:0.0 3:-0.30000001192092896 4:0.0 5:-1.0 6:0.0 7:-1.0 8:-1.0 9:-1.0 10:0.0 11:-1.0 12:0.0 13:0.04910838603973389 14:-0.8173766136169434 15:-0.9876717329025269 16:-1.0 17:0.0 18:0.0 19:0.0 20:0.0 21:-0.3333333432674408 22:-0.3333333432674408 23:-1.0 24:-1.0 25:-0.3333333432674408 26:0.0
-0.07517528249443707 1:-0.3333333432674408 2:0.0 3:0.20000000298023224 4:0.0 5:-1.0 6:0.0 7:1.0 8:-1.0 9:-1.0 10:0.0 11:-1.0 12:0.0 13:-0.8399385809898376 14:-0.9873566627502441 15:-0.9992965459823608 16:-1.0 17:0.0 18:0.0 19:0.0 20:0.0 21:-1.0 22:-0.3333333432674408 23:-1.0 24:-0.3333333432674408 25:-0.3333333432674408 26:0.0
-0.07517528249443707 1:-0.3333333432674408 2:0.0 3:0.4000000059604645 4:0.0 5:-1.0 6:0.0 7:-1.0 8:-1.0 9:-1.0 10:0.0 11:-1.0 12:0.0 13:-0.4156816303730011 14:-0.9354720115661621 15:-0.9924676418304443 16:-1.0 17:0.0 18:0.0 19:0.0 20:-1.0 21:-1.0 22:-1.0 23:-1.0 24:-1.0 25:-1.0 26:0.0
0.07517528249443707 1:-0.3333333432674408 2:0.0 3:-0.5 4:0.0 5:1.0 6:0.0 7:-1.0 8:-1.0 9:-1.0 10:0.0 11:-1.0 12:0.0 13:-0.6169722676277161 14:-0.9951815605163574 15:-0.9998200535774231 16:1.0 17:0.0 18:0.0 19:0.0 20:-1.0 21:-1.0 22:-1.0 23:0.0 24:-1.0 25:-1.0 26:0.0
0.07517528249443707 1:-0.3333333432674408 2:0.0 3:-0.4000000059604645 4:0.0 5:1.0 6:0.0 7:-1.0 8:-1.0 9:-1.0 10:0.0 11:-1.0 12:0.0 13:-0.6011649370193481 14:-0.9427623152732849 15:-0.9838054776191711 16:1.0 17:0.0 18:0.0 19:0.0 20:0.0 21:-1.0 22:-1.0 23:0.0 24:-1.0 25:-1.0 26:0.0
-0.07517528249443707 1:-0.3333333432674408 2:0.0 3:0.699999988079071 4:0.0 5:-1.0 6:0.0 7:-1.0 8:-1.0 9:-1.0 10:0.0 11:-1.0 12:0.0 13:-0.40683314204216003 14:-0.9892553687095642 15:-0.9998534321784973 16:-1.0 17:0.0 18:0.0 19:0.0 20:-1.0 21:-1.0 22:-1.0 23:-1.0 24:-1.0 25:-1.0 26:0.0
-0.07517528249443707 1:-0.3333333432674408 2:0.0 3:-0.20000000298023224 4:0.0 5:-1.0 6:0.0 7:-1.0 8:-1.0 9:-1.0 10:0.0 11:-1.0 12:0.0 13:-0.14989785850048065 14:-0.9946185946464539 15:-0.9999753832817078 16:-1.0 17:0.0 18:0.0 19:0.0 20:-1.0 21:-1.0 22:-1.0 23:-1.0 24:-1.0 25:-1.0 26:0.0
0.07517528249443707 1:-1.0 2:0.0 3:-1.0 4:-1.0 5:1.0 6:0.0 7:-1.0 8:-1.0 9:-1.0 10:0.0 11:-1.0 12:0.0 13:-0.7006977796554565 14:-0.9818977117538452 15:-0.9997069835662842 16:1.0 17:0.0 18:0.0 19:0.0 20:-1.0 21:-1.0 22:-1.0 23:-1.0 24:-1.0 25:-1.0 26:0.0
0.07517528249443707 1:-0.3333333432674408 2:0.0 3:0.4000000059604645 4:0.0 5:-1.0 6:0.0 7:-1.0 8:-1.0 9:-1.0 10:0.0 11:-1.0 12:0.0 13:-0.5991072058677673 14:-0.9834063053131104 15:-0.9995114803314209 16:-1.0 17:0.0 18:0.0 19:0.0 20:-1.0 21:-0.3333333432674408 22:-0.3333333432674408 23:-1.0 24:-1.0 25:-0.3333333432674408 26:0.0
-0.07517528249443707 1:0.3333333432674408 2:0.0 3:-0.4000000059604645 4:0.0 5:1.0 6:0.0 7:-1.0 8:-1.0 9:-1.0 10:0.0 11:-1.0 12:0.0 13:0.20128856599330902 14:-0.9920099973678589 15:-0.9996311664581299 16:1.0 17:0.0 18:0.0 19:0.0 20:-1.0 21:0.3333333432674408 22:-0.3333333432674408 23:1.0 24:0.3333333432674408 25:-0.3333333432674408 26:0.0
-0.07517528249443707 1:-0.3333333432674408 2:0.0 3:-0.699999988079071 4:0.0 5:1.0 6:0.0 7:-1.0 8:-1.0 9:-1.0 10:0.0 11:1.0 12:0.0 13:0.20003443956375122 14:-0.9716677665710449 15:-0.9978921413421631 16:1.0 17:0.0 18:0.0 19:0.0 20:0.0 21:-0.3333333432674408 22:-0.3333333432674408 23:0.0 24:-0.3333333432674408 25:-0.3333333432674408 26:0.0
-0.07517528249443707 1:-0.3333333432674408 2:0.0 3:-0.5 4:0.0 5:1.0 6:0.0 7:-1.0 8:-1.0 9:-1.0 10:0.0 11:-1.0 12:0.0 13:-0.09043145179748535 14:-0.9790495038032532 15:-0.9997471570968628 16:1.0 17:0.0 18:0.0 19:0.0 20:-1.0 21:-1.0 22:-0.3333333432674408 23:0.0 24:-1.0 25:-0.3333333432674408 26:0.0
-0.07517528249443707 1:-0.3333333432674408 2:0.0 3:0.10000000149011612 4:0.0 5:1.0 6:0.0 7:-1.0 8:-1.0 9:-1.0 10:0.0 11:-1.0 12:0.0 13:-0.3194374740123749 14:-0.9823153614997864 15:-0.9994728565216064 16:1.0 17:0.0 18:0.0 19:0.0 20:0.0 21:-0.3333333432674408 22:-0.3333333432674408 23:0.0 24:-0.3333333432674408 25:-1.0 26:0.0
-0.07517528249443707 1:-1.0 2:0.0 3:-1.0 4:-1.0 5:1.0 6:0.0 7:-1.0 8:-1.0 9:-1.0 10:0.0 11:-1.0 12:0.0 13:-0.7783471941947937 14:-0.7940177917480469 15:-0.9184958338737488 16:1.0 17:0.0 18:0.0 19:0.0 20:0.0 21:-0.3333333432674408 22:-0.3333333432674408 23:0.0 24:-0.3333333432674408 25:-0.3333333432674408 26:0.0
0.07517528249443707 1:-0.3333333432674408 2:0.0 3:0.10000000149011612 4:0.0 5:-1.0 6:0.0 7:-1.0 8:-1.0 9:-1.0 10:0.0 11:-1.0 12:0.0 13:-0.43999233841896057 14:-0.7970883846282959 15:-0.9323355555534363 16:-1.0 17:0.0 18:0.0 19:0.0 20:0.0 21:-1.0 22:-0.3333333432674408 23:-1.0 24:-0.3333333432674408 25:-0.3333333432674408 26:0.0
0.07517528249443707 1:-0.3333333432674408 2:0.0 3:-0.5 4:0.0 5:-1.0 6:0.0 7:-1.0 8:-1.0 9:-1.0 10:0.0 11:-1.0 12:0.0 13:-0.03590422868728638 14:-0.9762766361236572 15:-0.9983969330787659 16:-1.0 17:0.0 18:0.0 19:0.0 20:-1.0 21:-0.3333333432674408 22:-0.3333333432674408 23:-1.0 24:-1.0 25:-0.3333333432674408 26:0.0
0.07517528249443707 1:-0.3333333432674408 2:0.0 3:-0.20000000298023224 4:0.0 5:-1.0 6:0.0 7:-1.0 8:-1.0 9:-1.0 10:0.0 11:-1.0 12:0.0 13:0.5863251090049744 14:-0.9941826462745667 15:-0.9999048113822937 16:-1.0 17:0.0 18:0.0 19:0.0 20:-1.0 21:-1.0 22:-0.3333333432674408 23:-1.0 24:-0.3333333432674408 25:-0.3333333432674408 26:0.0
0.07517528249443707 1:-0.3333333432674408 2:0.0 3:-0.10000000149011612 4:0.0 5:-1.0 6:0.0 7:1.0 8:-1.0 9:-1.0 10:0.0 11:-1.0 12:0.0 13:-0.7017334699630737 14:-0.9691727757453918 15:-0.9880134463310242 16:-1.0 17:0.0 18:0.0 19:0.0 20:0.0 21:-0.3333333432674408 22:-1.0 23:-1.0 24:-1.0 25:-1.0 26:0.0
0.07517528249443707 1:-0.3333333432674408 2:0.0 3:-0.5 4:0.0 5:1.0 6:0.0 7:-1.0 8:-1.0 9:-1.0 10:0.0 11:-1.0 12:0.0 13:-0.2841435372829437 14:-0.9149987101554871 15:-0.8280225992202759 16:1.0 17:0.0 18:0.0 19:0.0 20:-1.0 21:-1.0 22:-1.0 23:-1.0 24:-1.0 25:-1.0 26:0.0
0.07517528249443707 1:-0.3333333432674408 2:0.0 3:-0.6000000238418579 4:0.0 5:-1.0 6:0.0 7:-1.0 8:-1.0 9:-1.0 10:0.0 11:-1.0 12:0.0 13:-0.29967156052589417 14:-0.9924941062927246 15:-0.9993664026260376 16:1.0 17:0.0 18:0.0 19:0.0 20:0.0 21:-1.0 22:-0.3333333432674408 23:0.0 24:-0.3333333432674408 25:-0.3333333432674408 26:0.0
-0.07517528249443707 1:-0.3333333432674408 2:0.0 3:-0.6000000238418579 4:0.0 5:-1.0 6:0.0 7:-1.0 8:-1.0 9:-1.0 10:0.0 11:-1.0 12:0.0 13:0.727147102355957 14:-0.9961183071136475 15:-0.9999939799308777 16:-1.0 17:0.0 18:0.0 19:0.0 20:-1.0 21:-1.0 22:-1.0 23:-1.0 24:-1.0 25:-1.0 26:0.0
0.07517528249443707 1:-0.3333333432674408 2:0.0 3:-0.699999988079071 4:0.0 5:-1.0 6:0.0 7:-1.0 8:-1.0 9:-1.0 10:0.0 11:-1.0 12:0.0 13:-0.18767844140529633 14:-0.9943687319755554 15:-0.9998205304145813 16:1.0 17:0.0 18:0.0 19:0.0 20:0.0 21:-0.3333333432674408 22:-0.3333333432674408 23:-1.0 24:-0.3333333432674408 25:-0.3333333432674408 26:0.0
0.07517528249443707 1:0.3333333432674408 2:0.0 3:-0.30000001192092896 4:1.0 5:-1.0 6:0.0 7:-1.0 8:-1.0 9:-1.0 10:0.0 11:-1.0 12:0.0 13:0.5831813812255859 14:-0.9951512813568115 15:-0.9999470710754395 16:1.0 17:0.0 18:0.0 19:0.0 20:-1.0 21:-1.0 22:-1.0 23:-1.0 24:-1.0 25:-1.0 26:0.0
-0.07517528249443707 1:-0.3333333432674408 2:0.0 3:-0.30000001192092896 4:0.0 5:-1.0 6:0.0 7:1.0 8:-1.0 9:-1.0 10:0.0 11:-1.0 12:0.0 13:0.05982041731476784 14:-0.9849938750267029 15:-0.9998389482498169 16:-1.0 17:0.0 18:0.0 19:0.0 20:0.0 21:-1.0 22:-0.3333333432674408 23:-1.0 24:-1.0 25:-0.3333333432674408 26:0.0
-0.07517528249443707 1:0.3333333432674408 2:0.0 3:-0.30000001192092896 4:0.0 5:-1.0 6:0.0 7:-1.0 8:-1.0 9:-1.0 10:0.0 11:-1.0 12:0.0 13:-0.5919410586357117 14:-0.9802396893501282 15:-0.9997204542160034 16:1.0 17:0.0 18:0.0 19:0.0 20:0.0 21:-0.3333333432674408 22:-0.3333333432674408 23:0.0 24:-1.0 25:-0.3333333432674408 26:0.0
-0.07517528249443707 1:-0.3333333432674408 2:0.0 3:-0.699999988079071 4:0.0 5:-1.0 6:0.0 7:1.0 8:-1.0 9:-1.0 10:0.0 11:-1.0 12:0.0 13:-0.4340621829032898 14:-0.9745821356773376 15:-0.9952355027198792 16:-1.0 17:0.0 18:0.0 19:0.0 20:0.0 21:0.3333333432674408 22:-0.3333333432674408 23:0.0 24:-0.3333333432674408 25:-0.3333333432674408 26:0.0
0.07517528249443707 1:-1.0 2:0.0 3:-1.0 4:-1.0 5:-1.0 6:0.0 7:-1.0 8:-1.0 9:-1.0 10:0.0 11:-1.0 12:0.0 13:-0.41792356967926025 14:-0.9205286502838135 15:-0.9882698655128479 16:1.0 17:0.0 18:0.0 19:0.0 20:0.0 21:-1.0 22:-1.0 23:0.0 24:-0.3333333432674408 25:-1.0 26:0.0
0.07517528249443707 1:-1.0 2:0.0 3:-1.0 4:-1.0 5:-1.0 6:0.0 7:-1.0 8:-1.0 9:-1.0 10:0.0 11:-1.0 12:0.0 13:-0.14192235469818115 14:-0.9464717507362366 15:-0.9975826740264893 16:1.0 17:0.0 18:0.0 19:0.0 20:-1.0 21:-1.0 22:-1.0 23:-1.0 24:-0.3333333432674408 25:-1.0 26:0.0
0.07517528249443707 1:-1.0 2:0.0 3:-1.0 4:-1.0 5:-1.0 6:0.0 7:-1.0 8:-1.0 9:-1.0 10:0.0 11:-1.0 12:0.0 13:-0.6121855974197388 14:-0.31874045729637146 15:0.482570618391037 16:1.0 17:0.0 18:0.0 19:0.0 20:0.0 21:-0.3333333432674408 22:-0.3333333432674408 23:0.0 24:-0.3333333432674408 25:-0.3333333432674408 26:0.0
0.07517528249443707 1:-0.3333333432674408 2:0.0 3:0.0 4:0.0 5:-1.0 6:0.0 7:-1.0 8:-1.0 9:-1.0 10:0.0 11:-1.0 12:0.0 13:-0.2510116696357727 14:-0.9959549903869629 15:-0.9999338984489441 16:1.0 17:0.0 18:0.0 19:0.0 20:0.0 21:-1.0 22:-1.0 23:-1.0 24:-1.0 25:-1.0 26:0.0
-0.07517528249443707 1:-0.3333333432674408 2:0.0 3:-0.6000000238418579 4:0.0 5:1.0 6:0.0 7:-1.0 8:-1.0 9:-1.0 10:0.0 11:-1.0 12:0.0 13:-0.8257576823234558 14:-0.9525570869445801 15:-0.9862442016601562 16:-1.0 17:0.0 18:0.0 19:0.0 20:-1.0 21:-1.0 22:-1.0 23:-1.0 24:-1.0 25:-1.0 26:0.0
-0.07517528249443707 1:-1.0 2:0.0 3:-1.0 4:-1.0 5:-1.0 6:0.0 7:-1.0 8:-1.0 9:-1.0 10:0.0 11:-1.0 12:0.0 13:0.6791670918464661 14:-0.9860517978668213 15:-0.9993839263916016 16:1.0 17:0.0 18:0.0 19:0.0 20:-1.0 21:-1.0 22:-1.0 23:-1.0 24:-1.0 25:-1.0 26:0.0
-0.07517528249443707 1:-1.0 2:0.0 3:-1.0 4:-1.0 5:-1.0 6:0.0 7:-1.0 8:-1.0 9:-1.0 10:0.0 11:-1.0 12:0.0 13:-0.8543992638587952 14:-0.8927478790283203 15:-0.9694913625717163 16:1.0 17:0.0 18:0.0 19:0.0 20:-1.0 21:-1.0 22:-1.0 23:-1.0 24:-1.0 25:-1.0 26:0.0
0.07517528249443707 1:-0.3333333432674408 2:0.0 3:0.20000000298023224 4:0.0 5:-1.0 6:0.0 7:1.0 8:-1.0 9:-1.0 10:0.0 11:-1.0 12:0.0 13:-0.4088902771472931 14:-0.9973680973052979 15:-0.9999948143959045 16:-1.0 17:0.0 18:0.0 19:0.0 20:0.0 21:-0.3333333432674408 22:-0.3333333432674408 23:0.0 24:-0.3333333432674408 25:-0.3333333432674408 26:0.0
0.07517528249443707 1:-0.3333333432674408 2:0.0 3:0.20000000298023224 4:0.0 5:-1.0 6:0.0 7:1.0 8:-1.0 9:-1.0 10:0.0 11:-1.0 12:0.0 13:-0.8426864743232727 14:-0.991431713104248 15:-0.9992408752441406 16:-1.0 17:0.0 18:0.0 19:0.0 20:-1.0 21:-1.0 22:-1.0 23:-1.0 24:-1.0 25:-1.0 26:0.0
0.07517528249443707 1:-0.3333333432674408 2:0.0 3:-0.6000000238418579 4:0.0 5:1.0 6:0.0 7:-1.0 8:-1.0 9:-1.0 10:0.0 11:-1.0 12:0.0 13:0.8569650650024414 14:-0.9848907589912415 15:-0.9997047781944275 16:-1.0 17:0.0 18:0.0 19:0.0 20:-1.0 21:-1.0 22:-0.3333333432674408 23:-1.0 24:-1.0 25:-0.3333333432674408 26:0.0
0.07517528249443707 1:0.3333333432674408 2:0.0 3:-0.5 4:1.0 5:-1.0 6:0.0 7:1.0 8:-1.0 9:-1.0 10:0.0 11:-1.0 12:0.0 13:0.3507117033004761 14:-0.9947183728218079 15:-0.9999221563339233 16:1.0 17:0.0 18:0.0 19:0.0 20:-1.0 21:-1.0 22:-1.0 23:-1.0 24:-1.0 25:-1.0 26:0.0
-0.07517528249443707 1:-0.3333333432674408 2:0.0 3:0.20000000298023224 4:0.0 5:-1.0 6:0.0 7:1.0 8:-1.0 9:-1.0 10:0.0 11:-1.0 12:0.0 13:-0.754985511302948 14:-0.8749827146530151 15:-0.9878072142601013 16:1.0 17:0.0 18:0.0 19:0.0 20:0.0 21:-1.0 22:-0.3333333432674408 23:0.0 24:-0.3333333432674408 25:-0.3333333432674408 26:0.0
-0.07517528249443707 1:-0.3333333432674408 2:0.0 3:-0.30000001192092896 4:0.0 5:1.0 6:0.0 7:-1.0 8:-1.0 9:-1.0 10:0.0 11:-1.0 12:0.0 13:0.6256202459335327 14:-0.9884339570999146 15:-0.999791145324707 16:-1.0 17:0.0 18:0.0 19:0.0 20:-1.0 21:-1.0 22:-1.0 23:-1.0 24:-1.0 25:-1.0 26:0.0
0.07517528249443707 1:-0.3333333432674408 2:0.0 3:-0.5 4:0.0 5:-1.0 6:0.0 7:1.0 8:-1.0 9:-1.0 10:0.0 11:-1.0 12:0.0 13:-0.7559658885002136 14:-0.9675289988517761 15:-0.9967908263206482 16:1.0 17:0.0 18:0.0 19:0.0 20:0.0 21:-0.3333333432674408 22:-0.3333333432674408 23:-1.0 24:-0.3333333432674408 25:-0.3333333432674408 26:0.0
-0.07517528249443707 1:-0.3333333432674408 2:0.0 3:-0.5 4:0.0 5:-1.0 6:0.0 7:1.0 8:-1.0 9:-1.0 10:0.0 11:-1.0 12:0.0 13:0.46990767121315 14:-0.9953190684318542 15:-0.9999868869781494 16:1.0 17:0.0 18:0.0 19:0.0 20:0.0 21:-0.3333333432674408 22:-0.3333333432674408 23:0.0 24:-0.3333333432674408 25:-0.3333333432674408 26:0.0
0.07517528249443707 1:-0.3333333432674408 2:0.0 3:0.0 4:0.0 5:1.0 6:0.0 7:-1.0 8:-1.0 9:-1.0 10:0.0 11:-1.0 12:0.0 13:-0.48993349075317383 14:-0.9799647927284241 15:-0.9990509748458862 16:-1.0 17:0.0 18:0.0 19:0.0 20:-1.0 21:-1.0 22:-0.3333333432674408 23:0.0 24:-1.0 25:-0.3333333432674408 26:0.0
-0.07517528249443707 1:-1.0 2:0.0 3:-1.0 4:-1.0 5:1.0 6:0.0 7:-1.0 8:-1.0 9:-1.0 10:0.0 11:-1.0 12:0.0 13:-0.598209798336029 14:-0.7786322236061096 15:-0.2778448462486267 16:-1.0 17:0.0 18:0.0 19:0.0 20:-1.0 21:-1.0 22:-1.0 23:-1.0 24:-1.0 25:-1.0 26:0.0
0.07517528249443707 1:-0.3333333432674408 2:0.0 3:-0.20000000298023224 4:0.0 5:-1.0 6:0.0 7:1.0 8:-1.0 9:-1.0 10:0.0 11:-1.0 12:0.0 13:-0.31674376130104065 14:-0.964960515499115 15:-0.9979263544082642 16:1.0 17:0.0 18:0.0 19:0.0 20:-1.0 21:-1.0 22:-1.0 23:-1.0 24:-1.0 25:-1.0 26:0.0
-0.07517528249443707 1:0.3333333432674408 2:0.0 3:-0.30000001192092896 4:1.0 5:-1.0 6:0.0 7:-1.0 8:-1.0 9:-1.0 10:0.0 11:-1.0 12:0.0 13:0.9513390064239502 14:-0.9918441772460938 15:-0.9998571872711182 16:1.0 17:0.0 18:0.0 19:0.0 20:0.0 21:-0.3333333432674408 22:-1.0 23:0.0 24:-0.3333333432674408 25:-1.0 26:0.0
-0.07517528249443707 1:-0.3333333432674408 2:0.0 3:0.0 4:0.0 5:-1.0 6:0.0 7:1.0 8:-1.0 9:-1.0 10:0.0 11:-1.0 12:0.0 13:-0.49170950055122375 14:-0.894450843334198 15:-0.9648837447166443 16:1.0 17:0.0 18:0.0 19:0.0 20:-1.0 21:-1.0 22:-1.0 23:-1.0 24:-1.0 25:-1.0 26:0.0
-0.07517528249443707 1:-0.3333333432674408 2:0.0 3:-0.6000000238418579 4:0.0 5:-1.0 6:0.0 7:1.0 8:-1.0 9:-1.0 10:0.0 11:-1.0 12:0.0 13:-0.38369739055633545 14:-0.5954195261001587 15:-0.8740479350090027 16:1.0 17:0.0 18:0.0 19:0.0 20:-1.0 21:-0.3333333432674408 22:-0.3333333432674408 23:0.0 24:-0.3333333432674408 25:-0.3333333432674408 26:0.0
0.07517528249443707 1:-1.0 2:0.0 3:-1.0 4:-1.0 5:1.0 6:0.0 7:-1.0 8:-1.0 9:-1.0 10:0.0 11:-1.0 12:0.0 13:-0.42028045654296875 14:-0.9528133869171143 15:-0.9972635507583618 16:-1.0 17:0.0 18:0.0 19:0.0 20:-1.0 21:-1.0 22:-1.0 23:-1.0 24:-1.0 25:-1.0 26:0.0
0.07517528249443707 1:-1.0 2:0.0 3:-1.0 4:-1.0 5:1.0 6:0.0 7:-1.0 8:-1.0 9:-1.0 10:0.0 11:-1.0 12:0.0 13:-0.2271881401538849 14:-0.8469992280006409 15:-0.9894353747367859 16:-1.0 17:0.0 18:0.0 19:0.0 20:-1.0 21:-1.0 22:-1.0 23:-1.0 24:-1.0 25:-1.0 26:0.0
0.07517528249443707 1:-1.0 2:0.0 3:-1.0 4:-1.0 5:-1.0 6:0.0 7:-1.0 8:-1.0 9:-1.0 10:0.0 11:-1.0 12:0.0 13:-0.9592447876930237 14:-0.9665963053703308 15:-0.9821993708610535 16:-1.0 17:0.0 18:0.0 19:0.0 20:-1.0 21:-1.0 22:-1.0 23:-1.0 24:-1.0 25:-1.0 26:0.0
-0.07517528249443707 1:-1.0 2:0.0 3:-1.0 4:-1.0 5:1.0 6:0.0 7:-1.0 8:-1.0 9:-1.0 10:0.0 11:-1.0 12:0.0 13:-0.8894813060760498 14:-0.983269214630127 15:-0.9993641376495361 16:-1.0 17:0.0 18:0.0 19:0.0 20:-1.0 21:-1.0 22:-1.0 23:-1.0 24:-1.0 25:-1.0 26:0.0
0.07517528249443707 1:-0.3333333432674408 2:0.0 3:0.20000000298023224 4:0.0 5:-1.0 6:0.0 7:-1.0 8:-1.0 9:-1.0 10:0.0 11:-1.0 12:0.0 13:-0.15167701244354248 14:-0.9868110418319702 15:-0.9995517134666443 16:1.0 17:0.0 18:0.0 19:0.0 20:0.0 21:-0.3333333432674408 22:-0.3333333432674408 23:0.0 24:-0.3333333432674408 25:-0.3333333432674408 26:0.0
-0.07517528249443707 1:-1.0 2:0.0 3:-1.0 4:-1.0 5:1.0 6:0.0 7:-1.0 8:-1.0 9:-1.0 10:0.0 11:-1.0 12:0.0 13:0.38136500120162964 14:-0.9722589254379272 15:-0.9981276988983154 16:-1.0 17:0.0 18:0.0 19:0.0 20:-1.0 21:-0.3333333432674408 22:-0.3333333432674408 23:0.0 24:-0.3333333432674408 25:-0.3333333432674408 26:0.0
0.07517528249443707 1:1.0 2:0.0 3:-0.5 4:1.0 5:-1.0 6:0.0 7:-1.0 8:-1.0 9:-1.0 10:0.0 11:-1.0 12:0.0 13:0.06179232895374298 14:-0.9940593242645264 15:-0.9997308254241943 16:1.0 17:0.0 18:0.0 19:0.0 20:-1.0 21:-1.0 22:-1.0 23:0.0 24:-1.0 25:-1.0 26:0.0
0.07517528249443707 1:-1.0 2:0.0 3:-1.0 4:-1.0 5:1.0 6:0.0 7:-1.0 8:-1.0 9:-1.0 10:0.0 11:-1.0 12:0.0 13:-0.5619613528251648 14:-0.9877363443374634 15:-0.999757707118988 16:1.0 17:0.0 18:0.0 19:0.0 20:-1.0 21:-1.0 22:-1.0 23:-1.0 24:-1.0 25:-1.0 26:0.0
-0.07517528249443707 1:-0.3333333432674408 2:0.0 3:-0.5 4:0.0 5:-1.0 6:0.0 7:-1.0 8:-1.0 9:-1.0 10:0.0 11:-1.0 12:0.0 13:-0.11029672622680664 14:-0.9621530771255493 15:-0.9851149916648865 16:-1.0 17:0.0 18:0.0 19:0.0 20:-1.0 21:-1.0 22:-1.0 23:-1.0 24:-1.0 25:-1.0 26:0.0
-0.07517528249443707 1:-0.3333333432674408 2:0.0 3:-0.699999988079071 4:0.0 5:1.0 6:0.0 7:1.0 8:-1.0 9:-1.0 10:0.0 11:-1.0 12:0.0 13:0.47991982102394104 14:-0.5110777616500854 15:-0.7607737183570862 16:1.0 17:0.0 18:0.0 19:0.0 20:0.0 21:-0.3333333432674408 22:-0.3333333432674408 23:0.0 24:-0.3333333432674408 25:-0.3333333432674408 26:0.0
0.07517528249443707 1:0.3333333432674408 2:0.0 3:-0.699999988079071 4:0.0 5:-1.0 6:0.0 7:-1.0 8:-1.0 9:-1.0 10:0.0 11:-1.0 12:0.0 13:0.014401711523532867 14:-0.9798099994659424 15:-0.999557614326477 16:-1.0 17:0.0 18:0.0 19:0.0 20:-1.0 21:-1.0 22:-1.0 23:-1.0 24:-1.0 25:-1.0 26:0.0
-0.07517528249443707 1:-1.0 2:0.0 3:-1.0 4:-1.0 5:-1.0 6:0.0 7:-1.0 8:-1.0 9:-1.0 10:0.0 11:-1.0 12:0.0 13:-0.5891345143318176 14:-0.9832073450088501 15:-0.9992290139198303 16:-1.0 17:0.0 18:0.0 19:0.0 20:0.0 21:-1.0 22:-1.0 23:-1.0 24:-1.0 25:-1.0 26:0.0
0.07517528249443707 1:-0.3333333432674408 2:0.0 3:0.10000000149011612 4:0.0 5:-1.0 6:0.0 7:-1.0 8:-1.0 9:-1.0 10:0.0 11:-1.0 12:0.0 13:-0.01554863527417183 14:-0.9587303996086121 15:-0.9968045353889465 16:1.0 17:0.0 18:0.0 19:0.0 20:-1.0 21:-1.0 22:-1.0 23:-1.0 24:-1.0 25:-1.0 26:0.0
0.07517528249443707 1:-1.0 2:0.0 3:-1.0 4:-1.0 5:-1.0 6:0.0 7:1.0 8:-1.0 9:-1.0 10:0.0 11:-1.0 12:0.0 13:-0.8388839364051819 14:-0.9512526988983154 15:-0.991258978843689 16:-1.0 17:0.0 18:0.0 19:0.0 20:-1.0 21:-1.0 22:-1.0 23:-1.0 24:-1.0 25:-1.0 26:0.0
0.07517528249443707 1:-0.3333333432674408 2:0.0 3:-0.30000001192092896 4:0.0 5:1.0 6:0.0 7:-1.0 8:-1.0 9:-1.0 10:0.0 11:-1.0 12:0.0 13:-0.8800300359725952 14:-0.9425148963928223 15:-0.9734741449356079 16:-1.0 17:0.0 18:0.0 19:0.0 20:-1.0 21:-0.3333333432674408 22:-1.0 23:0.0 24:-0.3333333432674408 25:-1.0 26:0.0
-0.07517528249443707 1:-0.3333333432674408 2:0.0 3:0.30000001192092896 4:0.0 5:1.0 6:0.0 7:-1.0 8:-1.0 9:-1.0 10:0.0 11:-1.0 12:0.0 13:0.5367566347122192 14:-0.8412882685661316 15:-0.9890650510787964 16:-1.0 17:0.0 18:0.0 19:0.0 20:0.0 21:-1.0 22:-0.3333333432674408 23:0.0 24:-1.0 25:-0.3333333432674408 26:0.0
0.07517528249443707 1:-1.0 2:0.0 3:-1.0 4:-1.0 5:-1.0 6:0.0 7:-1.0 8:-1.0 9:-1.0 10:0.0 11:-1.0 12:0.0 13:-0.8826369643211365 14:-0.9561486840248108 15:-0.9810508489608765 16:1.0 17:0.0 18:0.0 19:0.0 20:-1.0 21:-1.0 22:-1.0 23:-1.0 24:-1.0 25:-1.0 26:0.0
-0.07517528249443707 1:-1.0 2:0.0 3:-1.0 4:-1.0 5:-1.0 6:0.0 7:-1.0 8:-1.0 9:-1.0 10:0.0 11:-1.0 12:0.0 13:-0.9968476891517639 14:-0.9554733633995056 15:-0.9779474139213562 16:1.0 17:0.0 18:0.0 19:0.0 20:-1.0 21:-1.0 22:-1.0 23:-1.0 24:-1.0 25:-1.0 26:0.0
0.07517528249443707 1:-0.3333333432674408 2:0.0 3:0.5 4:0.0 5:1.0 6:0.0 7:-1.0 8:-1.0 9:-1.0 10:0.0 11:-1.0 12:0.0 13:0.2886859178543091 14:-0.9843119382858276 15:-0.9995859265327454 16:-1.0 17:0.0 18:0.0 19:0.0 20:0.0 21:-1.0 22:-0.3333333432674408 23:0.0 24:-0.3333333432674408 25:-0.3333333432674408 26:0.0
0.07517528249443707 1:-1.0 2:0.0 3:-1.0 4:-1.0 5:-1.0 6:0.0 7:-1.0 8:-1.0 9:-1.0 10:0.0 11:-1.0 12:0.0 13:-0.6190251708030701 14:-0.9247725009918213 15:-0.9959192276000977 16:1.0 17:0.0 18:0.0 19:0.0 20:-1.0 21:-1.0 22:-1.0 23:-1.0 24:-1.0 25:-1.0 26:0.0
-0.07517528249443707 1:-1.0 2:0.0 3:-1.0 4:-1.0 5:-1.0 6:0.0 7:-1.0 8:-1.0 9:-1.0 10:0.0 11:-1.0 12:0.0 13:0.2023811638355255 14:-0.989932656288147 15:-0.9998993873596191 16:1.0 17:0.0 18:0.0 19:0.0 20:-1.0 21:-1.0 22:-1.0 23:-1.0 24:-1.0 25:-1.0 26:0.0
0.07517528249443707 1:-0.3333333432674408 2:0.0 3:0.0 4:0.0 5:1.0 6:0.0 7:1.0 8:-1.0 9:-1.0 10:0.0 11:-1.0 12:0.0 13:-0.6186487674713135 14:-0.6194628477096558 15:-0.7733047604560852 16:1.0 17:0.0 18:0.0 19:0.0 20:-1.0 21:-0.3333333432674408 22:-0.3333333432674408 23:0.0 24:-0.3333333432674408 25:-0.3333333432674408 26:0.0
-0.07517528249443707 1:-0.3333333432674408 2:0.0 3:-0.4000000059604645 4:0.0 5:1.0 6:0.0 7:-1.0 8:-1.0 9:-1.0 10:0.0 11:-1.0 12:0.0 13:-0.7956597208976746 14:-0.9842295050621033 15:-0.9992468953132629 16:1.0 17:0.0 18:0.0 19:0.0 20:0.0 21:-1.0 22:-0.3333333432674408 23:0.0 24:-0.3333333432674408 25:-0.3333333432674408 26:0.0
0.07517528249443707 1:-1.0 2:0.0 3:-1.0 4:-1.0 5:-1.0 6:0.0 7:-1.0 8:-1.0 9:-1.0 10:0.0 11:-1.0 12:0.0 13:0.31797435879707336 14:-0.9365493655204773 15:-0.9983422756195068 16:-1.0 17:0.0 18:0.0 19:0.0 20:-1.0 21:-1.0 22:-1.0 23:-1.0 24:-1.0 25:-1.0 26:0.0
-0.07517528249443707 1:-1.0 2:0.0 3:-1.0 4:-1.0 5:-1.0 6:0.0 7:1.0 8:-1.0 9:-1.0 10:0.0 11:-1.0 12:0.0 13:0.09544304013252258 14:-0.9954493641853333 15:-0.9999848008155823 16:-1.0 17:0.0 18:0.0 19:0.0 20:-1.0 21:-1.0 22:-1.0 23:-1.0 24:-1.0 25:-1.0 26:0.0
-0.07517528249443707 1:-1.0 2:0.0 3:-1.0 4:-1.0 5:-1.0 6:0.0 7:1.0 8:-1.0 9:-1.0 10:0.0 11:-1.0 12:0.0 13:-0.5742908120155334 14:-0.9903014898300171 15:-0.9999109506607056 16:-1.0 17:0.0 18:0.0 19:0.0 20:-1.0 21:-1.0 22:-1.0 23:-1.0 24:-1.0 25:-1.0 26:0.0
-0.07517528249443707 1:-1.0 2:0.0 3:-1.0 4:-1.0 5:-1.0 6:0.0 7:1.0 8:-1.0 9:-1.0 10:0.0 11:-1.0 12:0.0 13:-0.7803655862808228 14:-0.9572416543960571 15:-0.9944953918457031 16:-1.0 17:0.0 18:0.0 19:0.0 20:-1.0 21:-1.0 22:-1.0 23:-1.0 24:-1.0 25:-1.0 26:0.0
0.07517528249443707 1:-0.3333333432674408 2:0.0 3:-0.30000001192092896 4:0.0 5:1.0 6:0.0 7:-1.0 8:-1.0 9:-1.0 10:0.0 11:-1.0 12:0.0 13:-0.7030079364776611 14:-0.9775341749191284 15:-0.994434118270874 16:1.0 17:0.0 18:0.0 19:0.0 20:0.0 21:-0.3333333432674408 22:-0.3333333432674408 23:0.0 24:-0.3333333432674408 25:-0.3333333432674408 26:0.0
0.07517528249443707 1:-0.3333333432674408 2:0.0 3:0.0 4:0.0 5:1.0 6:0.0 7:-1.0 8:-1.0 9:-1.0 10:0.0 11:-1.0 12:0.0 13:-0.7119130492210388 14:-0.971831202507019 15:-0.9973576068878174 16:1.0 17:0.0 18:0.0 19:0.0 20:0.0 21:-0.3333333432674408 22:-0.3333333432674408 23:0.0 24:-0.3333333432674408 25:-0.3333333432674408 26:0.0
-0.07517528249443707 1:-0.3333333432674408 2:0.0 3:-0.10000000149011612 4:0.0 5:1.0 6:0.0 7:-1.0 8:-1.0 9:-1.0 10:0.0 11:-1.0 12:0.0 13:-0.32118070125579834 14:-0.981700599193573 15:-0.999364972114563 16:1.0 17:0.0 18:0.0 19:0.0 20:0.0 21:-0.3333333432674408 22:-0.3333333432674408 23:0.0 24:-0.3333333432674408 25:-0.3333333432674408 26:0.0
0.07517528249443707 1:-1.0 2:0.0 3:-1.0 4:-1.0 5:-1.0 6:0.0 7:1.0 8:-1.0 9:-1.0 10:0.0 11:-1.0 12:0.0 13:-0.22018754482269287 14:-0.9962716102600098 15:-0.9999909996986389 16:-1.0 17:0.0 18:0.0 19:0.0 20:-1.0 21:-1.0 22:-1.0 23:-1.0 24:-1.0 25:-1.0 26:0.0
-0.07517528249443707 1:-0.3333333432674408 2:0.0 3:0.10000000149011612 4:0.0 5:1.0 6:0.0 7:-1.0 8:-1.0 9:-1.0 10:0.0 11:-1.0 12:0.0 13:-0.7692671418190002 14:-0.8978361487388611 15:-0.9233827590942383 16:1.0 17:0.0 18:0.0 19:0.0 20:-1.0 21:-0.3333333432674408 22:-0.3333333432674408 23:0.0 24:-0.3333333432674408 25:-0.3333333432674408 26:0.0
-0.07517528249443707 1:-0.3333333432674408 2:0.0 3:-0.20000000298023224 4:0.0 5:1.0 6:0.0 7:-1.0 8:-1.0 9:-1.0 10:0.0 11:-1.0 12:0.0 13:-0.22229985892772675 14:-0.960238516330719 15:-0.9975773692131042 16:1.0 17:0.0 18:0.0 19:0.0 20:0.0 21:-0.3333333432674408 22:-0.3333333432674408 23:-1.0 24:-0.3333333432674408 25:-0.3333333432674408 26:0.0
-0.07517528249443707 1:-0.3333333432674408 2:0.0 3:-0.6000000238418579 4:0.0 5:1.0 6:0.0 7:-1.0 8:-1.0 9:-1.0 10:0.0 11:-1.0 12:0.0 13:-0.47088757157325745 14:-0.8942831754684448 15:-0.9792618751525879 16:1.0 17:0.0 18:0.0 19:0.0 20:0.0 21:-0.3333333432674408 22:-0.3333333432674408 23:0.0 24:-0.3333333432674408 25:-0.3333333432674408 26:0.0
0.07517528249443707 1:-1.0 2:0.0 3:-1.0 4:-1.0 5:-1.0 6:0.0 7:1.0 8:-1.0 9:-1.0 10:0.0 11:-1.0 12:0.0 13:0.37066328525543213 14:-0.9972906708717346 15:-0.9999962449073792 16:-1.0 17:0.0 18:0.0 19:0.0 20:-1.0 21:-1.0 22:-1.0 23:-1.0 24:-1.0 25:-1.0 26:0.0
0.07517528249443707 1:-0.3333333432674408 2:0.0 3:-0.6000000238418579 4:0.0 5:-1.0 6:0.0 7:1.0 8:-1.0 9:-1.0 10:0.0 11:-1.0 12:0.0 13:-0.16073936223983765 14:-0.9727345108985901 15:-0.9962717294692993 16:-1.0 17:0.0 18:0.0 19:0.0 20:-1.0 21:-1.0 22:-1.0 23:-1.0 24:-1.0 25:-1.0 26:0.0
-0.07517528249443707 1:-0.3333333432674408 2:0.0 3:0.20000000298023224 4:0.0 5:-1.0 6:0.0 7:-1.0 8:-1.0 9:-1.0 10:0.0 11:-1.0 12:0.0 13:-0.9579874277114868 14:-0.9651693105697632 15:-0.9667964577674866 16:1.0 17:0.0 18:0.0 19:0.0 20:-1.0 21:-1.0 22:-1.0 23:-1.0 24:-1.0 25:-1.0 26:0.0
-0.07517528249443707 1:-0.3333333432674408 2:0.0 3:-0.5 4:0.0 5:-1.0 6:0.0 7:1.0 8:-1.0 9:-1.0 10:0.0 11:-1.0 12:0.0 13:0.5549035668373108 14:-0.9964441657066345 15:-0.999984085559845 16:-1.0 17:0.0 18:0.0 19:0.0 20:-1.0 21:-1.0 22:-1.0 23:-1.0 24:-1.0 25:-1.0 26:0.0
0.07517528249443707 1:-0.3333333432674408 2:0.0 3:0.5 4:0.0 5:1.0 6:0.0 7:-1.0 8:-1.0 9:-1.0 10:0.0 11:-1.0 12:0.0 13:-0.7687790393829346 14:-0.8809565305709839 15:-0.9600131511688232 16:1.0 17:0.0 18:0.0 19:0.0 20:-1.0 21:-1.0 22:-0.3333333432674408 23:0.0 24:-0.3333333432674408 25:-0.3333333432674408 26:0.0
-0.07517528249443707 1:-0.3333333432674408 2:0.0 3:0.699999988079071 4:0.0 5:-1.0 6:0.0 7:1.0 8:-1.0 9:-1.0 10:0.0 11:-1.0 12:0.0 13:-0.7252334356307983 14:-0.9804526567459106 15:-0.9995077848434448 16:-1.0 17:0.0 18:0.0 19:0.0 20:-1.0 21:-0.3333333432674408 22:-0.3333333432674408 23:0.0 24:-0.3333333432674408 25:-0.3333333432674408 26:0.0
0.07517528249443707 1:-0.3333333432674408 2:0.0 3:-0.30000001192092896 4:0.0 5:1.0 6:0.0 7:-1.0 8:-1.0 9:-1.0 10:0.0 11:-1.0 12:0.0 13:-0.6008315682411194 14:-0.9064212441444397 15:-0.9951031804084778 16:1.0 17:0.0 18:0.0 19:0.0 20:-1.0 21:-1.0 22:-1.0 23:-1.0 24:-1.0 25:-1.0 26:0.0
-0.07517528249443707 1:-1.0 2:0.0 3:-1.0 4:-1.0 5:1.0 6:0.0 7:-1.0 8:-1.0 9:-1.0 10:0.0 11:-1.0 12:0.0 13:-0.8106591701507568 14:-0.9763961434364319 15:-0.9926722645759583 16:1.0 17:0.0 18:0.0 19:0.0 20:-1.0 21:-1.0 22:-1.0 23:-1.0 24:-1.0 25:-1.0 26:0.0
0.07517528249443707 1:-0.3333333432674408 2:0.0 3:0.10000000149011612 4:0.0 5:-1.0 6:0.0 7:1.0 8:-1.0 9:-1.0 10:0.0 11:-1.0 12:0.0 13:-0.658585786819458 14:-0.9934330582618713 15:-0.9999107718467712 16:-1.0 17:0.0 18:0.0 19:0.0 20:0.0 21:-0.3333333432674408 22:-0.3333333432674408 23:0.0 24:-0.3333333432674408 25:-0.3333333432674408 26:0.0
-0.07517528249443707 1:-0.3333333432674408 2:0.0 3:-0.5 4:0.0 5:-1.0 6:0.0 7:-1.0 8:-1.0 9:-1.0 10:0.0 11:-1.0 12:0.0 13:0.46547719836235046 14:-0.98662930727005 15:-0.9998168349266052 16:-1.0 17:0.0 18:0.0 19:0.0 20:0.0 21:-0.3333333432674408 22:-0.3333333432674408 23:0.0 24:0.3333333432674408 25:-0.3333333432674408 26:0.0
0.07517528249443707 1:-0.3333333432674408 2:0.0 3:-0.4000000059604645 4:0.0 5:1.0 6:0.0 7:-1.0 8:-1.0 9:-1.0 10:0.0 11:-1.0 12:0.0 13:-0.9514063000679016 14:-0.9879763722419739 15:-0.9987922310829163 16:1.0 17:0.0 18:0.0 19:0.0 20:-1.0 21:-1.0 22:-1.0 23:-1.0 24:-1.0 25:-1.0 26:0.0
0.07517528249443707 1:-0.3333333432674408 2:0.0 3:0.0 4:0.0 5:-1.0 6:0.0 7:-1.0 8:-1.0 9:-1.0 10:0.0 11:-1.0 12:0.0 13:0.48983335494995117 14:-0.9736946225166321 15:-0.999667227268219 16:-1.0 17:0.0 18:0.0 19:0.0 20:-1.0 21:-0.3333333432674408 22:-0.3333333432674408 23:0.0 24:-0.3333333432674408 25:-0.3333333432674408 26:0.0
-0.07517528249443707 1:-0.3333333432674408 2:0.0 3:-0.10000000149011612 4:0.0 5:1.0 6:0.0 7:1.0 8:-1.0 9:-1.0 10:0.0 11:-1.0 12:0.0 13:-0.8832600712776184 14:-0.9209290742874146 15:-0.9470839500427246 16:1.0 17:0.0 18:0.0 19:0.0 20:-1.0 21:-1.0 22:-1.0 23:-1.0 24:-1.0 25:-1.0 26:0.0
0.07517528249443707 1:-0.3333333432674408 2:0.0 3:-0.30000001192092896 4:0.0 5:-1.0 6:0.0 7:-1.0 8:-1.0 9:-1.0 10:0.0 11:-1.0 12:0.0 13:0.19838613271713257 14:-0.9973756670951843 15:-0.9999585151672363 16:-1.0 17:0.0 18:0.0 19:0.0 20:-1.0 21:-0.3333333432674408 22:-1.0 23:-1.0 24:-1.0 25:-1.0 26:0.0
0.07517528249443707 1:-0.3333333432674408 2:0.0 3:0.10000000149011612 4:0.0 5:1.0 6:0.0 7:1.0 8:-1.0 9:-1.0 10:0.0 11:-1.0 12:0.0 13:-0.9690899848937988 14:-0.985524594783783 15:-0.9974363446235657 16:1.0 17:0.0 18:0.0 19:0.0 20:-1.0 21:-1.0 22:-1.0 23:-1.0 24:-1.0 25:-1.0 26:0.0
-0.07517528249443707 1:-0.3333333432674408 2:0.0 3:0.699999988079071 4:0.0 5:1.0 6:0.0 7:-1.0 8:-1.0 9:-1.0 10:0.0 11:-1.0 12:0.0 13:-0.45989784598350525 14:-0.9872266054153442 15:-0.9997565746307373 16:1.0 17:0.0 18:0.0 19:0.0 20:-1.0 21:-1.0 22:-1.0 23:-1.0 24:-1.0 25:-1.0 26:0.0
-0.07517528249443707 1:-1.0 2:0.0 3:-1.0 4:-1.0 5:-1.0 6:0.0 7:1.0 8:-1.0 9:-1.0 10:0.0 11:-1.0 12:0.0 13:-0.40264829993247986 14:-0.8553963303565979 15:-0.9823067784309387 16:-1.0 17:0.0 18:0.0 19:0.0 20:-1.0 21:-1.0 22:-0.3333333432674408 23:0.0 24:-1.0 25:-0.3333333432674408 26:0.0
-0.07517528249443707 1:-0.3333333432674408 2:0.0 3:-0.5 4:0.0 5:-1.0 6:0.0 7:1.0 8:-1.0 9:-1.0 10:0.0 11:-1.0 12:0.0 13:-0.7685720920562744 14:-0.49210646748542786 15:-0.5200868248939514 16:-1.0 17:0.0 18:0.0 19:0.0 20:0.0 21:-1.0 22:-0.3333333432674408 23:0.0 24:-0.3333333432674408 25:-0.3333333432674408 26:0.0
-0.07517528249443707 1:-0.3333333432674408 2:0.0 3:0.0 4:0.0 5:-1.0 6:0.0 7:1.0 8:-1.0 9:-1.0 10:0.0 11:-1.0 12:0.0 13:-0.5530393123626709 14:-0.9940556883811951 15:-0.9998950958251953 16:-1.0 17:0.0 18:0.0 19:0.0 20:0.0 21:-0.3333333432674408 22:-0.3333333432674408 23:0.0 24:-0.3333333432674408 25:-0.3333333432674408 26:0.0
-0.07517528249443707 1:-0.3333333432674408 2:0.0 3:0.20000000298023224 4:0.0 5:-1.0 6:0.0 7:-1.0 8:-1.0 9:-1.0 10:0.0 11:-1.0 12:0.0 13:-0.5277844071388245 14:-0.7831152081489563 15:-0.9179152250289917 16:-1.0 17:0.0 18:0.0 19:0.0 20:0.0 21:-0.3333333432674408 22:-1.0 23:-1.0 24:-1.0 25:-1.0 26:0.0
-0.07517528249443707 1:-0.3333333432674408 2:0.0 3:-0.4000000059604645 4:0.0 5:1.0 6:0.0 7:-1.0 8:-1.0 9:-1.0 10:0.0 11:-1.0 12:0.0 13:0.7757495045661926 14:-0.9894239902496338 15:-0.9997649788856506 16:1.0 17:0.0 18:0.0 19:0.0 20:-1.0 21:-1.0 22:-1.0 23:-1.0 24:-1.0 25:-1.0 26:0.0
-0.07517528249443707 1:-0.3333333432674408 2:0.0 3:-0.699999988079071 4:0.0 5:1.0 6:0.0 7:-1.0 8:-1.0 9:-1.0 10:0.0 11:-1.0 12:0.0 13:0.06386338174343109 14:-0.929970383644104 15:-0.9848434329032898 16:1.0 17:0.0 18:0.0 19:0.0 20:-1.0 21:-0.3333333432674408 22:-1.0 23:-1.0 24:-1.0 25:-1.0 26:0.0
-0.07517528249443707 1:-0.3333333432674408 2:0.0 3:-0.6000000238418579 4:0.0 5:1.0 6:0.0 7:-1.0 8:-1.0 9:-1.0 10:0.0 11:-1.0 12:0.0 13:0.12838493287563324 14:-0.977314293384552 15:-0.9992210268974304 16:1.0 17:0.0 18:0.0 19:0.0 20:-1.0 21:-1.0 22:-1.0 23:-1.0 24:-1.0 25:-1.0 26:0.0
-0.07517528249443707 1:-0.3333333432674408 2:0.0 3:-0.699999988079071 4:0.0 5:1.0 6:0.0 7:-1.0 8:-1.0 9:-1.0 10:0.0 11:-1.0 12:0.0 13:-0.5614206790924072 14:-0.9928808212280273 15:-0.9997305870056152 16:1.0 17:0.0 18:0.0 19:0.0 20:-1.0 21:-1.0 22:-1.0 23:-1.0 24:-1.0 25:-1.0 26:0.0
-0.07517528249443707 1:-0.3333333432674408 2:0.0 3:-0.699999988079071 4:0.0 5:-1.0 6:0.0 7:-1.0 8:-1.0 9:-1.0 10:0.0 11:-1.0 12:0.0 13:0.17740470170974731 14:-0.9857040643692017 15:-0.9995682835578918 16:1.0 17:0.0 18:0.0 19:0.0 20:0.0 21:-0.3333333432674408 22:-1.0 23:-1.0 24:-1.0 25:-1.0 26:0.0
-0.07517528249443707 1:-0.3333333432674408 2:0.0 3:-0.30000001192092896 4:0.0 5:-1.0 6:0.0 7:-1.0 8:-1.0 9:-1.0 10:0.0 11:-1.0 12:0.0 13:0.63111412525177 14:-0.9899094700813293 15:-0.9999133944511414 16:1.0 17:0.0 18:0.0 19:0.0 20:0.0 21:-1.0 22:-1.0 23:0.0 24:-1.0 25:-1.0 26:0.0
0.07517528249443707 1:-1.0 2:0.0 3:-1.0 4:-1.0 5:1.0 6:0.0 7:1.0 8:-1.0 9:-1.0 10:0.0 11:-1.0 12:0.0 13:-0.6990059018135071 14:-0.9783316254615784 15:-0.9981861114501953 16:-1.0 17:0.0 18:0.0 19:0.0 20:-1.0 21:-1.0 22:-1.0 23:-1.0 24:-1.0 25:-1.0 26:0.0
-0.07517528249443707 1:-1.0 2:0.0 3:-1.0 4:-1.0 5:-1.0 6:0.0 7:-1.0 8:-1.0 9:-1.0 10:0.0 11:-1.0 12:0.0 13:0.14721953868865967 14:-0.99825519323349 15:-0.9999609589576721 16:1.0 17:0.0 18:0.0 19:0.0 20:-1.0 21:-1.0 22:-1.0 23:-1.0 24:-1.0 25:-1.0 26:0.0
0.07517528249443707 1:-0.3333333432674408 2:0.0 3:0.4000000059604645 4:0.0 5:-1.0 6:0.0 7:1.0 8:-1.0 9:-1.0 10:0.0 11:-1.0 12:0.0 13:-0.29215773940086365 14:-0.9973982572555542 15:-0.9999914765357971 16:-1.0 17:0.0 18:0.0 19:0.0 20:0.0 21:-1.0 22:-1.0 23:-1.0 24:-0.3333333432674408 25:-1.0 26:0.0
-0.07517528249443707 1:-0.3333333432674408 2:0.0 3:-0.699999988079071 4:0.0 5:1.0 6:0.0 7:1.0 8:-1.0 9:-1.0 10:0.0 11:-1.0 12:0.0 13:-0.015328345820307732 14:-0.9854463934898376 15:-0.9994460344314575 16:1.0 17:0.0 18:0.0 19:0.0 20:-1.0 21:-1.0 22:-1.0 23:-1.0 24:-1.0 25:-1.0 26:0.0
0.07517528249443707 1:-0.3333333432674408 2:0.0 3:0.4000000059604645 4:0.0 5:-1.0 6:0.0 7:-1.0 8:-1.0 9:-1.0 10:0.0 11:-1.0 12:0.0 13:-0.9393633008003235 14:-0.9495448470115662 15:-0.993754506111145 16:-1.0 17:0.0 18:0.0 19:0.0 20:-1.0 21:-1.0 22:-1.0 23:-1.0 24:-1.0 25:-1.0 26:0.0
-0.07517528249443707 1:-0.3333333432674408 2:0.0 3:-0.20000000298023224 4:0.0 5:-1.0 6:0.0 7:-1.0 8:-1.0 9:-1.0 10:0.0 11:-1.0 12:0.0 13:-0.9504121541976929 14:-0.9680864810943604 15:-0.9985465407371521 16:1.0 17:0.0 18:0.0 19:0.0 20:-1.0 21:-1.0 22:-1.0 23:-1.0 24:-1.0 25:-1.0 26:0.0
-0.07517528249443707 1:-0.3333333432674408 2:0.0 3:-0.800000011920929 4:0.0 5:-1.0 6:0.0 7:-1.0 8:-1.0 9:-1.0 10:0.0 11:-1.0 12:0.0 13:-0.7960168123245239 14:-0.9661642909049988 15:-0.9941678047180176 16:1.0 17:0.0 18:0.0 19:0.0 20:-1.0 21:-1.0 22:-1.0 23:-1.0 24:-1.0 25:-1.0 26:0.0
-0.07517528249443707 1:-0.3333333432674408 2:0.0 3:-0.5 4:0.0 5:1.0 6:0.0 7:1.0 8:-1.0 9:-1.0 10:0.0 11:-1.0 12:0.0 13:0.16005012392997742 14:-0.9939078092575073 15:-0.9999721050262451 16:1.0 17:0.0 18:0.0 19:0.0 20:-1.0 21:-1.0 22:-1.0 23:-1.0 24:-1.0 25:-1.0 26:0.0
0.07517528249443707 1:-0.3333333432674408 2:0.0 3:-0.20000000298023224 4:0.0 5:-1.0 6:0.0 7:-1.0 8:-1.0 9:-1.0 10:0.0 11:-1.0 12:0.0 13:-0.8305404186248779 14:-0.9830929040908813 15:-0.9989235997200012 16:-1.0 17:0.0 18:0.0 19:0.0 20:-1.0 21:-0.3333333432674408 22:-0.3333333432674408 23:0.0 24:-0.3333333432674408 25:-0.3333333432674408 26:0.0
-0.07517528249443707 1:-1.0 2:0.0 3:-1.0 4:-1.0 5:-1.0 6:0.0 7:-1.0 8:-1.0 9:-1.0 10:0.0 11:-1.0 12:0.0 13:-0.6079299449920654 14:-0.9139271974563599 15:-0.9962119460105896 16:-1.0 17:0.0 18:0.0 19:0.0 20:0.0 21:-0.3333333432674408 22:-1.0 23:0.0 24:-0.3333333432674408 25:-1.0 26:0.0
0.07517528249443707 1:-0.3333333432674408 2:0.0 3:-0.4000000059604645 4:0.0 5:1.0 6:0.0 7:1.0 8:-1.0 9:-1.0 10:0.0 11:-1.0 12:0.0 13:-0.8096156120300293 14:-0.8056184649467468 15:-0.7040830850601196 16:1.0 17:0.0 18:0.0 19:0.0 20:-1.0 21:-1.0 22:-1.0 23:-1.0 24:-1.0 25:-1.0 26:0.0
-0.07517528249443707 1:-0.3333333432674408 2:0.0 3:-0.699999988079071 4:0.0 5:1.0 6:0.0 7:1.0 8:-1.0 9:-1.0 10:0.0 11:-1.0 12:0.0 13:-0.5764005184173584 14:-0.9920139908790588 15:-0.9999279379844666 16:1.0 17:0.0 18:0.0 19:0.0 20:-1.0 21:-1.0 22:-1.0 23:-1.0 24:-1.0 25:-1.0 26:0.0
-0.07517528249443707 1:-0.3333333432674408 2:0.0 3:0.30000001192092896 4:0.0 5:1.0 6:0.0 7:-1.0 8:-1.0 9:-1.0 10:0.0 11:-1.0 12:0.0 13:-0.9256992936134338 14:-0.7223604321479797 15:0.15284238755702972 16:1.0 17:0.0 18:0.0 19:0.0 20:-1.0 21:-1.0 22:-1.0 23:-1.0 24:-1.0 25:-1.0 26:0.0
0.07517528249443707 1:-1.0 2:0.0 3:-1.0 4:-1.0 5:-1.0 6:0.0 7:-1.0 8:-1.0 9:-1.0 10:0.0 11:-1.0 12:0.0 13:0.1272599697113037 14:-0.8983426094055176 15:-0.9942856431007385 16:-1.0 17:0.0 18:0.0 19:0.0 20:0.0 21:-0.3333333432674408 22:-0.3333333432674408 23:0.0 24:-1.0 25:-0.3333333432674408 26:0.0
0.07517528249443707 1:-1.0 2:0.0 3:-1.0 4:-1.0 5:-1.0 6:0.0 7:-1.0 8:-1.0 9:-1.0 10:0.0 11:-1.0 12:0.0 13:0.1282021850347519 14:-0.9650101065635681 15:-0.9993762373924255 16:-1.0 17:0.0 18:0.0 19:0.0 20:-1.0 21:-1.0 22:-1.0 23:-1.0 24:-1.0 25:-1.0 26:0.0
-0.07517528249443707 1:-1.0 2:0.0 3:-1.0 4:-1.0 5:-1.0 6:0.0 7:-1.0 8:-1.0 9:-1.0 10:0.0 11:-1.0 12:0.0 13:-0.5152420401573181 14:-0.982857346534729 15:-0.9998089075088501 16:-1.0 17:0.0 18:0.0 19:0.0 20:0.0 21:-0.3333333432674408 22:-0.3333333432674408 23:0.0 24:-0.3333333432674408 25:-0.3333333432674408 26:0.0
0.07517528249443707 1:-0.3333333432674408 2:0.0 3:0.0 4:0.0 5:1.0 6:0.0 7:1.0 8:-1.0 9:-1.0 10:0.0 11:-1.0 12:0.0 13:-0.6623392105102539 14:-0.9664041996002197 15:-0.9666733145713806 16:1.0 17:0.0 18:0.0 19:0.0 20:-1.0 21:-1.0 22:-1.0 23:-1.0 24:-1.0 25:-1.0 26:0.0
-0.07517528249443707 1:-0.3333333432674408 2:0.0 3:-0.30000001192092896 4:0.0 5:-1.0 6:0.0 7:-1.0 8:-1.0 9:-1.0 10:0.0 11:-1.0 12:0.0 13:0.6914668679237366 14:-0.9890733957290649 15:-0.9998571872711182 16:-1.0 17:0.0 18:0.0 19:0.0 20:-1.0 21:-1.0 22:-1.0 23:-1.0 24:-1.0 25:-1.0 26:0.0
0.07517528249443707 1:-0.3333333432674408 2:0.0 3:-0.4000000059604645 4:0.0 5:1.0 6:0.0 7:-1.0 8:-1.0 9:-1.0 10:0.0 11:-1.0 12:0.0 13:-0.8732021450996399 14:-0.9213975071907043 15:-0.9893512725830078 16:1.0 17:0.0 18:0.0 19:0.0 20:0.0 21:-0.3333333432674408 22:-0.3333333432674408 23:-1.0 24:-1.0 25:-0.3333333432674408 26:0.0
-0.07517528249443707 1:-0.3333333432674408 2:0.0 3:-0.10000000149011612 4:0.0 5:1.0 6:0.0 7:-1.0 8:-1.0 9:-1.0 10:0.0 11:-1.0 12:0.0 13:-0.25991159677505493 14:-0.9911551475524902 15:-0.9999006390571594 16:1.0 17:0.0 18:0.0 19:0.0 20:0.0 21:-0.3333333432674408 22:-0.3333333432674408 23:0.0 24:-0.3333333432674408 25:-0.3333333432674408 26:0.0
0.07517528249443707 1:-0.3333333432674408 2:0.0 3:-0.699999988079071 4:0.0 5:-1.0 6:0.0 7:-1.0 8:-1.0 9:-1.0 10:0.0 11:-1.0 12:0.0 13:0.9734590649604797 14:-0.9616233110427856 15:-0.982905387878418 16:-1.0 17:0.0 18:0.0 19:0.0 20:-1.0 21:-1.0 22:-1.0 23:-1.0 24:-1.0 25:-1.0 26:0.0
-0.07517528249443707 1:-1.0 2:0.0 3:-1.0 4:-1.0 5:-1.0 6:0.0 7:-1.0 8:-1.0 9:-1.0 10:0.0 11:-1.0 12:0.0 13:0.5020517706871033 14:-0.9839853048324585 15:-0.9999183416366577 16:-1.0 17:0.0 18:0.0 19:0.0 20:-1.0 21:-1.0 22:-1.0 23:-1.0 24:-1.0 25:-1.0 26:0.0
0.07517528249443707 1:-0.3333333432674408 2:0.0 3:0.6000000238418579 4:0.0 5:1.0 6:0.0 7:-1.0 8:-1.0 9:-1.0 10:0.0 11:-1.0 12:0.0 13:-0.9220920205116272 14:-0.6772944927215576 15:-0.6983853578567505 16:1.0 17:0.0 18:0.0 19:0.0 20:0.0 21:-0.3333333432674408 22:-0.3333333432674408 23:0.0 24:-1.0 25:-0.3333333432674408 26:0.0
-0.07517528249443707 1:-0.3333333432674408 2:0.0 3:-0.10000000149011612 4:0.0 5:-1.0 6:0.0 7:1.0 8:-1.0 9:-1.0 10:0.0 11:-1.0 12:0.0 13:-0.1493232697248459 14:-0.9962668418884277 15:-0.9999808669090271 16:1.0 17:0.0 18:0.0 19:0.0 20:0.0 21:-0.3333333432674408 22:-0.3333333432674408 23:0.0 24:-0.3333333432674408 25:-0.3333333432674408 26:0.0
0.07517528249443707 1:-1.0 2:0.0 3:-1.0 4:-1.0 5:-1.0 6:0.0 7:-1.0 8:-1.0 9:-1.0 10:0.0 11:-1.0 12:0.0 13:0.13118603825569153 14:-0.9823294281959534 15:-0.9996615052223206 16:-1.0 17:0.0 18:0.0 19:0.0 20:-1.0 21:-1.0 22:-1.0 23:-1.0 24:-1.0 25:-1.0 26:0.0
-0.07517528249443707 1:-0.3333333432674408 2:0.0 3:0.0 4:0.0 5:1.0 6:0.0 7:-1.0 8:-1.0 9:-1.0 10:0.0 11:-1.0 12:0.0 13:-0.5424996614456177 14:-0.9834267497062683 15:-0.9990391731262207 16:-1.0 17:0.0 18:0.0 19:0.0 20:0.0 21:-0.3333333432674408 22:-1.0 23:0.0 24:-0.3333333432674408 25:-1.0 26:0.0
0.07517528249443707 1:-0.3333333432674408 2:0.0 3:-0.6000000238418579 4:0.0 5:-1.0 6:0.0 7:-1.0 8:-1.0 9:-1.0 10:0.0 11:-1.0 12:0.0 13:0.1414538323879242 14:-0.9965470433235168 15:-0.9999867677688599 16:1.0 17:0.0 18:0.0 19:0.0 20:0.0 21:-0.3333333432674408 22:-1.0 23:-1.0 24:-1.0 25:-1.0 26:0.0
-0.07517528249443707 1:-1.0 2:0.0 3:-1.0 4:-1.0 5:-1.0 6:0.0 7:1.0 8:-1.0 9:-1.0 10:0.0 11:-1.0 12:0.0 13:0.1849403977394104 14:-0.9760844111442566 15:-0.9976041913032532 16:1.0 17:0.0 18:0.0 19:0.0 20:-1.0 21:-1.0 22:-1.0 23:-1.0 24:-1.0 25:-1.0 26:0.0
0.07517528249443707 1:-0.3333333432674408 2:0.0 3:-0.4000000059604645 4:0.0 5:1.0 6:0.0 7:-1.0 8:-1.0 9:-1.0 10:0.0 11:-1.0 12:0.0 13:-0.4615612030029297 14:-0.6785671710968018 15:-0.5853331685066223 16:-1.0 17:0.0 18:0.0 19:0.0 20:-1.0 21:-0.3333333432674408 22:-0.3333333432674408 23:0.0 24:-0.3333333432674408 25:-0.3333333432674408 26:0.0
-0.07517528249443707 1:-0.3333333432674408 2:0.0 3:-0.4000000059604645 4:0.0 5:1.0 6:0.0 7:-1.0 8:-1.0 9:-1.0 10:0.0 11:-1.0 12:0.0 13:-0.13820117712020874 14:-0.9618019461631775 15:-0.9986244440078735 16:-1.0 17:0.0 18:0.0 19:0.0 20:0.0 21:-0.3333333432674408 22:-0.3333333432674408 23:0.0 24:-0.3333333432674408 25:-0.3333333432674408 26:0.0
0.07517528249443707 1:-1.0 2:0.0 3:-1.0 4:-1.0 5:-1.0 6:0.0 7:-1.0 8:-1.0 9:-1.0 10:0.0 11:-1.0 12:0.0 13:9.698666981421411E-4 14:-0.9962791204452515 15:-0.9999863505363464 16:1.0 17:0.0 18:0.0 19:0.0 20:-1.0 21:-1.0 22:-1.0 23:-1.0 24:-1.0 25:-1.0 26:0.0
-0.07517528249443707 1:-0.3333333432674408 2:0.0 3:-0.800000011920929 4:0.0 5:-1.0 6:0.0 7:1.0 8:-1.0 9:-1.0 10:0.0 11:-1.0 12:0.0 13:-0.4924125075340271 14:-0.9898926019668579 15:-0.999791145324707 16:1.0 17:0.0 18:0.0 19:0.0 20:-1.0 21:-1.0 22:-1.0 23:-1.0 24:-1.0 25:-1.0 26:0.0
0.07517528249443707 1:-0.3333333432674408 2:0.0 3:-0.30000001192092896 4:0.0 5:1.0 6:0.0 7:-1.0 8:-1.0 9:-1.0 10:0.0 11:-1.0 12:0.0 13:-0.4994884431362152 14:-0.9801397323608398 15:-0.9978772401809692 16:-1.0 17:0.0 18:0.0 19:0.0 20:0.0 21:-0.3333333432674408 22:-0.3333333432674408 23:0.0 24:-0.3333333432674408 25:-0.3333333432674408 26:0.0
-0.07517528249443707 1:-0.3333333432674408 2:0.0 3:-0.30000001192092896 4:0.0 5:1.0 6:0.0 7:-1.0 8:-1.0 9:-1.0 10:0.0 11:-1.0 12:0.0 13:0.9236475229263306 14:-0.9889902472496033 15:-0.9996132254600525 16:-1.0 17:0.0 18:0.0 19:0.0 20:-1.0 21:-0.3333333432674408 22:-0.3333333432674408 23:0.0 24:-0.3333333432674408 25:-0.3333333432674408 26:0.0
0.07517528249443707 1:-0.3333333432674408 2:0.0 3:-0.699999988079071 4:0.0 5:-1.0 6:0.0 7:1.0 8:-1.0 9:-1.0 10:0.0 11:-1.0 12:0.0 13:-0.9342775940895081 14:-0.9895488619804382 15:-0.9988735318183899 16:1.0 17:0.0 18:0.0 19:0.0 20:-1.0 21:-1.0 22:-1.0 23:-1.0 24:-1.0 25:-1.0 26:0.0
-0.07517528249443707 1:-0.3333333432674408 2:0.0 3:-0.10000000149011612 4:0.0 5:-1.0 6:0.0 7:1.0 8:-1.0 9:-1.0 10:0.0 11:-1.0 12:0.0 13:-0.958177924156189 14:-0.9374838471412659 15:-0.9929969906806946 16:1.0 17:0.0 18:0.0 19:0.0 20:-1.0 21:-1.0 22:-1.0 23:-1.0 24:-1.0 25:-1.0 26:0.0
0.07517528249443707 1:-0.3333333432674408 2:0.0 3:-0.10000000149011612 4:0.0 5:1.0 6:0.0 7:-1.0 8:-1.0 9:-1.0 10:0.0 11:-1.0 12:0.0 13:0.6905906200408936 14:-0.9660513997077942 15:-0.9796738624572754 16:-1.0 17:0.0 18:0.0 19:0.0 20:0.0 21:-0.3333333432674408 22:-0.3333333432674408 23:0.0 24:-0.3333333432674408 25:-0.3333333432674408 26:0.0
-0.07517528249443707 1:-0.3333333432674408 2:0.0 3:-0.4000000059604645 4:0.0 5:1.0 6:0.0 7:-1.0 8:-1.0 9:-1.0 10:0.0 11:-1.0 12:0.0 13:0.16071327030658722 14:-0.9798696041107178 15:-0.999610960483551 16:-1.0 17:0.0 18:0.0 19:0.0 20:0.0 21:-0.3333333432674408 22:-0.3333333432674408 23:0.0 24:-0.3333333432674408 25:-0.3333333432674408 26:0.0
0.07517528249443707 1:-0.3333333432674408 2:0.0 3:0.20000000298023224 4:0.0 5:-1.0 6:0.0 7:1.0 8:-1.0 9:-1.0 10:0.0 11:-1.0 12:0.0 13:-0.816635251045227 14:-0.992577850818634 15:-0.9995006918907166 16:1.0 17:0.0 18:0.0 19:0.0 20:-1.0 21:-1.0 22:-1.0 23:-1.0 24:-1.0 25:-1.0 26:0.0
-0.07517528249443707 1:-0.3333333432674408 2:0.0 3:-0.10000000149011612 4:0.0 5:-1.0 6:0.0 7:1.0 8:-1.0 9:-1.0 10:0.0 11:-1.0 12:0.0 13:-0.8605800867080688 14:-0.9938973188400269 15:-0.9994170069694519 16:1.0 17:0.0 18:0.0 19:0.0 20:-1.0 21:-1.0 22:-1.0 23:-1.0 24:-1.0 25:-1.0 26:0.0
0.07517528249443707 1:-0.3333333432674408 2:0.0 3:-0.20000000298023224 4:0.0 5:1.0 6:0.0 7:-1.0 8:-1.0 9:-1.0 10:0.0 11:-1.0 12:0.0 13:0.16356059908866882 14:-0.9517688155174255 15:-0.9965696334838867 16:-1.0 17:0.0 18:0.0 19:0.0 20:0.0 21:-1.0 22:-1.0 23:0.0 24:-0.3333333432674408 25:-1.0 26:0.0
-0.07517528249443707 1:-0.3333333432674408 2:0.0 3:-0.6000000238418579 4:0.0 5:1.0 6:0.0 7:-1.0 8:-1.0 9:-1.0 10:0.0 11:-1.0 12:0.0 13:-0.6533706784248352 14:-0.9812870621681213 15:-0.9995562434196472 16:-1.0 17:0.0 18:0.0 19:0.0 20:0.0 21:-0.3333333432674408 22:-1.0 23:0.0 24:-0.3333333432674408 25:-1.0 26:0.0
-0.07517528249443707 1:-0.3333333432674408 2:0.0 3:-0.6000000238418579 4:0.0 5:1.0 6:0.0 7:-1.0 8:-1.0 9:-1.0 10:0.0 11:-1.0 12:0.0 13:-0.03564132750034332 14:-0.9624733328819275 15:-0.9979348182678223 16:1.0 17:0.0 18:0.0 19:0.0 20:0.0 21:-0.3333333432674408 22:-0.3333333432674408 23:0.0 24:-1.0 25:-0.3333333432674408 26:0.0
-0.07517528249443707 1:-1.0 2:0.0 3:-1.0 4:-1.0 5:-1.0 6:0.0 7:-1.0 8:-1.0 9:-1.0 10:0.0 11:-1.0 12:0.0 13:-0.1439768671989441 14:-0.9634462594985962 15:-0.9993764162063599 16:-1.0 17:0.0 18:0.0 19:0.0 20:0.0 21:-1.0 22:-0.3333333432674408 23:0.0 24:-1.0 25:-0.3333333432674408 26:0.0
-0.07517528249443707 1:-1.0 2:0.0 3:-1.0 4:-1.0 5:-1.0 6:0.0 7:-1.0 8:-1.0 9:-1.0 10:0.0 11:-1.0 12:0.0 13:-0.5819597840309143 14:-0.9817500114440918 15:-0.9995794892311096 16:-1.0 17:0.0 18:0.0 19:0.0 20:0.0 21:-0.3333333432674408 22:-1.0 23:0.0 24:-1.0 25:-1.0 26:0.0
-0.07517528249443707 1:-1.0 2:0.0 3:-1.0 4:-1.0 5:-1.0 6:0.0 7:-1.0 8:-1.0 9:-1.0 10:0.0 11:-1.0 12:0.0 13:-0.6143617630004883 14:-0.8690094947814941 15:-0.9798375964164734 16:-1.0 17:0.0 18:0.0 19:0.0 20:0.0 21:-1.0 22:-1.0 23:0.0 24:-1.0 25:-1.0 26:0.0
0.07517528249443707 1:-0.3333333432674408 2:0.0 3:-0.5 4:0.0 5:-1.0 6:0.0 7:1.0 8:-1.0 9:-1.0 10:0.0 11:-1.0 12:0.0 13:-0.6250073313713074 14:-0.9930612444877625 15:-0.9998204112052917 16:1.0 17:0.0 18:0.0 19:0.0 20:-1.0 21:-1.0 22:-1.0 23:-1.0 24:-1.0 25:-1.0 26:0.0
0.07517528249443707 1:-0.3333333432674408 2:0.0 3:-0.6000000238418579 4:0.0 5:-1.0 6:0.0 7:1.0 8:-1.0 9:-1.0 10:0.0 11:-1.0 12:0.0 13:-0.4554968774318695 14:-0.9601706862449646 15:-0.9994087815284729 16:1.0 17:0.0 18:0.0 19:0.0 20:-1.0 21:-1.0 22:-1.0 23:-1.0 24:-1.0 25:-1.0 26:0.0
0.07517528249443707 1:-0.3333333432674408 2:0.0 3:-0.6000000238418579 4:0.0 5:-1.0 6:0.0 7:1.0 8:-1.0 9:-1.0 10:0.0 11:-1.0 12:0.0 13:-0.5066539645195007 14:-0.8284918665885925 15:-0.9874137043952942 16:1.0 17:0.0 18:0.0 19:0.0 20:-1.0 21:-1.0 22:-1.0 23:-1.0 24:-1.0 25:-1.0 26:0.0
0.07517528249443707 1:-0.3333333432674408 2:0.0 3:-0.5 4:0.0 5:-1.0 6:0.0 7:1.0 8:-1.0 9:-1.0 10:0.0 11:-1.0 12:0.0 13:-0.40821269154548645 14:-0.9764342904090881 15:-0.9972805380821228 16:1.0 17:0.0 18:0.0 19:0.0 20:-1.0 21:-1.0 22:-1.0 23:-1.0 24:-1.0 25:-1.0 26:0.0
-0.07517528249443707 1:-0.3333333432674408 2:0.0 3:-0.20000000298023224 4:0.0 5:-1.0 6:0.0 7:1.0 8:-1.0 9:-1.0 10:0.0 11:-1.0 12:0.0 13:-0.651832103729248 14:-0.9859328269958496 15:-0.9990140795707703 16:1.0 17:0.0 18:0.0 19:0.0 20:-1.0 21:-1.0 22:-1.0 23:-1.0 24:-1.0 25:-1.0 26:0.0
0.07517528249443707 1:-1.0 2:0.0 3:-1.0 4:-1.0 5:-1.0 6:0.0 7:-1.0 8:-1.0 9:-1.0 10:0.0 11:-1.0 12:0.0 13:-0.22091801464557648 14:-0.986725926399231 15:-0.9997719526290894 16:-1.0 17:0.0 18:0.0 19:0.0 20:0.0 21:-0.3333333432674408 22:-0.3333333432674408 23:0.0 24:-0.3333333432674408 25:-0.3333333432674408 26:0.0
-0.07517528249443707 1:-0.3333333432674408 2:0.0 3:-0.30000001192092896 4:0.0 5:-1.0 6:0.0 7:1.0 8:-1.0 9:-1.0 10:0.0 11:-1.0 12:0.0 13:-0.4183291792869568 14:-0.9964564442634583 15:-0.9999683499336243 16:1.0 17:0.0 18:0.0 19:0.0 20:-1.0 21:-1.0 22:-1.0 23:-1.0 24:-1.0 25:-1.0 26:0.0
0.07517528249443707 1:-0.3333333432674408 2:0.0 3:-0.6000000238418579 4:0.0 5:1.0 6:0.0 7:-1.0 8:-1.0 9:-1.0 10:0.0 11:-1.0 12:0.0 13:-0.527032196521759 14:-0.8068987727165222 15:-0.9697796702384949 16:-1.0 17:0.0 18:0.0 19:0.0 20:0.0 21:-1.0 22:-0.3333333432674408 23:0.0 24:-0.3333333432674408 25:-0.3333333432674408 26:0.0
-0.07517528249443707 1:-0.3333333432674408 2:0.0 3:-0.699999988079071 4:0.0 5:-1.0 6:0.0 7:1.0 8:-1.0 9:-1.0 10:0.0 11:-1.0 12:0.0 13:-0.4040789008140564 14:-0.9962851405143738 15:-0.999882161617279 16:1.0 17:0.0 18:0.0 19:0.0 20:0.0 21:-1.0 22:-0.3333333432674408 23:0.0 24:-0.3333333432674408 25:-0.3333333432674408 26:0.0
0.07517528249443707 1:-1.0 2:0.0 3:-1.0 4:-1.0 5:-1.0 6:0.0 7:-1.0 8:-1.0 9:-1.0 10:0.0 11:-1.0 12:0.0 13:-0.5827255845069885 14:-0.8833214044570923 15:-0.9935445785522461 16:-1.0 17:0.0 18:0.0 19:0.0 20:0.0 21:-0.3333333432674408 22:-1.0 23:-1.0 24:-1.0 25:-1.0 26:0.0
-0.07517528249443707 1:-1.0 2:0.0 3:-1.0 4:-1.0 5:-1.0 6:0.0 7:-1.0 8:-1.0 9:-1.0 10:0.0 11:-1.0 12:0.0 13:-0.2874011695384979 14:-0.4772831201553345 15:-0.908785879611969 16:-1.0 17:0.0 18:0.0 19:0.0 20:-1.0 21:-1.0 22:-1.0 23:-1.0 24:-1.0 25:-1.0 26:0.0
-0.07517528249443707 1:-0.3333333432674408 2:0.0 3:-0.20000000298023224 4:0.0 5:1.0 6:0.0 7:-1.0 8:-1.0 9:-1.0 10:0.0 11:-1.0 12:0.0 13:-0.9815806746482849 14:-0.8813431859016418 15:-0.8127792477607727 16:-1.0 17:0.0 18:0.0 19:0.0 20:-1.0 21:-1.0 22:-1.0 23:-1.0 24:-1.0 25:-1.0 26:0.0
-0.07517528249443707 1:0.3333333432674408 2:0.0 3:-0.4000000059604645 4:0.0 5:-1.0 6:0.0 7:-1.0 8:-1.0 9:-1.0 10:0.0 11:-1.0 12:0.0 13:0.00800385233014822 14:-0.9668657779693604 15:-0.9979970455169678 16:1.0 17:0.0 18:0.0 19:0.0 20:0.0 21:-0.3333333432674408 22:-0.3333333432674408 23:0.0 24:-0.3333333432674408 25:-0.3333333432674408 26:0.0
0.07517528249443707 1:-1.0 2:0.0 3:-1.0 4:-1.0 5:-1.0 6:0.0 7:-1.0 8:-1.0 9:-1.0 10:0.0 11:-1.0 12:0.0 13:-0.9119218587875366 14:-0.9368990063667297 15:-0.9515016078948975 16:-1.0 17:0.0 18:0.0 19:0.0 20:-1.0 21:-1.0 22:-1.0 23:-1.0 24:-1.0 25:-1.0 26:0.0
-0.07517528249443707 1:-0.3333333432674408 2:0.0 3:-0.10000000149011612 4:0.0 5:-1.0 6:0.0 7:-1.0 8:-1.0 9:-1.0 10:0.0 11:-1.0 12:0.0 13:-0.9730464816093445 14:-0.7211304306983948 15:-0.4837383031845093 16:1.0 17:0.0 18:0.0 19:0.0 20:-1.0 21:-1.0 22:-1.0 23:-1.0 24:-1.0 25:-1.0 26:0.0
0.0030265719671568325 1:-0.3333333432674408 2:0.0 3:0.699999988079071 4:0.0 5:1.0 6:0.0 7:-1.0 8:-1.0 9:-1.0 10:0.0 11:1.0 12:0.0 13:0.7798629999160767 14:-0.9975341558456421 15:-0.9999961256980896 16:-1.0 17:0.0 18:0.0 19:0.0 20:-1.0 21:-1.0 22:-1.0 23:-1.0 24:-1.0 25:-1.0 26:0.0
0.07517528249443707 1:-0.3333333432674408 2:0.0 3:0.5 4:0.0 5:1.0 6:0.0 7:-1.0 8:-1.0 9:-1.0 10:0.0 11:-1.0 12:0.0 13:-0.5983693599700928 14:-0.9677582383155823 15:-0.9981075525283813 16:1.0 17:0.0 18:0.0 19:0.0 20:-1.0 21:-1.0 22:-1.0 23:-1.0 24:-1.0 25:-1.0 26:0.0
-0.07517528249443707 1:-0.3333333432674408 2:0.0 3:-0.5 4:0.0 5:1.0 6:0.0 7:1.0 8:-1.0 9:-1.0 10:0.0 11:-1.0 12:0.0 13:-0.6001002192497253 14:-0.9511017203330994 15:-0.9975717663764954 16:1.0 17:0.0 18:0.0 19:0.0 20:-1.0 21:-1.0 22:-1.0 23:-1.0 24:-1.0 25:-1.0 26:0.0
0.07517528249443707 1:-1.0 2:0.0 3:-1.0 4:-1.0 5:-1.0 6:0.0 7:-1.0 8:-1.0 9:-1.0 10:0.0 11:-1.0 12:0.0 13:-0.1671307384967804 14:-0.9766623377799988 15:-0.9990283846855164 16:-1.0 17:0.0 18:0.0 19:0.0 20:0.0 21:-0.3333333432674408 22:-0.3333333432674408 23:0.0 24:-0.3333333432674408 25:-0.3333333432674408 26:0.0
