SVM-light Version V6.01
0 # kernel type
3 # kernel parameter -d
1.0 # kernel parameter -g
1.0 # kernel parameter -s
0.0 # kernel parameter -r
empty# kernel parameter -u
26 # highest feature index
1700 # number of training documents
1094 # number of support vectors plus 1
-1.0529372525889777 # threshold b, each following line is a SV (starting with alpha*y)
-0.07563127188468377 1:-0.3333333432674408 2:0.0 3:-0.699999988079071 4:0.0 5:1.0 6:0.0 7:-1.0 8:-1.0 9:-1.0 10:0.0 11:-1.0 12:0.0 13:-0.4460504353046417 14:-0.99314284324646 15:-0.9998379945755005 16:1.0 17:0.0 18:0.0 19:0.0 20:-1.0 21:-1.0 22:-1.0 23:-1.0 24:-1.0 25:-1.0 26:0.0
0.07563127188468377 1:-0.3333333432674408 2:0.0 3:-0.4000000059604645 4:0.0 5:-1.0 6:0.0 7:-1.0 8:-1.0 9:-1.0 10:0.0 11:-1.0 12:0.0 13:-0.11707831919193268 14:-0.9311656355857849 15:-0.8813394904136658 16:1.0 17:0.0 18:0.0 19:0.0 20:0.0 21:-0.3333333432674408 22:0.0 23:0.0 24:-0.3333333432674408 25:0.0 26:0.0
-0.07563127188468377 1:1.0 2:0.0 3:-0.6000000238418579 4:1.0 5:-1.0 6:0.0 7:-1.0 8:-1.0 9:-1.0 10:0.0 11:-1.0 12:0.0 13:-0.3272758722305298 14:-0.9544826149940491 15:-0.9944431781768799 16:1.0 17:0.0 18:0.0 19:0.0 20:1.0 21:0.3333333432674408 22:0.0 23:0.0 24:-0.3333333432674408 25:0.0 26:0.0
0.07563127188468377 1:-1.0 2:0.0 3:-1.0 4:-1.0 5:1.0 6:0.0 7:-1.0 8:-1.0 9:-1.0 10:0.0 11:-1.0 12:0.0 13:-0.9667686820030212 14:-0.9403128027915955 15:-0.9188790917396545 16:-1.0 17:0.0 18:0.0 19:0.0 20:-1.0 21:-1.0 22:-1.0 23:-1.0 24:-1.0 25:-1.0 26:0.0
0.07563127188468377 1:-0.3333333432674408 2:0.0 3:-0.6000000238418579 4:0.0 5:-1.0 6:0.0 7:-1.0 8:-1.0 9:-1.0 10:0.0 11:-1.0 12:0.0 13:-0.4759601354598999 14:-0.9780128598213196 15:-0.9976990222930908 16:1.0 17:0.0 18:0.0 19:0.0 20:0.0 21:-0.3333333432674408 22:0.0 23:0.0 24:-0.3333333432674408 25:0.0 26:0.0
0.07563127188468377 1:-0.3333333432674408 2:0.0 3:-0.6000000238418579 4:0.0 5:-1.0 6:0.0 7:-1.0 8:-1.0 9:-1.0 10:0.0 11:-1.0 12:0.0 13:-0.29946377873420715 14:-0.9933437705039978 15:-0.9993683099746704 16:1.0 17:0.0 18:0.0 19:0.0 20:0.0 21:-1.0 22:0.0 23:0.0 24:-0.3333333432674408 25:0.0 26:0.0
-0.07563127188468377 1:-0.3333333432674408 2:0.0 3:-0.5 4:0.0 5:1.0 6:0.0 7:-1.0 8:-1.0 9:-1.0 10:0.0 11:-1.0 12:0.0 13:-0.44815635681152344 14:-0.9805222153663635 15:-0.9994267225265503 16:-1.0 17:0.0 18:0.0 19:0.0 20:0.0 21:0.3333333432674408 22:1.0 23:0.0 24:-0.3333333432674408 25:1.0 26:0.0
0.07563127188468377 1:-1.0 2:0.0 3:-1.0 4:-1.0 5:-1.0 6:0.0 7:-1.0 8:-1.0 9:-1.0 10:0.0 11:-1.0 12:0.0 13:-0.8827292919158936 14:-0.9569839239120483 15:-0.9810527563095093 16:1.0 17:0.0 18:0.0 19:0.0 20:-1.0 21:-1.0 22:-1.0 23:-1.0 24:-1.0 25:-1.0 26:0.0
-0.07563127188468377 1:-1.0 2:0.0 3:-1.0 4:-1.0 5:-1.0 6:0.0 7:-1.0 8:-1.0 9:-1.0 10:0.0 11:-1.0 12:0.0 13:0.47213688492774963 14:-0.9660881161689758 15:-0.9994465112686157 16:1.0 17:0.0 18:0.0 19:0.0 20:0.0 21:-1.0 22:1.0 23:-1.0 24:-0.3333333432674408 25:0.0 26:0.0
-0.07563127188468377 1:-1.0 2:0.0 3:-1.0 4:-1.0 5:-1.0 6:0.0 7:-1.0 8:-1.0 9:-1.0 10:0.0 11:-1.0 12:0.0 13:0.4831860065460205 14:-0.995255708694458 15:-0.9998905658721924 16:1.0 17:0.0 18:0.0 19:0.0 20:0.0 21:-1.0 22:0.0 23:0.0 24:-1.0 25:0.0 26:0.0
-0.07563127188468377 1:-1.0 2:0.0 3:-1.0 4:-1.0 5:-1.0 6:0.0 7:-1.0 8:-1.0 9:-1.0 10:0.0 11:-1.0 12:0.0 13:0.4083274304866791 14:-0.9764146208763123 15:-0.9997496008872986 16:1.0 17:0.0 18:0.0 19:0.0 20:-1.0 21:-1.0 22:-1.0 23:-1.0 24:-1.0 25:-1.0 26:0.0
-0.07563127188468377 1:-1.0 2:0.0 3:-1.0 4:-1.0 5:-1.0 6:0.0 7:-1.0 8:-1.0 9:-1.0 10:0.0 11:-1.0 12:0.0 13:0.20139919221401215 14:-0.9652007222175598 15:-0.9968178868293762 16:1.0 17:0.0 18:0.0 19:0.0 20:-1.0 21:-1.0 22:-1.0 23:-1.0 24:-1.0 25:-1.0 26:0.0
-0.07563127188468377 1:-1.0 2:0.0 3:-1.0 4:-1.0 5:-1.0 6:0.0 7:-1.0 8:-1.0 9:-1.0 10:0.0 11:-1.0 12:0.0 13:0.07633814960718155 14:-0.5777819156646729 15:-0.9194315075874329 16:1.0 17:0.0 18:0.0 19:0.0 20:-1.0 21:-1.0 22:-1.0 23:-1.0 24:-1.0 25:-1.0 26:0.0
0.07563127188468377 1:-0.3333333432674408 2:0.0 3:-0.4000000059604645 4:0.0 5:1.0 6:0.0 7:-1.0 8:-1.0 9:-1.0 10:0.0 11:-1.0 12:0.0 13:-0.4766353666782379 14:-0.9920811057090759 15:-0.9997759461402893 16:-1.0 17:0.0 18:0.0 19:0.0 20:-1.0 21:-0.3333333432674408 22:-1.0 23:-1.0 24:-1.0 25:-1.0 26:0.0
0.07563127188468377 1:-0.3333333432674408 2:0.0 3:-0.30000001192092896 4:0.0 5:1.0 6:0.0 7:-1.0 8:-1.0 9:-1.0 10:0.0 11:-1.0 12:0.0 13:-0.8801210522651672 14:-0.94334477186203 15:-0.973475992679596 16:-1.0 17:0.0 18:0.0 19:0.0 20:-1.0 21:-0.3333333432674408 22:-1.0 23:0.0 24:-0.3333333432674408 25:-1.0 26:0.0
0.07563127188468377 1:-0.3333333432674408 2:0.0 3:-0.20000000298023224 4:0.0 5:1.0 6:0.0 7:-1.0 8:-1.0 9:-1.0 10:0.0 11:-1.0 12:0.0 13:-0.7902278900146484 14:-0.984864354133606 15:-0.9993875622749329 16:-1.0 17:0.0 18:0.0 19:0.0 20:0.0 21:-0.3333333432674408 22:-1.0 23:-1.0 24:-0.3333333432674408 25:-1.0 26:0.0
0.07563127188468377 1:-1.0 2:0.0 3:-1.0 4:-1.0 5:-1.0 6:0.0 7:-1.0 8:-1.0 9:-1.0 10:0.0 11:-1.0 12:0.0 13:-0.13193106651306152 14:-0.9897986054420471 15:-0.9997972846031189 16:1.0 17:0.0 18:0.0 19:0.0 20:-1.0 21:-1.0 22:0.0 23:-1.0 24:-1.0 25:0.0 26:0.0
-0.07563127188468377 1:-0.3333333432674408 2:0.0 3:0.6000000238418579 4:0.0 5:1.0 6:0.0 7:1.0 8:-1.0 9:-1.0 10:0.0 11:-1.0 12:0.0 13:-0.7675421833992004 14:-0.9494653344154358 15:-0.9936541318893433 16:-1.0 17:0.0 18:0.0 19:0.0 20:0.0 21:-0.3333333432674408 22:0.0 23:0.0 24:-0.3333333432674408 25:0.0 26:0.0
0.07563127188468377 1:-1.0 2:0.0 3:-1.0 4:-1.0 5:-1.0 6:0.0 7:-1.0 8:-1.0 9:-1.0 10:0.0 11:-1.0 12:0.0 13:0.2068338394165039 14:-0.890868067741394 15:-0.9898391962051392 16:1.0 17:0.0 18:0.0 19:0.0 20:-1.0 21:-1.0 22:-1.0 23:-1.0 24:-1.0 25:-1.0 26:0.0
-0.07563127188468377 1:-0.3333333432674408 2:0.0 3:0.0 4:0.0 5:1.0 6:0.0 7:-1.0 8:-1.0 9:-1.0 10:0.0 11:-1.0 12:0.0 13:-0.8860971331596375 14:-0.9868940114974976 15:-0.9994311928749084 16:-1.0 17:0.0 18:0.0 19:0.0 20:-1.0 21:-1.0 22:-1.0 23:-1.0 24:-0.3333333432674408 25:-1.0 26:0.0
-0.07563127188468377 1:-0.3333333432674408 2:0.0 3:-0.699999988079071 4:0.0 5:-1.0 6:0.0 7:-1.0 8:-1.0 9:-1.0 10:0.0 11:-1.0 12:0.0 13:-0.9270712733268738 14:-0.9811038970947266 15:-0.9985074400901794 16:1.0 17:0.0 18:0.0 19:0.0 20:-1.0 21:-1.0 22:-1.0 23:-1.0 24:-1.0 25:-1.0 26:0.0
-0.07563127188468377 1:-0.3333333432674408 2:0.0 3:0.10000000149011612 4:0.0 5:1.0 6:0.0 7:1.0 8:-1.0 9:-1.0 10:0.0 11:-1.0 12:0.0 13:0.5261485576629639 14:-0.9967535138130188 15:-0.9999681115150452 16:1.0 17:0.0 18:0.0 19:0.0 20:-1.0 21:-1.0 22:-1.0 23:0.0 24:-0.3333333432674408 25:-1.0 26:0.0
-0.07563127188468377 1:-1.0 2:0.0 3:-1.0 4:-1.0 5:-1.0 6:0.0 7:-1.0 8:-1.0 9:-1.0 10:0.0 11:-1.0 12:0.0 13:-0.3240935802459717 14:-0.960716962814331 15:-0.9982331395149231 16:-1.0 17:0.0 18:0.0 19:0.0 20:0.0 21:-1.0 22:-1.0 23:0.0 24:-0.3333333432674408 25:-1.0 26:0.0
-0.07563127188468377 1:-1.0 2:0.0 3:-1.0 4:-1.0 5:-1.0 6:0.0 7:-1.0 8:-1.0 9:-1.0 10:0.0 11:-1.0 12:0.0 13:-0.45352232456207275 14:-0.9873018860816956 15:-0.9994850754737854 16:-1.0 17:0.0 18:0.0 19:0.0 20:0.0 21:-0.3333333432674408 22:-1.0 23:0.0 24:-0.3333333432674408 25:-1.0 26:0.0
-0.07563127188468377 1:-0.3333333432674408 2:0.0 3:-0.5 4:0.0 5:-1.0 6:0.0 7:-1.0 8:-1.0 9:-1.0 10:0.0 11:-1.0 12:0.0 13:-0.15288323163986206 14:-0.9494081735610962 15:-0.9942421317100525 16:-1.0 17:0.0 18:0.0 19:0.0 20:0.0 21:-0.3333333432674408 22:-1.0 23:0.0 24:-0.3333333432674408 25:-1.0 26:0.0
-0.07563127188468377 1:-0.3333333432674408 2:0.0 3:-0.699999988079071 4:0.0 5:-1.0 6:0.0 7:-1.0 8:-1.0 9:-1.0 10:0.0 11:-1.0 12:0.0 13:-0.49879133701324463 14:-0.8314853310585022 15:-0.8632718920707703 16:-1.0 17:0.0 18:0.0 19:0.0 20:0.0 21:-0.3333333432674408 22:-1.0 23:-1.0 24:0.3333333432674408 25:-1.0 26:0.0
-0.015615609191614371 1:-0.3333333432674408 2:0.0 3:-0.20000000298023224 4:0.0 5:-1.0 6:0.0 7:1.0 8:-1.0 9:-1.0 10:0.0 11:-1.0 12:0.0 13:-0.8509948253631592 14:-0.9571647047996521 15:-0.9921602010726929 16:-1.0 17:0.0 18:0.0 19:0.0 20:-1.0 21:-1.0 22:-1.0 23:-1.0 24:-1.0 25:-1.0 26:0.0
0.07563127188468377 1:-0.3333333432674408 2:0.0 3:-0.4000000059604645 4:0.0 5:-1.0 6:0.0 7:-1.0 8:-1.0 9:-1.0 10:0.0 11:-1.0 12:0.0 13:-0.6009984612464905 14:0.10961458832025528 15:1.0 16:1.0 17:0.0 18:0.0 19:0.0 20:-1.0 21:-1.0 22:-1.0 23:-1.0 24:-1.0 25:-1.0 26:0.0
0.07563127188468377 1:-0.3333333432674408 2:0.0 3:0.699999988079071 4:0.0 5:-1.0 6:0.0 7:-1.0 8:-1.0 9:-1.0 10:0.0 11:-1.0 12:0.0 13:-0.7552661299705505 14:-0.978948175907135 15:-0.998574435710907 16:1.0 17:0.0 18:0.0 19:0.0 20:-1.0 21:-1.0 22:-1.0 23:-1.0 24:-1.0 25:-1.0 26:0.0
-0.07563127188468377 1:-1.0 2:0.0 3:-1.0 4:-1.0 5:-1.0 6:0.0 7:-1.0 8:-1.0 9:-1.0 10:0.0 11:-1.0 12:0.0 13:0.08164700865745544 14:-0.817924439907074 15:-0.9796248078346252 16:1.0 17:0.0 18:0.0 19:0.0 20:1.0 21:-0.3333333432674408 22:0.0 23:0.0 24:-0.3333333432674408 25:0.0 26:0.0
0.07563127188468377 1:-0.3333333432674408 2:0.0 3:1.0 4:0.0 5:-1.0 6:0.0 7:-1.0 8:-1.0 9:-1.0 10:0.0 11:-1.0 12:0.0 13:-0.8590435981750488 14:-0.9776954650878906 15:-0.9977491497993469 16:-1.0 17:0.0 18:0.0 19:0.0 20:-1.0 21:-1.0 22:-1.0 23:-1.0 24:-1.0 25:-1.0 26:0.0
-0.07563127188468377 1:-0.3333333432674408 2:0.0 3:1.0 4:0.0 5:-1.0 6:0.0 7:-1.0 8:-1.0 9:-1.0 10:0.0 11:-1.0 12:0.0 13:-0.9756484627723694 14:-0.9791273474693298 15:-0.992104709148407 16:1.0 17:0.0 18:0.0 19:0.0 20:-1.0 21:-1.0 22:-1.0 23:-1.0 24:-1.0 25:-1.0 26:0.0
0.07563127188468377 1:-1.0 2:0.0 3:-1.0 4:-1.0 5:1.0 6:0.0 7:1.0 8:-1.0 9:-1.0 10:0.0 11:-1.0 12:0.0 13:-0.5642009973526001 14:-0.971885085105896 15:-0.99489426612854 16:-1.0 17:0.0 18:0.0 19:0.0 20:1.0 21:-0.3333333432674408 22:1.0 23:1.0 24:0.3333333432674408 25:1.0 26:0.0
-0.07563127188468377 1:-1.0 2:0.0 3:-1.0 4:-1.0 5:1.0 6:0.0 7:1.0 8:1.0 9:1.0 10:0.0 11:1.0 12:0.0 13:-0.9064127206802368 14:-0.9723256230354309 15:-0.9920012354850769 16:1.0 17:0.0 18:0.0 19:0.0 20:-1.0 21:-1.0 22:0.0 23:-1.0 24:-1.0 25:-1.0 26:0.0
-0.07563127188468377 1:-0.3333333432674408 2:0.0 3:0.699999988079071 4:0.0 5:-1.0 6:0.0 7:-1.0 8:-1.0 9:-1.0 10:0.0 11:-1.0 12:0.0 13:-0.781839907169342 14:-0.3098614513874054 15:0.4938432574272156 16:1.0 17:0.0 18:0.0 19:0.0 20:-1.0 21:-1.0 22:0.0 23:0.0 24:-1.0 25:0.0 26:0.0
-0.07563127188468377 1:-0.3333333432674408 2:0.0 3:0.10000000149011612 4:0.0 5:1.0 6:0.0 7:1.0 8:-1.0 9:-1.0 10:0.0 11:-1.0 12:0.0 13:-0.5329281091690063 14:-0.9916983246803284 15:-0.999322235584259 16:1.0 17:0.0 18:0.0 19:0.0 20:0.0 21:-0.3333333432674408 22:0.0 23:-1.0 24:-0.3333333432674408 25:0.0 26:0.0
-0.07563127188468377 1:-0.3333333432674408 2:0.0 3:0.10000000149011612 4:0.0 5:1.0 6:0.0 7:-1.0 8:-1.0 9:-1.0 10:0.0 11:1.0 12:0.0 13:0.5051466226577759 14:-0.5524762272834778 15:-0.8874155879020691 16:1.0 17:0.0 18:0.0 19:0.0 20:-1.0 21:-1.0 22:-1.0 23:-1.0 24:-1.0 25:-1.0 26:0.0
0.07563127188468377 1:-1.0 2:0.0 3:-1.0 4:-1.0 5:-1.0 6:0.0 7:-1.0 8:-1.0 9:-1.0 10:0.0 11:-1.0 12:0.0 13:0.1053997203707695 14:-0.9907246232032776 15:-0.999821126461029 16:-1.0 17:0.0 18:0.0 19:0.0 20:0.0 21:-1.0 22:-1.0 23:0.0 24:-0.3333333432674408 25:-1.0 26:0.0
0.07563127188468377 1:-1.0 2:0.0 3:-1.0 4:-1.0 5:-1.0 6:0.0 7:-1.0 8:-1.0 9:-1.0 10:0.0 11:-1.0 12:0.0 13:-0.3617408871650696 14:-0.9523882865905762 15:-0.9874671697616577 16:-1.0 17:0.0 18:0.0 19:0.0 20:0.0 21:-0.3333333432674408 22:-1.0 23:0.0 24:-0.3333333432674408 25:-1.0 26:0.0
0.07563127188468377 1:-1.0 2:0.0 3:-1.0 4:-1.0 5:-1.0 6:0.0 7:-1.0 8:-1.0 9:-1.0 10:0.0 11:-1.0 12:0.0 13:0.1988503783941269 14:-0.9982272982597351 15:-0.9999604225158691 16:-1.0 17:0.0 18:0.0 19:0.0 20:-1.0 21:-0.3333333432674408 22:-1.0 23:-1.0 24:-1.0 25:-1.0 26:0.0
0.07563127188468377 1:-1.0 2:0.0 3:-1.0 4:-1.0 5:-1.0 6:0.0 7:-1.0 8:-1.0 9:-1.0 10:0.0 11:-1.0 12:0.0 13:0.3185001611709595 14:-0.937376856803894 15:-0.9983441829681396 16:-1.0 17:0.0 18:0.0 19:0.0 20:-1.0 21:-1.0 22:-1.0 23:-1.0 24:-1.0 25:-1.0 26:0.0
-0.07563127188468377 1:-1.0 2:0.0 3:-1.0 4:-1.0 5:-1.0 6:0.0 7:-1.0 8:-1.0 9:-1.0 10:0.0 11:-1.0 12:0.0 13:0.23470720648765564 14:-0.9497838020324707 15:-0.941355288028717 16:-1.0 17:0.0 18:0.0 19:0.0 20:0.0 21:-1.0 22:-1.0 23:-1.0 24:-1.0 25:0.0 26:0.0
0.07563127188468377 1:-1.0 2:0.0 3:-1.0 4:-1.0 5:-1.0 6:0.0 7:-1.0 8:-1.0 9:-1.0 10:0.0 11:-1.0 12:0.0 13:-0.3564091622829437 14:-0.9750583171844482 15:-0.9964880347251892 16:1.0 17:0.0 18:0.0 19:0.0 20:0.0 21:-0.3333333432674408 22:0.0 23:0.0 24:-0.3333333432674408 25:0.0 26:0.0
-0.07563127188468377 1:-0.3333333432674408 2:0.0 3:-0.5 4:0.0 5:-1.0 6:0.0 7:-1.0 8:-1.0 9:-1.0 10:0.0 11:-1.0 12:0.0 13:-0.6783127784729004 14:-0.44742321968078613 15:-0.8838743567466736 16:-1.0 17:0.0 18:0.0 19:0.0 20:0.0 21:-0.3333333432674408 22:0.0 23:0.0 24:-0.3333333432674408 25:0.0 26:0.0
-0.07563127188468377 1:-0.3333333432674408 2:0.0 3:1.0 4:0.0 5:-1.0 6:0.0 7:-1.0 8:-1.0 9:-1.0 10:0.0 11:-1.0 12:0.0 13:-0.8404481410980225 14:-0.9422850012779236 15:-0.9762377738952637 16:1.0 17:0.0 18:0.0 19:0.0 20:-1.0 21:-1.0 22:-1.0 23:-1.0 24:-1.0 25:-1.0 26:0.0
-0.07563127188468377 1:-0.3333333432674408 2:0.0 3:-0.5 4:0.0 5:1.0 6:0.0 7:1.0 8:1.0 9:1.0 10:0.0 11:1.0 12:0.0 13:0.23783519864082336 14:-0.995229959487915 15:-0.9999867677688599 16:1.0 17:0.0 18:0.0 19:0.0 20:0.0 21:-0.3333333432674408 22:0.0 23:0.0 24:-0.3333333432674408 25:0.0 26:0.0
-0.07563127188468377 1:-0.3333333432674408 2:0.0 3:-0.5 4:0.0 5:1.0 6:0.0 7:1.0 8:-1.0 9:-1.0 10:0.0 11:-1.0 12:0.0 13:0.8908953666687012 14:-0.9704478979110718 15:-0.9879076480865479 16:-1.0 17:0.0 18:0.0 19:0.0 20:-1.0 21:-1.0 22:-1.0 23:-1.0 24:-1.0 25:-1.0 26:0.0
-0.07563127188468377 1:0.3333333432674408 2:0.0 3:-0.4000000059604645 4:0.0 5:1.0 6:0.0 7:1.0 8:-1.0 9:-1.0 10:0.0 11:-1.0 12:0.0 13:-0.5415652990341187 14:-0.9824919700622559 15:-0.9991825222969055 16:1.0 17:0.0 18:0.0 19:0.0 20:-1.0 21:-1.0 22:-1.0 23:-1.0 24:-1.0 25:-1.0 26:0.0
-0.07563127188468377 1:-1.0 2:0.0 3:-1.0 4:-1.0 5:1.0 6:0.0 7:1.0 8:-1.0 9:-1.0 10:0.0 11:-1.0 12:0.0 13:0.5384840369224548 14:-0.9849955439567566 15:-0.9997410178184509 16:1.0 17:0.0 18:0.0 19:0.0 20:-1.0 21:-1.0 22:-1.0 23:-1.0 24:-0.3333333432674408 25:-1.0 26:0.0
0.07563127188468377 1:-0.3333333432674408 2:0.0 3:0.699999988079071 4:0.0 5:-1.0 6:0.0 7:-1.0 8:-1.0 9:-1.0 10:0.0 11:-1.0 12:0.0 13:-0.6121386885643005 14:-0.31932297348976135 15:0.4825701415538788 16:1.0 17:0.0 18:0.0 19:0.0 20:0.0 21:-0.3333333432674408 22:0.0 23:0.0 24:-0.3333333432674408 25:0.0 26:0.0
0.07563127188468377 1:-1.0 2:0.0 3:-1.0 4:-1.0 5:-1.0 6:0.0 7:-1.0 8:-1.0 9:-1.0 10:0.0 11:-1.0 12:0.0 13:-0.9339233040809631 14:-0.957066535949707 15:-0.9767301082611084 16:1.0 17:0.0 18:0.0 19:0.0 20:0.0 21:-0.3333333432674408 22:0.0 23:0.0 24:-0.3333333432674408 25:0.0 26:0.0
0.07563127188468377 1:-0.3333333432674408 2:0.0 3:-0.20000000298023224 4:0.0 5:-1.0 6:0.0 7:-1.0 8:-1.0 9:-1.0 10:0.0 11:-1.0 12:0.0 13:-0.7742127776145935 14:-0.5990644693374634 15:-0.5109948515892029 16:1.0 17:0.0 18:0.0 19:0.0 20:0.0 21:-0.3333333432674408 22:0.0 23:0.0 24:-0.3333333432674408 25:0.0 26:0.0
0.07563127188468377 1:-1.0 2:0.0 3:-1.0 4:-1.0 5:-1.0 6:0.0 7:-1.0 8:-1.0 9:-1.0 10:0.0 11:-1.0 12:0.0 13:-0.17481696605682373 14:0.9965881109237671 15:0.6521008610725403 16:-1.0 17:0.0 18:0.0 19:0.0 20:0.0 21:-0.3333333432674408 22:-1.0 23:-1.0 24:-0.3333333432674408 25:-1.0 26:0.0
-0.07563127188468377 1:-0.3333333432674408 2:0.0 3:0.20000000298023224 4:0.0 5:-1.0 6:0.0 7:-1.0 8:-1.0 9:-1.0 10:0.0 11:-1.0 12:0.0 13:-0.30445507168769836 14:-0.9950157403945923 15:-0.9999614357948303 16:-1.0 17:0.0 18:0.0 19:0.0 20:-1.0 21:-1.0 22:-1.0 23:-1.0 24:-1.0 25:-1.0 26:0.0
0.07563127188468377 1:-0.3333333432674408 2:0.0 3:0.10000000149011612 4:0.0 5:-1.0 6:0.0 7:-1.0 8:-1.0 9:-1.0 10:0.0 11:-1.0 12:0.0 13:-0.7248908877372742 14:-0.981426477432251 15:-0.9982607960700989 16:-1.0 17:0.0 18:0.0 19:0.0 20:-1.0 21:-1.0 22:-1.0 23:-1.0 24:-1.0 25:-1.0 26:0.0
-0.07563127188468377 1:-1.0 2:0.0 3:-1.0 4:-1.0 5:-1.0 6:0.0 7:-1.0 8:-1.0 9:-1.0 10:0.0 11:-1.0 12:0.0 13:-0.7635459899902344 14:-0.8766528367996216 15:-0.8774749040603638 16:1.0 17:0.0 18:0.0 19:0.0 20:-1.0 21:-0.3333333432674408 22:0.0 23:0.0 24:-0.3333333432674408 25:0.0 26:0.0
0.07563127188468377 1:-0.3333333432674408 2:0.0 3:-0.699999988079071 4:0.0 5:1.0 6:0.0 7:1.0 8:-1.0 9:-1.0 10:0.0 11:-1.0 12:0.0 13:-0.5632715821266174 14:-0.9823790788650513 15:-0.9976478219032288 16:-1.0 17:0.0 18:0.0 19:0.0 20:-1.0 21:-1.0 22:0.0 23:-1.0 24:-1.0 25:0.0 26:0.0
-0.07563127188468377 1:-0.3333333432674408 2:0.0 3:-0.6000000238418579 4:0.0 5:-1.0 6:0.0 7:1.0 8:-1.0 9:-1.0 10:0.0 11:-1.0 12:0.0 13:-0.8468145132064819 14:-0.9858343005180359 15:-0.9993630051612854 16:-1.0 17:0.0 18:0.0 19:0.0 20:-1.0 21:-1.0 22:-1.0 23:-1.0 24:-1.0 25:-1.0 26:0.0
-0.07563127188468377 1:0.3333333432674408 2:0.0 3:0.800000011920929 4:0.0 5:-1.0 6:0.0 7:-1.0 8:-1.0 9:-1.0 10:0.0 11:-1.0 12:0.0 13:-0.8668213486671448 14:-0.9582422375679016 15:-0.9810652136802673 16:-1.0 17:0.0 18:0.0 19:0.0 20:0.0 21:-0.3333333432674408 22:0.0 23:0.0 24:-0.3333333432674408 25:0.0 26:0.0
-0.07563127188468377 1:-0.3333333432674408 2:0.0 3:0.0 4:0.0 5:-1.0 6:0.0 7:-1.0 8:-1.0 9:-1.0 10:0.0 11:-1.0 12:0.0 13:-0.23817069828510284 14:-0.9959192276000977 15:-0.9999609589576721 16:-1.0 17:0.0 18:0.0 19:0.0 20:-1.0 21:-1.0 22:-1.0 23:-1.0 24:-1.0 25:-1.0 26:0.0
-0.07563127188468377 1:-1.0 2:0.0 3:-1.0 4:-1.0 5:1.0 6:0.0 7:-1.0 8:-1.0 9:-1.0 10:0.0 11:1.0 12:0.0 13:-0.39125335216522217 14:-0.9923179745674133 15:-0.9998909831047058 16:1.0 17:0.0 18:0.0 19:0.0 20:-1.0 21:-1.0 22:-1.0 23:-1.0 24:-1.0 25:-1.0 26:0.0
-0.07563127188468377 1:-1.0 2:0.0 3:-1.0 4:-1.0 5:1.0 6:0.0 7:1.0 8:-1.0 9:-1.0 10:0.0 11:-1.0 12:0.0 13:-0.676761269569397 14:-0.9930607080459595 15:-0.9995951652526855 16:1.0 17:0.0 18:0.0 19:0.0 20:-1.0 21:-1.0 22:-1.0 23:-1.0 24:-1.0 25:-1.0 26:0.0
-0.07563127188468377 1:-0.3333333432674408 2:0.0 3:-0.6000000238418579 4:0.0 5:1.0 6:0.0 7:-1.0 8:-1.0 9:-1.0 10:0.0 11:1.0 12:0.0 13:0.1764133870601654 14:-0.9983224272727966 15:-0.9999978542327881 16:1.0 17:0.0 18:0.0 19:0.0 20:-1.0 21:-1.0 22:-1.0 23:-1.0 24:-1.0 25:-1.0 26:0.0
-0.07563127188468377 1:-0.3333333432674408 2:0.0 3:-0.800000011920929 4:0.0 5:1.0 6:0.0 7:1.0 8:-1.0 9:-1.0 10:0.0 11:-1.0 12:0.0 13:-0.7360824346542358 14:-0.976862907409668 15:-0.9966544508934021 16:1.0 17:0.0 18:0.0 19:0.0 20:-1.0 21:-1.0 22:-1.0 23:-1.0 24:-1.0 25:-1.0 26:0.0
0.07563127188468377 1:-0.3333333432674408 2:0.0 3:0.4000000059604645 4:0.0 5:-1.0 6:0.0 7:-1.0 8:-1.0 9:-1.0 10:0.0 11:-1.0 12:0.0 13:-0.6401312351226807 14:-0.8662691712379456 15:-0.9826235175132751 16:-1.0 17:0.0 18:0.0 19:0.0 20:0.0 21:-0.3333333432674408 22:0.0 23:0.0 24:-0.3333333432674408 25:0.0 26:0.0
0.07563127188468377 1:0.3333333432674408 2:0.0 3:-0.10000000149011612 4:0.0 5:-1.0 6:0.0 7:-1.0 8:-1.0 9:-1.0 10:0.0 11:-1.0 12:0.0 13:-0.5780245065689087 14:-0.801778256893158 15:-0.9845319390296936 16:1.0 17:0.0 18:0.0 19:0.0 20:0.0 21:0.3333333432674408 22:1.0 23:1.0 24:1.0 25:1.0 26:0.0
0.07563127188468377 1:-0.3333333432674408 2:0.0 3:0.6000000238418579 4:0.0 5:-1.0 6:0.0 7:-1.0 8:-1.0 9:-1.0 10:0.0 11:-1.0 12:0.0 13:-0.8819725513458252 14:-0.942289412021637 15:-0.9936017990112305 16:-1.0 17:0.0 18:0.0 19:0.0 20:-1.0 21:-0.3333333432674408 22:0.0 23:0.0 24:-0.3333333432674408 25:0.0 26:0.0
0.07563127188468377 1:0.3333333432674408 2:0.0 3:0.10000000149011612 4:0.0 5:-1.0 6:0.0 7:-1.0 8:-1.0 9:-1.0 10:0.0 11:-1.0 12:0.0 13:-0.6108794808387756 14:-0.8161152005195618 15:-0.9835933446884155 16:-1.0 17:0.0 18:0.0 19:0.0 20:0.0 21:-0.3333333432674408 22:0.0 23:0.0 24:-0.3333333432674408 25:0.0 26:0.0
-0.07563127188468377 1:-0.3333333432674408 2:0.0 3:0.10000000149011612 4:0.0 5:-1.0 6:0.0 7:-1.0 8:-1.0 9:-1.0 10:0.0 11:-1.0 12:0.0 13:-0.4318492114543915 14:-0.9732176065444946 15:-0.9863536357879639 16:-1.0 17:0.0 18:0.0 19:0.0 20:-1.0 21:-1.0 22:-1.0 23:-1.0 24:-1.0 25:-1.0 26:0.0
0.07563127188468377 1:-0.3333333432674408 2:0.0 3:0.20000000298023224 4:0.0 5:1.0 6:0.0 7:-1.0 8:-1.0 9:-1.0 10:0.0 11:1.0 12:0.0 13:-0.1762300282716751 14:-0.9865809082984924 15:-0.9998961687088013 16:-1.0 17:0.0 18:0.0 19:0.0 20:-1.0 21:-1.0 22:-1.0 23:-1.0 24:-1.0 25:-1.0 26:0.0
-0.07563127188468377 1:-1.0 2:0.0 3:-1.0 4:-1.0 5:-1.0 6:0.0 7:-1.0 8:-1.0 9:-1.0 10:0.0 11:-1.0 12:0.0 13:0.5222674012184143 14:-0.9965218305587769 15:-0.9999634027481079 16:-1.0 17:0.0 18:0.0 19:0.0 20:0.0 21:-1.0 22:0.0 23:0.0 24:-1.0 25:0.0 26:0.0
0.07563127188468377 1:-0.3333333432674408 2:0.0 3:-0.4000000059604645 4:0.0 5:1.0 6:0.0 7:1.0 8:-1.0 9:-1.0 10:0.0 11:-1.0 12:0.0 13:-0.8096703886985779 14:-0.8063940405845642 15:-0.7040846943855286 16:1.0 17:0.0 18:0.0 19:0.0 20:-1.0 21:-1.0 22:-1.0 23:-1.0 24:-1.0 25:-1.0 26:0.0
-0.07563127188468377 1:-0.3333333432674408 2:0.0 3:-0.30000001192092896 4:0.0 5:1.0 6:0.0 7:-1.0 8:-1.0 9:-1.0 10:0.0 11:1.0 12:0.0 13:0.6355833411216736 14:-0.9819179773330688 15:-0.9985615611076355 16:1.0 17:0.0 18:0.0 19:0.0 20:-1.0 21:-1.0 22:-1.0 23:-1.0 24:-0.3333333432674408 25:-1.0 26:0.0
0.07563127188468377 1:-1.0 2:0.0 3:-1.0 4:-1.0 5:-1.0 6:0.0 7:-1.0 8:-1.0 9:-1.0 10:0.0 11:-1.0 12:0.0 13:-0.43985676765441895 14:-0.7978605628013611 15:-0.9323374032974243 16:-1.0 17:0.0 18:0.0 19:0.0 20:0.0 21:-1.0 22:0.0 23:-1.0 24:-0.3333333432674408 25:0.0 26:0.0
-0.07563127188468377 1:-1.0 2:0.0 3:-1.0 4:-1.0 5:-1.0 6:0.0 7:1.0 8:-1.0 9:-1.0 10:0.0 11:-1.0 12:0.0 13:-0.8956298232078552 14:-0.9796946048736572 15:-0.998825192451477 16:-1.0 17:0.0 18:0.0 19:0.0 20:-1.0 21:-0.3333333432674408 22:0.0 23:0.0 24:-0.3333333432674408 25:0.0 26:0.0
0.07563127188468377 1:-0.3333333432674408 2:0.0 3:-0.699999988079071 4:0.0 5:1.0 6:0.0 7:-1.0 8:-1.0 9:-1.0 10:0.0 11:1.0 12:0.0 13:-0.8267090916633606 14:-0.9855579137802124 15:-0.9951549172401428 16:1.0 17:0.0 18:0.0 19:0.0 20:-1.0 21:-1.0 22:-1.0 23:-1.0 24:-1.0 25:-1.0 26:0.0
-0.07563127188468377 1:-0.3333333432674408 2:0.0 3:-0.699999988079071 4:0.0 5:1.0 6:0.0 7:-1.0 8:-1.0 9:-1.0 10:0.0 11:1.0 12:0.0 13:-0.6123972535133362 14:-0.9616770148277283 15:-0.9846453666687012 16:-1.0 17:0.0 18:0.0 19:0.0 20:-1.0 21:-1.0 22:-1.0 23:-1.0 24:-1.0 25:-1.0 26:0.0
-0.07563127188468377 1:-0.3333333432674408 2:0.0 3:-0.699999988079071 4:0.0 5:1.0 6:0.0 7:-1.0 8:-1.0 9:-1.0 10:0.0 11:1.0 12:0.0 13:-0.6769684553146362 14:-0.9755077362060547 15:-0.9840197563171387 16:-1.0 17:0.0 18:0.0 19:0.0 20:-1.0 21:-1.0 22:-1.0 23:-1.0 24:-1.0 25:-1.0 26:0.0
-0.07563127188468377 1:-0.3333333432674408 2:0.0 3:-0.4000000059604645 4:0.0 5:1.0 6:0.0 7:-1.0 8:-1.0 9:-1.0 10:0.0 11:-1.0 12:0.0 13:0.776511013507843 14:-0.9902724623680115 15:-0.9997668862342834 16:1.0 17:0.0 18:0.0 19:0.0 20:-1.0 21:-1.0 22:-1.0 23:-1.0 24:-1.0 25:-1.0 26:0.0
0.07563127188468377 1:-1.0 2:0.0 3:-1.0 4:-1.0 5:-1.0 6:0.0 7:1.0 8:-1.0 9:-1.0 10:0.0 11:-1.0 12:0.0 13:-0.8038525581359863 14:-0.9356204271316528 15:-0.984173595905304 16:-1.0 17:0.0 18:0.0 19:0.0 20:0.0 21:-0.3333333432674408 22:0.0 23:0.0 24:-0.3333333432674408 25:0.0 26:0.0
0.07563127188468377 1:-1.0 2:0.0 3:-1.0 4:-1.0 5:-1.0 6:0.0 7:1.0 8:-1.0 9:-1.0 10:0.0 11:-1.0 12:0.0 13:-0.4828276038169861 14:-0.993683397769928 15:-0.9999741911888123 16:-1.0 17:0.0 18:0.0 19:0.0 20:0.0 21:-0.3333333432674408 22:0.0 23:0.0 24:-0.3333333432674408 25:0.0 26:0.0
0.07563127188468377 1:-1.0 2:0.0 3:-1.0 4:-1.0 5:-1.0 6:0.0 7:1.0 8:-1.0 9:-1.0 10:0.0 11:-1.0 12:0.0 13:-0.32381701469421387 14:-0.9883559942245483 15:-0.9999210834503174 16:-1.0 17:0.0 18:0.0 19:0.0 20:0.0 21:-1.0 22:0.0 23:0.0 24:-0.3333333432674408 25:0.0 26:0.0
0.07563127188468377 1:-1.0 2:0.0 3:-1.0 4:-1.0 5:-1.0 6:0.0 7:1.0 8:-1.0 9:-1.0 10:0.0 11:-1.0 12:0.0 13:-0.5096302032470703 14:-0.98701012134552 15:-0.9999068379402161 16:-1.0 17:0.0 18:0.0 19:0.0 20:0.0 21:-0.3333333432674408 22:-1.0 23:0.0 24:-0.3333333432674408 25:0.0 26:0.0
-0.07563127188468377 1:-1.0 2:0.0 3:-1.0 4:-1.0 5:-1.0 6:0.0 7:1.0 8:-1.0 9:-1.0 10:0.0 11:-1.0 12:0.0 13:-0.1502840220928192 14:-0.989086389541626 15:-0.9999133348464966 16:-1.0 17:0.0 18:0.0 19:0.0 20:0.0 21:-1.0 22:0.0 23:0.0 24:-0.3333333432674408 25:0.0 26:0.0
0.07563127188468377 1:-0.3333333432674408 2:0.0 3:-0.5 4:0.0 5:1.0 6:0.0 7:-1.0 8:-1.0 9:-1.0 10:0.0 11:-1.0 12:0.0 13:-0.6367179155349731 14:-0.9959172010421753 15:-0.9998697638511658 16:1.0 17:0.0 18:0.0 19:0.0 20:-1.0 21:-1.0 22:-1.0 23:-1.0 24:-1.0 25:-1.0 26:0.0
-0.07563127188468377 1:-0.3333333432674408 2:0.0 3:-0.5 4:0.0 5:-1.0 6:0.0 7:1.0 8:-1.0 9:-1.0 10:0.0 11:-1.0 12:0.0 13:0.9513546228408813 14:-0.9606941342353821 15:-0.9898535013198853 16:1.0 17:0.0 18:0.0 19:0.0 20:0.0 21:-0.3333333432674408 22:0.0 23:0.0 24:-0.3333333432674408 25:0.0 26:0.0
0.07563127188468377 1:-0.3333333432674408 2:0.0 3:-0.5 4:0.0 5:1.0 6:0.0 7:-1.0 8:-1.0 9:-1.0 10:0.0 11:-1.0 12:0.0 13:-0.8849857449531555 14:-0.9230932593345642 15:-0.9659410119056702 16:-1.0 17:0.0 18:0.0 19:0.0 20:-1.0 21:-1.0 22:-1.0 23:-1.0 24:-1.0 25:-1.0 26:0.0
0.07563127188468377 1:-0.3333333432674408 2:0.0 3:0.0 4:0.0 5:-1.0 6:0.0 7:-1.0 8:-1.0 9:-1.0 10:0.0 11:-1.0 12:0.0 13:-0.37376704812049866 14:-0.9820142388343811 15:-0.9992011785507202 16:1.0 17:0.0 18:0.0 19:0.0 20:0.0 21:-0.3333333432674408 22:1.0 23:1.0 24:0.3333333432674408 25:1.0 26:0.0
-0.07563127188468377 1:0.3333333432674408 2:0.0 3:-0.10000000149011612 4:0.0 5:-1.0 6:0.0 7:-1.0 8:-1.0 9:-1.0 10:0.0 11:-1.0 12:0.0 13:-0.0935911163687706 14:-0.9916725158691406 15:-0.9999262094497681 16:1.0 17:0.0 18:0.0 19:0.0 20:1.0 21:-0.3333333432674408 22:0.0 23:0.0 24:-0.3333333432674408 25:0.0 26:0.0
-0.07563127188468377 1:1.0 2:0.0 3:-0.4000000059604645 4:0.0 5:-1.0 6:0.0 7:-1.0 8:-1.0 9:-1.0 10:0.0 11:-1.0 12:0.0 13:0.12025146931409836 14:-0.9782677888870239 15:-0.9997277855873108 16:1.0 17:0.0 18:0.0 19:0.0 20:0.0 21:-1.0 22:0.0 23:0.0 24:-0.3333333432674408 25:0.0 26:0.0
-0.07563127188468377 1:0.3333333432674408 2:0.0 3:0.6000000238418579 4:0.0 5:-1.0 6:0.0 7:-1.0 8:-1.0 9:-1.0 10:0.0 11:-1.0 12:0.0 13:-0.17345291376113892 14:-0.638140082359314 15:-0.9593602418899536 16:1.0 17:0.0 18:0.0 19:0.0 20:0.0 21:-0.3333333432674408 22:0.0 23:0.0 24:-0.3333333432674408 25:0.0 26:0.0
-0.07563127188468377 1:-0.3333333432674408 2:0.0 3:-0.5 4:0.0 5:-1.0 6:0.0 7:-1.0 8:-1.0 9:-1.0 10:0.0 11:-1.0 12:0.0 13:-0.5107865929603577 14:-0.971309244632721 15:-0.9976716041564941 16:1.0 17:0.0 18:0.0 19:0.0 20:0.0 21:-1.0 22:0.0 23:1.0 24:0.3333333432674408 25:0.0 26:0.0
0.07563127188468377 1:-1.0 2:0.0 3:-1.0 4:-1.0 5:1.0 6:0.0 7:-1.0 8:-1.0 9:-1.0 10:0.0 11:-1.0 12:0.0 13:-0.5790448784828186 14:-0.9960816502571106 15:-0.9998389482498169 16:1.0 17:0.0 18:0.0 19:0.0 20:-1.0 21:-1.0 22:-1.0 23:-1.0 24:-1.0 25:-1.0 26:0.0
0.07563127188468377 1:-0.3333333432674408 2:0.0 3:-0.699999988079071 4:0.0 5:1.0 6:0.0 7:-1.0 8:-1.0 9:-1.0 10:0.0 11:-1.0 12:0.0 13:0.043464116752147675 14:-0.9835749268531799 15:-0.9985029101371765 16:-1.0 17:0.0 18:0.0 19:0.0 20:-1.0 21:-1.0 22:-1.0 23:-1.0 24:-1.0 25:-1.0 26:0.0
0.07563127188468377 1:-1.0 2:0.0 3:-1.0 4:-1.0 5:1.0 6:0.0 7:-1.0 8:-1.0 9:-1.0 10:0.0 11:-1.0 12:0.0 13:-0.2597399652004242 14:-0.9744620323181152 15:-0.9982734322547913 16:-1.0 17:0.0 18:0.0 19:0.0 20:-1.0 21:-1.0 22:-1.0 23:-1.0 24:-1.0 25:-1.0 26:0.0
0.07563127188468377 1:-0.3333333432674408 2:0.0 3:-0.5 4:0.0 5:1.0 6:0.0 7:-1.0 8:-1.0 9:-1.0 10:0.0 11:-1.0 12:0.0 13:-0.5408782958984375 14:-0.9889493584632874 15:-0.9995120763778687 16:1.0 17:0.0 18:0.0 19:0.0 20:-1.0 21:-0.3333333432674408 22:-1.0 23:-1.0 24:-1.0 25:-1.0 26:0.0
-0.07563127188468377 1:-0.3333333432674408 2:0.0 3:-0.20000000298023224 4:0.0 5:1.0 6:0.0 7:-1.0 8:-1.0 9:-1.0 10:0.0 11:-1.0 12:0.0 13:0.903896152973175 14:-0.9976910948753357 15:-0.9999847412109375 16:-1.0 17:0.0 18:0.0 19:0.0 20:-1.0 21:-1.0 22:-1.0 23:-1.0 24:-1.0 25:-1.0 26:0.0
0.07563127188468377 1:-0.3333333432674408 2:0.0 3:-0.699999988079071 4:0.0 5:-1.0 6:0.0 7:1.0 8:-1.0 9:-1.0 10:0.0 11:-1.0 12:0.0 13:-0.934396505355835 14:-0.9903973340988159 15:-0.9988754391670227 16:1.0 17:0.0 18:0.0 19:0.0 20:-1.0 21:-1.0 22:-1.0 23:-1.0 24:-1.0 25:-1.0 26:0.0
0.07563127188468377 1:-0.3333333432674408 2:0.0 3:-0.4000000059604645 4:0.0 5:-1.0 6:0.0 7:-1.0 8:-1.0 9:-1.0 10:0.0 11:-1.0 12:0.0 13:0.4313355088233948 14:-0.9924488663673401 15:-0.9999406933784485 16:-1.0 17:0.0 18:0.0 19:0.0 20:0.0 21:-1.0 22:-1.0 23:-1.0 24:-1.0 25:-1.0 26:0.0
-0.07563127188468377 1:0.3333333432674408 2:0.0 3:-0.30000001192092896 4:1.0 5:-1.0 6:0.0 7:-1.0 8:-1.0 9:-1.0 10:0.0 11:-1.0 12:0.0 13:-0.320075660943985 14:-0.993439257144928 15:-0.9998441338539124 16:1.0 17:0.0 18:0.0 19:0.0 20:0.0 21:-0.3333333432674408 22:-1.0 23:-1.0 24:-0.3333333432674408 25:-1.0 26:0.0
0.07563127188468377 1:-1.0 2:0.0 3:-1.0 4:-1.0 5:1.0 6:0.0 7:1.0 8:-1.0 9:-1.0 10:0.0 11:-1.0 12:0.0 13:-0.5983153581619263 14:-0.9685980677604675 15:-0.9981094598770142 16:1.0 17:0.0 18:0.0 19:0.0 20:-1.0 21:-1.0 22:-1.0 23:-1.0 24:-1.0 25:-1.0 26:0.0
-0.07563127188468377 1:-1.0 2:0.0 3:-1.0 4:-1.0 5:-1.0 6:0.0 7:1.0 8:-1.0 9:-1.0 10:0.0 11:-1.0 12:0.0 13:0.047799766063690186 14:-0.9934684634208679 15:-0.9999197721481323 16:-1.0 17:0.0 18:0.0 19:0.0 20:-1.0 21:-1.0 22:-1.0 23:-1.0 24:-1.0 25:-1.0 26:0.0
-0.07563127188468377 1:-1.0 2:0.0 3:-1.0 4:-1.0 5:-1.0 6:0.0 7:1.0 8:-1.0 9:-1.0 10:0.0 11:-1.0 12:0.0 13:-0.5650216341018677 14:-0.8731170892715454 15:-0.9807660579681396 16:-1.0 17:0.0 18:0.0 19:0.0 20:-1.0 21:-1.0 22:-1.0 23:-1.0 24:-1.0 25:-1.0 26:0.0
-0.07563127188468377 1:-1.0 2:0.0 3:-1.0 4:-1.0 5:-1.0 6:0.0 7:1.0 8:-1.0 9:-1.0 10:0.0 11:-1.0 12:0.0 13:-0.2875785529613495 14:-0.9830341339111328 15:-0.9996868371963501 16:1.0 17:0.0 18:0.0 19:0.0 20:-1.0 21:-1.0 22:-1.0 23:-1.0 24:-1.0 25:-1.0 26:0.0
0.07563127188468377 1:0.3333333432674408 2:0.0 3:-0.699999988079071 4:1.0 5:-1.0 6:0.0 7:-1.0 8:-1.0 9:-1.0 10:0.0 11:-1.0 12:0.0 13:0.024648690596222878 14:-0.996276319026947 15:-0.9999483227729797 16:1.0 17:0.0 18:0.0 19:0.0 20:0.0 21:-1.0 22:-1.0 23:-1.0 24:-0.3333333432674408 25:-1.0 26:0.0
0.07563127188468377 1:-0.3333333432674408 2:0.0 3:-0.699999988079071 4:0.0 5:-1.0 6:0.0 7:1.0 8:-1.0 9:-1.0 10:0.0 11:-1.0 12:0.0 13:0.7735558152198792 14:-0.9963067173957825 15:-0.9999865889549255 16:-1.0 17:0.0 18:0.0 19:0.0 20:0.0 21:-0.3333333432674408 22:0.0 23:0.0 24:-0.3333333432674408 25:0.0 26:0.0
0.07563127188468377 1:0.3333333432674408 2:0.0 3:-0.4000000059604645 4:1.0 5:-1.0 6:0.0 7:-1.0 8:-1.0 9:-1.0 10:0.0 11:-1.0 12:0.0 13:-0.600396454334259 14:-0.9968199729919434 15:-0.9998781085014343 16:1.0 17:0.0 18:0.0 19:0.0 20:-1.0 21:-1.0 22:-1.0 23:-1.0 24:-1.0 25:-1.0 26:0.0
0.07563127188468377 1:-0.3333333432674408 2:0.0 3:0.699999988079071 4:0.0 5:-1.0 6:0.0 7:-1.0 8:-1.0 9:-1.0 10:0.0 11:-1.0 12:0.0 13:-0.16388243436813354 14:-0.9851981401443481 15:-0.9991692900657654 16:1.0 17:0.0 18:0.0 19:0.0 20:0.0 21:-1.0 22:-1.0 23:-1.0 24:-0.3333333432674408 25:-1.0 26:0.0
-0.07563127188468377 1:0.3333333432674408 2:0.0 3:-0.30000001192092896 4:1.0 5:-1.0 6:0.0 7:-1.0 8:-1.0 9:-1.0 10:0.0 11:-1.0 12:0.0 13:0.07269066572189331 14:-0.9962364435195923 15:-0.9999353885650635 16:1.0 17:0.0 18:0.0 19:0.0 20:0.0 21:-1.0 22:0.0 23:-1.0 24:-0.3333333432674408 25:-1.0 26:0.0
0.07563127188468377 1:-1.0 2:0.0 3:-1.0 4:-1.0 5:-1.0 6:0.0 7:1.0 8:-1.0 9:-1.0 10:0.0 11:-1.0 12:0.0 13:-0.5833766460418701 14:-0.9745986461639404 15:-0.9982438683509827 16:-1.0 17:0.0 18:0.0 19:0.0 20:-1.0 21:-1.0 22:-1.0 23:-1.0 24:-1.0 25:-1.0 26:0.0
-0.07563127188468377 1:0.3333333432674408 2:0.0 3:-0.5 4:1.0 5:1.0 6:0.0 7:-1.0 8:-1.0 9:-1.0 10:0.0 11:-1.0 12:0.0 13:-0.9688692688941956 14:-0.9741678833961487 15:-0.9913164973258972 16:1.0 17:0.0 18:0.0 19:0.0 20:-1.0 21:-1.0 22:-1.0 23:-1.0 24:-1.0 25:-1.0 26:0.0
-0.07563127188468377 1:-1.0 2:0.0 3:-1.0 4:-1.0 5:-1.0 6:0.0 7:1.0 8:-1.0 9:-1.0 10:0.0 11:-1.0 12:0.0 13:-0.7890439629554749 14:-0.9658820629119873 15:-0.9957630038261414 16:-1.0 17:0.0 18:0.0 19:0.0 20:-1.0 21:-1.0 22:-1.0 23:-1.0 24:-1.0 25:-1.0 26:0.0
-0.07563127188468377 1:-0.3333333432674408 2:0.0 3:0.10000000149011612 4:0.0 5:-1.0 6:0.0 7:1.0 8:-1.0 9:-1.0 10:0.0 11:-1.0 12:0.0 13:-0.30855414271354675 14:-0.9966487884521484 15:-0.9999690055847168 16:-1.0 17:0.0 18:0.0 19:0.0 20:0.0 21:-0.3333333432674408 22:0.0 23:0.0 24:-0.3333333432674408 25:0.0 26:0.0
0.07563127188468377 1:0.3333333432674408 2:0.0 3:-0.5 4:1.0 5:1.0 6:0.0 7:-1.0 8:-1.0 9:-1.0 10:0.0 11:-1.0 12:0.0 13:-0.4855061173439026 14:-0.9882152676582336 15:-0.9989905953407288 16:1.0 17:0.0 18:0.0 19:0.0 20:-1.0 21:-1.0 22:-1.0 23:-1.0 24:-1.0 25:-1.0 26:0.0
-0.07563127188468377 1:0.3333333432674408 2:0.0 3:-0.699999988079071 4:1.0 5:1.0 6:0.0 7:-1.0 8:-1.0 9:-1.0 10:0.0 11:-1.0 12:0.0 13:0.634970486164093 14:-0.9924076795578003 15:-0.9998829364776611 16:1.0 17:0.0 18:0.0 19:0.0 20:-1.0 21:-1.0 22:-1.0 23:-1.0 24:-1.0 25:-1.0 26:0.0
-0.07563127188468377 1:-1.0 2:0.0 3:-1.0 4:-1.0 5:-1.0 6:0.0 7:-1.0 8:-1.0 9:-1.0 10:0.0 11:-1.0 12:0.0 13:-0.6735349297523499 14:-0.9251084923744202 15:-0.9825985431671143 16:-1.0 17:0.0 18:0.0 19:0.0 20:0.0 21:-1.0 22:0.0 23:0.0 24:0.3333333432674408 25:0.0 26:0.0
0.07563127188468377 1:0.3333333432674408 2:0.0 3:-0.5 4:1.0 5:1.0 6:0.0 7:-1.0 8:-1.0 9:-1.0 10:0.0 11:-1.0 12:0.0 13:-0.29151055216789246 14:-0.9915255904197693 15:-0.9989532232284546 16:1.0 17:0.0 18:0.0 19:0.0 20:-1.0 21:-1.0 22:-1.0 23:-1.0 24:-1.0 25:-1.0 26:0.0
0.07563127188468377 1:-1.0 2:0.0 3:-1.0 4:-1.0 5:-1.0 6:0.0 7:-1.0 8:-1.0 9:-1.0 10:0.0 11:-1.0 12:0.0 13:-0.35877367854118347 14:-0.9957863092422485 15:-0.9999794960021973 16:-1.0 17:0.0 18:0.0 19:0.0 20:0.0 21:-1.0 22:0.0 23:0.0 24:-0.3333333432674408 25:0.0 26:0.0
-0.07563127188468377 1:0.3333333432674408 2:0.0 3:0.4000000059604645 4:0.0 5:-1.0 6:0.0 7:-1.0 8:-1.0 9:-1.0 10:0.0 11:-1.0 12:0.0 13:-0.4110367000102997 14:-0.8961598873138428 15:-0.990120530128479 16:1.0 17:0.0 18:0.0 19:0.0 20:-1.0 21:-0.3333333432674408 22:-1.0 23:-1.0 24:-1.0 25:-1.0 26:0.0
-0.07563127188468377 1:-1.0 2:0.0 3:-1.0 4:-1.0 5:1.0 6:0.0 7:1.0 8:-1.0 9:-1.0 10:0.0 11:-1.0 12:0.0 13:-0.6595919132232666 14:-0.9696192145347595 15:-0.9984206557273865 16:-1.0 17:0.0 18:0.0 19:0.0 20:0.0 21:-1.0 22:0.0 23:0.0 24:-0.3333333432674408 25:0.0 26:0.0
-0.07563127188468377 1:-1.0 2:0.0 3:-1.0 4:-1.0 5:1.0 6:0.0 7:-1.0 8:-1.0 9:-1.0 10:0.0 11:-1.0 12:0.0 13:0.5373950600624084 14:-0.8420780301094055 15:-0.9890668988227844 16:-1.0 17:0.0 18:0.0 19:0.0 20:0.0 21:-1.0 22:0.0 23:0.0 24:-1.0 25:0.0 26:0.0
-0.07563127188468377 1:-1.0 2:0.0 3:-1.0 4:-1.0 5:-1.0 6:0.0 7:-1.0 8:-1.0 9:-1.0 10:0.0 11:-1.0 12:0.0 13:0.31159988045692444 14:-0.9330747127532959 15:-0.992217481136322 16:-1.0 17:0.0 18:0.0 19:0.0 20:0.0 21:-1.0 22:0.0 23:0.0 24:-0.3333333432674408 25:0.0 26:0.0
0.07563127188468377 1:-0.3333333432674408 2:0.0 3:-0.699999988079071 4:0.0 5:-1.0 6:0.0 7:-1.0 8:-1.0 9:-1.0 10:0.0 11:-1.0 12:0.0 13:0.11483539640903473 14:-0.9847071170806885 15:-0.999632716178894 16:1.0 17:0.0 18:0.0 19:0.0 20:-1.0 21:-1.0 22:-1.0 23:-1.0 24:-1.0 25:-1.0 26:0.0
0.07563127188468377 1:-0.3333333432674408 2:0.0 3:0.699999988079071 4:0.0 5:-1.0 6:0.0 7:-1.0 8:-1.0 9:-1.0 10:0.0 11:-1.0 12:0.0 13:-0.6099835634231567 14:-0.9839788675308228 15:-0.9989228844642639 16:1.0 17:0.0 18:0.0 19:0.0 20:-1.0 21:-1.0 22:-1.0 23:-1.0 24:-1.0 25:-1.0 26:0.0
0.07563127188468377 1:-0.3333333432674408 2:0.0 3:0.699999988079071 4:0.0 5:-1.0 6:0.0 7:-1.0 8:-1.0 9:-1.0 10:0.0 11:-1.0 12:0.0 13:0.00436118058860302 14:-0.9971517324447632 15:-0.9999781250953674 16:1.0 17:0.0 18:0.0 19:0.0 20:-1.0 21:-1.0 22:-1.0 23:-1.0 24:-1.0 25:-1.0 26:0.0
0.07563127188468377 1:-0.3333333432674408 2:0.0 3:0.5 4:0.0 5:-1.0 6:0.0 7:-1.0 8:-1.0 9:-1.0 10:0.0 11:-1.0 12:0.0 13:-0.7767757177352905 14:-0.955227792263031 15:-0.9940385222434998 16:1.0 17:0.0 18:0.0 19:0.0 20:-1.0 21:-1.0 22:-1.0 23:-1.0 24:-1.0 25:-1.0 26:0.0
-0.07563127188468377 1:-0.3333333432674408 2:0.0 3:1.0 4:0.0 5:-1.0 6:0.0 7:-1.0 8:-1.0 9:-1.0 10:0.0 11:-1.0 12:0.0 13:-0.9189162254333496 14:-0.9887657165527344 15:-0.9992871880531311 16:1.0 17:0.0 18:0.0 19:0.0 20:-1.0 21:-1.0 22:-1.0 23:-1.0 24:-1.0 25:-1.0 26:0.0
0.07563127188468377 1:-1.0 2:0.0 3:-1.0 4:-1.0 5:1.0 6:0.0 7:-1.0 8:-1.0 9:-1.0 10:0.0 11:-1.0 12:0.0 13:0.2891966700553894 14:-0.9851583242416382 15:-0.9995878338813782 16:-1.0 17:0.0 18:0.0 19:0.0 20:0.0 21:-1.0 22:0.0 23:0.0 24:-0.3333333432674408 25:0.0 26:0.0
-0.07563127188468377 1:-0.3333333432674408 2:0.0 3:0.5 4:0.0 5:1.0 6:0.0 7:-1.0 8:-1.0 9:-1.0 10:0.0 11:-1.0 12:0.0 13:-0.0467100590467453 14:-0.9801844954490662 15:-0.9995027184486389 16:1.0 17:0.0 18:0.0 19:0.0 20:-1.0 21:-1.0 22:-1.0 23:-1.0 24:-1.0 25:-1.0 26:0.0
-0.07563127188468377 1:-0.3333333432674408 2:0.0 3:-0.10000000149011612 4:0.0 5:-1.0 6:0.0 7:1.0 8:-1.0 9:-1.0 10:0.0 11:-1.0 12:0.0 13:-0.915176510810852 14:-0.9834799766540527 15:-0.9983304738998413 16:-1.0 17:0.0 18:0.0 19:0.0 20:-1.0 21:-1.0 22:-1.0 23:-1.0 24:-1.0 25:0.0 26:0.0
0.07563127188468377 1:-0.3333333432674408 2:0.0 3:0.30000001192092896 4:0.0 5:1.0 6:0.0 7:-1.0 8:-1.0 9:-1.0 10:0.0 11:-1.0 12:0.0 13:-0.48051512241363525 14:-0.9950500130653381 15:-0.9998687505722046 16:1.0 17:0.0 18:0.0 19:0.0 20:0.0 21:-0.3333333432674408 22:0.0 23:0.0 24:-0.3333333432674408 25:-1.0 26:0.0
-0.07563127188468377 1:-0.3333333432674408 2:0.0 3:0.0 4:0.0 5:1.0 6:0.0 7:-1.0 8:-1.0 9:-1.0 10:0.0 11:-1.0 12:0.0 13:0.47731584310531616 14:-0.9743694067001343 15:-0.9980396628379822 16:1.0 17:0.0 18:0.0 19:0.0 20:0.0 21:-0.3333333432674408 22:0.0 23:0.0 24:-0.3333333432674408 25:0.0 26:0.0
0.07563127188468377 1:-1.0 2:0.0 3:-1.0 4:-1.0 5:-1.0 6:0.0 7:1.0 8:-1.0 9:-1.0 10:0.0 11:-1.0 12:0.0 13:-0.4965144991874695 14:-0.9888625741004944 15:-0.9997536540031433 16:-1.0 17:0.0 18:0.0 19:0.0 20:-1.0 21:-1.0 22:-1.0 23:-1.0 24:-1.0 25:-1.0 26:0.0
-0.07563127188468377 1:-0.3333333432674408 2:0.0 3:-0.10000000149011612 4:0.0 5:-1.0 6:0.0 7:-1.0 8:-1.0 9:-1.0 10:0.0 11:-1.0 12:0.0 13:-0.39977404475212097 14:-0.9040334820747375 15:-0.9853166937828064 16:-1.0 17:0.0 18:0.0 19:0.0 20:-1.0 21:-1.0 22:-1.0 23:-1.0 24:-1.0 25:-1.0 26:0.0
0.07563127188468377 1:-1.0 2:0.0 3:-1.0 4:-1.0 5:-1.0 6:0.0 7:-1.0 8:-1.0 9:-1.0 10:0.0 11:-1.0 12:0.0 13:-0.3749462962150574 14:-0.8679636716842651 15:-0.9828581213951111 16:1.0 17:0.0 18:0.0 19:0.0 20:0.0 21:-0.3333333432674408 22:0.0 23:0.0 24:-0.3333333432674408 25:0.0 26:0.0
0.07563127188468377 1:-1.0 2:0.0 3:-1.0 4:-1.0 5:-1.0 6:0.0 7:1.0 8:-1.0 9:-1.0 10:0.0 11:-1.0 12:0.0 13:-0.12903368473052979 14:-0.9985358715057373 15:-0.9999958872795105 16:-1.0 17:0.0 18:0.0 19:0.0 20:-1.0 21:-1.0 22:-1.0 23:-1.0 24:-1.0 25:-1.0 26:0.0
-0.07563127188468377 1:-0.3333333432674408 2:0.0 3:-0.800000011920929 4:0.0 5:-1.0 6:0.0 7:1.0 8:-1.0 9:-1.0 10:0.0 11:-1.0 12:0.0 13:0.04493163153529167 14:-0.9967947006225586 15:-0.9999909400939941 16:1.0 17:0.0 18:0.0 19:0.0 20:0.0 21:-0.3333333432674408 22:-1.0 23:-1.0 24:-0.3333333432674408 25:-1.0 26:0.0
-0.07563127188468377 1:-0.3333333432674408 2:0.0 3:-0.6000000238418579 4:0.0 5:-1.0 6:0.0 7:1.0 8:-1.0 9:-1.0 10:0.0 11:-1.0 12:0.0 13:0.07619279623031616 14:-0.9953458309173584 15:-0.9999340176582336 16:1.0 17:0.0 18:0.0 19:0.0 20:-1.0 21:-1.0 22:-1.0 23:-1.0 24:-1.0 25:-1.0 26:0.0
-0.07563127188468377 1:-0.3333333432674408 2:0.0 3:0.10000000149011612 4:0.0 5:-1.0 6:0.0 7:1.0 8:-1.0 9:-1.0 10:0.0 11:-1.0 12:0.0 13:-0.2277287244796753 14:-0.9829685688018799 15:-0.9994978308677673 16:1.0 17:0.0 18:0.0 19:0.0 20:-1.0 21:-1.0 22:-1.0 23:-1.0 24:-1.0 25:-1.0 26:0.0
0.07563127188468377 1:-1.0 2:0.0 3:-1.0 4:-1.0 5:1.0 6:0.0 7:-1.0 8:-1.0 9:-1.0 10:0.0 11:-1.0 12:0.0 13:-0.4475654363632202 14:-0.9572531580924988 15:-0.9991151094436646 16:1.0 17:0.0 18:0.0 19:0.0 20:0.0 21:-1.0 22:0.0 23:0.0 24:-0.3333333432674408 25:0.0 26:0.0
0.07563127188468377 1:-0.3333333432674408 2:0.0 3:-0.4000000059604645 4:0.0 5:-1.0 6:0.0 7:-1.0 8:-1.0 9:-1.0 10:0.0 11:-1.0 12:0.0 13:-0.7606286406517029 14:-0.9662286043167114 15:-0.9946939945220947 16:-1.0 17:0.0 18:0.0 19:0.0 20:0.0 21:-1.0 22:0.0 23:0.0 24:-1.0 25:0.0 26:0.0
0.07563127188468377 1:-0.3333333432674408 2:0.0 3:0.10000000149011612 4:0.0 5:-1.0 6:0.0 7:-1.0 8:-1.0 9:-1.0 10:0.0 11:-1.0 12:0.0 13:-0.7627527713775635 14:-0.9983707666397095 15:-0.9999629259109497 16:-1.0 17:0.0 18:0.0 19:0.0 20:0.0 21:-1.0 22:0.0 23:0.0 24:-0.3333333432674408 25:0.0 26:0.0
-0.07563127188468377 1:-1.0 2:0.0 3:-1.0 4:-1.0 5:1.0 6:0.0 7:-1.0 8:-1.0 9:-1.0 10:0.0 11:-1.0 12:0.0 13:-0.6219581961631775 14:-0.7209328413009644 15:-0.9453883767127991 16:-1.0 17:0.0 18:0.0 19:0.0 20:0.0 21:-0.3333333432674408 22:0.0 23:0.0 24:-0.3333333432674408 25:0.0 26:0.0
0.07563127188468377 1:-0.3333333432674408 2:0.0 3:-0.6000000238418579 4:0.0 5:-1.0 6:0.0 7:-1.0 8:-1.0 9:-1.0 10:0.0 11:-1.0 12:0.0 13:-0.08487316966056824 14:-0.9843847155570984 15:-0.9993720054626465 16:1.0 17:0.0 18:0.0 19:0.0 20:-1.0 21:-1.0 22:-1.0 23:-1.0 24:-1.0 25:-1.0 26:0.0
-0.07563127188468377 1:0.3333333432674408 2:0.0 3:-0.30000001192092896 4:0.0 5:-1.0 6:0.0 7:-1.0 8:-1.0 9:-1.0 10:0.0 11:-1.0 12:0.0 13:0.2046615481376648 14:-0.9963998794555664 15:-0.9999850988388062 16:-1.0 17:0.0 18:0.0 19:0.0 20:0.0 21:-1.0 22:0.0 23:0.0 24:-1.0 25:0.0 26:0.0
-0.07563127188468377 1:-0.3333333432674408 2:0.0 3:0.20000000298023224 4:0.0 5:-1.0 6:0.0 7:-1.0 8:-1.0 9:-1.0 10:0.0 11:-1.0 12:0.0 13:-0.41032344102859497 14:-0.987555205821991 15:-0.9997155666351318 16:-1.0 17:0.0 18:0.0 19:0.0 20:-1.0 21:-1.0 22:-1.0 23:-1.0 24:-1.0 25:-1.0 26:0.0
-0.07563127188468377 1:-0.3333333432674408 2:0.0 3:-0.699999988079071 4:0.0 5:1.0 6:0.0 7:-1.0 8:-1.0 9:-1.0 10:0.0 11:-1.0 12:0.0 13:-0.6216073632240295 14:-0.9876339435577393 15:-0.9992806911468506 16:1.0 17:0.0 18:0.0 19:0.0 20:-1.0 21:-0.3333333432674408 22:0.0 23:0.0 24:-0.3333333432674408 25:0.0 26:0.0
0.07563127188468377 1:-0.3333333432674408 2:0.0 3:0.4000000059604645 4:0.0 5:-1.0 6:0.0 7:1.0 8:-1.0 9:-1.0 10:0.0 11:-1.0 12:0.0 13:-0.29194608330726624 14:-0.9982498288154602 15:-0.9999933838844299 16:-1.0 17:0.0 18:0.0 19:0.0 20:0.0 21:-1.0 22:-1.0 23:-1.0 24:-0.3333333432674408 25:-1.0 26:0.0
-0.07563127188468377 1:-0.3333333432674408 2:0.0 3:0.0 4:0.0 5:-1.0 6:0.0 7:-1.0 8:-1.0 9:-1.0 10:0.0 11:-1.0 12:0.0 13:-0.44278037548065186 14:-0.9937707781791687 15:-0.9999489188194275 16:-1.0 17:0.0 18:0.0 19:0.0 20:-1.0 21:-1.0 22:-1.0 23:-1.0 24:-1.0 25:-1.0 26:0.0
0.07563127188468377 1:-1.0 2:0.0 3:-1.0 4:-1.0 5:1.0 6:0.0 7:1.0 8:-1.0 9:-1.0 10:0.0 11:-1.0 12:0.0 13:-0.5288305878639221 14:-0.9266863465309143 15:-0.8423843383789062 16:-1.0 17:0.0 18:0.0 19:0.0 20:-1.0 21:-0.3333333432674408 22:0.0 23:-1.0 24:-0.3333333432674408 25:0.0 26:0.0
-0.07563127188468377 1:-0.3333333432674408 2:0.0 3:0.10000000149011612 4:0.0 5:1.0 6:0.0 7:1.0 8:-1.0 9:-1.0 10:0.0 11:-1.0 12:0.0 13:0.8221513628959656 14:-0.9900783896446228 15:-0.9996978044509888 16:1.0 17:0.0 18:0.0 19:0.0 20:0.0 21:-0.3333333432674408 22:0.0 23:0.0 24:-0.3333333432674408 25:0.0 26:0.0
-0.07563127188468377 1:-0.3333333432674408 2:0.0 3:-0.6000000238418579 4:0.0 5:1.0 6:0.0 7:-1.0 8:-1.0 9:-1.0 10:0.0 11:-1.0 12:0.0 13:-0.03529758378863335 14:-0.9633111357688904 15:-0.9979367256164551 16:1.0 17:0.0 18:0.0 19:0.0 20:0.0 21:-0.3333333432674408 22:0.0 23:0.0 24:-1.0 25:0.0 26:0.0
-0.07563127188468377 1:-0.3333333432674408 2:0.0 3:-0.6000000238418579 4:0.0 5:1.0 6:0.0 7:-1.0 8:-1.0 9:-1.0 10:0.0 11:-1.0 12:0.0 13:0.08134020119905472 14:-0.9645790457725525 15:-0.9985264539718628 16:-1.0 17:0.0 18:0.0 19:0.0 20:0.0 21:-0.3333333432674408 22:0.0 23:0.0 24:-0.3333333432674408 25:0.0 26:0.0
0.07563127188468377 1:-0.3333333432674408 2:0.0 3:0.20000000298023224 4:0.0 5:-1.0 6:0.0 7:1.0 8:-1.0 9:-1.0 10:0.0 11:-1.0 12:0.0 13:-0.8427582383155823 14:-0.9922809600830078 15:-0.9992427825927734 16:-1.0 17:0.0 18:0.0 19:0.0 20:-1.0 21:-1.0 22:-1.0 23:-1.0 24:-1.0 25:-1.0 26:0.0
0.07563127188468377 1:-0.3333333432674408 2:0.0 3:-0.10000000149011612 4:0.0 5:-1.0 6:0.0 7:1.0 8:-1.0 9:-1.0 10:0.0 11:-1.0 12:0.0 13:-0.8537281155586243 14:-0.9657055139541626 15:-0.9985781311988831 16:-1.0 17:0.0 18:0.0 19:0.0 20:-1.0 21:-1.0 22:-1.0 23:-1.0 24:-1.0 25:-1.0 26:0.0
0.07563127188468377 1:-0.3333333432674408 2:0.0 3:-0.4000000059604645 4:0.0 5:-1.0 6:0.0 7:1.0 8:-1.0 9:-1.0 10:0.0 11:-1.0 12:0.0 13:-0.8390405774116516 14:-0.997862696647644 15:-0.9999557733535767 16:-1.0 17:0.0 18:0.0 19:0.0 20:-1.0 21:-1.0 22:-1.0 23:-1.0 24:-1.0 25:-1.0 26:0.0
0.07563127188468377 1:-0.3333333432674408 2:0.0 3:0.30000001192092896 4:0.0 5:-1.0 6:0.0 7:1.0 8:-1.0 9:-1.0 10:0.0 11:-1.0 12:0.0 13:-0.5934388041496277 14:-0.9939627051353455 15:-0.9999562501907349 16:-1.0 17:0.0 18:0.0 19:0.0 20:-1.0 21:-1.0 22:-1.0 23:-1.0 24:-1.0 25:-1.0 26:0.0
-0.07563127188468377 1:-0.3333333432674408 2:0.0 3:0.4000000059604645 4:0.0 5:-1.0 6:0.0 7:-1.0 8:-1.0 9:-1.0 10:0.0 11:-1.0 12:0.0 13:-0.3737478256225586 14:-0.9910207986831665 15:-0.999871015548706 16:-1.0 17:0.0 18:0.0 19:0.0 20:-1.0 21:-1.0 22:-1.0 23:-1.0 24:-1.0 25:-1.0 26:0.0
0.07563127188468377 1:-0.3333333432674408 2:0.0 3:-0.10000000149011612 4:0.0 5:1.0 6:0.0 7:-1.0 8:-1.0 9:-1.0 10:0.0 11:-1.0 12:0.0 13:0.691308319568634 14:-0.9668905735015869 15:-0.9796757102012634 16:-1.0 17:0.0 18:0.0 19:0.0 20:0.0 21:-0.3333333432674408 22:0.0 23:0.0 24:-0.3333333432674408 25:0.0 26:0.0
0.07563127188468377 1:0.3333333432674408 2:0.0 3:-0.6000000238418579 4:0.0 5:-1.0 6:0.0 7:-1.0 8:-1.0 9:-1.0 10:0.0 11:-1.0 12:0.0 13:-0.4242177903652191 14:-0.9755985140800476 15:-0.9972732663154602 16:1.0 17:0.0 18:0.0 19:0.0 20:0.0 21:-0.3333333432674408 22:0.0 23:0.0 24:-0.3333333432674408 25:0.0 26:0.0
-0.07563127188468377 1:-1.0 2:0.0 3:-1.0 4:-1.0 5:-1.0 6:0.0 7:-1.0 8:-1.0 9:-1.0 10:0.0 11:-1.0 12:0.0 13:-0.4146948456764221 14:-0.9974640011787415 15:-0.9999722242355347 16:-1.0 17:0.0 18:0.0 19:0.0 20:-1.0 21:-1.0 22:-1.0 23:-1.0 24:-1.0 25:-1.0 26:0.0
0.07563127188468377 1:-0.3333333432674408 2:0.0 3:-0.5 4:0.0 5:1.0 6:0.0 7:-1.0 8:-1.0 9:-1.0 10:0.0 11:-1.0 12:0.0 13:-0.2839277684688568 14:-0.9158176779747009 15:-0.8280243277549744 16:1.0 17:0.0 18:0.0 19:0.0 20:-1.0 21:-1.0 22:-1.0 23:-1.0 24:-1.0 25:-1.0 26:0.0
-0.07563127188468377 1:-1.0 2:0.0 3:-1.0 4:-1.0 5:1.0 6:0.0 7:-1.0 8:-1.0 9:-1.0 10:0.0 11:-1.0 12:0.0 13:0.8604853749275208 14:-0.9803103804588318 15:-0.9881672859191895 16:1.0 17:0.0 18:0.0 19:0.0 20:-1.0 21:-1.0 22:-1.0 23:-1.0 24:-1.0 25:-1.0 26:0.0
0.07563127188468377 1:-0.3333333432674408 2:0.0 3:0.10000000149011612 4:0.0 5:-1.0 6:0.0 7:1.0 8:-1.0 9:-1.0 10:0.0 11:-1.0 12:0.0 13:-0.9524855613708496 14:-0.9409152865409851 15:-0.9189128279685974 16:-1.0 17:0.0 18:0.0 19:0.0 20:-1.0 21:-1.0 22:-1.0 23:-1.0 24:-1.0 25:-1.0 26:0.0
0.07563127188468377 1:-0.3333333432674408 2:0.0 3:-0.699999988079071 4:0.0 5:1.0 6:0.0 7:-1.0 8:-1.0 9:-1.0 10:0.0 11:-1.0 12:0.0 13:-0.3273845613002777 14:-0.9813728928565979 15:-0.9988406896591187 16:1.0 17:0.0 18:0.0 19:0.0 20:-1.0 21:-1.0 22:-1.0 23:-1.0 24:-1.0 25:-1.0 26:0.0
-0.07563127188468377 1:-0.3333333432674408 2:0.0 3:0.20000000298023224 4:0.0 5:-1.0 6:0.0 7:1.0 8:-1.0 9:-1.0 10:0.0 11:-1.0 12:0.0 13:-0.9094117283821106 14:-0.9680407643318176 15:-0.9968065023422241 16:-1.0 17:0.0 18:0.0 19:0.0 20:-1.0 21:-0.3333333432674408 22:0.0 23:0.0 24:-0.3333333432674408 25:0.0 26:0.0
-0.07563127188468377 1:-0.3333333432674408 2:0.0 3:-0.699999988079071 4:0.0 5:1.0 6:0.0 7:-1.0 8:-1.0 9:-1.0 10:0.0 11:-1.0 12:0.0 13:0.6749251484870911 14:-0.9953997135162354 15:-0.9999845027923584 16:1.0 17:0.0 18:0.0 19:0.0 20:-1.0 21:-1.0 22:-1.0 23:-1.0 24:-1.0 25:-1.0 26:0.0
0.07563127188468377 1:-1.0 2:0.0 3:-1.0 4:-1.0 5:1.0 6:0.0 7:-1.0 8:-1.0 9:-1.0 10:0.0 11:-1.0 12:0.0 13:-0.5784691572189331 14:-0.9966374039649963 15:-0.9999263882637024 16:1.0 17:0.0 18:0.0 19:0.0 20:-1.0 21:-1.0 22:-1.0 23:-1.0 24:-1.0 25:-1.0 26:0.0
0.07563127188468377 1:-0.3333333432674408 2:0.0 3:-0.30000001192092896 4:0.0 5:-1.0 6:0.0 7:-1.0 8:-1.0 9:-1.0 10:0.0 11:-1.0 12:0.0 13:-0.14735636115074158 14:-0.9889293909072876 15:-0.9997917413711548 16:1.0 17:0.0 18:0.0 19:0.0 20:-1.0 21:-1.0 22:-1.0 23:-1.0 24:-1.0 25:-1.0 26:0.0
0.07563127188468377 1:-1.0 2:0.0 3:-1.0 4:-1.0 5:1.0 6:0.0 7:-1.0 8:-1.0 9:-1.0 10:0.0 11:-1.0 12:0.0 13:-0.8133062720298767 14:-0.9846006035804749 15:-0.9989996552467346 16:1.0 17:0.0 18:0.0 19:0.0 20:-1.0 21:-1.0 22:-1.0 23:-1.0 24:-1.0 25:-1.0 26:0.0
0.07563127188468377 1:-1.0 2:0.0 3:-1.0 4:-1.0 5:-1.0 6:0.0 7:-1.0 8:-1.0 9:-1.0 10:0.0 11:-1.0 12:0.0 13:-0.7669340968132019 14:-0.6577585935592651 15:-0.7685065269470215 16:-1.0 17:0.0 18:0.0 19:0.0 20:0.0 21:-0.3333333432674408 22:0.0 23:0.0 24:-0.3333333432674408 25:0.0 26:0.0
-0.07563127188468377 1:-0.3333333432674408 2:0.0 3:-0.20000000298023224 4:0.0 5:1.0 6:0.0 7:-1.0 8:-1.0 9:-1.0 10:0.0 11:-1.0 12:0.0 13:0.44478240609169006 14:-0.9455492496490479 15:-0.9984446167945862 16:1.0 17:0.0 18:0.0 19:0.0 20:-1.0 21:-1.0 22:-1.0 23:-1.0 24:-1.0 25:-1.0 26:0.0
0.07563127188468377 1:-0.3333333432674408 2:0.0 3:0.0 4:0.0 5:1.0 6:0.0 7:-1.0 8:-1.0 9:-1.0 10:0.0 11:-1.0 12:0.0 13:-0.4415370523929596 14:-0.9663124680519104 15:-0.9982804656028748 16:-1.0 17:0.0 18:0.0 19:0.0 20:-1.0 21:-1.0 22:-1.0 23:-1.0 24:-1.0 25:-1.0 26:0.0
0.07563127188468377 1:-0.3333333432674408 2:0.0 3:-0.30000001192092896 4:0.0 5:1.0 6:0.0 7:-1.0 8:-1.0 9:-1.0 10:0.0 11:-1.0 12:0.0 13:0.9372592568397522 14:-0.9973108172416687 15:-0.9999966621398926 16:-1.0 17:0.0 18:0.0 19:0.0 20:-1.0 21:-1.0 22:-1.0 23:-1.0 24:-1.0 25:-1.0 26:0.0
0.07563127188468377 1:-0.3333333432674408 2:0.0 3:0.6000000238418579 4:0.0 5:1.0 6:0.0 7:-1.0 8:-1.0 9:-1.0 10:0.0 11:-1.0 12:0.0 13:-0.9222047328948975 14:-0.6780191659927368 15:-0.6983869671821594 16:1.0 17:0.0 18:0.0 19:0.0 20:0.0 21:-0.3333333432674408 22:0.0 23:0.0 24:-1.0 25:0.0 26:0.0
-0.07563127188468377 1:-1.0 2:0.0 3:-1.0 4:-1.0 5:1.0 6:0.0 7:-1.0 8:-1.0 9:-1.0 10:0.0 11:-1.0 12:0.0 13:-0.9506896734237671 14:-0.927872896194458 15:-0.9553989768028259 16:1.0 17:0.0 18:0.0 19:0.0 20:-1.0 21:-1.0 22:-1.0 23:-1.0 24:-1.0 25:-1.0 26:0.0
-0.07563127188468377 1:-1.0 2:0.0 3:-1.0 4:-1.0 5:1.0 6:0.0 7:-1.0 8:-1.0 9:-1.0 10:0.0 11:-1.0 12:0.0 13:-0.7515007853507996 14:-0.7071168422698975 15:-0.9427475929260254 16:1.0 17:0.0 18:0.0 19:0.0 20:-1.0 21:-1.0 22:-1.0 23:-1.0 24:-1.0 25:-1.0 26:0.0
0.07563127188468377 1:-1.0 2:0.0 3:-1.0 4:-1.0 5:1.0 6:0.0 7:1.0 8:-1.0 9:-1.0 10:0.0 11:-1.0 12:0.0 13:0.3891291916370392 14:-0.9966850280761719 15:-0.9999913573265076 16:-1.0 17:0.0 18:0.0 19:0.0 20:-1.0 21:-1.0 22:-1.0 23:-1.0 24:-1.0 25:-1.0 26:0.0
0.07563127188468377 1:-0.3333333432674408 2:0.0 3:-0.6000000238418579 4:0.0 5:-1.0 6:0.0 7:1.0 8:-1.0 9:-1.0 10:0.0 11:-1.0 12:0.0 13:0.35530105233192444 14:-0.9856216907501221 15:-0.9997438788414001 16:-1.0 17:0.0 18:0.0 19:0.0 20:-1.0 21:-1.0 22:-1.0 23:-1.0 24:-1.0 25:-1.0 26:0.0
0.07563127188468377 1:-1.0 2:0.0 3:-1.0 4:-1.0 5:-1.0 6:0.0 7:1.0 8:-1.0 9:-1.0 10:0.0 11:-1.0 12:0.0 13:0.3677994906902313 14:-0.9127049446105957 15:-0.996397078037262 16:-1.0 17:0.0 18:0.0 19:0.0 20:-1.0 21:-1.0 22:-1.0 23:-1.0 24:-1.0 25:-1.0 26:0.0
0.07563127188468377 1:-0.3333333432674408 2:0.0 3:0.30000001192092896 4:0.0 5:1.0 6:0.0 7:1.0 8:-1.0 9:-1.0 10:0.0 11:-1.0 12:0.0 13:0.5301212668418884 14:-0.9978423118591309 15:-0.9999838471412659 16:-1.0 17:0.0 18:0.0 19:0.0 20:-1.0 21:-1.0 22:-1.0 23:-1.0 24:-1.0 25:-1.0 26:0.0
0.07563127188468377 1:-1.0 2:0.0 3:-1.0 4:-1.0 5:1.0 6:0.0 7:-1.0 8:-1.0 9:-1.0 10:0.0 11:-1.0 12:0.0 13:-0.5146158933639526 14:-0.9369868636131287 15:-0.9940402507781982 16:1.0 17:0.0 18:0.0 19:0.0 20:0.0 21:-0.3333333432674408 22:0.0 23:0.0 24:-0.3333333432674408 25:0.0 26:0.0
-0.07563127188468377 1:-0.3333333432674408 2:0.0 3:-0.30000001192092896 4:0.0 5:1.0 6:0.0 7:-1.0 8:-1.0 9:-1.0 10:0.0 11:-1.0 12:0.0 13:0.3657163381576538 14:-0.9966443777084351 15:-0.9999877214431763 16:1.0 17:0.0 18:0.0 19:0.0 20:-1.0 21:-1.0 22:-1.0 23:0.0 24:-1.0 25:-1.0 26:0.0
0.07563127188468377 1:-0.3333333432674408 2:0.0 3:-0.6000000238418579 4:0.0 5:1.0 6:0.0 7:-1.0 8:-1.0 9:-1.0 10:0.0 11:-1.0 12:0.0 13:-0.4787963330745697 14:-0.9511034488677979 15:-0.9954856634140015 16:1.0 17:0.0 18:0.0 19:0.0 20:0.0 21:-1.0 22:0.0 23:-1.0 24:-0.3333333432674408 25:0.0 26:0.0
0.07563127188468377 1:-0.3333333432674408 2:0.0 3:-0.5 4:0.0 5:1.0 6:0.0 7:-1.0 8:-1.0 9:-1.0 10:0.0 11:-1.0 12:0.0 13:-0.335735946893692 14:-0.8928002119064331 15:-0.9927933812141418 16:1.0 17:0.0 18:0.0 19:0.0 20:-1.0 21:-1.0 22:0.0 23:0.0 24:-0.3333333432674408 25:0.0 26:0.0
-0.07563127188468377 1:-0.3333333432674408 2:0.0 3:-0.20000000298023224 4:0.0 5:1.0 6:0.0 7:-1.0 8:-1.0 9:-1.0 10:0.0 11:-1.0 12:0.0 13:0.12062042206525803 14:-0.9840778708457947 15:-0.9998006224632263 16:1.0 17:0.0 18:0.0 19:0.0 20:-1.0 21:-1.0 22:-1.0 23:-1.0 24:-1.0 25:-1.0 26:0.0
0.07563127188468377 1:0.3333333432674408 2:0.0 3:-0.5 4:0.0 5:-1.0 6:0.0 7:-1.0 8:-1.0 9:-1.0 10:0.0 11:-1.0 12:0.0 13:0.06485788524150848 14:-0.9745842218399048 15:-0.9992162585258484 16:1.0 17:0.0 18:0.0 19:0.0 20:-1.0 21:-1.0 22:-1.0 23:-1.0 24:-1.0 25:-1.0 26:0.0
0.07563127188468377 1:-1.0 2:0.0 3:-1.0 4:-1.0 5:1.0 6:0.0 7:-1.0 8:-1.0 9:-1.0 10:0.0 11:-1.0 12:0.0 13:-0.6186151504516602 14:-0.994267463684082 15:-0.9996728301048279 16:1.0 17:0.0 18:0.0 19:0.0 20:-1.0 21:-1.0 22:-1.0 23:-1.0 24:-1.0 25:-1.0 26:0.0
-0.07563127188468377 1:-0.3333333432674408 2:0.0 3:-0.5 4:0.0 5:1.0 6:0.0 7:-1.0 8:-1.0 9:-1.0 10:0.0 11:-1.0 12:0.0 13:0.1632774919271469 14:-0.9113242626190186 15:-0.9957457184791565 16:1.0 17:0.0 18:0.0 19:0.0 20:-1.0 21:-1.0 22:-1.0 23:-1.0 24:-1.0 25:-1.0 26:0.0
-0.07563127188468377 1:-0.3333333432674408 2:0.0 3:0.20000000298023224 4:0.0 5:-1.0 6:0.0 7:-1.0 8:-1.0 9:-1.0 10:0.0 11:-1.0 12:0.0 13:-0.8451805114746094 14:-0.8977981805801392 15:-0.9541195034980774 16:1.0 17:0.0 18:0.0 19:0.0 20:-1.0 21:-1.0 22:-1.0 23:-1.0 24:-1.0 25:-1.0 26:0.0
-0.07563127188468377 1:-1.0 2:0.0 3:-1.0 4:-1.0 5:1.0 6:0.0 7:-1.0 8:-1.0 9:-1.0 10:0.0 11:-1.0 12:0.0 13:-0.5399599075317383 14:-0.9957470297813416 15:-0.9999525547027588 16:1.0 17:0.0 18:0.0 19:0.0 20:-1.0 21:-1.0 22:-1.0 23:-1.0 24:-1.0 25:-1.0 26:0.0
0.07563127188468377 1:-0.3333333432674408 2:0.0 3:-0.699999988079071 4:0.0 5:1.0 6:0.0 7:-1.0 8:-1.0 9:-1.0 10:0.0 11:-1.0 12:0.0 13:-0.7015684843063354 14:-0.9899395108222961 15:-0.9996106028556824 16:1.0 17:0.0 18:0.0 19:0.0 20:-1.0 21:-1.0 22:-1.0 23:-1.0 24:-1.0 25:-1.0 26:0.0
-0.07563127188468377 1:-0.3333333432674408 2:0.0 3:-0.5 4:0.0 5:1.0 6:0.0 7:-1.0 8:-1.0 9:-1.0 10:0.0 11:-1.0 12:0.0 13:0.7433257102966309 14:-0.9501767158508301 15:-0.9982530474662781 16:1.0 17:0.0 18:0.0 19:0.0 20:-1.0 21:-1.0 22:-1.0 23:-1.0 24:-1.0 25:-1.0 26:0.0
-0.07563127188468377 1:-0.3333333432674408 2:0.0 3:0.20000000298023224 4:0.0 5:-1.0 6:0.0 7:-1.0 8:-1.0 9:-1.0 10:0.0 11:-1.0 12:0.0 13:-0.5192584991455078 14:-0.9731573462486267 15:-0.99941086769104 16:-1.0 17:0.0 18:0.0 19:0.0 20:0.0 21:-1.0 22:-1.0 23:-1.0 24:-1.0 25:-1.0 26:0.0
0.07563127188468377 1:-0.3333333432674408 2:0.0 3:-0.6000000238418579 4:0.0 5:1.0 6:0.0 7:-1.0 8:-1.0 9:-1.0 10:0.0 11:-1.0 12:0.0 13:-0.4114440083503723 14:-0.9414433836936951 15:-0.9839417934417725 16:1.0 17:0.0 18:0.0 19:0.0 20:-1.0 21:-1.0 22:-1.0 23:-1.0 24:-1.0 25:-1.0 26:0.0
-0.07563127188468377 1:-1.0 2:0.0 3:-1.0 4:-1.0 5:1.0 6:0.0 7:-1.0 8:-1.0 9:-1.0 10:0.0 11:-1.0 12:0.0 13:-0.8515480756759644 14:-0.9885126948356628 15:-0.9991415739059448 16:1.0 17:0.0 18:0.0 19:0.0 20:-1.0 21:-1.0 22:-1.0 23:-1.0 24:-1.0 25:-1.0 26:0.0
-0.07563127188468377 1:-0.3333333432674408 2:0.0 3:-0.6000000238418579 4:0.0 5:1.0 6:0.0 7:-1.0 8:-1.0 9:-1.0 10:0.0 11:-1.0 12:0.0 13:-0.04570592939853668 14:-0.9686755537986755 15:-0.9969283938407898 16:1.0 17:0.0 18:0.0 19:0.0 20:-1.0 21:-1.0 22:-1.0 23:-1.0 24:-1.0 25:-1.0 26:0.0
0.07563127188468377 1:-0.3333333432674408 2:0.0 3:-0.6000000238418579 4:0.0 5:1.0 6:0.0 7:-1.0 8:-1.0 9:-1.0 10:0.0 11:-1.0 12:0.0 13:-0.9189426302909851 14:-0.9907021522521973 15:-0.9984937906265259 16:1.0 17:0.0 18:0.0 19:0.0 20:-1.0 21:-1.0 22:-1.0 23:-1.0 24:-1.0 25:-1.0 26:0.0
-0.07563127188468377 1:-1.0 2:0.0 3:-1.0 4:-1.0 5:1.0 6:0.0 7:-1.0 8:-1.0 9:-1.0 10:0.0 11:-1.0 12:0.0 13:-0.7373430728912354 14:-0.9726014733314514 15:-0.9775232076644897 16:1.0 17:0.0 18:0.0 19:0.0 20:-1.0 21:-1.0 22:-1.0 23:-1.0 24:-1.0 25:-1.0 26:0.0
0.07563127188468377 1:0.3333333432674408 2:0.0 3:-0.699999988079071 4:1.0 5:-1.0 6:0.0 7:-1.0 8:-1.0 9:-1.0 10:0.0 11:-1.0 12:0.0 13:-0.3328571617603302 14:-0.9778189063072205 15:-0.9973529577255249 16:1.0 17:0.0 18:0.0 19:0.0 20:-1.0 21:-1.0 22:-1.0 23:-1.0 24:-0.3333333432674408 25:-1.0 26:0.0
-0.07563127188468377 1:-1.0 2:0.0 3:-1.0 4:-1.0 5:1.0 6:0.0 7:-1.0 8:-1.0 9:-1.0 10:0.0 11:-1.0 12:0.0 13:-0.6736253499984741 14:-0.9561958909034729 15:-0.9989705681800842 16:1.0 17:0.0 18:0.0 19:0.0 20:-1.0 21:-1.0 22:-1.0 23:-1.0 24:-1.0 25:-1.0 26:0.0
-0.07563127188468377 1:-0.3333333432674408 2:0.0 3:-0.4000000059604645 4:0.0 5:-1.0 6:0.0 7:1.0 8:-1.0 9:-1.0 10:0.0 11:-1.0 12:0.0 13:-0.08600546419620514 14:-0.9982497692108154 15:-0.9999933838844299 16:-1.0 17:0.0 18:0.0 19:0.0 20:0.0 21:-0.3333333432674408 22:0.0 23:0.0 24:-0.3333333432674408 25:0.0 26:0.0
-0.07563127188468377 1:-0.3333333432674408 2:0.0 3:-0.5 4:0.0 5:-1.0 6:0.0 7:-1.0 8:-1.0 9:-1.0 10:0.0 11:-1.0 12:0.0 13:0.6571590304374695 14:-0.9774853587150574 15:-0.9997533559799194 16:1.0 17:0.0 18:0.0 19:0.0 20:-1.0 21:-1.0 22:-1.0 23:0.0 24:-1.0 25:-1.0 26:0.0
-0.07563127188468377 1:-0.3333333432674408 2:0.0 3:0.20000000298023224 4:0.0 5:1.0 6:0.0 7:1.0 8:-1.0 9:-1.0 10:0.0 11:-1.0 12:0.0 13:-0.7606702446937561 14:-0.9777460098266602 15:-0.9991022348403931 16:-1.0 17:0.0 18:0.0 19:0.0 20:-1.0 21:-1.0 22:-1.0 23:-1.0 24:-1.0 25:-1.0 26:0.0
-0.07563127188468377 1:-0.3333333432674408 2:0.0 3:0.0 4:0.0 5:1.0 6:0.0 7:-1.0 8:-1.0 9:-1.0 10:0.0 11:-1.0 12:0.0 13:-0.6829553842544556 14:-0.9663243889808655 15:-0.9980827569961548 16:-1.0 17:0.0 18:0.0 19:0.0 20:0.0 21:-1.0 22:-1.0 23:-1.0 24:-0.3333333432674408 25:-1.0 26:0.0
-0.07563127188468377 1:-0.3333333432674408 2:0.0 3:-0.6000000238418579 4:0.0 5:1.0 6:0.0 7:-1.0 8:-1.0 9:-1.0 10:0.0 11:-1.0 12:0.0 13:-0.8055524230003357 14:-0.9965274930000305 15:-0.999956488609314 16:-1.0 17:0.0 18:0.0 19:0.0 20:0.0 21:-0.3333333432674408 22:-1.0 23:-1.0 24:-1.0 25:-1.0 26:0.0
0.07563127188468377 1:-0.3333333432674408 2:0.0 3:-0.10000000149011612 4:0.0 5:1.0 6:0.0 7:-1.0 8:-1.0 9:-1.0 10:0.0 11:-1.0 12:0.0 13:-0.5577107071876526 14:-0.9427830576896667 15:-0.9922025799751282 16:1.0 17:0.0 18:0.0 19:0.0 20:0.0 21:-0.3333333432674408 22:0.0 23:0.0 24:-0.3333333432674408 25:0.0 26:0.0
0.07563127188468377 1:-0.3333333432674408 2:0.0 3:-0.30000001192092896 4:0.0 5:-1.0 6:0.0 7:-1.0 8:-1.0 9:-1.0 10:0.0 11:-1.0 12:0.0 13:-0.47224828600883484 14:-0.9752800464630127 15:-0.9988682270050049 16:1.0 17:0.0 18:0.0 19:0.0 20:-1.0 21:-1.0 22:0.0 23:0.0 24:0.3333333432674408 25:0.0 26:0.0
-0.07563127188468377 1:-1.0 2:0.0 3:-1.0 4:-1.0 5:-1.0 6:0.0 7:-1.0 8:-1.0 9:-1.0 10:0.0 11:-1.0 12:0.0 13:-0.9674819707870483 14:-0.9167086482048035 15:-0.8083776831626892 16:1.0 17:0.0 18:0.0 19:0.0 20:-1.0 21:-1.0 22:0.0 23:0.0 24:-0.3333333432674408 25:0.0 26:0.0
0.07563127188468377 1:-0.3333333432674408 2:0.0 3:0.699999988079071 4:0.0 5:1.0 6:0.0 7:-1.0 8:-1.0 9:-1.0 10:0.0 11:-1.0 12:0.0 13:-0.9027249813079834 14:-0.9869686961174011 15:-0.9991020560264587 16:-1.0 17:0.0 18:0.0 19:0.0 20:-1.0 21:-1.0 22:-1.0 23:-1.0 24:-1.0 25:-1.0 26:0.0
-0.07563127188468377 1:-0.3333333432674408 2:0.0 3:-0.30000001192092896 4:0.0 5:-1.0 6:0.0 7:-1.0 8:-1.0 9:-1.0 10:0.0 11:-1.0 12:0.0 13:0.979415774345398 14:-0.9772145748138428 15:-0.9983430504798889 16:1.0 17:0.0 18:0.0 19:0.0 20:-1.0 21:-1.0 22:-1.0 23:-1.0 24:-1.0 25:-1.0 26:0.0
0.07563127188468377 1:-0.3333333432674408 2:0.0 3:-0.5 4:0.0 5:1.0 6:0.0 7:-1.0 8:-1.0 9:-1.0 10:0.0 11:-1.0 12:0.0 13:-0.6418184638023376 14:-0.9599107503890991 15:-0.996728777885437 16:-1.0 17:0.0 18:0.0 19:0.0 20:0.0 21:-0.3333333432674408 22:-1.0 23:-1.0 24:-0.3333333432674408 25:-1.0 26:0.0
0.07563127188468377 1:-0.3333333432674408 2:0.0 3:-0.4000000059604645 4:0.0 5:-1.0 6:0.0 7:-1.0 8:-1.0 9:-1.0 10:0.0 11:-1.0 12:0.0 13:0.26009517908096313 14:-0.9829055070877075 15:-0.999767541885376 16:1.0 17:0.0 18:0.0 19:0.0 20:-1.0 21:-1.0 22:-1.0 23:-1.0 24:-1.0 25:-1.0 26:0.0
-0.07563127188468377 1:-0.3333333432674408 2:0.0 3:0.0 4:0.0 5:-1.0 6:0.0 7:-1.0 8:-1.0 9:-1.0 10:0.0 11:-1.0 12:0.0 13:-0.22097302973270416 14:-0.9839579463005066 15:-0.9997590184211731 16:-1.0 17:0.0 18:0.0 19:0.0 20:-1.0 21:-1.0 22:-1.0 23:-1.0 24:-1.0 25:-1.0 26:0.0
-0.07563127188468377 1:-0.3333333432674408 2:0.0 3:0.10000000149011612 4:0.0 5:1.0 6:0.0 7:-1.0 8:-1.0 9:-1.0 10:0.0 11:-1.0 12:0.0 13:-0.2216292917728424 14:-0.987303614616394 15:-0.999677836894989 16:1.0 17:0.0 18:0.0 19:0.0 20:0.0 21:-0.3333333432674408 22:0.0 23:0.0 24:-0.3333333432674408 25:-1.0 26:0.0
-0.07563127188468377 1:-1.0 2:0.0 3:-1.0 4:-1.0 5:1.0 6:0.0 7:-1.0 8:-1.0 9:-1.0 10:0.0 11:-1.0 12:0.0 13:0.16060003638267517 14:-0.8751834034919739 15:-0.8741372227668762 16:1.0 17:0.0 18:0.0 19:0.0 20:0.0 21:-0.3333333432674408 22:0.0 23:0.0 24:-0.3333333432674408 25:0.0 26:0.0
0.07563127188468377 1:-0.3333333432674408 2:0.0 3:0.699999988079071 4:0.0 5:-1.0 6:0.0 7:-1.0 8:-1.0 9:-1.0 10:0.0 11:-1.0 12:0.0 13:-0.8273522853851318 14:-0.9829525947570801 15:-0.9994922876358032 16:-1.0 17:0.0 18:0.0 19:0.0 20:-1.0 21:-1.0 22:-1.0 23:-1.0 24:-1.0 25:-1.0 26:0.0
-0.07563127188468377 1:-0.3333333432674408 2:0.0 3:0.699999988079071 4:0.0 5:-1.0 6:0.0 7:1.0 8:-1.0 9:-1.0 10:0.0 11:-1.0 12:0.0 13:-0.75754314661026 14:-0.9876382350921631 15:-0.999729573726654 16:-1.0 17:0.0 18:0.0 19:0.0 20:-1.0 21:-1.0 22:-1.0 23:-1.0 24:-1.0 25:-1.0 26:0.0
0.07563127188468377 1:-0.3333333432674408 2:0.0 3:-0.5 4:0.0 5:1.0 6:0.0 7:-1.0 8:-1.0 9:-1.0 10:0.0 11:-1.0 12:0.0 13:-0.2990718185901642 14:-0.9732451438903809 15:-0.9969810247421265 16:1.0 17:0.0 18:0.0 19:0.0 20:-1.0 21:-1.0 22:-1.0 23:-1.0 24:-1.0 25:-1.0 26:0.0
-0.07563127188468377 1:-0.3333333432674408 2:0.0 3:-0.4000000059604645 4:0.0 5:-1.0 6:0.0 7:-1.0 8:-1.0 9:-1.0 10:0.0 11:-1.0 12:0.0 13:0.7441598773002625 14:-0.9924107789993286 15:-0.9999213814735413 16:1.0 17:0.0 18:0.0 19:0.0 20:0.0 21:-0.3333333432674408 22:0.0 23:0.0 24:-0.3333333432674408 25:0.0 26:0.0
-0.07563127188468377 1:-0.3333333432674408 2:0.0 3:-0.699999988079071 4:0.0 5:-1.0 6:0.0 7:-1.0 8:-1.0 9:-1.0 10:0.0 11:-1.0 12:0.0 13:0.5866537690162659 14:-0.9462639093399048 15:-0.9973242878913879 16:1.0 17:0.0 18:0.0 19:0.0 20:0.0 21:-0.3333333432674408 22:0.0 23:0.0 24:-0.3333333432674408 25:0.0 26:0.0
-0.07563127188468377 1:0.3333333432674408 2:0.0 3:-0.4000000059604645 4:0.0 5:-1.0 6:0.0 7:-1.0 8:-1.0 9:-1.0 10:0.0 11:-1.0 12:0.0 13:0.008370067924261093 14:-0.9677053093910217 15:-0.9979989528656006 16:1.0 17:0.0 18:0.0 19:0.0 20:0.0 21:-0.3333333432674408 22:0.0 23:0.0 24:-0.3333333432674408 25:0.0 26:0.0
0.07563127188468377 1:-1.0 2:0.0 3:-1.0 4:-1.0 5:1.0 6:0.0 7:1.0 8:-1.0 9:-1.0 10:0.0 11:-1.0 12:0.0 13:-0.5131543278694153 14:-0.9428722262382507 15:-0.9192541241645813 16:-1.0 17:0.0 18:0.0 19:0.0 20:-1.0 21:-1.0 22:-1.0 23:-1.0 24:-1.0 25:-1.0 26:0.0
0.07563127188468377 1:-0.3333333432674408 2:0.0 3:0.20000000298023224 4:0.0 5:1.0 6:0.0 7:-1.0 8:-1.0 9:-1.0 10:0.0 11:-1.0 12:0.0 13:-0.7931407690048218 14:-0.8784463405609131 15:-0.9864785075187683 16:-1.0 17:0.0 18:0.0 19:0.0 20:-1.0 21:-1.0 22:-1.0 23:-1.0 24:-1.0 25:-1.0 26:0.0
0.07563127188468377 1:-0.3333333432674408 2:0.0 3:0.0 4:0.0 5:1.0 6:0.0 7:-1.0 8:-1.0 9:-1.0 10:0.0 11:-1.0 12:0.0 13:-0.8868197798728943 14:-0.946071207523346 15:-0.9451639652252197 16:-1.0 17:0.0 18:0.0 19:0.0 20:-1.0 21:-1.0 22:-1.0 23:-1.0 24:-1.0 25:-1.0 26:0.0
-0.07563127188468377 1:-0.3333333432674408 2:0.0 3:0.10000000149011612 4:0.0 5:1.0 6:0.0 7:1.0 8:-1.0 9:-1.0 10:0.0 11:-1.0 12:0.0 13:-0.9181383848190308 14:-0.9741975665092468 15:-0.9881955981254578 16:-1.0 17:0.0 18:0.0 19:0.0 20:-1.0 21:-1.0 22:-1.0 23:-1.0 24:-1.0 25:-1.0 26:0.0
-0.07563127188468377 1:-0.3333333432674408 2:0.0 3:-0.20000000298023224 4:0.0 5:1.0 6:0.0 7:1.0 8:-1.0 9:-1.0 10:0.0 11:-1.0 12:0.0 13:-0.8152014017105103 14:-0.9840139746665955 15:-0.997292160987854 16:-1.0 17:0.0 18:0.0 19:0.0 20:-1.0 21:-1.0 22:-1.0 23:-1.0 24:-1.0 25:-1.0 26:0.0
0.07563127188468377 1:-0.3333333432674408 2:0.0 3:-0.6000000238418579 4:0.0 5:-1.0 6:0.0 7:-1.0 8:-1.0 9:-1.0 10:0.0 11:-1.0 12:0.0 13:-0.10895451158285141 14:-0.9899402260780334 15:-0.9995787739753723 16:-1.0 17:0.0 18:0.0 19:0.0 20:0.0 21:-0.3333333432674408 22:0.0 23:0.0 24:-0.3333333432674408 25:0.0 26:0.0
-0.07563127188468377 1:0.3333333432674408 2:0.0 3:-0.6000000238418579 4:0.0 5:-1.0 6:0.0 7:-1.0 8:-1.0 9:-1.0 10:0.0 11:-1.0 12:0.0 13:-0.40198761224746704 14:-0.9400741457939148 15:-0.9799421429634094 16:1.0 17:0.0 18:0.0 19:0.0 20:1.0 21:-0.3333333432674408 22:0.0 23:0.0 24:-0.3333333432674408 25:0.0 26:0.0
-0.07563127188468377 1:0.3333333432674408 2:0.0 3:-0.699999988079071 4:0.0 5:-1.0 6:0.0 7:-1.0 8:-1.0 9:-1.0 10:0.0 11:-1.0 12:0.0 13:-0.6093432307243347 14:-0.9813631772994995 15:-0.9981288909912109 16:1.0 17:0.0 18:0.0 19:0.0 20:0.0 21:-0.3333333432674408 22:0.0 23:0.0 24:-0.3333333432674408 25:0.0 26:0.0
-0.07563127188468377 1:-0.3333333432674408 2:0.0 3:-0.30000001192092896 4:0.0 5:-1.0 6:0.0 7:-1.0 8:-1.0 9:-1.0 10:0.0 11:-1.0 12:0.0 13:-0.32595476508140564 14:-0.9832703471183777 15:-0.9996981620788574 16:1.0 17:0.0 18:0.0 19:0.0 20:0.0 21:0.3333333432674408 22:0.0 23:0.0 24:-0.3333333432674408 25:0.0 26:0.0
-0.07563127188468377 1:0.3333333432674408 2:0.0 3:-0.10000000149011612 4:0.0 5:-1.0 6:0.0 7:-1.0 8:-1.0 9:-1.0 10:0.0 11:-1.0 12:0.0 13:-0.5671003460884094 14:-0.986025869846344 15:-0.999618649482727 16:1.0 17:0.0 18:0.0 19:0.0 20:0.0 21:-0.3333333432674408 22:0.0 23:-1.0 24:0.3333333432674408 25:0.0 26:0.0
0.07563127188468377 1:-0.3333333432674408 2:0.0 3:-0.4000000059604645 4:0.0 5:1.0 6:0.0 7:-1.0 8:-1.0 9:-1.0 10:0.0 11:-1.0 12:0.0 13:-0.31433260440826416 14:-0.9863626956939697 15:-0.9993194937705994 16:1.0 17:0.0 18:0.0 19:0.0 20:-1.0 21:-1.0 22:-1.0 23:-1.0 24:-1.0 25:-1.0 26:0.0
-0.07563127188468377 1:-1.0 2:0.0 3:-1.0 4:-1.0 5:1.0 6:0.0 7:-1.0 8:-1.0 9:-1.0 10:0.0 11:-1.0 12:0.0 13:-0.038281433284282684 14:-0.9929265379905701 15:-0.9999040961265564 16:-1.0 17:0.0 18:0.0 19:0.0 20:-1.0 21:-1.0 22:-1.0 23:-1.0 24:-1.0 25:-1.0 26:0.0
-0.07563127188468377 1:-1.0 2:0.0 3:-1.0 4:-1.0 5:1.0 6:0.0 7:-1.0 8:-1.0 9:-1.0 10:0.0 11:-1.0 12:0.0 13:0.1371682733297348 14:-0.9538286328315735 15:-0.9963127970695496 16:-1.0 17:0.0 18:0.0 19:0.0 20:-1.0 21:-0.3333333432674408 22:0.0 23:0.0 24:-0.3333333432674408 25:0.0 26:0.0
-0.07563127188468377 1:-1.0 2:0.0 3:-1.0 4:-1.0 5:1.0 6:0.0 7:-1.0 8:-1.0 9:-1.0 10:0.0 11:-1.0 12:0.0 13:-0.05594397336244583 14:0.9980989098548889 15:0.6548874378204346 16:-1.0 17:0.0 18:0.0 19:0.0 20:0.0 21:-1.0 22:-1.0 23:-1.0 24:-1.0 25:-1.0 26:0.0
-0.07563127188468377 1:-1.0 2:0.0 3:-1.0 4:-1.0 5:1.0 6:0.0 7:-1.0 8:-1.0 9:-1.0 10:0.0 11:-1.0 12:0.0 13:-0.7383064031600952 14:-0.9392716288566589 15:-0.9805446863174438 16:-1.0 17:0.0 18:0.0 19:0.0 20:0.0 21:-0.3333333432674408 22:-1.0 23:0.0 24:-1.0 25:-1.0 26:0.0
0.07563127188468377 1:1.0 2:0.0 3:-0.5 4:1.0 5:-1.0 6:0.0 7:-1.0 8:-1.0 9:-1.0 10:0.0 11:-1.0 12:0.0 13:0.062186237424612045 14:-0.9949095845222473 15:-0.9997327327728271 16:1.0 17:0.0 18:0.0 19:0.0 20:-1.0 21:-1.0 22:-1.0 23:0.0 24:-1.0 25:-1.0 26:0.0
0.07563127188468377 1:-0.3333333432674408 2:0.0 3:0.0 4:0.0 5:1.0 6:0.0 7:-1.0 8:-1.0 9:-1.0 10:0.0 11:-1.0 12:0.0 13:0.6494578123092651 14:-0.9959486722946167 15:-0.9999877214431763 16:-1.0 17:0.0 18:0.0 19:0.0 20:0.0 21:-0.3333333432674408 22:0.0 23:0.0 24:-0.3333333432674408 25:0.0 26:0.0
0.07563127188468377 1:-0.3333333432674408 2:0.0 3:0.6000000238418579 4:0.0 5:-1.0 6:0.0 7:-1.0 8:-1.0 9:-1.0 10:0.0 11:-1.0 12:0.0 13:-0.8284567594528198 14:-0.9687231779098511 15:-0.9938503503799438 16:1.0 17:0.0 18:0.0 19:0.0 20:0.0 21:-1.0 22:0.0 23:0.0 24:-0.3333333432674408 25:0.0 26:0.0
-0.07563127188468377 1:0.3333333432674408 2:0.0 3:-0.5 4:1.0 5:-1.0 6:0.0 7:1.0 8:-1.0 9:-1.0 10:0.0 11:-1.0 12:0.0 13:0.1556035876274109 14:-0.9909669756889343 15:-0.9998326897621155 16:1.0 17:0.0 18:0.0 19:0.0 20:0.0 21:-1.0 22:0.0 23:0.0 24:-0.3333333432674408 25:0.0 26:0.0
0.07563127188468377 1:-1.0 2:0.0 3:-1.0 4:-1.0 5:1.0 6:0.0 7:-1.0 8:-1.0 9:-1.0 10:0.0 11:-1.0 12:0.0 13:-0.6448094844818115 14:-0.6369398236274719 15:-0.7763840556144714 16:-1.0 17:0.0 18:0.0 19:0.0 20:0.0 21:-1.0 22:0.0 23:0.0 24:-1.0 25:0.0 26:0.0
-0.07563127188468377 1:0.3333333432674408 2:0.0 3:0.10000000149011612 4:0.0 5:-1.0 6:0.0 7:-1.0 8:-1.0 9:-1.0 10:0.0 11:-1.0 12:0.0 13:0.15263956785202026 14:-0.9913202524185181 15:-0.9999411106109619 16:1.0 17:0.0 18:0.0 19:0.0 20:-1.0 21:-1.0 22:-1.0 23:-1.0 24:-1.0 25:-1.0 26:0.0
0.07563127188468377 1:-1.0 2:0.0 3:-1.0 4:-1.0 5:1.0 6:0.0 7:-1.0 8:-1.0 9:-1.0 10:0.0 11:-1.0 12:0.0 13:-0.13475242257118225 14:-0.9853034019470215 15:-0.9999045729637146 16:-1.0 17:0.0 18:0.0 19:0.0 20:0.0 21:-0.3333333432674408 22:-1.0 23:-1.0 24:-0.3333333432674408 25:-1.0 26:0.0
-0.07563127188468377 1:-0.3333333432674408 2:0.0 3:-0.10000000149011612 4:0.0 5:1.0 6:0.0 7:-1.0 8:-1.0 9:-1.0 10:0.0 11:-1.0 12:0.0 13:-0.6390472650527954 14:-0.9538041353225708 15:-0.9972693920135498 16:-1.0 17:0.0 18:0.0 19:0.0 20:0.0 21:-1.0 22:-1.0 23:0.0 24:-0.3333333432674408 25:-1.0 26:0.0
-0.07563127188468377 1:-0.3333333432674408 2:0.0 3:0.5 4:0.0 5:1.0 6:0.0 7:-1.0 8:-1.0 9:-1.0 10:0.0 11:-1.0 12:0.0 13:-0.6373770236968994 14:-0.97486412525177 15:-0.999447762966156 16:-1.0 17:0.0 18:0.0 19:0.0 20:0.0 21:-1.0 22:-1.0 23:-1.0 24:-0.3333333432674408 25:-1.0 26:0.0
-0.07563127188468377 1:-0.3333333432674408 2:0.0 3:-0.6000000238418579 4:0.0 5:1.0 6:0.0 7:-1.0 8:-1.0 9:-1.0 10:0.0 11:-1.0 12:0.0 13:-0.7010392546653748 14:-0.9774616956710815 15:-0.9965180158615112 16:1.0 17:0.0 18:0.0 19:0.0 20:0.0 21:-1.0 22:-1.0 23:-1.0 24:-0.3333333432674408 25:-1.0 26:0.0
0.07563127188468377 1:-0.3333333432674408 2:0.0 3:-0.6000000238418579 4:0.0 5:1.0 6:0.0 7:-1.0 8:-1.0 9:-1.0 10:0.0 11:-1.0 12:0.0 13:-0.4169445037841797 14:-0.9452525973320007 15:-0.9694019556045532 16:1.0 17:0.0 18:0.0 19:0.0 20:-1.0 21:-1.0 22:-1.0 23:-1.0 24:-1.0 25:-1.0 26:0.0
0.07563127188468377 1:-0.3333333432674408 2:0.0 3:-0.5 4:0.0 5:-1.0 6:0.0 7:1.0 8:-1.0 9:-1.0 10:0.0 11:-1.0 12:0.0 13:-0.408060759305954 14:-0.9772775769233704 15:-0.9972824454307556 16:1.0 17:0.0 18:0.0 19:0.0 20:-1.0 21:-1.0 22:-1.0 23:-1.0 24:-1.0 25:-1.0 26:0.0
-0.07563127188468377 1:-0.3333333432674408 2:0.0 3:-0.5 4:0.0 5:-1.0 6:0.0 7:1.0 8:-1.0 9:-1.0 10:0.0 11:-1.0 12:0.0 13:0.2896632254123688 14:-0.9900610446929932 15:-0.9995349645614624 16:1.0 17:0.0 18:0.0 19:0.0 20:-1.0 21:-1.0 22:-1.0 23:-1.0 24:-1.0 25:-1.0 26:0.0
0.07563127188468377 1:-0.3333333432674408 2:0.0 3:-0.6000000238418579 4:0.0 5:1.0 6:0.0 7:-1.0 8:-1.0 9:-1.0 10:0.0 11:-1.0 12:0.0 13:-0.9638183116912842 14:-0.9041116237640381 15:-0.9134503602981567 16:-1.0 17:0.0 18:0.0 19:0.0 20:-1.0 21:-1.0 22:-1.0 23:-1.0 24:-0.3333333432674408 25:-1.0 26:0.0
-0.07563127188468377 1:-0.3333333432674408 2:0.0 3:-0.10000000149011612 4:0.0 5:-1.0 6:0.0 7:1.0 8:-1.0 9:-1.0 10:0.0 11:-1.0 12:0.0 13:-0.30846500396728516 14:-0.9948746562004089 15:-0.9999257922172546 16:-1.0 17:0.0 18:0.0 19:0.0 20:-1.0 21:-0.3333333432674408 22:0.0 23:0.0 24:-0.3333333432674408 25:0.0 26:0.0
-0.07563127188468377 1:-0.3333333432674408 2:0.0 3:-0.5 4:0.0 5:-1.0 6:0.0 7:1.0 8:-1.0 9:-1.0 10:0.0 11:-1.0 12:0.0 13:-0.7257370948791504 14:-0.9937574863433838 15:-0.9997999668121338 16:-1.0 17:0.0 18:0.0 19:0.0 20:-1.0 21:-1.0 22:0.0 23:0.0 24:-0.3333333432674408 25:0.0 26:0.0
-0.07563127188468377 1:-0.3333333432674408 2:0.0 3:0.10000000149011612 4:0.0 5:-1.0 6:0.0 7:1.0 8:-1.0 9:-1.0 10:0.0 11:-1.0 12:0.0 13:-0.6997945308685303 14:-0.9952927231788635 15:-0.9999129176139832 16:-1.0 17:0.0 18:0.0 19:0.0 20:-1.0 21:-0.3333333432674408 22:0.0 23:0.0 24:-0.3333333432674408 25:0.0 26:0.0
0.07563127188468377 1:-0.3333333432674408 2:0.0 3:-0.10000000149011612 4:0.0 5:1.0 6:0.0 7:-1.0 8:-1.0 9:-1.0 10:0.0 11:-1.0 12:0.0 13:-0.5952387452125549 14:-0.9368858337402344 15:-0.9912093877792358 16:1.0 17:0.0 18:0.0 19:0.0 20:0.0 21:-1.0 22:-1.0 23:-1.0 24:-0.3333333432674408 25:-1.0 26:0.0
0.07563127188468377 1:-0.3333333432674408 2:0.0 3:0.4000000059604645 4:0.0 5:1.0 6:0.0 7:-1.0 8:-1.0 9:-1.0 10:0.0 11:-1.0 12:0.0 13:-0.9340517520904541 14:-0.9818216562271118 15:-0.9967097043991089 16:1.0 17:0.0 18:0.0 19:0.0 20:-1.0 21:-1.0 22:-1.0 23:-1.0 24:-1.0 25:-1.0 26:0.0
0.07563127188468377 1:-0.3333333432674408 2:0.0 3:0.6000000238418579 4:0.0 5:1.0 6:0.0 7:-1.0 8:-1.0 9:-1.0 10:0.0 11:-1.0 12:0.0 13:-0.7644922733306885 14:-0.8478561639785767 15:-0.8995175957679749 16:1.0 17:0.0 18:0.0 19:0.0 20:-1.0 21:-1.0 22:-1.0 23:-1.0 24:-1.0 25:-1.0 26:0.0
-0.07563127188468377 1:-0.3333333432674408 2:0.0 3:0.699999988079071 4:0.0 5:1.0 6:0.0 7:-1.0 8:-1.0 9:-1.0 10:0.0 11:-1.0 12:0.0 13:-0.4597725570201874 14:-0.9880741834640503 15:-0.9997584819793701 16:1.0 17:0.0 18:0.0 19:0.0 20:-1.0 21:-1.0 22:-1.0 23:-1.0 24:-1.0 25:-1.0 26:0.0
0.07563127188468377 1:-0.3333333432674408 2:0.0 3:-0.4000000059604645 4:0.0 5:-1.0 6:0.0 7:1.0 8:-1.0 9:-1.0 10:0.0 11:-1.0 12:0.0 13:-0.3532610535621643 14:-0.8088763356208801 15:-0.9808209538459778 16:-1.0 17:0.0 18:0.0 19:0.0 20:-1.0 21:-0.3333333432674408 22:0.0 23:0.0 24:-0.3333333432674408 25:0.0 26:0.0
-0.07563127188468377 1:-0.3333333432674408 2:0.0 3:-0.5 4:0.0 5:1.0 6:0.0 7:-1.0 8:-1.0 9:-1.0 10:0.0 11:-1.0 12:0.0 13:-0.21817834675312042 14:-0.5970938205718994 15:-0.5647733807563782 16:1.0 17:0.0 18:0.0 19:0.0 20:-1.0 21:-1.0 22:-1.0 23:-1.0 24:-1.0 25:-1.0 26:0.0
0.07563127188468377 1:-1.0 2:0.0 3:-1.0 4:-1.0 5:1.0 6:0.0 7:-1.0 8:-1.0 9:-1.0 10:0.0 11:-1.0 12:0.0 13:-0.8449543118476868 14:-0.9278350472450256 15:-0.9447497129440308 16:-1.0 17:0.0 18:0.0 19:0.0 20:-1.0 21:-1.0 22:-1.0 23:-1.0 24:-1.0 25:-1.0 26:0.0
-0.07563127188468377 1:-0.3333333432674408 2:0.0 3:-0.5 4:0.0 5:-1.0 6:0.0 7:-1.0 8:-1.0 9:-1.0 10:0.0 11:-1.0 12:0.0 13:-0.7068812847137451 14:-0.982934832572937 15:-0.9984757900238037 16:-1.0 17:0.0 18:0.0 19:0.0 20:-1.0 21:-0.3333333432674408 22:0.0 23:0.0 24:-0.3333333432674408 25:0.0 26:0.0
-0.07563127188468377 1:-0.3333333432674408 2:0.0 3:0.10000000149011612 4:0.0 5:-1.0 6:0.0 7:1.0 8:-1.0 9:-1.0 10:0.0 11:-1.0 12:0.0 13:-0.07489808648824692 14:-0.9783841371536255 15:-0.999526858329773 16:1.0 17:0.0 18:0.0 19:0.0 20:0.0 21:-0.3333333432674408 22:0.0 23:0.0 24:-0.3333333432674408 25:0.0 26:0.0
-0.07563127188468377 1:0.3333333432674408 2:0.0 3:-0.4000000059604645 4:0.0 5:-1.0 6:0.0 7:-1.0 8:-1.0 9:-1.0 10:0.0 11:-1.0 12:0.0 13:0.1600210964679718 14:-0.9966562986373901 15:-0.9999698400497437 16:1.0 17:0.0 18:0.0 19:0.0 20:-1.0 21:-1.0 22:-1.0 23:-1.0 24:-1.0 25:-1.0 26:0.0
-0.07563127188468377 1:0.3333333432674408 2:0.0 3:-0.699999988079071 4:0.0 5:-1.0 6:0.0 7:-1.0 8:-1.0 9:-1.0 10:0.0 11:-1.0 12:0.0 13:-0.3873879313468933 14:-0.9902876019477844 15:-0.9984912872314453 16:1.0 17:0.0 18:0.0 19:0.0 20:-1.0 21:-1.0 22:-1.0 23:-1.0 24:-1.0 25:-1.0 26:0.0
-0.07563127188468377 1:-0.3333333432674408 2:0.0 3:-0.30000001192092896 4:0.0 5:-1.0 6:0.0 7:-1.0 8:-1.0 9:-1.0 10:0.0 11:-1.0 12:0.0 13:0.9725245833396912 14:-0.9786264300346375 15:-0.997329831123352 16:1.0 17:0.0 18:0.0 19:0.0 20:-1.0 21:-1.0 22:-1.0 23:-1.0 24:-1.0 25:-1.0 26:0.0
-0.07563127188468377 1:-0.3333333432674408 2:0.0 3:0.10000000149011612 4:0.0 5:-1.0 6:0.0 7:-1.0 8:-1.0 9:-1.0 10:0.0 11:-1.0 12:0.0 13:-0.685672402381897 14:-0.8271076679229736 15:-0.9133588075637817 16:1.0 17:0.0 18:0.0 19:0.0 20:0.0 21:0.3333333432674408 22:-1.0 23:0.0 24:-0.3333333432674408 25:-1.0 26:0.0
0.07563127188468377 1:-0.3333333432674408 2:0.0 3:0.0 4:0.0 5:1.0 6:0.0 7:-1.0 8:-1.0 9:-1.0 10:0.0 11:-1.0 12:0.0 13:-0.4898236393928528 14:-0.9808095097541809 15:-0.999052882194519 16:-1.0 17:0.0 18:0.0 19:0.0 20:-1.0 21:-1.0 22:0.0 23:0.0 24:-1.0 25:0.0 26:0.0
0.07563127188468377 1:-0.3333333432674408 2:0.0 3:0.5 4:0.0 5:1.0 6:0.0 7:-1.0 8:-1.0 9:-1.0 10:0.0 11:-1.0 12:0.0 13:-0.7688127756118774 14:-0.8817619681358337 15:-0.9600149989128113 16:1.0 17:0.0 18:0.0 19:0.0 20:-1.0 21:-1.0 22:0.0 23:0.0 24:-0.3333333432674408 25:0.0 26:0.0
0.07563127188468377 1:-0.3333333432674408 2:0.0 3:-0.4000000059604645 4:0.0 5:1.0 6:0.0 7:-1.0 8:-1.0 9:-1.0 10:0.0 11:-1.0 12:0.0 13:-0.46143674850463867 14:-0.6792923808097839 15:-0.5853346586227417 16:-1.0 17:0.0 18:0.0 19:0.0 20:-1.0 21:-0.3333333432674408 22:0.0 23:0.0 24:-0.3333333432674408 25:0.0 26:0.0
-0.00925906226659174 1:-1.0 2:0.0 3:-1.0 4:-1.0 5:-1.0 6:0.0 7:-1.0 8:-1.0 9:-1.0 10:0.0 11:-1.0 12:0.0 13:-0.44496458768844604 14:-0.9866136908531189 15:-0.9998494982719421 16:-1.0 17:0.0 18:0.0 19:0.0 20:-1.0 21:-1.0 22:-1.0 23:-1.0 24:-1.0 25:-1.0 26:0.0
-0.07563127188468377 1:-0.3333333432674408 2:0.0 3:-0.20000000298023224 4:0.0 5:1.0 6:0.0 7:-1.0 8:-1.0 9:-1.0 10:0.0 11:-1.0 12:0.0 13:-0.8428162336349487 14:-0.8939954042434692 15:-0.875329315662384 16:-1.0 17:0.0 18:0.0 19:0.0 20:-1.0 21:-0.3333333432674408 22:0.0 23:0.0 24:-0.3333333432674408 25:0.0 26:0.0
-0.07563127188468377 1:-0.3333333432674408 2:0.0 3:0.10000000149011612 4:0.0 5:1.0 6:0.0 7:1.0 8:-1.0 9:-1.0 10:0.0 11:-1.0 12:0.0 13:-0.09362728893756866 14:-0.9865133762359619 15:-0.9995139241218567 16:1.0 17:0.0 18:0.0 19:0.0 20:0.0 21:-0.3333333432674408 22:0.0 23:0.0 24:-0.3333333432674408 25:0.0 26:0.0
0.07563127188468377 1:-1.0 2:0.0 3:-1.0 4:-1.0 5:-1.0 6:0.0 7:-1.0 8:-1.0 9:-1.0 10:0.0 11:-1.0 12:0.0 13:-0.5021010041236877 14:-0.9849289059638977 15:-0.9998784065246582 16:1.0 17:0.0 18:0.0 19:0.0 20:-1.0 21:-0.3333333432674408 22:-1.0 23:-1.0 24:-1.0 25:-1.0 26:0.0
-0.07563127188468377 1:-1.0 2:0.0 3:-1.0 4:-1.0 5:1.0 6:0.0 7:-1.0 8:-1.0 9:-1.0 10:0.0 11:-1.0 12:0.0 13:-0.7777706980705261 14:-0.8635528683662415 15:-0.8682842254638672 16:-1.0 17:0.0 18:0.0 19:0.0 20:-1.0 21:-0.3333333432674408 22:0.0 23:0.0 24:-0.3333333432674408 25:0.0 26:0.0
-0.07563127188468377 1:-0.3333333432674408 2:0.0 3:-0.30000001192092896 4:0.0 5:1.0 6:0.0 7:-1.0 8:-1.0 9:-1.0 10:0.0 11:-1.0 12:0.0 13:-0.5833657383918762 14:-0.8976681232452393 15:-0.9789134860038757 16:-1.0 17:0.0 18:0.0 19:0.0 20:-1.0 21:-1.0 22:0.0 23:-1.0 24:-0.3333333432674408 25:0.0 26:0.0
-0.07563127188468377 1:-0.3333333432674408 2:0.0 3:-0.5 4:0.0 5:1.0 6:0.0 7:-1.0 8:-1.0 9:-1.0 10:0.0 11:-1.0 12:0.0 13:-0.47450360655784607 14:-0.9870396256446838 15:-0.9996986985206604 16:-1.0 17:0.0 18:0.0 19:0.0 20:-1.0 21:-0.3333333432674408 22:0.0 23:0.0 24:-0.3333333432674408 25:0.0 26:0.0
-0.07563127188468377 1:-0.3333333432674408 2:0.0 3:-0.30000001192092896 4:0.0 5:1.0 6:0.0 7:-1.0 8:-1.0 9:-1.0 10:0.0 11:-1.0 12:0.0 13:-0.8364431858062744 14:-0.9618940949440002 15:-0.9957549571990967 16:-1.0 17:0.0 18:0.0 19:0.0 20:-1.0 21:-0.3333333432674408 22:0.0 23:0.0 24:-0.3333333432674408 25:0.0 26:0.0
0.07563127188468377 1:-0.3333333432674408 2:0.0 3:0.20000000298023224 4:0.0 5:-1.0 6:0.0 7:-1.0 8:-1.0 9:-1.0 10:0.0 11:-1.0 12:0.0 13:0.05544132739305496 14:0.9999403953552246 15:0.6561220288276672 16:1.0 17:0.0 18:0.0 19:0.0 20:0.0 21:-1.0 22:-1.0 23:0.0 24:-1.0 25:-1.0 26:0.0
0.07563127188468377 1:-0.3333333432674408 2:0.0 3:0.10000000149011612 4:0.0 5:-1.0 6:0.0 7:-1.0 8:-1.0 9:-1.0 10:0.0 11:-1.0 12:0.0 13:-0.43384653329849243 14:-0.9783538579940796 15:-0.9963287115097046 16:1.0 17:0.0 18:0.0 19:0.0 20:0.0 21:-0.3333333432674408 22:-1.0 23:-1.0 24:-1.0 25:-1.0 26:0.0
0.07563127188468377 1:-0.3333333432674408 2:0.0 3:-0.5 4:0.0 5:-1.0 6:0.0 7:-1.0 8:-1.0 9:-1.0 10:0.0 11:-1.0 12:0.0 13:0.25125694274902344 14:-0.8914774060249329 15:-0.9855280518531799 16:-1.0 17:0.0 18:0.0 19:0.0 20:0.0 21:-0.3333333432674408 22:0.0 23:0.0 24:-0.3333333432674408 25:0.0 26:0.0
-0.07563127188468377 1:-0.3333333432674408 2:0.0 3:-0.5 4:0.0 5:-1.0 6:0.0 7:-1.0 8:-1.0 9:-1.0 10:0.0 11:-1.0 12:0.0 13:0.7790946364402771 14:-0.9245017766952515 15:-0.8714373707771301 16:1.0 17:0.0 18:0.0 19:0.0 20:0.0 21:-1.0 22:-1.0 23:-1.0 24:-1.0 25:-1.0 26:0.0
0.07563127188468377 1:-0.3333333432674408 2:0.0 3:-0.20000000298023224 4:0.0 5:1.0 6:0.0 7:1.0 8:-1.0 9:-1.0 10:0.0 11:-1.0 12:0.0 13:-0.7681106328964233 14:-0.9869101643562317 15:-0.9989563226699829 16:-1.0 17:0.0 18:0.0 19:0.0 20:0.0 21:-0.3333333432674408 22:0.0 23:0.0 24:-0.3333333432674408 25:0.0 26:0.0
-0.07563127188468377 1:-0.3333333432674408 2:0.0 3:0.0 4:0.0 5:-1.0 6:0.0 7:1.0 8:-1.0 9:-1.0 10:0.0 11:-1.0 12:0.0 13:-0.0322238989174366 14:-0.9977148175239563 15:-0.9999918341636658 16:1.0 17:0.0 18:0.0 19:0.0 20:0.0 21:-0.3333333432674408 22:0.0 23:0.0 24:-1.0 25:0.0 26:0.0
-0.07563127188468377 1:-0.3333333432674408 2:0.0 3:0.6000000238418579 4:0.0 5:-1.0 6:0.0 7:-1.0 8:-1.0 9:-1.0 10:0.0 11:-1.0 12:0.0 13:0.2620985507965088 14:-0.8856192827224731 15:-0.9942753314971924 16:1.0 17:0.0 18:0.0 19:0.0 20:0.0 21:-0.3333333432674408 22:-1.0 23:0.0 24:-0.3333333432674408 25:-1.0 26:0.0
-0.07563127188468377 1:-0.3333333432674408 2:0.0 3:-0.5 4:0.0 5:-1.0 6:0.0 7:1.0 8:-1.0 9:-1.0 10:0.0 11:-1.0 12:0.0 13:0.18470676243305206 14:-0.9789183735847473 15:-0.9991999864578247 16:1.0 17:0.0 18:0.0 19:0.0 20:0.0 21:-0.3333333432674408 22:0.0 23:0.0 24:-0.3333333432674408 25:0.0 26:0.0
-0.07563127188468377 1:-0.3333333432674408 2:0.0 3:-0.10000000149011612 4:0.0 5:-1.0 6:0.0 7:1.0 8:-1.0 9:-1.0 10:0.0 11:-1.0 12:0.0 13:-0.3732739984989166 14:-0.9965320229530334 15:-0.9999460577964783 16:1.0 17:0.0 18:0.0 19:0.0 20:0.0 21:-0.3333333432674408 22:0.0 23:0.0 24:-0.3333333432674408 25:0.0 26:0.0
0.07563127188468377 1:-0.3333333432674408 2:0.0 3:-0.699999988079071 4:0.0 5:-1.0 6:0.0 7:-1.0 8:-1.0 9:-1.0 10:0.0 11:-1.0 12:0.0 13:0.19859211146831512 14:-0.9805898666381836 15:-0.9994423985481262 16:-1.0 17:0.0 18:0.0 19:0.0 20:-1.0 21:-1.0 22:0.0 23:-1.0 24:-1.0 25:0.0 26:0.0
0.07563127188468377 1:-0.3333333432674408 2:0.0 3:-0.699999988079071 4:0.0 5:1.0 6:0.0 7:-1.0 8:-1.0 9:-1.0 10:0.0 11:-1.0 12:0.0 13:-0.4339177906513214 14:-0.9931711554527283 15:-0.9996370077133179 16:-1.0 17:0.0 18:0.0 19:0.0 20:0.0 21:-0.3333333432674408 22:0.0 23:-1.0 24:-0.3333333432674408 25:0.0 26:0.0
0.07563127188468377 1:-0.3333333432674408 2:0.0 3:-0.5 4:0.0 5:1.0 6:0.0 7:-1.0 8:-1.0 9:-1.0 10:0.0 11:-1.0 12:0.0 13:-0.6079441905021667 14:-0.9328668713569641 15:-0.9965110421180725 16:-1.0 17:0.0 18:0.0 19:0.0 20:0.0 21:-0.3333333432674408 22:0.0 23:-1.0 24:-0.3333333432674408 25:0.0 26:0.0
-0.07528558880835146 1:-1.0 2:0.0 3:-1.0 4:-1.0 5:1.0 6:0.0 7:-1.0 8:-1.0 9:-1.0 10:0.0 11:-1.0 12:0.0 13:-0.9029921889305115 14:-0.9688252806663513 15:-0.9839053750038147 16:-1.0 17:0.0 18:0.0 19:0.0 20:-1.0 21:-1.0 22:-1.0 23:-1.0 24:-1.0 25:-1.0 26:0.0
-0.07563127188468377 1:-1.0 2:0.0 3:-1.0 4:-1.0 5:1.0 6:0.0 7:-1.0 8:-1.0 9:-1.0 10:0.0 11:-1.0 12:0.0 13:-0.23543769121170044 14:-0.9984345436096191 15:-0.9999932050704956 16:-1.0 17:0.0 18:0.0 19:0.0 20:-1.0 21:-1.0 22:-1.0 23:-1.0 24:-1.0 25:-1.0 26:0.0
0.07563127188468377 1:-0.3333333432674408 2:0.0 3:-0.30000001192092896 4:0.0 5:-1.0 6:0.0 7:1.0 8:-1.0 9:-1.0 10:0.0 11:-1.0 12:0.0 13:-0.08234088122844696 14:-0.9965627789497375 15:-0.9999779462814331 16:1.0 17:0.0 18:0.0 19:0.0 20:-1.0 21:-1.0 22:-1.0 23:-1.0 24:-1.0 25:-1.0 26:0.0
-0.07563127188468377 1:-0.3333333432674408 2:0.0 3:-0.4000000059604645 4:0.0 5:1.0 6:0.0 7:-1.0 8:-1.0 9:-1.0 10:0.0 11:-1.0 12:0.0 13:-0.7035613059997559 14:-0.5423678755760193 15:-0.12879610061645508 16:-1.0 17:0.0 18:0.0 19:0.0 20:0.0 21:-0.3333333432674408 22:0.0 23:0.0 24:-0.3333333432674408 25:0.0 26:0.0
-0.07563127188468377 1:-0.3333333432674408 2:0.0 3:-0.699999988079071 4:0.0 5:1.0 6:0.0 7:-1.0 8:-1.0 9:-1.0 10:0.0 11:-1.0 12:0.0 13:0.7183577418327332 14:-0.9916276335716248 15:-0.9999682903289795 16:-1.0 17:0.0 18:0.0 19:0.0 20:0.0 21:-0.3333333432674408 22:0.0 23:-1.0 24:-0.3333333432674408 25:0.0 26:0.0
-0.07563127188468377 1:-0.3333333432674408 2:0.0 3:-0.5 4:0.0 5:-1.0 6:0.0 7:-1.0 8:-1.0 9:-1.0 10:0.0 11:-1.0 12:0.0 13:-0.6760930418968201 14:-0.45024725794792175 15:0.46518436074256897 16:-1.0 17:0.0 18:0.0 19:0.0 20:0.0 21:-0.3333333432674408 22:0.0 23:-1.0 24:-0.3333333432674408 25:0.0 26:0.0
0.07563127188468377 1:-0.3333333432674408 2:0.0 3:-0.699999988079071 4:0.0 5:-1.0 6:0.0 7:-1.0 8:-1.0 9:-1.0 10:0.0 11:-1.0 12:0.0 13:0.12349845468997955 14:-0.9961650967597961 15:-0.9999861121177673 16:1.0 17:0.0 18:0.0 19:0.0 20:-1.0 21:-1.0 22:-1.0 23:-1.0 24:-1.0 25:-1.0 26:0.0
0.07563127188468377 1:-1.0 2:0.0 3:-1.0 4:-1.0 5:1.0 6:0.0 7:-1.0 8:-1.0 9:-1.0 10:0.0 11:-1.0 12:0.0 13:-0.4201347529888153 14:-0.9536473155021667 15:-0.9972654581069946 16:-1.0 17:0.0 18:0.0 19:0.0 20:-1.0 21:-1.0 22:-1.0 23:-1.0 24:-1.0 25:-1.0 26:0.0
0.07563127188468377 1:-1.0 2:0.0 3:-1.0 4:-1.0 5:-1.0 6:0.0 7:1.0 8:-1.0 9:-1.0 10:0.0 11:-1.0 12:0.0 13:-0.14163333177566528 14:-0.9473031759262085 15:-0.9975845217704773 16:1.0 17:0.0 18:0.0 19:0.0 20:-1.0 21:-1.0 22:-1.0 23:-1.0 24:-0.3333333432674408 25:-1.0 26:0.0
0.07563127188468377 1:-0.3333333432674408 2:0.0 3:0.10000000149011612 4:0.0 5:-1.0 6:0.0 7:-1.0 8:-1.0 9:-1.0 10:0.0 11:-1.0 12:0.0 13:-0.21204107999801636 14:-0.9931395649909973 15:-0.999962329864502 16:1.0 17:0.0 18:0.0 19:0.0 20:-1.0 21:-0.3333333432674408 22:0.0 23:0.0 24:-0.3333333432674408 25:0.0 26:0.0
0.07563127188468377 1:-0.3333333432674408 2:0.0 3:-0.5 4:0.0 5:-1.0 6:0.0 7:-1.0 8:-1.0 9:-1.0 10:0.0 11:-1.0 12:0.0 13:0.6125907897949219 14:-0.9596031904220581 15:-0.9992245435714722 16:-1.0 17:0.0 18:0.0 19:0.0 20:0.0 21:-0.3333333432674408 22:0.0 23:0.0 24:-0.3333333432674408 25:0.0 26:0.0
0.07563127188468377 1:-0.3333333432674408 2:0.0 3:-0.20000000298023224 4:0.0 5:1.0 6:0.0 7:-1.0 8:-1.0 9:-1.0 10:0.0 11:-1.0 12:0.0 13:0.0751781240105629 14:-0.975770115852356 15:-0.9995778799057007 16:-1.0 17:0.0 18:0.0 19:0.0 20:0.0 21:-0.3333333432674408 22:0.0 23:0.0 24:-0.3333333432674408 25:0.0 26:0.0
0.07563127188468377 1:-0.3333333432674408 2:0.0 3:0.5 4:0.0 5:1.0 6:0.0 7:-1.0 8:-1.0 9:-1.0 10:0.0 11:-1.0 12:0.0 13:0.5549254417419434 14:-0.9961274862289429 15:-0.9999867677688599 16:-1.0 17:0.0 18:0.0 19:0.0 20:0.0 21:-1.0 22:0.0 23:0.0 24:-0.3333333432674408 25:0.0 26:0.0
-0.07563127188468377 1:-0.3333333432674408 2:0.0 3:-0.5 4:0.0 5:1.0 6:0.0 7:1.0 8:-1.0 9:-1.0 10:0.0 11:-1.0 12:0.0 13:-0.903523862361908 14:-0.4884312152862549 15:-0.518737256526947 16:-1.0 17:0.0 18:0.0 19:0.0 20:-1.0 21:-1.0 22:-1.0 23:-1.0 24:-1.0 25:-1.0 26:0.0
-0.07563127188468377 1:-0.3333333432674408 2:0.0 3:-0.20000000298023224 4:0.0 5:1.0 6:0.0 7:-1.0 8:-1.0 9:-1.0 10:0.0 11:-1.0 12:0.0 13:0.08714128285646439 14:-0.9593376517295837 15:-0.997954785823822 16:-1.0 17:0.0 18:0.0 19:0.0 20:0.0 21:-0.3333333432674408 22:0.0 23:0.0 24:-0.3333333432674408 25:0.0 26:0.0
0.07563127188468377 1:0.3333333432674408 2:0.0 3:0.800000011920929 4:0.0 5:-1.0 6:0.0 7:-1.0 8:-1.0 9:-1.0 10:0.0 11:-1.0 12:0.0 13:-0.6189817786216736 14:-0.9255952835083008 15:-0.9959211349487305 16:1.0 17:0.0 18:0.0 19:0.0 20:-1.0 21:-1.0 22:-1.0 23:-1.0 24:-1.0 25:-1.0 26:0.0
0.07563127188468377 1:0.3333333432674408 2:0.0 3:-0.4000000059604645 4:0.0 5:-1.0 6:0.0 7:-1.0 8:-1.0 9:-1.0 10:0.0 11:-1.0 12:0.0 13:-0.6406124830245972 14:-0.8368369936943054 15:-0.9464417695999146 16:1.0 17:0.0 18:0.0 19:0.0 20:-1.0 21:-1.0 22:-1.0 23:-1.0 24:-1.0 25:-1.0 26:0.0
0.07563127188468377 1:-0.3333333432674408 2:0.0 3:0.4000000059604645 4:0.0 5:-1.0 6:0.0 7:-1.0 8:-1.0 9:-1.0 10:0.0 11:-1.0 12:0.0 13:-0.5027912259101868 14:-0.5840281248092651 15:-0.7420772314071655 16:1.0 17:0.0 18:0.0 19:0.0 20:-1.0 21:-1.0 22:-1.0 23:-1.0 24:-1.0 25:-1.0 26:0.0
-0.07563127188468377 1:0.3333333432674408 2:0.0 3:-0.6000000238418579 4:1.0 5:-1.0 6:0.0 7:-1.0 8:-1.0 9:-1.0 10:0.0 11:-1.0 12:0.0 13:-0.6454277634620667 14:-0.9830269813537598 15:-0.9990965127944946 16:1.0 17:0.0 18:0.0 19:0.0 20:-1.0 21:-1.0 22:0.0 23:-1.0 24:-0.3333333432674408 25:0.0 26:0.0
-0.07563127188468377 1:-0.3333333432674408 2:0.0 3:-0.4000000059604645 4:0.0 5:-1.0 6:0.0 7:-1.0 8:-1.0 9:-1.0 10:0.0 11:-1.0 12:0.0 13:0.10656469315290451 14:-0.7237277626991272 15:-0.9632848501205444 16:1.0 17:0.0 18:0.0 19:0.0 20:0.0 21:-1.0 22:0.0 23:-1.0 24:-0.3333333432674408 25:0.0 26:0.0
0.07563127188468377 1:-0.3333333432674408 2:0.0 3:-0.30000001192092896 4:0.0 5:1.0 6:0.0 7:-1.0 8:-1.0 9:-1.0 10:0.0 11:-1.0 12:0.0 13:-0.46036311984062195 14:-0.9340713024139404 15:-0.9980753064155579 16:-1.0 17:0.0 18:0.0 19:0.0 20:0.0 21:-0.3333333432674408 22:0.0 23:0.0 24:-0.3333333432674408 25:0.0 26:0.0
0.07563127188468377 1:-0.3333333432674408 2:0.0 3:-0.4000000059604645 4:0.0 5:1.0 6:0.0 7:-1.0 8:-1.0 9:-1.0 10:0.0 11:-1.0 12:0.0 13:0.12055396288633347 14:-0.8149552345275879 15:-0.9789168238639832 16:-1.0 17:0.0 18:0.0 19:0.0 20:0.0 21:-0.3333333432674408 22:0.0 23:0.0 24:-0.3333333432674408 25:0.0 26:0.0
0.07563127188468377 1:-0.3333333432674408 2:0.0 3:-0.4000000059604645 4:0.0 5:1.0 6:0.0 7:-1.0 8:-1.0 9:-1.0 10:0.0 11:-1.0 12:0.0 13:0.08508564531803131 14:-0.9476932287216187 15:-0.9956794381141663 16:-1.0 17:0.0 18:0.0 19:0.0 20:0.0 21:-0.3333333432674408 22:0.0 23:0.0 24:-0.3333333432674408 25:0.0 26:0.0
-0.07563127188468377 1:-0.3333333432674408 2:0.0 3:0.20000000298023224 4:0.0 5:1.0 6:0.0 7:-1.0 8:-1.0 9:-1.0 10:0.0 11:-1.0 12:0.0 13:-0.6302334070205688 14:-0.9293337464332581 15:-0.993758499622345 16:-1.0 17:0.0 18:0.0 19:0.0 20:-1.0 21:-1.0 22:-1.0 23:0.0 24:-1.0 25:-1.0 26:0.0
-0.07563127188468377 1:-0.3333333432674408 2:0.0 3:0.4000000059604645 4:0.0 5:1.0 6:0.0 7:-1.0 8:-1.0 9:-1.0 10:0.0 11:-1.0 12:0.0 13:-0.40759745240211487 14:-0.9924055933952332 15:-0.9997954964637756 16:-1.0 17:0.0 18:0.0 19:0.0 20:-1.0 21:-1.0 22:-1.0 23:-1.0 24:-1.0 25:-1.0 26:0.0
-0.07563127188468377 1:-0.3333333432674408 2:0.0 3:0.30000001192092896 4:0.0 5:1.0 6:0.0 7:-1.0 8:-1.0 9:-1.0 10:0.0 11:-1.0 12:0.0 13:0.08465862274169922 14:-0.9980912804603577 15:-0.9999942779541016 16:-1.0 17:0.0 18:0.0 19:0.0 20:-1.0 21:-1.0 22:-1.0 23:-1.0 24:-1.0 25:-1.0 26:0.0
-0.07563127188468377 1:-0.3333333432674408 2:0.0 3:0.20000000298023224 4:0.0 5:1.0 6:0.0 7:-1.0 8:-1.0 9:-1.0 10:0.0 11:-1.0 12:0.0 13:0.5625255703926086 14:-0.9869707822799683 15:-0.9989537596702576 16:-1.0 17:0.0 18:0.0 19:0.0 20:-1.0 21:-1.0 22:-1.0 23:-1.0 24:-1.0 25:-1.0 26:0.0
0.07563127188468377 1:-0.3333333432674408 2:0.0 3:-0.5 4:0.0 5:-1.0 6:0.0 7:1.0 8:-1.0 9:-1.0 10:0.0 11:-1.0 12:0.0 13:-0.7559930086135864 14:-0.9683687686920166 15:-0.996792733669281 16:1.0 17:0.0 18:0.0 19:0.0 20:0.0 21:-0.3333333432674408 22:0.0 23:-1.0 24:-0.3333333432674408 25:0.0 26:0.0
0.07563127188468377 1:-0.3333333432674408 2:0.0 3:-0.699999988079071 4:0.0 5:-1.0 6:0.0 7:-1.0 8:-1.0 9:-1.0 10:0.0 11:-1.0 12:0.0 13:-0.4666401743888855 14:-0.9391246438026428 15:-0.9958081245422363 16:1.0 17:0.0 18:0.0 19:0.0 20:-1.0 21:-0.3333333432674408 22:0.0 23:-1.0 24:-0.3333333432674408 25:0.0 26:0.0
0.07563127188468377 1:-1.0 2:0.0 3:-1.0 4:-1.0 5:-1.0 6:0.0 7:-1.0 8:-1.0 9:-1.0 10:0.0 11:-1.0 12:0.0 13:-0.2653394937515259 14:0.7904725074768066 15:0.4689221978187561 16:1.0 17:0.0 18:0.0 19:0.0 20:0.0 21:-1.0 22:0.0 23:0.0 24:-0.3333333432674408 25:0.0 26:0.0
-0.07563127188468377 1:-0.3333333432674408 2:0.0 3:0.20000000298023224 4:0.0 5:-1.0 6:0.0 7:-1.0 8:-1.0 9:-1.0 10:0.0 11:-1.0 12:0.0 13:-0.4167046844959259 14:-0.9922314882278442 15:-0.9999125599861145 16:-1.0 17:0.0 18:0.0 19:0.0 20:-1.0 21:-1.0 22:-1.0 23:-1.0 24:-1.0 25:-1.0 26:0.0
0.07563127188468377 1:-0.3333333432674408 2:0.0 3:0.10000000149011612 4:0.0 5:1.0 6:0.0 7:-1.0 8:-1.0 9:-1.0 10:0.0 11:-1.0 12:0.0 13:0.24242427945137024 14:-0.9864707589149475 15:-0.99985271692276 16:-1.0 17:0.0 18:0.0 19:0.0 20:-1.0 21:-1.0 22:-1.0 23:-1.0 24:-1.0 25:-1.0 26:0.0
-0.07563127188468377 1:-0.3333333432674408 2:0.0 3:-0.800000011920929 4:0.0 5:-1.0 6:0.0 7:-1.0 8:-1.0 9:-1.0 10:0.0 11:-1.0 12:0.0 13:-0.25386911630630493 14:-0.931879997253418 15:-0.9593542218208313 16:1.0 17:0.0 18:0.0 19:0.0 20:0.0 21:-0.3333333432674408 22:0.0 23:-1.0 24:-0.3333333432674408 25:0.0 26:0.0
-0.07563127188468377 1:-0.3333333432674408 2:0.0 3:-0.5 4:0.0 5:-1.0 6:0.0 7:-1.0 8:-1.0 9:-1.0 10:0.0 11:-1.0 12:0.0 13:-0.7603852152824402 14:-0.9683326482772827 15:-0.997965395450592 16:1.0 17:0.0 18:0.0 19:0.0 20:0.0 21:0.3333333432674408 22:0.0 23:0.0 24:-0.3333333432674408 25:0.0 26:0.0
0.07563127188468377 1:0.3333333432674408 2:0.0 3:0.0 4:0.0 5:1.0 6:0.0 7:-1.0 8:-1.0 9:-1.0 10:0.0 11:-1.0 12:0.0 13:-0.688068151473999 14:-0.9986337423324585 15:-0.9999544620513916 16:-1.0 17:0.0 18:0.0 19:0.0 20:-1.0 21:-1.0 22:-1.0 23:-1.0 24:-1.0 25:-1.0 26:0.0
0.07563127188468377 1:-0.3333333432674408 2:0.0 3:0.10000000149011612 4:0.0 5:1.0 6:0.0 7:-1.0 8:-1.0 9:-1.0 10:0.0 11:-1.0 12:0.0 13:-0.7295185327529907 14:-0.9876921772956848 15:-0.9984103441238403 16:-1.0 17:0.0 18:0.0 19:0.0 20:-1.0 21:-1.0 22:-1.0 23:-1.0 24:-1.0 25:-1.0 26:0.0
0.07563127188468377 1:-0.3333333432674408 2:0.0 3:0.0 4:0.0 5:1.0 6:0.0 7:-1.0 8:-1.0 9:-1.0 10:0.0 11:-1.0 12:0.0 13:-0.6910165548324585 14:-0.978541910648346 15:-0.999199390411377 16:-1.0 17:0.0 18:0.0 19:0.0 20:-1.0 21:-1.0 22:-1.0 23:-1.0 24:-1.0 25:-1.0 26:0.0
-0.07563127188468377 1:-0.3333333432674408 2:0.0 3:0.699999988079071 4:0.0 5:-1.0 6:0.0 7:-1.0 8:-1.0 9:-1.0 10:0.0 11:-1.0 12:0.0 13:-0.4280661344528198 14:-0.9922250509262085 15:-0.9997625350952148 16:-1.0 17:0.0 18:0.0 19:0.0 20:-1.0 21:-1.0 22:-1.0 23:-1.0 24:-1.0 25:-1.0 26:0.0
0.07563127188468377 1:-1.0 2:0.0 3:-1.0 4:-1.0 5:-1.0 6:0.0 7:-1.0 8:-1.0 9:-1.0 10:0.0 11:-1.0 12:0.0 13:0.23851709067821503 14:-0.998253345489502 15:-0.9999694228172302 16:1.0 17:0.0 18:0.0 19:0.0 20:-1.0 21:-1.0 22:-1.0 23:-1.0 24:-1.0 25:-1.0 26:0.0
0.07563127188468377 1:-0.3333333432674408 2:0.0 3:-0.30000001192092896 4:0.0 5:-1.0 6:0.0 7:-1.0 8:-1.0 9:-1.0 10:0.0 11:-1.0 12:0.0 13:-0.06849712133407593 14:-0.9928047060966492 15:-0.9999735355377197 16:1.0 17:0.0 18:0.0 19:0.0 20:0.0 21:-1.0 22:0.0 23:0.0 24:-0.3333333432674408 25:0.0 26:0.0
0.07563127188468377 1:-0.3333333432674408 2:0.0 3:-0.800000011920929 4:0.0 5:-1.0 6:0.0 7:-1.0 8:-1.0 9:-1.0 10:0.0 11:-1.0 12:0.0 13:-0.6489138603210449 14:-0.9672788977622986 15:-0.9948840141296387 16:-1.0 17:0.0 18:0.0 19:0.0 20:-1.0 21:-1.0 22:-1.0 23:-1.0 24:-1.0 25:-1.0 26:0.0
-0.07563127188468377 1:-1.0 2:0.0 3:-1.0 4:-1.0 5:-1.0 6:0.0 7:-1.0 8:-1.0 9:-1.0 10:0.0 11:-1.0 12:0.0 13:-0.03823748975992203 14:1.0 15:0.6566369533538818 16:-1.0 17:0.0 18:0.0 19:0.0 20:-1.0 21:-1.0 22:-1.0 23:-1.0 24:-1.0 25:-1.0 26:0.0
0.07563127188468377 1:-0.3333333432674408 2:0.0 3:-0.5 4:0.0 5:-1.0 6:0.0 7:-1.0 8:-1.0 9:-1.0 10:0.0 11:-1.0 12:0.0 13:-0.5812675356864929 14:-0.9678857326507568 15:-0.9882144927978516 16:1.0 17:0.0 18:0.0 19:0.0 20:0.0 21:-0.3333333432674408 22:0.0 23:-1.0 24:-0.3333333432674408 25:0.0 26:0.0
-0.07563127188468377 1:-0.3333333432674408 2:0.0 3:-0.20000000298023224 4:0.0 5:1.0 6:0.0 7:-1.0 8:-1.0 9:-1.0 10:0.0 11:-1.0 12:0.0 13:-0.489853173494339 14:-0.930625319480896 15:-0.996344804763794 16:1.0 17:0.0 18:0.0 19:0.0 20:0.0 21:-0.3333333432674408 22:0.0 23:0.0 24:-0.3333333432674408 25:0.0 26:0.0
0.07563127188468377 1:-1.0 2:0.0 3:-1.0 4:-1.0 5:-1.0 6:0.0 7:-1.0 8:-1.0 9:-1.0 10:0.0 11:-1.0 12:0.0 13:-0.651892364025116 14:-0.8641929626464844 15:-0.98213130235672 16:-1.0 17:0.0 18:0.0 19:0.0 20:-1.0 21:-0.3333333432674408 22:-1.0 23:-1.0 24:-1.0 25:-1.0 26:0.0
-0.07563127188468377 1:-0.3333333432674408 2:0.0 3:0.10000000149011612 4:0.0 5:-1.0 6:0.0 7:1.0 8:-1.0 9:-1.0 10:0.0 11:-1.0 12:0.0 13:0.04054521396756172 14:-0.982405424118042 15:-0.9997401237487793 16:-1.0 17:0.0 18:0.0 19:0.0 20:0.0 21:-0.3333333432674408 22:0.0 23:-1.0 24:-1.0 25:0.0 26:0.0
0.07563127188468377 1:-0.3333333432674408 2:0.0 3:0.10000000149011612 4:0.0 5:-1.0 6:0.0 7:-1.0 8:-1.0 9:-1.0 10:0.0 11:-1.0 12:0.0 13:-0.23667320609092712 14:-0.9915422797203064 15:-0.9995238780975342 16:1.0 17:0.0 18:0.0 19:0.0 20:0.0 21:-1.0 22:0.0 23:0.0 24:-0.3333333432674408 25:0.0 26:0.0
-0.07563127188468377 1:-0.3333333432674408 2:0.0 3:-0.800000011920929 4:0.0 5:1.0 6:0.0 7:-1.0 8:-1.0 9:-1.0 10:0.0 11:-1.0 12:0.0 13:-0.80642169713974 14:-0.835852861404419 15:-0.960303783416748 16:1.0 17:0.0 18:0.0 19:0.0 20:0.0 21:-0.3333333432674408 22:0.0 23:0.0 24:-0.3333333432674408 25:0.0 26:0.0
-0.07563127188468377 1:-1.0 2:0.0 3:-1.0 4:-1.0 5:1.0 6:0.0 7:-1.0 8:-1.0 9:-1.0 10:0.0 11:-1.0 12:0.0 13:-0.3956478536128998 14:-0.9624365568161011 15:-0.9951419234275818 16:1.0 17:0.0 18:0.0 19:0.0 20:0.0 21:-0.3333333432674408 22:0.0 23:0.0 24:-0.3333333432674408 25:0.0 26:0.0
-0.07563127188468377 1:-0.3333333432674408 2:0.0 3:0.20000000298023224 4:0.0 5:1.0 6:0.0 7:-1.0 8:-1.0 9:-1.0 10:0.0 11:-1.0 12:0.0 13:-0.773921549320221 14:-0.9887434840202332 15:-0.9994833469390869 16:1.0 17:0.0 18:0.0 19:0.0 20:0.0 21:-0.3333333432674408 22:-1.0 23:-1.0 24:-1.0 25:-1.0 26:0.0
0.07563127188468377 1:-1.0 2:0.0 3:-1.0 4:-1.0 5:-1.0 6:0.0 7:-1.0 8:-1.0 9:-1.0 10:0.0 11:-1.0 12:0.0 13:-0.37346816062927246 14:-0.7224156856536865 15:-0.9516193866729736 16:-1.0 17:0.0 18:0.0 19:0.0 20:0.0 21:-1.0 22:-1.0 23:-1.0 24:-1.0 25:-1.0 26:0.0
0.07563127188468377 1:-1.0 2:0.0 3:-1.0 4:-1.0 5:-1.0 6:0.0 7:-1.0 8:-1.0 9:-1.0 10:0.0 11:-1.0 12:0.0 13:-0.5967323780059814 14:-0.9880280494689941 15:-0.999847412109375 16:-1.0 17:0.0 18:0.0 19:0.0 20:0.0 21:-0.3333333432674408 22:-1.0 23:-1.0 24:-1.0 25:-1.0 26:0.0
0.07563127188468377 1:-0.3333333432674408 2:0.0 3:-0.10000000149011612 4:0.0 5:-1.0 6:0.0 7:-1.0 8:-1.0 9:-1.0 10:0.0 11:-1.0 12:0.0 13:0.6557086706161499 14:-0.8866759538650513 15:-0.9320384860038757 16:-1.0 17:0.0 18:0.0 19:0.0 20:-1.0 21:-1.0 22:-1.0 23:-1.0 24:-1.0 25:-1.0 26:0.0
0.07563127188468377 1:-0.3333333432674408 2:0.0 3:0.6000000238418579 4:0.0 5:-1.0 6:0.0 7:-1.0 8:-1.0 9:-1.0 10:0.0 11:-1.0 12:0.0 13:-0.19717150926589966 14:-0.87432861328125 15:-0.9766367673873901 16:-1.0 17:0.0 18:0.0 19:0.0 20:-1.0 21:-1.0 22:-1.0 23:-1.0 24:-1.0 25:-1.0 26:0.0
-0.07563127188468377 1:-1.0 2:0.0 3:-1.0 4:-1.0 5:-1.0 6:0.0 7:-1.0 8:-1.0 9:-1.0 10:0.0 11:-1.0 12:0.0 13:0.43230485916137695 14:-0.9965274333953857 15:-0.9999662637710571 16:-1.0 17:0.0 18:0.0 19:0.0 20:-1.0 21:-1.0 22:-1.0 23:-1.0 24:-1.0 25:-1.0 26:0.0
0.07563127188468377 1:-0.3333333432674408 2:0.0 3:0.20000000298023224 4:0.0 5:1.0 6:0.0 7:1.0 8:1.0 9:1.0 10:0.0 11:1.0 12:0.0 13:-0.32912957668304443 14:-0.9916627407073975 15:-0.9999101758003235 16:-1.0 17:0.0 18:0.0 19:0.0 20:-1.0 21:-1.0 22:-1.0 23:-1.0 24:-1.0 25:-1.0 26:0.0
-0.07563127188468377 1:0.3333333432674408 2:0.0 3:-0.5 4:1.0 5:-1.0 6:0.0 7:-1.0 8:-1.0 9:-1.0 10:0.0 11:-1.0 12:0.0 13:-0.23515193164348602 14:-0.9901337623596191 15:-0.9998795986175537 16:-1.0 17:0.0 18:0.0 19:0.0 20:-1.0 21:-1.0 22:-1.0 23:-1.0 24:-1.0 25:-1.0 26:0.0
-0.07563127188468377 1:-0.3333333432674408 2:0.0 3:0.0 4:0.0 5:-1.0 6:0.0 7:1.0 8:-1.0 9:-1.0 10:0.0 11:-1.0 12:0.0 13:-0.8040728569030762 14:-0.9921242594718933 15:-0.9996123909950256 16:-1.0 17:0.0 18:0.0 19:0.0 20:-1.0 21:-1.0 22:-1.0 23:-1.0 24:-1.0 25:-1.0 26:0.0
0.07563127188468377 1:-0.3333333432674408 2:0.0 3:0.10000000149011612 4:0.0 5:1.0 6:0.0 7:-1.0 8:-1.0 9:-1.0 10:0.0 11:-1.0 12:0.0 13:-0.408145934343338 14:-0.955000638961792 15:-0.9864512085914612 16:-1.0 17:0.0 18:0.0 19:0.0 20:-1.0 21:-1.0 22:-1.0 23:-1.0 24:-1.0 25:-1.0 26:0.0
-0.07563127188468377 1:-0.3333333432674408 2:0.0 3:-0.6000000238418579 4:0.0 5:-1.0 6:0.0 7:-1.0 8:-1.0 9:-1.0 10:0.0 11:-1.0 12:0.0 13:-0.8082220554351807 14:-0.9557657837867737 15:-0.9931375980377197 16:-1.0 17:0.0 18:0.0 19:0.0 20:0.0 21:-0.3333333432674408 22:0.0 23:0.0 24:-0.3333333432674408 25:0.0 26:0.0
0.07563127188468377 1:-0.3333333432674408 2:0.0 3:-0.6000000238418579 4:0.0 5:1.0 6:0.0 7:-1.0 8:-1.0 9:-1.0 10:0.0 11:-1.0 12:0.0 13:0.3796379268169403 14:-0.999095618724823 15:-0.9999960064888 16:-1.0 17:0.0 18:0.0 19:0.0 20:-1.0 21:-1.0 22:-1.0 23:-1.0 24:-1.0 25:-1.0 26:0.0
-0.07563127188468377 1:-1.0 2:0.0 3:-1.0 4:-1.0 5:1.0 6:0.0 7:-1.0 8:-1.0 9:-1.0 10:0.0 11:-1.0 12:0.0 13:-0.8105317950248718 14:-0.9765530824661255 15:-0.9962467551231384 16:1.0 17:0.0 18:0.0 19:0.0 20:0.0 21:-1.0 22:0.0 23:-1.0 24:-0.3333333432674408 25:0.0 26:0.0
